~o
<STREAMINFO> 1 25
<VECSIZE> 25<NULLD><MFCC_D_N_Z_0><DIAGC>
~s "silst"
<MEAN> 25
 -6.251118e+000 3.044414e+000 -3.611569e+000 3.493391e+000 3.958135e+000 -1.324290e+000 6.075232e+000 -9.210074e-001 1.927249e+000 -4.986783e-001 4.440179e-001 3.148357e+000 -1.300907e-002 1.427712e-002 3.863366e-003 -1.305375e-003 9.054564e-004 2.758180e-003 2.563046e-003 7.734355e-005 7.706924e-003 2.299679e-002 6.807880e-003 -5.689511e-003 -1.757297e-002
<VARIANCE> 25
 9.295245e+000 8.495111e+000 8.780203e+000 1.587789e+001 1.537271e+001 1.824616e+001 1.833115e+001 1.721639e+001 2.027427e+001 2.031519e+001 1.743305e+001 1.452689e+001 1.511169e-001 3.065799e-001 4.642591e-001 6.501139e-001 8.581847e-001 1.071243e+000 1.217328e+000 1.313090e+000 1.392627e+000 1.374317e+000 1.309409e+000 1.191352e+000 7.390272e-002
<GCONST> 7.280328e+001
~h "@"
<BEGINHMM>
<NUMSTATES> 5
<STATE> 2
<MEAN> 25
 2.632967e+000 -4.443300e-001 -3.637662e-001 -1.262264e+000 -1.426947e+000 -2.429305e+000 -3.605307e+000 -1.386574e+000 3.850811e-001 1.432073e+000 4.255958e-001 -8.526304e-001 2.208548e+000 -1.170013e+000 2.702725e-001 -1.727602e+000 -1.461847e+000 5.795836e-001 -2.253089e+000 1.002817e+000 5.357529e-001 8.423517e-001 5.601058e-001 -1.289165e+000 2.797440e+000
<VARIANCE> 25
 4.255046e+001 3.371519e+001 4.322130e+001 5.097653e+001 4.725050e+001 6.579860e+001 6.594105e+001 5.265542e+001 5.592156e+001 3.490587e+001 3.817706e+001 3.088382e+001 7.411504e+000 4.054533e+000 6.640792e+000 6.202099e+000 6.411073e+000 6.485723e+000 8.220630e+000 9.810925e+000 8.509159e+000 5.240785e+000 5.641420e+000 4.417596e+000 7.845716e+000
<GCONST> 1.160690e+002
<STATE> 3
<MEAN> 25
 5.988519e+000 -4.231152e+000 -1.800256e-001 -5.056273e+000 -4.238875e+000 -1.521065e-001 -8.588064e+000 1.604680e+000 1.596396e+000 3.665298e+000 1.999410e+000 -3.490887e+000 1.111976e+000 -9.842972e-001 2.844002e-001 -8.789360e-001 -9.062325e-001 6.866158e-001 -1.249858e+000 1.058497e+000 3.446783e-001 7.300885e-001 3.591909e-001 -9.069678e-001 1.029749e+000
<VARIANCE> 25
 1.673817e+001 3.068206e+001 4.445729e+001 5.175666e+001 4.775588e+001 8.041464e+001 6.172842e+001 6.873020e+001 6.569987e+001 4.435566e+001 5.031448e+001 3.588458e+001 3.125592e+000 2.499717e+000 3.557795e+000 4.311494e+000 4.368292e+000 5.165561e+000 5.607821e+000 7.962932e+000 6.279052e+000 4.585912e+000 4.625930e+000 3.457229e+000 3.234497e+000
<GCONST> 1.110193e+002
<STATE> 4
<MEAN> 25
 5.353165e+000 -3.831006e+000 2.048967e+000 -3.521205e+000 -6.242431e+000 -1.543865e+000 -8.285877e+000 3.136082e+000 1.020761e+000 3.575249e+000 2.475600e+000 -3.700696e+000 8.208258e-002 3.278610e-001 1.605359e-001 3.965557e-001 1.664398e-001 4.565133e-002 3.822319e-001 -2.940928e-001 -1.721044e-001 -7.349477e-002 -1.503069e-001 8.779620e-002 -7.011991e-001
<VARIANCE> 25
 1.809325e+001 3.447275e+001 4.693407e+001 4.419526e+001 5.654408e+001 6.994971e+001 8.656886e+001 7.265550e+001 6.083335e+001 4.863452e+001 4.834613e+001 3.873425e+001 7.953793e-001 1.654026e+000 1.586844e+000 2.203600e+000 2.480880e+000 2.619656e+000 2.931560e+000 3.284752e+000 3.212975e+000 2.533379e+000 2.529194e+000 1.966710e+000 2.626124e+000
<GCONST> 1.029062e+002
<TRANSP> 5
 0.000000e+000 1.000000e+000 0.000000e+000 0.000000e+000 0.000000e+000
 0.000000e+000 3.540877e-001 6.459123e-001 0.000000e+000 0.000000e+000
 0.000000e+000 0.000000e+000 1.697049e-001 8.302950e-001 0.000000e+000
 0.000000e+000 0.000000e+000 0.000000e+000 7.261304e-001 2.738696e-001
 0.000000e+000 0.000000e+000 0.000000e+000 0.000000e+000 0.000000e+000
<ENDHMM>
~h "a"
<BEGINHMM>
<NUMSTATES> 5
<STATE> 2
<MEAN> 25
 4.831766e+000 -8.517102e+000 -3.744073e+000 -6.759906e+000 -1.572618e+000 2.399123e+000 -4.179752e+000 5.327751e+000 4.520882e+000 9.656208e-001 -2.249952e+000 -5.490927e+000 5.805883e-001 -2.026364e+000 -1.135024e+000 -1.090584e+000 6.765597e-001 1.546818e+000 -1.386817e-001 1.394535e+000 8.681465e-001 -5.619926e-001 -1.261691e+000 -1.527818e+000 1.795235e+000
<VARIANCE> 25
 1.732882e+001 2.862980e+001 3.601213e+001 3.977175e+001 5.310115e+001 7.289382e+001 5.039144e+001 7.701379e+001 4.822470e+001 4.616326e+001 4.815648e+001 3.558521e+001 2.575808e+000 2.703618e+000 2.811810e+000 3.522600e+000 4.292011e+000 4.128819e+000 4.803216e+000 6.752766e+000 4.387316e+000 4.122735e+000 4.385322e+000 3.240358e+000 4.413057e+000
<GCONST> 1.087217e+002
<STATE> 3
<MEAN> 25
 5.097641e+000 -1.210116e+001 -5.669735e+000 -7.749919e+000 1.065149e+000 6.356504e+000 -3.980064e+000 5.670517e+000 5.438637e+000 -1.222146e+000 -5.091461e+000 -7.677463e+000 -3.345035e-002 -1.927317e-001 -9.939959e-002 1.069962e-001 4.715497e-001 1.031837e-001 2.741481e-001 -6.591640e-003 -6.781580e-002 -2.080630e-001 -3.921784e-001 -1.789122e-002 -6.468013e-002
<VARIANCE> 25
 8.528676e+000 1.929576e+001 2.339953e+001 2.346694e+001 3.331646e+001 4.865276e+001 3.233693e+001 5.579099e+001 3.612153e+001 3.908607e+001 4.040351e+001 2.914696e+001 4.079375e-001 1.008546e+000 9.332204e-001 1.234518e+000 1.617117e+000 2.436159e+000 1.847493e+000 2.509048e+000 1.664029e+000 1.897747e+000 2.033431e+000 1.527346e+000 1.095685e+000
<GCONST> 9.110383e+001
<STATE> 4
<MEAN> 25
 3.623387e+000 -8.076279e+000 -5.296994e+000 -4.730327e+000 2.616346e+000 2.818553e+000 -1.006412e+000 4.551080e+000 4.347624e+000 -8.356560e-001 -5.037328e+000 -4.764432e+000 -1.640096e-002 1.045023e+000 5.060869e-001 6.157076e-001 -1.738301e-001 -6.375052e-001 7.498948e-002 -2.484810e-001 -3.700939e-001 3.113014e-001 3.600401e-001 4.248006e-001 -1.514955e+000
<VARIANCE> 25
 1.770853e+001 3.462761e+001 2.564616e+001 3.786390e+001 4.625230e+001 4.825680e+001 4.229305e+001 5.683955e+001 3.889936e+001 4.024606e+001 3.866243e+001 3.623679e+001 9.099270e-001 1.822575e+000 1.552937e+000 1.924234e+000 2.271322e+000 2.650971e+000 2.668427e+000 3.221576e+000 2.465637e+000 2.503953e+000 2.341120e+000 2.110007e+000 2.757568e+000
<GCONST> 9.931962e+001
<TRANSP> 5
 0.000000e+000 1.000000e+000 0.000000e+000 0.000000e+000 0.000000e+000
 0.000000e+000 5.313712e-001 4.686289e-001 0.000000e+000 0.000000e+000
 0.000000e+000 0.000000e+000 7.170542e-001 2.829458e-001 0.000000e+000
 0.000000e+000 0.000000e+000 0.000000e+000 7.524224e-001 2.475776e-001
 0.000000e+000 0.000000e+000 0.000000e+000 0.000000e+000 0.000000e+000
<ENDHMM>
~h "b"
<BEGINHMM>
<NUMSTATES> 5
<STATE> 2
<MEAN> 25
 9.573395e+000 7.853675e+000 4.121433e+000 2.719445e+000 1.677726e+000 4.621662e+000 1.082612e+000 -6.465537e+000 -4.021770e+000 -5.809568e-001 4.438702e-001 -1.431517e+000 5.240224e-001 1.507185e+000 4.104286e-001 7.079185e-001 7.227604e-001 2.968979e-001 1.038505e+000 -4.434181e-001 -2.310167e-001 -2.796435e-001 -2.060201e-001 4.299249e-002 -1.502415e+000
<VARIANCE> 25
 2.909005e+001 4.139455e+001 2.680628e+001 3.867153e+001 3.452982e+001 3.509864e+001 4.504622e+001 3.994578e+001 4.373735e+001 2.962066e+001 3.661401e+001 2.774206e+001 2.206300e+000 2.756488e+000 2.434888e+000 3.161811e+000 2.923365e+000 3.042054e+000 3.707443e+000 3.636288e+000 3.720036e+000 2.805444e+000 3.007163e+000 2.299548e+000 5.846713e+000
<GCONST> 1.033472e+002
<STATE> 3
<MEAN> 25
 9.044323e+000 8.916174e+000 3.794645e+000 3.220882e+000 2.532517e+000 4.442163e+000 2.367076e+000 -6.986009e+000 -4.362351e+000 -1.004612e+000 1.640839e+000 1.871333e-002 -1.087760e+000 -2.475789e+000 -1.710736e+000 -1.751313e+000 -6.299083e-001 -7.437727e-001 -2.018109e+000 8.116423e-001 1.492732e+000 8.324050e-001 1.377223e+000 2.982662e-001 3.844225e+000
<VARIANCE> 25
 2.477825e+001 3.238427e+001 2.296266e+001 3.388575e+001 3.098704e+001 3.340170e+001 3.325291e+001 3.314165e+001 3.700268e+001 2.455326e+001 3.565292e+001 2.531605e+001 2.029174e+000 3.861290e+000 3.364413e+000 6.675046e+000 4.352410e+000 4.107178e+000 5.141030e+000 4.262560e+000 5.801873e+000 4.734210e+000 4.481858e+000 3.568221e+000 6.705941e+000
<GCONST> 1.059846e+002
<STATE> 4
<MEAN> 25
 6.295527e+000 1.005012e+000 -1.266903e+000 -2.457050e+000 -1.095417e+000 2.845224e+000 -4.180681e+000 -4.953866e+000 8.465450e-001 2.794864e+000 4.837350e+000 -1.181932e+000 -7.259516e-001 -2.724908e+000 -1.188989e+000 -1.806495e+000 -1.530844e+000 -2.624265e-001 -2.007056e+000 1.376809e+000 1.797786e+000 7.581484e-001 1.613897e-001 -8.134228e-001 3.984699e+000
<VARIANCE> 25
 2.377242e+001 4.079532e+001 3.536285e+001 8.624808e+001 4.381509e+001 5.370312e+001 5.710130e+001 3.657188e+001 4.346598e+001 4.686409e+001 4.915135e+001 3.034681e+001 2.356589e+000 4.720956e+000 5.168436e+000 8.724438e+000 4.885203e+000 6.836834e+000 6.023174e+000 7.342460e+000 9.723207e+000 6.178783e+000 5.386867e+000 6.602392e+000 7.575929e+000
<GCONST> 1.143891e+002
<TRANSP> 5
 0.000000e+000 1.000000e+000 0.000000e+000 0.000000e+000 0.000000e+000
 0.000000e+000 7.746653e-001 2.253347e-001 0.000000e+000 0.000000e+000
 0.000000e+000 0.000000e+000 4.994899e-001 5.005101e-001 0.000000e+000
 0.000000e+000 0.000000e+000 0.000000e+000 3.506342e-001 6.493658e-001
 0.000000e+000 0.000000e+000 0.000000e+000 0.000000e+000 0.000000e+000
<ENDHMM>
~h "c"
<BEGINHMM>
<NUMSTATES> 5
<STATE> 2
<MEAN> 25
 -1.589104e+000 5.717986e+000 2.074283e+000 4.206197e+000 1.099798e+000 -5.010234e+000 1.886192e+000 -2.083113e-001 3.215613e-001 -1.921478e+000 -5.040007e-001 2.743213e+000 -1.669581e+000 1.284324e-001 -8.001486e-001 -2.530822e-001 7.114323e-001 1.376309e-001 6.383902e-001 -2.186673e-001 3.640240e-001 1.064509e-001 2.101505e-001 1.403497e-001 -1.356968e+000
<VARIANCE> 25
 3.024403e+001 3.588405e+001 3.592538e+001 2.424807e+001 4.226535e+001 4.391870e+001 4.884542e+001 4.689066e+001 4.049817e+001 3.018231e+001 2.710103e+001 2.488869e+001 4.420245e+000 5.212502e+000 2.969641e+000 3.243563e+000 4.246556e+000 3.301282e+000 3.820516e+000 3.751852e+000 3.491272e+000 3.065679e+000 2.746973e+000 2.744951e+000 1.068809e+001
<GCONST> 1.060569e+002
<STATE> 3
<MEAN> 25
 -1.680890e+001 1.883127e+000 -3.814424e+000 -2.123779e+000 3.686304e+000 -3.457006e+000 4.113031e+000 -7.440637e-001 1.746053e+000 3.390223e-001 2.577020e+000 4.463261e+000 -1.950193e+000 -5.786450e-001 -9.924386e-002 -1.069746e+000 -5.300187e-001 -3.960620e-001 6.479126e-002 4.997760e-001 2.907372e-001 -4.226085e-002 3.707800e-001 5.035774e-001 4.075744e+000
<VARIANCE> 25
 3.703498e+001 2.429454e+001 2.976895e+001 3.218560e+001 2.822274e+001 3.827880e+001 4.440229e+001 3.207429e+001 2.708088e+001 2.672720e+001 1.891905e+001 1.661018e+001 9.226184e+000 2.559894e+000 4.420179e+000 3.577189e+000 3.500974e+000 3.610811e+000 3.698249e+000 3.714260e+000 3.048001e+000 2.824954e+000 2.702472e+000 1.851022e+000 6.158723e+000
<GCONST> 1.028556e+002
<STATE> 4
<MEAN> 25
 -9.166635e+000 4.950968e-001 1.601764e+000 -1.317683e+000 -1.436707e+000 -6.096146e+000 6.802949e-001 2.605277e+000 2.843302e+000 -2.338443e+000 -3.300486e-002 3.657533e+000 5.520688e+000 -1.503261e+000 1.661525e+000 5.650099e-002 -1.771037e+000 -1.663885e-001 -2.601253e+000 1.045009e+000 2.731614e-001 -4.384114e-001 -1.189587e+000 -1.371040e+000 2.235914e+000
<VARIANCE> 25
 9.480502e+001 3.035490e+001 3.707109e+001 3.186891e+001 3.172514e+001 3.900676e+001 7.180868e+001 4.054412e+001 3.190281e+001 2.796759e+001 2.789839e+001 2.038968e+001 4.048706e+000 6.046285e+000 5.222294e+000 5.757966e+000 4.088134e+000 5.309590e+000 5.930163e+000 8.685477e+000 6.610609e+000 4.481997e+000 3.895428e+000 3.034444e+000 2.481220e+000
<GCONST> 1.096088e+002
<TRANSP> 5
 0.000000e+000 1.000000e+000 0.000000e+000 0.000000e+000 0.000000e+000
 0.000000e+000 8.393643e-001 1.606357e-001 0.000000e+000 0.000000e+000
 0.000000e+000 0.000000e+000 7.329455e-001 2.670545e-001 0.000000e+000
 0.000000e+000 0.000000e+000 0.000000e+000 6.059036e-001 3.940964e-001
 0.000000e+000 0.000000e+000 0.000000e+000 0.000000e+000 0.000000e+000
<ENDHMM>
~h "d"
<BEGINHMM>
<NUMSTATES> 5
<STATE> 2
<MEAN> 25
 6.073787e+000 4.187266e+000 5.969896e+000 6.612024e+000 -9.354091e-002 -2.560345e+000 -2.175138e+000 -9.152820e-001 1.912816e+000 -1.659798e+000 -3.847729e+000 -1.076709e+000 6.245377e-001 1.282922e+000 8.188634e-001 1.097759e+000 8.041019e-001 -3.792396e-001 3.685644e-001 -1.935814e-001 3.932541e-001 -2.955925e-001 -5.631710e-001 -7.952684e-002 -1.455953e+000
<VARIANCE> 25
 4.677856e+001 5.369453e+001 4.271543e+001 3.857445e+001 4.651268e+001 4.110384e+001 5.865879e+001 7.401086e+001 4.516671e+001 4.143097e+001 3.921654e+001 3.183630e+001 2.907186e+000 3.825928e+000 3.047431e+000 3.313961e+000 4.064343e+000 3.233638e+000 4.537535e+000 5.832509e+000 4.022608e+000 3.472865e+000 3.690072e+000 2.694651e+000 6.990152e+000
<GCONST> 1.092301e+002
<STATE> 3
<MEAN> 25
 6.265459e+000 4.756854e+000 8.581360e+000 7.513635e+000 1.185130e+000 -3.698381e+000 -2.012652e+000 -4.804768e-001 1.763358e+000 -2.345112e+000 -3.331215e+000 1.169945e-001 -1.751057e+000 -2.760137e+000 -3.326762e-001 -2.184378e+000 -1.059616e+000 -4.610283e-001 -1.104080e+000 1.535619e+000 -4.314413e-001 9.192883e-002 1.753587e+000 1.215121e+000 4.155005e+000
<VARIANCE> 25
 3.190032e+001 4.920644e+001 3.094388e+001 3.845501e+001 3.624102e+001 4.275331e+001 5.600898e+001 4.803908e+001 3.869350e+001 3.657208e+001 3.576760e+001 3.348114e+001 2.347066e+000 3.672477e+000 4.024213e+000 3.905030e+000 6.506764e+000 4.227629e+000 6.284875e+000 8.488381e+000 6.271656e+000 4.542480e+000 3.999961e+000 3.289989e+000 6.056134e+000
<GCONST> 1.099011e+002
<STATE> 4
<MEAN> 25
 2.818038e+000 -2.979849e+000 6.246978e+000 6.668893e-001 -5.602993e+000 -4.645640e+000 -6.242478e+000 3.794432e+000 1.688870e+000 -1.049385e+000 1.779361e+000 2.131012e+000 -5.980393e-001 -1.679431e+000 -8.199956e-001 -1.736506e+000 -1.930481e+000 1.138948e-001 -9.198284e-001 1.345479e+000 2.601765e-001 2.556991e-001 8.878753e-001 -2.731835e-001 3.322117e+000
<VARIANCE> 25
 2.358189e+001 3.830068e+001 5.159698e+001 3.836015e+001 6.563541e+001 4.707593e+001 8.374003e+001 7.790888e+001 6.269116e+001 3.258359e+001 3.565977e+001 2.980766e+001 3.048676e+000 3.937674e+000 6.227799e+000 4.794173e+000 7.003881e+000 4.431060e+000 6.837209e+000 1.096518e+001 8.752851e+000 4.843892e+000 6.490156e+000 4.247957e+000 7.648880e+000
<GCONST> 1.144856e+002
<TRANSP> 5
 0.000000e+000 1.000000e+000 0.000000e+000 0.000000e+000 0.000000e+000
 0.000000e+000 7.645066e-001 2.354934e-001 0.000000e+000 0.000000e+000
 0.000000e+000 0.000000e+000 5.183522e-001 4.816478e-001 0.000000e+000
 0.000000e+000 0.000000e+000 0.000000e+000 3.928092e-001 6.071908e-001
 0.000000e+000 0.000000e+000 0.000000e+000 0.000000e+000 0.000000e+000
<ENDHMM>
~h "e"
<BEGINHMM>
<NUMSTATES> 5
<STATE> 2
<MEAN> 25
 2.694095e+000 -4.832221e+000 3.402880e+000 -4.950249e-001 -6.151919e+000 -5.273925e+000 -2.721733e+000 3.919589e+000 4.473635e-001 5.537415e-001 1.434615e+000 -8.515247e-001 6.281570e-001 -1.677737e+000 1.114530e+000 -8.762953e-001 -2.008686e+000 -4.368733e-001 -4.678075e-001 2.139184e+000 -3.410944e-001 -2.532471e-001 3.680823e-001 -2.818646e-001 2.475495e+000
<VARIANCE> 25
 3.891281e+001 5.499853e+001 5.543235e+001 4.585007e+001 5.838554e+001 5.115533e+001 6.828216e+001 7.667719e+001 6.131586e+001 4.231912e+001 4.671935e+001 3.574546e+001 4.637858e+000 4.461717e+000 4.236461e+000 4.974166e+000 6.279944e+000 5.179413e+000 6.604616e+000 8.473280e+000 7.112904e+000 5.022862e+000 5.210573e+000 3.581000e+000 8.869446e+000
<GCONST> 1.155725e+002
<STATE> 3
<MEAN> 25
 3.980590e+000 -7.641136e+000 6.505384e+000 -2.197192e+000 -1.080153e+001 -5.606941e+000 -3.202494e+000 8.249205e+000 -8.219116e-001 -6.536864e-002 3.691772e+000 -1.412583e+000 -1.394735e-001 -2.239295e-002 4.259959e-001 -1.710812e-001 -6.105065e-001 -5.171150e-002 4.664807e-001 3.150138e-001 -3.115670e-001 7.247543e-002 2.757585e-001 -5.984158e-002 1.506730e-001
<VARIANCE> 25
 1.620572e+001 4.337557e+001 5.009175e+001 4.296162e+001 5.513764e+001 4.629987e+001 6.248702e+001 8.585491e+001 6.997980e+001 4.357129e+001 5.506511e+001 3.579362e+001 1.202546e+000 2.296554e+000 2.091357e+000 2.501153e+000 3.501092e+000 2.821980e+000 3.701256e+000 3.856600e+000 3.688878e+000 2.813965e+000 2.819676e+000 2.203782e+000 4.966998e+000
<GCONST> 1.056067e+002
<STATE> 4
<MEAN> 25
 2.148423e+000 -5.939223e+000 6.911532e+000 -2.244486e+000 -1.065616e+001 -6.349700e+000 5.909438e-001 6.831987e+000 -1.847758e+000 4.299753e-001 3.125368e+000 -6.546333e-001 3.175084e-002 3.763690e-001 -2.771924e-001 2.995901e-001 5.736389e-001 9.741217e-002 5.395881e-002 -3.528615e-001 8.744426e-002 2.437632e-002 -3.224707e-001 -2.483601e-002 -6.275460e-001
<VARIANCE> 25
 1.629186e+001 4.356648e+001 5.343335e+001 3.863800e+001 5.802631e+001 5.153804e+001 5.878635e+001 6.970712e+001 5.675854e+001 4.076337e+001 4.414785e+001 3.031052e+001 6.600239e-001 1.240825e+000 1.337992e+000 1.527877e+000 2.136356e+000 1.751904e+000 2.267840e+000 2.235042e+000 2.061662e+000 1.829652e+000 1.801914e+000 1.440022e+000 2.285489e+000
<GCONST> 9.797756e+001
<TRANSP> 5
 0.000000e+000 1.000000e+000 0.000000e+000 0.000000e+000 0.000000e+000
 0.000000e+000 5.755181e-001 4.244819e-001 0.000000e+000 0.000000e+000
 0.000000e+000 0.000000e+000 5.464518e-001 4.535482e-001 0.000000e+000
 0.000000e+000 0.000000e+000 0.000000e+000 8.324542e-001 1.675458e-001
 0.000000e+000 0.000000e+000 0.000000e+000 0.000000e+000 0.000000e+000
<ENDHMM>
~h "f"
<BEGINHMM>
<NUMSTATES> 5
<STATE> 2
<MEAN> 25
 -9.022322e-001 1.989870e+000 -2.830325e-001 3.310800e+000 2.098120e+000 7.209535e-001 2.308736e+000 -9.934257e-001 6.223027e-001 1.230842e-001 4.303479e-001 8.045123e-001 -3.219163e+000 1.525355e-001 -6.650531e-001 1.581476e+000 9.510955e-001 -6.433616e-001 7.421423e-001 3.729056e-001 9.804004e-001 -1.189276e-001 1.864064e-002 5.400513e-001 -1.400161e+000
<VARIANCE> 25
 5.031571e+001 2.848463e+001 4.213363e+001 5.002213e+001 3.897847e+001 5.790530e+001 4.146170e+001 4.295071e+001 4.154531e+001 3.013033e+001 2.890970e+001 3.072893e+001 4.079274e+000 4.303997e+000 3.850152e+000 5.340008e+000 5.295148e+000 6.273952e+000 5.377973e+000 4.876036e+000 4.617396e+000 3.723837e+000 3.367332e+000 2.995919e+000 2.996904e+000
<GCONST> 1.089084e+002
<STATE> 3
<MEAN> 25
 -1.172937e+001 -1.316070e+000 -3.601390e+000 4.728741e+000 2.725018e+000 -1.324569e+000 2.561558e+000 3.935516e-001 2.810674e+000 5.053855e-001 1.205247e+000 3.350318e+000 -5.573944e-001 -4.367989e-001 -3.124241e-001 -5.780050e-002 6.387644e-004 -3.109092e-002 1.024290e-002 7.320350e-002 7.819073e-002 3.884641e-002 9.476703e-002 1.005218e-001 -1.943009e-001
<VARIANCE> 25
 2.495690e+001 2.108509e+001 1.880200e+001 1.879799e+001 2.304386e+001 2.655220e+001 2.864196e+001 2.586377e+001 2.444441e+001 2.341598e+001 1.874339e+001 1.720681e+001 1.847223e+000 1.264316e+000 1.433292e+000 1.396102e+000 1.501388e+000 1.751888e+000 1.727195e+000 1.764093e+000 1.728291e+000 1.707093e+000 1.519585e+000 1.394938e+000 1.301569e+000
<GCONST> 8.895042e+001
<STATE> 4
<MEAN> 25
 -7.925381e+000 -1.577313e+000 -4.843154e+000 3.122502e+000 3.394441e+000 3.468050e-001 2.741349e+000 7.271912e-001 1.440208e+000 -2.405258e-001 1.029259e+000 2.234343e+000 1.851593e+000 3.871363e-001 2.463523e-001 -6.557529e-001 -3.238648e-001 3.122043e-001 -2.289574e-001 -2.151657e-001 -3.694080e-001 -1.511698e-001 -9.974997e-002 -4.877121e-001 4.782904e-001
<VARIANCE> 25
 4.468883e+001 2.949969e+001 2.649711e+001 2.829534e+001 3.055702e+001 3.345661e+001 2.884537e+001 3.229085e+001 3.133725e+001 2.496816e+001 2.081957e+001 1.926021e+001 7.061779e+000 2.641542e+000 2.764194e+000 4.370432e+000 2.992886e+000 3.715680e+000 2.996382e+000 2.787539e+000 2.746810e+000 2.458882e+000 2.209388e+000 2.274409e+000 4.160181e+000
<GCONST> 1.010728e+002
<TRANSP> 5
 0.000000e+000 1.000000e+000 0.000000e+000 0.000000e+000 0.000000e+000
 0.000000e+000 7.110332e-001 2.889668e-001 0.000000e+000 0.000000e+000
 0.000000e+000 0.000000e+000 8.663902e-001 1.336098e-001 0.000000e+000
 0.000000e+000 0.000000e+000 0.000000e+000 7.876145e-001 2.123854e-001
 0.000000e+000 0.000000e+000 0.000000e+000 0.000000e+000 0.000000e+000
<ENDHMM>
~h "g"
<BEGINHMM>
<NUMSTATES> 5
<STATE> 2
<MEAN> 25
 7.900299e+000 5.237221e+000 6.635935e+000 4.323773e+000 -1.758485e+000 -4.204297e+000 -1.236211e+000 -1.546001e+000 -4.082774e+000 2.447529e+000 -2.265161e-001 -2.891830e+000 2.549596e-001 1.514671e+000 6.921845e-001 1.337226e+000 6.215257e-001 -6.354251e-001 9.685508e-001 -5.854250e-001 -6.608246e-002 -4.158957e-001 -2.823167e-001 2.970256e-001 -2.119871e+000
<VARIANCE> 25
 2.151139e+001 5.237167e+001 4.335603e+001 4.173414e+001 5.478714e+001 5.751215e+001 5.828469e+001 6.330941e+001 5.369030e+001 4.599231e+001 3.921236e+001 3.208010e+001 2.580678e+000 3.301580e+000 4.060010e+000 3.306274e+000 4.883173e+000 4.593112e+000 4.516829e+000 4.889778e+000 5.972003e+000 3.732723e+000 3.295051e+000 3.077995e+000 5.828708e+000
<GCONST> 1.098209e+002
<STATE> 3
<MEAN> 25
 2.753704e+000 4.550566e+000 3.288973e+000 7.077842e+000 3.004361e+000 -5.360718e+000 8.428870e-001 -1.587066e+000 -2.464932e+000 1.499939e+000 -1.359041e+000 9.999436e-001 -1.812175e+000 -2.085370e+000 -1.570645e+000 -9.243631e-001 6.055571e-001 -8.438544e-001 -9.968469e-001 1.197247e+000 2.628145e-001 2.119443e-001 3.636361e-001 1.008292e+000 3.311234e+000
<VARIANCE> 25
 4.178529e+001 5.906726e+001 6.746662e+001 3.205212e+001 6.989256e+001 5.357154e+001 5.171202e+001 4.097247e+001 4.110406e+001 3.343324e+001 2.800449e+001 3.067835e+001 3.692033e+000 4.998013e+000 7.674455e+000 4.295739e+000 1.121287e+001 5.357933e+000 5.104287e+000 5.855069e+000 5.644146e+000 3.998324e+000 4.327092e+000 3.802747e+000 6.358488e+000
<GCONST> 1.129760e+002
<STATE> 4
<MEAN> 25
 1.145749e+000 2.138807e-001 1.948993e+000 1.197483e+000 -1.702970e+000 -6.525986e+000 -2.608690e+000 2.037199e+000 -2.128517e+000 2.607698e+000 1.493673e+000 1.204739e+000 1.224917e-001 -9.991556e-001 -1.575628e-002 -2.019902e+000 -1.736106e+000 6.139862e-001 -8.398654e-001 1.281683e+000 4.406317e-001 2.585101e-001 6.011351e-001 -6.921861e-001 2.291351e+000
<VARIANCE> 25
 3.135995e+001 4.368053e+001 6.658810e+001 3.476882e+001 7.936181e+001 6.181895e+001 6.211863e+001 6.351441e+001 5.067625e+001 3.672399e+001 3.986467e+001 2.782511e+001 3.301561e+000 3.379758e+000 5.893506e+000 4.313073e+000 7.832031e+000 4.075119e+000 4.514751e+000 6.806908e+000 6.348302e+000 4.050344e+000 4.745689e+000 3.997490e+000 4.190726e+000
<GCONST> 1.123943e+002
<TRANSP> 5
 0.000000e+000 1.000000e+000 0.000000e+000 0.000000e+000 0.000000e+000
 0.000000e+000 7.381258e-001 2.618742e-001 0.000000e+000 0.000000e+000
 0.000000e+000 0.000000e+000 6.043156e-001 3.956845e-001 0.000000e+000
 0.000000e+000 0.000000e+000 0.000000e+000 4.923882e-001 5.076118e-001
 0.000000e+000 0.000000e+000 0.000000e+000 0.000000e+000 0.000000e+000
<ENDHMM>
~h "h"
<BEGINHMM>
<NUMSTATES> 5
<STATE> 2
<MEAN> 25
 2.076547e+000 -2.443865e+000 -1.860312e+000 7.677534e-001 6.034197e+000 4.251697e+000 3.722755e+000 2.898207e+000 9.292347e-001 -6.143056e-001 -3.049581e+000 1.060587e-001 -1.089730e+000 2.709540e-001 -4.454759e-002 1.514003e+000 1.953049e+000 4.287521e-001 1.544773e+000 1.531787e-001 5.324269e-001 -3.817146e-001 -5.074712e-002 8.251197e-001 -1.213424e+000
<VARIANCE> 25
 2.070838e+001 3.749463e+001 4.779069e+001 4.342907e+001 5.969675e+001 6.524059e+001 5.601318e+001 5.552494e+001 4.535786e+001 4.329228e+001 5.156723e+001 4.427712e+001 1.850224e+000 3.671612e+000 3.462657e+000 3.976057e+000 4.163865e+000 3.938591e+000 5.265025e+000 4.585050e+000 4.102622e+000 3.510553e+000 3.852447e+000 3.689777e+000 2.613624e+000
<GCONST> 1.086671e+002
<STATE> 3
<MEAN> 25
 -1.554845e+000 -3.772228e+000 -2.727198e+000 2.774386e+000 8.815067e+000 3.955049e+000 6.029511e+000 3.456852e+000 2.283902e+000 -1.280123e+000 -2.772277e+000 1.384463e+000 -5.477316e-001 -1.918610e-002 -2.103410e-001 -1.469760e-002 -1.621147e-001 -2.947898e-001 4.342966e-003 -1.910114e-001 3.208335e-002 -3.782691e-002 2.460556e-001 1.570758e-001 -1.220330e+000
<VARIANCE> 25
 2.668231e+001 3.709829e+001 4.170417e+001 4.259204e+001 6.251112e+001 5.659610e+001 5.949878e+001 5.153608e+001 4.391064e+001 4.471251e+001 3.968668e+001 3.791846e+001 1.855426e+000 2.774861e+000 2.769439e+000 2.744289e+000 3.272369e+000 3.304121e+000 3.470970e+000 3.664025e+000 3.154748e+000 2.945357e+000 2.925102e+000 2.474885e+000 3.517288e+000
<GCONST> 1.054821e+002
<STATE> 4
<MEAN> 25
 -3.697681e+000 -3.243318e+000 -4.844781e+000 1.785089e+000 5.520934e+000 2.686228e+000 3.862228e+000 1.267044e+000 1.760578e+000 -1.794771e+000 -8.621240e-001 1.612865e+000 1.648888e-001 2.465233e-001 5.790474e-002 -9.932055e-002 -3.203980e-001 -8.126427e-002 -1.455205e-001 -1.652639e-001 -1.053342e-001 5.697035e-002 2.540569e-002 -1.106500e-001 -1.753643e-001
<VARIANCE> 25
 2.321716e+001 5.114992e+001 3.220917e+001 2.814411e+001 4.357449e+001 3.884041e+001 3.869094e+001 3.257361e+001 3.137877e+001 2.922121e+001 2.664656e+001 2.547758e+001 1.440622e+000 1.810616e+000 1.617739e+000 1.607178e+000 1.974564e+000 2.050436e+000 2.211276e+000 2.142719e+000 2.068675e+000 2.027177e+000 1.925163e+000 1.855120e+000 1.933997e+000
<GCONST> 9.598510e+001
<TRANSP> 5
 0.000000e+000 1.000000e+000 0.000000e+000 0.000000e+000 0.000000e+000
 0.000000e+000 5.405369e-001 4.594631e-001 0.000000e+000 0.000000e+000
 0.000000e+000 0.000000e+000 5.657320e-001 4.342680e-001 0.000000e+000
 0.000000e+000 0.000000e+000 0.000000e+000 8.333316e-001 1.666684e-001
 0.000000e+000 0.000000e+000 0.000000e+000 0.000000e+000 0.000000e+000
<ENDHMM>
~h "i"
<BEGINHMM>
<NUMSTATES> 5
<STATE> 2
<MEAN> 25
 -5.527270e-001 1.407123e+000 1.212908e+001 2.683506e+000 -7.428773e+000 -5.966588e+000 -2.475237e+000 -2.283861e+000 -6.328889e+000 -2.104147e+000 3.026794e+000 1.158171e+000 7.472880e-001 -1.260012e-001 3.184760e+000 -4.949131e-001 -2.993013e+000 9.839278e-002 -1.740999e+000 -3.376514e-001 -2.209786e+000 -2.494174e-001 1.322119e+000 -3.213148e-001 1.971375e+000
<VARIANCE> 25
 3.459128e+001 3.919716e+001 5.462685e+001 4.013197e+001 5.295868e+001 4.455754e+001 6.003019e+001 6.199337e+001 5.223033e+001 3.560494e+001 3.354649e+001 2.960058e+001 6.619460e+000 3.386287e+000 5.344111e+000 5.211032e+000 5.093376e+000 5.405292e+000 6.924078e+000 7.097905e+000 6.893999e+000 5.318943e+000 3.679065e+000 4.025850e+000 5.201003e+000
<GCONST> 1.128617e+002
<STATE> 3
<MEAN> 25
 6.881055e-001 9.739483e-001 1.872932e+001 -1.958283e-001 -1.460609e+001 -2.888764e+000 -7.497070e+000 -2.835354e+000 -1.071235e+001 -1.504691e+000 5.952483e+000 -2.546453e-001 6.926212e-002 8.009457e-002 1.778516e-001 -2.596271e-001 -3.913260e-001 2.288024e-001 -1.448637e-001 -1.183103e-002 -6.599587e-002 2.369909e-001 1.691195e-001 -6.682001e-002 3.603242e-002
<VARIANCE> 25
 1.146654e+001 2.423636e+001 3.391210e+001 4.386912e+001 2.537723e+001 3.980841e+001 3.034133e+001 5.710569e+001 4.738264e+001 5.323512e+001 3.236517e+001 3.938766e+001 7.734804e-001 1.598950e+000 2.139788e+000 1.769901e+000 2.423691e+000 2.555934e+000 2.375636e+000 3.160608e+000 2.549216e+000 2.110774e+000 1.704089e+000 1.588228e+000 1.354616e+000
<GCONST> 9.660391e+001
<STATE> 4
<MEAN> 25
 2.170741e-001 3.687714e+000 1.362237e+001 1.011120e+000 -8.874806e+000 -3.302723e+000 -2.400426e+000 -3.497509e+000 -6.131728e+000 -7.438494e-001 3.063027e+000 5.396168e-001 1.483268e-001 2.325128e-001 -1.399825e+000 4.742485e-001 1.255426e+000 -2.392025e-001 7.711400e-001 2.355877e-001 8.800979e-001 -1.206270e-002 -5.867335e-001 1.340666e-001 -1.473357e+000
<VARIANCE> 25
 1.936824e+001 3.383641e+001 6.127682e+001 4.020891e+001 5.361825e+001 6.001321e+001 4.794383e+001 5.915268e+001 4.846932e+001 4.145843e+001 3.630457e+001 3.233232e+001 1.513283e+000 2.112817e+000 2.491701e+000 2.320789e+000 3.331908e+000 2.956475e+000 3.352260e+000 3.579545e+000 3.475592e+000 2.799465e+000 2.416820e+000 2.066373e+000 3.600155e+000
<GCONST> 1.037958e+002
<TRANSP> 5
 0.000000e+000 1.000000e+000 0.000000e+000 0.000000e+000 0.000000e+000
 0.000000e+000 6.166177e-001 3.833824e-001 0.000000e+000 0.000000e+000
 0.000000e+000 0.000000e+000 7.580491e-001 2.419509e-001 0.000000e+000
 0.000000e+000 0.000000e+000 0.000000e+000 8.021190e-001 1.978810e-001
 0.000000e+000 0.000000e+000 0.000000e+000 0.000000e+000 0.000000e+000
<ENDHMM>
~h "j"
<BEGINHMM>
<NUMSTATES> 5
<STATE> 2
<MEAN> 25
 3.377263e+000 7.945459e+000 8.496800e+000 5.779272e+000 -1.550063e+000 -3.908369e+000 2.246764e-001 8.318111e-001 -1.071419e+000 -3.379099e+000 1.824385e-001 1.656339e+000 -3.500374e-001 1.372934e+000 3.069421e-001 3.822148e-001 8.437396e-001 2.346967e-002 9.919152e-001 -6.098819e-002 4.343370e-001 -6.996937e-002 -1.882430e-001 3.693387e-002 -1.334940e+000
<VARIANCE> 25
 3.734396e+001 4.726860e+001 4.692483e+001 2.915238e+001 4.200326e+001 4.856926e+001 5.029427e+001 4.464669e+001 4.397063e+001 3.328876e+001 2.860763e+001 2.599009e+001 4.881193e+000 3.283390e+000 3.341733e+000 2.920630e+000 3.647880e+000 3.307009e+000 4.118199e+000 4.148392e+000 4.171490e+000 3.120038e+000 2.727091e+000 2.619380e+000 6.426989e+000
<GCONST> 1.066552e+002
<STATE> 3
<MEAN> 25
 -7.779562e+000 9.046820e+000 7.094675e+000 3.801900e+000 2.520738e+000 -3.711645e+000 2.341608e+000 -1.624948e+000 -9.222418e-001 -2.173189e+000 1.668733e+000 3.900528e+000 -1.197623e+000 -1.546558e+000 4.295476e-001 -7.127259e-001 -1.507841e+000 -9.939132e-001 -1.277169e+000 -2.580849e-001 -5.240668e-001 -1.180165e-001 8.787516e-001 9.311621e-001 3.577277e+000
<VARIANCE> 25
 5.181310e+001 4.078053e+001 4.765136e+001 2.780526e+001 4.279349e+001 5.171431e+001 4.003942e+001 3.014447e+001 2.690493e+001 2.405567e+001 2.091769e+001 2.002771e+001 1.286166e+001 3.696039e+000 5.286211e+000 4.031894e+000 8.916004e+000 4.517737e+000 4.617795e+000 4.824518e+000 4.135800e+000 2.844235e+000 2.442674e+000 2.462358e+000 3.302883e+000
<GCONST> 1.072746e+002
<STATE> 4
<MEAN> 25
 8.663259e-001 -1.159654e+000 1.032169e+001 -8.445978e-004 -1.052357e+001 -8.574766e+000 -6.689626e+000 3.667245e+000 -6.831609e-001 -2.570896e+000 4.948714e+000 4.875774e+000 2.274358e+000 -2.825125e+000 -1.302379e+000 -1.365046e+000 -1.342937e+000 5.899001e-001 -1.410880e+000 2.367031e+000 1.264158e+000 7.689325e-001 -4.056634e-001 -1.499928e+000 1.396810e+000
<VARIANCE> 25
 1.431927e+001 3.089055e+001 3.003318e+001 3.887764e+001 2.752313e+001 2.217811e+001 3.824710e+001 6.331260e+001 5.537889e+001 2.666856e+001 2.396350e+001 2.220433e+001 2.817673e+000 3.070529e+000 4.948650e+000 2.409439e+000 6.642541e+000 3.640764e+000 6.859415e+000 7.137205e+000 5.597505e+000 3.240946e+000 4.315866e+000 2.839142e+000 1.291643e+000
<GCONST> 1.042553e+002
<TRANSP> 5
 0.000000e+000 1.000000e+000 0.000000e+000 0.000000e+000 0.000000e+000
 0.000000e+000 8.348420e-001 1.651580e-001 0.000000e+000 0.000000e+000
 0.000000e+000 0.000000e+000 7.694982e-001 2.305018e-001 0.000000e+000
 0.000000e+000 0.000000e+000 0.000000e+000 6.294585e-001 3.705414e-001
 0.000000e+000 0.000000e+000 0.000000e+000 0.000000e+000 0.000000e+000
<ENDHMM>
~h "k"
<BEGINHMM>
<NUMSTATES> 5
<STATE> 2
<MEAN> 25
 -1.316840e+000 3.258461e+000 -1.384663e+000 1.891909e+000 1.522864e+000 -2.066841e+000 2.529948e+000 -7.678812e-001 3.746549e-001 4.256046e-001 -5.564594e-001 1.085244e+000 -9.614792e-001 -2.371116e-001 -6.867614e-001 3.195349e-001 5.439539e-001 -2.573995e-001 2.293786e-001 1.023055e-001 3.354112e-001 -7.866056e-002 -4.840902e-002 4.736844e-001 -9.788100e-001
<VARIANCE> 25
 3.159109e+001 3.132776e+001 3.433116e+001 3.401543e+001 4.049032e+001 4.468079e+001 4.036549e+001 4.725666e+001 4.237267e+001 3.587758e+001 3.063114e+001 2.997317e+001 2.295997e+000 4.049521e+000 3.437613e+000 3.042857e+000 4.199065e+000 3.824649e+000 3.673797e+000 3.812774e+000 3.793597e+000 3.244597e+000 2.727282e+000 2.492775e+000 8.630834e+000
<GCONST> 1.056859e+002
<STATE> 3
<MEAN> 25
 -5.681859e+000 -3.255300e+000 -7.482121e+000 1.119953e+000 5.779038e+000 -4.540943e+000 1.209615e+000 8.067150e-001 9.034884e-001 2.432029e+000 -1.229133e+000 3.194160e+000 -7.188016e-001 -2.058578e+000 -2.129145e+000 -1.046943e+000 1.308698e+000 -8.519778e-001 -1.030559e+000 8.282697e-001 -7.690806e-002 9.400332e-001 -5.447795e-001 1.887819e-001 4.712088e+000
<VARIANCE> 25
 2.826386e+001 5.960909e+001 6.433778e+001 5.064544e+001 5.719768e+001 5.697772e+001 5.153215e+001 4.485289e+001 4.311338e+001 3.638207e+001 2.929435e+001 3.012536e+001 3.820710e+000 5.388581e+000 6.938429e+000 5.825565e+000 6.610546e+000 6.063040e+000 5.472208e+000 5.192371e+000 5.022814e+000 4.168318e+000 4.125701e+000 3.728771e+000 1.110578e+001
<GCONST> 1.133848e+002
<STATE> 4
<MEAN> 25
 -3.531276e+000 -3.021828e+000 -7.721556e+000 -2.236421e+000 4.473982e+000 -4.970220e+000 -3.067956e-001 2.350660e+000 6.762213e-001 3.086760e+000 -2.247577e+000 5.943110e-001 1.925102e+000 4.834070e-001 1.515791e+000 -9.440497e-001 -1.679604e+000 6.966320e-001 -4.088487e-001 4.324695e-001 -3.154908e-001 -4.506379e-001 2.620881e-001 -1.471767e+000 2.659585e+000
<VARIANCE> 25
 4.298233e+001 3.972903e+001 6.545242e+001 5.184302e+001 5.945693e+001 6.546712e+001 5.234121e+001 4.953521e+001 4.484405e+001 3.638615e+001 3.467916e+001 4.048482e+001 5.002682e+000 5.010340e+000 5.560685e+000 5.902606e+000 5.972716e+000 5.805889e+000 5.332672e+000 5.777700e+000 5.174777e+000 3.915368e+000 4.137995e+000 4.496249e+000 8.327363e+000
<GCONST> 1.140293e+002
<TRANSP> 5
 0.000000e+000 1.000000e+000 0.000000e+000 0.000000e+000 0.000000e+000
 0.000000e+000 7.909739e-001 2.090261e-001 0.000000e+000 0.000000e+000
 0.000000e+000 0.000000e+000 5.228509e-001 4.771491e-001 0.000000e+000
 0.000000e+000 0.000000e+000 0.000000e+000 5.743605e-001 4.256395e-001
 0.000000e+000 0.000000e+000 0.000000e+000 0.000000e+000 0.000000e+000
<ENDHMM>
~h "l"
<BEGINHMM>
<NUMSTATES> 5
<STATE> 2
<MEAN> 25
 6.763856e+000 -5.151332e+000 1.308348e+000 -6.091116e+000 -2.719563e+000 2.059637e+000 -8.693837e+000 -4.313792e+000 3.587645e+000 4.696687e+000 1.278132e+000 -3.171856e+000 5.594689e-001 1.688702e-001 6.537436e-001 -6.785486e-001 6.895299e-001 2.383821e-002 -1.521505e+000 -1.408322e+000 1.180374e-001 1.234772e+000 4.227823e-001 -3.285089e-001 -3.747877e-001
<VARIANCE> 25
 1.490106e+001 2.658120e+001 4.927262e+001 6.371350e+001 5.321101e+001 6.861253e+001 7.163356e+001 1.092950e+002 5.931565e+001 4.911866e+001 4.969875e+001 4.306314e+001 1.103638e+000 1.889076e+000 2.801605e+000 4.600902e+000 5.122224e+000 5.897264e+000 4.809377e+000 5.859751e+000 4.544019e+000 4.023883e+000 4.533753e+000 3.345357e+000 1.508286e+000
<GCONST> 1.088685e+002
<STATE> 3
<MEAN> 25
 7.798738e+000 -4.446450e+000 2.813811e+000 -8.268784e+000 -1.412459e+000 3.380491e+000 -1.213002e+001 -6.800296e+000 2.847563e+000 7.103927e+000 2.909146e+000 -3.684603e+000 -7.389291e-002 1.462747e-001 -2.354771e-003 -2.142064e-001 3.667189e-001 -1.188913e-001 -2.770402e-001 2.236164e-001 8.529149e-003 -6.278322e-002 -7.840623e-002 7.910557e-003 -6.706327e-002
<VARIANCE> 25
 1.149641e+001 2.132593e+001 4.184265e+001 6.894535e+001 5.087188e+001 5.484488e+001 7.107331e+001 8.115820e+001 5.760289e+001 4.940394e+001 4.545159e+001 4.106487e+001 5.324473e-001 1.343845e+000 2.570479e+000 3.345746e+000 2.304359e+000 3.380984e+000 3.370561e+000 5.181722e+000 3.253755e+000 3.031550e+000 3.156543e+000 2.367537e+000 1.014189e+000
<GCONST> 1.025400e+002
<STATE> 4
<MEAN> 25
 5.897347e+000 -2.490092e+000 -4.899460e-001 -7.372878e+000 1.141008e+000 2.654936e+000 -7.357096e+000 -3.358538e+000 2.438149e+000 4.310235e+000 7.857137e-001 -2.701811e+000 -4.784116e-001 -5.870783e-002 -5.193801e-001 6.396080e-001 -7.461257e-002 -1.190632e-001 1.093400e+000 9.510272e-001 5.453754e-002 -8.976759e-001 -6.877220e-001 1.775110e-001 -1.694294e-001
<VARIANCE> 25
 2.148066e+001 3.247627e+001 5.897429e+001 8.157410e+001 5.863762e+001 6.092634e+001 9.642248e+001 7.489837e+001 5.788609e+001 5.817778e+001 5.120395e+001 4.403166e+001 7.954318e-001 2.344519e+000 2.692983e+000 3.654723e+000 3.321220e+000 4.001967e+000 4.145620e+000 5.339124e+000 3.920325e+000 3.537256e+000 4.056279e+000 2.842459e+000 2.569691e+000
<GCONST> 1.084942e+002
<TRANSP> 5
 0.000000e+000 1.000000e+000 0.000000e+000 0.000000e+000 0.000000e+000
 0.000000e+000 5.159716e-001 4.840284e-001 0.000000e+000 0.000000e+000
 0.000000e+000 0.000000e+000 5.213576e-001 4.786424e-001 0.000000e+000
 0.000000e+000 0.000000e+000 0.000000e+000 5.649757e-001 4.350243e-001
 0.000000e+000 0.000000e+000 0.000000e+000 0.000000e+000 0.000000e+000
<ENDHMM>
~h "m"
<BEGINHMM>
<NUMSTATES> 5
<STATE> 2
<MEAN> 25
 8.270249e+000 -1.361365e+000 1.466396e+000 -8.627899e-001 -1.198091e+000 4.899872e+000 -9.501143e-001 -6.319842e+000 -6.390105e+000 8.036590e-001 9.828157e-001 -2.808684e+000 4.612695e-001 1.378001e+000 1.835016e+000 2.306262e+000 3.376999e-001 -8.331838e-002 1.078730e+000 -3.213707e+000 -3.098009e+000 -2.876278e-002 -5.644964e-001 8.892232e-001 -1.104295e+000
<VARIANCE> 25
 1.930005e+001 3.968036e+001 3.687437e+001 6.551348e+001 3.961950e+001 5.328176e+001 5.834116e+001 7.013718e+001 5.956403e+001 4.124256e+001 4.554070e+001 4.318161e+001 1.995280e+000 2.329773e+000 3.734389e+000 3.918329e+000 3.494551e+000 3.841708e+000 5.688869e+000 4.948997e+000 5.933753e+000 4.352135e+000 6.435746e+000 4.578571e+000 3.975153e+000
<GCONST> 1.099091e+002
<STATE> 3
<MEAN> 25
 8.255494e+000 8.672829e-001 6.656128e+000 4.099940e+000 -4.577020e-001 4.354449e+000 5.943286e-001 -1.288901e+001 -1.345537e+001 9.603251e-001 -1.305692e+000 4.369323e-001 -9.351034e-003 1.668843e-001 4.314348e-001 3.385065e-001 1.430926e-001 1.963437e-001 2.394888e-001 -5.486565e-001 -6.671508e-001 -1.809579e-001 -3.330737e-001 3.379088e-001 -7.184306e-002
<VARIANCE> 25
 9.134001e+000 2.299892e+001 2.307195e+001 3.682954e+001 3.448977e+001 5.397088e+001 7.136933e+001 4.834259e+001 4.011593e+001 5.509770e+001 5.729353e+001 4.876386e+001 7.632725e-001 1.362024e+000 1.377676e+000 2.100738e+000 1.811008e+000 2.005352e+000 2.308538e+000 2.526536e+000 2.940448e+000 2.364892e+000 2.924995e+000 1.953721e+000 2.186614e+000
<GCONST> 9.797000e+001
<STATE> 4
<MEAN> 25
 6.603864e+000 1.243106e+000 4.666360e+000 2.226090e+000 -7.715122e-001 5.113588e+000 7.907139e-001 -9.142076e+000 -9.473551e+000 -9.545295e-001 -1.852579e+000 -3.611786e-001 -8.045810e-002 -2.095654e-001 -9.413966e-001 -8.815757e-001 -2.289456e-001 -2.266639e-002 -1.725844e-001 1.188922e+000 1.214761e+000 3.746609e-002 4.221106e-001 -4.904501e-001 3.753137e-001
<VARIANCE> 25
 2.077469e+001 2.415033e+001 3.644142e+001 4.619050e+001 4.667586e+001 5.232029e+001 6.125645e+001 5.787773e+001 5.976365e+001 4.225615e+001 4.770028e+001 3.914151e+001 5.369844e-001 1.555328e+000 2.613129e+000 3.379998e+000 1.931100e+000 2.244353e+000 2.762779e+000 3.596972e+000 4.238088e+000 2.465852e+000 3.058846e+000 2.672807e+000 2.111269e+000
<GCONST> 1.018900e+002
<TRANSP> 5
 0.000000e+000 1.000000e+000 0.000000e+000 0.000000e+000 0.000000e+000
 0.000000e+000 5.802974e-001 4.197026e-001 0.000000e+000 0.000000e+000
 0.000000e+000 0.000000e+000 6.568332e-001 3.431667e-001 0.000000e+000
 0.000000e+000 0.000000e+000 0.000000e+000 7.454425e-001 2.545575e-001
 0.000000e+000 0.000000e+000 0.000000e+000 0.000000e+000 0.000000e+000
<ENDHMM>
~h "n"
<BEGINHMM>
<NUMSTATES> 5
<STATE> 2
<MEAN> 25
 7.130921e+000 -4.560270e+000 3.410553e+000 6.488662e-001 -2.660518e+000 -1.849280e+000 -4.970039e+000 4.907876e-001 9.107214e-002 1.572649e+000 -5.099213e+000 -4.105733e+000 6.543340e-001 2.238944e+000 2.018734e+000 2.382540e+000 -5.063254e-001 -1.110098e+000 5.550978e-001 -4.255592e+000 -7.550916e-001 1.189510e+000 -7.336089e-001 9.178480e-001 -2.213876e+000
<VARIANCE> 25
 8.732580e+000 3.458982e+001 3.886723e+001 4.157172e+001 4.312157e+001 4.717336e+001 4.587927e+001 1.142116e+002 5.084775e+001 4.831889e+001 4.011609e+001 3.461642e+001 7.329281e-001 1.927498e+000 3.728932e+000 2.542937e+000 3.410637e+000 4.738552e+000 5.845807e+000 6.481690e+000 6.378892e+000 5.638815e+000 5.801090e+000 3.088718e+000 1.087273e+000
<GCONST> 1.058342e+002
<STATE> 3
<MEAN> 25
 8.280454e+000 6.385043e-001 8.621339e+000 5.280538e+000 -4.800612e+000 -2.791418e+000 -3.009627e+000 -1.027074e+001 -2.644397e+000 4.569628e+000 -6.345272e+000 -9.765917e-001 1.510592e-001 8.391762e-001 3.017677e-001 5.605205e-001 -1.265033e-001 1.444817e-001 5.220222e-001 -1.075186e+000 -4.969774e-001 1.902661e-001 -1.046214e-001 5.374848e-001 -8.435184e-001
<VARIANCE> 25
 7.370128e+000 1.577120e+001 2.146094e+001 2.961531e+001 3.256694e+001 4.751381e+001 6.021163e+001 5.059380e+001 4.565225e+001 4.701772e+001 4.291434e+001 3.497983e+001 4.128624e-001 1.257505e+000 1.596349e+000 1.423024e+000 1.704621e+000 1.997737e+000 2.623565e+000 4.016128e+000 2.621141e+000 2.368841e+000 2.294967e+000 1.783786e+000 9.643679e-001
<GCONST> 9.445302e+001
<STATE> 4
<MEAN> 25
 5.095548e+000 3.418688e+000 5.833982e+000 6.110173e+000 -1.292932e+000 -1.445006e+000 3.305420e-001 -7.542732e+000 -2.991160e+000 1.582025e+000 -4.541412e+000 8.103410e-001 -6.202441e-001 2.238798e-001 -5.950608e-001 -1.676974e-001 6.881271e-001 2.062608e-001 1.411435e-001 8.295933e-001 1.383270e-001 -5.767889e-001 4.225665e-001 -9.283076e-002 -8.707365e-001
<VARIANCE> 25
 3.230298e+001 2.604180e+001 3.331953e+001 3.048857e+001 5.093219e+001 3.391597e+001 5.780163e+001 7.001050e+001 5.199216e+001 5.155368e+001 4.592358e+001 3.359190e+001 1.160695e+000 2.098306e+000 1.926297e+000 2.211447e+000 2.743872e+000 2.470057e+000 3.266244e+000 4.124423e+000 3.158169e+000 2.842851e+000 2.529469e+000 2.195726e+000 3.082262e+000
<GCONST> 1.024889e+002
<TRANSP> 5
 0.000000e+000 1.000000e+000 0.000000e+000 0.000000e+000 0.000000e+000
 0.000000e+000 6.062023e-001 3.937977e-001 0.000000e+000 0.000000e+000
 0.000000e+000 0.000000e+000 6.891564e-001 3.108436e-001 0.000000e+000
 0.000000e+000 0.000000e+000 0.000000e+000 7.640492e-001 2.359508e-001
 0.000000e+000 0.000000e+000 0.000000e+000 0.000000e+000 0.000000e+000
<ENDHMM>
~h "o"
<BEGINHMM>
<NUMSTATES> 5
<STATE> 2
<MEAN> 25
 5.889299e+000 4.440509e-001 -5.530418e+000 -9.220311e+000 -2.834592e+000 5.559874e+000 -4.193320e+000 -2.337032e+000 1.029475e-001 1.723524e+000 3.585545e+000 -3.082887e-001 1.942624e+000 -3.472488e-001 -4.998700e-001 -3.280056e+000 -1.522840e+000 2.687903e+000 -8.103236e-001 1.301220e-001 4.651216e-002 7.462166e-002 1.285265e+000 -4.724927e-001 2.145291e+000
<VARIANCE> 25
 2.998759e+001 3.407813e+001 4.363600e+001 7.927210e+001 5.615852e+001 5.593345e+001 7.648652e+001 5.678216e+001 5.806287e+001 5.628053e+001 4.167572e+001 3.366235e+001 4.736461e+000 3.302068e+000 5.890142e+000 6.662932e+000 7.394606e+000 5.590472e+000 6.129963e+000 7.495184e+000 5.895121e+000 5.668278e+000 4.639946e+000 4.080138e+000 5.136050e+000
<GCONST> 1.148470e+002
<STATE> 3
<MEAN> 25
 8.481354e+000 -9.146905e-001 -6.205061e+000 -1.568288e+001 -5.283163e+000 1.226739e+001 -5.303000e+000 -2.043593e+000 -2.569440e-001 1.507941e+000 7.109882e+000 -4.721939e-001 1.911446e-001 -1.164956e-001 -2.146510e-001 -1.029600e+000 -6.615151e-002 1.081229e+000 3.057553e-001 1.447949e-001 -8.513294e-002 -3.470539e-001 4.015493e-001 1.969246e-001 1.960252e-001
<VARIANCE> 25
 1.092912e+001 2.764023e+001 2.586894e+001 4.914448e+001 4.787861e+001 4.024372e+001 5.765800e+001 5.452665e+001 5.242509e+001 6.099942e+001 3.883960e+001 3.881697e+001 5.813439e-001 1.967367e+000 1.327907e+000 3.162508e+000 2.466522e+000 2.660485e+000 3.279748e+000 2.990895e+000 3.618890e+000 3.823224e+000 2.459187e+000 2.402233e+000 2.029665e+000
<GCONST> 1.006561e+002
<STATE> 4
<MEAN> 25
 7.622412e+000 4.328171e-001 -5.804906e+000 -1.464098e+001 -4.039856e+000 1.057488e+001 -2.393585e+000 -1.631500e+000 8.896400e-001 -1.754053e-001 4.428107e+000 5.315591e-003 -2.167124e-001 4.452542e-002 2.399357e-001 1.178211e+000 4.051731e-001 -8.903162e-001 1.151730e-001 -6.849941e-002 1.500585e-001 2.462851e-001 -5.465503e-001 -1.610987e-001 -8.253102e-001
<VARIANCE> 25
 1.897565e+001 3.852425e+001 2.531689e+001 7.173808e+001 5.007190e+001 4.671482e+001 6.889546e+001 5.422310e+001 4.920117e+001 5.884499e+001 3.386472e+001 4.056689e+001 7.103513e-001 1.505109e+000 1.343469e+000 3.326788e+000 2.274624e+000 2.795470e+000 2.843066e+000 2.596305e+000 2.596534e+000 2.840243e+000 2.192504e+000 2.011409e+000 2.399889e+000
<GCONST> 1.009955e+002
<TRANSP> 5
 0.000000e+000 1.000000e+000 0.000000e+000 0.000000e+000 0.000000e+000
 0.000000e+000 5.700027e-001 4.299973e-001 0.000000e+000 0.000000e+000
 0.000000e+000 0.000000e+000 6.409426e-001 3.590574e-001 0.000000e+000
 0.000000e+000 0.000000e+000 0.000000e+000 8.375517e-001 1.624483e-001
 0.000000e+000 0.000000e+000 0.000000e+000 0.000000e+000 0.000000e+000
<ENDHMM>
~h "p"
<BEGINHMM>
<NUMSTATES> 5
<STATE> 2
<MEAN> 25
 2.231148e+000 5.594690e+000 -7.882507e-001 1.308418e+000 1.893057e+000 7.643160e-001 2.687063e+000 -3.688591e+000 -4.406583e-002 3.160710e-002 -1.393399e-001 -2.023863e-001 -1.317510e+000 2.646507e-001 -3.220928e-001 5.325102e-001 2.161091e-001 -5.815111e-001 5.612464e-001 2.780676e-001 4.998363e-001 -2.909302e-001 -2.708360e-002 4.291314e-001 -1.768036e+000
<VARIANCE> 25
 3.543574e+001 2.393126e+001 3.436248e+001 4.082572e+001 2.685882e+001 4.036354e+001 3.294391e+001 3.847755e+001 4.082205e+001 3.107121e+001 2.863507e+001 2.965613e+001 1.825814e+000 2.900219e+000 2.244968e+000 2.783325e+000 2.590350e+000 2.995758e+000 2.999172e+000 2.884716e+000 3.292918e+000 2.688602e+000 2.482317e+000 2.115164e+000 8.197430e+000
<GCONST> 1.016082e+002
<STATE> 3
<MEAN> 25
 -2.654469e+000 2.807437e+000 -2.727374e+000 1.363518e+000 1.594004e+000 -9.790275e-001 3.203028e+000 -1.889477e+000 1.192879e+000 -4.580819e-001 9.125315e-001 1.531627e+000 5.702406e-001 -2.302455e+000 -1.256025e+000 -1.902649e+000 -5.335495e-001 7.119830e-001 -8.501897e-001 1.281079e-001 3.852676e-001 1.971007e-001 8.560009e-001 -3.618095e-001 5.569946e+000
<VARIANCE> 25
 2.616162e+001 2.484937e+001 2.388744e+001 3.845189e+001 2.516742e+001 3.454389e+001 3.038529e+001 2.919998e+001 3.063559e+001 2.463481e+001 2.303596e+001 2.123393e+001 6.715759e+000 3.830101e+000 3.457118e+000 7.430602e+000 3.705205e+000 7.385182e+000 4.250167e+000 4.420062e+000 4.379868e+000 3.804173e+000 3.412963e+000 4.072583e+000 1.302312e+001
<GCONST> 1.063691e+002
<STATE> 4
<MEAN> 25
 -3.893268e+000 3.072257e-001 -4.029361e+000 1.131947e+000 1.905759e+000 5.430396e-001 2.788408e+000 -5.336533e-001 1.827415e+000 -5.972112e-001 1.071267e+000 1.959524e+000 7.973555e-001 -7.692455e-001 -1.619111e-001 -7.641296e-001 -3.447625e-001 4.425386e-001 -6.413020e-001 -3.687705e-002 -5.277507e-002 4.980518e-003 2.201191e-001 -4.090750e-001 2.553855e+000
<VARIANCE> 25
 3.554404e+001 2.804029e+001 1.926797e+001 4.476608e+001 2.573728e+001 3.820144e+001 3.253239e+001 2.643012e+001 2.634997e+001 2.393273e+001 2.123935e+001 2.309126e+001 4.133055e+000 3.811029e+000 2.548007e+000 5.067750e+000 2.880074e+000 5.067583e+000 3.648686e+000 3.405617e+000 2.994704e+000 2.769767e+000 2.577956e+000 3.032773e+000 1.391869e+001
<GCONST> 1.032217e+002
<TRANSP> 5
 0.000000e+000 1.000000e+000 0.000000e+000 0.000000e+000 0.000000e+000
 0.000000e+000 7.738929e-001 2.261070e-001 0.000000e+000 0.000000e+000
 0.000000e+000 0.000000e+000 3.779658e-001 6.220343e-001 0.000000e+000
 0.000000e+000 0.000000e+000 0.000000e+000 7.051717e-001 2.948283e-001
 0.000000e+000 0.000000e+000 0.000000e+000 0.000000e+000 0.000000e+000
<ENDHMM>
~h "q"
<BEGINHMM>
<NUMSTATES> 5
<STATE> 2
<MEAN> 25
 -5.948135e+000 5.564857e+000 1.264748e+000 6.422334e+000 -2.467068e-001 -1.980868e+000 3.154274e+000 -4.792220e+000 1.007622e+000 -3.323779e+000 -4.959449e-001 2.204391e+000 -5.119627e-001 -3.412396e-001 -4.155398e-001 -1.580487e-001 4.943967e-001 -1.549218e-002 -1.457101e-001 2.368040e-001 4.287829e-001 9.702130e-002 -5.285225e-002 9.671127e-001 6.295282e-002
<VARIANCE> 25
 1.366565e+001 2.743882e+001 3.302338e+001 8.299365e+000 2.401109e+001 2.841225e+001 1.357094e+001 1.203684e+001 4.162278e+001 2.029305e+001 2.283136e+001 2.742056e+001 1.714626e+000 4.921541e+000 7.556923e+000 1.892528e+000 2.610004e+000 4.215153e+000 3.025103e+000 1.632638e+000 4.969252e+000 4.160050e+000 1.910250e+000 4.373056e+000 5.931170e+000
<GCONST> 9.800683e+001
<STATE> 3
<MEAN> 25
 -1.614245e+000 -8.494321e-001 -1.250979e+000 -4.514234e-001 -1.724183e+000 -6.843174e+000 6.969163e-001 1.373590e-001 -1.802737e+000 -2.747077e-001 1.240960e+000 5.532506e+000 -4.452424e-001 -2.806937e-001 -1.413610e+000 -5.137460e-001 5.634170e-001 7.206770e-001 3.847914e-001 -6.748173e-002 3.030161e-001 -4.548661e-001 -1.751912e-001 2.296770e-001 6.063830e-001
<VARIANCE> 25
 2.853984e+001 5.777475e+001 2.286565e+002 4.545797e+001 7.657308e+001 5.490540e+001 3.898419e+001 5.710897e+001 4.004488e+001 3.035867e+001 3.828922e+001 4.561360e+001 3.169382e+000 6.269448e+000 9.518185e+000 5.773296e+000 6.658724e+000 5.008829e+000 1.638277e+000 4.382186e+000 6.725485e+000 2.967267e+000 4.345388e+000 3.439404e+000 1.243585e+001
<GCONST> 1.139168e+002
<STATE> 4
<MEAN> 25
 -8.190113e+000 2.856242e+000 -5.833645e+000 3.866495e+000 1.080683e+000 1.599473e+000 6.473827e+000 -4.700943e+000 4.031559e+000 -3.993703e+000 -1.815568e+000 2.309301e+000 -1.642400e-001 2.038157e-001 1.436523e-001 -1.794125e-002 6.166960e-002 2.700581e-001 1.245709e-001 1.871298e-001 1.001686e-001 -1.056848e-001 -1.264763e-001 -1.218888e-001 -7.908924e-002
<VARIANCE> 25
 1.083197e+001 1.250300e+001 1.917329e+001 1.513791e+001 1.176475e+001 2.084440e+001 1.480952e+001 1.589565e+001 2.312855e+001 1.249788e+001 2.021724e+001 1.098246e+001 1.699968e+000 2.131038e+000 2.375125e+000 9.794263e-001 1.957258e+000 1.496116e+000 1.498145e+000 1.902119e+000 2.353420e+000 1.882318e+000 2.032890e+000 1.540158e+000 2.437117e+000
<GCONST> 8.633272e+001
<TRANSP> 5
 0.000000e+000 1.000000e+000 0.000000e+000 0.000000e+000 0.000000e+000
 0.000000e+000 7.950038e-001 2.049962e-001 0.000000e+000 0.000000e+000
 0.000000e+000 0.000000e+000 8.328284e-001 1.671716e-001 0.000000e+000
 0.000000e+000 0.000000e+000 0.000000e+000 8.972485e-001 1.027515e-001
 0.000000e+000 0.000000e+000 0.000000e+000 0.000000e+000 0.000000e+000
<ENDHMM>
~h "r"
<BEGINHMM>
<NUMSTATES> 5
<STATE> 2
<MEAN> 25
 5.659511e+000 -5.538198e+000 -4.198293e+000 -1.156936e+000 -3.211889e+000 -3.581079e-001 -5.365638e+000 2.293332e-001 6.217630e+000 2.403612e+000 2.780231e-001 -3.598395e+000 3.710723e-001 1.231553e-001 1.597050e-001 1.717727e+000 -2.825888e-001 -3.489477e-001 -5.007434e-001 -8.089756e-001 8.505570e-001 -1.789842e-001 2.252406e-001 2.561847e-001 -9.813512e-001
<VARIANCE> 25
 2.067922e+001 3.014456e+001 4.453780e+001 4.844506e+001 4.691735e+001 5.267159e+001 6.213742e+001 8.297443e+001 5.171548e+001 4.480005e+001 4.265752e+001 3.903279e+001 3.061496e+000 3.145164e+000 3.185474e+000 6.119162e+000 5.520271e+000 5.797138e+000 6.065531e+000 6.239900e+000 5.968262e+000 5.638154e+000 4.958300e+000 4.132500e+000 4.856980e+000
<GCONST> 1.120353e+002
<STATE> 3
<MEAN> 25
 6.538119e+000 -4.878096e+000 -2.978119e+000 2.570164e+000 -3.991544e+000 -9.459727e-001 -6.806199e+000 -1.130475e+000 7.070270e+000 2.201159e+000 1.315208e+000 -2.922901e+000 -1.179267e-001 3.336950e-001 5.252653e-001 7.708491e-001 2.803857e-001 -3.937216e-001 2.296321e-002 -2.363897e-001 -4.459814e-001 -2.382043e-001 1.584536e-001 5.812069e-001 -1.022830e+000
<VARIANCE> 25
 1.969524e+001 2.760108e+001 4.681204e+001 4.131673e+001 5.007644e+001 4.920761e+001 6.263589e+001 7.403832e+001 5.208918e+001 4.530920e+001 4.052539e+001 3.588941e+001 2.685432e+000 2.879297e+000 3.124814e+000 4.081255e+000 5.155788e+000 5.305329e+000 5.612264e+000 6.147546e+000 5.380298e+000 4.993435e+000 4.203946e+000 4.184142e+000 3.717379e+000
<GCONST> 1.100251e+002
<STATE> 4
<MEAN> 25
 1.578208e+000 -2.264371e+000 -2.467484e+000 3.429488e+000 5.118489e-002 -6.292999e-001 -1.417127e+000 -4.959053e-001 3.841333e+000 -3.027543e-002 5.567440e-002 3.133189e-001 -1.850615e-001 2.003570e-001 2.859122e-001 -9.543961e-002 1.388584e-001 -6.924829e-003 2.259310e-001 4.413668e-002 -6.042717e-001 -1.281871e-001 4.776536e-002 2.162323e-001 -4.246071e-001
<VARIANCE> 25
 5.117836e+001 3.715782e+001 5.021820e+001 3.824291e+001 5.014889e+001 4.913657e+001 6.910842e+001 5.540738e+001 4.661266e+001 4.305797e+001 3.880857e+001 3.283054e+001 2.051915e+000 2.244746e+000 2.549710e+000 2.331804e+000 3.228248e+000 3.231019e+000 3.495825e+000 3.488035e+000 3.559246e+000 2.934316e+000 2.689922e+000 2.449126e+000 2.793836e+000
<GCONST> 1.052865e+002
<TRANSP> 5
 0.000000e+000 1.000000e+000 0.000000e+000 0.000000e+000 0.000000e+000
 0.000000e+000 4.046251e-001 5.953749e-001 0.000000e+000 0.000000e+000
 0.000000e+000 0.000000e+000 3.610491e-001 6.389509e-001 0.000000e+000
 0.000000e+000 0.000000e+000 0.000000e+000 7.122793e-001 2.877207e-001
 0.000000e+000 0.000000e+000 0.000000e+000 0.000000e+000 0.000000e+000
<ENDHMM>
~h "s"
<BEGINHMM>
<NUMSTATES> 5
<STATE> 2
<MEAN> 25
 -5.888775e+000 5.878224e+000 5.343131e-001 2.528970e+000 4.866112e+000 -4.616712e+000 1.807266e+000 1.315842e+000 1.314205e+000 -6.657150e-001 -1.582987e+000 2.060474e+000 -4.704078e+000 2.052342e+000 -9.812275e-001 9.252479e-001 1.824324e+000 -4.835665e-001 1.884897e+000 7.148665e-001 6.489081e-001 -5.303771e-001 7.502747e-001 8.823819e-001 -7.239116e-001
<VARIANCE> 25
 7.168022e+001 4.690224e+001 4.663935e+001 4.071497e+001 4.896991e+001 4.552198e+001 7.397330e+001 5.430467e+001 4.997206e+001 3.708870e+001 4.082502e+001 3.052703e+001 3.313576e+000 6.028570e+000 4.301567e+000 4.771317e+000 5.271617e+000 4.826677e+000 6.367106e+000 5.879797e+000 4.960377e+000 4.338793e+000 4.119381e+000 3.256880e+000 2.698853e+000
<GCONST> 1.118103e+002
<STATE> 3
<MEAN> 25
 -2.173927e+001 5.722763e+000 -5.451592e+000 1.830370e+000 7.120379e+000 -4.289788e+000 5.403160e+000 3.240609e+000 3.126944e+000 5.247557e-002 2.098397e+000 4.696608e+000 -8.402762e-001 -5.722790e-001 -5.479301e-001 -2.595674e-001 -1.242871e-001 6.321175e-002 9.306040e-002 1.212095e-001 1.731353e-001 1.715895e-001 2.399972e-001 2.019118e-001 -2.669977e-001
<VARIANCE> 25
 1.872237e+001 2.495829e+001 3.419805e+001 3.203040e+001 2.842401e+001 2.977924e+001 5.263250e+001 3.545998e+001 3.551514e+001 2.530060e+001 2.380392e+001 2.281491e+001 3.120142e+000 1.373134e+000 1.833473e+000 1.494983e+000 1.688480e+000 1.761184e+000 1.865786e+000 1.880352e+000 1.917182e+000 1.757820e+000 1.712284e+000 1.454867e+000 1.056911e+000
<GCONST> 9.345481e+001
<STATE> 4
<MEAN> 25
 -1.345370e+001 2.612190e+000 -4.557866e+000 1.326391e+000 4.481931e+000 -3.850247e+000 3.153437e+000 1.828699e+000 3.340075e+000 -6.109771e-001 7.017677e-001 2.952919e+000 3.441246e+000 -2.047636e-001 1.036908e+000 -2.331013e-001 -8.993480e-001 8.266734e-002 -1.311433e+000 -8.129697e-001 -3.081389e-001 -9.570865e-002 -6.770660e-001 -9.970599e-001 9.595612e-002
<VARIANCE> 25
 7.667953e+001 2.882534e+001 3.794579e+001 3.099496e+001 3.389768e+001 4.046414e+001 5.656479e+001 3.977310e+001 3.696644e+001 2.822560e+001 2.749270e+001 2.689610e+001 9.335703e+000 3.425228e+000 3.902366e+000 3.448930e+000 3.321294e+000 3.686651e+000 5.283740e+000 4.384562e+000 4.055898e+000 2.909030e+000 3.052858e+000 2.958406e+000 5.581476e+000
<GCONST> 1.073169e+002
<TRANSP> 5
 0.000000e+000 1.000000e+000 0.000000e+000 0.000000e+000 0.000000e+000
 0.000000e+000 7.052513e-001 2.947487e-001 0.000000e+000 0.000000e+000
 0.000000e+000 0.000000e+000 8.450239e-001 1.549761e-001 0.000000e+000
 0.000000e+000 0.000000e+000 0.000000e+000 7.641029e-001 2.358971e-001
 0.000000e+000 0.000000e+000 0.000000e+000 0.000000e+000 0.000000e+000
<ENDHMM>
~h "t"
<BEGINHMM>
<NUMSTATES> 5
<STATE> 2
<MEAN> 25
 -2.764910e-001 4.510165e+000 -1.030047e+000 2.263633e+000 1.829316e+000 -2.772579e+000 7.976544e-001 -1.312928e+000 2.419192e+000 2.537353e-001 -1.127497e+000 4.726370e-002 -8.430831e-001 2.873479e-001 -2.809129e-001 2.881206e-001 1.502722e-001 -2.381803e-002 7.485020e-001 -7.649057e-002 1.075813e-001 -2.870070e-001 1.477736e-001 3.764383e-001 -1.881033e+000
<VARIANCE> 25
 2.807966e+001 2.699419e+001 3.292644e+001 3.187576e+001 3.084254e+001 3.622260e+001 4.406947e+001 4.083916e+001 3.948197e+001 3.236625e+001 3.073968e+001 2.706556e+001 1.913993e+000 3.046891e+000 2.051773e+000 2.664229e+000 2.945474e+000 2.693543e+000 3.263942e+000 3.133067e+000 2.873392e+000 2.591556e+000 2.396215e+000 2.088753e+000 7.201397e+000
<GCONST> 1.013750e+002
<STATE> 3
<MEAN> 25
 -4.841349e+000 3.294358e+000 -1.760001e+000 2.393581e+000 2.122610e+000 -2.944001e+000 3.302516e+000 -1.365927e+000 2.185122e+000 -5.378652e-001 -3.383261e-001 1.968170e+000 -1.608165e+000 -1.892130e+000 -8.056473e-001 -1.053027e+000 2.323569e-001 -3.120480e-001 -1.948441e-002 4.936116e-001 1.009900e-001 -1.018117e-001 4.073474e-001 4.294155e-001 3.821328e+000
<VARIANCE> 25
 2.917442e+001 3.010256e+001 2.831996e+001 2.644771e+001 2.804334e+001 3.366822e+001 3.504681e+001 3.451912e+001 3.447450e+001 2.678132e+001 2.643523e+001 2.384125e+001 3.468211e+000 3.620217e+000 3.509790e+000 3.668899e+000 3.435637e+000 3.824510e+000 4.212923e+000 3.887294e+000 4.376135e+000 2.945714e+000 3.379312e+000 2.807929e+000 1.271306e+001
<GCONST> 1.043725e+002
<STATE> 4
<MEAN> 25
 -6.590246e+000 -1.739435e+000 -3.987152e+000 -1.367960e+000 2.207105e+000 -3.793511e+000 1.536167e+000 8.068902e-002 2.944038e+000 -1.270140e-001 -1.490715e-001 1.698854e+000 1.409579e+000 -8.884277e-001 1.821887e-001 -1.261976e+000 -5.501572e-001 9.264337e-002 -1.836161e+000 -2.332119e-002 2.877190e-002 2.653839e-001 -8.973464e-002 -1.001898e+000 5.105139e+000
<VARIANCE> 25
 3.843456e+001 3.057963e+001 2.821996e+001 3.335517e+001 3.265801e+001 4.305209e+001 4.595307e+001 3.381940e+001 3.488470e+001 2.867717e+001 2.703879e+001 2.881240e+001 5.816811e+000 4.867124e+000 4.942663e+000 5.699861e+000 4.464457e+000 5.800941e+000 6.738078e+000 6.083227e+000 6.108460e+000 4.148928e+000 4.350868e+000 4.351501e+000 1.597677e+001
<GCONST> 1.106205e+002
<TRANSP> 5
 0.000000e+000 1.000000e+000 0.000000e+000 0.000000e+000 0.000000e+000
 0.000000e+000 8.123783e-001 1.876217e-001 0.000000e+000 0.000000e+000
 0.000000e+000 0.000000e+000 4.467161e-001 5.532840e-001 0.000000e+000
 0.000000e+000 0.000000e+000 0.000000e+000 5.648496e-001 4.351504e-001
 0.000000e+000 0.000000e+000 0.000000e+000 0.000000e+000 0.000000e+000
<ENDHMM>
~h "u"
<BEGINHMM>
<NUMSTATES> 5
<STATE> 2
<MEAN> 25
 5.608633e+000 4.093400e+000 -1.344981e+000 -3.236830e+000 -2.922894e+000 1.866516e+000 -6.897912e+000 -5.334512e+000 -3.528319e+000 -7.450046e-002 2.887872e+000 9.858170e-002 2.277399e+000 9.900954e-001 -4.904788e-002 -2.408161e+000 -1.863678e+000 2.120617e+000 -1.676781e+000 -9.866822e-001 -1.528602e+000 -5.676294e-002 1.437319e+000 -7.514343e-002 1.364972e+000
<VARIANCE> 25
 2.958203e+001 3.655931e+001 4.438071e+001 7.076108e+001 5.178992e+001 5.022100e+001 8.284744e+001 6.719005e+001 5.075588e+001 4.616294e+001 3.731674e+001 3.269374e+001 5.104448e+000 3.617551e+000 4.994941e+000 6.144578e+000 6.243242e+000 5.431787e+000 7.313528e+000 8.471894e+000 6.284986e+000 5.903827e+000 4.350049e+000 4.046775e+000 4.726578e+000
<GCONST> 1.143643e+002
<STATE> 3
<MEAN> 25
 9.167171e+000 5.732371e+000 -2.231282e+000 -9.784487e+000 -6.939924e+000 8.900464e+000 -8.402707e+000 -6.331661e+000 -6.445630e+000 -1.755024e+000 6.581555e+000 1.200988e+000 3.086311e-001 2.378496e-001 -8.203314e-002 -9.997183e-001 -3.077111e-001 9.846751e-001 -1.747755e-002 3.800971e-002 -4.220048e-001 -1.569467e-001 4.766304e-001 2.654738e-001 2.514540e-002
<VARIANCE> 25
 1.128566e+001 3.361295e+001 2.827032e+001 6.362180e+001 4.526557e+001 4.249268e+001 6.311307e+001 8.410855e+001 5.833517e+001 6.022832e+001 4.287802e+001 4.105745e+001 7.154687e-001 2.682958e+000 1.583804e+000 3.953802e+000 3.348760e+000 2.947318e+000 4.385467e+000 4.920658e+000 3.997499e+000 4.371742e+000 3.340811e+000 2.841866e+000 2.116516e+000
<GCONST> 1.048659e+002
<STATE> 4
<MEAN> 25
 8.500409e+000 6.365710e+000 -1.745420e+000 -8.684214e+000 -4.878462e+000 6.446349e+000 -6.605346e+000 -4.697824e+000 -5.100818e+000 -6.742190e-001 4.507691e+000 1.539404e-001 -3.938267e-001 -3.058678e-001 3.077016e-001 1.337898e+000 6.842770e-001 -9.745992e-001 5.419978e-001 -1.513407e-002 8.238339e-001 3.858041e-001 -6.888894e-001 -2.272217e-001 -8.992010e-001
<VARIANCE> 25
 1.591066e+001 4.099377e+001 3.252012e+001 7.238120e+001 4.985769e+001 4.692512e+001 8.223574e+001 7.271498e+001 5.650323e+001 5.726375e+001 4.560649e+001 4.183374e+001 1.052130e+000 2.327388e+000 1.970199e+000 3.915509e+000 3.403544e+000 3.436190e+000 4.226853e+000 4.041176e+000 3.846467e+000 3.818897e+000 3.292569e+000 3.022767e+000 3.402955e+000
<GCONST> 1.067261e+002
<TRANSP> 5
 0.000000e+000 1.000000e+000 0.000000e+000 0.000000e+000 0.000000e+000
 0.000000e+000 5.312704e-001 4.687296e-001 0.000000e+000 0.000000e+000
 0.000000e+000 0.000000e+000 6.493717e-001 3.506283e-001 0.000000e+000
 0.000000e+000 0.000000e+000 0.000000e+000 7.756329e-001 2.243671e-001
 0.000000e+000 0.000000e+000 0.000000e+000 0.000000e+000 0.000000e+000
<ENDHMM>
~h "w"
<BEGINHMM>
<NUMSTATES> 5
<STATE> 2
<MEAN> 25
 8.619457e+000 1.159596e+000 -2.568403e+000 -8.164157e+000 -3.046927e+000 5.906620e+000 -3.770247e+000 -2.130354e+000 -2.436759e+000 1.359738e+000 3.692649e+000 -1.173168e+000 1.514688e+000 1.145378e+000 -1.470691e-001 -2.126458e+000 -1.282891e+000 1.447474e+000 -8.496842e-002 -4.329820e-001 -1.310502e+000 -6.638476e-001 1.027680e+000 8.430733e-001 1.205781e-001
<VARIANCE> 25
 2.259961e+001 7.231425e+001 3.268823e+001 7.830447e+001 4.455270e+001 6.503710e+001 6.436535e+001 5.546830e+001 6.100212e+001 5.313426e+001 4.862606e+001 4.252381e+001 2.665658e+000 2.964745e+000 2.744113e+000 4.079856e+000 4.778235e+000 4.870025e+000 4.504607e+000 5.056831e+000 4.539381e+000 4.159136e+000 3.746992e+000 3.507579e+000 4.576720e+000
<GCONST> 1.108542e+002
<STATE> 3
<MEAN> 25
 1.179595e+001 3.509283e+000 -2.524343e+000 -1.581242e+001 -8.506118e+000 1.109308e+001 -4.822969e+000 -1.039174e+000 -3.287510e+000 -2.394341e+000 5.449402e+000 1.636161e+000 -1.057169e-001 -6.503103e-001 -3.019227e-001 -6.491599e-001 1.684459e-002 6.424027e-001 -7.822537e-002 -8.116422e-002 3.446265e-001 3.157390e-001 4.398332e-001 -1.096629e-002 6.903767e-001
<VARIANCE> 25
 9.852452e+000 3.444342e+001 1.965696e+001 4.756351e+001 4.508754e+001 4.362434e+001 3.803975e+001 4.988135e+001 5.499993e+001 3.964637e+001 3.294660e+001 3.123055e+001 5.973250e-001 3.719413e+000 1.599880e+000 3.022702e+000 3.113481e+000 3.211615e+000 2.504827e+000 2.426374e+000 2.762566e+000 3.858996e+000 2.741814e+000 2.919920e+000 2.490354e+000
<GCONST> 1.002112e+002
<STATE> 4
<MEAN> 25
 8.701080e+000 -4.120687e+000 -5.829749e+000 -1.610428e+001 -3.075634e+000 1.343588e+001 -3.420996e+000 -2.108000e+000 9.959954e-001 2.153333e+000 5.845460e+000 -3.368038e+000 -6.826510e-001 -1.407969e+000 -3.295386e-001 1.075595e+000 1.261340e+000 -5.592231e-001 -1.706650e-001 3.076917e-001 1.093685e+000 6.551412e-001 -1.062245e+000 -1.600921e+000 8.641047e-001
<VARIANCE> 25
 1.038322e+001 4.029064e+001 2.554741e+001 4.531675e+001 3.745998e+001 4.360168e+001 4.830402e+001 4.413262e+001 5.347818e+001 5.161539e+001 3.770267e+001 4.434995e+001 3.603557e-001 1.633156e+000 1.035230e+000 2.160665e+000 2.120168e+000 2.619902e+000 1.652534e+000 1.913064e+000 2.365490e+000 1.998091e+000 2.342214e+000 2.784281e+000 8.003184e-001
<GCONST> 9.579152e+001
<TRANSP> 5
 0.000000e+000 1.000000e+000 0.000000e+000 0.000000e+000 0.000000e+000
 0.000000e+000 6.598127e-001 3.401873e-001 0.000000e+000 0.000000e+000
 0.000000e+000 0.000000e+000 7.567735e-001 2.432265e-001 0.000000e+000
 0.000000e+000 0.000000e+000 0.000000e+000 7.290208e-001 2.709792e-001
 0.000000e+000 0.000000e+000 0.000000e+000 0.000000e+000 0.000000e+000
<ENDHMM>
~h "y"
<BEGINHMM>
<NUMSTATES> 5
<STATE> 2
<MEAN> 25
 7.137868e-001 -9.805483e-001 9.796251e+000 -1.682005e+000 -7.600342e+000 -4.695176e+000 -3.624532e+000 3.745454e+000 -2.972552e+000 -2.350776e+000 2.515063e+000 1.316944e+000 -9.785967e-002 9.144735e-001 2.605922e+000 -8.426175e-003 -1.364881e+000 -4.169115e-001 -1.198610e+000 -5.794900e-001 -1.531930e+000 -3.351024e-001 1.343024e+000 7.869206e-001 5.058122e-001
<VARIANCE> 25
 2.518941e+001 6.229206e+001 7.297993e+001 3.905505e+001 5.877571e+001 5.492642e+001 5.652354e+001 7.396777e+001 6.939976e+001 4.749445e+001 3.950544e+001 3.377634e+001 2.121234e+000 2.833646e+000 3.955500e+000 2.961705e+000 3.882408e+000 3.742564e+000 4.034525e+000 4.739559e+000 4.255742e+000 4.224615e+000 3.026000e+000 2.767081e+000 4.507946e+000
<GCONST> 1.093766e+002
<STATE> 3
<MEAN> 25
 1.062012e+000 -3.107560e-002 1.708802e+001 -1.283792e+000 -1.295029e+001 -4.591190e+000 -8.323621e+000 1.269927e+000 -7.340451e+000 -2.732646e+000 6.614279e+000 3.542905e+000 2.619747e-001 -1.044033e+000 -1.136285e+000 -3.852476e-001 -5.193800e-001 -5.055614e-001 2.725657e-001 1.146487e+000 1.082722e+000 5.365207e-001 1.495092e-002 2.934674e-002 9.407658e-001
<VARIANCE> 25
 1.090851e+001 2.711834e+001 3.957143e+001 3.930168e+001 2.731489e+001 3.969827e+001 3.226671e+001 5.326111e+001 5.859526e+001 6.251884e+001 2.990032e+001 3.167864e+001 5.836815e-001 2.224717e+000 3.579117e+000 1.482156e+000 2.241520e+000 1.878288e+000 2.365610e+000 4.067388e+000 3.799453e+000 2.412526e+000 1.873544e+000 1.647577e+000 1.667169e+000
<GCONST> 9.796886e+001
<STATE> 4
<MEAN> 25
 2.548753e+000 -7.393570e+000 5.680840e+000 -4.604938e+000 -1.071447e+001 -6.637806e+000 -2.530278e+000 1.115386e+001 9.764603e-001 -1.821947e+000 1.754918e+000 1.093501e-001 3.240144e-001 -1.164770e+000 -2.114971e+000 -2.689367e-001 1.543415e+000 9.123933e-001 7.266796e-001 9.835894e-001 1.231846e+000 -4.963494e-001 -1.800996e+000 -1.252783e+000 4.601311e-001
<VARIANCE> 25
 1.007228e+001 2.266289e+001 3.137134e+001 2.484998e+001 3.472426e+001 3.029677e+001 4.788942e+001 6.250111e+001 5.123289e+001 3.236373e+001 3.925410e+001 2.848728e+001 2.624925e-001 1.077380e+000 2.156434e+000 9.298646e-001 2.097779e+000 1.581557e+000 2.133094e+000 3.290379e+000 2.075569e+000 2.562485e+000 2.565076e+000 2.037076e+000 3.491429e-001
<GCONST> 9.228473e+001
<TRANSP> 5
 0.000000e+000 1.000000e+000 0.000000e+000 0.000000e+000 0.000000e+000
 0.000000e+000 7.554544e-001 2.445456e-001 0.000000e+000 0.000000e+000
 0.000000e+000 0.000000e+000 7.671490e-001 2.328510e-001 0.000000e+000
 0.000000e+000 0.000000e+000 0.000000e+000 7.335660e-001 2.664340e-001
 0.000000e+000 0.000000e+000 0.000000e+000 0.000000e+000 0.000000e+000
<ENDHMM>
~h "z"
<BEGINHMM>
<NUMSTATES> 5
<STATE> 2
<MEAN> 25
 -1.430166e+000 8.927135e+000 2.330503e+000 5.352011e+000 2.135921e+000 -6.645338e+000 -1.754196e+000 -1.191436e+000 7.262261e-001 -1.004567e+000 -2.075840e+000 1.992499e+000 -2.157191e+000 2.320445e+000 -7.549010e-001 1.072247e+000 1.484861e+000 -3.139798e-001 1.290205e+000 -8.220277e-002 7.185520e-001 -3.419571e-001 1.573386e-001 6.592034e-001 -9.192342e-001
<VARIANCE> 25
 3.740269e+001 4.539152e+001 4.595631e+001 3.198797e+001 4.502491e+001 3.944106e+001 7.647244e+001 5.116783e+001 4.566332e+001 4.538131e+001 3.401184e+001 3.297916e+001 3.133292e+000 4.322972e+000 2.946930e+000 2.854283e+000 3.223227e+000 4.100158e+000 4.241024e+000 6.257405e+000 4.304461e+000 4.011672e+000 3.077782e+000 2.894823e+000 2.834480e+000
<GCONST> 1.077635e+002
<STATE> 3
<MEAN> 25
 -1.197621e+001 1.439845e+001 8.729084e-001 8.522033e+000 6.791725e+000 -6.693216e+000 2.479967e+000 -8.802596e-001 1.452977e+000 -7.311289e-001 -1.368986e-001 4.531555e+000 -1.150920e+000 -3.478302e-001 -6.458363e-002 3.839304e-002 2.679842e-001 1.811098e-001 3.304919e-001 9.167187e-002 -1.222561e-001 2.328360e-002 2.965179e-001 2.622258e-001 9.334459e-002
<VARIANCE> 25
 4.122015e+001 3.265342e+001 3.293431e+001 3.184120e+001 2.611568e+001 3.295702e+001 6.178182e+001 3.072878e+001 3.559120e+001 3.238047e+001 2.232981e+001 2.559647e+001 2.540281e+000 2.134315e+000 1.554696e+000 1.418476e+000 2.233618e+000 2.091604e+000 2.093019e+000 1.926607e+000 1.939154e+000 1.480265e+000 1.566987e+000 1.481578e+000 1.762440e+000
<GCONST> 9.569229e+001
<STATE> 4
<MEAN> 25
 -1.089530e+001 4.563893e+000 -8.879886e-001 2.975766e+000 4.641243e+000 -1.258626e+000 1.859371e+000 1.972428e+000 9.462034e-001 -4.372400e-001 8.131905e-001 3.806121e+000 6.795360e-001 -4.279456e-001 3.248451e-001 -2.469056e-001 -5.721020e-001 -2.733617e-001 -5.106833e-001 -2.066018e-001 3.271008e-002 6.713334e-002 -2.392611e-003 -6.063155e-002 6.554121e-001
<VARIANCE> 25
 6.307964e+001 4.822285e+001 4.168208e+001 2.893696e+001 3.911082e+001 4.004314e+001 4.369179e+001 3.362770e+001 3.126565e+001 2.136682e+001 2.136538e+001 2.076636e+001 4.236480e+000 2.643504e+000 2.168751e+000 1.974653e+000 3.177303e+000 2.270424e+000 2.818383e+000 2.800013e+000 2.268091e+000 1.831199e+000 1.786505e+000 1.680911e+000 2.414636e+000
<GCONST> 9.962791e+001
<TRANSP> 5
 0.000000e+000 1.000000e+000 0.000000e+000 0.000000e+000 0.000000e+000
 0.000000e+000 7.527012e-001 2.472988e-001 0.000000e+000 0.000000e+000
 0.000000e+000 0.000000e+000 7.620686e-001 2.379314e-001 0.000000e+000
 0.000000e+000 0.000000e+000 0.000000e+000 8.597593e-001 1.402407e-001
 0.000000e+000 0.000000e+000 0.000000e+000 0.000000e+000 0.000000e+000
<ENDHMM>
~h "ai"
<BEGINHMM>
<NUMSTATES> 5
<STATE> 2
<MEAN> 25
 4.873343e+000 -1.186713e+001 -2.842762e+000 -5.773602e+000 -1.932689e+000 1.049083e+000 -4.009656e+000 8.913914e+000 3.831673e+000 -1.315158e+000 -4.182480e+000 -5.919079e+000 -1.340912e-001 -7.779981e-001 1.095164e+000 3.818545e-002 -1.120497e+000 -1.111204e+000 6.476702e-001 2.060739e+000 -3.078578e-001 -8.824220e-001 -3.068225e-001 4.795888e-001 6.120358e-001
<VARIANCE> 25
 9.140983e+000 2.212923e+001 4.160336e+001 2.357467e+001 4.540065e+001 7.241202e+001 3.824476e+001 4.857612e+001 4.521999e+001 4.335265e+001 4.648365e+001 3.036838e+001 9.740286e-001 2.025530e+000 1.779248e+000 2.330974e+000 3.029195e+000 4.169400e+000 2.918742e+000 3.727906e+000 2.543465e+000 2.264132e+000 3.236096e+000 2.627589e+000 1.102846e+000
<GCONST> 9.961751e+001
<STATE> 3
<MEAN> 25
 3.429796e+000 -9.325989e+000 6.302524e+000 -5.117459e+000 -1.121700e+001 -7.201337e+000 -1.008117e+000 1.330217e+001 -1.228897e+000 -7.307255e-001 1.694742e+000 -1.017499e+000 -2.986466e-001 8.999654e-001 1.724218e+000 -8.168112e-002 -1.385421e+000 -5.788177e-001 -1.224670e-001 -8.230863e-001 -1.224677e+000 7.475897e-001 1.509136e+000 6.101720e-001 -4.039169e-001
<VARIANCE> 25
 7.253477e+000 1.540850e+001 3.061469e+001 1.908586e+001 2.851703e+001 3.477032e+001 3.739632e+001 4.143669e+001 4.506532e+001 3.375040e+001 4.877730e+001 2.532375e+001 2.426394e-001 1.032675e+000 1.339210e+000 9.106783e-001 1.486748e+000 1.647303e+000 2.064664e+000 2.747368e+000 2.097387e+000 1.962205e+000 2.012210e+000 1.464254e+000 3.055393e-001
<GCONST> 8.848036e+001
<STATE> 4
<MEAN> 25
 2.070837e+000 -1.512639e+000 1.313960e+001 -3.292751e+000 -1.284766e+001 -7.494477e+000 -3.096935e+000 3.410186e+000 -6.325484e+000 2.142598e+000 5.024852e+000 5.832559e-001 1.932658e-003 9.234372e-001 -2.150800e-001 6.301973e-001 8.431867e-001 1.880714e-001 1.211761e-001 -9.166713e-001 2.748999e-002 -1.773466e-001 -3.708986e-001 6.861574e-002 -1.457054e+000
<VARIANCE> 25
 1.133334e+001 3.471630e+001 3.934933e+001 3.547138e+001 3.380532e+001 4.384967e+001 4.041718e+001 6.679520e+001 4.644734e+001 4.274961e+001 3.732694e+001 2.909525e+001 8.558994e-001 1.592754e+000 2.553300e+000 1.972802e+000 2.723872e+000 2.161969e+000 2.760946e+000 3.167191e+000 3.279878e+000 2.360898e+000 2.026091e+000 1.589261e+000 2.329091e+000
<GCONST> 9.887923e+001
<TRANSP> 5
 0.000000e+000 1.000000e+000 0.000000e+000 0.000000e+000 0.000000e+000
 0.000000e+000 7.333696e-001 2.666304e-001 0.000000e+000 0.000000e+000
 0.000000e+000 0.000000e+000 7.875565e-001 2.124435e-001 0.000000e+000
 0.000000e+000 0.000000e+000 0.000000e+000 8.594447e-001 1.405553e-001
 0.000000e+000 0.000000e+000 0.000000e+000 0.000000e+000 0.000000e+000
<ENDHMM>
~h "au"
<BEGINHMM>
<NUMSTATES> 5
<STATE> 2
<MEAN> 25
 6.464240e+000 -5.714585e+000 -7.616874e+000 -9.509864e+000 -5.209595e-002 1.077450e+001 -4.730280e+000 -2.092388e+000 7.249767e+000 1.553338e+000 -4.469388e-001 -7.414885e+000 2.203685e-001 7.914531e-002 -3.229215e-001 -7.160860e-001 -5.102002e-002 1.192975e+000 -1.210610e-001 -4.543457e-001 5.131975e-003 -1.444019e-001 7.990078e-001 -5.228423e-002 1.865335e-002
<VARIANCE> 25
 9.005779e+000 2.196209e+001 2.042516e+001 2.764067e+001 2.783640e+001 3.618890e+001 3.498252e+001 4.083298e+001 2.555091e+001 2.994051e+001 2.954254e+001 2.200024e+001 5.780314e-001 1.083809e+000 9.944599e-001 1.332261e+000 1.624912e+000 2.363522e+000 1.746477e+000 2.154756e+000 1.863921e+000 1.960684e+000 2.543538e+000 1.559353e+000 5.618896e-001
<GCONST> 8.944829e+001
<STATE> 3
<MEAN> 25
 8.267750e+000 -1.347932e+000 -7.529366e+000 -1.657538e+001 -3.734891e+000 1.562496e+001 -4.944976e+000 -3.451109e+000 3.498861e+000 -2.969526e-001 6.164704e+000 -2.961076e+000 3.214161e-001 1.020357e+000 2.075036e-001 -4.939841e-001 -6.368531e-001 2.458462e-002 -9.612587e-002 1.136131e-001 -7.767202e-001 -4.634310e-001 5.442511e-001 8.984751e-001 -6.027502e-001
<VARIANCE> 25
 8.549579e+000 2.065423e+001 1.617404e+001 3.549139e+001 3.035222e+001 2.509870e+001 3.964769e+001 3.423347e+001 3.656618e+001 3.638895e+001 2.688759e+001 3.635899e+001 2.401211e-001 1.016094e+000 5.783641e-001 1.164137e+000 1.183367e+000 1.303660e+000 1.332923e+000 1.357107e+000 1.618177e+000 1.952748e+000 1.653663e+000 1.750239e+000 3.881674e-001
<GCONST> 8.588786e+001
<STATE> 4
<MEAN> 25
 6.649851e+000 4.836022e+000 -4.255622e+000 -1.021126e+001 -3.870375e+000 7.975733e+000 -3.153729e+000 -9.068702e-001 -1.580726e+000 -1.659716e+000 3.776148e+000 5.162518e-001 -2.152914e-001 1.794344e-001 2.939095e-001 1.146766e+000 2.828080e-001 -7.986232e-001 1.978469e-002 -4.727407e-002 -2.329967e-001 2.139179e-001 -3.895578e-001 -3.652462e-002 -8.931161e-001
<VARIANCE> 25
 3.916078e+001 3.103240e+001 2.737218e+001 1.108425e+002 4.855972e+001 5.247744e+001 6.361099e+001 4.526693e+001 4.693830e+001 4.823143e+001 3.664158e+001 3.615566e+001 7.451187e-001 1.423974e+000 1.301927e+000 2.820848e+000 2.034625e+000 2.467898e+000 2.878263e+000 2.361407e+000 2.649502e+000 2.585981e+000 2.197608e+000 2.118292e+000 1.175836e+000
<GCONST> 1.003044e+002
<TRANSP> 5
 0.000000e+000 1.000000e+000 0.000000e+000 0.000000e+000 0.000000e+000
 0.000000e+000 8.158713e-001 1.841287e-001 0.000000e+000 0.000000e+000
 0.000000e+000 0.000000e+000 8.529012e-001 1.470988e-001 0.000000e+000
 0.000000e+000 0.000000e+000 0.000000e+000 8.652790e-001 1.347211e-001
 0.000000e+000 0.000000e+000 0.000000e+000 0.000000e+000 0.000000e+000
<ENDHMM>
~h "kh"
<BEGINHMM>
<NUMSTATES> 5
<STATE> 2
<MEAN> 25
 -2.356794e+000 4.901683e-001 -3.434706e+000 9.760787e-001 5.192124e+000 6.261821e-001 3.332691e+000 5.005083e-001 6.204732e-001 9.288581e-001 -9.357822e-001 1.459054e+000 -1.437554e+000 -4.790282e-001 -1.228183e+000 2.984356e-002 1.259218e+000 -3.692702e-001 2.999128e-001 3.503598e-001 2.416119e-001 1.277796e-001 7.593550e-002 5.370014e-001 8.600248e-002
<VARIANCE> 25
 4.512188e+001 5.025241e+001 5.971399e+001 4.763966e+001 5.747860e+001 6.731799e+001 4.704403e+001 4.463060e+001 6.028770e+001 4.419835e+001 4.616699e+001 3.084476e+001 4.480716e+000 5.732717e+000 6.164957e+000 4.953663e+000 6.334173e+000 5.412544e+000 5.831182e+000 4.290032e+000 5.039132e+000 3.870082e+000 3.797183e+000 2.967152e+000 8.337275e+000
<GCONST> 1.136183e+002
<STATE> 3
<MEAN> 25
 -8.364518e+000 -5.240222e+000 -1.119343e+001 -2.953138e+000 1.054621e+001 -4.187858e-001 1.382926e+000 2.943061e+000 2.714136e+000 2.837949e+000 8.640701e-001 2.777039e+000 -4.387251e-001 -3.319147e-001 -4.135884e-001 -2.977204e-001 -1.321664e-001 2.145332e-001 2.168013e-001 1.044936e-001 -4.482900e-002 9.945933e-003 3.567415e-001 4.243351e-002 1.063315e-001
<VARIANCE> 25
 2.379140e+001 3.366697e+001 4.906957e+001 5.554292e+001 5.807093e+001 5.859013e+001 6.058328e+001 4.302814e+001 5.006404e+001 4.086155e+001 3.443943e+001 4.185664e+001 1.619124e+000 2.197282e+000 2.994271e+000 2.943887e+000 3.435108e+000 3.588418e+000 3.476684e+000 2.907531e+000 2.764335e+000 3.056558e+000 2.633775e+000 2.534014e+000 2.066910e+000
<GCONST> 1.044672e+002
<STATE> 4
<MEAN> 25
 -5.244829e+000 -2.949755e-001 -5.411009e+000 1.155101e+000 4.142290e+000 2.088353e+000 4.442400e+000 6.752022e-001 1.415437e+000 -1.038930e+000 1.401655e+000 1.797464e+000 4.708608e-001 2.581431e-001 3.412917e-001 -4.771210e-002 -3.219438e-001 7.609674e-002 5.145635e-003 -2.455704e-001 -1.379656e-001 -1.084918e-001 -7.574271e-002 -1.821644e-001 1.339090e-001
<VARIANCE> 25
 3.299052e+001 4.299976e+001 4.466209e+001 4.148034e+001 4.159755e+001 4.052463e+001 3.673144e+001 3.307204e+001 3.800794e+001 3.214874e+001 2.232277e+001 2.535399e+001 2.534353e+000 1.709136e+000 2.128802e+000 2.041342e+000 2.028715e+000 2.132886e+000 2.339534e+000 2.530476e+000 2.350163e+000 2.064500e+000 1.845025e+000 1.868174e+000 1.913792e+000
<GCONST> 9.835192e+001
<TRANSP> 5
 0.000000e+000 1.000000e+000 0.000000e+000 0.000000e+000 0.000000e+000
 0.000000e+000 7.700744e-001 2.299256e-001 0.000000e+000 0.000000e+000
 0.000000e+000 0.000000e+000 7.654767e-001 2.345234e-001 0.000000e+000
 0.000000e+000 0.000000e+000 0.000000e+000 8.982383e-001 1.017618e-001
 0.000000e+000 0.000000e+000 0.000000e+000 0.000000e+000 0.000000e+000
<ENDHMM>
~h "ng"
<BEGINHMM>
<NUMSTATES> 5
<STATE> 2
<MEAN> 25
 7.566375e+000 -2.126762e+000 4.955502e-001 -2.855854e+000 -3.009428e+000 3.774504e+000 -8.047344e-001 -1.108690e+000 -5.188848e+000 3.596506e+000 -2.396965e+000 -6.435557e+000 4.930981e-001 1.269469e+000 1.547671e+000 1.147373e+000 -1.506364e+000 -2.580497e-001 1.683125e+000 -2.568315e+000 -1.050189e+000 8.761449e-001 -1.227115e+000 1.740115e+000 -1.424277e+000
<VARIANCE> 25
 9.035254e+000 3.266014e+001 3.331433e+001 3.662279e+001 5.124638e+001 5.054322e+001 5.191698e+001 6.138135e+001 4.826366e+001 4.740776e+001 4.448764e+001 4.956672e+001 5.838813e-001 1.688079e+000 2.664707e+000 2.670304e+000 3.434294e+000 3.168887e+000 4.588224e+000 4.383354e+000 5.747540e+000 3.330689e+000 4.705059e+000 4.333039e+000 7.274792e-001
<GCONST> 1.030861e+002
<STATE> 3
<MEAN> 25
 8.283484e+000 1.732220e-001 5.787856e+000 -1.406079e+000 -7.069423e+000 3.344838e+000 1.631974e+000 -6.835357e+000 -5.979623e+000 4.110088e+000 -4.968666e+000 -3.954849e-001 1.143997e-001 5.633852e-001 7.272667e-001 5.261741e-001 -3.829856e-001 -1.026561e-001 3.102392e-001 -8.646858e-001 -1.333207e-001 6.956141e-002 -2.688416e-001 7.208188e-001 -6.862031e-001
<VARIANCE> 25
 7.587658e+000 2.053892e+001 2.564117e+001 3.925334e+001 3.385116e+001 4.261825e+001 5.083572e+001 4.336314e+001 4.311897e+001 3.651712e+001 3.976784e+001 3.717174e+001 3.688184e-001 1.090475e+000 1.619237e+000 1.731786e+000 2.046471e+000 1.906951e+000 2.326627e+000 2.394431e+000 2.387119e+000 2.130782e+000 2.182799e+000 2.017171e+000 6.367311e-001
<GCONST> 9.339976e+001
<STATE> 4
<MEAN> 25
 6.701150e+000 2.381601e+000 4.888256e+000 9.845536e-001 -4.368974e+000 2.883203e+000 2.323128e+000 -6.132996e+000 -5.698826e+000 2.798357e+000 -4.156842e+000 -5.585560e-001 -4.407350e-001 2.990644e-001 -4.788930e-001 3.371719e-001 8.079606e-001 -2.977319e-001 9.254581e-002 4.500693e-001 1.496509e-001 -2.707685e-001 1.991892e-001 -2.967047e-001 -6.346778e-001
<VARIANCE> 25
 2.011548e+001 2.300918e+001 3.203803e+001 4.735344e+001 5.934414e+001 3.812093e+001 5.587759e+001 5.318457e+001 4.585162e+001 4.035625e+001 4.337107e+001 3.556415e+001 8.280503e-001 1.523821e+000 1.752780e+000 2.118268e+000 2.750826e+000 2.299869e+000 2.467911e+000 3.105274e+000 2.615726e+000 2.248509e+000 2.166647e+000 2.252875e+000 2.239089e+000
<GCONST> 9.958304e+001
<TRANSP> 5
 0.000000e+000 1.000000e+000 0.000000e+000 0.000000e+000 0.000000e+000
 0.000000e+000 5.675584e-001 4.324416e-001 0.000000e+000 0.000000e+000
 0.000000e+000 0.000000e+000 6.452268e-001 3.547733e-001 0.000000e+000
 0.000000e+000 0.000000e+000 0.000000e+000 7.682890e-001 2.317110e-001
 0.000000e+000 0.000000e+000 0.000000e+000 0.000000e+000 0.000000e+000
<ENDHMM>
~h "ny"
<BEGINHMM>
<NUMSTATES> 5
<STATE> 2
<MEAN> 25
 5.454782e+000 3.573970e+000 8.269386e+000 9.544326e-001 -6.068640e+000 -3.308811e+000 -2.070312e+000 -1.639917e+000 -7.210088e+000 -2.441778e+000 2.275363e+000 1.327057e+000 -2.548244e-001 -2.023705e-001 5.448278e-001 -6.415172e-001 -5.576268e-001 1.956410e-001 7.492545e-002 5.538925e-001 -2.085822e-001 -2.792586e-001 3.559881e-001 5.854456e-002 5.202614e-001
<VARIANCE> 25
 1.669661e+001 3.050618e+001 3.349210e+001 5.967005e+001 3.769270e+001 3.689785e+001 4.227068e+001 7.522862e+001 4.831072e+001 4.998500e+001 4.873334e+001 4.899541e+001 2.147602e+000 5.428067e+000 3.306287e+000 5.860929e+000 3.844500e+000 3.485204e+000 4.241157e+000 1.146684e+001 5.335909e+000 4.518191e+000 4.301931e+000 3.180858e+000 3.729021e+000
<GCONST> 1.096644e+002
<STATE> 3
<MEAN> 25
 3.087917e+000 -7.411701e+000 7.187143e+000 -4.658780e+000 -8.688049e+000 -1.482103e+000 -1.308713e+000 1.156837e+001 -2.548742e+000 -6.328934e+000 -1.371427e+000 -6.301388e-001 2.498779e-001 -1.747389e+000 -1.721979e+000 3.527528e-001 1.107883e+000 3.547384e-001 -9.451538e-002 1.218707e+000 1.379980e+000 -6.294308e-001 -1.506068e+000 -4.849815e-001 5.823051e-001
<VARIANCE> 25
 8.423151e+000 2.313916e+001 3.221276e+001 2.642517e+001 4.122218e+001 2.674307e+001 2.910511e+001 4.029589e+001 5.285903e+001 3.672775e+001 3.733204e+001 2.532422e+001 3.166665e-001 1.528413e+000 1.167834e+000 1.187747e+000 2.211422e+000 1.412497e+000 1.885571e+000 3.316806e+000 1.815587e+000 2.371424e+000 1.759448e+000 1.917622e+000 6.447833e-001
<GCONST> 9.127220e+001
<STATE> 4
<MEAN> 25
 7.621095e-001 -4.571424e+000 -1.641461e+000 1.571081e+000 2.736589e+000 9.346415e-001 7.833927e-001 6.599285e+000 2.034041e-001 -4.348344e+000 -3.568797e+000 5.154734e-002 -5.877027e-002 8.230619e-002 -4.355701e-001 1.662610e-001 5.308555e-001 1.737668e-001 -1.885680e-002 -3.533128e-001 1.880105e-001 2.060018e-001 -8.591413e-002 -9.375275e-002 -6.606769e-001
<VARIANCE> 25
 1.957308e+001 4.742128e+001 2.388084e+001 3.286402e+001 4.713122e+001 2.439050e+001 3.462569e+001 5.941988e+001 4.029397e+001 4.163739e+001 3.253603e+001 2.947471e+001 4.438720e-001 1.015199e+000 1.204296e+000 1.315597e+000 1.777519e+000 1.378944e+000 1.677400e+000 1.705784e+000 1.733488e+000 1.692562e+000 1.556179e+000 1.524980e+000 1.116712e+000
<GCONST> 9.207487e+001
<TRANSP> 5
 0.000000e+000 1.000000e+000 0.000000e+000 0.000000e+000 0.000000e+000
 0.000000e+000 8.750979e-001 1.249021e-001 0.000000e+000 0.000000e+000
 0.000000e+000 0.000000e+000 7.593235e-001 2.406765e-001 0.000000e+000
 0.000000e+000 0.000000e+000 0.000000e+000 8.427164e-001 1.572836e-001
 0.000000e+000 0.000000e+000 0.000000e+000 0.000000e+000 0.000000e+000
<ENDHMM>
~h "oi"
<BEGINHMM>
<NUMSTATES> 5
<STATE> 2
<MEAN> 25
 8.980786e+000 -2.510052e+000 -7.974908e+000 -1.473619e+001 -7.106858e+000 1.319357e+001 -3.367530e+000 -4.390629e+000 3.515504e+000 -5.331984e-001 4.552725e+000 9.349747e-001 -4.703832e-002 -4.980569e-001 7.954217e-002 -8.449299e-001 -1.883703e-001 2.740161e-001 -6.257446e-001 1.979183e-002 1.437851e-001 8.355277e-001 1.459685e-001 -8.451710e-001 9.205076e-001
<VARIANCE> 25
 1.366504e+001 3.585110e+001 3.199089e+001 6.526335e+001 4.354731e+001 5.097028e+001 6.210968e+001 3.760309e+001 4.267136e+001 4.157759e+001 4.127037e+001 5.408175e+001 1.359755e+000 1.350114e+000 1.327566e+000 6.586101e+000 4.239864e+000 5.107606e+000 3.391408e+000 2.395292e+000 3.165862e+000 3.938796e+000 3.210401e+000 3.089072e+000 1.270024e+000
<GCONST> 1.034402e+002
<STATE> 3
<MEAN> 25
 4.027839e+000 -6.196412e+000 3.932794e+000 -5.482103e+000 -9.071877e+000 -6.305267e+000 -8.800196e+000 4.758781e+000 -9.785721e-001 5.138410e+000 2.505148e+000 -3.745137e+000 -6.527278e-001 3.214964e-001 2.251208e+000 1.465127e+000 -1.165561e+000 -2.273322e+000 2.839381e-001 5.457594e-001 -1.461587e+000 -5.328162e-001 1.529682e-001 7.017114e-001 -4.318846e-001
<VARIANCE> 25
 8.603705e+000 2.594889e+001 9.808347e+001 3.912429e+001 5.154303e+001 9.489718e+001 2.866425e+001 7.410776e+001 7.056026e+001 4.273505e+001 5.003402e+001 4.037942e+001 4.120892e-001 1.097096e+000 2.494995e+000 2.394104e+000 3.370267e+000 5.860893e+000 2.665439e+000 5.762173e+000 4.929430e+000 3.307879e+000 4.006699e+000 3.885197e+000 5.263842e-001
<GCONST> 1.029901e+002
<STATE> 4
<MEAN> 25
 -1.235408e+000 1.079027e+000 8.272282e+000 2.095559e+000 -7.242421e+000 -5.409885e+000 -1.004546e+000 -1.385443e+000 -5.855882e+000 -3.809900e-001 1.402073e+000 1.529887e+000 -4.923152e-002 2.617870e-001 -5.061896e-001 2.001742e-001 6.549930e-001 2.682529e-001 1.460083e-001 -2.205922e-001 2.870337e-001 -1.991567e-001 -4.446571e-001 1.226391e-002 -9.584006e-001
<VARIANCE> 25
 1.884347e+001 2.904802e+001 8.518561e+001 2.898355e+001 7.585376e+001 7.209842e+001 5.404521e+001 6.400288e+001 6.452720e+001 3.876937e+001 3.856914e+001 3.588008e+001 8.964757e-001 1.571890e+000 3.067008e+000 1.816818e+000 2.410510e+000 2.314280e+000 2.336952e+000 3.191011e+000 3.023326e+000 2.319314e+000 2.055440e+000 2.041441e+000 1.138446e+000
<GCONST> 1.011769e+002
<TRANSP> 5
 0.000000e+000 1.000000e+000 0.000000e+000 0.000000e+000 0.000000e+000
 0.000000e+000 8.970958e-001 1.029042e-001 0.000000e+000 0.000000e+000
 0.000000e+000 0.000000e+000 8.855334e-001 1.144666e-001 0.000000e+000
 0.000000e+000 0.000000e+000 0.000000e+000 8.973055e-001 1.026945e-001
 0.000000e+000 0.000000e+000 0.000000e+000 0.000000e+000 0.000000e+000
<ENDHMM>
~h "sp"
<BEGINHMM>
<NUMSTATES> 3
<STATE> 2
~s "silst"
<TRANSP> 3
 0.000000e+000 7.000000e-001 3.000000e-001
 0.000000e+000 9.000000e-001 9.999999e-002
 0.000000e+000 0.000000e+000 0.000000e+000
<ENDHMM>
~h "sy"
<BEGINHMM>
<NUMSTATES> 5
<STATE> 2
<MEAN> 25
 -6.860624e+000 4.315597e+000 3.800912e+000 1.965226e+000 2.939855e+000 -2.981245e+000 2.723759e+000 1.110560e+000 4.106762e-001 -2.299931e+000 -1.561546e+000 2.880983e+000 -3.895999e+000 7.667482e-001 -1.105499e-001 1.632947e-001 8.975937e-001 4.249570e-001 1.160729e+000 3.447465e-001 6.935775e-001 -3.250937e-001 9.275352e-001 4.841975e-001 -7.027076e-002
<VARIANCE> 25
 7.782214e+001 4.077246e+001 5.428292e+001 3.334365e+001 4.462028e+001 5.195175e+001 4.838429e+001 4.704378e+001 4.046553e+001 3.540533e+001 3.426257e+001 2.862031e+001 5.716462e+000 5.709733e+000 4.379964e+000 4.030277e+000 5.229698e+000 4.880375e+000 6.066352e+000 5.047909e+000 4.299318e+000 4.122332e+000 4.516180e+000 3.095442e+000 3.152913e+000
<GCONST> 1.108232e+002
<STATE> 3
<MEAN> 25
 -2.209776e+001 1.772099e+000 1.354986e+000 -1.738791e+000 3.272512e+000 -1.001939e+000 5.311630e+000 2.621694e+000 3.087124e+000 2.901441e-002 4.110139e+000 4.977928e+000 -5.567263e-001 -6.256760e-001 -1.352493e-001 -3.916813e-001 -4.222556e-001 4.049728e-002 7.490616e-002 -9.776507e-003 2.609718e-001 3.154953e-001 2.875158e-001 1.822573e-001 2.215861e-001
<VARIANCE> 25
 2.793611e+001 2.565530e+001 3.378486e+001 2.300936e+001 4.149771e+001 3.666024e+001 4.015438e+001 3.206554e+001 3.473384e+001 2.281201e+001 1.859045e+001 1.863192e+001 2.227648e+000 9.738721e-001 1.299445e+000 1.313571e+000 1.543760e+000 1.674446e+000 1.679768e+000 1.634841e+000 1.527819e+000 1.602928e+000 1.535775e+000 1.362777e+000 7.227172e-001
<GCONST> 9.076645e+001
<STATE> 4
<MEAN> 25
 -1.244667e+001 -8.991227e-001 4.540139e+000 -1.033823e+000 -3.712050e+000 -3.002101e+000 2.017334e+000 1.070567e+000 2.708798e+000 -1.998463e+000 2.556551e+000 4.190291e+000 3.708338e+000 -2.809579e-001 7.655149e-001 8.612750e-002 -1.072758e+000 -1.032380e+000 -1.330788e+000 2.862064e-001 -3.785916e-001 -4.729589e-001 -7.060945e-001 -5.321543e-001 9.236987e-001
<VARIANCE> 25
 1.019498e+002 2.732302e+001 4.896889e+001 2.677793e+001 5.823713e+001 4.378206e+001 4.468110e+001 3.794400e+001 3.408178e+001 2.884626e+001 2.641442e+001 1.663368e+001 9.688776e+000 3.369133e+000 3.952181e+000 2.645604e+000 4.911685e+000 3.231231e+000 4.442774e+000 4.482929e+000 3.914154e+000 2.934824e+000 3.412238e+000 2.268324e+000 2.309351e+000
<GCONST> 1.062268e+002
<TRANSP> 5
 0.000000e+000 1.000000e+000 0.000000e+000 0.000000e+000 0.000000e+000
 0.000000e+000 7.691308e-001 2.308692e-001 0.000000e+000 0.000000e+000
 0.000000e+000 0.000000e+000 8.773016e-001 1.226984e-001 0.000000e+000
 0.000000e+000 0.000000e+000 0.000000e+000 8.105320e-001 1.894680e-001
 0.000000e+000 0.000000e+000 0.000000e+000 0.000000e+000 0.000000e+000
<ENDHMM>
~h "sil"
<BEGINHMM>
<NUMSTATES> 5
<STATE> 2
<MEAN> 25
 -3.764478e+000 3.502407e+000 -1.303756e+000 4.075796e+000 4.671845e+000 2.278726e-001 3.403121e+000 3.547298e+000 -1.040800e+000 1.386698e-001 1.054579e+000 1.648558e+000 -2.829010e-002 5.330438e-002 -1.707543e-002 -2.030281e-002 5.772109e-003 9.110400e-003 -2.553375e-003 -3.309444e-002 2.387983e-002 3.527888e-002 1.356755e-002 -2.690449e-002 -7.048325e-002
<VARIANCE> 25
 5.245925e+000 1.736940e+001 1.311638e+001 1.439230e+001 1.857597e+001 1.638697e+001 2.531700e+001 2.778326e+001 2.028015e+001 1.965526e+001 1.721049e+001 1.620792e+001 1.733243e-001 4.140208e-001 5.674608e-001 8.005977e-001 9.902530e-001 1.225416e+000 1.329933e+000 1.574230e+000 1.501017e+000 1.533331e+000 1.401943e+000 1.322378e+000 1.205391e-001
<GCONST> 7.643698e+001
<STATE> 3
~s "silst"
<STATE> 4
<MEAN> 25
 -6.541130e+000 -7.429254e-002 -2.564634e+000 4.347028e+000 3.717889e+000 -1.472924e+000 4.803173e+000 8.113329e-001 9.518466e-001 -6.309392e-001 7.072640e-001 3.687681e+000 -8.490763e-003 -6.152984e-002 1.527132e-002 2.471172e-002 -3.294979e-002 -7.706726e-002 -3.121097e-002 5.045517e-003 -4.982767e-002 -5.893879e-002 -1.290203e-002 3.108995e-002 1.340683e-001
<VARIANCE> 25
 2.311473e+001 3.116896e+001 2.844798e+001 4.615387e+001 3.828571e+001 4.416805e+001 4.279450e+001 5.539875e+001 3.501000e+001 3.658438e+001 2.917117e+001 3.044962e+001 1.604260e+000 2.559835e+000 2.138684e+000 2.963342e+000 2.623948e+000 3.159152e+000 2.770375e+000 3.904553e+000 2.702512e+000 2.945949e+000 2.376305e+000 2.311762e+000 3.706097e+000
<GCONST> 1.016988e+002
<TRANSP> 5
 0.000000e+000 1.000000e+000 0.000000e+000 0.000000e+000 0.000000e+000
 0.000000e+000 8.865069e-001 4.996300e-002 6.353015e-002 0.000000e+000
 0.000000e+000 0.000000e+000 9.636136e-001 3.638637e-002 0.000000e+000
 0.000000e+000 1.331623e-001 0.000000e+000 8.047408e-001 6.209683e-002
 0.000000e+000 0.000000e+000 0.000000e+000 0.000000e+000 0.000000e+000
<ENDHMM>
