~o
<STREAMINFO> 1 25
<VECSIZE> 25<NULLD><MFCC_D_N_Z_0><DIAGC>
~h "@"
<BEGINHMM>
<NUMSTATES> 5
<STATE> 2
<MEAN> 25
 3.250302e+000 -4.042378e-001 -2.914923e-001 -1.571676e+000 -1.791834e+000 -2.489931e+000 -4.082046e+000 -1.712100e+000 3.560940e-001 1.587174e+000 5.638494e-001 -9.641240e-001 2.316352e+000 -1.290150e+000 2.546652e-001 -1.857787e+000 -1.612545e+000 6.000505e-001 -2.360072e+000 1.129543e+000 6.003675e-001 8.652350e-001 5.990586e-001 -1.330763e+000 3.017299e+000
<VARIANCE> 25
 3.638469e+001 3.241184e+001 4.442221e+001 5.112157e+001 4.548542e+001 6.650924e+001 6.329797e+001 5.155574e+001 5.473613e+001 3.439230e+001 3.850116e+001 2.932505e+001 7.369881e+000 3.962643e+000 6.850401e+000 6.093279e+000 6.517148e+000 6.701189e+000 8.056376e+000 1.006506e+001 8.734718e+000 5.390560e+000 5.823941e+000 4.486816e+000 7.115031e+000
<GCONST> 1.157776e+002
<STATE> 3
<MEAN> 25
 6.113655e+000 -4.339151e+000 -2.097994e-001 -5.153353e+000 -4.407746e+000 -1.857960e-002 -8.743676e+000 1.691643e+000 1.670980e+000 3.711843e+000 2.138475e+000 -3.516288e+000 1.150439e+000 -1.150429e+000 2.518516e-001 -9.839796e-001 -9.952471e-001 7.158367e-001 -1.390405e+000 1.273037e+000 4.746549e-001 7.829260e-001 3.398115e-001 -1.013001e+000 1.203301e+000
<VARIANCE> 25
 1.586085e+001 2.973603e+001 4.448035e+001 5.231702e+001 4.787664e+001 8.253942e+001 6.086084e+001 6.683306e+001 6.606659e+001 4.448580e+001 5.108772e+001 3.633197e+001 3.236637e+000 2.222850e+000 3.585523e+000 4.096518e+000 4.219421e+000 5.136686e+000 5.468470e+000 7.860352e+000 6.115269e+000 4.611707e+000 4.657334e+000 3.469155e+000 2.383009e+000
<GCONST> 1.104477e+002
<STATE> 4
<MEAN> 25
 5.403393e+000 -4.222469e+000 2.059700e+000 -3.666825e+000 -6.537103e+000 -1.457565e+000 -8.282888e+000 3.588965e+000 9.915398e-001 3.460236e+000 2.425675e+000 -3.836128e+000 9.669872e-002 2.592428e-001 1.694041e-001 3.430051e-001 1.398123e-001 3.977888e-002 3.274953e-001 -2.379331e-001 -1.756802e-001 -4.100411e-002 -1.526398e-001 6.180437e-002 -5.782250e-001
<VARIANCE> 25
 1.698659e+001 3.308054e+001 4.813228e+001 4.442695e+001 5.701157e+001 7.094624e+001 8.502024e+001 7.232175e+001 6.239286e+001 4.878447e+001 4.948000e+001 3.933908e+001 7.007487e-001 1.478841e+000 1.560143e+000 2.063159e+000 2.364347e+000 2.554086e+000 2.762856e+000 3.195697e+000 3.126185e+000 2.458497e+000 2.517067e+000 1.930516e+000 2.072167e+000
<GCONST> 1.020997e+002
<TRANSP> 5
 0.000000e+000 1.000000e+000 0.000000e+000 0.000000e+000 0.000000e+000
 0.000000e+000 2.728635e-001 7.271365e-001 0.000000e+000 0.000000e+000
 0.000000e+000 0.000000e+000 1.552394e-001 8.447607e-001 0.000000e+000
 0.000000e+000 0.000000e+000 0.000000e+000 7.189579e-001 2.810421e-001
 0.000000e+000 0.000000e+000 0.000000e+000 0.000000e+000 0.000000e+000
<ENDHMM>
~h "a"
<BEGINHMM>
<NUMSTATES> 5
<STATE> 2
<MEAN> 25
 4.973321e+000 -8.392711e+000 -3.660862e+000 -6.654627e+000 -1.741606e+000 2.349450e+000 -4.314915e+000 4.855766e+000 4.474653e+000 1.032079e+000 -1.962484e+000 -5.273610e+000 6.619127e-001 -2.129777e+000 -1.169203e+000 -1.209590e+000 5.557464e-001 1.590257e+000 -1.883898e-001 1.494563e+000 9.308199e-001 -5.300997e-001 -1.220331e+000 -1.605023e+000 2.020385e+000
<VARIANCE> 25
 1.689223e+001 2.857948e+001 3.808067e+001 4.189303e+001 5.476863e+001 7.414764e+001 5.237929e+001 7.919307e+001 4.903440e+001 4.586396e+001 4.897459e+001 3.558652e+001 2.779554e+000 2.557272e+000 2.972944e+000 3.645471e+000 4.561518e+000 4.222971e+000 5.044693e+000 6.870321e+000 4.617632e+000 4.273375e+000 4.510879e+000 3.344446e+000 4.359048e+000
<GCONST> 1.093387e+002
<STATE> 3
<MEAN> 25
 4.756924e+000 -1.195605e+001 -5.787115e+000 -7.319064e+000 1.404326e+000 5.848756e+000 -3.307433e+000 5.530417e+000 5.216244e+000 -1.615713e+000 -5.224967e+000 -7.101870e+000 1.171652e-003 -1.689868e-001 -3.987635e-002 9.014311e-002 3.564220e-001 5.008634e-002 1.830022e-001 5.170935e-002 -8.247733e-002 -1.489643e-001 -3.292597e-001 -3.637104e-002 -2.553837e-002
<VARIANCE> 25
 8.664106e+000 1.918153e+001 2.344388e+001 2.352854e+001 3.471291e+001 4.805896e+001 3.381895e+001 5.729464e+001 3.561889e+001 3.611022e+001 3.680412e+001 2.899742e+001 3.289109e-001 7.631421e-001 8.657195e-001 1.043450e+000 1.498069e+000 2.145216e+000 1.609717e+000 2.219430e+000 1.460660e+000 1.647009e+000 1.779307e+000 1.342445e+000 4.743008e-001
<GCONST> 8.845337e+001
<STATE> 4
<MEAN> 25
 4.177055e+000 -7.748816e+000 -4.832979e+000 -4.925632e+000 2.247998e+000 2.416231e+000 -1.517913e+000 4.871321e+000 4.351732e+000 -4.223284e-002 -4.700807e+000 -5.066383e+000 -3.294278e-002 1.367728e+000 5.896066e-001 8.058590e-001 -1.250065e-001 -7.335224e-001 1.541057e-001 -4.564799e-001 -4.295286e-001 3.522731e-001 4.139475e-001 5.308872e-001 -2.052599e+000
<VARIANCE> 25
 1.819319e+001 3.208802e+001 2.751138e+001 4.160153e+001 5.269979e+001 5.514307e+001 4.754469e+001 5.920592e+001 4.200859e+001 4.571787e+001 4.511981e+001 3.985040e+001 1.196279e+000 2.162159e+000 2.004187e+000 2.446210e+000 2.863580e+000 3.274102e+000 3.357526e+000 3.990509e+000 3.084497e+000 3.107328e+000 2.970937e+000 2.596964e+000 3.393703e+000
<GCONST> 1.032299e+002
<TRANSP> 5
 0.000000e+000 1.000000e+000 0.000000e+000 0.000000e+000 0.000000e+000
 0.000000e+000 5.518334e-001 4.481666e-001 0.000000e+000 0.000000e+000
 0.000000e+000 0.000000e+000 7.637147e-001 2.362853e-001 0.000000e+000
 0.000000e+000 0.000000e+000 0.000000e+000 7.201012e-001 2.798988e-001
 0.000000e+000 0.000000e+000 0.000000e+000 0.000000e+000 0.000000e+000
<ENDHMM>
~h "b"
<BEGINHMM>
<NUMSTATES> 5
<STATE> 2
<MEAN> 25
 9.052858e+000 8.012054e+000 3.865211e+000 2.841192e+000 1.721588e+000 4.517993e+000 1.300246e+000 -6.301160e+000 -3.703789e+000 -6.396592e-001 2.602736e-001 -1.356303e+000 4.049450e-001 1.386496e+000 3.854452e-001 6.684431e-001 6.371773e-001 2.382599e-001 9.780458e-001 -3.258986e-001 -1.968056e-001 -2.705140e-001 -2.134700e-001 4.336055e-002 -1.389088e+000
<VARIANCE> 25
 3.444238e+001 3.751966e+001 2.672196e+001 3.523707e+001 3.359786e+001 3.356402e+001 4.350868e+001 4.000229e+001 4.493700e+001 2.892620e+001 3.607783e+001 2.772504e+001 2.100032e+000 2.639315e+000 2.171044e+000 2.943720e+000 2.721552e+000 2.900359e+000 3.474576e+000 3.415354e+000 3.501157e+000 2.691091e+000 2.856633e+000 2.176863e+000 5.130708e+000
<GCONST> 1.023394e+002
<STATE> 3
<MEAN> 25
 9.138676e+000 1.002044e+001 4.732096e+000 4.256270e+000 2.844823e+000 4.391342e+000 3.210926e+000 -6.560071e+000 -4.514734e+000 -1.480394e+000 5.177213e-001 -4.672050e-001 -1.246963e+000 -2.282530e+000 -1.557590e+000 -1.298316e+000 -3.688383e-001 -1.016934e+000 -1.711118e+000 7.372370e-001 1.034469e+000 3.708519e-001 1.330631e+000 7.339089e-001 3.597848e+000
<VARIANCE> 25
 2.690880e+001 2.681143e+001 1.929844e+001 2.576240e+001 3.046667e+001 3.318449e+001 2.981377e+001 3.597361e+001 3.725849e+001 2.359746e+001 3.198307e+001 2.418789e+001 1.950166e+000 2.957208e+000 3.394798e+000 5.667323e+000 4.061138e+000 3.817197e+000 4.112360e+000 3.749315e+000 5.260596e+000 3.982532e+000 4.022886e+000 2.932600e+000 4.873279e+000
<GCONST> 1.033432e+002
<STATE> 4
<MEAN> 25
 5.940010e+000 1.095571e+000 -1.563400e+000 -2.284805e+000 -2.656707e-001 2.508176e+000 -3.428102e+000 -5.340958e+000 -8.058989e-002 2.237961e+000 5.469230e+000 3.493536e-001 -6.187484e-001 -3.255615e+000 -1.565413e+000 -2.722023e+000 -1.930826e+000 7.550613e-002 -2.742021e+000 1.292878e+000 2.074208e+000 1.328486e+000 6.768613e-001 -1.009835e+000 5.047405e+000
<VARIANCE> 25
 2.490262e+001 2.918700e+001 2.624723e+001 7.927666e+001 3.590726e+001 5.198808e+001 4.487499e+001 3.189196e+001 3.646455e+001 4.037156e+001 3.728501e+001 2.680994e+001 2.518029e+000 4.481346e+000 5.560596e+000 8.352880e+000 4.688854e+000 6.724459e+000 5.949445e+000 7.988076e+000 1.042493e+001 6.669659e+000 5.904510e+000 6.222034e+000 5.642044e+000
<GCONST> 1.123259e+002
<TRANSP> 5
 0.000000e+000 1.000000e+000 0.000000e+000 0.000000e+000 0.000000e+000
 0.000000e+000 7.787353e-001 2.212647e-001 0.000000e+000 0.000000e+000
 0.000000e+000 0.000000e+000 4.456739e-001 5.543261e-001 0.000000e+000
 0.000000e+000 0.000000e+000 0.000000e+000 3.472838e-001 6.527162e-001
 0.000000e+000 0.000000e+000 0.000000e+000 0.000000e+000 0.000000e+000
<ENDHMM>
~h "c"
<BEGINHMM>
<NUMSTATES> 5
<STATE> 2
<MEAN> 25
 -1.410977e+000 5.660352e+000 2.192876e+000 4.273249e+000 7.394533e-001 -4.930049e+000 1.730261e+000 -2.495254e-001 3.628778e-001 -2.096494e+000 -4.167894e-001 2.699536e+000 -1.546205e+000 9.747202e-002 -7.751325e-001 -2.473116e-001 6.431988e-001 1.718389e-001 5.881487e-001 -2.315537e-001 3.311591e-001 8.122510e-002 1.742667e-001 9.980491e-002 -1.441373e+000
<VARIANCE> 25
 2.609888e+001 3.504641e+001 3.736348e+001 2.389168e+001 4.230258e+001 4.569841e+001 4.858418e+001 4.402665e+001 4.028689e+001 3.035310e+001 2.653201e+001 2.467992e+001 4.207419e+000 5.029253e+000 2.861800e+000 3.046399e+000 4.131395e+000 3.190737e+000 3.678629e+000 3.648735e+000 3.344836e+000 3.002982e+000 2.601074e+000 2.517502e+000 9.979084e+000
<GCONST> 1.052680e+002
<STATE> 3
<MEAN> 25
 -1.641403e+001 2.023758e+000 -3.573312e+000 -1.819716e+000 3.820354e+000 -3.462856e+000 3.908443e+000 -9.129295e-001 1.576830e+000 3.432936e-001 2.457625e+000 4.271587e+000 -2.360326e+000 -5.736548e-001 -2.747759e-001 -1.121867e+000 -3.682563e-001 -3.381008e-001 1.738861e-001 4.360371e-001 2.916783e-001 4.703011e-002 4.833205e-001 5.329612e-001 4.106079e+000
<VARIANCE> 25
 3.709701e+001 2.626572e+001 3.001156e+001 3.327633e+001 2.957614e+001 3.935648e+001 4.531990e+001 3.296850e+001 2.709839e+001 2.681354e+001 1.901123e+001 1.708697e+001 7.325925e+000 2.632114e+000 4.361109e+000 3.546728e+000 3.549280e+000 3.629021e+000 3.552420e+000 3.675094e+000 3.058635e+000 2.761957e+000 2.497976e+000 1.848941e+000 6.097951e+000
<GCONST> 1.027706e+002
<STATE> 4
<MEAN> 25
 -1.081225e+001 1.120243e+000 1.069665e+000 -1.246061e+000 -7.280996e-001 -6.178058e+000 1.696648e+000 2.374270e+000 2.654217e+000 -2.219927e+000 2.208044e-001 4.009933e+000 5.619203e+000 -1.358115e+000 1.833695e+000 1.262831e-001 -1.844641e+000 -3.197957e-001 -2.567258e+000 1.113292e+000 2.440339e-001 -5.657771e-001 -1.298634e+000 -1.261795e+000 2.283470e+000
<VARIANCE> 25
 9.113668e+001 2.677550e+001 3.749292e+001 3.132327e+001 3.072193e+001 3.811222e+001 7.001806e+001 3.666831e+001 3.069649e+001 2.760286e+001 2.716916e+001 1.982940e+001 3.448004e+000 5.687615e+000 4.825503e+000 5.677558e+000 3.987013e+000 5.128511e+000 5.781633e+000 8.567436e+000 6.337592e+000 4.335616e+000 3.681656e+000 2.973939e+000 2.657224e+000
<GCONST> 1.086537e+002
<TRANSP> 5
 0.000000e+000 1.000000e+000 0.000000e+000 0.000000e+000 0.000000e+000
 0.000000e+000 8.332118e-001 1.667882e-001 0.000000e+000 0.000000e+000
 0.000000e+000 0.000000e+000 7.367822e-001 2.632178e-001 0.000000e+000
 0.000000e+000 0.000000e+000 0.000000e+000 5.952058e-001 4.047943e-001
 0.000000e+000 0.000000e+000 0.000000e+000 0.000000e+000 0.000000e+000
<ENDHMM>
~h "d"
<BEGINHMM>
<NUMSTATES> 5
<STATE> 2
<MEAN> 25
 4.767397e+000 4.343909e+000 5.133163e+000 6.320234e+000 2.383621e-001 -2.286670e+000 -1.455379e+000 -8.394507e-001 1.812525e+000 -1.733054e+000 -3.348362e+000 -6.084742e-001 5.018435e-001 1.119251e+000 6.838672e-001 9.006764e-001 6.572527e-001 -2.545609e-001 3.509167e-001 -1.877945e-001 2.896775e-001 -2.369693e-001 -4.387865e-001 -8.865865e-002 -1.222317e+000
<VARIANCE> 25
 5.651389e+001 4.811932e+001 4.840189e+001 3.780778e+001 4.379124e+001 4.025904e+001 5.780206e+001 6.686102e+001 4.264375e+001 3.945065e+001 3.820490e+001 3.146503e+001 2.712072e+000 3.490742e+000 2.853870e+000 3.022951e+000 3.701677e+000 2.959021e+000 4.041710e+000 5.119689e+000 3.533396e+000 3.215569e+000 3.298097e+000 2.442065e+000 6.113769e+000
<GCONST> 1.077745e+002
<STATE> 3
<MEAN> 25
 7.392569e+000 6.718222e+000 8.885755e+000 8.702445e+000 1.404434e+000 -3.300809e+000 -1.417930e+000 -1.305514e+000 2.031762e+000 -2.263781e+000 -4.189172e+000 -9.191663e-001 -2.006551e+000 -2.579978e+000 -8.674572e-002 -1.988297e+000 -5.384628e-001 -3.836285e-001 -7.383493e-001 1.044894e+000 -7.644151e-001 -2.707409e-002 1.761313e+000 1.340153e+000 3.847934e+000
<VARIANCE> 25
 2.892416e+001 3.510954e+001 3.245990e+001 3.069040e+001 3.429051e+001 3.952489e+001 4.838008e+001 4.987763e+001 3.715840e+001 3.853115e+001 3.333505e+001 2.982437e+001 2.172073e+000 3.202336e+000 4.010516e+000 3.427366e+000 5.449116e+000 4.391818e+000 5.844895e+000 7.956221e+000 6.043882e+000 4.407609e+000 3.647015e+000 3.187627e+000 4.606627e+000
<GCONST> 1.077811e+002
<STATE> 4
<MEAN> 25
 1.560629e+000 -3.073286e+000 6.767355e+000 1.064564e+000 -3.042130e+000 -5.044637e+000 -5.160970e+000 2.840042e+000 5.866179e-001 -1.360426e+000 1.534475e+000 3.200882e+000 -9.034175e-001 -2.541054e+000 -7.154691e-001 -2.356128e+000 -2.765755e+000 -2.480353e-001 -1.758232e+000 1.906321e+000 1.456546e-001 3.213232e-001 1.466669e+000 1.456423e-001 4.840080e+000
<VARIANCE> 25
 2.123117e+001 2.932204e+001 4.220108e+001 3.294896e+001 5.814597e+001 4.871975e+001 9.007634e+001 6.085182e+001 5.511226e+001 2.956626e+001 2.829796e+001 2.740184e+001 3.020455e+000 3.794031e+000 6.416828e+000 4.727061e+000 5.701984e+000 4.462281e+000 6.328086e+000 1.220625e+001 9.315177e+000 5.083739e+000 6.010026e+000 4.113613e+000 5.069642e+000
<GCONST> 1.123489e+002
<TRANSP> 5
 0.000000e+000 1.000000e+000 0.000000e+000 0.000000e+000 0.000000e+000
 0.000000e+000 7.899525e-001 2.100475e-001 0.000000e+000 0.000000e+000
 0.000000e+000 0.000000e+000 4.371848e-001 5.628152e-001 0.000000e+000
 0.000000e+000 0.000000e+000 0.000000e+000 3.570021e-001 6.429979e-001
 0.000000e+000 0.000000e+000 0.000000e+000 0.000000e+000 0.000000e+000
<ENDHMM>
~h "e"
<BEGINHMM>
<NUMSTATES> 5
<STATE> 2
<MEAN> 25
 2.365325e+000 -4.054577e+000 2.973049e+000 -2.842795e-001 -5.306437e+000 -4.860821e+000 -2.626896e+000 2.846310e+000 3.270593e-001 8.107386e-001 1.457874e+000 -8.724368e-001 7.561367e-001 -1.804579e+000 1.032050e+000 -9.101663e-001 -2.027107e+000 -4.686490e-001 -7.486755e-001 2.112499e+000 -1.738214e-001 -1.686829e-001 2.719598e-001 -3.803840e-001 2.720944e+000
<VARIANCE> 25
 4.313638e+001 5.298940e+001 5.810277e+001 4.650950e+001 5.808422e+001 5.240312e+001 6.813485e+001 7.631941e+001 6.140272e+001 4.263074e+001 4.532539e+001 3.552738e+001 5.187513e+000 4.642128e+000 4.510416e+000 5.450636e+000 6.527117e+000 5.508122e+000 6.697198e+000 9.291009e+000 7.545787e+000 5.369619e+000 5.465852e+000 3.766941e+000 9.410359e+000
<GCONST> 1.164796e+002
<STATE> 3
<MEAN> 25
 4.109034e+000 -7.319901e+000 6.007384e+000 -1.885373e+000 -1.029007e+001 -5.793881e+000 -3.161871e+000 7.356938e+000 -3.133179e-001 -3.070325e-003 3.252083e+000 -1.226961e+000 -1.331218e-001 -1.083228e-001 4.890243e-001 -1.980077e-001 -7.443005e-001 -6.544395e-002 3.744037e-001 4.667976e-001 -3.238726e-001 2.254254e-002 3.023714e-001 -2.140862e-002 1.932791e-001
<VARIANCE> 25
 1.825266e+001 4.550879e+001 5.179710e+001 4.390010e+001 5.639611e+001 5.025972e+001 6.359905e+001 8.380331e+001 6.775205e+001 4.340059e+001 5.597507e+001 3.651279e+001 1.386655e+000 2.485725e+000 2.409637e+000 2.671394e+000 4.229270e+000 3.196979e+000 4.147080e+000 4.383113e+000 4.039809e+000 3.090909e+000 3.058112e+000 2.464851e+000 5.835555e+000
<GCONST> 1.074505e+002
<STATE> 4
<MEAN> 25
 2.518383e+000 -6.731087e+000 7.486185e+000 -2.934188e+000 -1.167507e+001 -6.423790e+000 1.162278e-001 7.501369e+000 -2.084635e+000 5.588912e-001 3.399617e+000 -9.477172e-001 5.634380e-002 3.188657e-001 -2.611837e-001 2.688315e-001 5.128403e-001 8.117782e-002 4.392945e-002 -3.086908e-001 7.038981e-002 3.424027e-002 -3.208210e-001 -5.958412e-002 -4.997347e-001
<VARIANCE> 25
 1.325071e+001 3.938795e+001 5.192813e+001 3.664762e+001 4.927902e+001 5.050159e+001 6.147136e+001 7.111378e+001 5.865205e+001 4.172780e+001 4.508773e+001 3.054650e+001 5.589462e-001 1.098521e+000 1.298055e+000 1.463145e+000 2.029821e+000 1.636591e+000 2.211855e+000 2.117553e+000 2.004756e+000 1.778253e+000 1.749765e+000 1.369055e+000 1.706738e+000
<GCONST> 9.656635e+001
<TRANSP> 5
 0.000000e+000 1.000000e+000 0.000000e+000 0.000000e+000 0.000000e+000
 0.000000e+000 5.456661e-001 4.543339e-001 0.000000e+000 0.000000e+000
 0.000000e+000 0.000000e+000 6.154416e-001 3.845584e-001 0.000000e+000
 0.000000e+000 0.000000e+000 0.000000e+000 8.168126e-001 1.831873e-001
 0.000000e+000 0.000000e+000 0.000000e+000 0.000000e+000 0.000000e+000
<ENDHMM>
~h "f"
<BEGINHMM>
<NUMSTATES> 5
<STATE> 2
<MEAN> 25
 -1.173782e+000 1.422406e+000 -5.268605e-001 3.162927e+000 1.821856e+000 6.647702e-001 2.162579e+000 -7.555595e-001 7.346422e-001 2.247974e-001 4.576115e-001 7.091902e-001 -3.015536e+000 7.955878e-002 -6.287420e-001 1.375028e+000 8.003038e-001 -6.257037e-001 6.453682e-001 2.863972e-001 8.621835e-001 -9.883557e-002 4.450374e-002 4.875186e-001 -1.298877e+000
<VARIANCE> 25
 5.883951e+001 3.249006e+001 4.283788e+001 5.175848e+001 4.098841e+001 5.635226e+001 4.295570e+001 4.637411e+001 4.234029e+001 3.126146e+001 3.038782e+001 3.214477e+001 4.931260e+000 4.435345e+000 3.764930e+000 5.546918e+000 5.296325e+000 6.012357e+000 5.377507e+000 4.946165e+000 4.382290e+000 3.583495e+000 3.290334e+000 2.995542e+000 3.175630e+000
<GCONST> 1.096843e+002
<STATE> 3
<MEAN> 25
 -1.028078e+001 -1.428557e+000 -3.953811e+000 4.135060e+000 2.520608e+000 -5.711190e-001 2.286796e+000 5.833844e-001 2.438506e+000 -5.216534e-002 1.052578e+000 3.095225e+000 -3.371602e-001 -2.662067e-001 -1.848694e-001 -2.897669e-002 2.853954e-002 1.119092e-002 4.195736e-002 5.699235e-002 3.477342e-002 2.962153e-002 5.541590e-002 5.414390e-002 -2.058560e-001
<VARIANCE> 25
 3.143958e+001 2.364709e+001 1.911342e+001 1.880615e+001 2.419987e+001 2.774101e+001 2.813157e+001 2.576650e+001 2.630360e+001 2.446514e+001 1.874297e+001 1.742813e+001 1.418257e+000 1.111790e+000 1.268557e+000 1.267511e+000 1.395395e+000 1.600687e+000 1.663725e+000 1.711571e+000 1.732226e+000 1.713901e+000 1.539018e+000 1.427050e+000 9.964977e-001
<GCONST> 8.844572e+001
<STATE> 4
<MEAN> 25
 -9.086477e+000 -1.976718e+000 -4.351754e+000 3.298695e+000 3.173928e+000 -4.201394e-001 2.972034e+000 4.330280e-001 2.063819e+000 4.262702e-001 1.272662e+000 2.371523e+000 2.851225e+000 5.007290e-001 3.425220e-001 -1.086928e+000 -5.994783e-001 4.725246e-001 -4.649475e-001 -3.348238e-001 -5.592836e-001 -2.567080e-001 -9.598842e-002 -7.126935e-001 1.047200e+000
<VARIANCE> 25
 5.215921e+001 2.894016e+001 3.133641e+001 3.473918e+001 3.365305e+001 3.842050e+001 3.179160e+001 3.548093e+001 3.146693e+001 2.471626e+001 2.250146e+001 1.989191e+001 8.272321e+000 3.911123e+000 4.000545e+000 6.072140e+000 4.011995e+000 5.131180e+000 4.103185e+000 3.735296e+000 3.555267e+000 2.956498e+000 2.674958e+000 2.640414e+000 6.009429e+000
<GCONST> 1.057340e+002
<TRANSP> 5
 0.000000e+000 1.000000e+000 0.000000e+000 0.000000e+000 0.000000e+000
 0.000000e+000 7.394392e-001 2.605608e-001 0.000000e+000 0.000000e+000
 0.000000e+000 0.000000e+000 8.940532e-001 1.059468e-001 0.000000e+000
 0.000000e+000 0.000000e+000 0.000000e+000 6.996303e-001 3.003697e-001
 0.000000e+000 0.000000e+000 0.000000e+000 0.000000e+000 0.000000e+000
<ENDHMM>
~h "g"
<BEGINHMM>
<NUMSTATES> 5
<STATE> 2
<MEAN> 25
 8.090936e+000 5.292510e+000 6.750747e+000 4.326576e+000 -1.923336e+000 -4.224839e+000 -1.399917e+000 -1.686586e+000 -4.267336e+000 2.380622e+000 -7.475427e-002 -2.854853e+000 3.880890e-001 1.645811e+000 7.500870e-001 1.261879e+000 4.831400e-001 -4.577152e-001 1.035540e+000 -6.523539e-001 -9.826619e-003 -4.372367e-001 -2.659464e-001 1.672344e-001 -2.272102e+000
<VARIANCE> 25
 1.953406e+001 4.997597e+001 4.120227e+001 4.056593e+001 5.615535e+001 5.700438e+001 5.863010e+001 6.161687e+001 5.399374e+001 4.535669e+001 3.955536e+001 3.122919e+001 2.147344e+000 2.632284e+000 3.494195e+000 3.241022e+000 4.436987e+000 4.133619e+000 4.246531e+000 4.678843e+000 5.632585e+000 3.569780e+000 3.117218e+000 2.849220e+000 4.988589e+000
<GCONST> 1.082875e+002
<STATE> 3
<MEAN> 25
 3.770635e+000 5.954492e+000 4.568014e+000 7.094403e+000 2.390220e+000 -4.119513e+000 1.607033e+000 -2.375091e+000 -2.698266e+000 1.276216e+000 -1.488123e+000 3.681063e-001 -2.315519e+000 -2.259311e+000 -2.031375e+000 -7.175716e-001 1.536646e+000 -6.642156e-001 -7.502319e-001 1.051409e+000 8.853781e-002 1.661255e-001 6.879932e-002 1.326466e+000 3.215622e+000
<VARIANCE> 25
 4.205539e+001 5.638881e+001 6.412871e+001 3.309087e+001 6.661617e+001 5.177097e+001 4.448176e+001 4.093755e+001 4.434851e+001 3.225959e+001 2.766122e+001 3.037375e+001 2.400848e+000 4.075644e+000 6.328215e+000 4.418554e+000 7.324570e+000 5.551977e+000 4.768246e+000 5.644336e+000 5.205594e+000 3.853078e+000 3.836337e+000 3.327050e+000 5.667460e+000
<GCONST> 1.109204e+002
<STATE> 4
<MEAN> 25
 3.829331e-001 -4.140378e-001 9.286568e-001 1.731617e+000 -2.686250e-001 -7.266850e+000 -2.878760e+000 1.785836e+000 -2.569291e+000 2.873677e+000 1.487661e+000 1.987010e+000 2.935586e-001 -1.012518e+000 4.261624e-001 -2.138227e+000 -2.563777e+000 7.473473e-002 -1.315501e+000 1.438365e+000 3.708060e-001 2.973981e-001 1.080034e+000 -6.953949e-001 2.774698e+000
<VARIANCE> 25
 2.781412e+001 3.473078e+001 7.568154e+001 3.452205e+001 8.566751e+001 6.278140e+001 6.174195e+001 5.369685e+001 4.729488e+001 3.575664e+001 3.790593e+001 2.761773e+001 2.968999e+000 3.869900e+000 6.231530e+000 4.084050e+000 7.803843e+000 4.813614e+000 4.865565e+000 6.840196e+000 7.017734e+000 4.308836e+000 4.832345e+000 3.741308e+000 4.280303e+000
<GCONST> 1.123385e+002
<TRANSP> 5
 0.000000e+000 1.000000e+000 0.000000e+000 0.000000e+000 0.000000e+000
 0.000000e+000 7.390869e-001 2.609130e-001 0.000000e+000 0.000000e+000
 0.000000e+000 0.000000e+000 5.889175e-001 4.110825e-001 0.000000e+000
 0.000000e+000 0.000000e+000 0.000000e+000 5.173008e-001 4.826992e-001
 0.000000e+000 0.000000e+000 0.000000e+000 0.000000e+000 0.000000e+000
<ENDHMM>
~h "h"
<BEGINHMM>
<NUMSTATES> 5
<STATE> 2
<MEAN> 25
 2.370291e+000 -2.133148e+000 -1.854751e+000 4.244881e-001 5.940671e+000 4.525056e+000 3.341330e+000 2.835972e+000 7.549403e-001 -3.341793e-001 -3.010055e+000 1.189331e-001 -1.136695e+000 3.635702e-001 6.717704e-003 1.651426e+000 2.101210e+000 4.644347e-001 1.718364e+000 9.089435e-002 5.351705e-001 -4.229929e-001 -1.076598e-001 8.887699e-001 -1.265484e+000
<VARIANCE> 25
 1.933452e+001 3.700351e+001 4.613066e+001 4.515738e+001 5.682584e+001 6.594736e+001 5.531080e+001 5.588268e+001 4.458964e+001 4.320515e+001 5.351097e+001 4.420052e+001 1.787295e+000 3.639023e+000 3.376033e+000 3.913450e+000 3.996957e+000 4.024737e+000 5.184837e+000 4.739128e+000 4.120768e+000 3.525492e+000 3.905042e+000 3.685250e+000 2.425294e+000
<GCONST> 1.084204e+002
<STATE> 3
<MEAN> 25
 -1.631429e+000 -3.916091e+000 -2.503510e+000 2.580239e+000 8.377460e+000 3.656746e+000 6.039360e+000 3.532013e+000 2.117731e+000 -1.146636e+000 -2.707872e+000 1.236419e+000 -5.122457e-001 -9.680551e-002 -2.606871e-001 -5.829779e-002 -1.698721e-001 -2.979038e-001 -2.977388e-002 -1.790113e-001 6.760743e-002 -3.111350e-002 2.262105e-001 1.212240e-001 -1.072257e+000
<VARIANCE> 25
 2.907341e+001 3.829315e+001 4.309180e+001 4.312289e+001 6.447271e+001 5.659369e+001 6.017523e+001 5.294017e+001 4.539914e+001 4.356136e+001 3.975535e+001 3.995954e+001 2.022692e+000 2.847432e+000 2.756624e+000 2.756111e+000 3.270503e+000 3.295921e+000 3.523885e+000 3.711182e+000 3.187066e+000 2.892822e+000 2.902366e+000 2.471527e+000 3.940408e+000
<GCONST> 1.060084e+002
<STATE> 4
<MEAN> 25
 -3.665935e+000 -3.544245e+000 -5.028634e+000 1.583760e+000 5.428249e+000 2.625707e+000 3.508907e+000 1.221551e+000 1.787893e+000 -1.869669e+000 -7.837927e-001 1.610471e+000 1.657480e-001 2.627297e-001 6.506259e-002 -7.095866e-002 -2.911640e-001 -4.319260e-002 -1.114578e-001 -1.620778e-001 -9.513048e-002 5.442762e-002 2.190318e-002 -1.079028e-001 -1.545239e-001
<VARIANCE> 25
 2.269159e+001 5.107648e+001 3.261152e+001 2.772118e+001 4.386992e+001 3.892221e+001 3.929393e+001 3.170217e+001 3.170399e+001 2.931470e+001 2.671873e+001 2.530083e+001 1.408806e+000 1.796377e+000 1.576604e+000 1.549693e+000 1.914108e+000 1.986795e+000 2.184635e+000 2.098625e+000 2.063999e+000 2.034753e+000 1.907596e+000 1.824424e+000 1.818440e+000
<GCONST> 9.569054e+001
<TRANSP> 5
 0.000000e+000 1.000000e+000 0.000000e+000 0.000000e+000 0.000000e+000
 0.000000e+000 4.909203e-001 5.090796e-001 0.000000e+000 0.000000e+000
 0.000000e+000 0.000000e+000 6.474007e-001 3.525993e-001 0.000000e+000
 0.000000e+000 0.000000e+000 0.000000e+000 8.267512e-001 1.732488e-001
 0.000000e+000 0.000000e+000 0.000000e+000 0.000000e+000 0.000000e+000
<ENDHMM>
~h "i"
<BEGINHMM>
<NUMSTATES> 5
<STATE> 2
<MEAN> 25
 -3.909118e-001 1.375015e+000 1.288961e+001 2.532054e+000 -8.365049e+000 -5.895344e+000 -3.057860e+000 -2.427080e+000 -6.880828e+000 -2.104060e+000 3.341850e+000 1.008567e+000 7.905548e-001 -9.229474e-002 3.104398e+000 -5.413867e-001 -3.001508e+000 2.360963e-001 -1.743239e+000 -2.990057e-001 -2.098539e+000 -2.119268e-001 1.266758e+000 -3.748513e-001 1.868933e+000
<VARIANCE> 25
 3.163034e+001 3.797178e+001 5.252068e+001 4.033046e+001 5.168494e+001 4.446722e+001 5.676892e+001 6.069948e+001 5.208218e+001 3.721128e+001 3.346400e+001 3.084275e+001 6.084486e+000 3.318788e+000 5.277401e+000 5.127251e+000 4.874655e+000 5.401985e+000 6.706933e+000 6.927106e+000 6.886110e+000 5.288029e+000 3.590995e+000 3.899236e+000 4.623776e+000
<GCONST> 1.122680e+002
<STATE> 3
<MEAN> 25
 3.533738e-001 1.854297e+000 1.886947e+001 -7.076604e-001 -1.400853e+001 -2.375992e+000 -7.133245e+000 -3.543427e+000 -1.023778e+001 -1.298527e+000 5.475730e+000 -4.148217e-001 7.919735e-002 3.495157e-002 2.962897e-002 -1.674826e-001 -2.341283e-001 1.073034e-001 -5.200491e-002 3.029233e-002 -6.783355e-003 2.009692e-001 8.044473e-002 -3.638675e-002 -4.268236e-003
<VARIANCE> 25
 1.216903e+001 2.767714e+001 3.628204e+001 4.469149e+001 2.762445e+001 4.352172e+001 3.155225e+001 6.070880e+001 4.703002e+001 5.074182e+001 3.359701e+001 3.754401e+001 5.617425e-001 1.234779e+000 1.632236e+000 1.415970e+000 1.739091e+000 2.059534e+000 1.849626e+000 2.475589e+000 1.899935e+000 1.677934e+000 1.400268e+000 1.283616e+000 8.443645e-001
<GCONST> 9.357051e+001
<STATE> 4
<MEAN> 25
 8.008492e-001 3.268820e+000 1.281324e+001 1.840654e+000 -8.552922e+000 -4.175320e+000 -1.833113e+000 -2.722904e+000 -5.966423e+000 -7.225170e-001 3.091880e+000 7.543240e-001 1.847477e-001 3.864853e-001 -1.705522e+000 6.300300e-001 1.603122e+000 -2.454455e-001 9.735072e-001 1.790349e-001 1.140455e+000 -3.409348e-002 -7.372897e-001 1.784607e-001 -1.930994e+000
<VARIANCE> 25
 2.054180e+001 3.582554e+001 5.086240e+001 3.869202e+001 5.686770e+001 6.030513e+001 5.198926e+001 5.647575e+001 4.993561e+001 4.311038e+001 3.769403e+001 3.341357e+001 2.057545e+000 2.789086e+000 2.753305e+000 2.960000e+000 3.808609e+000 3.745637e+000 4.208379e+000 4.638608e+000 4.382018e+000 3.528678e+000 2.977980e+000 2.555186e+000 4.268021e+000
<GCONST> 1.067643e+002
<TRANSP> 5
 0.000000e+000 1.000000e+000 0.000000e+000 0.000000e+000 0.000000e+000
 0.000000e+000 6.214680e-001 3.785320e-001 0.000000e+000 0.000000e+000
 0.000000e+000 0.000000e+000 7.873560e-001 2.126440e-001 0.000000e+000
 0.000000e+000 0.000000e+000 0.000000e+000 7.701407e-001 2.298593e-001
 0.000000e+000 0.000000e+000 0.000000e+000 0.000000e+000 0.000000e+000
<ENDHMM>
~h "j"
<BEGINHMM>
<NUMSTATES> 5
<STATE> 2
<MEAN> 25
 3.279979e+000 7.886656e+000 8.327174e+000 5.832558e+000 -1.581393e+000 -3.660837e+000 2.629665e-001 6.635482e-001 -1.054070e+000 -3.410197e+000 1.843362e-001 1.682343e+000 -2.882793e-001 1.325675e+000 2.829063e-001 3.479462e-001 8.247602e-001 8.782436e-002 9.675297e-001 -2.327479e-002 4.630466e-001 -3.737292e-002 -2.195918e-001 -2.382678e-002 -1.350456e+000
<VARIANCE> 25
 3.820167e+001 4.438163e+001 4.930721e+001 2.769914e+001 4.072894e+001 4.840866e+001 4.893851e+001 4.247391e+001 4.409585e+001 3.290236e+001 2.796851e+001 2.521331e+001 4.553028e+000 3.198954e+000 3.120449e+000 2.808550e+000 3.505669e+000 3.182882e+000 3.948351e+000 3.961437e+000 3.976891e+000 3.060181e+000 2.605503e+000 2.426648e+000 6.042839e+000
<GCONST> 1.058199e+002
<STATE> 3
<MEAN> 25
 -7.781827e+000 9.211226e+000 7.076053e+000 3.856542e+000 2.679839e+000 -3.570929e+000 2.407506e+000 -1.586382e+000 -8.715364e-001 -2.119117e+000 1.613967e+000 3.760210e+000 -1.311324e+000 -1.469162e+000 4.103160e-001 -6.870111e-001 -1.411802e+000 -9.959120e-001 -1.212839e+000 -3.398928e-001 -5.479537e-001 -1.298754e-001 8.620037e-001 9.479765e-001 3.614527e+000
<VARIANCE> 25
 5.310917e+001 4.190886e+001 4.778405e+001 2.837406e+001 4.163619e+001 5.117046e+001 3.970122e+001 3.061318e+001 2.701540e+001 2.409010e+001 2.092580e+001 2.012802e+001 1.284728e+001 3.691073e+000 5.380075e+000 4.029897e+000 8.899674e+000 4.513236e+000 4.595697e+000 4.698340e+000 4.076172e+000 2.829354e+000 2.449797e+000 2.480499e+000 3.169499e+000
<GCONST> 1.072593e+002
<STATE> 4
<MEAN> 25
 5.605149e-001 -6.446948e-001 1.063872e+001 2.430474e-001 -1.043354e+001 -8.814430e+000 -6.509680e+000 3.094228e+000 -9.568278e-001 -2.719529e+000 5.140577e+000 5.203593e+000 2.432384e+000 -3.003966e+000 -1.178724e+000 -1.394708e+000 -1.653996e+000 4.882017e-001 -1.589664e+000 2.489240e+000 1.263714e+000 7.575341e-001 -2.793999e-001 -1.422585e+000 1.522811e+000
<VARIANCE> 25
 1.319438e+001 3.043943e+001 2.782362e+001 3.830555e+001 2.744302e+001 2.209370e+001 3.739607e+001 6.156584e+001 5.216615e+001 2.556381e+001 2.300876e+001 2.148956e+001 2.765256e+000 2.872019e+000 5.151208e+000 2.462047e+000 6.688701e+000 3.672723e+000 6.957911e+000 7.160158e+000 5.902884e+000 3.217284e+000 4.284364e+000 2.893382e+000 1.250536e+000
<GCONST> 1.038692e+002
<TRANSP> 5
 0.000000e+000 1.000000e+000 0.000000e+000 0.000000e+000 0.000000e+000
 0.000000e+000 8.304642e-001 1.695358e-001 0.000000e+000 0.000000e+000
 0.000000e+000 0.000000e+000 7.691209e-001 2.308791e-001 0.000000e+000
 0.000000e+000 0.000000e+000 0.000000e+000 6.029514e-001 3.970486e-001
 0.000000e+000 0.000000e+000 0.000000e+000 0.000000e+000 0.000000e+000
<ENDHMM>
~h "k"
<BEGINHMM>
<NUMSTATES> 5
<STATE> 2
<MEAN> 25
 -1.990492e+000 2.823625e+000 -1.753659e+000 1.993564e+000 1.641731e+000 -1.888612e+000 2.579028e+000 -4.002128e-001 6.163111e-001 1.216666e-001 -4.896166e-001 1.356480e+000 -7.554504e-001 -6.621750e-002 -4.535677e-001 2.496933e-001 2.767917e-001 -7.144045e-002 2.495003e-001 3.839622e-002 2.673511e-001 -1.306962e-001 -2.326393e-003 3.407988e-001 -1.027647e+000
<VARIANCE> 25
 3.069823e+001 3.066616e+001 3.207078e+001 3.089000e+001 3.957805e+001 4.324202e+001 3.843517e+001 4.303573e+001 3.918817e+001 3.308112e+001 2.888217e+001 2.675787e+001 2.026972e+000 2.797860e+000 2.636127e+000 2.532257e+000 3.362568e+000 3.210643e+000 3.163422e+000 3.161075e+000 3.322488e+000 2.802300e+000 2.403336e+000 2.170846e+000 6.027939e+000
<GCONST> 1.023613e+002
<STATE> 3
<MEAN> 25
 -5.233531e+000 -2.286041e+000 -6.623407e+000 1.192696e+000 4.819091e+000 -4.179461e+000 1.429451e+000 3.894032e-001 7.850689e-001 1.961465e+000 -1.024563e+000 3.065902e+000 -9.055229e-001 -2.300339e+000 -2.317113e+000 -9.605699e-001 1.503007e+000 -8.983866e-001 -1.021698e+000 8.835673e-001 -7.035938e-002 9.700141e-001 -5.000364e-001 3.150603e-001 4.879404e+000
<VARIANCE> 25
 2.839885e+001 6.272332e+001 6.625777e+001 4.917391e+001 5.801693e+001 5.476922e+001 4.975006e+001 4.599246e+001 4.264756e+001 3.564253e+001 2.863537e+001 2.965366e+001 3.871235e+000 5.103958e+000 6.551323e+000 5.818801e+000 6.425776e+000 5.960921e+000 5.292670e+000 5.243051e+000 4.942039e+000 4.065351e+000 4.072338e+000 3.682535e+000 8.918230e+000
<GCONST> 1.128803e+002
<STATE> 4
<MEAN> 25
 -3.637930e+000 -2.827814e+000 -8.074050e+000 -2.314973e+000 4.833597e+000 -4.868879e+000 -4.878404e-001 2.174777e+000 4.679739e-001 3.262601e+000 -2.179107e+000 7.462507e-001 2.070422e+000 6.292669e-001 1.678769e+000 -9.656981e-001 -1.793785e+000 6.551614e-001 -4.553640e-001 4.002404e-001 -3.636020e-001 -4.683886e-001 2.918316e-001 -1.561139e+000 2.794932e+000
<VARIANCE> 25
 4.102990e+001 3.917141e+001 6.665682e+001 5.424311e+001 5.930927e+001 6.755736e+001 5.201629e+001 5.032767e+001 4.703897e+001 3.695557e+001 3.653191e+001 4.033712e+001 4.642799e+000 4.997271e+000 5.386534e+000 6.054417e+000 5.890260e+000 5.810448e+000 5.536999e+000 5.994127e+000 5.232192e+000 3.952698e+000 4.311951e+000 4.414362e+000 7.783186e+000
<GCONST> 1.141357e+002
<TRANSP> 5
 0.000000e+000 1.000000e+000 0.000000e+000 0.000000e+000 0.000000e+000
 0.000000e+000 8.038770e-001 1.961230e-001 0.000000e+000 0.000000e+000
 0.000000e+000 0.000000e+000 5.756292e-001 4.243708e-001 0.000000e+000
 0.000000e+000 0.000000e+000 0.000000e+000 5.418358e-001 4.581642e-001
 0.000000e+000 0.000000e+000 0.000000e+000 0.000000e+000 0.000000e+000
<ENDHMM>
~h "l"
<BEGINHMM>
<NUMSTATES> 5
<STATE> 2
<MEAN> 25
 6.700667e+000 -4.963989e+000 1.105017e+000 -5.896945e+000 -2.507075e+000 1.813705e+000 -8.672864e+000 -4.146214e+000 3.377543e+000 4.468130e+000 1.239002e+000 -2.860249e+000 5.993405e-001 2.039554e-001 7.357899e-001 -6.116804e-001 7.945828e-001 -5.061830e-002 -1.556103e+000 -1.547629e+000 1.360515e-002 1.214720e+000 4.318857e-001 -3.162495e-001 -4.368200e-001
<VARIANCE> 25
 1.536897e+001 2.663477e+001 5.067295e+001 6.644785e+001 5.432788e+001 6.949079e+001 7.270298e+001 1.069861e+002 5.996009e+001 5.088624e+001 4.974438e+001 4.384384e+001 1.127380e+000 2.074919e+000 2.946228e+000 5.003093e+000 5.572458e+000 6.449853e+000 5.265289e+000 6.167909e+000 4.927658e+000 4.415729e+000 4.898711e+000 3.650724e+000 1.404882e+000
<GCONST> 1.098961e+002
<STATE> 3
<MEAN> 25
 7.886343e+000 -4.264978e+000 2.365698e+000 -8.591372e+000 -1.365804e+000 3.570437e+000 -1.135455e+001 -6.420069e+000 2.596597e+000 6.768451e+000 2.897474e+000 -3.792821e+000 -3.479712e-002 2.084254e-001 2.252299e-002 -1.906239e-001 3.293375e-001 -3.511916e-002 -2.444168e-001 -6.208979e-003 -7.569724e-002 -2.662927e-002 3.988139e-002 5.673647e-002 -1.410999e-001
<VARIANCE> 25
 1.101782e+001 2.145587e+001 4.387498e+001 7.159006e+001 5.091785e+001 5.641256e+001 7.105698e+001 8.059187e+001 5.819653e+001 4.918016e+001 4.516888e+001 4.109948e+001 4.201236e-001 1.016176e+000 1.952614e+000 2.676575e+000 1.820299e+000 2.688013e+000 2.688040e+000 3.611645e+000 2.641749e+000 2.487885e+000 2.432512e+000 1.918160e+000 7.210860e-001
<GCONST> 9.932574e+001
<STATE> 4
<MEAN> 25
 4.475183e+000 -1.538015e+000 -2.493654e-001 -4.931490e+000 1.145547e+000 2.026288e+000 -5.879006e+000 -3.748844e+000 1.837890e+000 2.905017e+000 7.074734e-001 -1.566252e+000 -5.562885e-001 -4.324693e-002 -4.059785e-001 6.671636e-001 -1.802833e-001 -1.688791e-001 1.024798e+000 9.015803e-001 1.000519e-001 -7.773930e-001 -5.917479e-001 1.818962e-001 -3.016680e-001
<VARIANCE> 25
 3.369451e+001 3.511798e+001 6.670021e+001 8.113518e+001 6.294078e+001 5.982169e+001 1.055472e+002 7.797210e+001 5.753842e+001 6.042813e+001 5.109971e+001 4.421362e+001 1.169702e+000 2.761869e+000 3.161259e+000 4.446411e+000 4.072007e+000 4.742959e+000 4.853640e+000 6.017847e+000 4.562646e+000 4.171838e+000 4.425914e+000 3.153342e+000 3.756881e+000
<GCONST> 1.118019e+002
<TRANSP> 5
 0.000000e+000 1.000000e+000 0.000000e+000 0.000000e+000 0.000000e+000
 0.000000e+000 4.483621e-001 5.516379e-001 0.000000e+000 0.000000e+000
 0.000000e+000 0.000000e+000 6.231471e-001 3.768529e-001 0.000000e+000
 0.000000e+000 0.000000e+000 0.000000e+000 5.943454e-001 4.056546e-001
 0.000000e+000 0.000000e+000 0.000000e+000 0.000000e+000 0.000000e+000
<ENDHMM>
~h "m"
<BEGINHMM>
<NUMSTATES> 5
<STATE> 2
<MEAN> 25
 8.291140e+000 -1.122424e+000 1.813163e+000 -3.685102e-001 -1.138963e+000 4.802591e+000 -7.226214e-001 -6.773457e+000 -6.924689e+000 8.622930e-001 7.704981e-001 -2.521283e+000 4.711264e-001 1.290777e+000 1.892435e+000 2.245359e+000 2.940324e-001 -4.934226e-002 1.024298e+000 -3.197711e+000 -3.117160e+000 -6.114734e-002 -5.873348e-001 8.662955e-001 -9.386689e-001
<VARIANCE> 25
 1.887277e+001 3.916190e+001 3.653881e+001 6.531822e+001 3.900281e+001 5.272166e+001 6.026052e+001 7.195411e+001 6.026469e+001 4.128943e+001 4.715690e+001 4.352295e+001 2.098527e+000 2.451365e+000 3.424536e+000 4.074835e+000 3.484385e+000 3.889961e+000 5.810999e+000 4.937390e+000 5.773206e+000 4.403803e+000 6.417776e+000 4.583672e+000 4.494801e+000
<GCONST> 1.101366e+002
<STATE> 3
<MEAN> 25
 8.105757e+000 7.136858e-001 6.799119e+000 3.599074e+000 -6.848713e-001 5.076821e+000 -2.974433e-001 -1.202409e+001 -1.275141e+001 4.741976e-001 -1.425228e+000 -2.444635e-002 -4.024365e-002 1.710497e-001 2.487195e-001 2.066424e-001 9.508350e-002 1.092184e-001 2.289235e-001 -2.850639e-001 -3.674951e-001 -1.983856e-001 -2.495832e-001 2.273208e-001 -6.810918e-002
<VARIANCE> 25
 8.824957e+000 2.233687e+001 2.335245e+001 3.978190e+001 3.676062e+001 5.805274e+001 6.854997e+001 4.856182e+001 4.176578e+001 5.507254e+001 5.343084e+001 4.525454e+001 4.361212e-001 9.998814e-001 9.807934e-001 1.450612e+000 1.451488e+000 1.562262e+000 1.690449e+000 1.886521e+000 2.236435e+000 1.824960e+000 2.157427e+000 1.534857e+000 1.240289e+000
<GCONST> 9.369269e+001
<STATE> 4
<MEAN> 25
 6.551180e+000 1.430931e+000 4.272591e+000 2.365285e+000 -6.049303e-001 4.354189e+000 1.978595e+000 -9.540581e+000 -9.502810e+000 -9.642547e-001 -1.912346e+000 8.068958e-002 -7.777812e-002 -3.714383e-001 -1.386508e+000 -1.362679e+000 -3.568855e-001 -3.280077e-003 -3.329607e-001 1.711576e+000 1.758753e+000 1.371669e-001 7.134559e-001 -7.081495e-001 5.749169e-001
<VARIANCE> 25
 2.222599e+001 2.506887e+001 3.666286e+001 4.548136e+001 4.971753e+001 4.826657e+001 6.065655e+001 5.913696e+001 6.254247e+001 4.047047e+001 5.047176e+001 4.120354e+001 7.909628e-001 2.138790e+000 3.118405e+000 4.271212e+000 2.531019e+000 3.018365e+000 3.792074e+000 4.107645e+000 4.952738e+000 3.265591e+000 3.963570e+000 3.335313e+000 3.208675e+000
<GCONST> 1.055584e+002
<TRANSP> 5
 0.000000e+000 1.000000e+000 0.000000e+000 0.000000e+000 0.000000e+000
 0.000000e+000 5.900280e-001 4.099720e-001 0.000000e+000 0.000000e+000
 0.000000e+000 0.000000e+000 7.411789e-001 2.588211e-001 0.000000e+000
 0.000000e+000 0.000000e+000 0.000000e+000 6.160983e-001 3.839017e-001
 0.000000e+000 0.000000e+000 0.000000e+000 0.000000e+000 0.000000e+000
<ENDHMM>
~h "n"
<BEGINHMM>
<NUMSTATES> 5
<STATE> 2
<MEAN> 25
 7.286104e+000 -3.918962e+000 3.860754e+000 1.377543e+000 -2.963043e+000 -1.993143e+000 -4.622147e+000 -8.186333e-001 -9.410151e-002 1.888206e+000 -5.257071e+000 -3.673093e+000 6.129324e-001 2.278666e+000 1.986575e+000 2.333651e+000 -5.175874e-001 -9.723826e-001 6.497921e-001 -4.399302e+000 -7.985959e-001 1.128920e+000 -6.929673e-001 9.842544e-001 -2.217866e+000
<VARIANCE> 25
 8.998444e+000 3.520683e+001 3.633646e+001 4.234262e+001 4.147981e+001 4.519804e+001 4.974682e+001 1.183259e+002 5.090013e+001 4.811907e+001 3.855273e+001 3.563552e+001 6.604086e-001 1.816864e+000 3.626919e+000 2.547314e+000 3.388468e+000 4.805535e+000 5.844671e+000 6.000617e+000 6.400451e+000 5.685019e+000 5.622559e+000 3.041453e+000 8.735456e-001
<GCONST> 1.053407e+002
<STATE> 3
<MEAN> 25
 8.283688e+000 9.384817e-001 8.672232e+000 5.196522e+000 -4.697661e+000 -2.510516e+000 -2.801097e+000 -1.025417e+001 -3.026336e+000 4.044833e+000 -5.640066e+000 -5.993396e-001 7.466631e-002 6.611592e-001 1.359342e-001 3.662120e-001 1.205025e-002 1.370564e-001 3.606083e-001 -5.964083e-001 -3.972771e-001 5.815012e-002 8.654013e-003 3.718275e-001 -6.736354e-001
<VARIANCE> 25
 8.305555e+000 1.692319e+001 2.130702e+001 3.039112e+001 3.449282e+001 4.543180e+001 5.775727e+001 5.103913e+001 4.592707e+001 4.894508e+001 4.401655e+001 3.513682e+001 3.254260e-001 9.973946e-001 1.184456e+000 1.107760e+000 1.407645e+000 1.559346e+000 1.936688e+000 2.683366e+000 2.015076e+000 1.885363e+000 1.864877e+000 1.540945e+000 6.743451e-001
<GCONST> 9.135009e+001
<STATE> 4
<MEAN> 25
 3.182987e+000 3.570075e+000 4.424627e+000 6.026352e+000 1.908866e-001 -1.322093e+000 1.256430e+000 -5.901267e+000 -2.189217e+000 8.689885e-001 -4.369517e+000 9.703549e-001 -7.549382e-001 1.754279e-001 -6.416678e-001 -2.127329e-001 7.023463e-001 1.726125e-001 1.661149e-001 8.880526e-001 1.911190e-001 -5.920291e-001 4.523709e-001 -8.720721e-002 -9.946117e-001
<VARIANCE> 25
 4.052621e+001 2.969463e+001 3.916467e+001 3.131596e+001 5.168803e+001 3.576579e+001 5.648710e+001 7.256256e+001 5.382698e+001 5.009824e+001 4.858692e+001 3.350312e+001 1.523563e+000 2.526755e+000 2.268212e+000 2.555661e+000 3.334522e+000 2.994788e+000 3.941855e+000 4.407679e+000 3.638690e+000 3.309858e+000 2.939033e+000 2.490008e+000 3.811812e+000
<GCONST> 1.053657e+002
<TRANSP> 5
 0.000000e+000 1.000000e+000 0.000000e+000 0.000000e+000 0.000000e+000
 0.000000e+000 6.189140e-001 3.810860e-001 0.000000e+000 0.000000e+000
 0.000000e+000 0.000000e+000 7.450113e-001 2.549886e-001 0.000000e+000
 0.000000e+000 0.000000e+000 0.000000e+000 7.392483e-001 2.607517e-001
 0.000000e+000 0.000000e+000 0.000000e+000 0.000000e+000 0.000000e+000
<ENDHMM>
~h "o"
<BEGINHMM>
<NUMSTATES> 5
<STATE> 2
<MEAN> 25
 6.377806e+000 3.390730e-001 -5.342948e+000 -9.469250e+000 -3.409988e+000 5.847342e+000 -4.373767e+000 -2.489703e+000 4.195989e-001 1.625398e+000 3.683337e+000 -2.888131e-001 1.890471e+000 -4.221545e-001 -5.202903e-001 -3.217707e+000 -1.493114e+000 2.674544e+000 -8.040202e-001 1.163645e-001 1.423838e-001 1.168368e-001 1.227704e+000 -4.915415e-001 2.127265e+000
<VARIANCE> 25
 2.694304e+001 3.459962e+001 4.118967e+001 8.394081e+001 5.245086e+001 5.606918e+001 7.725172e+001 5.845011e+001 5.865656e+001 5.653049e+001 4.324397e+001 3.354687e+001 4.572267e+000 3.204782e+000 5.668115e+000 6.516009e+000 7.283133e+000 5.539497e+000 6.064769e+000 7.449774e+000 5.874235e+000 5.785934e+000 4.674596e+000 4.103179e+000 4.776765e+000
<GCONST> 1.145664e+002
<STATE> 3
<MEAN> 25
 8.757915e+000 -9.876750e-001 -5.940379e+000 -1.670915e+001 -5.590218e+000 1.292770e+001 -4.859204e+000 -1.592074e+000 5.060214e-001 3.000551e-001 6.451039e+000 -4.911671e-001 1.241585e-001 -5.212855e-002 -1.664346e-001 -7.557163e-001 -5.535547e-003 7.437707e-001 2.326116e-001 1.343048e-001 -9.511013e-002 -2.710274e-001 2.632708e-001 1.565404e-001 1.340152e-001
<VARIANCE> 25
 1.067367e+001 2.778000e+001 2.439818e+001 5.053411e+001 4.638581e+001 3.838494e+001 5.407972e+001 5.204281e+001 4.947660e+001 6.247264e+001 3.373609e+001 3.720619e+001 3.538381e-001 1.234752e+000 9.656907e-001 2.133041e+000 1.604721e+000 2.010993e+000 2.216507e+000 2.144943e+000 2.483815e+000 2.593555e+000 1.797197e+000 1.698277e+000 8.248295e-001
<GCONST> 9.476593e+001
<STATE> 4
<MEAN> 25
 7.253824e+000 7.571421e-001 -5.951114e+000 -1.358611e+001 -3.356869e+000 9.550885e+000 -2.103042e+000 -1.753676e+000 6.079763e-001 5.102251e-001 4.222780e+000 -1.285391e-002 -2.983365e-001 6.639171e-002 3.309878e-001 1.637203e+000 5.327693e-001 -1.209090e+000 1.529986e-001 -1.163675e-001 1.899815e-001 3.466052e-001 -7.251668e-001 -2.348959e-001 -1.173646e+000
<VARIANCE> 25
 1.927581e+001 4.030594e+001 2.684609e+001 7.001482e+001 5.068201e+001 4.643972e+001 7.662238e+001 5.630802e+001 5.222061e+001 5.838178e+001 3.864145e+001 4.314598e+001 9.007165e-001 2.032480e+000 1.679748e+000 3.480141e+000 2.900474e+000 3.149579e+000 3.699612e+000 3.252986e+000 3.282624e+000 3.598745e+000 2.660120e+000 2.515574e+000 3.260032e+000
<GCONST> 1.043381e+002
<TRANSP> 5
 0.000000e+000 1.000000e+000 0.000000e+000 0.000000e+000 0.000000e+000
 0.000000e+000 5.709286e-001 4.290714e-001 0.000000e+000 0.000000e+000
 0.000000e+000 0.000000e+000 7.555396e-001 2.444604e-001 0.000000e+000
 0.000000e+000 0.000000e+000 0.000000e+000 7.864545e-001 2.135455e-001
 0.000000e+000 0.000000e+000 0.000000e+000 0.000000e+000 0.000000e+000
<ENDHMM>
~h "p"
<BEGINHMM>
<NUMSTATES> 5
<STATE> 2
<MEAN> 25
 4.378554e-001 5.089151e+000 -1.502874e+000 1.758576e+000 1.915366e+000 5.445809e-001 2.987074e+000 -2.817580e+000 4.837662e-001 -2.149864e-001 -2.162439e-002 4.739355e-001 -1.112085e+000 1.723881e-001 -2.432508e-001 4.229905e-001 1.545582e-001 -4.632263e-001 4.115119e-001 2.627386e-001 3.681048e-001 -2.030573e-001 -2.239812e-002 3.621790e-001 -1.397933e+000
<VARIANCE> 25
 3.782802e+001 2.150949e+001 3.031074e+001 3.406200e+001 2.660119e+001 3.612752e+001 3.199131e+001 3.639878e+001 3.887823e+001 2.876789e+001 2.540972e+001 2.805791e+001 1.632691e+000 2.065768e+000 1.800958e+000 2.195145e+000 2.170818e+000 2.553667e+000 2.529867e+000 2.453924e+000 2.828352e+000 2.326607e+000 2.143087e+000 1.921312e+000 5.463161e+000
<GCONST> 9.823143e+001
<STATE> 3
<MEAN> 25
 -3.657162e+000 3.995203e+000 -1.767208e+000 2.894508e+000 2.138582e+000 -1.379327e+000 3.644871e+000 -1.840331e+000 1.100870e+000 -5.833901e-001 3.502845e-001 1.752308e+000 -9.241700e-004 -2.124766e+000 -9.919621e-001 -1.206027e+000 -3.955809e-001 8.084401e-002 -7.893805e-001 1.533929e-001 3.174860e-001 7.162925e-002 7.921109e-001 1.160327e-002 5.339844e+000
<VARIANCE> 25
 1.912128e+001 2.047157e+001 1.988284e+001 2.337271e+001 2.347238e+001 2.804373e+001 3.082213e+001 3.071459e+001 3.073299e+001 2.514066e+001 2.159233e+001 2.060684e+001 5.147899e+000 3.213788e+000 3.466976e+000 5.723498e+000 3.319332e+000 5.333273e+000 3.581454e+000 4.009927e+000 4.339848e+000 3.401942e+000 3.094572e+000 3.031882e+000 8.525805e+000
<GCONST> 1.025548e+002
<STATE> 4
<MEAN> 25
 -3.644092e+000 -1.191568e+000 -4.405962e+000 3.373142e-001 1.475452e+000 -4.292834e-001 2.040147e+000 -9.508543e-001 1.514593e+000 -4.798566e-001 1.487305e+000 2.056356e+000 1.933158e+000 -1.387235e+000 -4.412447e-001 -1.910488e+000 -7.925835e-001 1.049845e+000 -1.216056e+000 -1.296991e-001 -1.337906e-001 2.563182e-002 5.434675e-001 -8.545325e-001 5.177540e+000
<VARIANCE> 25
 4.013917e+001 2.487330e+001 2.149438e+001 4.309381e+001 2.566793e+001 3.963964e+001 3.155131e+001 2.903500e+001 2.712967e+001 2.329117e+001 2.107443e+001 2.099874e+001 5.402520e+000 5.679523e+000 4.144913e+000 8.207320e+000 4.026716e+000 7.775528e+000 4.941262e+000 4.878897e+000 4.105379e+000 3.797331e+000 3.392373e+000 3.876916e+000 1.526702e+001
<GCONST> 1.075966e+002
<TRANSP> 5
 0.000000e+000 1.000000e+000 0.000000e+000 0.000000e+000 0.000000e+000
 0.000000e+000 8.208693e-001 1.791307e-001 0.000000e+000 0.000000e+000
 0.000000e+000 0.000000e+000 3.281351e-001 6.718649e-001 0.000000e+000
 0.000000e+000 0.000000e+000 0.000000e+000 4.826978e-001 5.173022e-001
 0.000000e+000 0.000000e+000 0.000000e+000 0.000000e+000 0.000000e+000
<ENDHMM>
~h "q"
<BEGINHMM>
<NUMSTATES> 5
<STATE> 2
<MEAN> 25
 -5.900881e+000 5.576625e+000 7.071133e-001 6.503963e+000 -6.417365e-002 -1.596910e+000 3.363047e+000 -5.258504e+000 1.681936e+000 -3.471850e+000 -7.525668e-001 2.304557e+000 -5.897104e-001 -6.591558e-001 -8.008385e-001 -8.319516e-002 8.430191e-001 2.514138e-001 -7.231521e-002 2.967536e-001 5.550098e-001 -7.438347e-002 -2.186298e-001 1.053735e+000 2.526190e-001
<VARIANCE> 25
 1.039096e+001 2.646426e+001 2.151718e+001 8.150279e+000 1.811349e+001 2.048862e+001 1.467921e+001 1.148001e+001 3.263652e+001 1.480714e+001 2.149432e+001 1.646553e+001 1.642024e+000 5.197093e+000 8.624911e+000 1.890097e+000 3.298719e+000 3.975420e+000 3.006057e+000 1.635077e+000 4.821618e+000 3.810484e+000 2.477231e+000 3.987959e+000 5.375784e+000
<GCONST> 9.580822e+001
<STATE> 3
<MEAN> 25
 -1.912417e+000 -1.825303e+000 -2.311752e+000 -1.436320e+000 -7.807782e-001 -6.489957e+000 7.943506e-001 7.084429e-001 -2.020194e+000 -5.453426e-002 5.207148e-001 6.527496e+000 -2.979460e-001 -6.915925e-002 -9.690636e-001 -5.940192e-001 3.089347e-001 5.914509e-001 2.953599e-001 3.025830e-002 -1.255952e-001 -3.280341e-001 -2.408168e-002 8.650181e-002 6.723508e-001
<VARIANCE> 25
 3.045856e+001 5.012282e+001 2.401840e+002 4.196442e+001 7.437351e+001 6.886147e+001 4.344717e+001 5.696161e+001 4.270585e+001 3.293284e+001 4.122890e+001 3.527678e+001 2.784193e+000 5.899665e+000 8.579427e+000 6.141848e+000 6.169163e+000 5.633562e+000 1.181770e+000 4.535805e+000 5.816004e+000 3.318223e+000 3.671663e+000 3.352972e+000 1.222012e+001
<GCONST> 1.133466e+002
<STATE> 4
<MEAN> 25
 -8.124333e+000 2.813833e+000 -5.959544e+000 3.907418e+000 1.149987e+000 1.595274e+000 6.160026e+000 -4.904640e+000 4.057518e+000 -4.166280e+000 -1.821527e+000 2.368844e+000 -9.380244e-002 2.724450e-001 2.076733e-001 -3.097859e-002 -5.119197e-002 2.255049e-001 7.107908e-002 1.399936e-001 1.025009e-001 -7.077119e-002 -9.232539e-002 -1.851241e-001 -9.087502e-002
<VARIANCE> 25
 6.383914e+000 1.281590e+001 1.867814e+001 1.380788e+001 1.082279e+001 1.923269e+001 1.391478e+001 1.559768e+001 2.131898e+001 1.241212e+001 1.985696e+001 1.191749e+001 1.761033e+000 1.853173e+000 2.134379e+000 9.005191e-001 1.727651e+000 1.491132e+000 1.378809e+000 1.809338e+000 2.411584e+000 1.875966e+000 2.036524e+000 1.502300e+000 2.565221e+000
<GCONST> 8.493354e+001
<TRANSP> 5
 0.000000e+000 1.000000e+000 0.000000e+000 0.000000e+000 0.000000e+000
 0.000000e+000 8.133363e-001 1.866637e-001 0.000000e+000 0.000000e+000
 0.000000e+000 0.000000e+000 8.203580e-001 1.796420e-001 0.000000e+000
 0.000000e+000 0.000000e+000 0.000000e+000 8.906683e-001 1.093317e-001
 0.000000e+000 0.000000e+000 0.000000e+000 0.000000e+000 0.000000e+000
<ENDHMM>
~h "r"
<BEGINHMM>
<NUMSTATES> 5
<STATE> 2
<MEAN> 25
 6.068131e+000 -5.892157e+000 -4.086327e+000 -1.860690e+000 -3.612285e+000 -4.203949e-002 -5.934213e+000 6.250160e-001 5.805026e+000 2.779815e+000 4.222847e-001 -4.005741e+000 3.191208e-001 2.681529e-001 1.636799e-001 1.829511e+000 -1.760930e-001 -3.746830e-001 -2.525657e-001 -9.604241e-001 7.850182e-001 -2.460514e-001 2.153969e-001 3.156908e-001 -1.211727e+000
<VARIANCE> 25
 1.837745e+001 3.055839e+001 4.437099e+001 4.756239e+001 4.561441e+001 5.596152e+001 6.508693e+001 8.363638e+001 5.373853e+001 4.661962e+001 4.632344e+001 4.006932e+001 2.830055e+000 3.230795e+000 3.152392e+000 6.085485e+000 5.455620e+000 5.882074e+000 6.107368e+000 6.240921e+000 5.946528e+000 5.722548e+000 5.016669e+000 3.937490e+000 4.235742e+000
<GCONST> 1.119622e+002
<STATE> 3
<MEAN> 25
 6.670838e+000 -4.306174e+000 -2.917497e+000 3.225974e+000 -3.787813e+000 -1.277739e+000 -6.399890e+000 -1.841095e+000 6.770940e+000 1.971657e+000 1.394573e+000 -2.562902e+000 -3.111014e-001 5.450734e-001 6.391068e-001 7.943119e-001 6.158814e-001 -5.040975e-001 3.057332e-001 -2.912197e-001 -5.505947e-001 -3.403416e-001 4.855391e-003 7.362379e-001 -1.238832e+000
<VARIANCE> 25
 1.911615e+001 2.607443e+001 5.116710e+001 4.063977e+001 5.149636e+001 5.073991e+001 6.125684e+001 7.228827e+001 5.242508e+001 4.581974e+001 4.031465e+001 3.300022e+001 2.570102e+000 2.789114e+000 3.117033e+000 3.882545e+000 5.019243e+000 5.088292e+000 5.522146e+000 5.711505e+000 5.485459e+000 4.644697e+000 4.015893e+000 3.880180e+000 3.387423e+000
<GCONST> 1.093981e+002
<STATE> 4
<MEAN> 25
 -2.093381e-001 -1.212424e+000 -2.326369e+000 3.585611e+000 1.439841e+000 -4.520162e-001 7.986191e-002 -4.362428e-001 3.203793e+000 -4.753096e-001 -1.418001e-001 1.101451e+000 -1.756493e-001 1.307467e-001 1.796504e-001 -6.619436e-002 3.904731e-002 -9.154751e-003 1.141089e-001 2.167089e-002 -4.235646e-001 -8.937077e-002 6.893938e-002 1.679344e-001 -3.269359e-001
<VARIANCE> 25
 5.031433e+001 3.583852e+001 4.680081e+001 3.438699e+001 4.395150e+001 4.510379e+001 6.021255e+001 4.767584e+001 4.423750e+001 3.975244e+001 3.399443e+001 2.859124e+001 2.116515e+000 2.085118e+000 2.392505e+000 2.154962e+000 2.777157e+000 2.911259e+000 3.142730e+000 3.061803e+000 3.252314e+000 2.721886e+000 2.458528e+000 2.236648e+000 2.641916e+000
<GCONST> 1.030693e+002
<TRANSP> 5
 0.000000e+000 1.000000e+000 0.000000e+000 0.000000e+000 0.000000e+000
 0.000000e+000 3.949857e-001 6.050143e-001 0.000000e+000 0.000000e+000
 0.000000e+000 0.000000e+000 4.187374e-001 5.812626e-001 0.000000e+000
 0.000000e+000 0.000000e+000 0.000000e+000 7.414000e-001 2.586000e-001
 0.000000e+000 0.000000e+000 0.000000e+000 0.000000e+000 0.000000e+000
<ENDHMM>
~h "s"
<BEGINHMM>
<NUMSTATES> 5
<STATE> 2
<MEAN> 25
 -6.377976e+000 5.922299e+000 2.970268e-001 2.480822e+000 5.010859e+000 -4.570454e+000 1.949165e+000 1.421885e+000 1.458500e+000 -6.260257e-001 -1.407186e+000 2.111847e+000 -4.753243e+000 1.950876e+000 -9.804396e-001 8.511963e-001 1.740703e+000 -4.537310e-001 1.808187e+000 7.099611e-001 6.026017e-001 -5.109676e-001 7.432880e-001 8.450037e-001 -6.598514e-001
<VARIANCE> 25
 7.320110e+001 4.682845e+001 4.494814e+001 4.116661e+001 4.912131e+001 4.523468e+001 7.529248e+001 5.370362e+001 4.927739e+001 3.649601e+001 3.944138e+001 3.015881e+001 3.223286e+000 6.070797e+000 4.255267e+000 4.725662e+000 5.292041e+000 4.709392e+000 6.326765e+000 5.821852e+000 4.821101e+000 4.227086e+000 4.079354e+000 3.161848e+000 2.799323e+000
<GCONST> 1.115950e+002
<STATE> 3
<MEAN> 25
 -2.199912e+001 5.499166e+000 -5.560014e+000 1.692067e+000 6.986829e+000 -4.262960e+000 5.294464e+000 3.204764e+000 3.232917e+000 4.408882e-002 2.130355e+000 4.727922e+000 -7.138032e-001 -5.909600e-001 -5.020682e-001 -2.485472e-001 -1.453287e-001 4.778831e-002 6.579455e-002 1.092963e-001 1.719678e-001 1.606862e-001 2.085356e-001 1.840349e-001 -2.567222e-001
<VARIANCE> 25
 1.591183e+001 2.581981e+001 3.490183e+001 3.195687e+001 2.905460e+001 3.004690e+001 5.280361e+001 3.539769e+001 3.593473e+001 2.527863e+001 2.382725e+001 2.278722e+001 2.917965e+000 1.327024e+000 1.820468e+000 1.484052e+000 1.689277e+000 1.763164e+000 1.873704e+000 1.873952e+000 1.919711e+000 1.753540e+000 1.703961e+000 1.459414e+000 9.512058e-001
<GCONST> 9.316575e+001
<STATE> 4
<MEAN> 25
 -1.327492e+001 2.813416e+000 -4.278059e+000 1.355453e+000 4.546644e+000 -4.148491e+000 2.959171e+000 1.891158e+000 3.162316e+000 -5.798401e-001 6.438312e-001 2.808106e+000 3.810462e+000 -1.626752e-001 1.152688e+000 -2.468399e-001 -9.775680e-001 1.274565e-001 -1.448410e+000 -9.099686e-001 -3.745410e-001 -9.462553e-002 -7.128971e-001 -1.091575e+000 1.049708e-001
<VARIANCE> 25
 7.828991e+001 3.051141e+001 4.024451e+001 3.242753e+001 3.572717e+001 4.175720e+001 6.009933e+001 4.165727e+001 3.804753e+001 2.884713e+001 2.849718e+001 2.833920e+001 9.001982e+000 3.728704e+000 4.220891e+000 3.750635e+000 3.559111e+000 3.951060e+000 5.623987e+000 4.736919e+000 4.417642e+000 3.111386e+000 3.246239e+000 3.072487e+000 6.263869e+000
<GCONST> 1.086845e+002
<TRANSP> 5
 0.000000e+000 1.000000e+000 0.000000e+000 0.000000e+000 0.000000e+000
 0.000000e+000 7.084622e-001 2.915378e-001 0.000000e+000 0.000000e+000
 0.000000e+000 0.000000e+000 8.454726e-001 1.545273e-001 0.000000e+000
 0.000000e+000 0.000000e+000 0.000000e+000 7.403589e-001 2.596411e-001
 0.000000e+000 0.000000e+000 0.000000e+000 0.000000e+000 0.000000e+000
<ENDHMM>
~h "t"
<BEGINHMM>
<NUMSTATES> 5
<STATE> 2
<MEAN> 25
 -1.201537e+000 4.026490e+000 -1.667688e+000 2.154664e+000 1.953811e+000 -2.353807e+000 1.416512e+000 -8.419674e-001 2.536366e+000 7.663613e-002 -1.062433e+000 3.402324e-001 -6.904167e-001 2.013133e-001 -2.238609e-001 2.257534e-001 5.050045e-002 5.265178e-002 6.085033e-001 -2.621538e-002 2.953061e-002 -2.042288e-001 1.445255e-001 3.297210e-001 -1.619667e+000
<VARIANCE> 25
 2.795504e+001 2.565019e+001 3.024694e+001 2.895815e+001 2.979205e+001 3.432829e+001 4.088018e+001 3.822641e+001 3.850790e+001 3.069042e+001 2.895084e+001 2.617617e+001 1.632262e+000 2.263410e+000 1.767793e+000 2.208391e+000 2.479392e+000 2.376249e+000 2.837471e+000 2.642980e+000 2.564250e+000 2.361151e+000 2.117241e+000 1.919229e+000 5.554635e+000
<GCONST> 9.866164e+001
<STATE> 3
<MEAN> 25
 -4.098852e+000 4.109426e+000 -1.156050e+000 2.873897e+000 1.672468e+000 -2.677216e+000 2.983444e+000 -1.775936e+000 1.816340e+000 -5.833681e-001 -3.213934e-001 1.686761e+000 -1.934287e+000 -2.070737e+000 -7.695235e-001 -1.031924e+000 3.508359e-001 -4.066101e-001 7.704249e-002 4.902295e-001 -3.521330e-002 -1.863089e-001 5.265961e-001 5.822057e-001 4.300063e+000
<VARIANCE> 25
 2.936041e+001 2.704564e+001 3.000789e+001 2.471456e+001 2.807063e+001 3.092392e+001 3.509891e+001 3.577206e+001 3.436201e+001 2.652254e+001 2.628936e+001 2.266575e+001 3.249104e+000 3.352258e+000 3.953288e+000 3.644649e+000 3.760297e+000 3.892225e+000 4.187974e+000 4.072163e+000 4.507833e+000 3.035509e+000 3.384419e+000 2.672792e+000 9.113002e+000
<GCONST> 1.039434e+002
<STATE> 4
<MEAN> 25
 -7.245604e+000 -2.133945e+000 -3.728110e+000 -1.508152e+000 2.051323e+000 -4.455853e+000 1.366135e+000 -2.308038e-001 2.624287e+000 -2.000953e-001 2.297496e-001 1.993677e+000 1.661590e+000 -1.075973e+000 1.189827e-001 -1.585198e+000 -6.330318e-001 3.235757e-002 -2.222486e+000 -1.168849e-003 1.180432e-001 3.316279e-001 -1.469499e-001 -1.200722e+000 6.115345e+000
<VARIANCE> 25
 3.379983e+001 2.971631e+001 3.004764e+001 3.320330e+001 3.266747e+001 4.262177e+001 4.663184e+001 3.412645e+001 3.521888e+001 2.917434e+001 2.717475e+001 2.819806e+001 5.462037e+000 5.171772e+000 5.830001e+000 5.818599e+000 4.917722e+000 6.095603e+000 6.519248e+000 6.706879e+000 6.745984e+000 4.370961e+000 4.744111e+000 4.259151e+000 1.234805e+001
<GCONST> 1.108989e+002
<TRANSP> 5
 0.000000e+000 1.000000e+000 0.000000e+000 0.000000e+000 0.000000e+000
 0.000000e+000 8.258837e-001 1.741162e-001 0.000000e+000 0.000000e+000
 0.000000e+000 0.000000e+000 4.238274e-001 5.761726e-001 0.000000e+000
 0.000000e+000 0.000000e+000 0.000000e+000 4.928254e-001 5.071746e-001
 0.000000e+000 0.000000e+000 0.000000e+000 0.000000e+000 0.000000e+000
<ENDHMM>
~h "u"
<BEGINHMM>
<NUMSTATES> 5
<STATE> 2
<MEAN> 25
 5.860685e+000 4.081057e+000 -1.229777e+000 -3.419566e+000 -3.296656e+000 1.974938e+000 -7.239806e+000 -5.468568e+000 -3.609340e+000 -5.679738e-002 3.024915e+000 3.314567e-002 2.290098e+000 9.650944e-001 -1.593891e-002 -2.413671e+000 -1.872810e+000 2.143218e+000 -1.698261e+000 -9.997300e-001 -1.448517e+000 1.090112e-002 1.395424e+000 -1.281099e-001 1.345067e+000
<VARIANCE> 25
 2.743112e+001 3.786339e+001 4.373715e+001 7.164196e+001 5.033920e+001 5.060291e+001 8.135394e+001 6.711348e+001 5.232027e+001 4.704750e+001 3.770113e+001 3.236141e+001 4.857387e+000 3.646405e+000 4.979145e+000 6.164093e+000 6.218066e+000 5.434820e+000 7.205151e+000 8.526988e+000 6.479409e+000 5.995709e+000 4.446013e+000 4.052436e+000 4.547935e+000
<GCONST> 1.143079e+002
<STATE> 3
<MEAN> 25
 9.399981e+000 6.375078e+000 -2.106071e+000 -1.086736e+001 -7.101907e+000 8.703118e+000 -8.360878e+000 -4.905136e+000 -6.213704e+000 -2.062460e+000 5.932106e+000 5.281539e-001 2.020921e-001 1.792953e-001 -1.033214e-001 -7.504609e-001 -2.066675e-001 6.784530e-001 5.222647e-002 5.348565e-002 -2.716397e-001 -1.346563e-001 3.099732e-001 2.074722e-001 5.291067e-004
<VARIANCE> 25
 1.141616e+001 3.525155e+001 2.701625e+001 6.266074e+001 4.314455e+001 4.031356e+001 6.050781e+001 7.971969e+001 5.742459e+001 5.661254e+001 4.245861e+001 4.069208e+001 5.022844e-001 1.951457e+000 1.166591e+000 2.830428e+000 2.342642e+000 2.463087e+000 3.081355e+000 3.528575e+000 3.025388e+000 3.233540e+000 2.719963e+000 2.301887e+000 1.265044e+000
<GCONST> 1.005260e+002
<STATE> 4
<MEAN> 25
 8.074186e+000 5.592003e+000 -1.656994e+000 -7.006422e+000 -4.051590e+000 5.946018e+000 -6.039445e+000 -5.595429e+000 -4.688384e+000 1.673056e-001 4.319470e+000 3.765523e-001 -5.093480e-001 -3.898797e-001 4.818187e-001 1.828079e+000 9.342948e-001 -1.279919e+000 7.136968e-001 -4.724828e-002 1.033556e+000 5.143351e-001 -9.164401e-001 -2.967652e-001 -1.254054e+000
<VARIANCE> 25
 1.639552e+001 4.288763e+001 3.625432e+001 7.084042e+001 5.238114e+001 4.989456e+001 9.281519e+001 7.756554e+001 5.848854e+001 5.853231e+001 4.937404e+001 4.324381e+001 1.316591e+000 3.073762e+000 2.589652e+000 4.287333e+000 4.287484e+000 4.069967e+000 5.662093e+000 5.359808e+000 4.789565e+000 4.868953e+000 4.118390e+000 3.715503e+000 4.570217e+000
<GCONST> 1.103824e+002
<TRANSP> 5
 0.000000e+000 1.000000e+000 0.000000e+000 0.000000e+000 0.000000e+000
 0.000000e+000 5.296504e-001 4.703495e-001 0.000000e+000 0.000000e+000
 0.000000e+000 0.000000e+000 7.410849e-001 2.589150e-001 0.000000e+000
 0.000000e+000 0.000000e+000 0.000000e+000 7.119191e-001 2.880809e-001
 0.000000e+000 0.000000e+000 0.000000e+000 0.000000e+000 0.000000e+000
<ENDHMM>
~h "w"
<BEGINHMM>
<NUMSTATES> 5
<STATE> 2
<MEAN> 25
 8.164759e+000 6.314657e-001 -2.547555e+000 -7.762261e+000 -3.136478e+000 5.761580e+000 -3.554172e+000 -2.272305e+000 -2.364004e+000 1.174619e+000 3.764845e+000 -1.128428e+000 1.382462e+000 1.160217e+000 -5.751340e-002 -1.772468e+000 -1.168143e+000 1.156311e+000 -5.362717e-002 -3.884047e-001 -1.206689e+000 -6.603557e-001 8.301168e-001 7.788315e-001 -6.932916e-003
<VARIANCE> 25
 2.829740e+001 6.624499e+001 3.955389e+001 8.416946e+001 4.781099e+001 6.815283e+001 6.806390e+001 5.999874e+001 6.400803e+001 5.440072e+001 5.584145e+001 4.420313e+001 2.726114e+000 2.949650e+000 2.869130e+000 4.683135e+000 4.978537e+000 5.118363e+000 4.490880e+000 5.005409e+000 4.655394e+000 4.172549e+000 4.229169e+000 3.694099e+000 4.652142e+000
<GCONST> 1.122497e+002
<STATE> 3
<MEAN> 25
 1.166925e+001 4.340893e+000 -2.309006e+000 -1.566073e+001 -8.613917e+000 1.033322e+001 -4.374309e+000 -1.081238e+000 -2.637670e+000 -3.122866e+000 4.686419e+000 1.530041e+000 -4.977026e-002 -5.164874e-001 -2.466784e-001 -6.871605e-001 -8.857608e-002 6.446182e-001 -7.174484e-002 -6.111579e-002 2.234130e-001 1.774119e-001 4.238148e-001 1.427137e-001 6.157521e-001
<VARIANCE> 25
 9.974373e+000 3.363988e+001 1.845822e+001 4.804554e+001 4.554485e+001 4.533342e+001 3.917419e+001 4.727966e+001 6.170401e+001 3.822308e+001 3.128571e+001 2.979665e+001 4.467693e-001 2.845334e+000 1.341335e+000 2.778917e+000 2.370454e+000 2.971724e+000 2.171024e+000 2.199178e+000 2.114170e+000 2.991385e+000 2.462256e+000 1.975468e+000 1.998285e+000
<GCONST> 9.750027e+001
<STATE> 4
<MEAN> 25
 8.956496e+000 -4.317937e+000 -6.007346e+000 -1.614144e+001 -3.174894e+000 1.369248e+001 -3.553776e+000 -2.504767e+000 2.744125e-001 2.956646e+000 6.696731e+000 -2.707356e+000 -8.677292e-001 -1.951265e+000 -5.107285e-001 1.146661e+000 1.625121e+000 -4.397466e-001 -2.880424e-001 2.983014e-001 1.470104e+000 1.040507e+000 -1.077395e+000 -2.168321e+000 1.277647e+000
<VARIANCE> 25
 1.087562e+001 3.221820e+001 2.669470e+001 4.835838e+001 3.554280e+001 4.494801e+001 5.021657e+001 4.722075e+001 5.211710e+001 4.530836e+001 3.776494e+001 4.273052e+001 3.182991e-001 1.414923e+000 1.249491e+000 2.328101e+000 2.175739e+000 2.966003e+000 2.075165e+000 2.236393e+000 2.586305e+000 2.451437e+000 2.768431e+000 2.397810e+000 6.610808e-001
<GCONST> 9.626524e+001
<TRANSP> 5
 0.000000e+000 1.000000e+000 0.000000e+000 0.000000e+000 0.000000e+000
 0.000000e+000 6.948994e-001 3.051006e-001 0.000000e+000 0.000000e+000
 0.000000e+000 0.000000e+000 7.695417e-001 2.304583e-001 0.000000e+000
 0.000000e+000 0.000000e+000 0.000000e+000 6.693044e-001 3.306955e-001
 0.000000e+000 0.000000e+000 0.000000e+000 0.000000e+000 0.000000e+000
<ENDHMM>
~h "y"
<BEGINHMM>
<NUMSTATES> 5
<STATE> 2
<MEAN> 25
 3.800576e-001 -4.713550e-001 9.730908e+000 -1.321985e+000 -7.165627e+000 -4.544862e+000 -3.408331e+000 3.306821e+000 -3.226218e+000 -2.218299e+000 2.624477e+000 1.721488e+000 -8.054888e-002 8.537298e-001 2.379981e+000 -2.883583e-002 -1.154628e+000 -2.638646e-001 -1.130177e+000 -5.991191e-001 -1.401468e+000 -3.351018e-001 1.173055e+000 6.619135e-001 4.769664e-001
<VARIANCE> 25
 2.747532e+001 5.829195e+001 7.288599e+001 3.958361e+001 6.410544e+001 5.346220e+001 5.663076e+001 7.123640e+001 6.574457e+001 4.687478e+001 3.809591e+001 3.274969e+001 2.114033e+000 2.818897e+000 4.296476e+000 2.875376e+000 4.008914e+000 3.562838e+000 3.973331e+000 4.546097e+000 4.299647e+000 4.030144e+000 3.102196e+000 2.697790e+000 4.436023e+000
<GCONST> 1.092158e+002
<STATE> 3
<MEAN> 25
 9.064945e-001 9.781808e-002 1.705145e+001 -1.049339e+000 -1.293351e+001 -4.764451e+000 -8.265936e+000 9.547261e-001 -7.170945e+000 -3.115784e+000 6.650123e+000 3.611204e+000 2.733953e-001 -1.070274e+000 -1.105038e+000 -3.879943e-001 -6.358263e-001 -5.762633e-001 2.276176e-001 1.120063e+000 1.071503e+000 6.107390e-001 1.177886e-001 5.831766e-002 9.885117e-001
<VARIANCE> 25
 1.070742e+001 2.682031e+001 4.090119e+001 3.784455e+001 2.771462e+001 4.024590e+001 3.208567e+001 5.188668e+001 5.952909e+001 5.986158e+001 2.911970e+001 3.246490e+001 5.673448e-001 2.023889e+000 3.129890e+000 1.439937e+000 2.122782e+000 1.782358e+000 2.131891e+000 3.683859e+000 3.443660e+000 2.169531e+000 1.554602e+000 1.497932e+000 1.571260e+000
<GCONST> 9.675987e+001
<STATE> 4
<MEAN> 25
 2.718568e+000 -7.641144e+000 6.241573e+000 -5.091796e+000 -1.128668e+001 -6.646172e+000 -2.817021e+000 1.183004e+001 1.077259e+000 -1.384703e+000 1.787479e+000 2.934147e-001 3.864717e-001 -1.417979e+000 -2.506607e+000 -3.194798e-001 1.729220e+000 1.041920e+000 9.188038e-001 1.292092e+000 1.501188e+000 -6.148525e-001 -2.120486e+000 -1.436717e+000 5.922654e-001
<VARIANCE> 25
 8.797956e+000 2.033221e+001 3.050162e+001 2.374231e+001 2.812675e+001 2.866632e+001 4.861806e+001 5.208803e+001 5.202677e+001 3.423493e+001 4.104881e+001 2.706089e+001 2.904857e-001 1.060898e+000 1.859276e+000 1.057120e+000 2.028669e+000 1.672064e+000 2.374196e+000 3.678261e+000 2.277967e+000 2.860023e+000 2.270909e+000 2.146533e+000 3.990219e-001
<GCONST> 9.217252e+001
<TRANSP> 5
 0.000000e+000 1.000000e+000 0.000000e+000 0.000000e+000 0.000000e+000
 0.000000e+000 7.766759e-001 2.233240e-001 0.000000e+000 0.000000e+000
 0.000000e+000 0.000000e+000 7.510493e-001 2.489507e-001 0.000000e+000
 0.000000e+000 0.000000e+000 0.000000e+000 7.061991e-001 2.938009e-001
 0.000000e+000 0.000000e+000 0.000000e+000 0.000000e+000 0.000000e+000
<ENDHMM>
~h "z"
<BEGINHMM>
<NUMSTATES> 5
<STATE> 2
<MEAN> 25
 -9.859037e-001 8.444518e+000 2.393155e+000 5.013178e+000 1.850297e+000 -6.678636e+000 -2.399899e+000 -1.341509e+000 1.001512e+000 -1.051961e+000 -1.832189e+000 1.877813e+000 -2.192086e+000 2.547680e+000 -7.372491e-001 1.170125e+000 1.578830e+000 -4.366593e-001 1.361527e+000 -1.662853e-001 7.264050e-001 -4.167616e-001 1.274948e-001 6.611456e-001 -8.773791e-001
<VARIANCE> 25
 3.634762e+001 4.618124e+001 4.560884e+001 3.377441e+001 4.447639e+001 3.945157e+001 7.585478e+001 5.246515e+001 4.464211e+001 4.528061e+001 3.353007e+001 3.214664e+001 3.210447e+000 4.070689e+000 2.986069e+000 2.977509e+000 3.244644e+000 4.309651e+000 4.455644e+000 6.748026e+000 4.553352e+000 4.130534e+000 3.224975e+000 3.140088e+000 3.094267e+000
<GCONST> 1.082413e+002
<STATE> 3
<MEAN> 25
 -1.168364e+001 1.434607e+001 7.705689e-001 8.208000e+000 6.917248e+000 -6.114471e+000 1.590560e+000 -5.522677e-001 1.012306e+000 -3.542867e-001 -2.536814e-001 3.836029e+000 -1.148054e+000 -2.377203e-001 -3.444196e-002 1.246482e-001 3.624448e-001 1.951679e-001 4.135996e-001 1.209211e-001 -1.193856e-001 2.263507e-002 2.850912e-001 2.486529e-001 4.171047e-002
<VARIANCE> 25
 3.841578e+001 2.782278e+001 3.097686e+001 3.001843e+001 2.598351e+001 3.218029e+001 6.317107e+001 3.198489e+001 3.607834e+001 3.265149e+001 2.098375e+001 2.660397e+001 2.228113e+000 1.752572e+000 1.356079e+000 1.151301e+000 1.938759e+000 1.830289e+000 1.758097e+000 1.935576e+000 1.803300e+000 1.488080e+000 1.480150e+000 1.375921e+000 1.313073e+000
<GCONST> 9.376224e+001
<STATE> 4
<MEAN> 25
 -1.063030e+001 4.914895e+000 -9.295484e-002 2.926244e+000 4.126270e+000 -2.004047e+000 2.023132e+000 1.537426e+000 1.261483e+000 -5.222345e-001 9.693558e-001 4.241432e+000 9.593025e-001 -6.335193e-001 3.680480e-001 -3.507615e-001 -8.139204e-001 -3.078643e-001 -7.100316e-001 -2.592500e-001 4.541577e-002 1.048030e-001 -8.110831e-003 -1.032471e-001 7.911085e-001
<VARIANCE> 25
 6.796088e+001 4.963634e+001 5.392501e+001 3.007172e+001 4.101700e+001 4.706720e+001 4.536038e+001 3.479547e+001 3.298033e+001 2.133715e+001 2.176257e+001 2.091153e+001 5.500340e+000 3.441942e+000 2.696276e+000 2.437578e+000 3.819021e+000 2.676177e+000 3.293988e+000 3.341175e+000 2.555357e+000 1.992492e+000 1.905594e+000 1.883455e+000 3.041247e+000
<GCONST> 1.026326e+002
<TRANSP> 5
 0.000000e+000 1.000000e+000 0.000000e+000 0.000000e+000 0.000000e+000
 0.000000e+000 7.239973e-001 2.760027e-001 0.000000e+000 0.000000e+000
 0.000000e+000 0.000000e+000 7.908524e-001 2.091476e-001 0.000000e+000
 0.000000e+000 0.000000e+000 0.000000e+000 8.600804e-001 1.399195e-001
 0.000000e+000 0.000000e+000 0.000000e+000 0.000000e+000 0.000000e+000
<ENDHMM>
~h "ai"
<BEGINHMM>
<NUMSTATES> 5
<STATE> 2
<MEAN> 25
 5.015263e+000 -1.202379e+001 -3.185792e+000 -5.828342e+000 -1.940283e+000 1.770790e+000 -4.027852e+000 8.305671e+000 4.236298e+000 -1.141534e+000 -3.977232e+000 -6.104853e+000 -2.772431e-001 -7.542719e-001 8.672118e-001 1.406090e-001 -8.364977e-001 -1.063715e+000 7.422455e-001 1.951828e+000 -2.038248e-001 -9.536024e-001 -4.774141e-001 4.672964e-001 5.453798e-001
<VARIANCE> 25
 9.144250e+000 2.042708e+001 4.271856e+001 2.465121e+001 5.008327e+001 7.295087e+001 3.815038e+001 5.430146e+001 4.634137e+001 4.314676e+001 4.722627e+001 3.011655e+001 5.997583e-001 1.671190e+000 1.678208e+000 2.066634e+000 2.907306e+000 3.938662e+000 2.711765e+000 3.647334e+000 2.437633e+000 2.259123e+000 2.973732e+000 2.450151e+000 7.388333e-001
<GCONST> 9.820152e+001
<STATE> 3
<MEAN> 25
 3.350473e+000 -8.973983e+000 7.118926e+000 -5.207330e+000 -1.152800e+001 -7.390700e+000 -1.104386e+000 1.280386e+001 -1.925622e+000 -2.236788e-001 2.055224e+000 -7.853000e-001 -2.694184e-001 9.180390e-001 1.625352e+000 -2.982530e-002 -1.231292e+000 -5.239457e-001 -1.708803e-001 -8.975909e-001 -1.191497e+000 7.087725e-001 1.361892e+000 5.663541e-001 -4.544071e-001
<VARIANCE> 25
 7.222490e+000 1.617001e+001 3.565121e+001 1.912001e+001 2.885054e+001 3.529276e+001 3.554041e+001 4.302455e+001 4.622828e+001 3.410220e+001 4.655759e+001 2.479118e+001 2.204698e-001 8.836369e-001 1.335029e+000 8.566512e-001 1.592227e+000 1.624099e+000 1.938039e+000 2.511475e+000 1.966163e+000 1.784659e+000 2.026064e+000 1.374239e+000 2.170147e-001
<GCONST> 8.768687e+001
<STATE> 4
<MEAN> 25
 1.810541e+000 -6.588432e-001 1.313332e+001 -2.774020e+000 -1.245148e+001 -7.127058e+000 -2.942739e+000 2.506700e+000 -6.191478e+000 1.836054e+000 4.910292e+000 6.269221e-001 9.020943e-003 9.836568e-001 -3.802482e-001 7.346368e-001 1.005375e+000 1.899867e-001 2.211535e-001 -9.128569e-001 1.508808e-001 -2.640808e-001 -4.624237e-001 4.060765e-002 -1.679016e+000
<VARIANCE> 25
 1.286168e+001 3.370792e+001 4.178255e+001 3.654538e+001 3.794155e+001 4.703154e+001 4.301276e+001 6.380514e+001 4.974226e+001 4.524118e+001 3.913498e+001 3.049571e+001 1.052502e+000 1.817225e+000 2.746473e+000 2.171086e+000 2.917308e+000 2.430241e+000 3.046859e+000 3.437014e+000 3.608457e+000 2.571475e+000 2.128126e+000 1.766937e+000 2.585378e+000
<GCONST> 1.008011e+002
<TRANSP> 5
 0.000000e+000 1.000000e+000 0.000000e+000 0.000000e+000 0.000000e+000
 0.000000e+000 7.489635e-001 2.510365e-001 0.000000e+000 0.000000e+000
 0.000000e+000 0.000000e+000 8.150448e-001 1.849552e-001 0.000000e+000
 0.000000e+000 0.000000e+000 0.000000e+000 8.440310e-001 1.559690e-001
 0.000000e+000 0.000000e+000 0.000000e+000 0.000000e+000 0.000000e+000
<ENDHMM>
~h "au"
<BEGINHMM>
<NUMSTATES> 5
<STATE> 2
<MEAN> 25
 6.749474e+000 -5.114152e+000 -7.876468e+000 -9.625310e+000 -5.925270e-001 1.171977e+001 -4.823187e+000 -2.847779e+000 7.456463e+000 1.141668e+000 6.037611e-001 -7.363824e+000 1.388360e-001 1.812670e-001 -3.592621e-001 -6.193506e-001 8.050922e-003 1.019302e+000 -3.421371e-002 -3.712597e-001 -6.360207e-002 -1.751066e-001 7.441089e-001 -1.121403e-002 9.136882e-003
<VARIANCE> 25
 8.703692e+000 2.377344e+001 1.925353e+001 2.549145e+001 2.806368e+001 3.575385e+001 3.292261e+001 3.938998e+001 2.516289e+001 2.936827e+001 3.079162e+001 1.955055e+001 5.023745e-001 8.921146e-001 9.069890e-001 1.325907e+000 1.515627e+000 2.216533e+000 1.595267e+000 1.976839e+000 1.705073e+000 1.865976e+000 2.579986e+000 1.429161e+000 4.568480e-001
<GCONST> 8.798070e+001
<STATE> 3
<MEAN> 25
 8.401080e+000 -4.941843e-001 -7.301700e+000 -1.760981e+001 -4.083368e+000 1.549528e+001 -4.631462e+000 -2.810445e+000 2.633008e+000 -8.765113e-001 6.333213e+000 -1.877122e+000 3.432695e-001 1.015939e+000 3.119174e-001 -4.136885e-001 -6.211343e-001 -1.450880e-001 -1.439828e-001 1.378366e-001 -8.361672e-001 -3.562095e-001 4.241241e-001 9.073688e-001 -6.766099e-001
<VARIANCE> 25
 8.915996e+000 2.409545e+001 1.682910e+001 3.049907e+001 3.242837e+001 2.426158e+001 4.384296e+001 3.426296e+001 3.188847e+001 3.770012e+001 2.467651e+001 3.665589e+001 2.090271e-001 9.933727e-001 4.754507e-001 1.196136e+000 1.100030e+000 1.222676e+000 1.228935e+000 1.185759e+000 1.452795e+000 1.872721e+000 1.533812e+000 1.737638e+000 3.011768e-001
<GCONST> 8.475722e+001
<STATE> 4
<MEAN> 25
 7.159991e+000 5.339198e+000 -3.542653e+000 -1.003064e+001 -3.992578e+000 6.910602e+000 -3.787499e+000 -1.546877e+000 -2.574578e+000 -8.181064e-001 4.007434e+000 4.344501e-001 -2.957700e-001 1.757145e-001 4.013216e-001 1.574011e+000 4.544415e-001 -1.001883e+000 1.652662e-001 -1.234088e-001 -1.498116e-001 1.526116e-001 -5.180480e-001 -1.359773e-002 -1.221454e+000
<VARIANCE> 25
 3.630475e+001 3.409378e+001 3.367003e+001 1.043756e+002 5.443657e+001 5.349456e+001 7.485804e+001 5.868987e+001 5.185449e+001 6.007772e+001 4.059090e+001 3.861211e+001 9.398549e-001 2.107823e+000 1.775836e+000 3.760995e+000 2.853687e+000 3.245327e+000 3.805816e+000 3.317876e+000 3.469753e+000 3.392997e+000 2.860709e+000 2.730730e+000 1.862476e+000
<GCONST> 1.054859e+002
<TRANSP> 5
 0.000000e+000 1.000000e+000 0.000000e+000 0.000000e+000 0.000000e+000
 0.000000e+000 8.381081e-001 1.618920e-001 0.000000e+000 0.000000e+000
 0.000000e+000 0.000000e+000 8.466336e-001 1.533664e-001 0.000000e+000
 0.000000e+000 0.000000e+000 0.000000e+000 8.652982e-001 1.347018e-001
 0.000000e+000 0.000000e+000 0.000000e+000 0.000000e+000 0.000000e+000
<ENDHMM>
~h "kh"
<BEGINHMM>
<NUMSTATES> 5
<STATE> 2
<MEAN> 25
 -2.287144e+000 5.130996e-001 -3.741157e+000 -3.077826e-002 4.711524e+000 1.170179e+000 3.488131e+000 4.529352e-001 8.446161e-001 7.266276e-001 -5.587391e-001 1.423696e+000 -1.425971e+000 -4.581489e-001 -1.212221e+000 -6.119460e-002 1.124514e+000 -3.139527e-001 2.618998e-001 3.014073e-001 2.073657e-001 1.435188e-001 1.168671e-001 4.720786e-001 6.017924e-002
<VARIANCE> 25
 5.130701e+001 4.370081e+001 6.024003e+001 6.119751e+001 6.700162e+001 7.570412e+001 5.122339e+001 4.531724e+001 6.475258e+001 5.022503e+001 4.654712e+001 3.307942e+001 4.635309e+000 5.432153e+000 6.273845e+000 5.180960e+000 6.665886e+000 5.284252e+000 5.741770e+000 4.485177e+000 4.866999e+000 3.851148e+000 3.796320e+000 2.943519e+000 8.180190e+000
<GCONST> 1.145464e+002
<STATE> 3
<MEAN> 25
 -8.579919e+000 -5.200963e+000 -1.100120e+001 -2.752813e+000 1.042730e+001 5.198306e-001 1.521522e+000 2.368135e+000 3.228511e+000 2.279545e+000 1.124910e+000 2.440050e+000 -1.918211e-001 -2.175455e-001 -2.008547e-001 -1.782833e-001 -1.961602e-001 2.260262e-001 2.567542e-001 -4.834940e-002 -5.451615e-002 -5.053575e-002 2.295036e-001 2.760544e-002 8.961158e-002
<VARIANCE> 25
 2.638194e+001 3.607968e+001 4.459324e+001 5.275750e+001 5.362288e+001 6.135754e+001 5.871524e+001 4.415945e+001 5.082839e+001 4.184894e+001 3.301231e+001 4.040344e+001 1.724213e+000 2.084951e+000 2.678854e+000 2.592788e+000 3.210915e+000 3.206676e+000 3.143962e+000 2.908231e+000 2.744061e+000 2.831544e+000 2.350148e+000 2.363179e+000 1.644350e+000
<GCONST> 1.034107e+002
<STATE> 4
<MEAN> 25
 -4.847452e+000 5.431766e-001 -4.364196e+000 2.192260e+000 3.278630e+000 1.620182e+000 4.555912e+000 8.066678e-001 7.142345e-001 -1.000801e+000 1.394126e+000 2.005379e+000 3.763796e-001 2.406504e-001 2.758902e-001 -4.355168e-002 -2.381798e-001 6.405218e-002 -3.009426e-002 -1.665063e-001 -1.098958e-001 -8.081755e-002 -6.662564e-002 -1.721283e-001 1.069326e-001
<VARIANCE> 25
 2.585371e+001 3.896183e+001 4.078543e+001 3.134978e+001 3.295341e+001 3.269483e+001 3.208175e+001 3.086534e+001 3.214092e+001 2.785153e+001 2.023591e+001 2.241619e+001 2.117104e+000 1.579083e+000 1.955730e+000 1.842719e+000 1.698653e+000 2.002554e+000 2.141168e+000 2.353308e+000 2.160975e+000 1.904681e+000 1.823492e+000 1.818534e+000 1.740987e+000
<GCONST> 9.530843e+001
<TRANSP> 5
 0.000000e+000 1.000000e+000 0.000000e+000 0.000000e+000 0.000000e+000
 0.000000e+000 7.702010e-001 2.297990e-001 0.000000e+000 0.000000e+000
 0.000000e+000 0.000000e+000 8.162168e-001 1.837832e-001 0.000000e+000
 0.000000e+000 0.000000e+000 0.000000e+000 8.753223e-001 1.246777e-001
 0.000000e+000 0.000000e+000 0.000000e+000 0.000000e+000 0.000000e+000
<ENDHMM>
~h "ng"
<BEGINHMM>
<NUMSTATES> 5
<STATE> 2
<MEAN> 25
 7.581944e+000 -2.143421e+000 7.703499e-001 -2.354535e+000 -3.046224e+000 3.397669e+000 -4.108574e-001 -1.420116e+000 -5.218246e+000 3.978584e+000 -2.914188e+000 -5.948202e+000 4.909848e-001 1.299319e+000 1.590042e+000 1.152986e+000 -1.564276e+000 -1.752886e-001 1.661847e+000 -2.681453e+000 -9.231390e-001 7.775975e-001 -1.220143e+000 1.805630e+000 -1.447194e+000
<VARIANCE> 25
 8.824538e+000 3.138518e+001 3.297483e+001 3.714127e+001 5.117308e+001 5.167238e+001 5.316160e+001 6.235071e+001 4.765392e+001 4.650347e+001 4.486286e+001 5.268792e+001 5.800511e-001 1.700369e+000 2.585280e+000 2.704561e+000 3.451064e+000 3.318301e+000 4.655754e+000 4.268359e+000 6.040993e+000 3.532992e+000 4.759217e+000 4.401785e+000 6.798356e-001
<GCONST> 1.032144e+002
<STATE> 3
<MEAN> 25
 8.317801e+000 3.685937e-001 5.996634e+000 -1.221069e+000 -6.974262e+000 3.975791e+000 4.729803e-001 -6.585102e+000 -5.639182e+000 3.569112e+000 -4.160422e+000 -9.940202e-001 4.980627e-002 4.413037e-001 4.761189e-001 3.622549e-001 -1.672917e-001 -1.399703e-001 2.238533e-001 -5.085313e-001 -1.729320e-001 4.648645e-002 -8.863734e-002 4.173984e-001 -5.087053e-001
<VARIANCE> 25
 7.882970e+000 1.967543e+001 2.525184e+001 4.363832e+001 3.548729e+001 4.072079e+001 5.066816e+001 4.365968e+001 4.055141e+001 3.484842e+001 3.972185e+001 3.522180e+001 2.658339e-001 8.328346e-001 1.181741e+000 1.248960e+000 1.503193e+000 1.366827e+000 1.741544e+000 1.702052e+000 1.665906e+000 1.548606e+000 1.553895e+000 1.512735e+000 4.623488e-001
<GCONST> 8.918979e+001
<STATE> 4
<MEAN> 25
 4.813404e+000 3.064424e+000 3.298761e+000 1.735222e+000 -2.035082e+000 2.164036e+000 4.023042e+000 -5.475586e+000 -5.007354e+000 1.963878e+000 -4.174421e+000 2.432218e-001 -6.564013e-001 3.206658e-001 -6.459035e-001 3.572737e-001 9.922066e-001 -3.502456e-001 5.674631e-002 5.678409e-001 2.683545e-001 -3.690128e-001 2.358107e-001 -3.266048e-001 -8.903167e-001
<VARIANCE> 25
 3.206171e+001 2.532387e+001 3.820856e+001 4.319543e+001 6.683657e+001 3.692283e+001 5.283891e+001 5.716527e+001 5.208556e+001 4.560645e+001 4.606901e+001 3.692718e+001 1.126941e+000 2.052660e+000 2.191446e+000 2.821434e+000 3.590468e+000 3.072696e+000 3.268927e+000 3.865697e+000 3.424759e+000 2.946603e+000 2.850731e+000 2.926008e+000 3.244793e+000
<GCONST> 1.042993e+002
<TRANSP> 5
 0.000000e+000 1.000000e+000 0.000000e+000 0.000000e+000 0.000000e+000
 0.000000e+000 5.711597e-001 4.288403e-001 0.000000e+000 0.000000e+000
 0.000000e+000 0.000000e+000 7.517744e-001 2.482256e-001 0.000000e+000
 0.000000e+000 0.000000e+000 0.000000e+000 7.211980e-001 2.788020e-001
 0.000000e+000 0.000000e+000 0.000000e+000 0.000000e+000 0.000000e+000
<ENDHMM>
~h "ny"
<BEGINHMM>
<NUMSTATES> 5
<STATE> 2
<MEAN> 25
 5.601563e+000 4.156206e+000 8.111728e+000 1.402813e+000 -5.886986e+000 -3.282773e+000 -2.157583e+000 -2.314631e+000 -7.307443e+000 -2.404277e+000 2.417884e+000 1.304967e+000 -2.519357e-001 -2.200410e-001 5.409784e-001 -7.077755e-001 -5.255942e-001 2.301259e-001 4.660521e-002 5.563850e-001 -1.964483e-001 -2.549398e-001 3.577600e-001 2.290275e-002 5.635296e-001
<VARIANCE> 25
 1.691175e+001 2.675909e+001 3.255499e+001 5.918606e+001 3.690467e+001 3.774319e+001 4.306011e+001 6.963315e+001 4.841454e+001 5.024893e+001 4.919664e+001 5.087229e+001 2.284147e+000 5.141571e+000 3.254730e+000 5.836522e+000 3.908413e+000 3.545196e+000 4.325966e+000 1.132723e+001 5.255483e+000 4.494530e+000 4.260980e+000 3.161922e+000 3.720609e+000
<GCONST> 1.094972e+002
<STATE> 3
<MEAN> 25
 2.873634e+000 -7.012909e+000 7.742836e+000 -4.845058e+000 -9.143298e+000 -1.621275e+000 -1.136323e+000 1.127773e+001 -2.910900e+000 -6.222706e+000 -8.968551e-001 -4.674017e-001 2.339757e-001 -1.897742e+000 -1.692258e+000 3.424291e-001 9.558142e-001 3.161874e-001 -2.638485e-002 1.409724e+000 1.426667e+000 -6.965944e-001 -1.569770e+000 -4.429188e-001 6.928713e-001
<VARIANCE> 25
 8.150516e+000 2.236916e+001 3.345525e+001 2.652070e+001 4.031186e+001 2.682635e+001 2.814410e+001 3.962993e+001 5.203340e+001 3.699061e+001 3.706367e+001 2.467471e+001 2.995249e-001 1.413928e+000 1.207508e+000 1.161095e+000 2.365020e+000 1.428930e+000 1.860011e+000 3.305674e+000 1.828451e+000 2.430488e+000 1.679886e+000 1.948630e+000 5.699351e-001
<GCONST> 9.095261e+001
<STATE> 4
<MEAN> 25
 7.755936e-001 -4.640106e+000 -1.519945e+000 1.802485e+000 3.021133e+000 1.112210e+000 1.097506e+000 6.833544e+000 5.477738e-002 -4.534036e+000 -3.741026e+000 6.360905e-001 -8.777349e-002 7.062995e-002 -5.269182e-001 2.177435e-001 5.859753e-001 1.930271e-001 6.617696e-003 -3.885908e-001 2.047437e-001 1.573825e-001 -1.006367e-001 -7.890998e-002 -7.678548e-001
<VARIANCE> 25
 1.987009e+001 4.215070e+001 2.707814e+001 3.389997e+001 5.295621e+001 2.494401e+001 3.687684e+001 6.110609e+001 4.385019e+001 4.372535e+001 3.280458e+001 3.126630e+001 5.138905e-001 1.200018e+000 1.384517e+000 1.523429e+000 2.042284e+000 1.457485e+000 1.888962e+000 1.905786e+000 1.936429e+000 1.905463e+000 1.727525e+000 1.678898e+000 1.276284e+000
<GCONST> 9.414659e+001
<TRANSP> 5
 0.000000e+000 1.000000e+000 0.000000e+000 0.000000e+000 0.000000e+000
 0.000000e+000 8.729666e-001 1.270334e-001 0.000000e+000 0.000000e+000
 0.000000e+000 0.000000e+000 7.474230e-001 2.525770e-001 0.000000e+000
 0.000000e+000 0.000000e+000 0.000000e+000 8.219211e-001 1.780789e-001
 0.000000e+000 0.000000e+000 0.000000e+000 0.000000e+000 0.000000e+000
<ENDHMM>
~h "oi"
<BEGINHMM>
<NUMSTATES> 5
<STATE> 2
<MEAN> 25
 8.897875e+000 -3.012339e+000 -7.757516e+000 -1.466071e+001 -6.998838e+000 1.304414e+001 -4.198123e+000 -4.285137e+000 3.538034e+000 6.307697e-001 4.493552e+000 -4.478042e-002 -1.085372e-001 -5.856716e-001 1.868443e-001 -5.079777e-001 -8.981731e-002 -9.046220e-002 -7.536565e-001 1.827027e-001 2.558220e-001 9.766713e-001 -2.757949e-002 -9.629750e-001 8.701667e-001
<VARIANCE> 25
 1.185071e+001 3.583924e+001 3.096685e+001 5.844844e+001 4.034410e+001 4.917511e+001 6.013585e+001 3.653249e+001 4.311629e+001 4.677718e+001 4.343318e+001 5.579595e+001 1.286765e+000 1.277016e+000 1.396777e+000 7.165693e+000 4.179754e+000 6.660390e+000 3.354977e+000 2.553013e+000 3.255564e+000 4.009641e+000 3.395535e+000 3.079870e+000 1.200356e+000
<GCONST> 1.035626e+002
<STATE> 3
<MEAN> 25
 3.967065e+000 -6.828679e+000 3.462869e+000 -4.870890e+000 -9.003690e+000 -7.684500e+000 -9.036376e+000 5.898239e+000 1.777592e-001 5.259781e+000 1.404156e+000 -3.724692e+000 -7.476653e-001 3.918352e-001 2.799489e+000 1.455212e+000 -1.794704e+000 -2.522252e+000 4.447754e-001 7.666541e-001 -2.016683e+000 -9.714354e-001 4.938664e-001 1.169575e+000 -3.716988e-001
<VARIANCE> 25
 7.648990e+000 2.462187e+001 7.521364e+001 3.244887e+001 4.900135e+001 6.367228e+001 2.881907e+001 6.392069e+001 5.914956e+001 4.186903e+001 4.856161e+001 4.266646e+001 4.021257e-001 9.460102e-001 1.499810e+000 2.324225e+000 2.458658e+000 5.386439e+000 2.288941e+000 6.011513e+000 4.095156e+000 2.463227e+000 4.175540e+000 3.040770e+000 2.674516e-001
<GCONST> 9.902158e+001
<STATE> 4
<MEAN> 25
 -9.636984e-001 1.243990e+000 1.018058e+001 1.490323e+000 -8.181140e+000 -6.758183e+000 -1.824816e+000 -1.307952e+000 -6.510568e+000 1.156249e-001 1.996347e+000 9.618656e-001 -7.475928e-002 4.254845e-001 -4.025038e-001 2.815882e-001 7.320672e-001 3.152196e-001 2.653680e-001 -3.941381e-001 2.437621e-001 -2.167828e-001 -3.929847e-001 2.389344e-002 -1.136195e+000
<VARIANCE> 25
 2.113220e+001 3.353253e+001 7.590163e+001 3.108054e+001 6.944669e+001 7.335352e+001 5.444136e+001 7.797719e+001 6.053081e+001 3.640864e+001 3.993873e+001 3.522632e+001 9.086843e-001 1.667627e+000 3.059170e+000 1.833846e+000 2.402971e+000 2.356303e+000 2.565760e+000 3.491453e+000 3.213846e+000 2.223096e+000 2.106116e+000 2.187608e+000 1.417776e+000
<GCONST> 1.020224e+002
<TRANSP> 5
 0.000000e+000 1.000000e+000 0.000000e+000 0.000000e+000 0.000000e+000
 0.000000e+000 9.046997e-001 9.530030e-002 0.000000e+000 0.000000e+000
 0.000000e+000 0.000000e+000 8.447286e-001 1.552714e-001 0.000000e+000
 0.000000e+000 0.000000e+000 0.000000e+000 9.182811e-001 8.171892e-002
 0.000000e+000 0.000000e+000 0.000000e+000 0.000000e+000 0.000000e+000
<ENDHMM>
~h "sy"
<BEGINHMM>
<NUMSTATES> 5
<STATE> 2
<MEAN> 25
 -8.296749e+000 4.084119e+000 3.125262e+000 2.099932e+000 2.804036e+000 -2.178446e+000 3.118898e+000 1.152967e+000 1.170704e+000 -2.501687e+000 -9.584272e-001 3.177176e+000 -3.760741e+000 4.722269e-001 -1.061501e-001 -1.687939e-002 6.263987e-001 3.763348e-001 9.907216e-001 3.300781e-001 6.417776e-001 -2.276236e-001 8.917328e-001 4.529599e-001 3.948460e-002
<VARIANCE> 25
 7.919964e+001 3.819201e+001 5.251392e+001 3.171629e+001 4.499606e+001 5.383060e+001 4.884400e+001 4.316158e+001 4.184389e+001 3.383717e+001 3.312533e+001 2.684469e+001 5.694386e+000 5.335667e+000 4.091134e+000 3.920244e+000 4.964385e+000 4.419593e+000 5.745475e+000 4.442831e+000 3.897702e+000 3.782557e+000 4.017959e+000 2.815260e+000 3.014144e+000
<GCONST> 1.096082e+002
<STATE> 3
<MEAN> 25
 -2.249801e+001 1.131136e+000 1.488963e+000 -1.968902e+000 2.565275e+000 -1.093497e+000 5.276787e+000 2.362875e+000 3.174223e+000 1.982379e-001 4.066426e+000 4.989924e+000 -2.488795e-001 -5.266642e-001 -8.228590e-002 -2.823960e-001 -4.073767e-001 -2.766099e-002 7.372268e-002 -3.641663e-002 2.054705e-001 2.647811e-001 1.871775e-001 1.346341e-001 1.822228e-001
<VARIANCE> 25
 2.246583e+001 2.617901e+001 3.329749e+001 2.185935e+001 4.906423e+001 3.565155e+001 3.976286e+001 3.270718e+001 3.325772e+001 2.235935e+001 1.843146e+001 1.842295e+001 1.639988e+000 9.309063e-001 1.147786e+000 1.262211e+000 1.440101e+000 1.671208e+000 1.590737e+000 1.602273e+000 1.481455e+000 1.569099e+000 1.516498e+000 1.315683e+000 6.652032e-001
<GCONST> 8.972493e+001
<STATE> 4
<MEAN> 25
 -1.081805e+001 6.546071e-002 6.043724e+000 -9.310834e-001 -3.937319e+000 -4.654312e+000 1.690271e+000 7.141857e-001 1.876451e+000 -2.031249e+000 2.440575e+000 4.123582e+000 5.304250e+000 -3.840472e-001 1.091685e+000 9.811364e-002 -1.366626e+000 -1.354754e+000 -2.081438e+000 4.439957e-001 -6.754817e-001 -6.298881e-001 -8.541681e-001 -6.873111e-001 1.226526e+000
<VARIANCE> 25
 1.064986e+002 2.728707e+001 5.576936e+001 3.015418e+001 5.896147e+001 4.388282e+001 5.634158e+001 4.010947e+001 4.105286e+001 2.636123e+001 3.060289e+001 1.700118e+001 4.323354e+000 4.411496e+000 5.067291e+000 3.333160e+000 6.143198e+000 3.624974e+000 4.627037e+000 5.758873e+000 5.333113e+000 3.408597e+000 4.044926e+000 2.608859e+000 2.256253e+000
<GCONST> 1.084027e+002
<TRANSP> 5
 0.000000e+000 1.000000e+000 0.000000e+000 0.000000e+000 0.000000e+000
 0.000000e+000 7.976342e-001 2.023658e-001 0.000000e+000 0.000000e+000
 0.000000e+000 0.000000e+000 8.823564e-001 1.176436e-001 0.000000e+000
 0.000000e+000 0.000000e+000 0.000000e+000 7.467068e-001 2.532932e-001
 0.000000e+000 0.000000e+000 0.000000e+000 0.000000e+000 0.000000e+000
<ENDHMM>
~h "sil"
<BEGINHMM>
<NUMSTATES> 5
<STATE> 2
<MEAN> 25
 -3.733463e+000 2.998835e+000 -1.537481e+000 3.749017e+000 4.072063e+000 1.014351e-002 3.156520e+000 3.349475e+000 -1.000333e+000 -6.546421e-002 9.417090e-001 1.729205e+000 -3.010174e-002 2.578617e-002 -1.083902e-002 2.509504e-003 -1.263229e-002 -1.782598e-002 -5.403865e-003 -1.179492e-002 5.569191e-003 1.068227e-002 1.650656e-002 -4.011710e-004 -5.785080e-002
<VARIANCE> 25
 5.112923e+000 2.056050e+001 1.483738e+001 1.724786e+001 2.122837e+001 1.946446e+001 2.639109e+001 3.154540e+001 2.224451e+001 2.188960e+001 1.862327e+001 1.799567e+001 2.566577e-001 6.151934e-001 6.920390e-001 1.051594e+000 1.155918e+000 1.399764e+000 1.472252e+000 1.851085e+000 1.629234e+000 1.662265e+000 1.491948e+000 1.453911e+000 2.803150e-001
<GCONST> 8.071688e+001
<STATE> 3
<MEAN> 25
 -5.858380e+000 3.067836e+000 -3.544372e+000 3.388356e+000 3.719922e+000 -1.256202e+000 5.963257e+000 -9.560433e-001 1.724444e+000 -6.529800e-001 3.683986e-001 2.986021e+000 -1.410790e-002 1.280744e-002 5.712791e-003 1.760731e-003 -3.062696e-003 -2.176864e-003 4.525274e-003 1.173585e-003 1.030804e-002 2.434492e-002 9.557121e-003 -4.384636e-003 -1.856198e-002
<VARIANCE> 25
 9.340016e+000 8.213823e+000 9.178260e+000 1.650507e+001 1.492737e+001 1.886449e+001 1.878622e+001 1.839173e+001 2.101605e+001 2.036007e+001 1.822090e+001 1.478374e+001 1.537113e-001 3.194361e-001 4.806365e-001 6.834520e-001 9.031774e-001 1.108574e+000 1.244995e+000 1.378885e+000 1.418190e+000 1.418018e+000 1.347314e+000 1.220378e+000 7.788952e-002
<GCONST> 7.350599e+001
<STATE> 4
<MEAN> 25
 -7.276391e+000 1.626246e+000 -2.818718e+000 4.669219e+000 4.776389e+000 -1.430415e+000 5.788884e+000 4.927026e-001 1.590746e+000 -6.022967e-002 9.772396e-001 3.754336e+000 3.317342e-003 -2.607539e-003 1.619660e-002 -9.038313e-003 9.665518e-003 -6.524614e-003 -1.492714e-002 -1.230911e-002 -1.058661e-002 1.308658e-003 -2.111449e-002 -1.696926e-002 1.013881e-001
<VARIANCE> 25
 1.578976e+001 2.331404e+001 1.887409e+001 3.064007e+001 2.597133e+001 3.059688e+001 3.058957e+001 3.788888e+001 2.613289e+001 2.786337e+001 2.144963e+001 2.230141e+001 9.695141e-001 1.507188e+000 1.334084e+000 1.817993e+000 1.739461e+000 2.185056e+000 2.013012e+000 2.610044e+000 2.032952e+000 2.191158e+000 1.832655e+000 1.736006e+000 2.199495e+000
<GCONST> 9.240850e+001
<TRANSP> 5
 0.000000e+000 1.000000e+000 0.000000e+000 0.000000e+000 0.000000e+000
 0.000000e+000 9.643642e-001 3.563577e-002 0.000000e+000 0.000000e+000
 0.000000e+000 0.000000e+000 9.663208e-001 3.367919e-002 0.000000e+000
 0.000000e+000 0.000000e+000 0.000000e+000 9.550011e-001 4.499890e-002
 0.000000e+000 0.000000e+000 0.000000e+000 0.000000e+000 0.000000e+000
<ENDHMM>
