~o
<STREAMINFO> 1 25
<VECSIZE> 25<NULLD><MFCC_D_N_Z_0><DIAGC>
~h "@"
<BEGINHMM>
<NUMSTATES> 5
<STATE> 2
<MEAN> 25
 2.265196e+000 -7.314744e-001 -3.210994e-001 -9.735264e-001 -1.213326e+000 -2.292485e+000 -3.589250e+000 -7.621708e-001 8.269905e-001 1.593745e+000 5.032767e-001 -7.953017e-001 1.795595e+000 -8.740271e-001 3.315321e-001 -1.260954e+000 -1.085407e+000 4.165545e-001 -1.754245e+000 7.317791e-001 3.479687e-001 8.328284e-001 4.149971e-001 -9.701743e-001 2.168870e+000
<VARIANCE> 25
 4.073368e+001 3.219101e+001 3.995747e+001 4.868565e+001 4.543000e+001 5.778475e+001 6.580945e+001 5.035958e+001 5.081482e+001 3.226972e+001 3.395330e+001 2.857862e+001 6.266035e+000 3.824255e+000 5.248275e+000 5.681447e+000 5.441933e+000 5.491647e+000 7.359929e+000 7.924992e+000 7.014599e+000 4.348388e+000 4.515543e+000 3.649573e+000 7.854074e+000
<GCONST> 1.132737e+002
<STATE> 3
<MEAN> 25
 5.321792e+000 -3.351461e+000 2.245673e-001 -3.739932e+000 -3.519185e+000 -1.068465e+000 -7.315296e+000 1.318296e+000 1.288365e+000 3.565160e+000 1.562434e+000 -2.730976e+000 9.772362e-001 -5.635262e-001 3.302641e-001 -5.923930e-001 -6.506017e-001 5.720999e-001 -8.096991e-001 5.626529e-001 1.216944e-001 6.026507e-001 2.490863e-001 -6.075642e-001 6.142679e-001
<VARIANCE> 25
 1.738208e+001 2.997669e+001 4.052168e+001 5.021796e+001 4.387993e+001 6.808281e+001 6.299284e+001 6.262175e+001 5.715687e+001 3.864004e+001 4.161101e+001 3.111894e+001 2.791281e+000 2.978269e+000 3.208141e+000 4.644400e+000 4.151216e+000 4.649666e+000 5.770581e+000 7.079633e+000 5.804923e+000 3.983914e+000 4.017762e+000 3.149836e+000 5.323001e+000
<GCONST> 1.098100e+002
<STATE> 4
<MEAN> 25
 5.071413e+000 -2.729251e+000 1.888647e+000 -2.788251e+000 -5.039999e+000 -1.691784e+000 -7.658398e+000 2.062625e+000 7.378981e-001 3.900048e+000 2.046795e+000 -2.866621e+000 9.294143e-002 3.429617e-001 1.801017e-001 4.033149e-001 1.325071e-001 1.541082e-001 4.126013e-001 -3.077762e-001 -1.817005e-001 -1.175048e-001 -1.285664e-001 9.555101e-002 -7.217321e-001
<VARIANCE> 25
 1.897666e+001 3.247905e+001 3.924796e+001 4.432808e+001 4.991810e+001 6.064220e+001 8.105946e+001 6.609118e+001 5.426525e+001 4.237661e+001 3.974076e+001 3.197284e+001 1.005366e+000 1.887684e+000 1.660695e+000 2.502075e+000 2.506517e+000 2.629286e+000 3.185684e+000 3.481483e+000 3.235396e+000 2.501784e+000 2.369853e+000 1.917169e+000 3.106379e+000
<GCONST> 1.024167e+002
<TRANSP> 5
 0.000000e+000 1.000000e+000 0.000000e+000 0.000000e+000 0.000000e+000
 0.000000e+000 3.652152e-001 6.347848e-001 0.000000e+000 0.000000e+000
 0.000000e+000 0.000000e+000 2.223487e-001 7.776514e-001 0.000000e+000
 0.000000e+000 0.000000e+000 0.000000e+000 6.559766e-001 3.440234e-001
 0.000000e+000 0.000000e+000 0.000000e+000 0.000000e+000 0.000000e+000
<ENDHMM>
~h "a"
<BEGINHMM>
<NUMSTATES> 5
<STATE> 2
<MEAN> 25
 4.343371e+000 -8.612539e+000 -4.001595e+000 -6.605365e+000 -8.054606e-001 2.558413e+000 -3.840871e+000 5.623765e+000 4.642434e+000 7.893068e-001 -2.738800e+000 -5.390094e+000 3.935973e-001 -1.623953e+000 -8.637542e-001 -7.344319e-001 7.118139e-001 1.192693e+000 3.470372e-002 9.981648e-001 6.216270e-001 -4.987370e-001 -1.152511e+000 -1.126089e+000 1.355039e+000
<VARIANCE> 25
 1.678997e+001 2.874286e+001 3.093555e+001 3.427899e+001 4.612966e+001 6.417189e+001 4.206676e+001 6.403595e+001 4.011046e+001 4.076956e+001 4.090845e+001 3.211080e+001 2.019117e+000 2.639617e+000 2.284072e+000 2.978626e+000 3.364895e+000 3.734574e+000 3.672140e+000 5.283934e+000 3.266328e+000 3.196439e+000 3.375906e+000 2.715668e+000 4.012842e+000
<GCONST> 1.046025e+002
<STATE> 3
<MEAN> 25
 4.753319e+000 -1.085709e+001 -5.279910e+000 -7.135146e+000 1.089416e+000 4.700893e+000 -3.302611e+000 5.702226e+000 5.236393e+000 -4.404761e-001 -4.737386e+000 -6.689793e+000 -2.351268e-002 -9.887493e-002 -8.993185e-002 1.738187e-001 4.663548e-001 1.066756e-001 3.118573e-001 -4.266328e-002 -5.605450e-002 -2.027979e-001 -3.704634e-001 -7.758880e-003 -3.242052e-001
<VARIANCE> 25
 9.916852e+000 2.264840e+001 2.349704e+001 2.499220e+001 3.484784e+001 4.910637e+001 3.322534e+001 5.291105e+001 3.421092e+001 3.869426e+001 3.790597e+001 2.928294e+001 5.984277e-001 1.594124e+000 1.212874e+000 1.593868e+000 1.911978e+000 2.863884e+000 2.171143e+000 2.909712e+000 1.927065e+000 2.204692e+000 2.166159e+000 1.782818e+000 2.793526e+000
<GCONST> 9.483465e+001
<STATE> 4
<MEAN> 25
 3.571892e+000 -8.132636e+000 -4.918376e+000 -4.741892e+000 2.263915e+000 3.328241e+000 -1.583667e+000 4.428715e+000 4.176959e+000 -8.501441e-001 -4.760018e+000 -4.860625e+000 -2.013780e-002 7.949351e-001 4.062831e-001 5.062290e-001 -9.144951e-002 -4.604494e-001 1.080357e-001 -2.570062e-001 -3.093346e-001 2.094460e-001 2.622817e-001 3.447068e-001 -1.149808e+000
<VARIANCE> 25
 1.618340e+001 3.516384e+001 2.321144e+001 3.329395e+001 3.645755e+001 4.472741e+001 3.563073e+001 4.803453e+001 3.309559e+001 3.351771e+001 3.166950e+001 3.089596e+001 7.292817e-001 1.615217e+000 1.305367e+000 1.622335e+000 1.820296e+000 2.169427e+000 2.104586e+000 2.644200e+000 1.983994e+000 1.991678e+000 1.843648e+000 1.629665e+000 2.288926e+000
<GCONST> 9.498663e+001
<TRANSP> 5
 0.000000e+000 1.000000e+000 0.000000e+000 0.000000e+000 0.000000e+000
 0.000000e+000 5.418222e-001 4.581778e-001 0.000000e+000 0.000000e+000
 0.000000e+000 0.000000e+000 5.699392e-001 4.300608e-001 0.000000e+000
 0.000000e+000 0.000000e+000 0.000000e+000 8.105546e-001 1.894454e-001
 0.000000e+000 0.000000e+000 0.000000e+000 0.000000e+000 0.000000e+000
<ENDHMM>
~h "b"
<BEGINHMM>
<NUMSTATES> 5
<STATE> 2
<MEAN> 25
 8.972426e+000 7.029944e+000 3.936432e+000 2.666679e+000 1.686979e+000 4.580163e+000 1.117076e+000 -5.936329e+000 -3.897554e+000 -2.865146e-001 8.808867e-001 -1.069646e+000 6.433100e-001 1.443484e+000 3.667013e-001 6.238902e-001 7.299737e-001 3.958114e-001 9.563000e-001 -5.219052e-001 -2.269610e-001 -2.283182e-001 -4.423966e-002 4.378571e-002 -1.326815e+000
<VARIANCE> 25
 3.015194e+001 3.980606e+001 2.605025e+001 3.840348e+001 3.212090e+001 3.403906e+001 4.383278e+001 3.864841e+001 3.975592e+001 2.727175e+001 3.279564e+001 2.405521e+001 2.149885e+000 3.100611e+000 2.726626e+000 3.510850e+000 2.924362e+000 2.966001e+000 4.037317e+000 3.569661e+000 3.854690e+000 2.796422e+000 2.968941e+000 2.164301e+000 6.811645e+000
<GCONST> 1.031774e+002
<STATE> 3
<MEAN> 25
 8.878179e+000 7.519058e+000 2.842111e+000 1.796938e+000 1.953948e+000 4.590761e+000 1.287049e+000 -6.533436e+000 -3.355225e+000 -4.323977e-002 2.489959e+000 -2.524981e-001 -6.759026e-001 -1.887006e+000 -1.293041e+000 -1.568679e+000 -6.314054e-001 -3.706735e-001 -1.675779e+000 6.848592e-001 1.432755e+000 8.619743e-001 8.624890e-001 -1.732685e-001 3.060196e+000
<VARIANCE> 25
 2.249797e+001 3.834349e+001 2.555739e+001 4.416375e+001 3.123423e+001 3.216097e+001 3.880932e+001 2.890052e+001 3.462168e+001 2.644691e+001 3.526859e+001 2.311097e+001 1.972690e+000 5.798883e+000 3.482847e+000 6.932437e+000 4.002039e+000 3.884386e+000 6.039367e+000 4.388412e+000 5.803530e+000 4.478797e+000 4.294580e+000 3.487086e+000 1.014230e+001
<GCONST> 1.071166e+002
<STATE> 4
<MEAN> 25
 7.054962e+000 2.941706e+000 3.727889e-001 -1.163987e+000 -6.191887e-001 3.448910e+000 -3.012548e+000 -4.286372e+000 7.471628e-001 1.929937e+000 3.170293e+000 -2.022021e+000 -8.059162e-001 -1.921486e+000 -7.895049e-001 -8.768432e-001 -9.313347e-001 -5.768149e-001 -1.230252e+000 1.138914e+000 1.169400e+000 2.340283e-001 -6.941228e-002 -3.506455e-001 2.730704e+000
<VARIANCE> 25
 2.197760e+001 5.937278e+001 3.796397e+001 7.579446e+001 4.338148e+001 4.647279e+001 6.039678e+001 3.503921e+001 4.468106e+001 4.296061e+001 4.623345e+001 2.811663e+001 1.768757e+000 4.343940e+000 4.001796e+000 6.443700e+000 4.268743e+000 5.045996e+000 4.903307e+000 5.127584e+000 6.801075e+000 4.461994e+000 4.284398e+000 4.913431e+000 7.424026e+000
<GCONST> 1.111294e+002
<TRANSP> 5
 0.000000e+000 1.000000e+000 0.000000e+000 0.000000e+000 0.000000e+000
 0.000000e+000 7.240129e-001 2.759871e-001 0.000000e+000 0.000000e+000
 0.000000e+000 0.000000e+000 5.597566e-001 4.402434e-001 0.000000e+000
 0.000000e+000 0.000000e+000 0.000000e+000 4.862871e-001 5.137129e-001
 0.000000e+000 0.000000e+000 0.000000e+000 0.000000e+000 0.000000e+000
<ENDHMM>
~h "c"
<BEGINHMM>
<NUMSTATES> 5
<STATE> 2
<MEAN> 25
 -2.527139e+000 5.346113e+000 1.627922e+000 3.763334e+000 1.614456e+000 -4.745700e+000 2.019458e+000 -1.105192e-001 5.019543e-001 -1.539046e+000 -1.724473e-001 2.636742e+000 -1.807246e+000 8.609755e-002 -8.013541e-001 -3.623234e-001 6.699266e-001 5.091617e-002 6.214714e-001 -1.874828e-001 3.320048e-001 8.415776e-002 2.575352e-001 1.671248e-001 -8.940783e-001
<VARIANCE> 25
 3.876095e+001 3.376222e+001 3.219849e+001 2.471717e+001 3.853565e+001 3.915862e+001 4.365414e+001 4.290829e+001 3.456632e+001 2.790289e+001 2.312379e+001 2.179547e+001 4.569610e+000 4.741285e+000 2.874567e+000 3.179317e+000 3.905549e+000 3.089338e+000 3.447889e+000 3.460211e+000 3.134630e+000 2.779448e+000 2.412027e+000 2.434558e+000 1.195608e+001
<GCONST> 1.044258e+002
<STATE> 3
<MEAN> 25
 -1.512016e+001 2.233903e+000 -3.206068e+000 -1.564635e+000 3.022737e+000 -3.833852e+000 3.757496e+000 -4.560992e-001 1.631932e+000 -3.457515e-001 2.071221e+000 4.133316e+000 -1.308199e+000 -7.062197e-001 -9.149451e-003 -9.965165e-001 -6.375021e-001 -3.856638e-001 -2.280657e-001 5.228782e-001 2.951966e-001 -1.328539e-001 1.568262e-001 3.441077e-001 3.627572e+000
<VARIANCE> 25
 4.620415e+001 2.237325e+001 2.905775e+001 3.025078e+001 2.657455e+001 3.570958e+001 3.968421e+001 2.976046e+001 2.502390e+001 2.504582e+001 1.799794e+001 1.475346e+001 1.136866e+001 2.666835e+000 4.138254e+000 3.550238e+000 3.461619e+000 3.449954e+000 3.812951e+000 3.728653e+000 2.899818e+000 2.663997e+000 2.742836e+000 1.774045e+000 6.402618e+000
<GCONST> 1.023355e+002
<STATE> 4
<MEAN> 25
 -8.222988e+000 -1.833654e-001 1.324695e+000 -1.872593e+000 -1.620379e+000 -5.438924e+000 -2.962603e-002 2.341003e+000 2.773359e+000 -1.836592e+000 6.416570e-002 3.216125e+000 4.584813e+000 -1.368479e+000 1.398766e+000 -4.673019e-002 -1.452138e+000 6.192797e-002 -2.102783e+000 8.543916e-001 2.082182e-001 -1.472610e-001 -8.312139e-001 -1.154581e+000 2.094444e+000
<VARIANCE> 25
 9.567313e+001 2.957341e+001 3.817090e+001 3.040640e+001 3.048899e+001 3.660639e+001 6.431750e+001 4.190481e+001 3.016412e+001 2.531272e+001 2.581149e+001 1.830208e+001 6.848464e+000 5.380116e+000 5.191412e+000 4.918946e+000 3.759704e+000 4.686021e+000 5.793967e+000 7.456069e+000 5.640190e+000 3.752377e+000 3.411813e+000 2.736055e+000 2.640575e+000
<GCONST> 1.084027e+002
<TRANSP> 5
 0.000000e+000 1.000000e+000 0.000000e+000 0.000000e+000 0.000000e+000
 0.000000e+000 8.270773e-001 1.729227e-001 0.000000e+000 0.000000e+000
 0.000000e+000 0.000000e+000 7.210319e-001 2.789681e-001 0.000000e+000
 0.000000e+000 0.000000e+000 0.000000e+000 6.510235e-001 3.489765e-001
 0.000000e+000 0.000000e+000 0.000000e+000 0.000000e+000 0.000000e+000
<ENDHMM>
~h "d"
<BEGINHMM>
<NUMSTATES> 5
<STATE> 2
<MEAN> 25
 6.140501e+000 3.959087e+000 6.018339e+000 6.525686e+000 -6.667709e-002 -2.356291e+000 -2.212848e+000 -8.284652e-001 1.993890e+000 -1.325422e+000 -3.578559e+000 -9.652312e-001 6.198761e-001 1.069401e+000 8.864538e-001 1.030994e+000 7.373272e-001 -4.686798e-001 1.949126e-001 -9.126884e-002 4.193991e-001 -3.282643e-001 -4.415613e-001 3.285085e-002 -1.078381e+000
<VARIANCE> 25
 4.127245e+001 5.308511e+001 3.733298e+001 3.797870e+001 4.351096e+001 3.845695e+001 5.605311e+001 6.985718e+001 4.147053e+001 3.627822e+001 3.634061e+001 2.795561e+001 3.144453e+000 4.761157e+000 3.087900e+000 3.811239e+000 4.165809e+000 3.150516e+000 4.738317e+000 6.137732e+000 3.991626e+000 3.272355e+000 3.638310e+000 2.637333e+000 8.619885e+000
<GCONST> 1.089322e+002
<STATE> 3
<MEAN> 25
 5.762396e+000 3.210363e+000 7.948224e+000 6.477659e+000 2.335312e-001 -3.923992e+000 -2.917414e+000 4.881690e-001 2.118895e+000 -2.064329e+000 -2.465659e+000 5.446961e-001 -1.129952e+000 -2.095406e+000 -3.185307e-001 -1.758305e+000 -1.179497e+000 -4.237343e-001 -1.040751e+000 1.512318e+000 -1.129388e-001 8.935906e-002 1.248368e+000 7.421741e-001 3.388062e+000
<VARIANCE> 25
 2.935716e+001 5.094899e+001 2.993320e+001 4.082857e+001 4.166734e+001 4.002205e+001 5.923871e+001 4.836619e+001 3.884338e+001 3.153695e+001 3.417064e+001 3.019481e+001 2.836695e+000 5.298206e+000 3.985543e+000 4.913147e+000 6.687301e+000 3.746004e+000 6.231674e+000 8.074504e+000 5.817292e+000 4.018147e+000 4.298521e+000 3.270312e+000 9.531803e+000
<GCONST> 1.106682e+002
<STATE> 4
<MEAN> 25
 3.714836e+000 -2.158841e+000 6.179066e+000 1.514204e+000 -5.670281e+000 -4.212568e+000 -5.628794e+000 3.967712e+000 2.045248e+000 -1.171443e+000 9.500191e-001 1.131716e+000 -5.196560e-001 -1.178135e+000 -7.563235e-001 -1.296588e+000 -1.117799e+000 2.410214e-001 -2.958908e-001 8.576635e-001 7.957214e-002 2.367418e-001 5.179827e-001 -2.812364e-001 2.261345e+000
<VARIANCE> 25
 2.234816e+001 4.396162e+001 4.854324e+001 4.259593e+001 6.232900e+001 3.984596e+001 7.096302e+001 7.711184e+001 5.691250e+001 3.117465e+001 3.685549e+001 2.804313e+001 2.444676e+000 3.558152e+000 4.793908e+000 4.010517e+000 6.369764e+000 3.776816e+000 5.636829e+000 8.107894e+000 6.590269e+000 3.779325e+000 5.198669e+000 3.566596e+000 7.392118e+000
<GCONST> 1.115755e+002
<TRANSP> 5
 0.000000e+000 1.000000e+000 0.000000e+000 0.000000e+000 0.000000e+000
 0.000000e+000 6.954374e-001 3.045626e-001 0.000000e+000 0.000000e+000
 0.000000e+000 0.000000e+000 5.581070e-001 4.418931e-001 0.000000e+000
 0.000000e+000 0.000000e+000 0.000000e+000 4.770036e-001 5.229964e-001
 0.000000e+000 0.000000e+000 0.000000e+000 0.000000e+000 0.000000e+000
<ENDHMM>
~h "e"
<BEGINHMM>
<NUMSTATES> 5
<STATE> 2
<MEAN> 25
 2.670728e+000 -5.214073e+000 4.104985e+000 -5.128955e-001 -6.816922e+000 -5.416854e+000 -2.526005e+000 4.896766e+000 2.674041e-001 1.778792e-001 1.708616e+000 -6.163690e-001 3.650260e-001 -1.303061e+000 1.034780e+000 -6.936226e-001 -1.714552e+000 -4.125657e-001 -6.174490e-002 1.766851e+000 -4.611917e-001 -1.676728e-001 4.276160e-001 -1.422459e-001 1.893102e+000
<VARIANCE> 25
 3.082030e+001 5.182804e+001 4.792583e+001 4.030959e+001 5.470895e+001 4.412001e+001 6.110229e+001 7.201814e+001 5.522395e+001 3.704014e+001 4.148763e+001 3.063069e+001 3.327683e+000 3.894656e+000 3.407092e+000 3.823900e+000 5.209721e+000 3.995106e+000 5.199681e+000 6.952227e+000 5.433199e+000 3.793590e+000 3.860953e+000 2.721858e+000 7.680304e+000
<GCONST> 1.110075e+002
<STATE> 3
<MEAN> 25
 3.498940e+000 -6.642820e+000 6.416291e+000 -1.765816e+000 -1.014840e+001 -5.668341e+000 -2.399425e+000 7.373023e+000 -1.052812e+000 1.771537e-001 3.349032e+000 -1.005641e+000 -9.651317e-002 4.361497e-003 3.000829e-001 -1.075316e-001 -4.356548e-001 -6.140094e-002 4.584328e-001 2.472558e-001 -2.328247e-001 6.800351e-002 1.858395e-001 -5.601477e-002 9.204291e-002
<VARIANCE> 25
 1.536761e+001 4.251114e+001 4.583178e+001 4.013005e+001 5.129032e+001 4.144362e+001 5.521307e+001 7.938879e+001 6.173092e+001 3.806025e+001 4.370880e+001 3.026920e+001 1.170097e+000 2.222655e+000 1.915623e+000 2.344300e+000 3.131917e+000 2.488193e+000 3.175315e+000 3.665674e+000 3.242234e+000 2.433825e+000 2.342123e+000 1.871936e+000 5.012524e+000
<GCONST> 1.030642e+002
<STATE> 4
<MEAN> 25
 2.152706e+000 -5.222209e+000 6.479154e+000 -1.688464e+000 -9.608200e+000 -6.338536e+000 6.392931e-001 6.294942e+000 -1.581025e+000 3.844228e-001 2.810450e+000 -4.611209e-001 -6.871555e-003 3.971395e-001 -2.647840e-001 2.890365e-001 5.690665e-001 1.175878e-001 7.442326e-002 -3.768110e-001 8.640386e-002 2.894297e-002 -2.840124e-001 2.757676e-003 -6.837051e-001
<VARIANCE> 25
 1.682997e+001 4.243811e+001 4.795316e+001 3.676472e+001 5.418341e+001 4.649420e+001 5.067223e+001 6.311234e+001 4.985226e+001 3.505256e+001 3.769213e+001 2.561821e+001 7.681909e-001 1.340939e+000 1.322786e+000 1.534310e+000 2.155885e+000 1.740800e+000 2.188145e+000 2.243920e+000 2.008154e+000 1.696473e+000 1.650809e+000 1.326284e+000 2.630508e+000
<GCONST> 9.686144e+001
<TRANSP> 5
 0.000000e+000 1.000000e+000 0.000000e+000 0.000000e+000 0.000000e+000
 0.000000e+000 5.605322e-001 4.394678e-001 0.000000e+000 0.000000e+000
 0.000000e+000 0.000000e+000 4.802252e-001 5.197749e-001 0.000000e+000
 0.000000e+000 0.000000e+000 0.000000e+000 8.464335e-001 1.535665e-001
 0.000000e+000 0.000000e+000 0.000000e+000 0.000000e+000 0.000000e+000
<ENDHMM>
~h "f"
<BEGINHMM>
<NUMSTATES> 5
<STATE> 2
<MEAN> 25
 -2.622002e+000 1.881779e+000 -7.610983e-001 3.929374e+000 2.412639e+000 4.189959e-001 2.471580e+000 -7.579992e-001 1.006442e+000 1.845411e-001 7.513246e-001 1.375475e+000 -2.993701e+000 -1.118332e-001 -6.567822e-001 1.300934e+000 6.765583e-001 -5.733317e-001 5.628119e-001 3.250754e-001 8.331171e-001 -9.435435e-002 8.384906e-002 4.522367e-001 -1.179500e+000
<VARIANCE> 25
 5.002368e+001 2.246864e+001 2.993058e+001 4.074446e+001 3.201189e+001 4.941387e+001 3.718869e+001 3.447882e+001 3.131336e+001 2.538723e+001 2.230918e+001 2.201763e+001 3.917475e+000 3.555791e+000 3.076427e+000 4.758478e+000 4.177073e+000 5.334789e+000 4.414236e+000 3.747814e+000 3.617618e+000 3.046723e+000 2.621336e+000 2.322572e+000 2.332614e+000
<GCONST> 1.037564e+002
<STATE> 3
<MEAN> 25
 -1.141965e+001 -1.164887e+000 -3.515000e+000 4.798922e+000 2.531665e+000 -1.432462e+000 2.354388e+000 9.124629e-002 2.614519e+000 3.951665e-001 1.265343e+000 2.868658e+000 -7.240670e-001 -5.745640e-001 -4.415193e-001 -1.349745e-001 -6.958066e-002 -7.983723e-002 -6.007135e-002 5.296582e-002 8.567382e-002 1.546209e-002 1.110485e-001 9.687940e-002 -1.387082e-001
<VARIANCE> 25
 2.329820e+001 1.838663e+001 1.815659e+001 1.991535e+001 2.189993e+001 2.606873e+001 2.607255e+001 2.464619e+001 2.220775e+001 2.171489e+001 1.717532e+001 1.544631e+001 2.906846e+000 1.538837e+000 1.645525e+000 1.916952e+000 1.752092e+000 2.227279e+000 1.891941e+000 1.716518e+000 1.706324e+000 1.711809e+000 1.516260e+000 1.371159e+000 2.108756e+000
<GCONST> 9.020574e+001
<STATE> 4
<MEAN> 25
 -8.258433e+000 -1.827717e+000 -4.382280e+000 3.078520e+000 2.722770e+000 -1.613754e-002 2.366828e+000 7.057958e-001 1.777698e+000 -1.145066e-001 9.864722e-001 2.216330e+000 1.311217e+000 1.911336e-001 2.040381e-001 -4.569304e-001 -2.664560e-001 2.178174e-001 -1.967386e-001 -9.436090e-002 -2.567342e-001 -7.906821e-002 -2.323242e-002 -3.232028e-001 3.842014e-001
<VARIANCE> 25
 4.461597e+001 2.539308e+001 2.346511e+001 2.491167e+001 2.643348e+001 2.983495e+001 2.526835e+001 2.604241e+001 2.614116e+001 2.164060e+001 1.792320e+001 1.723271e+001 5.730053e+000 2.036853e+000 2.165539e+000 3.344279e+000 2.405749e+000 2.895895e+000 2.411733e+000 2.294579e+000 2.340636e+000 2.045724e+000 1.814149e+000 1.801552e+000 2.901098e+000
<GCONST> 9.648556e+001
<TRANSP> 5
 0.000000e+000 1.000000e+000 0.000000e+000 0.000000e+000 0.000000e+000
 0.000000e+000 7.053037e-001 2.946964e-001 0.000000e+000 0.000000e+000
 0.000000e+000 0.000000e+000 7.790875e-001 2.209125e-001 0.000000e+000
 0.000000e+000 0.000000e+000 0.000000e+000 8.645923e-001 1.354076e-001
 0.000000e+000 0.000000e+000 0.000000e+000 0.000000e+000 0.000000e+000
<ENDHMM>
~h "g"
<BEGINHMM>
<NUMSTATES> 5
<STATE> 2
<MEAN> 25
 6.781069e+000 4.550488e+000 5.611505e+000 4.518821e+000 -1.051041e+000 -3.594775e+000 -8.613288e-001 -1.531033e+000 -3.597888e+000 2.621729e+000 -1.109897e-001 -2.167923e+000 9.239167e-002 1.133334e+000 5.103648e-001 1.270537e+000 8.361683e-001 -8.578476e-001 6.780288e-001 -3.590849e-001 -1.747670e-001 -2.924076e-001 -2.025776e-001 3.445569e-001 -1.545411e+000
<VARIANCE> 25
 2.691447e+001 4.785062e+001 4.244470e+001 3.943299e+001 5.401688e+001 5.307092e+001 5.368008e+001 5.695462e+001 4.924305e+001 4.135127e+001 3.346656e+001 2.982902e+001 3.134757e+000 4.770674e+000 5.130141e+000 3.412477e+000 5.435532e+000 4.562732e+000 4.959412e+000 5.008564e+000 5.662759e+000 3.630139e+000 3.130965e+000 2.947526e+000 8.261287e+000
<GCONST> 1.103896e+002
<STATE> 3
<MEAN> 25
 3.437931e+000 3.892348e+000 3.507497e+000 6.068530e+000 1.956258e+000 -5.833301e+000 -1.676850e-001 -9.241370e-001 -2.537042e+000 1.822431e+000 -6.195645e-001 5.129992e-001 -1.009197e+000 -1.293223e+000 -8.972793e-001 -8.628222e-001 -1.335896e-001 -6.633301e-001 -7.582721e-001 1.018539e+000 3.983085e-001 9.315196e-002 3.737233e-001 5.008193e-001 2.407468e+000
<VARIANCE> 25
 3.698618e+001 5.324998e+001 6.048858e+001 3.303216e+001 6.859167e+001 5.141400e+001 5.024276e+001 4.133562e+001 3.800112e+001 3.349803e+001 2.865747e+001 2.863799e+001 4.108691e+000 6.151326e+000 7.597395e+000 4.379432e+000 1.071319e+001 4.899223e+000 5.216386e+000 5.812979e+000 5.481201e+000 3.828430e+000 4.009793e+000 3.840154e+000 8.992777e+000
<GCONST> 1.128797e+002
<STATE> 4
<MEAN> 25
 2.836283e+000 1.878911e+000 3.120284e+000 1.767796e+000 -1.720670e+000 -5.503652e+000 -1.683037e+000 1.375909e+000 -1.967619e+000 2.145140e+000 9.838417e-001 5.595994e-002 -2.239392e-001 -9.111652e-001 -3.631246e-001 -1.525638e+000 -8.870267e-001 6.458216e-001 -4.069554e-001 8.900844e-001 4.274346e-001 8.502178e-002 2.062084e-001 -3.320347e-001 1.798997e+000
<VARIANCE> 25
 3.306800e+001 5.816144e+001 5.971429e+001 3.928938e+001 6.575565e+001 5.399398e+001 5.377760e+001 5.851151e+001 4.673901e+001 3.263702e+001 3.437057e+001 2.719077e+001 2.969435e+000 3.242094e+000 4.901683e+000 3.966342e+000 6.591869e+000 3.719688e+000 3.655611e+000 5.417517e+000 4.882675e+000 3.247594e+000 3.789884e+000 3.665267e+000 4.637298e+000
<GCONST> 1.100146e+002
<TRANSP> 5
 0.000000e+000 1.000000e+000 0.000000e+000 0.000000e+000 0.000000e+000
 0.000000e+000 6.582667e-001 3.417333e-001 0.000000e+000 0.000000e+000
 0.000000e+000 0.000000e+000 6.057383e-001 3.942617e-001 0.000000e+000
 0.000000e+000 0.000000e+000 0.000000e+000 5.571114e-001 4.428886e-001
 0.000000e+000 0.000000e+000 0.000000e+000 0.000000e+000 0.000000e+000
<ENDHMM>
~h "h"
<BEGINHMM>
<NUMSTATES> 5
<STATE> 2
<MEAN> 25
 1.203125e+000 -2.866646e+000 -2.115993e+000 1.049448e+000 6.200830e+000 4.052649e+000 4.003339e+000 2.896582e+000 1.583864e+000 -7.044502e-001 -2.627755e+000 5.026489e-001 -9.079693e-001 1.120755e-001 -1.512020e-001 1.121261e+000 1.497407e+000 3.379117e-001 1.206103e+000 1.203775e-001 4.224157e-001 -2.954354e-001 6.477524e-002 6.364548e-001 -1.066354e+000
<VARIANCE> 25
 2.295535e+001 3.510165e+001 4.147580e+001 3.983887e+001 5.823183e+001 5.588656e+001 5.232003e+001 4.962025e+001 4.057491e+001 3.820664e+001 4.122326e+001 3.667075e+001 1.692256e+000 3.114715e+000 2.891815e+000 3.572371e+000 3.876407e+000 3.303380e+000 4.591226e+000 3.724015e+000 3.321227e+000 2.916243e+000 3.043648e+000 2.956993e+000 2.463132e+000
<GCONST> 1.054208e+002
<STATE> 3
<MEAN> 25
 -1.275026e+000 -3.476748e+000 -2.997011e+000 2.356924e+000 8.352417e+000 4.065125e+000 5.592580e+000 2.970178e+000 2.406763e+000 -1.132999e+000 -2.258492e+000 1.462175e+000 -4.841537e-001 2.826743e-002 -1.597510e-001 7.760932e-002 -5.994819e-003 -1.829109e-001 1.150737e-001 -1.865283e-001 1.184287e-002 -9.094647e-002 1.827494e-001 1.599430e-001 -1.056924e+000
<VARIANCE> 25
 2.420778e+001 3.529453e+001 3.776587e+001 3.816440e+001 5.609882e+001 5.038659e+001 5.165758e+001 4.609150e+001 3.840696e+001 3.854355e+001 3.440397e+001 3.117984e+001 1.643014e+000 2.506201e+000 2.493063e+000 2.596248e+000 3.135143e+000 2.928980e+000 3.261018e+000 3.130796e+000 2.815455e+000 2.587420e+000 2.558286e+000 2.222658e+000 3.012688e+000
<GCONST> 1.026209e+002
<STATE> 4
<MEAN> 25
 -3.303563e+000 -2.989784e+000 -4.538641e+000 1.608151e+000 5.358164e+000 2.570841e+000 3.827273e+000 1.282951e+000 1.706139e+000 -1.617809e+000 -9.222742e-001 1.449163e+000 1.384303e-001 2.015542e-001 5.930011e-002 -1.121328e-001 -3.288765e-001 -1.056545e-001 -1.551792e-001 -1.391033e-001 -1.068427e-001 4.633603e-002 2.829539e-002 -9.395602e-002 -1.802702e-001
<VARIANCE> 25
 2.289718e+001 4.681453e+001 3.044580e+001 2.685789e+001 4.052774e+001 3.663346e+001 3.561121e+001 3.121337e+001 2.854144e+001 2.653567e+001 2.404180e+001 2.289987e+001 1.302385e+000 1.734140e+000 1.525653e+000 1.550676e+000 1.912601e+000 1.907814e+000 2.100404e+000 1.991058e+000 1.914606e+000 1.841608e+000 1.719550e+000 1.632246e+000 1.906513e+000
<GCONST> 9.422637e+001
<TRANSP> 5
 0.000000e+000 1.000000e+000 0.000000e+000 0.000000e+000 0.000000e+000
 0.000000e+000 5.282958e-001 4.717043e-001 0.000000e+000 0.000000e+000
 0.000000e+000 0.000000e+000 4.800106e-001 5.199894e-001 0.000000e+000
 0.000000e+000 0.000000e+000 0.000000e+000 8.477257e-001 1.522743e-001
 0.000000e+000 0.000000e+000 0.000000e+000 0.000000e+000 0.000000e+000
<ENDHMM>
~h "i"
<BEGINHMM>
<NUMSTATES> 5
<STATE> 2
<MEAN> 25
 -3.386254e-001 1.360326e+000 1.214316e+001 2.481373e+000 -7.387043e+000 -5.436946e+000 -2.633792e+000 -2.096020e+000 -6.250625e+000 -1.989554e+000 2.994472e+000 9.984319e-001 4.776531e-001 -6.274351e-002 2.852822e+000 -4.974338e-001 -2.555025e+000 1.401811e-001 -1.465231e+000 -3.958704e-001 -2.013909e+000 -1.626080e-001 1.118714e+000 -2.317445e-001 1.748652e+000
<VARIANCE> 25
 3.046614e+001 3.460276e+001 5.190349e+001 3.796976e+001 5.117522e+001 4.087616e+001 5.342779e+001 5.385907e+001 4.898859e+001 3.416404e+001 2.924082e+001 2.693602e+001 5.562238e+000 3.052962e+000 5.001966e+000 4.424014e+000 4.919354e+000 4.634117e+000 5.994146e+000 5.861391e+000 6.005152e+000 4.495510e+000 3.078966e+000 3.304405e+000 4.872828e+000
<GCONST> 1.100100e+002
<STATE> 3
<MEAN> 25
 6.086931e-001 1.199732e+000 1.725134e+001 5.710535e-001 -1.294252e+001 -3.623095e+000 -6.114139e+000 -2.897665e+000 -9.686350e+000 -1.607975e+000 5.240740e+000 1.210335e-001 1.097225e-001 1.890401e-001 1.784408e-001 -2.175766e-001 -3.176637e-001 2.494752e-001 -8.889864e-002 -5.008864e-002 5.174067e-003 2.055777e-001 1.240998e-001 -5.338237e-002 -1.701047e-001
<VARIANCE> 25
 1.253779e+001 2.506334e+001 3.406986e+001 3.889139e+001 3.044799e+001 3.998189e+001 3.278723e+001 4.953518e+001 4.602307e+001 4.985889e+001 2.901176e+001 3.606236e+001 1.156526e+000 1.997243e+000 2.880834e+000 2.320699e+000 3.550748e+000 2.961595e+000 3.221978e+000 3.548592e+000 3.416425e+000 2.476591e+000 2.009620e+000 1.803505e+000 3.084843e+000
<GCONST> 1.001509e+002
<STATE> 4
<MEAN> 25
 4.033329e-001 3.189375e+000 1.395170e+001 9.136010e-001 -9.214528e+000 -3.171179e+000 -3.234834e+000 -3.102993e+000 -6.788924e+000 -8.630685e-001 3.264970e+000 4.505639e-001 8.307668e-002 1.179339e-001 -1.103729e+000 2.829809e-001 9.120940e-001 -1.156257e-001 5.521108e-001 2.135149e-001 7.035297e-001 3.872842e-002 -4.205517e-001 8.849125e-002 -1.031297e+000
<VARIANCE> 25
 1.714151e+001 2.916968e+001 5.926006e+001 3.841686e+001 4.871712e+001 4.798347e+001 4.445292e+001 5.213443e+001 4.731771e+001 3.665524e+001 3.081949e+001 2.745636e+001 1.190003e+000 1.706668e+000 2.234786e+000 1.879979e+000 2.855098e+000 2.345113e+000 2.653908e+000 2.934413e+000 2.799123e+000 2.114566e+000 1.899106e+000 1.567563e+000 2.918391e+000
<GCONST> 9.963431e+001
<TRANSP> 5
 0.000000e+000 1.000000e+000 0.000000e+000 0.000000e+000 0.000000e+000
 0.000000e+000 6.549025e-001 3.450975e-001 0.000000e+000 0.000000e+000
 0.000000e+000 0.000000e+000 6.428560e-001 3.571439e-001 0.000000e+000
 0.000000e+000 0.000000e+000 0.000000e+000 8.534502e-001 1.465499e-001
 0.000000e+000 0.000000e+000 0.000000e+000 0.000000e+000 0.000000e+000
<ENDHMM>
~h "j"
<BEGINHMM>
<NUMSTATES> 5
<STATE> 2
<MEAN> 25
 2.910703e+000 7.734855e+000 8.268654e+000 5.651963e+000 -1.085364e+000 -3.807377e+000 4.150828e-001 7.811030e-001 -1.000840e+000 -3.104658e+000 2.595590e-001 1.776798e+000 -4.685358e-001 1.281810e+000 3.500927e-001 3.580282e-001 7.762396e-001 -4.407725e-002 9.338857e-001 -7.873653e-002 3.486183e-001 -9.842968e-002 -7.719910e-002 1.153025e-001 -1.054182e+000
<VARIANCE> 25
 3.771115e+001 4.468675e+001 4.036476e+001 2.693576e+001 3.974847e+001 4.454385e+001 4.613058e+001 4.036762e+001 3.851703e+001 2.905179e+001 2.421630e+001 2.173807e+001 5.260260e+000 3.347036e+000 3.256271e+000 2.847733e+000 3.462181e+000 3.180780e+000 3.926458e+000 3.828888e+000 3.925898e+000 2.815708e+000 2.442216e+000 2.394010e+000 7.398349e+000
<GCONST> 1.050374e+002
<STATE> 3
<MEAN> 25
 -6.409214e+000 8.481929e+000 7.344813e+000 3.842577e+000 1.684614e+000 -3.927317e+000 1.954888e+000 -1.104813e+000 -7.471215e-001 -2.298244e+000 1.793091e+000 3.870244e+000 -9.590936e-001 -1.545125e+000 3.371766e-001 -7.393265e-001 -1.434492e+000 -8.352394e-001 -1.263184e+000 -7.131192e-002 -3.853149e-001 -6.399012e-002 7.413062e-001 7.454506e-001 3.199983e+000
<VARIANCE> 25
 5.641216e+001 3.834774e+001 4.273741e+001 2.597816e+001 4.415833e+001 4.799006e+001 3.801496e+001 2.782376e+001 2.542986e+001 2.193681e+001 1.902137e+001 1.806066e+001 1.189705e+001 3.850348e+000 4.778145e+000 3.719965e+000 8.465451e+000 4.203162e+000 4.526651e+000 4.960449e+000 4.142987e+000 2.613122e+000 2.167923e+000 2.309734e+000 3.786673e+000
<GCONST> 1.061345e+002
<STATE> 4
<MEAN> 25
 2.970186e-001 -8.549485e-001 9.415329e+000 1.725483e-001 -9.135374e+000 -7.691674e+000 -5.872076e+000 3.494362e+000 -5.297208e-001 -2.295382e+000 4.287581e+000 4.301194e+000 2.005644e+000 -2.447812e+000 -1.240143e+000 -1.236619e+000 -1.090644e+000 4.728187e-001 -1.232880e+000 1.917473e+000 1.036968e+000 7.077559e-001 -4.334693e-001 -1.314582e+000 1.331691e+000
<VARIANCE> 25
 2.221950e+001 3.346006e+001 3.226299e+001 3.750242e+001 3.311752e+001 2.472113e+001 3.943377e+001 5.920835e+001 5.100828e+001 2.452734e+001 2.249036e+001 1.994376e+001 3.151462e+000 3.168800e+000 4.779039e+000 2.419724e+000 5.885686e+000 3.737655e+000 5.845584e+000 7.043216e+000 5.123843e+000 2.921875e+000 3.709817e+000 2.674330e+000 1.654647e+000
<GCONST> 1.044200e+002
<TRANSP> 5
 0.000000e+000 1.000000e+000 0.000000e+000 0.000000e+000 0.000000e+000
 0.000000e+000 8.225739e-001 1.774261e-001 0.000000e+000 0.000000e+000
 0.000000e+000 0.000000e+000 7.617477e-001 2.382523e-001 0.000000e+000
 0.000000e+000 0.000000e+000 0.000000e+000 6.314734e-001 3.685265e-001
 0.000000e+000 0.000000e+000 0.000000e+000 0.000000e+000 0.000000e+000
<ENDHMM>
~h "k"
<BEGINHMM>
<NUMSTATES> 5
<STATE> 2
<MEAN> 25
 -1.319637e+000 3.252534e+000 -1.409992e+000 1.892238e+000 1.678320e+000 -2.301655e+000 2.504117e+000 -1.243146e+000 4.965505e-001 5.587361e-001 -4.178786e-001 1.034122e+000 -1.078649e+000 -4.937283e-001 -9.343112e-001 3.066450e-001 7.860453e-001 -4.426979e-001 1.327574e-001 1.931801e-001 3.196122e-001 2.695584e-002 -1.136261e-001 5.022513e-001 -5.471080e-001
<VARIANCE> 25
 3.192128e+001 3.169306e+001 3.556639e+001 3.505929e+001 4.061007e+001 4.295222e+001 3.896569e+001 4.299643e+001 4.011251e+001 3.458296e+001 2.707044e+001 2.803412e+001 2.348436e+000 4.853936e+000 4.058352e+000 3.269689e+000 4.599778e+000 4.021990e+000 3.878166e+000 3.846117e+000 3.705090e+000 3.315411e+000 2.610951e+000 2.362283e+000 1.077863e+001
<GCONST> 1.060940e+002
<STATE> 3
<MEAN> 25
 -4.867736e+000 -2.273509e+000 -6.660674e+000 1.020595e+000 5.113456e+000 -4.377913e+000 1.188425e+000 5.454493e-001 9.151531e-001 2.166273e+000 -1.291296e+000 2.413155e+000 -4.883384e-001 -1.555993e+000 -1.532282e+000 -9.070157e-001 7.727749e-001 -6.131073e-001 -7.555736e-001 6.361549e-001 -1.832128e-002 5.971567e-001 -4.327191e-001 3.551620e-002 3.639747e+000
<VARIANCE> 25
 2.890954e+001 5.203608e+001 5.632396e+001 4.370727e+001 5.291977e+001 5.112642e+001 4.640290e+001 4.043019e+001 3.821471e+001 3.362290e+001 2.628131e+001 2.806621e+001 4.027172e+000 5.600409e+000 6.909105e+000 5.235060e+000 6.639588e+000 5.562330e+000 5.210613e+000 4.743069e+000 4.553574e+000 3.896266e+000 3.556709e+000 3.511491e+000 1.373841e+001
<GCONST> 1.118151e+002
<STATE> 4
<MEAN> 25
 -3.488670e+000 -2.846697e+000 -6.710626e+000 -1.585567e+000 3.845582e+000 -4.447073e+000 2.266939e-001 1.891882e+000 8.593484e-001 2.247771e+000 -1.983044e+000 7.220545e-001 1.385883e+000 1.505845e-001 9.888503e-001 -8.330415e-001 -1.161426e+000 5.793887e-001 -3.710827e-001 4.122970e-001 -2.144275e-001 -2.345358e-001 1.722202e-001 -1.022572e+000 2.345185e+000
<VARIANCE> 25
 3.987976e+001 4.078070e+001 5.743853e+001 4.348059e+001 5.124495e+001 5.660060e+001 4.652842e+001 4.317065e+001 3.788601e+001 3.138401e+001 2.828748e+001 3.370791e+001 4.799786e+000 4.501371e+000 5.646216e+000 4.894005e+000 5.532848e+000 5.073908e+000 4.379311e+000 4.711779e+000 4.213183e+000 3.379965e+000 3.346536e+000 3.850100e+000 8.517299e+000
<GCONST> 1.107909e+002
<TRANSP> 5
 0.000000e+000 1.000000e+000 0.000000e+000 0.000000e+000 0.000000e+000
 0.000000e+000 6.929699e-001 3.070300e-001 0.000000e+000 0.000000e+000
 0.000000e+000 0.000000e+000 5.399308e-001 4.600693e-001 0.000000e+000
 0.000000e+000 0.000000e+000 0.000000e+000 6.423261e-001 3.576740e-001
 0.000000e+000 0.000000e+000 0.000000e+000 0.000000e+000 0.000000e+000
<ENDHMM>
~h "l"
<BEGINHMM>
<NUMSTATES> 5
<STATE> 2
<MEAN> 25
 6.444055e+000 -4.754342e+000 1.199549e+000 -6.227566e+000 -2.169166e+000 2.375785e+000 -8.590093e+000 -4.314369e+000 3.201334e+000 4.765851e+000 1.403270e+000 -3.021218e+000 4.491360e-001 9.963191e-002 4.880258e-001 -7.037576e-001 5.889828e-001 9.897223e-002 -1.280704e+000 -1.060521e+000 1.825596e-001 1.034121e+000 2.959882e-001 -3.010839e-001 -2.142509e-001
<VARIANCE> 25
 1.470833e+001 2.509006e+001 4.442616e+001 5.874084e+001 4.949292e+001 6.181553e+001 6.704814e+001 9.515027e+001 5.298881e+001 4.525811e+001 4.315831e+001 3.805510e+001 1.032414e+000 1.648210e+000 2.555534e+000 4.064365e+000 4.102127e+000 4.837420e+000 4.225221e+000 5.537508e+000 3.833826e+000 3.593184e+000 3.725410e+000 2.732336e+000 1.460793e+000
<GCONST> 1.060328e+002
<STATE> 3
<MEAN> 25
 7.032130e+000 -4.296865e+000 1.921117e+000 -7.876876e+000 -9.538262e-001 2.859673e+000 -1.103578e+001 -5.767511e+000 3.105981e+000 6.465318e+000 2.140626e+000 -3.361187e+000 -8.512166e-002 3.120222e-002 -7.289860e-002 -1.702573e-001 2.892640e-001 -9.076176e-002 -1.393690e-001 3.470020e-001 1.050064e-001 -8.803336e-002 -2.168713e-001 -6.245179e-002 -2.199800e-002
<VARIANCE> 25
 1.211071e+001 2.196816e+001 4.266262e+001 6.152381e+001 4.860603e+001 5.372644e+001 7.006104e+001 7.871621e+001 5.143966e+001 4.701509e+001 4.206889e+001 3.686086e+001 6.385123e-001 1.646377e+000 2.845623e+000 3.475453e+000 2.756342e+000 3.733390e+000 4.016879e+000 6.185058e+000 3.355279e+000 3.422492e+000 3.576261e+000 2.435576e+000 1.307675e+000
<GCONST> 1.037825e+002
<STATE> 4
<MEAN> 25
 5.998687e+000 -3.389755e+000 -4.289467e-001 -7.645660e+000 4.500277e-001 3.206184e+000 -7.797255e+000 -2.891361e+000 2.998205e+000 4.286640e+000 7.317150e-001 -3.327944e+000 -3.546152e-001 -4.278103e-002 -4.066296e-001 5.232511e-001 -1.740689e-002 -8.988031e-002 9.216342e-001 7.987692e-001 -3.502096e-002 -7.837386e-001 -5.592983e-001 1.348361e-001 -9.083055e-002
<VARIANCE> 25
 1.773545e+001 3.063900e+001 5.076952e+001 6.780517e+001 5.114204e+001 5.807094e+001 7.738173e+001 6.885100e+001 5.109317e+001 4.947478e+001 4.520595e+001 3.744348e+001 6.348891e-001 1.870967e+000 2.273485e+000 2.939222e+000 2.824941e+000 3.218167e+000 3.565468e+000 4.344169e+000 3.165153e+000 2.978916e+000 3.380437e+000 2.177995e+000 1.737436e+000
<GCONST> 1.040465e+002
<TRANSP> 5
 0.000000e+000 1.000000e+000 0.000000e+000 0.000000e+000 0.000000e+000
 0.000000e+000 5.256150e-001 4.743850e-001 0.000000e+000 0.000000e+000
 0.000000e+000 0.000000e+000 4.807101e-001 5.192899e-001 0.000000e+000
 0.000000e+000 0.000000e+000 0.000000e+000 6.285365e-001 3.714635e-001
 0.000000e+000 0.000000e+000 0.000000e+000 0.000000e+000 0.000000e+000
<ENDHMM>
~h "m"
<BEGINHMM>
<NUMSTATES> 5
<STATE> 2
<MEAN> 25
 7.586310e+000 -1.017101e+000 1.821042e+000 -4.145823e-001 -9.641151e-001 4.678263e+000 -4.120079e-001 -6.479273e+000 -6.486555e+000 7.041309e-001 6.765901e-001 -2.204025e+000 3.756775e-001 1.145189e+000 1.555220e+000 1.943874e+000 2.836542e-001 8.660696e-002 1.006640e+000 -2.696132e+000 -2.643769e+000 -9.911851e-002 -5.060282e-001 8.317126e-001 -9.001380e-001
<VARIANCE> 25
 2.059185e+001 3.442318e+001 3.523193e+001 5.833380e+001 3.515192e+001 4.771354e+001 5.607862e+001 6.363962e+001 5.706365e+001 3.896189e+001 4.278156e+001 3.953131e+001 1.575665e+000 2.126919e+000 3.311672e+000 3.834188e+000 2.807399e+000 3.185028e+000 4.703590e+000 4.996649e+000 5.550868e+000 3.560480e+000 5.215957e+000 3.658528e+000 3.274548e+000
<GCONST> 1.071009e+002
<STATE> 3
<MEAN> 25
 7.774408e+000 9.005254e-001 5.587765e+000 3.391893e+000 -4.788641e-001 4.545902e+000 1.403877e+000 -1.173059e+001 -1.199860e+001 4.078936e-001 -1.174120e+000 3.534340e-001 -8.227304e-003 1.382112e-001 3.875146e-001 2.782652e-001 1.059316e-001 2.240134e-001 1.630192e-001 -4.874696e-001 -5.676043e-001 -1.336263e-001 -2.448108e-001 2.308522e-001 9.120565e-003
<VARIANCE> 25
 1.109681e+001 2.211358e+001 2.515310e+001 3.810250e+001 3.212812e+001 4.574808e+001 6.457780e+001 4.930974e+001 4.349596e+001 4.607388e+001 4.988558e+001 4.262124e+001 8.414508e-001 1.671872e+000 2.289361e+000 3.561385e+000 1.851504e+000 2.213270e+000 2.911132e+000 3.812572e+000 4.294941e+000 2.544384e+000 3.365210e+000 2.578219e+000 2.702413e+000
<GCONST> 1.007420e+002
<STATE> 4
<MEAN> 25
 6.502497e+000 1.063431e+000 4.174579e+000 1.948854e+000 -6.580088e-001 5.403146e+000 4.202935e-001 -8.560645e+000 -8.936333e+000 -4.558268e-001 -1.301573e+000 -4.790126e-001 -1.151104e-001 -1.657142e-001 -7.141140e-001 -6.104296e-001 -8.261348e-002 -3.553242e-002 -1.747920e-001 9.805671e-001 9.925696e-001 2.549417e-002 2.409605e-001 -3.828388e-001 2.230409e-001
<VARIANCE> 25
 1.941004e+001 2.460150e+001 3.539686e+001 4.622453e+001 3.934889e+001 4.690549e+001 5.599363e+001 5.534030e+001 5.440849e+001 4.026364e+001 4.291827e+001 3.525581e+001 5.142543e-001 1.447860e+000 2.336974e+000 2.898664e+000 1.723073e+000 1.910196e+000 2.456599e+000 3.499478e+000 3.946981e+000 2.087775e+000 2.607502e+000 2.339981e+000 1.883892e+000
<GCONST> 9.960069e+001
<TRANSP> 5
 0.000000e+000 1.000000e+000 0.000000e+000 0.000000e+000 0.000000e+000
 0.000000e+000 5.924678e-001 4.075322e-001 0.000000e+000 0.000000e+000
 0.000000e+000 0.000000e+000 5.415264e-001 4.584736e-001 0.000000e+000
 0.000000e+000 0.000000e+000 0.000000e+000 8.011155e-001 1.988845e-001
 0.000000e+000 0.000000e+000 0.000000e+000 0.000000e+000 0.000000e+000
<ENDHMM>
~h "n"
<BEGINHMM>
<NUMSTATES> 5
<STATE> 2
<MEAN> 25
 6.785845e+000 -3.736222e+000 3.850948e+000 1.061541e+000 -2.648037e+000 -2.118481e+000 -4.557457e+000 -5.174789e-001 -1.857095e-001 1.845290e+000 -4.943196e+000 -3.511209e+000 5.731059e-001 1.892659e+000 1.765780e+000 2.083515e+000 -4.677595e-001 -8.385149e-001 5.133123e-001 -3.678763e+000 -6.484718e-001 1.029308e+000 -7.259771e-001 8.405208e-001 -1.884408e+000
<VARIANCE> 25
 9.658675e+000 3.136280e+001 3.719511e+001 3.783589e+001 3.919439e+001 4.538216e+001 4.468765e+001 1.073774e+002 4.569585e+001 4.336514e+001 3.724184e+001 3.108171e+001 6.982155e-001 2.101284e+000 3.538004e+000 2.605514e+000 2.939348e+000 4.046421e+000 5.114541e+000 7.101538e+000 5.345764e+000 4.657931e+000 4.551210e+000 2.667232e+000 1.437066e+000
<GCONST> 1.042621e+002
<STATE> 3
<MEAN> 25
 7.646519e+000 8.395371e-001 7.555109e+000 5.090294e+000 -4.201203e+000 -2.798593e+000 -2.479120e+000 -9.507524e+000 -2.150131e+000 4.024925e+000 -6.076705e+000 -7.139444e-001 1.286949e-001 9.067863e-001 4.093267e-001 6.876811e-001 -1.012976e-001 1.565966e-001 5.465184e-001 -1.269806e+000 -4.478188e-001 1.640941e-001 -1.036487e-001 5.754040e-001 -9.268078e-001
<VARIANCE> 25
 8.468787e+000 1.740699e+001 2.261244e+001 2.806521e+001 3.194993e+001 3.990274e+001 5.981832e+001 5.602974e+001 4.441407e+001 4.586065e+001 3.868981e+001 3.175436e+001 6.187980e-001 1.786927e+000 2.160417e+000 2.076020e+000 2.202233e+000 2.477987e+000 3.442380e+000 6.194429e+000 3.249789e+000 2.894948e+000 2.588838e+000 2.049031e+000 1.692404e+000
<GCONST> 9.818810e+001
<STATE> 4
<MEAN> 25
 5.933820e+000 2.796784e+000 6.421164e+000 5.775103e+000 -2.131914e+000 -1.151561e+000 -6.749933e-001 -8.009223e+000 -2.782636e+000 2.202618e+000 -4.696633e+000 5.103874e-001 -5.050857e-001 2.335590e-001 -5.099806e-001 -1.478030e-001 5.651932e-001 2.197945e-001 1.970074e-001 7.475652e-001 5.307957e-002 -5.249286e-001 3.757764e-001 -4.164310e-002 -7.451494e-001
<VARIANCE> 25
 2.308092e+001 2.484179e+001 2.821438e+001 2.874485e+001 4.359092e+001 3.282785e+001 5.384997e+001 5.978596e+001 4.301263e+001 4.734345e+001 3.773653e+001 2.976267e+001 1.083037e+000 1.971056e+000 1.853562e+000 2.108828e+000 2.385927e+000 2.163260e+000 2.846041e+000 4.381128e+000 2.765745e+000 2.517163e+000 2.168364e+000 1.871897e+000 2.705914e+000
<GCONST> 9.960548e+001
<TRANSP> 5
 0.000000e+000 1.000000e+000 0.000000e+000 0.000000e+000 0.000000e+000
 0.000000e+000 6.178001e-001 3.821999e-001 0.000000e+000 0.000000e+000
 0.000000e+000 0.000000e+000 5.384284e-001 4.615717e-001 0.000000e+000
 0.000000e+000 0.000000e+000 0.000000e+000 8.075269e-001 1.924731e-001
 0.000000e+000 0.000000e+000 0.000000e+000 0.000000e+000 0.000000e+000
<ENDHMM>
~h "o"
<BEGINHMM>
<NUMSTATES> 5
<STATE> 2
<MEAN> 25
 5.691074e+000 4.134963e-001 -5.587426e+000 -9.243946e+000 -2.602438e+000 5.886824e+000 -4.062451e+000 -2.191301e+000 -1.546767e-001 1.772962e+000 3.870213e+000 -1.459715e-001 1.618686e+000 -2.251514e-001 -4.471217e-001 -3.003828e+000 -1.282587e+000 2.429760e+000 -6.225950e-001 1.339851e-001 -6.751605e-002 2.411814e-002 1.213338e+000 -2.828285e-001 1.862748e+000
<VARIANCE> 25
 3.006993e+001 3.048583e+001 4.267782e+001 7.213445e+001 5.500175e+001 5.034353e+001 6.883430e+001 4.931280e+001 5.136765e+001 5.146259e+001 3.567296e+001 3.015311e+001 4.016653e+000 2.855949e+000 5.073268e+000 6.396805e+000 6.333313e+000 4.993954e+000 5.311259e+000 5.907419e+000 5.000147e+000 4.860494e+000 3.735299e+000 3.398411e+000 4.866077e+000
<GCONST> 1.118503e+002
<STATE> 3
<MEAN> 25
 7.938117e+000 -4.311154e-001 -6.052551e+000 -1.492020e+001 -4.581185e+000 1.110293e+001 -4.499517e+000 -1.993825e+000 -5.591831e-001 1.407442e+000 6.636747e+000 -1.177359e-001 1.934148e-001 -1.536361e-001 -1.114141e-001 -8.039751e-001 -6.991170e-002 8.129338e-001 2.215481e-001 1.014815e-001 2.864836e-002 -1.908307e-001 2.866904e-001 8.447197e-002 8.765124e-002
<VARIANCE> 25
 1.197868e+001 2.687901e+001 2.547315e+001 4.952435e+001 4.606808e+001 3.806776e+001 5.651382e+001 4.880017e+001 4.820235e+001 5.511374e+001 3.394421e+001 3.448083e+001 8.410693e-001 2.045387e+000 1.576529e+000 4.138402e+000 2.876651e+000 3.279988e+000 3.436018e+000 3.072093e+000 3.524789e+000 3.801323e+000 2.473389e+000 2.345850e+000 3.087611e+000
<GCONST> 1.017031e+002
<STATE> 4
<MEAN> 25
 7.444867e+000 4.130967e-001 -5.363188e+000 -1.395952e+001 -3.898335e+000 1.012110e+001 -2.632737e+000 -1.636781e+000 6.657962e-001 1.150519e-003 4.396589e+000 -5.574910e-002 -2.030872e-001 5.639938e-002 2.363907e-001 1.091382e+000 3.703877e-001 -7.660810e-001 1.663510e-001 -8.099444e-002 1.348899e-001 1.509457e-001 -4.871970e-001 -1.015885e-001 -7.685578e-001
<VARIANCE> 25
 1.707727e+001 3.499326e+001 2.411379e+001 6.611794e+001 4.535192e+001 4.351521e+001 5.946840e+001 4.736198e+001 4.389460e+001 5.260998e+001 2.899921e+001 3.372682e+001 6.995856e-001 1.388116e+000 1.307807e+000 3.388711e+000 2.099269e+000 2.670515e+000 2.545616e+000 2.420824e+000 2.404533e+000 2.611292e+000 1.951063e+000 1.720916e+000 2.162684e+000
<GCONST> 9.869675e+001
<TRANSP> 5
 0.000000e+000 1.000000e+000 0.000000e+000 0.000000e+000 0.000000e+000
 0.000000e+000 6.074980e-001 3.925019e-001 0.000000e+000 0.000000e+000
 0.000000e+000 0.000000e+000 5.547530e-001 4.452470e-001 0.000000e+000
 0.000000e+000 0.000000e+000 0.000000e+000 8.576377e-001 1.423623e-001
 0.000000e+000 0.000000e+000 0.000000e+000 0.000000e+000 0.000000e+000
<ENDHMM>
~h "p"
<BEGINHMM>
<NUMSTATES> 5
<STATE> 2
<MEAN> 25
 2.239157e+000 5.241723e+000 -6.079980e-001 1.351596e+000 1.991609e+000 8.422683e-001 2.531916e+000 -3.626495e+000 -6.213135e-002 1.416744e-001 7.760617e-002 -8.043677e-002 -1.170649e+000 2.223943e-001 -3.784846e-001 4.405836e-001 2.016265e-001 -5.236335e-001 4.681214e-001 1.870164e-001 4.866996e-001 -3.093763e-001 5.283792e-002 3.503835e-001 -1.475922e+000
<VARIANCE> 25
 3.596091e+001 2.507399e+001 2.891507e+001 3.964335e+001 2.467945e+001 3.762012e+001 3.022322e+001 3.499081e+001 3.408255e+001 2.766488e+001 2.522160e+001 2.575820e+001 2.238733e+000 3.345807e+000 2.295113e+000 3.125223e+000 2.594315e+000 3.196750e+000 3.021775e+000 2.876227e+000 3.154997e+000 2.631935e+000 2.310861e+000 1.975418e+000 1.103471e+001
<GCONST> 1.012159e+002
<STATE> 3
<MEAN> 25
 -9.898683e-001 2.196179e+000 -3.259027e+000 -6.179333e-003 1.159191e+000 1.169413e-001 2.518065e+000 -2.227599e+000 1.221101e+000 -3.390870e-001 1.202940e+000 6.584286e-001 5.298390e-001 -2.013219e+000 -1.092183e+000 -1.778360e+000 -5.332937e-001 7.936387e-001 -7.792865e-001 1.921153e-001 4.099382e-001 1.757914e-001 6.215935e-001 -4.801421e-001 4.441962e+000
<VARIANCE> 25
 3.182765e+001 2.758892e+001 2.454713e+001 4.827113e+001 2.433784e+001 4.012024e+001 2.861020e+001 2.641226e+001 2.774974e+001 2.309646e+001 2.191560e+001 2.168048e+001 6.784927e+000 4.353553e+000 3.109571e+000 7.400668e+000 3.395167e+000 7.562829e+000 4.352054e+000 4.060869e+000 3.778782e+000 3.449936e+000 3.168267e+000 3.864391e+000 1.804402e+001
<GCONST> 1.065451e+002
<STATE> 4
<MEAN> 25
 -3.031530e+000 6.168822e-001 -3.912953e+000 6.489615e-001 1.715483e+000 7.596304e-001 2.627967e+000 -8.664298e-001 1.939763e+000 -4.957445e-001 9.894030e-001 1.194595e+000 5.047421e-001 -7.324117e-001 -8.167487e-002 -5.323439e-001 -2.852191e-001 2.704750e-001 -5.331746e-001 8.538669e-002 -2.326580e-002 6.064650e-003 1.490505e-001 -2.888893e-001 2.111141e+000
<VARIANCE> 25
 3.457887e+001 3.091107e+001 1.956052e+001 4.625747e+001 2.353632e+001 4.024926e+001 3.167416e+001 2.467786e+001 2.452208e+001 2.272555e+001 1.976303e+001 2.355124e+001 3.674861e+000 3.155119e+000 2.255124e+000 4.242144e+000 2.623533e+000 4.336676e+000 3.195979e+000 2.985582e+000 2.645797e+000 2.422081e+000 2.259555e+000 2.599382e+000 1.184388e+001
<GCONST> 1.012061e+002
<TRANSP> 5
 0.000000e+000 1.000000e+000 0.000000e+000 0.000000e+000 0.000000e+000
 0.000000e+000 6.684443e-001 3.315557e-001 0.000000e+000 0.000000e+000
 0.000000e+000 0.000000e+000 4.797347e-001 5.202653e-001 0.000000e+000
 0.000000e+000 0.000000e+000 0.000000e+000 7.535033e-001 2.464967e-001
 0.000000e+000 0.000000e+000 0.000000e+000 0.000000e+000 0.000000e+000
<ENDHMM>
~h "q"
<BEGINHMM>
<NUMSTATES> 5
<STATE> 2
<MEAN> 25
 -5.403681e+000 4.231317e+000 1.809526e+000 6.341125e+000 -1.387001e+000 -2.460383e+000 3.870335e+000 -3.084788e+000 7.473242e-002 -3.911454e+000 3.374814e-001 2.219933e+000 -4.251805e-001 -1.238130e-001 -1.560440e-001 -4.596380e-002 2.254008e-001 -1.573917e-001 -6.008109e-002 9.113295e-002 2.135277e-001 -2.804229e-002 -2.518387e-001 8.533964e-001 -5.290501e-001
<VARIANCE> 25
 2.392512e+001 2.679612e+001 5.539566e+001 1.022068e+001 2.198209e+001 3.914380e+001 1.428902e+001 1.089574e+001 5.908680e+001 2.025884e+001 2.206167e+001 2.671193e+001 1.748064e+000 4.512193e+000 7.249691e+000 1.935737e+000 2.230471e+000 3.348021e+000 2.945576e+000 1.076938e+000 4.302386e+000 4.523348e+000 1.771615e+000 3.637198e+000 7.000617e+000
<GCONST> 9.867020e+001
<STATE> 3
<MEAN> 25
 -1.313044e+000 7.181199e-001 1.672095e+000 1.197915e+000 -2.582968e+000 -8.160303e+000 1.255301e+000 -1.324544e-001 -2.735435e+000 -7.270713e-001 1.931224e+000 4.184760e+000 -5.807200e-001 -1.668621e-001 -1.414193e+000 -4.376447e-001 4.430986e-001 4.933020e-001 1.349532e-001 -3.375113e-001 6.762415e-001 -3.054169e-001 -2.098820e-001 2.492723e-001 1.782921e-001
<VARIANCE> 25
 2.607085e+001 5.539943e+001 1.955161e+002 4.103690e+001 6.081347e+001 4.000715e+001 3.593056e+001 4.500464e+001 3.875801e+001 2.632560e+001 3.305732e+001 4.186641e+001 2.828798e+000 5.307459e+000 8.432575e+000 4.890454e+000 5.441310e+000 4.489965e+000 2.520954e+000 3.384798e+000 5.928401e+000 2.682871e+000 3.245619e+000 2.704400e+000 1.248871e+001
<GCONST> 1.107901e+002
<STATE> 4
<MEAN> 25
 -1.043570e+001 3.239098e+000 -4.746091e+000 3.195628e+000 -2.817136e-002 2.981424e-003 7.962905e+000 -4.718297e+000 4.381618e+000 -3.283514e+000 1.215640e-001 2.340778e+000 -1.911610e-001 1.608664e-001 -5.799907e-002 -1.746710e-001 2.052992e-001 4.162493e-001 1.274807e-001 2.686386e-002 1.765013e-001 -5.064569e-002 -1.660599e-001 6.159861e-002 2.070121e-002
<VARIANCE> 25
 5.407909e+001 1.302223e+001 2.113844e+001 1.929830e+001 1.526729e+001 2.536928e+001 3.414823e+001 1.505712e+001 2.258235e+001 1.380106e+001 2.836194e+001 1.129969e+001 1.241254e+000 2.175895e+000 2.440089e+000 9.944871e-001 2.156620e+000 1.721754e+000 1.878011e+000 1.764285e+000 1.983049e+000 1.641504e+000 1.856564e+000 1.470284e+000 2.019427e+000
<GCONST> 8.950586e+001
<TRANSP> 5
 0.000000e+000 1.000000e+000 0.000000e+000 0.000000e+000 0.000000e+000
 0.000000e+000 7.342123e-001 2.657877e-001 0.000000e+000 0.000000e+000
 0.000000e+000 0.000000e+000 8.555840e-001 1.444161e-001 0.000000e+000
 0.000000e+000 0.000000e+000 0.000000e+000 9.299766e-001 7.002342e-002
 0.000000e+000 0.000000e+000 0.000000e+000 0.000000e+000 0.000000e+000
<ENDHMM>
~h "r"
<BEGINHMM>
<NUMSTATES> 5
<STATE> 2
<MEAN> 25
 4.818493e+000 -4.886282e+000 -3.569342e+000 -9.584040e-002 -2.657043e+000 -6.917477e-001 -4.957971e+000 3.685465e-001 5.970541e+000 2.193200e+000 3.959936e-001 -2.783077e+000 3.569417e-001 -5.258949e-002 1.490816e-001 1.172114e+000 -2.196099e-001 -1.946736e-001 -5.609328e-001 -3.996048e-001 5.402538e-001 -9.235879e-002 1.972924e-001 1.095755e-001 -6.120595e-001
<VARIANCE> 25
 2.527730e+001 2.907198e+001 4.094924e+001 4.365739e+001 4.529041e+001 4.503648e+001 5.908641e+001 7.084796e+001 4.553605e+001 3.869094e+001 3.608791e+001 3.321304e+001 2.728633e+000 2.845417e+000 2.896466e+000 5.250625e+000 4.610439e+000 4.842910e+000 5.062893e+000 5.403637e+000 5.020855e+000 4.624459e+000 3.983998e+000 3.518837e+000 4.718857e+000
<GCONST> 1.090816e+002
<STATE> 3
<MEAN> 25
 5.761162e+000 -4.809487e+000 -2.717060e+000 1.985322e+000 -3.221212e+000 -9.137690e-001 -6.183282e+000 -2.102352e-001 6.306555e+000 2.123502e+000 1.050916e+000 -2.540414e+000 5.824161e-002 1.027781e-001 3.733278e-001 4.839596e-001 1.889093e-002 -1.259698e-001 -1.104688e-001 -4.989894e-002 -3.638822e-001 -1.835098e-001 1.599607e-001 2.938026e-001 -6.706638e-001
<VARIANCE> 25
 2.344187e+001 2.874761e+001 4.309075e+001 3.995956e+001 4.603824e+001 4.603654e+001 6.160070e+001 6.673403e+001 4.664651e+001 4.116265e+001 3.620523e+001 3.270683e+001 2.498746e+000 2.789356e+000 2.873221e+000 4.025282e+000 4.557076e+000 4.775820e+000 5.004423e+000 5.532554e+000 4.707349e+000 4.402572e+000 3.609179e+000 3.590959e+000 3.982071e+000
<GCONST> 1.082942e+002
<STATE> 4
<MEAN> 25
 3.531808e+000 -3.446458e+000 -2.441881e+000 2.538512e+000 -1.536218e+000 -6.796884e-001 -3.489801e+000 -3.412932e-002 4.204649e+000 6.417885e-001 4.880619e-001 -9.431649e-001 -1.814865e-001 2.172230e-001 3.929442e-001 -1.118165e-001 1.542720e-001 1.921745e-002 3.272573e-001 9.569465e-002 -7.415020e-001 -1.849259e-001 1.782692e-002 2.282410e-001 -4.083639e-001
<VARIANCE> 25
 4.282390e+001 3.811829e+001 4.779065e+001 3.934274e+001 4.929817e+001 4.960706e+001 6.903149e+001 5.969888e+001 4.586096e+001 4.061110e+001 3.742139e+001 3.365220e+001 1.817658e+000 2.204252e+000 2.416007e+000 2.464210e+000 3.427311e+000 3.265502e+000 3.519237e+000 3.707400e+000 3.566996e+000 2.878927e+000 2.608832e+000 2.360677e+000 2.833453e+000
<GCONST> 1.050219e+002
<TRANSP> 5
 0.000000e+000 1.000000e+000 0.000000e+000 0.000000e+000 0.000000e+000
 0.000000e+000 4.364364e-001 5.635637e-001 0.000000e+000 0.000000e+000
 0.000000e+000 0.000000e+000 3.995592e-001 6.004409e-001 0.000000e+000
 0.000000e+000 0.000000e+000 0.000000e+000 6.268774e-001 3.731227e-001
 0.000000e+000 0.000000e+000 0.000000e+000 0.000000e+000 0.000000e+000
<ENDHMM>
~h "s"
<BEGINHMM>
<NUMSTATES> 5
<STATE> 2
<MEAN> 25
 -6.843288e+000 5.994654e+000 4.252672e-003 2.724404e+000 5.055237e+000 -4.404303e+000 2.207167e+000 1.417196e+000 1.508134e+000 -6.433838e-001 -1.165109e+000 2.205517e+000 -4.357336e+000 1.681209e+000 -9.928950e-001 7.656674e-001 1.575500e+000 -3.975743e-001 1.673110e+000 6.871809e-001 5.783090e-001 -4.518910e-001 7.368898e-001 7.732912e-001 -6.929067e-001
<VARIANCE> 25
 7.124243e+001 4.059968e+001 4.191386e+001 3.535128e+001 4.018309e+001 4.069030e+001 6.372599e+001 4.658191e+001 4.371280e+001 3.210970e+001 3.429266e+001 2.620929e+001 3.563157e+000 5.905576e+000 3.783397e+000 4.272918e+000 4.674459e+000 4.130358e+000 5.611008e+000 4.888732e+000 4.192062e+000 3.703466e+000 3.370965e+000 2.657999e+000 2.391578e+000
<GCONST> 1.085696e+002
<STATE> 3
<MEAN> 25
 -2.020437e+001 5.780199e+000 -5.190166e+000 2.082961e+000 6.834917e+000 -4.344242e+000 5.284698e+000 2.970383e+000 2.783204e+000 -2.650335e-001 1.912962e+000 4.340497e+000 -9.619130e-001 -4.937090e-001 -5.772434e-001 -2.609469e-001 -1.026993e-001 4.206203e-002 7.046057e-002 9.185915e-002 1.375788e-001 1.360215e-001 2.307670e-001 1.724840e-001 -2.587683e-001
<VARIANCE> 25
 2.528647e+001 2.253251e+001 3.101351e+001 2.970688e+001 2.590630e+001 2.767239e+001 4.764180e+001 3.290774e+001 3.163073e+001 2.358482e+001 2.154160e+001 1.994334e+001 3.825712e+000 1.541420e+000 1.936984e+000 1.550006e+000 1.718410e+000 1.808397e+000 1.971538e+000 1.909971e+000 1.845124e+000 1.705771e+000 1.666803e+000 1.387993e+000 1.445844e+000
<GCONST> 9.341551e+001
<STATE> 4
<MEAN> 25
 -1.408577e+001 2.635674e+000 -4.531349e+000 1.268524e+000 4.340066e+000 -3.536363e+000 2.981621e+000 1.737305e+000 3.224393e+000 -5.508100e-001 8.363591e-001 2.854393e+000 2.686460e+000 -3.029984e-001 8.453102e-001 -2.548939e-001 -7.665654e-001 7.812077e-002 -1.059481e+000 -5.960476e-001 -2.100063e-001 -1.393178e-002 -4.628283e-001 -7.274019e-001 2.103476e-001
<VARIANCE> 25
 7.182786e+001 2.513433e+001 3.571970e+001 2.743137e+001 2.901983e+001 3.346421e+001 4.819267e+001 3.339701e+001 3.180915e+001 2.352821e+001 2.245073e+001 2.170139e+001 8.929785e+000 2.662702e+000 3.338552e+000 2.726817e+000 2.718730e+000 2.927342e+000 4.352154e+000 3.537511e+000 3.293489e+000 2.333176e+000 2.405108e+000 2.346010e+000 3.898594e+000
<GCONST> 1.027175e+002
<TRANSP> 5
 0.000000e+000 1.000000e+000 0.000000e+000 0.000000e+000 0.000000e+000
 0.000000e+000 7.073293e-001 2.926706e-001 0.000000e+000 0.000000e+000
 0.000000e+000 0.000000e+000 8.180290e-001 1.819711e-001 0.000000e+000
 0.000000e+000 0.000000e+000 0.000000e+000 8.200219e-001 1.799781e-001
 0.000000e+000 0.000000e+000 0.000000e+000 0.000000e+000 0.000000e+000
<ENDHMM>
~h "t"
<BEGINHMM>
<NUMSTATES> 5
<STATE> 2
<MEAN> 25
 1.112184e-001 4.718135e+000 -5.159386e-001 2.341685e+000 1.908849e+000 -3.055006e+000 4.106746e-001 -1.779831e+000 2.376232e+000 5.154387e-001 -1.109881e+000 -9.426388e-002 -9.814110e-001 2.242118e-001 -3.695666e-001 2.390514e-001 2.344321e-001 -1.516375e-001 7.579900e-001 -8.085923e-002 2.015166e-001 -3.278752e-001 1.630513e-001 3.466668e-001 -1.717729e+000
<VARIANCE> 25
 2.773994e+001 2.732950e+001 2.998962e+001 3.123386e+001 2.907708e+001 3.296872e+001 4.227850e+001 3.755075e+001 3.594719e+001 2.974402e+001 2.826728e+001 2.404678e+001 2.166034e+000 3.852219e+000 2.241203e+000 3.015905e+000 3.068297e+000 2.799748e+000 3.368928e+000 3.244514e+000 2.878036e+000 2.533343e+000 2.357742e+000 1.996271e+000 9.880447e+000
<GCONST> 1.015528e+002
<STATE> 3
<MEAN> 25
 -3.980054e+000 2.487671e+000 -2.292014e+000 1.433934e+000 1.999083e+000 -3.253019e+000 2.272190e+000 -1.058544e+000 2.679946e+000 -2.413328e-001 -5.551030e-001 1.204717e+000 -1.030913e+000 -1.424654e+000 -6.866862e-001 -9.651057e-001 -6.627075e-003 -1.680525e-001 -1.123856e-001 3.939953e-001 2.109777e-001 -9.069226e-002 1.923808e-001 1.531137e-001 2.841801e+000
<VARIANCE> 25
 2.937663e+001 3.117234e+001 2.636495e+001 2.815816e+001 2.651598e+001 3.325028e+001 3.543388e+001 3.138698e+001 3.354302e+001 2.603755e+001 2.487496e+001 2.265086e+001 3.952646e+000 3.877622e+000 3.076760e+000 3.831770e+000 3.194577e+000 3.723461e+000 4.764263e+000 3.720567e+000 4.062158e+000 2.798062e+000 3.091367e+000 2.826253e+000 1.793003e+001
<GCONST> 1.043114e+002
<STATE> 4
<MEAN> 25
 -5.090457e+000 -6.434466e-001 -3.624404e+000 -7.768404e-001 1.788056e+000 -2.827489e+000 1.423048e+000 -2.168575e-002 2.967829e+000 -3.723225e-001 -4.554006e-001 1.079254e+000 9.003799e-001 -7.427206e-001 1.923382e-001 -8.824142e-001 -4.476625e-001 1.760074e-001 -1.211192e+000 1.722362e-002 -8.737174e-002 1.519232e-001 2.194900e-002 -5.802435e-001 3.733437e+000
<VARIANCE> 25
 3.469454e+001 2.886575e+001 2.417064e+001 3.153235e+001 2.680387e+001 3.637833e+001 4.184445e+001 2.919100e+001 3.178660e+001 2.536839e+001 2.317670e+001 2.481045e+001 5.382319e+000 3.764791e+000 3.817717e+000 4.535994e+000 3.668935e+000 4.635973e+000 5.782345e+000 4.707933e+000 4.641474e+000 3.312881e+000 3.382529e+000 3.515589e+000 1.523755e+001
<GCONST> 1.064604e+002
<TRANSP> 5
 0.000000e+000 1.000000e+000 0.000000e+000 0.000000e+000 0.000000e+000
 0.000000e+000 7.157506e-001 2.842494e-001 0.000000e+000 0.000000e+000
 0.000000e+000 0.000000e+000 4.972395e-001 5.027606e-001 0.000000e+000
 0.000000e+000 0.000000e+000 0.000000e+000 6.664039e-001 3.335961e-001
 0.000000e+000 0.000000e+000 0.000000e+000 0.000000e+000 0.000000e+000
<ENDHMM>
~h "u"
<BEGINHMM>
<NUMSTATES> 5
<STATE> 2
<MEAN> 25
 5.664022e+000 4.204332e+000 -1.411588e+000 -3.547682e+000 -3.000626e+000 2.635366e+000 -6.384009e+000 -5.147271e+000 -3.763211e+000 -2.654162e-001 2.993913e+000 3.070036e-001 1.868987e+000 9.160277e-001 -5.651215e-002 -2.189377e+000 -1.541562e+000 1.879056e+000 -1.395398e+000 -7.799310e-001 -1.452841e+000 -1.319644e-001 1.229217e+000 5.388884e-002 1.179878e+000
<VARIANCE> 25
 2.926958e+001 3.325808e+001 4.033803e+001 6.915528e+001 4.891098e+001 4.842215e+001 7.658700e+001 6.351591e+001 4.704399e+001 4.328036e+001 3.517663e+001 2.924429e+001 4.534875e+000 3.242556e+000 4.266741e+000 5.774442e+000 5.601384e+000 4.936665e+000 6.615755e+000 7.049728e+000 5.452668e+000 5.137267e+000 3.811527e+000 3.421602e+000 4.483923e+000
<GCONST> 1.120318e+002
<STATE> 3
<MEAN> 25
 8.479494e+000 5.584564e+000 -1.901186e+000 -8.670163e+000 -5.856524e+000 7.709906e+000 -7.840683e+000 -6.129302e+000 -6.433208e+000 -1.211761e+000 5.758792e+000 1.182292e+000 3.227122e-001 2.325371e-001 4.361723e-002 -7.259049e-001 -2.196115e-001 7.663311e-001 -2.378372e-002 -1.871651e-002 -2.957143e-001 -4.778954e-002 3.367914e-001 1.562776e-001 -1.141033e-001
<VARIANCE> 25
 1.203627e+001 3.154539e+001 3.017785e+001 6.359255e+001 4.425140e+001 4.329028e+001 6.419849e+001 7.304342e+001 5.207602e+001 5.511732e+001 3.869727e+001 3.480791e+001 1.044595e+000 2.771529e+000 1.990675e+000 5.093927e+000 3.918942e+000 3.694975e+000 5.015500e+000 5.110219e+000 4.427819e+000 4.442806e+000 3.415602e+000 2.773720e+000 3.166435e+000
<GCONST> 1.063010e+002
<STATE> 4
<MEAN> 25
 8.154209e+000 6.116573e+000 -1.289129e+000 -8.035350e+000 -4.754298e+000 6.209780e+000 -6.484847e+000 -4.842706e+000 -4.955517e+000 -8.139743e-001 4.341506e+000 3.973531e-001 -3.946719e-001 -2.709533e-001 2.258358e-001 1.084340e+000 5.721295e-001 -7.661763e-001 5.223118e-001 3.840391e-002 7.397466e-001 2.757627e-001 -5.433348e-001 -1.369221e-001 -7.756280e-001
<VARIANCE> 25
 1.562468e+001 3.651968e+001 3.163034e+001 6.984096e+001 4.553024e+001 4.558572e+001 6.998250e+001 6.302156e+001 5.133448e+001 5.180233e+001 3.970977e+001 3.485297e+001 1.079886e+000 2.145092e+000 1.804294e+000 3.814776e+000 3.115878e+000 3.264298e+000 3.728459e+000 3.574384e+000 3.481488e+000 3.385776e+000 2.984043e+000 2.576338e+000 2.960474e+000
<GCONST> 1.044127e+002
<TRANSP> 5
 0.000000e+000 1.000000e+000 0.000000e+000 0.000000e+000 0.000000e+000
 0.000000e+000 5.828773e-001 4.171227e-001 0.000000e+000 0.000000e+000
 0.000000e+000 0.000000e+000 5.599392e-001 4.400608e-001 0.000000e+000
 0.000000e+000 0.000000e+000 0.000000e+000 8.113905e-001 1.886095e-001
 0.000000e+000 0.000000e+000 0.000000e+000 0.000000e+000 0.000000e+000
<ENDHMM>
~h "w"
<BEGINHMM>
<NUMSTATES> 5
<STATE> 2
<MEAN> 25
 8.542242e+000 1.650624e+000 -2.365018e+000 -8.211596e+000 -3.165678e+000 6.079941e+000 -3.772904e+000 -1.659593e+000 -2.622234e+000 8.965023e-001 3.475284e+000 -9.316958e-001 1.311857e+000 8.718193e-001 -1.570456e-001 -2.088528e+000 -1.136382e+000 1.523120e+000 -2.044013e-001 -3.451425e-001 -1.121125e+000 -4.835636e-001 1.024848e+000 6.609876e-001 3.247768e-001
<VARIANCE> 25
 2.312652e+001 6.607053e+001 2.823107e+001 6.682272e+001 4.462342e+001 5.607848e+001 5.526902e+001 4.794453e+001 5.421431e+001 4.909336e+001 4.082103e+001 3.698521e+001 2.354742e+000 3.216680e+000 2.322610e+000 3.656724e+000 4.085651e+000 4.215643e+000 3.935398e+000 4.206048e+000 4.052614e+000 3.820398e+000 3.344955e+000 3.038297e+000 4.056529e+000
<GCONST> 1.080104e+002
<STATE> 3
<MEAN> 25
 1.094252e+001 2.293308e+000 -2.798895e+000 -1.478518e+001 -7.011274e+000 1.071522e+001 -4.835148e+000 -9.840822e-001 -3.720150e+000 -1.142060e+000 5.761930e+000 1.050421e+000 -1.082590e-001 -6.546352e-001 -3.005804e-001 -6.553774e-001 5.582643e-002 5.667872e-001 -7.287858e-002 -1.272794e-002 3.788876e-001 3.376413e-001 3.852158e-001 -1.008566e-001 6.658696e-001
<VARIANCE> 25
 1.091257e+001 3.774710e+001 2.055231e+001 4.653873e+001 4.412890e+001 4.229645e+001 3.652626e+001 4.477738e+001 4.559136e+001 4.195757e+001 3.178337e+001 3.223611e+001 7.377294e-001 4.099507e+000 1.580626e+000 3.213064e+000 3.424350e+000 3.082327e+000 2.437871e+000 2.421991e+000 3.129599e+000 3.973949e+000 2.728320e+000 3.463699e+000 2.629123e+000
<GCONST> 1.008484e+002
<STATE> 4
<MEAN> 25
 8.648812e+000 -2.827280e+000 -4.821530e+000 -1.522214e+001 -3.448550e+000 1.206497e+001 -4.015008e+000 -1.209175e+000 5.607865e-001 1.325469e+000 4.421009e+000 -3.149828e+000 -4.746104e-001 -8.776076e-001 -1.765552e-001 8.457013e-001 8.068336e-001 -5.559432e-001 -4.100377e-002 2.485024e-001 7.284210e-001 3.810946e-001 -7.771074e-001 -9.169461e-001 4.646856e-001
<VARIANCE> 25
 1.105796e+001 5.086875e+001 2.553731e+001 4.472099e+001 4.204495e+001 4.180471e+001 3.910412e+001 3.992025e+001 5.095624e+001 4.840981e+001 3.616781e+001 4.115107e+001 4.488469e-001 2.009630e+000 1.034750e+000 2.189285e+000 2.147242e+000 2.537771e+000 1.490132e+000 1.853934e+000 2.123314e+000 1.957666e+000 2.213855e+000 2.626381e+000 1.217534e+000
<GCONST> 9.606902e+001
<TRANSP> 5
 0.000000e+000 1.000000e+000 0.000000e+000 0.000000e+000 0.000000e+000
 0.000000e+000 6.629940e-001 3.370060e-001 0.000000e+000 0.000000e+000
 0.000000e+000 0.000000e+000 6.919531e-001 3.080469e-001 0.000000e+000
 0.000000e+000 0.000000e+000 0.000000e+000 8.186539e-001 1.813461e-001
 0.000000e+000 0.000000e+000 0.000000e+000 0.000000e+000 0.000000e+000
<ENDHMM>
~h "y"
<BEGINHMM>
<NUMSTATES> 5
<STATE> 2
<MEAN> 25
 9.982073e-001 -1.359498e+000 9.587855e+000 -1.804197e+000 -7.530347e+000 -4.517449e+000 -3.537142e+000 3.873296e+000 -3.021621e+000 -2.045657e+000 2.357398e+000 1.291924e+000 -1.341743e-001 7.511024e-001 2.296730e+000 2.512198e-002 -1.288959e+000 -4.921868e-001 -9.970249e-001 -4.037995e-001 -1.361645e+000 -2.326763e-001 1.207434e+000 7.517743e-001 4.206609e-001
<VARIANCE> 25
 2.220777e+001 5.497864e+001 7.076174e+001 3.426470e+001 5.159338e+001 4.890521e+001 5.239221e+001 6.563708e+001 6.535940e+001 4.467149e+001 3.395451e+001 2.902112e+001 1.570395e+000 2.733582e+000 4.042759e+000 2.439124e+000 3.229053e+000 3.264095e+000 3.627010e+000 4.501395e+000 3.964014e+000 3.609640e+000 2.623850e+000 2.355803e+000 3.506649e+000
<GCONST> 1.063267e+002
<STATE> 3
<MEAN> 25
 1.158677e+000 -3.118548e-001 1.596259e+001 -1.707771e+000 -1.187887e+001 -4.877110e+000 -7.435837e+000 1.924489e+000 -6.866318e+000 -2.220821e+000 5.732680e+000 3.306570e+000 1.794419e-001 -8.139732e-001 -9.103343e-001 -2.758277e-001 -4.103929e-001 -3.542405e-001 1.711961e-001 8.687637e-001 8.399256e-001 3.363390e-001 -3.526034e-003 5.401405e-002 7.740117e-001
<VARIANCE> 25
 1.034999e+001 2.696451e+001 4.401385e+001 3.548388e+001 2.687695e+001 3.743499e+001 3.385866e+001 5.156339e+001 5.490992e+001 5.548362e+001 2.728399e+001 2.745343e+001 5.746437e-001 2.508343e+000 4.132692e+000 1.357444e+000 2.311057e+000 1.897860e+000 2.405782e+000 4.265381e+000 4.027520e+000 2.425714e+000 2.045503e+000 1.665596e+000 1.689347e+000
<GCONST> 9.787790e+001
<STATE> 4
<MEAN> 25
 1.647806e+000 -5.428793e+000 5.469675e+000 -2.941406e+000 -9.334194e+000 -5.708288e+000 -2.580571e+000 8.142323e+000 -2.782416e-002 -1.975456e+000 2.118306e+000 8.370913e-001 2.502279e-001 -8.562378e-001 -1.571910e+000 -2.476717e-001 1.033053e+000 5.765021e-001 4.946718e-001 7.607301e-001 1.002684e+000 -1.895522e-001 -1.177423e+000 -8.644786e-001 3.580394e-001
<VARIANCE> 25
 1.318955e+001 2.911108e+001 4.626788e+001 3.046356e+001 4.464137e+001 3.192077e+001 4.466259e+001 7.098927e+001 4.890197e+001 3.033488e+001 3.456715e+001 2.763443e+001 2.743275e-001 1.128405e+000 2.479785e+000 8.722063e-001 2.104495e+000 1.581702e+000 1.807928e+000 2.870249e+000 2.056177e+000 2.086179e+000 2.378216e+000 1.771917e+000 4.502270e-001
<GCONST> 9.318066e+001
<TRANSP> 5
 0.000000e+000 1.000000e+000 0.000000e+000 0.000000e+000 0.000000e+000
 0.000000e+000 7.414129e-001 2.585870e-001 0.000000e+000 0.000000e+000
 0.000000e+000 0.000000e+000 7.312959e-001 2.687041e-001 0.000000e+000
 0.000000e+000 0.000000e+000 0.000000e+000 8.030912e-001 1.969088e-001
 0.000000e+000 0.000000e+000 0.000000e+000 0.000000e+000 0.000000e+000
<ENDHMM>
~h "z"
<BEGINHMM>
<NUMSTATES> 5
<STATE> 2
<MEAN> 25
 -3.041452e+000 9.509710e+000 2.399909e+000 5.641720e+000 2.606346e+000 -6.346780e+000 -7.208261e-001 -1.022487e+000 8.606939e-001 -1.279636e+000 -1.357350e+000 2.392822e+000 -1.983274e+000 1.748803e+000 -6.557106e-001 7.996669e-001 1.192014e+000 -6.934366e-002 1.069451e+000 8.303062e-002 5.128073e-001 -2.229872e-001 2.254179e-001 5.039534e-001 -8.453828e-001
<VARIANCE> 25
 4.054076e+001 4.177531e+001 4.211890e+001 3.149242e+001 4.281543e+001 3.583731e+001 6.273344e+001 4.229337e+001 3.949390e+001 3.898675e+001 2.968721e+001 3.169124e+001 3.114899e+000 4.338250e+000 2.442029e+000 2.415806e+000 3.160932e+000 3.020257e+000 3.280700e+000 4.496360e+000 3.184849e+000 3.000925e+000 2.451727e+000 2.281664e+000 2.345482e+000
<GCONST> 1.041349e+002
<STATE> 3
<MEAN> 25
 -1.101108e+001 1.287828e+001 8.071734e-001 7.715542e+000 6.139254e+000 -5.975253e+000 2.852671e+000 -3.405922e-001 1.727471e+000 -9.484721e-001 -8.574063e-002 4.158404e+000 -1.115396e+000 -3.291272e-001 -1.626495e-001 -4.054196e-003 2.411454e-001 1.705160e-001 2.673013e-001 5.037294e-002 -1.089126e-001 3.792555e-002 2.611842e-001 2.527750e-001 6.764132e-002
<VARIANCE> 25
 5.311445e+001 4.053300e+001 3.301535e+001 3.187019e+001 2.606155e+001 3.404245e+001 5.364332e+001 2.948465e+001 3.292817e+001 2.855393e+001 2.140781e+001 2.277639e+001 2.575268e+000 2.261529e+000 1.639048e+000 1.477741e+000 2.199818e+000 2.090662e+000 2.112134e+000 1.954027e+000 1.862206e+000 1.442353e+000 1.503216e+000 1.386339e+000 1.851262e+000
<GCONST> 9.569830e+001
<STATE> 4
<MEAN> 25
 -9.871702e+000 4.531542e+000 -1.293695e+000 3.355755e+000 4.587949e+000 -1.004266e+000 1.679861e+000 1.780402e+000 7.040161e-001 -6.149779e-001 5.794808e-001 3.106242e+000 3.693795e-001 -2.913836e-001 2.316765e-001 -1.615155e-001 -3.124697e-001 -1.727584e-001 -2.869009e-001 -1.276803e-001 -5.472098e-004 4.921010e-002 1.177701e-002 -2.221351e-002 4.517663e-001
<VARIANCE> 25
 5.619016e+001 4.652644e+001 3.419695e+001 2.696740e+001 3.192538e+001 3.399313e+001 3.725060e+001 2.934511e+001 2.703347e+001 1.973668e+001 1.879720e+001 1.836007e+001 2.712304e+000 1.775849e+000 1.561973e+000 1.441069e+000 2.228801e+000 1.815125e+000 2.138775e+000 2.048389e+000 1.819563e+000 1.506447e+000 1.466092e+000 1.359228e+000 1.761350e+000
<GCONST> 9.427450e+001
<TRANSP> 5
 0.000000e+000 1.000000e+000 0.000000e+000 0.000000e+000 0.000000e+000
 0.000000e+000 7.633139e-001 2.366862e-001 0.000000e+000 0.000000e+000
 0.000000e+000 0.000000e+000 7.030019e-001 2.969981e-001 0.000000e+000
 0.000000e+000 0.000000e+000 0.000000e+000 8.806558e-001 1.193442e-001
 0.000000e+000 0.000000e+000 0.000000e+000 0.000000e+000 0.000000e+000
<ENDHMM>
~h "ai"
<BEGINHMM>
<NUMSTATES> 5
<STATE> 2
<MEAN> 25
 4.265791e+000 -1.052744e+001 -7.602546e-001 -4.876606e+000 -3.129366e+000 -1.697842e+000 -2.997320e+000 9.688850e+000 2.648489e+000 -1.262589e+000 -3.334735e+000 -4.083214e+000 2.071887e-002 -5.159615e-001 1.505024e+000 -2.254067e-001 -1.688225e+000 -1.190106e+000 4.225260e-001 1.866297e+000 -5.953912e-001 -4.368976e-001 4.044694e-001 5.215611e-001 6.597505e-001
<VARIANCE> 25
 9.913121e+000 2.438513e+001 3.839682e+001 2.305780e+001 4.037193e+001 6.214148e+001 3.638634e+001 4.146753e+001 4.303222e+001 3.895877e+001 4.472567e+001 3.030085e+001 1.340626e+000 2.593932e+000 2.054562e+000 2.365969e+000 2.894196e+000 3.805096e+000 3.110305e+000 4.090332e+000 2.784393e+000 2.545630e+000 3.471267e+000 2.755482e+000 1.910974e+000
<GCONST> 1.006377e+002
<STATE> 3
<MEAN> 25
 3.288907e+000 -8.619263e+000 5.876494e+000 -4.627638e+000 -1.035671e+001 -6.810686e+000 -1.551383e+000 1.217606e+001 -7.194146e-001 -4.999615e-001 1.624179e+000 -9.841003e-001 -2.933956e-001 7.876301e-001 1.748011e+000 -1.547926e-001 -1.484173e+000 -5.945278e-001 -7.979552e-002 -5.635124e-001 -1.195734e+000 6.276258e-001 1.391794e+000 5.874413e-001 -2.868781e-001
<VARIANCE> 25
 7.585480e+000 1.709462e+001 3.218305e+001 1.977290e+001 3.048809e+001 3.461186e+001 3.567035e+001 4.171028e+001 4.273295e+001 3.323392e+001 4.994206e+001 2.594871e+001 3.631275e-001 1.504201e+000 1.672132e+000 1.155469e+000 1.746725e+000 1.903252e+000 2.293224e+000 3.611536e+000 2.468348e+000 2.196591e+000 2.259187e+000 1.661715e+000 7.863922e-001
<GCONST> 9.210207e+001
<STATE> 4
<MEAN> 25
 2.316065e+000 -2.471423e+000 1.175366e+001 -3.355622e+000 -1.168565e+001 -7.505758e+000 -2.594442e+000 5.014336e+000 -5.652533e+000 1.881481e+000 4.034970e+000 3.567062e-001 -4.085012e-002 7.998068e-001 -5.420749e-002 5.006098e-001 5.459183e-001 1.561121e-001 9.718651e-002 -8.780774e-001 -6.679720e-002 -5.910756e-002 -1.473785e-001 1.168021e-001 -1.194111e+000
<VARIANCE> 25
 1.059762e+001 3.609047e+001 3.908143e+001 3.139380e+001 3.082465e+001 3.701590e+001 3.414713e+001 7.015168e+001 4.170477e+001 3.320525e+001 3.170088e+001 2.491896e+001 7.510985e-001 1.445573e+000 2.433360e+000 1.772346e+000 2.632142e+000 1.868881e+000 2.395700e+000 2.786304e+000 2.922271e+000 1.984895e+000 1.934320e+000 1.297187e+000 2.052874e+000
<GCONST> 9.616467e+001
<TRANSP> 5
 0.000000e+000 1.000000e+000 0.000000e+000 0.000000e+000 0.000000e+000
 0.000000e+000 7.081960e-001 2.918040e-001 0.000000e+000 0.000000e+000
 0.000000e+000 0.000000e+000 6.421628e-001 3.578372e-001 0.000000e+000
 0.000000e+000 0.000000e+000 0.000000e+000 8.912894e-001 1.087107e-001
 0.000000e+000 0.000000e+000 0.000000e+000 0.000000e+000 0.000000e+000
<ENDHMM>
~h "au"
<BEGINHMM>
<NUMSTATES> 5
<STATE> 2
<MEAN> 25
 5.865733e+000 -6.038328e+000 -6.507370e+000 -1.011674e+001 8.088323e-002 9.611673e+000 -4.810678e+000 -1.263758e+000 5.876234e+000 2.129294e+000 -3.560181e-001 -6.261078e+000 2.934853e-001 1.413431e-001 -3.032146e-001 -8.508155e-001 -1.328597e-001 1.225671e+000 -1.016102e-001 -5.498400e-001 -1.682432e-001 -1.285142e-001 8.637081e-001 9.962575e-002 -5.835181e-002
<VARIANCE> 25
 1.156325e+001 2.288336e+001 1.884384e+001 4.113030e+001 2.765768e+001 3.897034e+001 3.763151e+001 3.951546e+001 2.829288e+001 3.127902e+001 3.180502e+001 2.797206e+001 5.484220e-001 1.369938e+000 9.324085e-001 1.294937e+000 1.482284e+000 2.300609e+000 1.730579e+000 2.016601e+000 2.065703e+000 1.788375e+000 2.237494e+000 1.930194e+000 6.163688e-001
<GCONST> 9.070674e+001
<STATE> 3
<MEAN> 25
 7.780299e+000 -2.388669e+000 -6.797955e+000 -1.500449e+001 -2.801404e+000 1.365702e+001 -5.225406e+000 -3.241160e+000 3.562332e+000 8.528395e-001 4.824143e+000 -3.560068e+000 2.879515e-001 9.866215e-001 1.196424e-001 -4.887296e-001 -6.264761e-001 1.878816e-001 -1.208069e-001 1.998127e-003 -6.600196e-001 -4.857398e-001 6.537101e-001 7.755626e-001 -5.267388e-001
<VARIANCE> 25
 9.596693e+000 2.124509e+001 1.607957e+001 4.361940e+001 2.832688e+001 2.986432e+001 3.913189e+001 3.361392e+001 3.798472e+001 3.162892e+001 2.916695e+001 3.801794e+001 2.902734e-001 1.087532e+000 6.448948e-001 1.204760e+000 1.154275e+000 1.466534e+000 1.422038e+000 1.447114e+000 1.767406e+000 1.880171e+000 1.702414e+000 1.798645e+000 4.228370e-001
<GCONST> 8.714404e+001
<STATE> 4
<MEAN> 25
 5.985753e+000 2.906794e+000 -5.365076e+000 -1.005512e+001 -3.177979e+000 9.675829e+000 -2.697062e+000 -1.545928e+000 6.640997e-001 -1.483347e+000 3.751816e+000 -6.702420e-001 -8.188710e-002 2.789618e-001 2.059996e-001 5.371787e-001 1.000138e-001 -4.918282e-001 3.272501e-002 3.353408e-002 -2.839138e-001 1.123572e-001 -1.816876e-001 1.230240e-001 -5.823663e-001
<VARIANCE> 25
 3.373295e+001 2.559477e+001 2.223027e+001 9.052887e+001 3.467694e+001 5.182831e+001 4.349622e+001 3.170081e+001 4.179059e+001 3.137292e+001 2.599668e+001 3.487206e+001 5.489346e-001 1.012771e+000 9.770480e-001 2.076759e+000 1.490564e+000 1.728836e+000 1.872114e+000 1.496989e+000 1.897941e+000 1.863010e+000 1.598107e+000 1.502103e+000 9.892288e-001
<GCONST> 9.325168e+001
<TRANSP> 5
 0.000000e+000 1.000000e+000 0.000000e+000 0.000000e+000 0.000000e+000
 0.000000e+000 7.419724e-001 2.580276e-001 0.000000e+000 0.000000e+000
 0.000000e+000 0.000000e+000 8.025321e-001 1.974679e-001 0.000000e+000
 0.000000e+000 0.000000e+000 0.000000e+000 9.012709e-001 9.872908e-002
 0.000000e+000 0.000000e+000 0.000000e+000 0.000000e+000 0.000000e+000
<ENDHMM>
~h "kh"
<BEGINHMM>
<NUMSTATES> 5
<STATE> 2
<MEAN> 25
 -3.181941e+000 -2.641526e-001 -4.044736e+000 1.101948e+000 5.943679e+000 3.167284e-001 3.229563e+000 4.193862e-001 6.499972e-001 8.989143e-001 -9.669828e-001 1.620647e+000 -1.338073e+000 -6.769013e-001 -1.292237e+000 -1.066153e-001 1.093810e+000 -3.419563e-001 1.871158e-001 3.537628e-001 1.806448e-001 1.022095e-001 1.743360e-001 4.160012e-001 2.341087e-001
<VARIANCE> 25
 3.969236e+001 4.960751e+001 4.955279e+001 4.431033e+001 5.178140e+001 6.249691e+001 4.151194e+001 4.017102e+001 5.241253e+001 3.957171e+001 3.743655e+001 2.683917e+001 4.004742e+000 4.787334e+000 5.288606e+000 4.074842e+000 5.318896e+000 4.752685e+000 4.651628e+000 3.490022e+000 4.163947e+000 3.444879e+000 3.162297e+000 2.488857e+000 7.292052e+000
<GCONST> 1.100317e+002
<STATE> 3
<MEAN> 25
 -7.438513e+000 -4.473720e+000 -9.635261e+000 -2.220917e+000 8.935966e+000 -4.235966e-001 2.023417e+000 2.580158e+000 2.068799e+000 1.956868e+000 1.035513e+000 2.714710e+000 -5.234982e-001 -3.897371e-001 -4.563948e-001 -3.567820e-001 -9.712442e-002 1.656542e-001 1.695586e-001 1.607560e-001 -2.784856e-002 -4.414127e-002 3.585809e-001 6.502633e-002 1.321445e-001
<VARIANCE> 25
 2.545124e+001 3.326966e+001 4.993549e+001 5.123762e+001 5.947527e+001 5.855957e+001 5.220828e+001 4.181747e+001 4.726950e+001 4.401460e+001 3.004330e+001 3.522823e+001 1.876190e+000 2.332192e+000 3.234094e+000 3.000067e+000 3.459577e+000 3.715045e+000 3.375570e+000 2.759525e+000 2.642639e+000 2.997550e+000 2.376354e+000 2.157397e+000 2.756885e+000
<GCONST> 1.042363e+002
<STATE> 4
<MEAN> 25
 -5.734626e+000 -1.280254e+000 -6.250164e+000 1.904484e-001 4.874472e+000 1.816750e+000 3.707967e+000 8.253624e-001 1.688150e+000 -4.438366e-001 1.350413e+000 1.631978e+000 4.930387e-001 2.392614e-001 3.477868e-001 -4.787380e-002 -3.654794e-001 1.407082e-001 2.221451e-002 -2.426777e-001 -1.548673e-001 -9.280743e-002 -5.157585e-002 -1.945375e-001 2.017020e-001
<VARIANCE> 25
 3.123709e+001 4.243532e+001 4.822915e+001 4.336929e+001 4.421779e+001 4.031717e+001 3.748081e+001 3.085334e+001 3.552549e+001 3.021346e+001 2.209442e+001 2.506264e+001 2.612619e+000 1.764028e+000 2.154848e+000 2.084924e+000 2.130187e+000 2.214297e+000 2.350024e+000 2.423489e+000 2.280332e+000 2.037531e+000 1.782535e+000 1.750355e+000 1.965379e+000
<GCONST> 9.828723e+001
<TRANSP> 5
 0.000000e+000 1.000000e+000 0.000000e+000 0.000000e+000 0.000000e+000
 0.000000e+000 7.559694e-001 2.440306e-001 0.000000e+000 0.000000e+000
 0.000000e+000 0.000000e+000 6.634545e-001 3.365456e-001 0.000000e+000
 0.000000e+000 0.000000e+000 0.000000e+000 9.039727e-001 9.602734e-002
 0.000000e+000 0.000000e+000 0.000000e+000 0.000000e+000 0.000000e+000
<ENDHMM>
~h "ng"
<BEGINHMM>
<NUMSTATES> 5
<STATE> 2
<MEAN> 25
 7.242728e+000 -1.563612e+000 1.396539e+000 -2.946816e+000 -3.635580e+000 3.590727e+000 -5.937135e-001 -1.835885e+000 -4.840616e+000 3.493272e+000 -2.129599e+000 -5.081278e+000 4.105885e-001 9.996172e-001 1.361294e+000 9.323006e-001 -1.198738e+000 -1.552870e-001 1.359905e+000 -2.083737e+000 -8.938994e-001 6.884912e-001 -1.026115e+000 1.451790e+000 -1.162084e+000
<VARIANCE> 25
 8.898897e+000 3.022236e+001 3.384983e+001 3.559785e+001 4.704212e+001 4.418615e+001 5.075441e+001 5.873272e+001 4.333770e+001 4.175812e+001 3.982391e+001 4.557359e+001 5.681450e-001 1.617981e+000 2.594362e+000 2.509026e+000 3.192615e+000 2.687477e+000 4.245441e+000 4.394502e+000 4.737752e+000 2.774808e+000 3.876255e+000 3.839995e+000 9.291605e-001
<GCONST> 1.013475e+002
<STATE> 3
<MEAN> 25
 7.753431e+000 4.078589e-001 4.994274e+000 -1.088717e+000 -6.276628e+000 2.946625e+000 2.150580e+000 -6.250932e+000 -5.746918e+000 4.162678e+000 -4.604790e+000 -3.474047e-001 7.117400e-002 5.648134e-001 6.760420e-001 5.662773e-001 -3.498535e-001 -8.150449e-002 4.145315e-001 -8.487110e-001 -8.590642e-002 2.757944e-002 -3.819461e-001 7.611985e-001 -7.042575e-001
<VARIANCE> 25
 8.162536e+000 2.139605e+001 2.574593e+001 3.569815e+001 3.589222e+001 3.822355e+001 4.889217e+001 4.506434e+001 4.127606e+001 3.543311e+001 3.656343e+001 3.616200e+001 4.975368e-001 1.327570e+000 2.116446e+000 2.094648e+000 2.762432e+000 2.154703e+000 2.807769e+000 3.435007e+000 2.835356e+000 2.258009e+000 2.422704e+000 2.681834e+000 1.060372e+000
<GCONST> 9.624097e+001
<STATE> 4
<MEAN> 25
 6.976648e+000 1.861301e+000 5.019100e+000 3.950148e-001 -4.664307e+000 3.153445e+000 1.810667e+000 -5.670365e+000 -5.492435e+000 3.043492e+000 -4.105191e+000 -6.690333e-001 -3.453760e-001 2.845517e-001 -3.550234e-001 3.289420e-001 6.545963e-001 -2.480929e-001 8.299560e-002 3.580477e-001 1.633083e-001 -2.663956e-001 1.699499e-001 -1.954453e-001 -5.622348e-001
<VARIANCE> 25
 1.407400e+001 2.298853e+001 2.811135e+001 4.332724e+001 4.938807e+001 3.602283e+001 5.227641e+001 4.848840e+001 3.948396e+001 3.541312e+001 3.717145e+001 3.156797e+001 7.422441e-001 1.389047e+000 1.637788e+000 1.934743e+000 2.617661e+000 1.993415e+000 2.294330e+000 3.098274e+000 2.383786e+000 1.974865e+000 1.898711e+000 1.920826e+000 1.903844e+000
<GCONST> 9.674787e+001
<TRANSP> 5
 0.000000e+000 1.000000e+000 0.000000e+000 0.000000e+000 0.000000e+000
 0.000000e+000 5.681000e-001 4.319000e-001 0.000000e+000 0.000000e+000
 0.000000e+000 0.000000e+000 5.354236e-001 4.645764e-001 0.000000e+000
 0.000000e+000 0.000000e+000 0.000000e+000 8.037984e-001 1.962016e-001
 0.000000e+000 0.000000e+000 0.000000e+000 0.000000e+000 0.000000e+000
<ENDHMM>
~h "ny"
<BEGINHMM>
<NUMSTATES> 5
<STATE> 2
<MEAN> 25
 4.769738e+000 1.975678e+000 8.266826e+000 -2.538856e-001 -6.302024e+000 -3.163612e+000 -1.456878e+000 5.867183e-001 -6.325082e+000 -2.356745e+000 1.646500e+000 1.419784e+000 -2.136823e-001 -4.038524e-001 2.985778e-001 -4.577019e-001 -4.298353e-001 1.212028e-001 1.426574e-001 6.985490e-001 -6.872008e-002 -3.750943e-001 1.263956e-001 7.418993e-002 4.970933e-001
<VARIANCE> 25
 1.589585e+001 3.384289e+001 3.049263e+001 5.558804e+001 3.617242e+001 3.131900e+001 3.567658e+001 7.814160e+001 4.372229e+001 4.551855e+001 4.143856e+001 3.791024e+001 1.609868e+000 5.360797e+000 3.051501e+000 4.781361e+000 3.212875e+000 2.647254e+000 3.270427e+000 1.046027e+001 4.550276e+000 3.941827e+000 3.732256e+000 2.572939e+000 3.195572e+000
<GCONST> 1.064106e+002
<STATE> 3
<MEAN> 25
 3.369245e+000 -5.966263e+000 6.520076e+000 -3.540097e+000 -7.428601e+000 -1.862352e+000 -1.174725e+000 9.657238e+000 -2.843394e+000 -5.583834e+000 -1.252153e+000 3.301978e-003 1.517175e-001 -1.434485e+000 -1.453923e+000 2.574426e-001 9.812422e-001 3.406070e-001 -1.617875e-001 1.083039e+000 1.157762e+000 -5.483887e-001 -1.164376e+000 -4.730556e-001 4.252939e-001
<VARIANCE> 25
 9.095840e+000 3.146022e+001 2.840150e+001 2.964408e+001 3.887414e+001 2.514819e+001 2.961188e+001 5.942046e+001 4.848447e+001 3.635028e+001 3.354346e+001 2.509090e+001 4.604786e-001 2.029373e+000 1.457243e+000 1.568869e+000 2.385902e+000 1.431466e+000 1.813003e+000 3.854601e+000 1.988524e+000 2.249578e+000 2.088400e+000 1.743851e+000 1.087778e+000
<GCONST> 9.371333e+001
<STATE> 4
<MEAN> 25
 7.021132e-001 -4.104152e+000 -1.133414e+000 1.071302e+000 1.857485e+000 4.669237e-001 5.268012e-001 6.263913e+000 9.160280e-003 -4.131138e+000 -3.198832e+000 -1.773688e-001 -3.638956e-002 2.578500e-002 -4.010015e-001 1.394316e-001 5.055011e-001 1.666744e-001 -4.032388e-002 -2.508203e-001 2.111931e-001 1.485416e-001 -1.506088e-001 -1.125697e-001 -5.064549e-001
<VARIANCE> 25
 2.036980e+001 4.747062e+001 2.435353e+001 3.014686e+001 4.216246e+001 2.205298e+001 3.059322e+001 5.680636e+001 3.561370e+001 3.547158e+001 2.874188e+001 2.488545e+001 3.894516e-001 9.727430e-001 1.088371e+000 1.077972e+000 1.511377e+000 1.214810e+000 1.433572e+000 1.557108e+000 1.499666e+000 1.472709e+000 1.420193e+000 1.280596e+000 9.613144e-001
<GCONST> 8.938008e+001
<TRANSP> 5
 0.000000e+000 1.000000e+000 0.000000e+000 0.000000e+000 0.000000e+000
 0.000000e+000 8.549596e-001 1.450404e-001 0.000000e+000 0.000000e+000
 0.000000e+000 0.000000e+000 6.705178e-001 3.294821e-001 0.000000e+000
 0.000000e+000 0.000000e+000 0.000000e+000 8.782684e-001 1.217317e-001
 0.000000e+000 0.000000e+000 0.000000e+000 0.000000e+000 0.000000e+000
<ENDHMM>
~h "oi"
<BEGINHMM>
<NUMSTATES> 5
<STATE> 2
<MEAN> 25
 8.283384e+000 -1.796786e+000 -8.447181e+000 -1.254842e+001 -6.760819e+000 1.255804e+001 -2.757123e+000 -3.852734e+000 3.403432e+000 -1.601310e+000 4.592004e+000 2.212476e+000 -9.591164e-002 -4.450809e-001 9.799848e-002 -1.096259e+000 -2.586542e-001 5.272710e-001 -5.243210e-001 2.774414e-002 2.973277e-002 5.803454e-001 3.416763e-001 -5.947980e-001 9.025762e-001
<VARIANCE> 25
 2.314657e+001 3.005519e+001 3.642979e+001 7.592928e+001 4.625112e+001 5.784966e+001 6.109868e+001 4.100981e+001 4.074174e+001 4.486799e+001 3.547426e+001 4.485494e+001 1.094829e+000 1.179115e+000 1.562899e+000 5.189300e+000 3.741767e+000 4.428376e+000 3.300416e+000 2.204873e+000 3.036913e+000 3.650346e+000 2.826395e+000 2.930934e+000 1.300941e+000
<GCONST> 1.029423e+002
<STATE> 3
<MEAN> 25
 4.299877e+000 -5.302085e+000 3.407389e+000 -6.516447e+000 -8.522893e+000 -2.679584e+000 -7.993746e+000 2.252680e+000 -8.352000e-001 3.885496e+000 3.072803e+000 -2.685916e+000 -5.111895e-001 1.263709e-001 1.516279e+000 1.232167e+000 -5.577011e-001 -1.837528e+000 6.863323e-002 5.250937e-001 -9.079219e-001 -1.211077e-001 -2.203626e-001 2.693989e-001 -3.352515e-001
<VARIANCE> 25
 1.030297e+001 2.345708e+001 1.017205e+002 6.444601e+001 4.575785e+001 1.250699e+002 2.819342e+001 7.171384e+001 7.198561e+001 3.835305e+001 4.117835e+001 3.583641e+001 3.568078e-001 1.142754e+000 3.418783e+000 2.446052e+000 3.334969e+000 5.037105e+000 2.356591e+000 4.361499e+000 4.469986e+000 3.365771e+000 3.378219e+000 3.401024e+000 5.166191e-001
<GCONST> 1.025768e+002
<STATE> 4
<MEAN> 25
 -1.742741e-001 -8.758745e-001 5.764557e+000 3.090405e-001 -6.736920e+000 -4.643390e+000 -2.053447e+000 -1.295291e-001 -4.874985e+000 8.948390e-001 1.573378e+000 1.770147e+000 8.091703e-004 9.334671e-002 -3.689328e-001 3.349170e-001 3.419221e-001 -2.250683e-001 1.013964e-001 -5.695068e-002 2.496131e-001 -2.960573e-002 -3.915312e-001 -4.570110e-002 -5.294647e-001
<VARIANCE> 25
 1.824556e+001 2.442936e+001 8.853571e+001 5.668205e+001 5.882842e+001 9.079665e+001 4.323891e+001 4.450433e+001 6.275133e+001 4.325597e+001 2.464697e+001 2.726072e+001 7.275796e-001 9.787232e-001 2.773257e+000 1.414890e+000 2.467109e+000 2.352139e+000 1.644165e+000 2.441111e+000 2.737339e+000 2.025977e+000 1.458833e+000 1.580393e+000 6.714748e-001
<GCONST> 9.745515e+001
<TRANSP> 5
 0.000000e+000 1.000000e+000 0.000000e+000 0.000000e+000 0.000000e+000
 0.000000e+000 8.715661e-001 1.284340e-001 0.000000e+000 0.000000e+000
 0.000000e+000 0.000000e+000 8.973989e-001 1.026011e-001 0.000000e+000
 0.000000e+000 0.000000e+000 0.000000e+000 7.703483e-001 2.296517e-001
 0.000000e+000 0.000000e+000 0.000000e+000 0.000000e+000 0.000000e+000
<ENDHMM>
~h "sy"
<BEGINHMM>
<NUMSTATES> 5
<STATE> 2
<MEAN> 25
 -8.308333e+000 4.665878e+000 3.185114e+000 2.094208e+000 3.363720e+000 -2.924188e+000 3.110489e+000 1.231529e+000 5.844661e-001 -2.079623e+000 -9.037577e-001 2.760132e+000 -3.720857e+000 5.217212e-001 -3.100287e-001 1.651786e-002 7.043819e-001 5.035689e-001 1.040408e+000 3.560098e-001 6.426323e-001 -2.108613e-001 9.107990e-001 3.972647e-001 -1.211336e-001
<VARIANCE> 25
 7.703508e+001 3.644315e+001 5.090652e+001 3.034962e+001 3.966488e+001 4.511525e+001 4.333982e+001 4.012651e+001 3.667085e+001 2.820730e+001 2.780577e+001 2.363147e+001 5.388326e+000 5.230847e+000 3.895898e+000 3.668661e+000 4.630952e+000 4.105116e+000 5.190223e+000 4.266523e+000 3.508063e+000 3.365356e+000 3.605309e+000 2.549601e+000 2.585961e+000
<GCONST> 1.072881e+002
<STATE> 3
<MEAN> 25
 -2.088133e+001 2.640073e+000 9.523357e-001 -1.066040e+000 2.654167e+000 -1.000663e+000 5.637520e+000 1.614993e+000 3.142396e+000 -9.722613e-001 3.842718e+000 4.503461e+000 -7.518615e-001 -7.634022e-001 -9.294731e-002 -5.298296e-001 -5.620949e-001 8.620844e-002 -7.819891e-003 -2.074641e-002 1.860865e-001 2.918380e-001 3.919445e-001 1.876923e-001 2.448432e-001
<VARIANCE> 25
 3.236689e+001 2.431520e+001 3.997277e+001 2.333283e+001 4.146085e+001 3.952967e+001 3.936524e+001 2.885199e+001 3.612006e+001 2.327806e+001 1.912961e+001 1.830532e+001 3.951617e+000 1.215577e+000 2.060268e+000 1.506814e+000 2.024665e+000 1.762548e+000 2.152243e+000 1.662579e+000 1.658410e+000 1.799642e+000 1.565582e+000 1.400892e+000 9.173898e-001
<GCONST> 9.352470e+001
<STATE> 4
<MEAN> 25
 -1.449416e+001 -6.048708e-001 2.953672e+000 -1.376799e+000 -9.211654e-001 -2.013142e+000 2.292606e+000 1.879429e+000 2.314519e+000 -9.257932e-001 2.667354e+000 4.099313e+000 2.023637e+000 -2.951007e-001 4.197505e-001 -2.358703e-002 -6.444448e-001 -5.963017e-001 -7.049005e-001 1.799276e-001 -9.292917e-002 -1.797718e-001 -3.925723e-001 -2.632583e-001 6.540738e-001
<VARIANCE> 25
 9.225990e+001 2.183785e+001 3.819524e+001 2.328493e+001 5.524492e+001 3.461086e+001 3.302735e+001 3.140204e+001 2.679305e+001 2.416985e+001 2.000905e+001 1.444970e+001 8.798123e+000 2.093719e+000 2.477252e+000 1.862187e+000 3.144633e+000 2.336339e+000 3.090271e+000 2.980795e+000 2.617404e+000 1.985280e+000 2.300617e+000 1.652827e+000 1.620638e+000
<GCONST> 9.910950e+001
<TRANSP> 5
 0.000000e+000 1.000000e+000 0.000000e+000 0.000000e+000 0.000000e+000
 0.000000e+000 7.611474e-001 2.388526e-001 0.000000e+000 0.000000e+000
 0.000000e+000 0.000000e+000 7.903875e-001 2.096125e-001 0.000000e+000
 0.000000e+000 0.000000e+000 0.000000e+000 8.891066e-001 1.108934e-001
 0.000000e+000 0.000000e+000 0.000000e+000 0.000000e+000 0.000000e+000
<ENDHMM>
~h "sil"
<BEGINHMM>
<NUMSTATES> 5
<STATE> 2
<MEAN> 25
 -4.386142e+000 -1.593902e-001 -1.304351e+000 3.897897e+000 3.373479e+000 1.199870e+000 5.154205e+000 1.940398e+000 1.031273e+000 -6.357577e-001 3.550365e-001 1.849899e+000 3.491868e-001 1.830110e-001 -4.097467e-001 -1.819754e-001 -1.136226e-001 -1.136201e+000 -6.739082e-001 -7.120208e-001 -2.483674e-001 -6.193511e-001 -8.678869e-002 6.052682e-001 -2.799237e+000
<VARIANCE> 25
 4.315165e+001 3.053645e+001 3.890554e+001 5.222369e+001 4.388449e+001 6.563087e+001 5.266998e+001 5.481919e+001 3.654357e+001 3.495334e+001 3.134310e+001 3.616055e+001 2.476553e+000 2.123576e+000 2.165049e+000 2.596656e+000 2.191895e+000 5.834565e+000 3.436428e+000 4.724446e+000 2.492693e+000 2.925210e+000 2.246571e+000 2.688644e+000 1.947464e+001
<GCONST> 1.063431e+002
<STATE> 3
<MEAN> 25
 -6.818666e+000 1.904667e+000 -2.783048e+000 4.566551e+000 4.578574e+000 -1.318741e+000 5.889619e+000 -3.981251e-001 9.297480e-001 -4.961222e-001 5.877704e-001 3.492778e+000 -3.715388e-002 5.310066e-002 -4.963096e-002 -4.582772e-002 -3.931636e-002 -1.057906e-001 -6.784766e-002 -6.655929e-002 -9.192239e-003 -1.533860e-002 3.510312e-002 3.659301e-003 -1.328441e-001
<VARIANCE> 25
 1.641245e+001 2.059412e+001 1.740914e+001 2.739892e+001 2.342770e+001 2.975644e+001 2.610872e+001 3.424227e+001 2.423889e+001 2.657673e+001 2.149653e+001 2.007200e+001 1.062304e+000 1.455180e+000 1.262987e+000 1.728380e+000 1.660293e+000 2.249783e+000 1.929575e+000 2.496667e+000 1.885445e+000 2.067427e+000 1.771216e+000 1.621410e+000 4.141201e+000
<GCONST> 9.175813e+001
<STATE> 4
<MEAN> 25
 -4.947075e+000 2.647178e+000 -2.615705e+000 3.497377e+000 3.735000e+000 -7.376041e-001 4.407657e+000 9.443883e-001 6.201819e-001 -4.033395e-001 6.505367e-001 2.254955e+000 -1.199730e-002 2.139888e-002 9.029744e-003 6.583292e-003 1.997830e-003 5.328279e-003 6.077962e-003 -7.867396e-004 6.344921e-003 1.833954e-002 2.190354e-003 -6.602571e-003 -2.080990e-002
<VARIANCE> 25
 8.683022e+000 1.434408e+001 1.240991e+001 1.657372e+001 1.711737e+001 1.869924e+001 2.236228e+001 2.695388e+001 2.131970e+001 1.962356e+001 1.647650e+001 1.477812e+001 2.343187e-001 5.098313e-001 5.965801e-001 8.603489e-001 9.955757e-001 1.212211e+000 1.278724e+000 1.530081e+000 1.403985e+000 1.423327e+000 1.288186e+000 1.181811e+000 2.226123e-001
<GCONST> 7.747723e+001
<TRANSP> 5
 0.000000e+000 1.000000e+000 0.000000e+000 0.000000e+000 0.000000e+000
 0.000000e+000 8.159081e-001 1.840919e-001 0.000000e+000 0.000000e+000
 0.000000e+000 0.000000e+000 9.077860e-001 9.221400e-002 0.000000e+000
 0.000000e+000 0.000000e+000 0.000000e+000 9.849733e-001 1.502666e-002
 0.000000e+000 0.000000e+000 0.000000e+000 0.000000e+000 0.000000e+000
<ENDHMM>
