~o
<STREAMINFO> 1 25
<VECSIZE> 25<NULLD><MFCC_D_N_Z_0><DIAGC>
~h "@"
<BEGINHMM>
<NUMSTATES> 5
<STATE> 2
<MEAN> 25
 2.470129e+000 -8.693473e-001 -3.742576e-001 -1.209210e+000 -1.440760e+000 -2.450479e+000 -3.946132e+000 -7.428180e-001 8.770108e-001 1.690760e+000 5.535771e-001 -1.004286e+000 1.888804e+000 -9.434068e-001 3.149908e-001 -1.334754e+000 -1.186403e+000 4.643056e-001 -1.880969e+000 7.739896e-001 4.050786e-001 8.290913e-001 4.661182e-001 -1.089467e+000 2.265554e+000
<VARIANCE> 25
 4.325164e+001 3.485743e+001 4.299007e+001 5.229448e+001 4.994366e+001 6.374652e+001 7.173365e+001 5.651573e+001 5.668561e+001 3.577346e+001 3.858284e+001 3.319510e+001 6.800189e+000 4.146802e+000 5.685539e+000 6.140356e+000 6.018801e+000 6.008589e+000 8.147797e+000 8.940432e+000 7.899010e+000 4.899810e+000 5.231581e+000 4.221113e+000 8.417047e+000
<GCONST> 1.157758e+002
<STATE> 3
<MEAN> 25
 5.536020e+000 -3.578187e+000 1.283595e-001 -3.954998e+000 -3.829968e+000 -1.064855e+000 -7.728008e+000 1.386534e+000 1.441536e+000 3.602870e+000 1.699574e+000 -3.065259e+000 1.012268e+000 -5.864237e-001 3.351038e-001 -6.009499e-001 -6.931493e-001 6.130861e-001 -8.518021e-001 5.741497e-001 1.369435e-001 5.898280e-001 2.829392e-001 -6.617487e-001 6.183074e-001
<VARIANCE> 25
 1.869066e+001 3.275193e+001 4.368383e+001 5.393735e+001 4.837873e+001 7.447790e+001 6.908922e+001 6.950733e+001 6.375880e+001 4.308776e+001 4.775216e+001 3.567341e+001 3.027752e+000 3.243169e+000 3.452948e+000 5.011151e+000 4.538105e+000 5.054853e+000 6.343869e+000 7.921402e+000 6.482297e+000 4.452552e+000 4.618556e+000 3.637771e+000 5.677964e+000
<GCONST> 1.122597e+002
<STATE> 4
<MEAN> 25
 5.284641e+000 -2.939785e+000 1.881593e+000 -2.962227e+000 -5.452330e+000 -1.685569e+000 -8.048932e+000 2.228924e+000 8.683168e-001 3.932076e+000 2.323327e+000 -3.220846e+000 9.146495e-002 3.624908e-001 1.870904e-001 4.266407e-001 1.428084e-001 1.428898e-001 4.359471e-001 -3.405423e-001 -2.020773e-001 -1.241145e-001 -1.476712e-001 1.040784e-001 -7.562671e-001
<VARIANCE> 25
 2.064483e+001 3.580495e+001 4.204182e+001 4.777448e+001 5.548997e+001 6.682270e+001 8.993040e+001 7.247543e+001 6.039020e+001 4.754882e+001 4.659286e+001 3.710867e+001 1.086367e+000 2.061503e+000 1.781255e+000 2.695467e+000 2.740759e+000 2.875188e+000 3.488801e+000 3.841388e+000 3.598027e+000 2.789802e+000 2.726168e+000 2.195699e+000 3.319382e+000
<GCONST> 1.049065e+002
<TRANSP> 5
 0.000000e+000 1.000000e+000 0.000000e+000 0.000000e+000 0.000000e+000
 0.000000e+000 3.528729e-001 6.471271e-001 0.000000e+000 0.000000e+000
 0.000000e+000 0.000000e+000 2.213526e-001 7.786474e-001 0.000000e+000
 0.000000e+000 0.000000e+000 0.000000e+000 6.575245e-001 3.424755e-001
 0.000000e+000 0.000000e+000 0.000000e+000 0.000000e+000 0.000000e+000
<ENDHMM>
~h "a"
<BEGINHMM>
<NUMSTATES> 5
<STATE> 2
<MEAN> 25
 4.544706e+000 -9.080339e+000 -4.227174e+000 -6.864519e+000 -9.175329e-001 2.884992e+000 -3.981991e+000 5.869242e+000 4.919952e+000 5.450272e-001 -2.919487e+000 -5.876980e+000 4.132509e-001 -1.697761e+000 -8.982211e-001 -7.525696e-001 7.426749e-001 1.275290e+000 3.682528e-002 1.021521e+000 6.382397e-001 -5.652232e-001 -1.217513e+000 -1.193486e+000 1.407326e+000
<VARIANCE> 25
 1.799338e+001 3.112510e+001 3.321707e+001 3.688150e+001 5.044740e+001 6.982549e+001 4.660450e+001 7.139075e+001 4.474542e+001 4.537626e+001 4.671889e+001 3.703418e+001 2.198942e+000 2.894831e+000 2.452155e+000 3.213063e+000 3.704000e+000 4.122564e+000 4.080438e+000 5.859275e+000 3.642397e+000 3.589105e+000 3.889063e+000 3.129690e+000 4.372735e+000
<GCONST> 1.070947e+002
<STATE> 3
<MEAN> 25
 4.955145e+000 -1.135983e+001 -5.525040e+000 -7.372025e+000 1.108857e+000 5.133867e+000 -3.435441e+000 5.881814e+000 5.497578e+000 -7.369749e-001 -5.012558e+000 -7.200204e+000 -2.312025e-002 -8.517772e-002 -8.355428e-002 1.829341e-001 4.818569e-001 9.576649e-002 3.154114e-001 -5.016520e-002 -6.824167e-002 -1.923528e-001 -3.855258e-001 4.617929e-003 -3.590242e-001
<VARIANCE> 25
 1.080908e+001 2.487804e+001 2.527807e+001 2.721997e+001 3.811119e+001 5.348819e+001 3.705739e+001 5.906542e+001 3.828452e+001 4.316840e+001 4.380142e+001 3.340497e+001 6.568873e-001 1.746497e+000 1.311290e+000 1.719080e+000 2.090901e+000 3.130548e+000 2.409819e+000 3.233490e+000 2.150169e+000 2.462692e+000 2.495833e+000 2.035789e+000 3.043462e+000
<GCONST> 9.737216e+001
<STATE> 4
<MEAN> 25
 3.577435e+000 -8.325991e+000 -5.135221e+000 -4.652143e+000 2.501840e+000 3.547939e+000 -1.445240e+000 4.525289e+000 4.267070e+000 -1.118525e+000 -5.009463e+000 -5.037771e+000 -3.744200e-002 8.341027e-001 4.160076e-001 5.119335e-001 -1.105570e-001 -4.941821e-001 1.058126e-001 -2.793371e-001 -3.310123e-001 2.201780e-001 2.795725e-001 3.672951e-001 -1.210857e+000
<VARIANCE> 25
 1.810812e+001 3.922628e+001 2.498427e+001 3.822519e+001 4.144974e+001 4.850982e+001 4.096628e+001 5.302641e+001 3.719520e+001 3.751841e+001 3.640033e+001 3.685677e+001 8.133194e-001 1.770494e+000 1.434851e+000 1.779940e+000 2.023340e+000 2.397482e+000 2.340167e+000 2.962969e+000 2.222049e+000 2.247587e+000 2.125799e+000 1.891582e+000 2.444589e+000
<GCONST> 9.781836e+001
<TRANSP> 5
 0.000000e+000 1.000000e+000 0.000000e+000 0.000000e+000 0.000000e+000
 0.000000e+000 5.427122e-001 4.572878e-001 0.000000e+000 0.000000e+000
 0.000000e+000 0.000000e+000 5.771160e-001 4.228841e-001 0.000000e+000
 0.000000e+000 0.000000e+000 0.000000e+000 8.131466e-001 1.868534e-001
 0.000000e+000 0.000000e+000 0.000000e+000 0.000000e+000 0.000000e+000
<ENDHMM>
~h "b"
<BEGINHMM>
<NUMSTATES> 5
<STATE> 2
<MEAN> 25
 9.542886e+000 7.420239e+000 4.091542e+000 2.732004e+000 1.673284e+000 4.636278e+000 9.935769e-001 -6.617798e+000 -4.333986e+000 -4.076507e-001 7.525955e-001 -1.266127e+000 6.594392e-001 1.514067e+000 3.763933e-001 6.347558e-001 7.596134e-001 3.811461e-001 9.827936e-001 -5.650893e-001 -2.655828e-001 -2.513688e-001 -9.625849e-002 4.391085e-002 -1.395294e+000
<VARIANCE> 25
 2.994887e+001 4.312430e+001 2.795201e+001 4.158539e+001 3.519941e+001 3.685900e+001 4.751719e+001 4.194350e+001 4.380027e+001 3.022597e+001 3.695784e+001 2.748990e+001 2.308485e+000 3.382057e+000 2.932799e+000 3.813931e+000 3.188989e+000 3.223267e+000 4.416975e+000 4.010877e+000 4.310762e+000 3.128164e+000 3.407105e+000 2.462208e+000 7.441978e+000
<GCONST> 1.054561e+002
<STATE> 3
<MEAN> 25
 9.234180e+000 7.856069e+000 2.933474e+000 1.837731e+000 1.973851e+000 4.575417e+000 1.207380e+000 -7.069750e+000 -3.647669e+000 -8.947599e-002 2.432525e+000 -3.023368e-001 -7.209017e-001 -1.993482e+000 -1.356792e+000 -1.631618e+000 -6.729777e-001 -3.622564e-001 -1.717306e+000 7.733794e-001 1.573694e+000 8.965762e-001 9.369867e-001 -1.632893e-001 3.191909e+000
<VARIANCE> 25
 2.391227e+001 4.190371e+001 2.743606e+001 4.710829e+001 3.406063e+001 3.529385e+001 4.139484e+001 3.179785e+001 3.884565e+001 2.952951e+001 3.978893e+001 2.645039e+001 2.133452e+000 6.293379e+000 3.773744e+000 7.475733e+000 4.376149e+000 4.300722e+000 6.482821e+000 4.861725e+000 6.446925e+000 4.936968e+000 4.873187e+000 4.017365e+000 1.083363e+001
<GCONST> 1.094391e+002
<STATE> 4
<MEAN> 25
 7.266943e+000 2.987476e+000 3.092668e-001 -1.285393e+000 -7.844205e-001 3.477179e+000 -3.254952e+000 -4.542279e+000 7.451028e-001 1.961902e+000 3.175929e+000 -2.214476e+000 -8.315279e-001 -2.011770e+000 -8.280463e-001 -9.292889e-001 -9.834107e-001 -5.375878e-001 -1.265634e+000 1.215870e+000 1.263720e+000 2.386873e-001 -3.819742e-002 -3.759190e-001 2.827144e+000
<VARIANCE> 25
 2.377690e+001 6.449001e+001 4.170933e+001 8.135015e+001 4.753775e+001 5.203880e+001 6.479279e+001 3.879279e+001 5.044078e+001 4.763709e+001 5.332777e+001 3.303785e+001 1.943658e+000 4.747963e+000 4.378724e+000 6.976810e+000 4.705375e+000 5.585988e+000 5.370412e+000 5.715862e+000 7.514964e+000 4.905963e+000 4.923486e+000 5.704625e+000 8.026116e+000
<GCONST> 1.136732e+002
<TRANSP> 5
 0.000000e+000 1.000000e+000 0.000000e+000 0.000000e+000 0.000000e+000
 0.000000e+000 7.203525e-001 2.796475e-001 0.000000e+000 0.000000e+000
 0.000000e+000 0.000000e+000 5.584029e-001 4.415971e-001 0.000000e+000
 0.000000e+000 0.000000e+000 0.000000e+000 4.846385e-001 5.153615e-001
 0.000000e+000 0.000000e+000 0.000000e+000 0.000000e+000 0.000000e+000
<ENDHMM>
~h "c"
<BEGINHMM>
<NUMSTATES> 5
<STATE> 2
<MEAN> 25
 -2.609538e+000 5.619341e+000 1.681253e+000 3.906805e+000 1.595246e+000 -5.114592e+000 2.056448e+000 -3.203747e-001 5.163064e-001 -1.653815e+000 -2.670293e-001 2.929386e+000 -1.929757e+000 8.229070e-002 -8.489022e-001 -3.902893e-001 7.373191e-001 5.501375e-002 6.768415e-001 -1.804461e-001 3.654837e-001 1.208573e-001 2.836485e-001 2.044184e-001 -9.192851e-001
<VARIANCE> 25
 4.264895e+001 3.700359e+001 3.514673e+001 2.631394e+001 4.209905e+001 4.305574e+001 4.895720e+001 4.718513e+001 3.814319e+001 3.091909e+001 2.664678e+001 2.460223e+001 4.989216e+000 5.246545e+000 3.139515e+000 3.460667e+000 4.309736e+000 3.426464e+000 3.835047e+000 3.877359e+000 3.452809e+000 3.122751e+000 2.791140e+000 2.775631e+000 1.324109e+001
<GCONST> 1.069970e+002
<STATE> 3
<MEAN> 25
 -1.587382e+001 2.301512e+000 -3.323676e+000 -1.719001e+000 3.275989e+000 -4.011744e+000 4.082471e+000 -3.542743e-001 1.778679e+000 -1.479325e-001 2.244107e+000 4.529062e+000 -1.317667e+000 -7.225860e-001 2.638508e-002 -1.017212e+000 -6.688796e-001 -3.732123e-001 -2.086148e-001 5.799308e-001 3.389758e-001 -1.309310e-001 1.772735e-001 3.575962e-001 3.758213e+000
<VARIANCE> 25
 4.939500e+001 2.437415e+001 3.149577e+001 3.293506e+001 2.920118e+001 3.923944e+001 4.480459e+001 3.288057e+001 2.761942e+001 2.806590e+001 2.057031e+001 1.704811e+001 1.251873e+001 2.917010e+000 4.497721e+000 3.858862e+000 3.817438e+000 3.761389e+000 4.296272e+000 4.149973e+000 3.220991e+000 3.041222e+000 3.162943e+000 2.026428e+000 6.939817e+000
<GCONST> 1.049107e+002
<STATE> 4
<MEAN> 25
 -8.452248e+000 -2.316448e-001 1.417633e+000 -1.999538e+000 -1.688467e+000 -5.634682e+000 -2.527805e-002 2.493932e+000 2.945215e+000 -1.918957e+000 4.568617e-002 3.402480e+000 4.785039e+000 -1.449524e+000 1.405542e+000 -5.962285e-002 -1.578940e+000 7.574941e-002 -2.249630e+000 8.342378e-001 2.060822e-001 -2.584855e-001 -9.063033e-001 -1.281844e+000 2.159311e+000
<VARIANCE> 25
 1.042056e+002 3.241550e+001 4.054724e+001 3.316610e+001 3.414717e+001 4.028742e+001 7.279093e+001 4.624957e+001 3.409917e+001 2.836328e+001 2.951511e+001 2.162521e+001 7.350417e+000 5.884462e+000 5.607653e+000 5.292216e+000 4.126223e+000 5.183115e+000 6.497658e+000 8.226536e+000 6.300689e+000 4.273512e+000 3.866089e+000 3.139215e+000 2.855494e+000
<GCONST> 1.109950e+002
<TRANSP> 5
 0.000000e+000 1.000000e+000 0.000000e+000 0.000000e+000 0.000000e+000
 0.000000e+000 8.236308e-001 1.763692e-001 0.000000e+000 0.000000e+000
 0.000000e+000 0.000000e+000 7.201376e-001 2.798624e-001 0.000000e+000
 0.000000e+000 0.000000e+000 0.000000e+000 6.495216e-001 3.504783e-001
 0.000000e+000 0.000000e+000 0.000000e+000 0.000000e+000 0.000000e+000
<ENDHMM>
~h "d"
<BEGINHMM>
<NUMSTATES> 5
<STATE> 2
<MEAN> 25
 6.628374e+000 4.169549e+000 6.330782e+000 6.779694e+000 -2.017007e-001 -2.626994e+000 -2.491700e+000 -1.009676e+000 1.918842e+000 -1.508084e+000 -3.995228e+000 -1.149790e+000 6.413082e-001 1.122095e+000 9.224250e-001 1.054229e+000 7.674495e-001 -5.353029e-001 1.925949e-001 -1.181817e-001 4.139380e-001 -3.696350e-001 -5.149654e-001 3.481375e-002 -1.131992e+000
<VARIANCE> 25
 4.165863e+001 5.868291e+001 3.924479e+001 4.103861e+001 4.850941e+001 4.168845e+001 6.072284e+001 7.726121e+001 4.611981e+001 4.135505e+001 4.169231e+001 3.170535e+001 3.403057e+000 5.240880e+000 3.309623e+000 4.121130e+000 4.649889e+000 3.438981e+000 5.247064e+000 6.916523e+000 4.413818e+000 3.695269e+000 4.271313e+000 3.037982e+000 9.512897e+000
<GCONST> 1.114039e+002
<STATE> 3
<MEAN> 25
 5.964044e+000 3.332392e+000 8.223442e+000 6.607687e+000 8.732009e-002 -4.257977e+000 -3.148840e+000 3.909262e-001 2.038390e+000 -2.280968e+000 -2.754257e+000 5.109634e-001 -1.178564e+000 -2.201643e+000 -3.374093e-001 -1.821369e+000 -1.264906e+000 -3.851004e-001 -1.092730e+000 1.615162e+000 -5.548368e-002 9.885524e-002 1.395658e+000 7.930140e-001 3.531007e+000
<VARIANCE> 25
 3.186764e+001 5.596801e+001 3.192708e+001 4.453406e+001 4.597203e+001 4.348534e+001 6.485255e+001 5.354597e+001 4.285646e+001 3.575868e+001 3.976682e+001 3.463780e+001 3.073170e+000 5.773326e+000 4.333841e+000 5.271032e+000 7.344445e+000 4.048204e+000 6.830148e+000 8.937428e+000 6.456305e+000 4.534560e+000 5.043978e+000 3.781864e+000 1.031494e+001
<GCONST> 1.131760e+002
<STATE> 4
<MEAN> 25
 3.823274e+000 -2.286931e+000 6.271599e+000 1.452746e+000 -6.112350e+000 -4.320972e+000 -5.886370e+000 4.080798e+000 2.131798e+000 -1.308138e+000 1.050994e+000 1.096250e+000 -5.222089e-001 -1.204900e+000 -7.717012e-001 -1.302178e+000 -1.140853e+000 3.015985e-001 -2.862663e-001 8.906716e-001 1.068399e-001 2.335498e-001 5.602431e-001 -3.139038e-001 2.276373e+000
<VARIANCE> 25
 2.464680e+001 4.770898e+001 5.251517e+001 4.662104e+001 6.820925e+001 4.450787e+001 7.737033e+001 8.530608e+001 6.411830e+001 3.500668e+001 4.325213e+001 3.316953e+001 2.634568e+000 3.899299e+000 5.162157e+000 4.353335e+000 7.014410e+000 4.150118e+000 6.220080e+000 8.864375e+000 7.128010e+000 4.252322e+000 6.054871e+000 4.126182e+000 8.013586e+000
<GCONST> 1.141515e+002
<TRANSP> 5
 0.000000e+000 1.000000e+000 0.000000e+000 0.000000e+000 0.000000e+000
 0.000000e+000 6.903343e-001 3.096657e-001 0.000000e+000 0.000000e+000
 0.000000e+000 0.000000e+000 5.596424e-001 4.403576e-001 0.000000e+000
 0.000000e+000 0.000000e+000 0.000000e+000 4.850539e-001 5.149461e-001
 0.000000e+000 0.000000e+000 0.000000e+000 0.000000e+000 0.000000e+000
<ENDHMM>
~h "e"
<BEGINHMM>
<NUMSTATES> 5
<STATE> 2
<MEAN> 25
 2.811394e+000 -5.508010e+000 4.277796e+000 -6.544564e-001 -7.294245e+000 -5.561745e+000 -2.658077e+000 5.219290e+000 2.711973e-001 1.389251e-001 1.804722e+000 -6.972843e-001 3.771314e-001 -1.347410e+000 1.064365e+000 -7.081172e-001 -1.801876e+000 -3.758976e-001 -5.332530e-002 1.833205e+000 -4.743192e-001 -1.999723e-001 4.722827e-001 -1.632079e-001 1.930125e+000
<VARIANCE> 25
 3.312317e+001 5.796870e+001 5.158169e+001 4.385109e+001 6.048896e+001 4.822708e+001 6.688191e+001 7.986847e+001 6.155787e+001 4.199922e+001 4.840870e+001 3.579404e+001 3.591113e+000 4.336235e+000 3.652663e+000 4.139685e+000 5.731944e+000 4.331331e+000 5.685215e+000 7.661158e+000 6.040022e+000 4.261143e+000 4.458813e+000 3.140179e+000 8.282904e+000
<GCONST> 1.135566e+002
<STATE> 3
<MEAN> 25
 3.643007e+000 -7.048918e+000 6.621876e+000 -1.899859e+000 -1.069932e+001 -5.779302e+000 -2.420458e+000 7.842442e+000 -1.098578e+000 9.652768e-002 3.547686e+000 -1.168070e+000 -9.880164e-002 2.443210e-002 3.062974e-001 -9.637918e-002 -4.248034e-001 -5.454672e-002 4.767995e-001 2.276761e-001 -2.345537e-001 5.658329e-002 1.907299e-001 -6.168196e-002 6.405981e-002
<VARIANCE> 25
 1.667524e+001 4.655593e+001 4.909534e+001 4.361211e+001 5.635365e+001 4.563685e+001 6.106913e+001 8.726674e+001 6.833440e+001 4.307620e+001 5.158104e+001 3.468076e+001 1.266911e+000 2.459717e+000 2.071369e+000 2.562249e+000 3.488004e+000 2.747316e+000 3.486442e+000 4.010102e+000 3.594124e+000 2.726933e+000 2.729794e+000 2.116911e+000 5.454591e+000
<GCONST> 1.056172e+002
<STATE> 4
<MEAN> 25
 2.145574e+000 -5.388507e+000 6.644708e+000 -1.692117e+000 -9.973310e+000 -6.316117e+000 7.633655e-001 6.490961e+000 -1.632854e+000 2.796961e-001 2.947214e+000 -4.798838e-001 -1.042537e-002 4.154305e-001 -2.844954e-001 3.025320e-001 6.057255e-001 1.118688e-001 7.595194e-002 -3.999112e-001 8.933314e-002 2.178747e-002 -3.065414e-001 9.039946e-003 -7.211161e-001
<VARIANCE> 25
 1.854367e+001 4.694572e+001 5.195629e+001 4.009198e+001 6.096700e+001 5.123551e+001 5.689412e+001 6.995398e+001 5.485765e+001 3.971843e+001 4.365687e+001 2.966539e+001 8.309237e-001 1.463371e+000 1.441470e+000 1.653054e+000 2.329002e+000 1.896763e+000 2.410849e+000 2.466940e+000 2.205793e+000 1.933599e+000 1.891576e+000 1.519665e+000 2.813169e+000
<GCONST> 9.941936e+001
<TRANSP> 5
 0.000000e+000 1.000000e+000 0.000000e+000 0.000000e+000 0.000000e+000
 0.000000e+000 5.628255e-001 4.371745e-001 0.000000e+000 0.000000e+000
 0.000000e+000 0.000000e+000 4.898205e-001 5.101794e-001 0.000000e+000
 0.000000e+000 0.000000e+000 0.000000e+000 8.460631e-001 1.539369e-001
 0.000000e+000 0.000000e+000 0.000000e+000 0.000000e+000 0.000000e+000
<ENDHMM>
~h "f"
<BEGINHMM>
<NUMSTATES> 5
<STATE> 2
<MEAN> 25
 -2.872957e+000 1.953116e+000 -7.988654e-001 4.064672e+000 2.505844e+000 2.790940e-001 2.509399e+000 -8.848817e-001 9.694275e-001 1.747067e-001 6.370246e-001 1.426826e+000 -3.124256e+000 -1.053415e-001 -6.641330e-001 1.358899e+000 7.324092e-001 -5.943940e-001 5.963234e-001 3.661692e-001 8.846010e-001 -6.725263e-002 9.391085e-002 5.153558e-001 -1.214747e+000
<VARIANCE> 25
 5.491958e+001 2.465628e+001 3.240789e+001 4.404250e+001 3.538207e+001 5.410875e+001 4.030771e+001 3.822812e+001 3.449611e+001 2.774401e+001 2.566959e+001 2.549107e+001 4.235441e+000 3.856376e+000 3.335798e+000 5.136286e+000 4.539064e+000 5.794497e+000 4.733387e+000 4.074046e+000 3.959282e+000 3.378680e+000 3.021644e+000 2.691691e+000 2.514905e+000
<GCONST> 1.061411e+002
<STATE> 3
<MEAN> 25
 -1.200388e+001 -1.142766e+000 -3.547465e+000 5.074832e+000 2.817851e+000 -1.517048e+000 2.509780e+000 1.710044e-001 2.787571e+000 6.096451e-001 1.268370e+000 3.122690e+000 -7.126843e-001 -5.754158e-001 -4.379928e-001 -1.343901e-001 -5.403971e-002 -6.197390e-002 -3.259948e-002 7.446548e-002 1.038880e-001 3.142191e-002 1.272483e-001 1.125215e-001 -1.757647e-001
<VARIANCE> 25
 2.520415e+001 2.019133e+001 1.965512e+001 2.149726e+001 2.397540e+001 2.827380e+001 2.863503e+001 2.727270e+001 2.437200e+001 2.440263e+001 1.938079e+001 1.756493e+001 3.132750e+000 1.648953e+000 1.761408e+000 2.066595e+000 1.880330e+000 2.383300e+000 2.031914e+000 1.912492e+000 1.884289e+000 1.943147e+000 1.708645e+000 1.556800e+000 2.227797e+000
<GCONST> 9.249183e+001
<STATE> 4
<MEAN> 25
 -8.456925e+000 -1.743993e+000 -4.457140e+000 3.270001e+000 2.977127e+000 4.381362e-002 2.625528e+000 7.703322e-001 1.843698e+000 -4.495579e-002 1.005836e+000 2.445519e+000 1.370539e+000 2.026263e-001 2.036659e-001 -4.897943e-001 -2.988620e-001 2.094293e-001 -2.164458e-001 -1.233435e-001 -2.854069e-001 -1.080462e-001 -3.198944e-002 -3.516654e-001 3.702720e-001
<VARIANCE> 25
 4.855440e+001 2.769768e+001 2.567760e+001 2.696590e+001 2.918272e+001 3.199890e+001 2.812064e+001 2.919571e+001 2.932978e+001 2.401618e+001 2.030923e+001 1.961982e+001 6.165230e+000 2.214196e+000 2.352678e+000 3.628166e+000 2.678613e+000 3.156324e+000 2.670707e+000 2.538810e+000 2.610673e+000 2.271141e+000 2.047106e+000 2.093278e+000 3.147677e+000
<GCONST> 9.897446e+001
<TRANSP> 5
 0.000000e+000 1.000000e+000 0.000000e+000 0.000000e+000 0.000000e+000
 0.000000e+000 7.076049e-001 2.923951e-001 0.000000e+000 0.000000e+000
 0.000000e+000 0.000000e+000 7.827665e-001 2.172334e-001 0.000000e+000
 0.000000e+000 0.000000e+000 0.000000e+000 8.642679e-001 1.357321e-001
 0.000000e+000 0.000000e+000 0.000000e+000 0.000000e+000 0.000000e+000
<ENDHMM>
~h "g"
<BEGINHMM>
<NUMSTATES> 5
<STATE> 2
<MEAN> 25
 7.107987e+000 4.747776e+000 5.767375e+000 4.655699e+000 -1.193191e+000 -3.931752e+000 -1.053636e+000 -1.650613e+000 -3.890103e+000 2.671140e+000 -1.698691e-001 -2.411153e+000 8.359596e-002 1.177555e+000 5.264736e-001 1.316020e+000 8.869173e-001 -9.309344e-001 7.087848e-001 -3.821802e-001 -2.195621e-001 -3.014164e-001 -2.501490e-001 3.945806e-001 -1.601716e+000
<VARIANCE> 25
 2.830122e+001 5.271418e+001 4.511554e+001 4.284622e+001 5.929191e+001 5.770760e+001 5.892311e+001 6.362735e+001 5.447261e+001 4.631458e+001 3.817530e+001 3.305335e+001 3.433561e+000 5.311323e+000 5.562500e+000 3.737076e+000 6.007433e+000 4.947697e+000 5.506072e+000 5.613056e+000 6.256529e+000 4.098734e+000 3.610481e+000 3.353076e+000 9.013313e+000
<GCONST> 1.128595e+002
<STATE> 3
<MEAN> 25
 3.535661e+000 3.968197e+000 3.604058e+000 6.245703e+000 1.951860e+000 -6.292154e+000 -3.339298e-001 -9.107937e-001 -2.808744e+000 1.878440e+000 -7.854297e-001 5.070802e-001 -1.042013e+000 -1.359119e+000 -9.116151e-001 -9.079162e-001 -1.723045e-001 -6.583396e-001 -7.990634e-001 1.115788e+000 4.370432e-001 1.109225e-001 4.253701e-001 5.284721e-001 2.515806e+000
<VARIANCE> 25
 4.001743e+001 5.786859e+001 6.423634e+001 3.590757e+001 7.493719e+001 5.554687e+001 5.558800e+001 4.596921e+001 4.155161e+001 3.675668e+001 3.229341e+001 3.280433e+001 4.491159e+000 6.665139e+000 8.165287e+000 4.782519e+000 1.171496e+001 5.300305e+000 5.767325e+000 6.461040e+000 6.040655e+000 4.275371e+000 4.585352e+000 4.359481e+000 9.672550e+000
<GCONST> 1.152408e+002
<STATE> 4
<MEAN> 25
 2.969167e+000 1.852918e+000 3.220103e+000 1.728819e+000 -1.919372e+000 -5.819494e+000 -1.922342e+000 1.596821e+000 -2.083914e+000 2.228335e+000 9.425417e-001 -5.995548e-002 -2.297864e-001 -9.388902e-001 -3.929928e-001 -1.558392e+000 -8.995434e-001 7.377925e-001 -3.924135e-001 9.385819e-001 4.938346e-001 7.244135e-002 2.195965e-001 -3.577872e-001 1.823910e+000
<VARIANCE> 25
 3.581656e+001 6.383608e+001 6.396747e+001 4.239104e+001 7.299712e+001 5.882310e+001 5.899024e+001 6.678811e+001 5.178578e+001 3.620573e+001 3.997791e+001 3.168792e+001 3.166785e+000 3.509725e+000 5.180429e+000 4.329231e+000 7.208762e+000 4.104210e+000 4.072229e+000 5.949629e+000 5.320724e+000 3.571438e+000 4.381283e+000 4.211837e+000 5.051359e+000
<GCONST> 1.124842e+002
<TRANSP> 5
 0.000000e+000 1.000000e+000 0.000000e+000 0.000000e+000 0.000000e+000
 0.000000e+000 6.568681e-001 3.431319e-001 0.000000e+000 0.000000e+000
 0.000000e+000 0.000000e+000 6.057005e-001 3.942994e-001 0.000000e+000
 0.000000e+000 0.000000e+000 0.000000e+000 5.577995e-001 4.422005e-001
 0.000000e+000 0.000000e+000 0.000000e+000 0.000000e+000 0.000000e+000
<ENDHMM>
~h "h"
<BEGINHMM>
<NUMSTATES> 5
<STATE> 2
<MEAN> 25
 1.213537e+000 -3.129327e+000 -2.300948e+000 1.045626e+000 6.663188e+000 4.260707e+000 4.163181e+000 2.958805e+000 1.464352e+000 -9.347556e-001 -3.088148e+000 4.427906e-001 -9.531989e-001 1.283143e-001 -1.497125e-001 1.172690e+000 1.592716e+000 3.315622e-001 1.249886e+000 1.012510e-001 4.148690e-001 -3.191216e-001 3.157910e-002 6.817430e-001 -1.124796e+000
<VARIANCE> 25
 2.407275e+001 3.791721e+001 4.396931e+001 4.310276e+001 6.284576e+001 6.080889e+001 5.707167e+001 5.383997e+001 4.374178e+001 4.262161e+001 4.785099e+001 4.148164e+001 1.820559e+000 3.413579e+000 3.133339e+000 3.834153e+000 4.261168e+000 3.610872e+000 4.953795e+000 4.059351e+000 3.659029e+000 3.257762e+000 3.505496e+000 3.352468e+000 2.614072e+000
<GCONST> 1.076640e+002
<STATE> 3
<MEAN> 25
 -1.292289e+000 -3.697794e+000 -3.079575e+000 2.404323e+000 8.733607e+000 4.187954e+000 5.707253e+000 2.968997e+000 2.228779e+000 -1.404991e+000 -2.667870e+000 1.416222e+000 -5.110101e-001 5.088380e-002 -1.429786e-001 1.005028e-001 1.841865e-003 -1.920537e-001 1.257919e-001 -1.966469e-001 2.024234e-002 -7.425926e-002 2.068757e-001 1.821597e-001 -1.094410e+000
<VARIANCE> 25
 2.615181e+001 3.899959e+001 4.111843e+001 4.148439e+001 6.190452e+001 5.435023e+001 5.621210e+001 4.995220e+001 4.267747e+001 4.343071e+001 3.968924e+001 3.605328e+001 1.772438e+000 2.746618e+000 2.691284e+000 2.791545e+000 3.411830e+000 3.166714e+000 3.528870e+000 3.417997e+000 3.120767e+000 2.874465e+000 2.910132e+000 2.535554e+000 3.168528e+000
<GCONST> 1.049835e+002
<STATE> 4
<MEAN> 25
 -3.434591e+000 -3.029775e+000 -4.640443e+000 1.834647e+000 5.750994e+000 2.726066e+000 4.046513e+000 1.340406e+000 1.699719e+000 -1.682972e+000 -1.022462e+000 1.552611e+000 1.385692e-001 2.361914e-001 6.514390e-002 -1.086657e-001 -3.524566e-001 -1.155991e-001 -1.629159e-001 -1.538281e-001 -1.055091e-001 5.515189e-002 4.364702e-002 -9.674456e-002 -2.214194e-001
<VARIANCE> 25
 2.394055e+001 5.118700e+001 3.239686e+001 2.871252e+001 4.420602e+001 3.925208e+001 3.906614e+001 3.401521e+001 3.167801e+001 3.002056e+001 2.732534e+001 2.625331e+001 1.408300e+000 1.876290e+000 1.650691e+000 1.685764e+000 2.092958e+000 2.083063e+000 2.301359e+000 2.198694e+000 2.123722e+000 2.056058e+000 1.970793e+000 1.885320e+000 2.077554e+000
<GCONST> 9.658398e+001
<TRANSP> 5
 0.000000e+000 1.000000e+000 0.000000e+000 0.000000e+000 0.000000e+000
 0.000000e+000 5.184917e-001 4.815082e-001 0.000000e+000 0.000000e+000
 0.000000e+000 0.000000e+000 4.772905e-001 5.227095e-001 0.000000e+000
 0.000000e+000 0.000000e+000 0.000000e+000 8.452560e-001 1.547440e-001
 0.000000e+000 0.000000e+000 0.000000e+000 0.000000e+000 0.000000e+000
<ENDHMM>
~h "i"
<BEGINHMM>
<NUMSTATES> 5
<STATE> 2
<MEAN> 25
 -3.267311e-001 1.377996e+000 1.263839e+001 2.519322e+000 -7.898815e+000 -5.681602e+000 -2.850176e+000 -2.206567e+000 -6.571782e+000 -2.060601e+000 3.285211e+000 1.049726e+000 5.068628e-001 -7.923539e-002 2.951498e+000 -5.101871e-001 -2.716305e+000 2.025851e-001 -1.567250e+000 -4.166631e-001 -2.074676e+000 -1.855131e-001 1.238956e+000 -2.761498e-001 1.808554e+000
<VARIANCE> 25
 3.302954e+001 3.778225e+001 5.520685e+001 4.109518e+001 5.649265e+001 4.464133e+001 5.910679e+001 6.017899e+001 5.383755e+001 3.770887e+001 3.363682e+001 3.091027e+001 6.062008e+000 3.312488e+000 5.385413e+000 4.785361e+000 5.445562e+000 5.124118e+000 6.656501e+000 6.533822e+000 6.641672e+000 4.982681e+000 3.523269e+000 3.786923e+000 5.270241e+000
<GCONST> 1.124779e+002
<STATE> 3
<MEAN> 25
 6.879042e-001 1.182108e+000 1.785634e+001 5.673437e-001 -1.372099e+001 -3.626335e+000 -6.527099e+000 -2.985267e+000 -1.004975e+001 -1.650809e+000 5.787063e+000 1.820949e-002 1.140611e-001 2.019621e-001 1.676355e-001 -2.089033e-001 -3.138243e-001 2.583303e-001 -8.220951e-002 -5.738646e-002 2.868164e-002 2.072526e-001 1.277056e-001 -6.356344e-002 -1.900581e-001
<VARIANCE> 25
 1.360913e+001 2.739071e+001 3.687775e+001 4.193819e+001 3.353281e+001 4.319135e+001 3.599557e+001 5.532455e+001 5.033242e+001 5.453306e+001 3.297170e+001 4.076637e+001 1.246183e+000 2.176122e+000 3.100340e+000 2.497145e+000 3.954815e+000 3.272080e+000 3.545176e+000 3.927975e+000 3.750649e+000 2.771700e+000 2.307807e+000 2.060187e+000 3.327184e+000
<GCONST> 1.025484e+002
<STATE> 4
<MEAN> 25
 3.030713e-001 3.293219e+000 1.409958e+001 9.925702e-001 -9.411724e+000 -3.078025e+000 -3.196160e+000 -3.236241e+000 -6.824453e+000 -9.170946e-001 3.432937e+000 4.798779e-001 7.319964e-002 1.119455e-001 -1.156035e+000 2.871783e-001 9.544256e-001 -1.560433e-001 5.753849e-001 2.231017e-001 6.983072e-001 3.325229e-002 -4.533887e-001 1.042024e-001 -1.078114e+000
<VARIANCE> 25
 1.910178e+001 3.168387e+001 6.617992e+001 4.138702e+001 5.807522e+001 5.299886e+001 5.172188e+001 5.752162e+001 5.217560e+001 4.058784e+001 3.583904e+001 3.165435e+001 1.306680e+000 1.886947e+000 2.412378e+000 2.045900e+000 3.140566e+000 2.613425e+000 2.899930e+000 3.227863e+000 3.062810e+000 2.414895e+000 2.192065e+000 1.818710e+000 3.134330e+000
<GCONST> 1.023568e+002
<TRANSP> 5
 0.000000e+000 1.000000e+000 0.000000e+000 0.000000e+000 0.000000e+000
 0.000000e+000 6.551557e-001 3.448443e-001 0.000000e+000 0.000000e+000
 0.000000e+000 0.000000e+000 6.485637e-001 3.514363e-001 0.000000e+000
 0.000000e+000 0.000000e+000 0.000000e+000 8.567833e-001 1.432167e-001
 0.000000e+000 0.000000e+000 0.000000e+000 0.000000e+000 0.000000e+000
<ENDHMM>
~h "j"
<BEGINHMM>
<NUMSTATES> 5
<STATE> 2
<MEAN> 25
 3.135231e+000 8.109398e+000 8.710782e+000 5.813458e+000 -1.296352e+000 -4.183555e+000 2.490906e-001 6.894045e-001 -1.227169e+000 -3.411388e+000 1.497793e-001 1.840806e+000 -4.957263e-001 1.354354e+000 3.769212e-001 3.644148e-001 8.246271e-001 -7.810253e-002 9.838478e-001 -9.705694e-002 3.365568e-001 -1.058621e-001 -1.225083e-001 1.310101e-001 -1.109260e+000
<VARIANCE> 25
 4.006526e+001 4.878522e+001 4.239702e+001 2.945951e+001 4.416627e+001 4.800438e+001 5.080770e+001 4.487885e+001 4.266082e+001 3.257613e+001 2.768173e+001 2.526603e+001 5.736333e+000 3.642334e+000 3.518680e+000 3.081255e+000 3.837844e+000 3.478348e+000 4.341678e+000 4.256303e+000 4.350039e+000 3.154210e+000 2.854495e+000 2.761620e+000 8.091452e+000
<GCONST> 1.075388e+002
<STATE> 3
<MEAN> 25
 -6.672032e+000 8.865267e+000 7.665066e+000 3.900046e+000 1.732072e+000 -4.255126e+000 1.963868e+000 -1.243814e+000 -9.247540e-001 -2.420623e+000 1.738327e+000 4.067566e+000 -1.009693e+000 -1.610678e+000 3.324110e-001 -7.785639e-001 -1.506019e+000 -8.401771e-001 -1.294112e+000 -4.762042e-002 -3.543458e-001 -2.948210e-002 8.297674e-001 7.928424e-001 3.317838e+000
<VARIANCE> 25
 6.147037e+001 4.156654e+001 4.569250e+001 2.828800e+001 4.848032e+001 5.261553e+001 4.173483e+001 3.080540e+001 2.799840e+001 2.432677e+001 2.160247e+001 2.091391e+001 1.290303e+001 4.172472e+000 5.123082e+000 4.041625e+000 9.372649e+000 4.619951e+000 4.940754e+000 5.500525e+000 4.499453e+000 2.917626e+000 2.523543e+000 2.673336e+000 4.109087e+000
<GCONST> 1.085811e+002
<STATE> 4
<MEAN> 25
 3.039738e-001 -9.366810e-001 9.703426e+000 9.452796e-002 -9.738131e+000 -7.978955e+000 -6.125090e+000 3.704771e+000 -4.247768e-001 -2.420676e+000 4.661398e+000 4.482871e+000 2.084432e+000 -2.560114e+000 -1.299213e+000 -1.249255e+000 -1.150842e+000 5.568660e-001 -1.265849e+000 2.032660e+000 1.133103e+000 6.917412e-001 -4.246920e-001 -1.428357e+000 1.378310e+000
<VARIANCE> 25
 2.404826e+001 3.651030e+001 3.452426e+001 4.054128e+001 3.631359e+001 2.696396e+001 4.388143e+001 6.608584e+001 5.532479e+001 2.715546e+001 2.614374e+001 2.325208e+001 3.417655e+000 3.429035e+000 5.088536e+000 2.596100e+000 6.612271e+000 4.078317e+000 6.554277e+000 7.775699e+000 5.567008e+000 3.205487e+000 4.331663e+000 3.098866e+000 1.785158e+000
<GCONST> 1.068787e+002
<TRANSP> 5
 0.000000e+000 1.000000e+000 0.000000e+000 0.000000e+000 0.000000e+000
 0.000000e+000 8.196217e-001 1.803783e-001 0.000000e+000 0.000000e+000
 0.000000e+000 0.000000e+000 7.611428e-001 2.388572e-001 0.000000e+000
 0.000000e+000 0.000000e+000 0.000000e+000 6.335178e-001 3.664822e-001
 0.000000e+000 0.000000e+000 0.000000e+000 0.000000e+000 0.000000e+000
<ENDHMM>
~h "k"
<BEGINHMM>
<NUMSTATES> 5
<STATE> 2
<MEAN> 25
 -1.227644e+000 3.401828e+000 -1.423594e+000 1.902618e+000 1.736426e+000 -2.506832e+000 2.601499e+000 -1.234228e+000 4.576784e-001 7.145060e-001 -5.051408e-001 1.124163e+000 -1.150260e+000 -5.315444e-001 -9.931772e-001 3.232009e-001 8.499393e-001 -4.709533e-001 1.484788e-001 2.251356e-001 3.528266e-001 5.646349e-002 -1.227504e-001 5.600579e-001 -5.647107e-001
<VARIANCE> 25
 3.399542e+001 3.469168e+001 3.887123e+001 3.825632e+001 4.463367e+001 4.710359e+001 4.304842e+001 4.793035e+001 4.533698e+001 3.823631e+001 3.126834e+001 3.233205e+001 2.550563e+000 5.388936e+000 4.453159e+000 3.601065e+000 5.059732e+000 4.421141e+000 4.312264e+000 4.315415e+000 4.187674e+000 3.721802e+000 3.010830e+000 2.727716e+000 1.210269e+001
<GCONST> 1.087561e+002
<STATE> 3
<MEAN> 25
 -5.101577e+000 -2.420438e+000 -6.970341e+000 1.032594e+000 5.422626e+000 -4.589840e+000 1.267927e+000 7.674665e-001 9.540708e-001 2.490226e+000 -1.401195e+000 2.645744e+000 -5.133249e-001 -1.615147e+000 -1.597724e+000 -9.469132e-001 8.109800e-001 -6.069684e-001 -7.863916e-001 7.109690e-001 -3.338724e-003 6.353408e-001 -4.324471e-001 2.772770e-002 3.796566e+000
<VARIANCE> 25
 3.111969e+001 5.677197e+001 6.096732e+001 4.767439e+001 5.799247e+001 5.593388e+001 5.117260e+001 4.531614e+001 4.310390e+001 3.741547e+001 3.024919e+001 3.243521e+001 4.377444e+000 6.024989e+000 7.456316e+000 5.676705e+000 7.285424e+000 6.061309e+000 5.667750e+000 5.254831e+000 5.057351e+000 4.379947e+000 4.039458e+000 4.032802e+000 1.480482e+001
<GCONST> 1.142893e+002
<STATE> 4
<MEAN> 25
 -3.591106e+000 -2.991563e+000 -7.010700e+000 -1.673658e+000 4.079240e+000 -4.610342e+000 2.907199e-001 2.227993e+000 8.998182e-001 2.458942e+000 -2.106753e+000 7.738855e-001 1.462327e+000 1.664983e-001 1.030903e+000 -8.710842e-001 -1.247193e+000 6.213182e-001 -4.129248e-001 4.040152e-001 -2.297745e-001 -3.256772e-001 1.854811e-001 -1.128909e+000 2.428733e+000
<VARIANCE> 25
 4.299966e+001 4.410289e+001 6.153823e+001 4.758888e+001 5.639976e+001 6.203967e+001 5.083820e+001 4.756355e+001 4.184955e+001 3.571768e+001 3.227674e+001 3.922980e+001 5.214879e+000 4.903442e+000 6.035740e+000 5.325161e+000 6.147938e+000 5.568561e+000 4.834637e+000 5.201608e+000 4.695399e+000 3.838899e+000 3.820460e+000 4.454234e+000 9.207212e+000
<GCONST> 1.132970e+002
<TRANSP> 5
 0.000000e+000 1.000000e+000 0.000000e+000 0.000000e+000 0.000000e+000
 0.000000e+000 6.869476e-001 3.130524e-001 0.000000e+000 0.000000e+000
 0.000000e+000 0.000000e+000 5.346341e-001 4.653659e-001 0.000000e+000
 0.000000e+000 0.000000e+000 0.000000e+000 6.397737e-001 3.602264e-001
 0.000000e+000 0.000000e+000 0.000000e+000 0.000000e+000 0.000000e+000
<ENDHMM>
~h "l"
<BEGINHMM>
<NUMSTATES> 5
<STATE> 2
<MEAN> 25
 6.755998e+000 -5.055076e+000 1.194141e+000 -6.500115e+000 -2.420192e+000 2.536397e+000 -9.005688e+000 -4.517030e+000 3.480953e+000 4.967966e+000 1.524817e+000 -3.369933e+000 4.746189e-001 9.462246e-002 5.045933e-001 -7.440465e-001 5.835179e-001 1.076902e-001 -1.363671e+000 -1.097842e+000 2.170729e-001 1.094728e+000 3.434827e-001 -3.352184e-001 -2.257809e-001
<VARIANCE> 25
 1.533807e+001 2.740084e+001 4.817356e+001 6.323219e+001 5.393889e+001 6.727367e+001 7.453978e+001 1.057579e+002 5.899367e+001 5.046523e+001 4.930841e+001 4.353365e+001 1.135400e+000 1.790684e+000 2.766328e+000 4.371690e+000 4.476129e+000 5.376583e+000 4.713867e+000 6.098672e+000 4.254351e+000 4.051463e+000 4.264600e+000 3.133145e+000 1.599733e+000
<GCONST> 1.084998e+002
<STATE> 3
<MEAN> 25
 7.333148e+000 -4.562171e+000 1.916421e+000 -8.222490e+000 -1.150145e+000 3.030832e+000 -1.156558e+001 -5.988814e+000 3.441322e+000 6.773128e+000 2.326368e+000 -3.719841e+000 -8.947075e-002 2.874771e-002 -7.501218e-002 -1.837874e-001 2.981655e-001 -8.944585e-002 -1.470846e-001 3.708331e-001 1.106554e-001 -9.707747e-002 -2.246605e-001 -6.551479e-002 -1.973177e-002
<VARIANCE> 25
 1.305225e+001 2.406922e+001 4.577522e+001 6.631303e+001 5.246531e+001 5.811619e+001 7.842751e+001 8.698731e+001 5.733778e+001 5.275958e+001 4.785968e+001 4.240364e+001 7.081928e-001 1.799640e+000 3.082900e+000 3.746029e+000 2.962215e+000 4.144842e+000 4.494153e+000 6.771394e+000 3.695349e+000 3.863933e+000 4.085396e+000 2.782926e+000 1.448525e+000
<GCONST> 1.062683e+002
<STATE> 4
<MEAN> 25
 6.074499e+000 -3.540024e+000 -6.200067e-001 -7.701071e+000 4.950021e-001 3.477981e+000 -7.815301e+000 -2.855160e+000 3.145537e+000 4.259025e+000 7.852375e-001 -3.557322e+000 -3.935665e-001 -3.711758e-002 -4.038269e-001 5.313547e-001 -2.691166e-002 -1.109697e-001 9.260039e-001 7.901223e-001 -5.413585e-002 -8.241140e-001 -5.764658e-001 1.656338e-001 -1.235998e-001
<VARIANCE> 25
 2.066683e+001 3.377425e+001 5.429418e+001 7.480705e+001 5.681731e+001 6.249342e+001 9.026880e+001 7.604669e+001 5.658730e+001 5.516097e+001 5.107585e+001 4.374356e+001 7.093417e-001 2.031660e+000 2.487050e+000 3.143077e+000 3.028881e+000 3.549121e+000 3.977693e+000 4.744986e+000 3.458863e+000 3.340116e+000 3.838683e+000 2.469565e+000 1.899734e+000
<GCONST> 1.066435e+002
<TRANSP> 5
 0.000000e+000 1.000000e+000 0.000000e+000 0.000000e+000 0.000000e+000
 0.000000e+000 5.266546e-001 4.733455e-001 0.000000e+000 0.000000e+000
 0.000000e+000 0.000000e+000 4.828909e-001 5.171092e-001 0.000000e+000
 0.000000e+000 0.000000e+000 0.000000e+000 6.408123e-001 3.591877e-001
 0.000000e+000 0.000000e+000 0.000000e+000 0.000000e+000 0.000000e+000
<ENDHMM>
~h "m"
<BEGINHMM>
<NUMSTATES> 5
<STATE> 2
<MEAN> 25
 8.037775e+000 -1.128752e+000 1.899689e+000 -4.863580e-001 -1.113700e+000 4.790004e+000 -5.652241e-001 -6.960788e+000 -6.989495e+000 7.345391e-001 7.143370e-001 -2.511985e+000 3.837342e-001 1.185616e+000 1.625769e+000 2.018939e+000 2.999200e-001 2.774973e-002 9.968038e-001 -2.856189e+000 -2.835080e+000 -7.276652e-002 -5.150819e-001 8.640934e-001 -9.535481e-001
<VARIANCE> 25
 2.028338e+001 3.771912e+001 3.837227e+001 6.281382e+001 3.871725e+001 5.167737e+001 6.005687e+001 7.113845e+001 6.354620e+001 4.321979e+001 4.857254e+001 4.536841e+001 1.711273e+000 2.308338e+000 3.598614e+000 4.153434e+000 3.096218e+000 3.490792e+000 5.105898e+000 5.436640e+000 6.180408e+000 4.033961e+000 5.986356e+000 4.199180e+000 3.553538e+000
<GCONST> 1.094421e+002
<STATE> 3
<MEAN> 25
 8.108644e+000 8.797995e-001 5.830553e+000 3.542407e+000 -5.406260e-001 4.533391e+000 1.242620e+000 -1.243631e+001 -1.281391e+001 5.237086e-001 -1.240755e+000 2.434260e-001 -4.051499e-003 1.416108e-001 4.085292e-001 2.850010e-001 1.028754e-001 2.192448e-001 1.523100e-001 -5.164477e-001 -6.196586e-001 -1.364136e-001 -2.451691e-001 2.364900e-001 1.316978e-002
<VARIANCE> 25
 1.165248e+001 2.401318e+001 2.712323e+001 4.124488e+001 3.474376e+001 4.964292e+001 6.951032e+001 5.476418e+001 4.822232e+001 5.211118e+001 5.719278e+001 4.937425e+001 9.240929e-001 1.810948e+000 2.461730e+000 3.809845e+000 2.010427e+000 2.414534e+000 3.128998e+000 4.172101e+000 4.753735e+000 2.845510e+000 3.798465e+000 2.904005e+000 2.958430e+000
<GCONST> 1.030658e+002
<STATE> 4
<MEAN> 25
 6.718345e+000 1.037801e+000 4.298582e+000 2.096962e+000 -6.377701e-001 5.434782e+000 3.166460e-001 -9.112099e+000 -9.504605e+000 -4.580586e-001 -1.337685e+000 -6.002082e-001 -1.316316e-001 -1.729482e-001 -7.643161e-001 -6.518435e-001 -1.008219e-001 -3.070564e-002 -1.676042e-001 1.039678e+000 1.065746e+000 5.702937e-003 2.443617e-001 -4.071531e-001 2.258991e-001
<VARIANCE> 25
 2.116882e+001 2.669046e+001 3.800937e+001 5.047015e+001 4.406160e+001 5.134816e+001 6.124811e+001 6.214130e+001 6.087852e+001 4.556728e+001 4.850764e+001 4.134413e+001 5.673662e-001 1.585354e+000 2.558129e+000 3.152807e+000 1.901463e+000 2.137510e+000 2.676636e+000 3.916344e+000 4.422781e+000 2.391676e+000 2.964323e+000 2.699289e+000 2.069700e+000
<GCONST> 1.022427e+002
<TRANSP> 5
 0.000000e+000 1.000000e+000 0.000000e+000 0.000000e+000 0.000000e+000
 0.000000e+000 5.901532e-001 4.098468e-001 0.000000e+000 0.000000e+000
 0.000000e+000 0.000000e+000 5.434640e-001 4.565360e-001 0.000000e+000
 0.000000e+000 0.000000e+000 0.000000e+000 8.021818e-001 1.978182e-001
 0.000000e+000 0.000000e+000 0.000000e+000 0.000000e+000 0.000000e+000
<ENDHMM>
~h "n"
<BEGINHMM>
<NUMSTATES> 5
<STATE> 2
<MEAN> 25
 7.118532e+000 -3.947388e+000 4.016387e+000 1.089324e+000 -2.908230e+000 -2.208680e+000 -4.806292e+000 -5.139999e-001 -2.646610e-001 1.860186e+000 -5.185111e+000 -3.926149e+000 6.018828e-001 1.996258e+000 1.852099e+000 2.151279e+000 -4.731547e-001 -9.898207e-001 5.460367e-001 -3.850301e+000 -7.292919e-001 1.165286e+000 -7.923490e-001 8.752050e-001 -1.966814e+000
<VARIANCE> 25
 9.801064e+000 3.427557e+001 3.947858e+001 4.121672e+001 4.304262e+001 4.932766e+001 4.803368e+001 1.175058e+002 5.119433e+001 4.889258e+001 4.194140e+001 3.500552e+001 7.805988e-001 2.242307e+000 3.803410e+000 2.822463e+000 3.249771e+000 4.409997e+000 5.567570e+000 7.693394e+000 6.073879e+000 5.336566e+000 5.362882e+000 3.003462e+000 1.568715e+000
<GCONST> 1.066357e+002
<STATE> 3
<MEAN> 25
 7.983922e+000 8.305001e-001 7.849533e+000 5.223605e+000 -4.413625e+000 -3.168448e+000 -2.608728e+000 -9.897734e+000 -2.414505e+000 4.370752e+000 -6.438138e+000 -1.050964e+000 1.313775e-001 9.492750e-001 4.269649e-001 7.063389e-001 -9.372406e-002 1.168526e-001 5.575110e-001 -1.332957e+000 -4.853637e-001 2.068770e-001 -1.187755e-001 6.031163e-001 -9.617310e-001
<VARIANCE> 25
 8.914890e+000 1.906637e+001 2.433987e+001 3.110639e+001 3.462844e+001 4.341534e+001 6.383530e+001 6.053867e+001 4.976534e+001 5.052821e+001 4.421484e+001 3.539595e+001 6.721996e-001 1.943516e+000 2.337820e+000 2.254189e+000 2.404277e+000 2.685550e+000 3.743210e+000 6.779480e+000 3.668496e+000 3.305473e+000 2.971796e+000 2.318264e+000 1.864284e+000
<GCONST> 1.005492e+002
<STATE> 4
<MEAN> 25
 5.949172e+000 2.874746e+000 6.516292e+000 5.996442e+000 -1.994934e+000 -1.401635e+000 -5.672920e-001 -8.163863e+000 -2.945103e+000 2.268323e+000 -4.950808e+000 4.345651e-001 -5.397090e-001 2.332890e-001 -5.544060e-001 -1.696137e-001 5.622337e-001 2.400376e-001 1.872974e-001 7.376533e-001 5.601109e-002 -5.634925e-001 3.999146e-001 -1.836695e-002 -7.899177e-001
<VARIANCE> 25
 2.602958e+001 2.696181e+001 3.071586e+001 3.166638e+001 4.948670e+001 3.620752e+001 5.956781e+001 6.674982e+001 4.846075e+001 5.284776e+001 4.344112e+001 3.385100e+001 1.152680e+000 2.127704e+000 2.004200e+000 2.289793e+000 2.600515e+000 2.386903e+000 3.086848e+000 4.746902e+000 3.042633e+000 2.818451e+000 2.455933e+000 2.128398e+000 2.823196e+000
<GCONST> 1.020730e+002
<TRANSP> 5
 0.000000e+000 1.000000e+000 0.000000e+000 0.000000e+000 0.000000e+000
 0.000000e+000 6.169024e-001 3.830976e-001 0.000000e+000 0.000000e+000
 0.000000e+000 0.000000e+000 5.377980e-001 4.622019e-001 0.000000e+000
 0.000000e+000 0.000000e+000 0.000000e+000 8.142006e-001 1.857994e-001
 0.000000e+000 0.000000e+000 0.000000e+000 0.000000e+000 0.000000e+000
<ENDHMM>
~h "o"
<BEGINHMM>
<NUMSTATES> 5
<STATE> 2
<MEAN> 25
 5.928129e+000 3.411860e-001 -5.936496e+000 -9.752658e+000 -2.780278e+000 6.219601e+000 -4.294938e+000 -2.316117e+000 -6.305957e-002 1.839962e+000 4.080216e+000 -2.261442e-001 1.680491e+000 -2.520435e-001 -4.908762e-001 -3.123996e+000 -1.349516e+000 2.563921e+000 -6.304946e-001 1.292529e-001 -5.311632e-002 -4.644793e-003 1.263955e+000 -3.146771e-001 1.923712e+000
<VARIANCE> 25
 3.182909e+001 3.314076e+001 4.550650e+001 7.631075e+001 6.037487e+001 5.509322e+001 7.557348e+001 5.496863e+001 5.720216e+001 5.774296e+001 4.118805e+001 3.509307e+001 4.353123e+000 3.144492e+000 5.421339e+000 6.940172e+000 6.982175e+000 5.510390e+000 5.899889e+000 6.559520e+000 5.638532e+000 5.447473e+000 4.339190e+000 3.929592e+000 5.230366e+000
<GCONST> 1.143465e+002
<STATE> 3
<MEAN> 25
 8.233934e+000 -5.376558e-001 -6.411655e+000 -1.547853e+001 -4.844837e+000 1.168421e+001 -4.673507e+000 -2.149770e+000 -4.028307e-001 1.414988e+000 6.942212e+000 -2.414018e-001 1.961581e-001 -1.615360e-001 -1.071433e-001 -7.921511e-001 -5.066013e-002 8.409785e-001 2.461000e-001 1.038958e-001 3.374345e-002 -1.966958e-001 2.745666e-001 8.599287e-002 7.431671e-002
<VARIANCE> 25
 1.295813e+001 2.942751e+001 2.735428e+001 5.377501e+001 5.076726e+001 4.207349e+001 6.262283e+001 5.427497e+001 5.397514e+001 6.166830e+001 4.017271e+001 3.989569e+001 9.269731e-001 2.231727e+000 1.693388e+000 4.552385e+000 3.159530e+000 3.656249e+000 3.798106e+000 3.339804e+000 3.936466e+000 4.245085e+000 2.893891e+000 2.730009e+000 3.373864e+000
<GCONST> 1.043275e+002
<STATE> 4
<MEAN> 25
 7.528836e+000 3.915814e-001 -5.650795e+000 -1.411977e+001 -3.856831e+000 1.050967e+001 -2.419503e+000 -1.703296e+000 8.408389e-001 -9.399028e-002 4.372509e+000 -2.758111e-002 -2.267065e-001 5.612559e-002 2.457153e-001 1.120346e+000 3.826399e-001 -8.090802e-001 1.569504e-001 -8.901279e-002 1.271903e-001 1.518639e-001 -5.056570e-001 -1.027566e-001 -8.019550e-001
<VARIANCE> 25
 1.999661e+001 3.822554e+001 2.573086e+001 7.571678e+001 5.098784e+001 4.859048e+001 6.844797e+001 5.193975e+001 4.903451e+001 5.794735e+001 3.515680e+001 3.934693e+001 7.751170e-001 1.514498e+000 1.420166e+000 3.612573e+000 2.298445e+000 2.944064e+000 2.810797e+000 2.663096e+000 2.670287e+000 2.909286e+000 2.245321e+000 1.990190e+000 2.309773e+000
<GCONST> 1.014410e+002
<TRANSP> 5
 0.000000e+000 1.000000e+000 0.000000e+000 0.000000e+000 0.000000e+000
 0.000000e+000 6.054682e-001 3.945318e-001 0.000000e+000 0.000000e+000
 0.000000e+000 0.000000e+000 5.611832e-001 4.388168e-001 0.000000e+000
 0.000000e+000 0.000000e+000 0.000000e+000 8.596241e-001 1.403758e-001
 0.000000e+000 0.000000e+000 0.000000e+000 0.000000e+000 0.000000e+000
<ENDHMM>
~h "p"
<BEGINHMM>
<NUMSTATES> 5
<STATE> 2
<MEAN> 25
 2.372260e+000 5.527807e+000 -6.685030e-001 1.373262e+000 2.112349e+000 8.042037e-001 2.641861e+000 -3.927721e+000 -1.692913e-001 1.483954e-001 -6.995422e-002 -6.533527e-002 -1.229255e+000 2.260306e-001 -3.923498e-001 4.524039e-001 2.127717e-001 -5.480886e-001 5.015626e-001 2.152824e-001 5.172613e-001 -3.109376e-001 5.018643e-002 4.006460e-001 -1.505595e+000
<VARIANCE> 25
 3.817667e+001 2.710070e+001 3.113181e+001 4.243027e+001 2.669156e+001 4.095755e+001 3.292258e+001 3.868983e+001 3.802667e+001 3.035516e+001 2.860896e+001 2.949022e+001 2.498125e+000 3.668290e+000 2.456751e+000 3.416718e+000 2.841519e+000 3.446542e+000 3.294252e+000 3.208571e+000 3.555672e+000 2.890840e+000 2.675719e+000 2.276934e+000 1.243311e+001
<GCONST> 1.036505e+002
<STATE> 3
<MEAN> 25
 -1.019423e+000 2.277283e+000 -3.361882e+000 -6.177711e-002 1.224953e+000 7.293165e-002 2.653988e+000 -2.316525e+000 1.270234e+000 -2.647176e-001 1.183595e+000 7.831035e-001 5.483375e-001 -2.116670e+000 -1.142367e+000 -1.854306e+000 -5.536003e-001 8.724871e-001 -7.984495e-001 2.295500e-001 4.611149e-001 1.816556e-001 6.633503e-001 -5.080041e-001 4.616704e+000
<VARIANCE> 25
 3.386555e+001 3.023195e+001 2.686028e+001 5.176707e+001 2.639162e+001 4.428560e+001 3.125745e+001 2.942795e+001 3.067531e+001 2.545163e+001 2.476120e+001 2.482235e+001 7.481556e+000 4.738420e+000 3.420691e+000 7.992159e+000 3.740141e+000 8.405297e+000 4.767393e+000 4.533944e+000 4.185377e+000 3.731043e+000 3.560870e+000 4.441334e+000 1.937602e+001
<GCONST> 1.089559e+002
<STATE> 4
<MEAN> 25
 -3.136684e+000 6.395326e-001 -4.087174e+000 6.224668e-001 1.842913e+000 7.858616e-001 2.820967e+000 -9.107490e-001 2.039822e+000 -4.975438e-001 9.707880e-001 1.390273e+000 5.341861e-001 -7.839148e-001 -9.268118e-002 -5.675799e-001 -3.111170e-001 3.030954e-001 -5.653858e-001 8.303326e-002 -1.082923e-002 -6.963695e-003 1.672819e-001 -3.161547e-001 2.227592e+000
<VARIANCE> 25
 3.764978e+001 3.380687e+001 2.127066e+001 5.010377e+001 2.576479e+001 4.446906e+001 3.469099e+001 2.737548e+001 2.713973e+001 2.483923e+001 2.230919e+001 2.726283e+001 4.040412e+000 3.450494e+000 2.454584e+000 4.598475e+000 2.901818e+000 4.793191e+000 3.519418e+000 3.337717e+000 2.927408e+000 2.681814e+000 2.575737e+000 3.000780e+000 1.282216e+001
<GCONST> 1.037027e+002
<TRANSP> 5
 0.000000e+000 1.000000e+000 0.000000e+000 0.000000e+000 0.000000e+000
 0.000000e+000 6.630592e-001 3.369408e-001 0.000000e+000 0.000000e+000
 0.000000e+000 0.000000e+000 4.738103e-001 5.261896e-001 0.000000e+000
 0.000000e+000 0.000000e+000 0.000000e+000 7.477780e-001 2.522220e-001
 0.000000e+000 0.000000e+000 0.000000e+000 0.000000e+000 0.000000e+000
<ENDHMM>
~h "q"
<BEGINHMM>
<NUMSTATES> 5
<STATE> 2
<MEAN> 25
 -5.866391e+000 3.964093e+000 1.315583e+000 6.398951e+000 -1.037132e+000 -2.939881e+000 3.990044e+000 -3.196071e+000 -4.737663e-002 -3.383720e+000 4.162794e-001 3.224027e+000 -4.173436e-001 -7.656400e-002 -3.109723e-001 -8.916385e-002 3.909250e-001 -8.944147e-002 2.920493e-002 6.324485e-002 2.947601e-001 -6.681252e-003 -1.340529e-001 7.296237e-001 -5.754691e-001
<VARIANCE> 25
 2.584364e+001 3.354710e+001 7.488144e+001 1.093975e+001 2.987844e+001 5.339231e+001 1.705738e+001 1.190198e+001 7.368463e+001 2.703315e+001 2.273900e+001 3.475351e+001 1.913455e+000 5.316957e+000 7.870689e+000 2.113559e+000 2.598358e+000 3.403693e+000 3.637571e+000 1.085373e+000 4.781477e+000 4.462288e+000 2.078170e+000 3.942666e+000 7.674333e+000
<GCONST> 1.022635e+002
<STATE> 3
<MEAN> 25
 -1.068250e+000 1.154256e+000 2.629939e+000 1.474555e+000 -3.336397e+000 -8.416789e+000 1.314470e+000 8.049923e-002 -3.063509e+000 -8.619965e-001 2.279117e+000 3.640057e+000 -6.202022e-001 -2.138065e-001 -1.585946e+000 -4.492006e-001 5.024132e-001 5.380537e-001 1.846988e-001 -3.840167e-001 8.324321e-001 -3.784895e-001 -2.753219e-001 2.809879e-001 2.596614e-002
<VARIANCE> 25
 2.885496e+001 6.259581e+001 1.949816e+002 4.508157e+001 6.766046e+001 3.583450e+001 3.832790e+001 4.697155e+001 4.577325e+001 2.793139e+001 3.485045e+001 5.015944e+001 3.244306e+000 5.859969e+000 8.670210e+000 5.108370e+000 5.695344e+000 4.208928e+000 2.836081e+000 3.722622e+000 7.190377e+000 2.932668e+000 4.182415e+000 3.117295e+000 1.430268e+001
<GCONST> 1.129826e+002
<STATE> 4
<MEAN> 25
 -1.108470e+001 3.227496e+000 -5.109883e+000 3.104761e+000 3.770747e-001 1.940901e-001 8.677123e+000 -4.886940e+000 4.773769e+000 -3.049937e+000 2.053367e-001 3.105698e+000 -1.856958e-001 1.768709e-001 8.086771e-003 -1.485534e-001 1.789740e-001 4.200780e-001 1.204845e-001 6.446455e-002 1.264543e-001 -4.787497e-002 -1.898791e-001 2.464512e-002 -9.407207e-003
<VARIANCE> 25
 5.865197e+001 1.432375e+001 2.524274e+001 2.262895e+001 1.408958e+001 2.675473e+001 3.983334e+001 1.764731e+001 2.794603e+001 1.685713e+001 3.160046e+001 1.381338e+001 1.351476e+000 2.236898e+000 2.713156e+000 1.146465e+000 2.106601e+000 1.762375e+000 1.844087e+000 1.906026e+000 2.235604e+000 1.878820e+000 1.856611e+000 1.600541e+000 1.972796e+000
<GCONST> 9.176308e+001
<TRANSP> 5
 0.000000e+000 1.000000e+000 0.000000e+000 0.000000e+000 0.000000e+000
 0.000000e+000 7.292972e-001 2.707029e-001 0.000000e+000 0.000000e+000
 0.000000e+000 0.000000e+000 8.562764e-001 1.437236e-001 0.000000e+000
 0.000000e+000 0.000000e+000 0.000000e+000 9.316339e-001 6.836606e-002
 0.000000e+000 0.000000e+000 0.000000e+000 0.000000e+000 0.000000e+000
<ENDHMM>
~h "r"
<BEGINHMM>
<NUMSTATES> 5
<STATE> 2
<MEAN> 25
 5.035512e+000 -5.175325e+000 -3.759825e+000 -1.248019e-001 -2.851001e+000 -6.936325e-001 -5.141023e+000 3.235840e-001 6.371237e+000 2.161105e+000 4.003678e-001 -3.104230e+000 3.695966e-001 -4.671768e-002 1.577058e-001 1.221310e+000 -2.342915e-001 -2.277144e-001 -5.826806e-001 -4.289037e-001 5.891465e-001 -9.477037e-002 2.008725e-001 1.287470e-001 -6.430327e-001
<VARIANCE> 25
 2.703784e+001 3.149673e+001 4.432777e+001 4.709445e+001 4.964266e+001 5.002810e+001 6.475360e+001 7.799608e+001 5.051145e+001 4.370395e+001 4.098978e+001 3.834834e+001 3.038824e+000 3.120347e+000 3.134677e+000 5.638525e+000 5.128987e+000 5.399674e+000 5.588452e+000 5.995384e+000 5.589145e+000 5.197370e+000 4.520627e+000 4.082739e+000 5.141919e+000
<GCONST> 1.116185e+002
<STATE> 3
<MEAN> 25
 5.965712e+000 -5.037414e+000 -2.872832e+000 2.088541e+000 -3.397286e+000 -9.792503e-001 -6.351600e+000 -2.845055e-001 6.740995e+000 2.098563e+000 1.060979e+000 -2.794004e+000 5.667506e-002 1.172414e-001 3.895584e-001 5.014922e-001 1.837017e-002 -1.450588e-001 -1.023646e-001 -4.836027e-002 -3.855371e-001 -1.868379e-001 1.648013e-001 3.201755e-001 -7.032111e-001
<VARIANCE> 25
 2.555205e+001 3.121293e+001 4.663562e+001 4.344318e+001 5.087009e+001 5.065086e+001 6.778462e+001 7.361419e+001 5.199652e+001 4.639259e+001 4.097870e+001 3.795203e+001 2.715019e+000 3.061453e+000 3.136187e+000 4.339501e+000 5.016984e+000 5.299654e+000 5.518209e+000 6.120687e+000 5.235786e+000 4.924321e+000 4.118112e+000 4.176695e+000 4.299288e+000
<GCONST> 1.108311e+002
<STATE> 4
<MEAN> 25
 3.275205e+000 -3.547345e+000 -2.528448e+000 2.855041e+000 -1.203654e+000 -6.295964e-001 -3.012975e+000 -5.982268e-002 4.335202e+000 4.698551e-001 3.446490e-001 -8.568360e-001 -2.020652e-001 2.503783e-001 3.729771e-001 -1.368022e-001 1.467016e-001 6.459760e-003 3.074535e-001 7.693414e-002 -7.721410e-001 -2.035908e-001 2.070337e-002 2.433935e-001 -4.789400e-001
<VARIANCE> 25
 4.756163e+001 4.069305e+001 5.122014e+001 4.327631e+001 5.670008e+001 5.492535e+001 7.963023e+001 6.417779e+001 5.038613e+001 4.519722e+001 4.243867e+001 3.886495e+001 1.973193e+000 2.427239e+000 2.671222e+000 2.622820e+000 3.708910e+000 3.562104e+000 3.787136e+000 4.057580e+000 3.912078e+000 3.217176e+000 2.988158e+000 2.695710e+000 2.996235e+000
<GCONST> 1.074832e+002
<TRANSP> 5
 0.000000e+000 1.000000e+000 0.000000e+000 0.000000e+000 0.000000e+000
 0.000000e+000 4.361356e-001 5.638644e-001 0.000000e+000 0.000000e+000
 0.000000e+000 0.000000e+000 4.005448e-001 5.994553e-001 0.000000e+000
 0.000000e+000 0.000000e+000 0.000000e+000 6.419806e-001 3.580194e-001
 0.000000e+000 0.000000e+000 0.000000e+000 0.000000e+000 0.000000e+000
<ENDHMM>
~h "s"
<BEGINHMM>
<NUMSTATES> 5
<STATE> 2
<MEAN> 25
 -7.280524e+000 6.265450e+000 8.003831e-002 2.700253e+000 5.255086e+000 -4.739321e+000 2.222053e+000 1.428568e+000 1.414010e+000 -7.407678e-001 -1.345079e+000 2.263467e+000 -4.542929e+000 1.760720e+000 -1.011189e+000 7.976612e-001 1.675157e+000 -4.064464e-001 1.772695e+000 7.282398e-001 6.072590e-001 -4.322512e-001 7.834681e-001 8.642119e-001 -7.057585e-001
<VARIANCE> 25
 7.851608e+001 4.433526e+001 4.561028e+001 3.846570e+001 4.498856e+001 4.445333e+001 7.022855e+001 5.157756e+001 4.792102e+001 3.579356e+001 3.948960e+001 3.030451e+001 3.854468e+000 6.377843e+000 4.076738e+000 4.568542e+000 5.100493e+000 4.517700e+000 6.104921e+000 5.394930e+000 4.611667e+000 4.168546e+000 3.859608e+000 3.042605e+000 2.625709e+000
<GCONST> 1.110455e+002
<STATE> 3
<MEAN> 25
 -2.124696e+001 6.071529e+000 -5.309446e+000 2.131105e+000 7.340744e+000 -4.473269e+000 5.666831e+000 3.310277e+000 3.001596e+000 -9.126234e-002 2.051116e+000 4.738573e+000 -9.838705e-001 -5.236225e-001 -5.986643e-001 -2.579778e-001 -9.687898e-002 7.103927e-002 9.666768e-002 1.227824e-001 1.758959e-001 1.704526e-001 2.637524e-001 1.966334e-001 -2.714611e-001
<VARIANCE> 25
 2.524664e+001 2.422098e+001 3.331993e+001 3.212953e+001 2.826290e+001 3.014340e+001 5.333991e+001 3.636288e+001 3.537209e+001 2.613701e+001 2.438298e+001 2.282642e+001 4.067481e+000 1.645175e+000 2.048148e+000 1.657787e+000 1.864384e+000 1.940147e+000 2.152132e+000 2.095600e+000 2.052913e+000 1.893306e+000 1.889793e+000 1.582987e+000 1.471840e+000
<GCONST> 9.556277e+001
<STATE> 4
<MEAN> 25
 -1.457637e+001 2.801855e+000 -4.631775e+000 1.308016e+000 4.687670e+000 -3.652612e+000 3.330449e+000 1.871335e+000 3.382724e+000 -4.435523e-001 8.966136e-001 3.134659e+000 2.819575e+000 -3.120169e-001 8.598310e-001 -2.667021e-001 -8.371068e-001 7.424131e-002 -1.126949e+000 -6.607991e-001 -2.419041e-001 -5.337250e-002 -5.036240e-001 -7.961640e-001 1.545253e-001
<VARIANCE> 25
 7.738564e+001 2.693879e+001 3.822131e+001 2.961487e+001 3.165098e+001 3.677643e+001 5.373091e+001 3.731261e+001 3.604212e+001 2.611351e+001 2.542715e+001 2.533444e+001 9.471029e+000 2.894380e+000 3.545115e+000 2.956411e+000 2.991404e+000 3.216200e+000 4.869761e+000 3.955563e+000 3.684024e+000 2.590945e+000 2.730450e+000 2.747487e+000 4.293381e+000
<GCONST> 1.052100e+002
<TRANSP> 5
 0.000000e+000 1.000000e+000 0.000000e+000 0.000000e+000 0.000000e+000
 0.000000e+000 7.096184e-001 2.903816e-001 0.000000e+000 0.000000e+000
 0.000000e+000 0.000000e+000 8.155063e-001 1.844937e-001 0.000000e+000
 0.000000e+000 0.000000e+000 0.000000e+000 8.204193e-001 1.795807e-001
 0.000000e+000 0.000000e+000 0.000000e+000 0.000000e+000 0.000000e+000
<ENDHMM>
~h "t"
<BEGINHMM>
<NUMSTATES> 5
<STATE> 2
<MEAN> 25
 7.797663e-002 4.978670e+000 -4.759884e-001 2.411823e+000 2.050861e+000 -3.249724e+000 4.986171e-001 -1.853472e+000 2.435168e+000 6.392130e-001 -1.180239e+000 -4.297304e-002 -1.026847e+000 2.300000e-001 -3.816522e-001 2.454755e-001 2.622038e-001 -1.621685e-001 8.089187e-001 -7.269000e-002 2.091289e-001 -3.236299e-001 1.607401e-001 4.033163e-001 -1.763784e+000
<VARIANCE> 25
 3.036621e+001 2.966708e+001 3.237040e+001 3.414635e+001 3.224930e+001 3.642134e+001 4.713346e+001 4.198267e+001 3.974044e+001 3.314470e+001 3.231114e+001 2.783327e+001 2.367534e+000 4.232883e+000 2.424059e+000 3.276743e+000 3.359706e+000 3.064239e+000 3.722267e+000 3.637361e+000 3.215828e+000 2.843101e+000 2.715602e+000 2.320682e+000 1.081705e+001
<GCONST> 1.041512e+002
<STATE> 3
<MEAN> 25
 -4.173485e+000 2.557940e+000 -2.370292e+000 1.415832e+000 2.163396e+000 -3.469427e+000 2.426612e+000 -1.039511e+000 2.795921e+000 -1.493367e-001 -6.336225e-001 1.403529e+000 -1.056369e+000 -1.494439e+000 -7.129152e-001 -1.007240e+000 -1.125194e-003 -1.426626e-001 -1.137203e-001 4.396686e-001 2.572034e-001 -8.928835e-002 2.165369e-001 1.624199e-001 2.977755e+000
<VARIANCE> 25
 3.198040e+001 3.402421e+001 2.869927e+001 3.053395e+001 2.921212e+001 3.678085e+001 3.926191e+001 3.550438e+001 3.735669e+001 2.896128e+001 2.834112e+001 2.631552e+001 4.344046e+000 4.205633e+000 3.324057e+000 4.193541e+000 3.499777e+000 4.067116e+000 5.270540e+000 4.168574e+000 4.522947e+000 3.120552e+000 3.537215e+000 3.341936e+000 1.961433e+001
<GCONST> 1.069139e+002
<STATE> 4
<MEAN> 25
 -5.331786e+000 -5.567251e-001 -3.734945e+000 -6.549346e-001 2.026136e+000 -2.824687e+000 1.705800e+000 8.507028e-002 3.131006e+000 -3.023449e-001 -5.001384e-001 1.307322e+000 9.069732e-001 -7.533921e-001 1.879010e-001 -8.807783e-001 -4.648192e-001 1.935450e-001 -1.239516e+000 1.079068e-002 -8.333977e-002 1.229778e-001 3.954531e-002 -6.276953e-001 3.751414e+000
<VARIANCE> 25
 3.715628e+001 3.110836e+001 2.576611e+001 3.441665e+001 2.938710e+001 4.019131e+001 4.635482e+001 3.231243e+001 3.488600e+001 2.780397e+001 2.625039e+001 2.912754e+001 5.710494e+000 4.023337e+000 4.011725e+000 4.846572e+000 3.991227e+000 5.007307e+000 6.324065e+000 5.122675e+000 5.022975e+000 3.592071e+000 3.765798e+000 4.052064e+000 1.661197e+001
<GCONST> 1.086928e+002
<TRANSP> 5
 0.000000e+000 1.000000e+000 0.000000e+000 0.000000e+000 0.000000e+000
 0.000000e+000 7.165252e-001 2.834747e-001 0.000000e+000 0.000000e+000
 0.000000e+000 0.000000e+000 4.944892e-001 5.055108e-001 0.000000e+000
 0.000000e+000 0.000000e+000 0.000000e+000 6.740015e-001 3.259985e-001
 0.000000e+000 0.000000e+000 0.000000e+000 0.000000e+000 0.000000e+000
<ENDHMM>
~h "u"
<BEGINHMM>
<NUMSTATES> 5
<STATE> 2
<MEAN> 25
 5.914044e+000 4.352168e+000 -1.558209e+000 -3.755709e+000 -3.255256e+000 2.710825e+000 -6.761947e+000 -5.473745e+000 -3.786365e+000 -2.574916e-001 3.261016e+000 3.177027e-001 1.953216e+000 9.423172e-001 -8.472298e-002 -2.280862e+000 -1.646993e+000 1.989735e+000 -1.454592e+000 -8.411421e-001 -1.463678e+000 -1.437657e-001 1.349740e+000 4.746395e-002 1.215712e+000
<VARIANCE> 25
 3.132753e+001 3.584848e+001 4.291010e+001 7.446550e+001 5.348495e+001 5.279204e+001 8.366255e+001 7.130531e+001 5.228345e+001 4.834425e+001 3.967032e+001 3.382952e+001 4.932545e+000 3.506744e+000 4.577658e+000 6.214066e+000 6.158657e+000 5.377302e+000 7.396846e+000 7.908768e+000 6.089078e+000 5.708916e+000 4.303331e+000 3.973177e+000 4.804189e+000
<GCONST> 1.144412e+002
<STATE> 3
<MEAN> 25
 8.807817e+000 5.728664e+000 -2.094323e+000 -8.995679e+000 -6.253461e+000 8.063633e+000 -8.170412e+000 -6.512084e+000 -6.432986e+000 -1.254330e+000 6.220943e+000 1.221146e+000 3.363653e-001 2.399876e-001 4.543601e-002 -7.449619e-001 -2.337855e-001 8.063909e-001 -2.970980e-002 -1.666769e-002 -2.996942e-001 -5.133689e-002 3.714853e-001 1.505065e-001 -1.206736e-001
<VARIANCE> 25
 1.301399e+001 3.417492e+001 3.201865e+001 6.911484e+001 4.803913e+001 4.677195e+001 7.091042e+001 8.285801e+001 5.831109e+001 6.060485e+001 4.390067e+001 4.063531e+001 1.142155e+000 3.002239e+000 2.144147e+000 5.531129e+000 4.262467e+000 4.054063e+000 5.486990e+000 5.648884e+000 4.925416e+000 4.995424e+000 3.891593e+000 3.195279e+000 3.434474e+000
<GCONST> 1.087452e+002
<STATE> 4
<MEAN> 25
 8.359636e+000 6.291747e+000 -1.433557e+000 -8.201069e+000 -4.957195e+000 6.459199e+000 -6.606001e+000 -4.999671e+000 -4.915082e+000 -8.728820e-001 4.620284e+000 3.664708e-001 -4.226035e-001 -2.775907e-001 2.349369e-001 1.103104e+000 6.022134e-001 -8.115842e-001 5.299822e-001 3.673553e-002 7.328777e-001 2.782375e-001 -5.958121e-001 -1.382189e-001 -8.094594e-001
<VARIANCE> 25
 1.792015e+001 3.933250e+001 3.410872e+001 7.651567e+001 5.080591e+001 4.973941e+001 7.965622e+001 6.998829e+001 5.694238e+001 5.707433e+001 4.599481e+001 4.059819e+001 1.174924e+000 2.320610e+000 1.944142e+000 4.088821e+000 3.378028e+000 3.552476e+000 4.064339e+000 3.927190e+000 3.788883e+000 3.749811e+000 3.380212e+000 2.974775e+000 3.129053e+000
<GCONST> 1.068853e+002
<TRANSP> 5
 0.000000e+000 1.000000e+000 0.000000e+000 0.000000e+000 0.000000e+000
 0.000000e+000 5.785885e-001 4.214115e-001 0.000000e+000 0.000000e+000
 0.000000e+000 0.000000e+000 5.598993e-001 4.401006e-001 0.000000e+000
 0.000000e+000 0.000000e+000 0.000000e+000 8.137334e-001 1.862666e-001
 0.000000e+000 0.000000e+000 0.000000e+000 0.000000e+000 0.000000e+000
<ENDHMM>
~h "w"
<BEGINHMM>
<NUMSTATES> 5
<STATE> 2
<MEAN> 25
 9.053516e+000 1.666020e+000 -2.546343e+000 -8.685874e+000 -3.532151e+000 6.440676e+000 -4.021152e+000 -1.884806e+000 -2.649469e+000 8.755677e-001 3.690777e+000 -1.056201e+000 1.357181e+000 8.751775e-001 -2.057597e-001 -2.206632e+000 -1.221581e+000 1.591344e+000 -2.120556e-001 -3.966528e-001 -1.129611e+000 -5.299417e-001 1.091533e+000 7.072287e-001 3.349069e-001
<VARIANCE> 25
 2.213350e+001 7.302103e+001 3.010686e+001 7.113880e+001 4.893151e+001 6.212121e+001 6.043903e+001 5.404409e+001 6.006539e+001 5.568270e+001 4.708773e+001 4.176722e+001 2.520569e+000 3.489222e+000 2.471374e+000 3.903605e+000 4.643134e+000 4.621060e+000 4.401336e+000 4.763420e+000 4.578350e+000 4.306262e+000 3.794361e+000 3.440670e+000 4.473104e+000
<GCONST> 1.104127e+002
<STATE> 3
<MEAN> 25
 1.135013e+001 2.317272e+000 -3.092902e+000 -1.535873e+001 -7.435286e+000 1.124777e+001 -4.984568e+000 -1.140576e+000 -3.562885e+000 -1.341552e+000 6.038274e+000 1.088976e+000 -1.124681e-001 -6.767656e-001 -3.084385e-001 -6.706541e-001 5.860393e-002 6.069045e-001 -6.878753e-002 2.409145e-003 4.031009e-001 3.399491e-001 4.006062e-001 -1.021034e-001 6.906402e-001
<VARIANCE> 25
 1.192717e+001 4.146855e+001 2.208677e+001 4.983752e+001 4.768341e+001 4.667978e+001 4.090273e+001 5.073239e+001 5.116142e+001 4.715408e+001 3.681921e+001 3.682545e+001 8.066119e-001 4.462419e+000 1.684301e+000 3.434561e+000 3.794530e+000 3.450394e+000 2.712201e+000 2.657607e+000 3.462013e+000 4.378101e+000 3.105538e+000 3.987431e+000 2.845339e+000
<GCONST> 1.033644e+002
<STATE> 4
<MEAN> 25
 8.983348e+000 -2.998469e+000 -5.089502e+000 -1.571940e+001 -3.688037e+000 1.276472e+001 -4.162998e+000 -1.362173e+000 7.829093e-001 1.186414e+000 4.598218e+000 -3.388147e+000 -4.859780e-001 -8.982745e-001 -1.714346e-001 8.712404e-001 8.379911e-001 -5.642349e-001 -4.430139e-002 2.582838e-001 7.192643e-001 3.814949e-001 -8.052337e-001 -9.564478e-001 4.722917e-001
<VARIANCE> 25
 1.181049e+001 5.578748e+001 2.755129e+001 4.979192e+001 4.701881e+001 4.542084e+001 4.402670e+001 4.524762e+001 5.662988e+001 5.350478e+001 4.189711e+001 4.755830e+001 4.788333e-001 2.174234e+000 1.104041e+000 2.357946e+000 2.339789e+000 2.804642e+000 1.637051e+000 2.036400e+000 2.324376e+000 2.149061e+000 2.544340e+000 3.007045e+000 1.296780e+000
<GCONST> 9.852396e+001
<TRANSP> 5
 0.000000e+000 1.000000e+000 0.000000e+000 0.000000e+000 0.000000e+000
 0.000000e+000 6.584858e-001 3.415142e-001 0.000000e+000 0.000000e+000
 0.000000e+000 0.000000e+000 6.906990e-001 3.093010e-001 0.000000e+000
 0.000000e+000 0.000000e+000 0.000000e+000 8.221274e-001 1.778726e-001
 0.000000e+000 0.000000e+000 0.000000e+000 0.000000e+000 0.000000e+000
<ENDHMM>
~h "y"
<BEGINHMM>
<NUMSTATES> 5
<STATE> 2
<MEAN> 25
 1.225265e+000 -1.576191e+000 1.020060e+001 -1.967351e+000 -8.238325e+000 -4.760516e+000 -3.901300e+000 4.123452e+000 -3.257205e+000 -2.253924e+000 2.575877e+000 1.214369e+000 -1.360224e-001 7.840481e-001 2.382017e+000 3.392244e-002 -1.398149e+000 -5.087552e-001 -1.060792e+000 -4.422763e-001 -1.417164e+000 -2.427501e-001 1.329165e+000 8.179395e-001 4.165647e-001
<VARIANCE> 25
 2.221532e+001 5.997653e+001 7.537530e+001 3.789121e+001 5.535611e+001 5.214584e+001 5.745247e+001 7.410084e+001 7.298730e+001 5.060629e+001 3.953115e+001 3.386987e+001 1.688750e+000 2.959035e+000 4.390721e+000 2.626807e+000 3.528536e+000 3.496139e+000 3.988200e+000 4.992744e+000 4.414124e+000 4.094953e+000 2.997782e+000 2.667687e+000 3.775888e+000
<GCONST> 1.086973e+002
<STATE> 3
<MEAN> 25
 1.264686e+000 -6.228580e-001 1.631211e+001 -1.927710e+000 -1.270682e+001 -5.021287e+000 -7.807631e+000 2.432653e+000 -6.914842e+000 -2.254800e+000 6.257134e+000 3.274247e+000 1.982227e-001 -8.864480e-001 -1.030380e+000 -2.919901e-001 -3.618624e-001 -3.264060e-001 2.454721e-001 9.908943e-001 9.571394e-001 3.297822e-001 -7.151588e-002 2.855680e-003 8.026227e-001
<VARIANCE> 25
 1.106654e+001 2.939009e+001 4.704958e+001 3.861219e+001 2.940038e+001 3.968779e+001 3.749265e+001 5.836893e+001 6.096148e+001 6.265342e+001 3.230294e+001 3.107469e+001 6.046893e-001 2.668456e+000 4.482044e+000 1.457213e+000 2.624765e+000 2.039829e+000 2.680515e+000 4.650670e+000 4.375278e+000 2.828164e+000 2.463224e+000 1.906147e+000 1.778672e+000
<GCONST> 1.003426e+002
<STATE> 4
<MEAN> 25
 1.432455e+000 -5.335181e+000 5.126428e+000 -2.678466e+000 -9.188210e+000 -5.366639e+000 -2.192749e+000 8.151739e+000 2.766956e-001 -2.366495e+000 2.169627e+000 8.289241e-001 2.392387e-001 -8.315088e-001 -1.544391e+000 -2.335535e-001 1.063327e+000 5.853869e-001 4.971970e-001 7.069041e-001 9.601033e-001 -2.253744e-001 -1.224321e+000 -8.767174e-001 3.420555e-001
<VARIANCE> 25
 1.572103e+001 3.570891e+001 4.923028e+001 3.411145e+001 5.445200e+001 3.609182e+001 5.075312e+001 8.042882e+001 5.206522e+001 3.335348e+001 3.823927e+001 3.119456e+001 3.022269e-001 1.215429e+000 2.668243e+000 9.393563e-001 2.280262e+000 1.662221e+000 2.001072e+000 3.071264e+000 2.194242e+000 2.269954e+000 2.733988e+000 1.997199e+000 5.061626e-001
<GCONST> 9.583276e+001
<TRANSP> 5
 0.000000e+000 1.000000e+000 0.000000e+000 0.000000e+000 0.000000e+000
 0.000000e+000 7.371473e-001 2.628526e-001 0.000000e+000 0.000000e+000
 0.000000e+000 0.000000e+000 7.438601e-001 2.561398e-001 0.000000e+000
 0.000000e+000 0.000000e+000 0.000000e+000 8.003681e-001 1.996319e-001
 0.000000e+000 0.000000e+000 0.000000e+000 0.000000e+000 0.000000e+000
<ENDHMM>
~h "z"
<BEGINHMM>
<NUMSTATES> 5
<STATE> 2
<MEAN> 25
 -3.177770e+000 1.002816e+001 2.488132e+000 5.787591e+000 2.695655e+000 -6.730949e+000 -7.394250e-001 -1.132647e+000 8.481104e-001 -1.350700e+000 -1.495212e+000 2.491330e+000 -2.092615e+000 1.837901e+000 -6.750316e-001 8.479861e-001 1.271334e+000 -7.063375e-002 1.142520e+000 8.116435e-002 5.528555e-001 -2.101260e-001 2.410137e-001 5.704698e-001 -9.112570e-001
<VARIANCE> 25
 4.392118e+001 4.424037e+001 4.596315e+001 3.334266e+001 4.661282e+001 3.944318e+001 6.871442e+001 4.671312e+001 4.386068e+001 4.276245e+001 3.364929e+001 3.565723e+001 3.303025e+000 4.762487e+000 2.591771e+000 2.623648e+000 3.482988e+000 3.314586e+000 3.599454e+000 5.058796e+000 3.552859e+000 3.409841e+000 2.779091e+000 2.566284e+000 2.576898e+000
<GCONST> 1.064972e+002
<STATE> 3
<MEAN> 25
 -1.141438e+001 1.339501e+001 8.367316e-001 7.898577e+000 6.334235e+000 -6.406063e+000 2.919661e+000 -4.744577e-001 1.712934e+000 -9.495330e-001 -2.107591e-001 4.403569e+000 -1.156697e+000 -3.291413e-001 -1.651691e-001 2.024705e-002 2.824453e-001 1.970721e-001 2.728089e-001 5.506954e-002 -1.145755e-001 4.631689e-002 2.679723e-001 2.637225e-001 5.864784e-002
<VARIANCE> 25
 5.852323e+001 4.434668e+001 3.599314e+001 3.423469e+001 2.898056e+001 3.679818e+001 6.018519e+001 3.265170e+001 3.605622e+001 3.216646e+001 2.418087e+001 2.577614e+001 2.818459e+000 2.484601e+000 1.773355e+000 1.602221e+000 2.435558e+000 2.238573e+000 2.316361e+000 2.104981e+000 2.086098e+000 1.595729e+000 1.703710e+000 1.580981e+000 2.040540e+000
<GCONST> 9.814895e+001
<STATE> 4
<MEAN> 25
 -1.045000e+001 4.884950e+000 -1.245380e+000 3.571265e+000 4.891991e+000 -1.121424e+000 1.890455e+000 1.963499e+000 7.278965e-001 -5.138693e-001 7.003078e-001 3.432438e+000 3.906248e-001 -2.995772e-001 2.348931e-001 -1.744813e-001 -3.439492e-001 -1.839134e-001 -2.918648e-001 -1.348744e-001 5.086139e-004 4.184023e-002 1.013250e-002 -2.254133e-002 4.709164e-001
<VARIANCE> 25
 6.053400e+001 5.095449e+001 3.639336e+001 2.977531e+001 3.557896e+001 3.696700e+001 4.228622e+001 3.317049e+001 3.011042e+001 2.210726e+001 2.128573e+001 2.071794e+001 2.959338e+000 1.913786e+000 1.689055e+000 1.546469e+000 2.446429e+000 1.991299e+000 2.312966e+000 2.267622e+000 2.001349e+000 1.645243e+000 1.642444e+000 1.550829e+000 1.926404e+000
<GCONST> 9.670407e+001
<TRANSP> 5
 0.000000e+000 1.000000e+000 0.000000e+000 0.000000e+000 0.000000e+000
 0.000000e+000 7.605237e-001 2.394763e-001 0.000000e+000 0.000000e+000
 0.000000e+000 0.000000e+000 7.044117e-001 2.955882e-001 0.000000e+000
 0.000000e+000 0.000000e+000 0.000000e+000 8.792172e-001 1.207828e-001
 0.000000e+000 0.000000e+000 0.000000e+000 0.000000e+000 0.000000e+000
<ENDHMM>
~h "ai"
<BEGINHMM>
<NUMSTATES> 5
<STATE> 2
<MEAN> 25
 4.401428e+000 -1.099255e+001 -8.151395e-001 -5.047227e+000 -3.330013e+000 -1.451259e+000 -3.264581e+000 1.004967e+001 2.726537e+000 -1.562598e+000 -3.570767e+000 -4.571132e+000 3.152054e-002 -5.705287e-001 1.538336e+000 -2.511379e-001 -1.785768e+000 -1.208251e+000 4.126409e-001 1.986584e+000 -6.258484e-001 -4.845279e-001 4.087312e-001 5.345390e-001 6.943840e-001
<VARIANCE> 25
 1.159583e+001 2.731238e+001 4.201244e+001 2.573548e+001 4.474421e+001 6.995950e+001 4.066606e+001 4.706039e+001 4.811296e+001 4.454533e+001 5.272549e+001 3.527300e+001 1.492100e+000 2.830087e+000 2.255661e+000 2.699749e+000 3.209984e+000 4.189034e+000 3.465755e+000 4.543617e+000 3.153853e+000 2.889316e+000 4.083847e+000 3.182207e+000 2.075875e+000
<GCONST> 1.036019e+002
<STATE> 3
<MEAN> 25
 3.434949e+000 -9.132087e+000 6.008480e+000 -4.805776e+000 -1.098165e+001 -6.783172e+000 -1.787217e+000 1.287669e+001 -7.244041e-001 -8.200420e-001 1.680010e+000 -1.275689e+000 -3.011630e-001 8.123612e-001 1.811667e+000 -1.595571e-001 -1.565929e+000 -6.173661e-001 -8.419970e-002 -5.424377e-001 -1.239326e+000 6.928896e-001 1.515128e+000 6.246964e-001 -2.975129e-001
<VARIANCE> 25
 8.337987e+000 1.864928e+001 3.428038e+001 2.207578e+001 3.435472e+001 3.781254e+001 3.936634e+001 4.604665e+001 4.725285e+001 3.879899e+001 5.835765e+001 2.865681e+001 4.033176e-001 1.649597e+000 1.816451e+000 1.268541e+000 1.925982e+000 2.096685e+000 2.563431e+000 4.013829e+000 2.761769e+000 2.609661e+000 2.639304e+000 1.884620e+000 8.484536e-001
<GCONST> 9.479959e+001
<STATE> 4
<MEAN> 25
 2.369305e+000 -2.581252e+000 1.213991e+001 -3.451219e+000 -1.230214e+001 -7.455194e+000 -2.777234e+000 5.276007e+000 -5.826365e+000 1.859377e+000 4.413715e+000 2.889520e-001 -4.463293e-002 8.234869e-001 -7.514519e-002 5.092437e-001 5.841360e-001 1.392667e-001 1.075336e-001 -9.162970e-001 -7.993643e-002 -5.473837e-002 -1.659712e-001 1.376255e-001 -1.234653e+000
<VARIANCE> 25
 1.154603e+001 3.952790e+001 4.188698e+001 3.416297e+001 3.534463e+001 4.225390e+001 3.864458e+001 7.837603e+001 4.589443e+001 3.830529e+001 3.570884e+001 2.773811e+001 8.095954e-001 1.594252e+000 2.677521e+000 1.902456e+000 2.928996e+000 2.062876e+000 2.619684e+000 3.115169e+000 3.193327e+000 2.324019e+000 2.224833e+000 1.502315e+000 2.209540e+000
<GCONST> 9.881646e+001
<TRANSP> 5
 0.000000e+000 1.000000e+000 0.000000e+000 0.000000e+000 0.000000e+000
 0.000000e+000 7.038488e-001 2.961512e-001 0.000000e+000 0.000000e+000
 0.000000e+000 0.000000e+000 6.435701e-001 3.564300e-001 0.000000e+000
 0.000000e+000 0.000000e+000 0.000000e+000 8.924006e-001 1.075994e-001
 0.000000e+000 0.000000e+000 0.000000e+000 0.000000e+000 0.000000e+000
<ENDHMM>
~h "au"
<BEGINHMM>
<NUMSTATES> 5
<STATE> 2
<MEAN> 25
 6.201701e+000 -6.366927e+000 -6.838215e+000 -1.057859e+001 -4.777136e-002 1.020302e+001 -4.975386e+000 -1.520047e+000 6.250339e+000 2.064390e+000 -4.750399e-001 -6.573928e+000 2.986168e-001 1.582141e-001 -3.050420e-001 -8.363099e-001 -1.265422e-001 1.287221e+000 -6.689869e-002 -5.788810e-001 -1.525503e-001 -1.311410e-001 9.240535e-001 1.252990e-001 -5.790465e-002
<VARIANCE> 25
 1.168491e+001 2.480107e+001 2.020876e+001 4.194574e+001 3.099932e+001 4.339516e+001 4.195036e+001 4.453650e+001 3.001423e+001 3.526949e+001 3.507225e+001 3.030468e+001 5.877453e-001 1.469325e+000 9.928884e-001 1.365129e+000 1.634981e+000 2.510713e+000 1.857761e+000 2.221024e+000 2.187147e+000 2.025573e+000 2.497014e+000 2.011657e+000 6.593913e-001
<GCONST> 9.270219e+001
<STATE> 3
<MEAN> 25
 8.158112e+000 -2.340274e+000 -7.102612e+000 -1.587000e+001 -3.042382e+000 1.418502e+001 -5.479454e+000 -3.348533e+000 3.474378e+000 8.724867e-001 5.218453e+000 -3.423701e+000 3.141048e-001 1.072834e+000 1.255201e-001 -4.998567e-001 -6.833962e-001 1.899685e-001 -1.405329e-001 1.968906e-002 -7.018697e-001 -5.382699e-001 7.023763e-001 8.340149e-001 -5.859411e-001
<VARIANCE> 25
 1.093497e+001 2.541501e+001 1.711761e+001 4.716732e+001 3.376374e+001 3.408272e+001 4.506664e+001 3.907456e+001 4.236597e+001 3.735601e+001 3.461527e+001 4.159890e+001 3.462780e-001 1.249655e+000 7.279216e-001 1.426969e+000 1.361264e+000 1.691546e+000 1.594586e+000 1.704052e+000 2.030383e+000 2.219705e+000 1.972041e+000 2.087890e+000 4.998216e-001
<GCONST> 9.069038e+001
<STATE> 4
<MEAN> 25
 6.011607e+000 2.888120e+000 -5.756718e+000 -1.021444e+001 -3.035112e+000 1.008190e+001 -2.457942e+000 -1.569719e+000 9.872813e-001 -1.641802e+000 3.876613e+000 -5.722753e-001 -1.135188e-001 2.585206e-001 1.910484e-001 5.406980e-001 1.056334e-001 -4.833932e-001 3.817428e-002 2.368149e-002 -2.897447e-001 1.079220e-001 -1.621851e-001 1.490877e-001 -5.927924e-001
<VARIANCE> 25
 3.685883e+001 2.817696e+001 2.369230e+001 9.658268e+001 3.799074e+001 5.776554e+001 4.941355e+001 3.400093e+001 4.601527e+001 3.435654e+001 2.920891e+001 3.727393e+001 6.363589e-001 1.100318e+000 1.041201e+000 2.207006e+000 1.638385e+000 1.888425e+000 2.018193e+000 1.635976e+000 2.054820e+000 2.059303e+000 1.809265e+000 1.652541e+000 1.041312e+000
<GCONST> 9.548473e+001
<TRANSP> 5
 0.000000e+000 1.000000e+000 0.000000e+000 0.000000e+000 0.000000e+000
 0.000000e+000 7.467209e-001 2.532791e-001 0.000000e+000 0.000000e+000
 0.000000e+000 0.000000e+000 7.908667e-001 2.091333e-001 0.000000e+000
 0.000000e+000 0.000000e+000 0.000000e+000 9.036945e-001 9.630549e-002
 0.000000e+000 0.000000e+000 0.000000e+000 0.000000e+000 0.000000e+000
<ENDHMM>
~h "kh"
<BEGINHMM>
<NUMSTATES> 5
<STATE> 2
<MEAN> 25
 -3.179921e+000 -2.097189e-001 -4.469635e+000 1.107402e+000 6.095917e+000 5.152929e-001 3.261508e+000 4.764103e-001 9.864182e-001 8.870116e-001 -9.556519e-001 1.759613e+000 -1.347627e+000 -6.554615e-001 -1.236310e+000 -9.928083e-002 1.140424e+000 -3.175538e-001 2.063186e-001 3.995135e-001 2.049161e-001 1.622165e-001 1.712114e-001 4.492101e-001 2.650332e-001
<VARIANCE> 25
 4.146785e+001 5.306994e+001 5.619415e+001 4.771853e+001 5.548871e+001 6.484024e+001 4.586857e+001 4.232541e+001 5.904973e+001 4.209046e+001 4.175966e+001 3.006882e+001 4.226832e+000 5.244081e+000 5.803086e+000 4.439627e+000 5.691532e+000 4.989429e+000 5.205546e+000 3.826283e+000 4.568238e+000 3.677892e+000 3.462650e+000 2.835402e+000 7.697341e+000
<GCONST> 1.120825e+002
<STATE> 3
<MEAN> 25
 -7.853576e+000 -4.503506e+000 -9.853001e+000 -2.082957e+000 9.481915e+000 -4.348875e-001 2.288368e+000 2.900885e+000 1.944319e+000 2.589226e+000 9.639492e-001 3.109154e+000 -5.374836e-001 -3.841414e-001 -4.707903e-001 -3.438665e-001 -6.324075e-002 1.809660e-001 2.132398e-001 1.880686e-001 -2.147932e-002 -3.913824e-002 3.576896e-001 7.262523e-002 1.647994e-001
<VARIANCE> 25
 2.703052e+001 3.579404e+001 5.455347e+001 5.469177e+001 6.296390e+001 6.124347e+001 5.804012e+001 4.511957e+001 5.036187e+001 4.557404e+001 3.488471e+001 4.014428e+001 2.010695e+000 2.491913e+000 3.394987e+000 3.151958e+000 3.625866e+000 3.968049e+000 3.702776e+000 3.015137e+000 2.833611e+000 3.272611e+000 2.768709e+000 2.532016e+000 2.923256e+000
<GCONST> 1.062417e+002
<STATE> 4
<MEAN> 25
 -5.963505e+000 -1.313001e+000 -6.372609e+000 3.440230e-001 5.210665e+000 1.868437e+000 3.957755e+000 9.711677e-001 1.823802e+000 -3.138295e-001 1.406373e+000 1.801628e+000 5.431772e-001 2.624150e-001 3.818603e-001 -5.953496e-002 -4.153551e-001 1.395907e-001 2.724577e-003 -2.883029e-001 -1.719374e-001 -1.280187e-001 -5.778459e-002 -2.341849e-001 2.166383e-001
<VARIANCE> 25
 3.480446e+001 4.698624e+001 5.219467e+001 4.589191e+001 5.017848e+001 4.271791e+001 4.184580e+001 3.503581e+001 3.901645e+001 3.240777e+001 2.474619e+001 2.810109e+001 2.926977e+000 1.930320e+000 2.367395e+000 2.288026e+000 2.405383e+000 2.432874e+000 2.628760e+000 2.734873e+000 2.561208e+000 2.250209e+000 2.001694e+000 1.984899e+000 2.146704e+000
<GCONST> 1.008307e+002
<TRANSP> 5
 0.000000e+000 1.000000e+000 0.000000e+000 0.000000e+000 0.000000e+000
 0.000000e+000 7.666618e-001 2.333382e-001 0.000000e+000 0.000000e+000
 0.000000e+000 0.000000e+000 6.773738e-001 3.226262e-001 0.000000e+000
 0.000000e+000 0.000000e+000 0.000000e+000 9.016008e-001 9.839925e-002
 0.000000e+000 0.000000e+000 0.000000e+000 0.000000e+000 0.000000e+000
<ENDHMM>
~h "ng"
<BEGINHMM>
<NUMSTATES> 5
<STATE> 2
<MEAN> 25
 7.525690e+000 -1.650284e+000 1.386353e+000 -3.059424e+000 -3.960631e+000 3.786052e+000 -6.995378e-001 -1.981655e+000 -5.242428e+000 3.498188e+000 -2.179361e+000 -5.671408e+000 4.338335e-001 1.037336e+000 1.406558e+000 9.495439e-001 -1.242074e+000 -1.994412e-001 1.405032e+000 -2.164194e+000 -9.892945e-001 7.912351e-001 -1.099633e+000 1.513187e+000 -1.208119e+000
<VARIANCE> 25
 9.888161e+000 3.271090e+001 3.673248e+001 3.824533e+001 5.135573e+001 4.819800e+001 5.541386e+001 6.459993e+001 4.860241e+001 4.634035e+001 4.627956e+001 5.173899e+001 6.053036e-001 1.727227e+000 2.827662e+000 2.668083e+000 3.470804e+000 2.895877e+000 4.609665e+000 4.786107e+000 5.292175e+000 3.158876e+000 4.473122e+000 4.441162e+000 9.718978e-001
<GCONST> 1.037152e+002
<STATE> 3
<MEAN> 25
 8.075700e+000 3.893651e-001 5.136755e+000 -1.170487e+000 -6.634171e+000 2.945918e+000 2.151695e+000 -6.560102e+000 -6.321322e+000 4.392661e+000 -4.894039e+000 -6.655062e-001 7.047687e-002 5.821618e-001 6.812264e-001 5.758365e-001 -3.431230e-001 -1.080391e-001 4.165131e-001 -8.625497e-001 -1.036472e-001 5.263868e-002 -4.086668e-001 7.867171e-001 -7.287179e-001
<VARIANCE> 25
 9.146347e+000 2.318573e+001 2.834948e+001 3.892468e+001 3.901736e+001 4.203797e+001 5.309568e+001 4.951685e+001 4.646326e+001 4.003277e+001 4.249004e+001 4.144837e+001 5.451899e-001 1.442417e+000 2.340755e+000 2.267148e+000 3.005321e+000 2.340984e+000 3.040139e+000 3.810213e+000 3.183821e+000 2.574211e+000 2.838028e+000 3.129819e+000 1.158874e+000
<GCONST> 9.885350e+001
<STATE> 4
<MEAN> 25
 7.027120e+000 1.867215e+000 4.947834e+000 4.974794e-001 -4.593344e+000 3.287296e+000 1.869441e+000 -5.829388e+000 -5.841885e+000 3.003537e+000 -4.341260e+000 -9.278156e-001 -3.797499e-001 2.826454e-001 -3.845752e-001 3.199105e-001 6.567522e-001 -2.813720e-001 7.343201e-002 3.590164e-001 1.750737e-001 -2.943486e-001 1.823417e-001 -1.850019e-001 -5.932054e-001
<VARIANCE> 25
 1.706436e+001 2.526657e+001 3.119092e+001 4.779099e+001 5.804553e+001 3.986858e+001 5.781001e+001 5.453774e+001 4.444901e+001 4.114238e+001 4.217343e+001 3.718410e+001 8.163037e-001 1.520655e+000 1.789574e+000 2.116930e+000 2.882359e+000 2.236618e+000 2.543781e+000 3.440607e+000 2.653047e+000 2.271575e+000 2.158865e+000 2.243152e+000 2.004309e+000
<GCONST> 9.964223e+001
<TRANSP> 5
 0.000000e+000 1.000000e+000 0.000000e+000 0.000000e+000 0.000000e+000
 0.000000e+000 5.690882e-001 4.309118e-001 0.000000e+000 0.000000e+000
 0.000000e+000 0.000000e+000 5.384747e-001 4.615253e-001 0.000000e+000
 0.000000e+000 0.000000e+000 0.000000e+000 8.082814e-001 1.917186e-001
 0.000000e+000 0.000000e+000 0.000000e+000 0.000000e+000 0.000000e+000
<ENDHMM>
~h "ny"
<BEGINHMM>
<NUMSTATES> 5
<STATE> 2
<MEAN> 25
 5.026690e+000 1.935390e+000 8.551887e+000 -3.982264e-001 -6.760465e+000 -3.309654e+000 -1.693900e+000 5.686145e-001 -6.802123e+000 -2.646264e+000 1.758574e+000 1.241725e+000 -2.301943e-001 -4.554123e-001 2.907171e-001 -4.690344e-001 -4.461266e-001 1.517938e-001 1.561804e-001 7.656673e-001 -4.591368e-002 -4.020465e-001 1.236730e-001 5.779741e-002 5.195960e-001
<VARIANCE> 25
 1.614856e+001 3.682916e+001 3.275388e+001 6.005644e+001 3.967154e+001 3.424384e+001 3.826038e+001 8.663831e+001 4.825214e+001 5.209137e+001 4.777242e+001 4.524587e+001 1.692020e+000 5.747566e+000 3.251457e+000 5.135027e+000 3.535588e+000 2.914494e+000 3.568658e+000 1.154409e+001 5.145840e+000 4.545663e+000 4.354144e+000 2.978611e+000 3.389794e+000
<GCONST> 1.088242e+002
<STATE> 3
<MEAN> 25
 3.522293e+000 -6.543181e+000 6.513009e+000 -3.600500e+000 -7.642618e+000 -1.605557e+000 -1.274276e+000 1.046713e+001 -2.910362e+000 -6.297441e+000 -1.576524e+000 -2.914423e-001 1.617994e-001 -1.430673e+000 -1.517803e+000 3.145515e-001 1.097638e+000 3.792992e-001 -1.358091e-001 1.065336e+000 1.190054e+000 -5.598935e-001 -1.245764e+000 -4.417081e-001 3.807655e-001
<VARIANCE> 25
 9.779825e+000 3.337556e+001 2.972485e+001 3.175469e+001 4.358469e+001 2.731590e+001 3.256789e+001 6.252267e+001 5.452441e+001 4.088173e+001 3.906349e+001 2.988481e+001 4.921464e-001 2.220796e+000 1.523485e+000 1.661641e+000 2.532814e+000 1.535403e+000 2.053958e+000 4.138065e+000 2.197618e+000 2.555539e+000 2.390230e+000 1.994901e+000 1.212631e+000
<GCONST> 9.605424e+001
<STATE> 4
<MEAN> 25
 6.208001e-001 -4.129799e+000 -1.301876e+000 1.519718e+000 2.414957e+000 7.057035e-001 8.995394e-001 6.408593e+000 -6.635404e-002 -4.395182e+000 -3.397718e+000 5.205335e-002 -6.533217e-002 5.239225e-002 -4.094629e-001 1.407567e-001 4.994950e-001 1.525584e-001 -2.345219e-002 -2.981711e-001 2.103859e-001 1.589684e-001 -1.338822e-001 -9.265399e-002 -5.880238e-001
<VARIANCE> 25
 2.214977e+001 5.099000e+001 2.536186e+001 3.405403e+001 4.832451e+001 2.435967e+001 3.549598e+001 6.151275e+001 3.909322e+001 4.121633e+001 3.311713e+001 3.005462e+001 4.409696e-001 1.077648e+000 1.170958e+000 1.255103e+000 1.679745e+000 1.366555e+000 1.611980e+000 1.777799e+000 1.704007e+000 1.729873e+000 1.635847e+000 1.484035e+000 1.100637e+000
<GCONST> 9.237363e+001
<TRANSP> 5
 0.000000e+000 1.000000e+000 0.000000e+000 0.000000e+000 0.000000e+000
 0.000000e+000 8.565063e-001 1.434937e-001 0.000000e+000 0.000000e+000
 0.000000e+000 0.000000e+000 6.764178e-001 3.235822e-001 0.000000e+000
 0.000000e+000 0.000000e+000 0.000000e+000 8.822421e-001 1.177578e-001
 0.000000e+000 0.000000e+000 0.000000e+000 0.000000e+000 0.000000e+000
<ENDHMM>
~h "oi"
<BEGINHMM>
<NUMSTATES> 5
<STATE> 2
<MEAN> 25
 8.341236e+000 -2.005880e+000 -8.955116e+000 -1.319478e+001 -6.873167e+000 1.306650e+001 -2.452086e+000 -4.277666e+000 3.823774e+000 -1.734336e+000 4.612428e+000 1.967004e+000 -8.737764e-002 -4.366554e-001 7.475705e-002 -1.016500e+000 -2.427941e-001 5.065114e-001 -4.937030e-001 3.995831e-002 9.656799e-002 6.184666e-001 2.882464e-001 -6.180798e-001 8.946693e-001
<VARIANCE> 25
 2.422137e+001 3.190152e+001 3.898471e+001 8.333343e+001 5.101656e+001 6.294019e+001 6.565091e+001 4.518074e+001 4.256933e+001 4.671507e+001 3.844016e+001 5.471315e+001 1.161185e+000 1.176934e+000 1.672641e+000 5.822762e+000 3.890832e+000 4.606220e+000 3.521529e+000 2.430024e+000 3.236095e+000 3.788580e+000 3.131801e+000 3.348236e+000 1.414233e+000
<GCONST> 1.048230e+002
<STATE> 3
<MEAN> 25
 4.200635e+000 -4.860136e+000 4.247065e+000 -6.068246e+000 -9.077276e+000 -2.869250e+000 -7.392527e+000 2.067671e+000 -1.104758e+000 3.947817e+000 2.969038e+000 -2.812104e+000 -5.006980e-001 1.537209e-001 1.465257e+000 1.244228e+000 -5.142320e-001 -1.774024e+000 7.859368e-002 5.724217e-001 -8.596083e-001 -8.381754e-002 -2.247306e-001 2.694377e-001 -4.145041e-001
<VARIANCE> 25
 1.194481e+001 3.295066e+001 1.176697e+002 6.724343e+001 4.962689e+001 1.318832e+002 3.983873e+001 8.171609e+001 7.916573e+001 4.511197e+001 4.644444e+001 4.151059e+001 4.414256e-001 1.198340e+000 3.937668e+000 2.740270e+000 3.758410e+000 5.651900e+000 2.675318e+000 4.809934e+000 5.311085e+000 3.917091e+000 3.576676e+000 3.925573e+000 6.735740e-001
<GCONST> 1.061524e+002
<STATE> 4
<MEAN> 25
 -1.850019e+000 -5.977929e-001 3.527633e+000 2.482897e+000 -5.123988e+000 -3.722023e+000 -8.130416e-001 1.117845e+000 -3.990754e+000 1.938517e-002 1.251635e+000 2.793620e+000 -8.879202e-002 3.085146e-002 -4.505137e-001 1.920345e-001 3.632610e-001 -1.953977e-001 -8.603400e-003 -1.439371e-001 8.071408e-002 -1.194640e-001 -2.604325e-001 2.261594e-002 -5.456868e-001
<VARIANCE> 25
 2.181043e+001 2.104841e+001 6.400565e+001 3.720702e+001 6.883111e+001 8.163399e+001 5.852570e+001 4.028424e+001 6.450826e+001 4.865670e+001 2.963124e+001 2.571564e+001 8.740835e-001 1.212813e+000 2.715083e+000 1.771254e+000 2.293737e+000 2.755073e+000 1.865455e+000 2.820227e+000 3.079273e+000 2.268194e+000 1.708433e+000 1.605963e+000 8.045787e-001
<GCONST> 9.880682e+001
<TRANSP> 5
 0.000000e+000 1.000000e+000 0.000000e+000 0.000000e+000 0.000000e+000
 0.000000e+000 8.775827e-001 1.224173e-001 0.000000e+000 0.000000e+000
 0.000000e+000 0.000000e+000 9.024389e-001 9.756107e-002 0.000000e+000
 0.000000e+000 0.000000e+000 0.000000e+000 7.825516e-001 2.174483e-001
 0.000000e+000 0.000000e+000 0.000000e+000 0.000000e+000 0.000000e+000
<ENDHMM>
~h "sy"
<BEGINHMM>
<NUMSTATES> 5
<STATE> 2
<MEAN> 25
 -8.827603e+000 4.832572e+000 3.413930e+000 1.989757e+000 3.430431e+000 -3.137176e+000 3.141734e+000 1.224177e+000 4.610073e-001 -2.267690e+000 -1.048835e+000 2.953737e+000 -3.883524e+000 5.431121e-001 -3.028151e-001 -2.689615e-003 7.741196e-001 5.418156e-001 1.123959e+000 3.939178e-001 7.082265e-001 -1.802833e-001 1.007783e+000 4.613130e-001 -9.652319e-002
<VARIANCE> 25
 8.510625e+001 3.944444e+001 5.422093e+001 3.258692e+001 4.395021e+001 4.921717e+001 4.842655e+001 4.362330e+001 4.041346e+001 3.194154e+001 3.221044e+001 2.663966e+001 5.875745e+000 5.706048e+000 4.225228e+000 3.813660e+000 5.123067e+000 4.454399e+000 5.688809e+000 4.715937e+000 3.900104e+000 3.885956e+000 4.196250e+000 2.873871e+000 2.830783e+000
<GCONST> 1.097533e+002
<STATE> 3
<MEAN> 25
 -2.198475e+001 2.611056e+000 1.316578e+000 -1.319253e+000 2.984205e+000 -7.879608e-001 5.970217e+000 1.969082e+000 3.433354e+000 -7.078651e-001 4.110590e+000 4.986606e+000 -6.964125e-001 -7.624881e-001 -6.927270e-002 -4.968993e-001 -5.688006e-001 9.214249e-002 1.097059e-002 -8.841112e-003 2.306015e-001 3.222684e-001 4.057216e-001 1.990540e-001 2.733513e-001
<VARIANCE> 25
 3.292195e+001 2.593066e+001 4.140090e+001 2.431813e+001 4.525488e+001 4.254054e+001 4.312708e+001 3.177314e+001 3.892976e+001 2.570163e+001 2.114163e+001 2.039000e+001 4.144452e+000 1.240518e+000 2.084301e+000 1.568728e+000 2.169417e+000 1.934363e+000 2.269521e+000 1.770118e+000 1.852598e+000 1.961455e+000 1.762459e+000 1.544503e+000 9.527799e-001
<GCONST> 9.526132e+001
<STATE> 4
<MEAN> 25
 -1.478230e+001 -7.502231e-001 3.291126e+000 -1.400234e+000 -1.209347e+000 -2.147844e+000 2.427607e+000 2.079964e+000 2.599236e+000 -9.039013e-001 2.909987e+000 4.487038e+000 2.240140e+000 -3.199301e-001 4.275901e-001 -3.140003e-002 -7.216368e-001 -6.683477e-001 -7.995467e-001 1.844315e-001 -1.321159e-001 -2.278783e-001 -4.449068e-001 -3.203210e-001 6.935180e-001
<VARIANCE> 25
 1.011734e+002 2.360205e+001 4.203089e+001 2.541903e+001 6.222082e+001 3.941195e+001 3.885067e+001 3.579992e+001 3.038173e+001 2.751138e+001 2.347268e+001 1.658334e+001 9.543311e+000 2.317922e+000 2.709189e+000 2.028726e+000 3.581591e+000 2.708318e+000 3.509132e+000 3.417355e+000 3.000731e+000 2.319859e+000 2.733703e+000 1.943062e+000 1.782069e+000
<GCONST> 1.021791e+002
<TRANSP> 5
 0.000000e+000 1.000000e+000 0.000000e+000 0.000000e+000 0.000000e+000
 0.000000e+000 7.615379e-001 2.384621e-001 0.000000e+000 0.000000e+000
 0.000000e+000 0.000000e+000 8.038608e-001 1.961392e-001 0.000000e+000
 0.000000e+000 0.000000e+000 0.000000e+000 8.815566e-001 1.184434e-001
 0.000000e+000 0.000000e+000 0.000000e+000 0.000000e+000 0.000000e+000
<ENDHMM>
~h "sil"
<BEGINHMM>
<NUMSTATES> 5
<STATE> 2
<MEAN> 25
 -4.206461e+000 3.295655e+000 -1.957657e+000 4.503831e+000 4.563092e+000 -1.761470e-001 4.532300e+000 2.650691e+000 -5.808677e-001 1.083557e-001 1.028631e+000 2.189615e+000 -2.408621e-002 1.715666e-002 -8.765475e-003 -1.075495e-003 -1.040567e-002 -1.490413e-002 -5.880681e-003 -8.767823e-003 8.588871e-003 1.372793e-002 1.429518e-002 -3.411748e-003 -4.238777e-002
<VARIANCE> 25
 6.906905e+000 1.616966e+001 1.402386e+001 1.981560e+001 1.929600e+001 1.952993e+001 2.580578e+001 3.192934e+001 2.151418e+001 2.203113e+001 1.878817e+001 1.910534e+001 2.177960e-001 5.974902e-001 6.564282e-001 1.109383e+000 1.161304e+000 1.457829e+000 1.413601e+000 1.988300e+000 1.614226e+000 1.717764e+000 1.493863e+000 1.493781e+000 2.146094e-001
<GCONST> 8.046732e+001
<STATE> 3
<MEAN> 25
 -6.565753e+000 2.641380e+000 -3.603176e+000 3.085404e+000 3.432010e+000 -1.622503e+000 5.723597e+000 -1.288336e+000 2.249670e+000 -9.624230e-001 3.344843e-001 3.264207e+000 -1.523771e-002 1.869353e-002 9.702817e-003 3.438501e-003 -9.994693e-004 4.414199e-004 4.904018e-003 2.055117e-003 3.774061e-003 2.107106e-002 8.302270e-003 -2.070643e-003 -2.286701e-002
<VARIANCE> 25
 9.253965e+000 1.051234e+001 9.366288e+000 1.606806e+001 1.547280e+001 2.041074e+001 2.056228e+001 1.884513e+001 2.174408e+001 2.130417e+001 1.808571e+001 1.525422e+001 2.092499e-001 3.912922e-001 5.333925e-001 7.179607e-001 9.211751e-001 1.139285e+000 1.313617e+000 1.375757e+000 1.449881e+000 1.424595e+000 1.360709e+000 1.227272e+000 1.556538e-001
<GCONST> 7.556732e+001
<STATE> 4
<MEAN> 25
 -6.380453e+000 1.048099e+000 -2.561687e+000 3.424037e+000 3.953350e+000 -1.134215e+000 4.280340e+000 5.402839e-001 1.315596e+000 -1.478918e-001 6.479021e-001 3.007838e+000 9.167532e-003 5.623465e-004 1.850701e-002 -4.655000e-003 1.014292e-002 -3.189108e-003 -1.348227e-002 -1.181410e-002 -1.305632e-002 7.468462e-004 -2.371756e-002 -2.005848e-002 1.246391e-001
<VARIANCE> 25
 2.373514e+001 2.849934e+001 2.497279e+001 3.188638e+001 3.181875e+001 3.304988e+001 3.770514e+001 3.814437e+001 2.894136e+001 2.730200e+001 2.304534e+001 2.335926e+001 1.176016e+000 1.638797e+000 1.538421e+000 1.823544e+000 1.846267e+000 2.190624e+000 2.171180e+000 2.466297e+000 2.135417e+000 2.169943e+000 1.901404e+000 1.687369e+000 2.829753e+000
<GCONST> 9.483597e+001
<TRANSP> 5
 0.000000e+000 1.000000e+000 0.000000e+000 0.000000e+000 0.000000e+000
 0.000000e+000 9.733334e-001 2.666656e-002 0.000000e+000 0.000000e+000
 0.000000e+000 0.000000e+000 9.614075e-001 3.859245e-002 0.000000e+000
 0.000000e+000 0.000000e+000 0.000000e+000 9.443370e-001 5.566296e-002
 0.000000e+000 0.000000e+000 0.000000e+000 0.000000e+000 0.000000e+000
<ENDHMM>
~h "sp"
<BEGINHMM>
<NUMSTATES> 3
<STATE> 2
<MEAN> 25
 -6.565753e+000 2.641380e+000 -3.603176e+000 3.085404e+000 3.432010e+000 -1.622503e+000 5.723597e+000 -1.288336e+000 2.249670e+000 -9.624230e-001 3.344843e-001 3.264207e+000 -1.523771e-002 1.869353e-002 9.702817e-003 3.438501e-003 -9.994693e-004 4.414199e-004 4.904018e-003 2.055117e-003 3.774061e-003 2.107106e-002 8.302270e-003 -2.070643e-003 -2.286701e-002
<VARIANCE> 25
 9.253965e+000 1.051234e+001 9.366288e+000 1.606806e+001 1.547280e+001 2.041074e+001 2.056228e+001 1.884513e+001 2.174408e+001 2.130417e+001 1.808571e+001 1.525422e+001 2.092499e-001 3.912922e-001 5.333925e-001 7.179607e-001 9.211751e-001 1.139285e+000 1.313617e+000 1.375757e+000 1.449881e+000 1.424595e+000 1.360709e+000 1.227272e+000 1.556538e-001
<GCONST> 7.556732e+001
<TRANSP> 3
 0.0 1.0 0.0
 0.0 0.9 0.1
 0.0 0.0 0.0
<ENDHMM>
