~o
<STREAMINFO> 1 25
<VECSIZE> 25<NULLD><MFCC_D_N_Z_0><DIAGC>
~h "@"
<BEGINHMM>
<NUMSTATES> 5
<STATE> 2
<MEAN> 25
 2.614456e+000 -4.095847e-001 -3.590575e-001 -1.260632e+000 -1.405717e+000 -2.417679e+000 -3.612658e+000 -1.384466e+000 3.905864e-001 1.431458e+000 4.441152e-001 -8.482621e-001 2.204012e+000 -1.165786e+000 2.675366e-001 -1.724837e+000 -1.463852e+000 5.785949e-001 -2.249331e+000 9.986468e-001 5.367824e-001 8.424520e-001 5.607980e-001 -1.285710e+000 2.797763e+000
<VARIANCE> 25
 4.306389e+001 3.386528e+001 4.320892e+001 5.082248e+001 4.732779e+001 6.578695e+001 6.586788e+001 5.271407e+001 5.585764e+001 3.484363e+001 3.837381e+001 3.091769e+001 7.441633e+000 4.059965e+000 6.628909e+000 6.193648e+000 6.421160e+000 6.479518e+000 8.238577e+000 9.815669e+000 8.499876e+000 5.232534e+000 5.637315e+000 4.422819e+000 7.860555e+000
<GCONST> 1.160921e+002
<STATE> 3
<MEAN> 25
 5.983977e+000 -4.228745e+000 -1.882234e-001 -5.047624e+000 -4.237987e+000 -1.586897e-001 -8.574158e+000 1.602066e+000 1.608312e+000 3.669445e+000 1.997136e+000 -3.492713e+000 1.109593e+000 -9.841493e-001 2.836177e-001 -8.758768e-001 -9.069150e-001 6.838078e-001 -1.246546e+000 1.059255e+000 3.445410e-001 7.283810e-001 3.595498e-001 -9.067993e-001 1.030331e+000
<VARIANCE> 25
 1.675078e+001 3.065713e+001 4.431654e+001 5.186691e+001 4.772268e+001 8.036639e+001 6.190919e+001 6.875294e+001 6.560526e+001 4.431258e+001 5.030488e+001 3.588206e+001 3.123012e+000 2.500892e+000 3.552546e+000 4.309670e+000 4.367246e+000 5.159517e+000 5.603477e+000 7.981264e+000 6.281748e+000 4.589669e+000 4.618169e+000 3.455614e+000 3.233694e+000
<GCONST> 1.110142e+002
<STATE> 4
<MEAN> 25
 5.342565e+000 -3.821876e+000 2.030158e+000 -3.505654e+000 -6.230096e+000 -1.536430e+000 -8.244555e+000 3.129578e+000 1.030547e+000 3.559067e+000 2.469355e+000 -3.699807e+000 7.959475e-002 3.265606e-001 1.598272e-001 3.959465e-001 1.686234e-001 4.548413e-002 3.826871e-001 -2.931337e-001 -1.697333e-001 -7.392615e-002 -1.510796e-001 8.878726e-002 -7.044283e-001
<VARIANCE> 25
 1.816370e+001 3.448147e+001 4.680179e+001 4.456507e+001 5.666865e+001 7.000870e+001 8.714098e+001 7.260650e+001 6.085582e+001 4.875150e+001 4.831741e+001 3.874369e+001 7.971721e-001 1.655644e+000 1.587273e+000 2.210340e+000 2.483972e+000 2.625432e+000 2.932287e+000 3.293234e+000 3.214746e+000 2.539762e+000 2.530925e+000 1.965314e+000 2.631978e+000
<GCONST> 1.029453e+002
<TRANSP> 5
 0.000000e+000 1.000000e+000 0.000000e+000 0.000000e+000 0.000000e+000
 0.000000e+000 3.564164e-001 6.435836e-001 0.000000e+000 0.000000e+000
 0.000000e+000 0.000000e+000 1.703122e-001 8.296877e-001 0.000000e+000
 0.000000e+000 0.000000e+000 0.000000e+000 7.272177e-001 2.727823e-001
 0.000000e+000 0.000000e+000 0.000000e+000 0.000000e+000 0.000000e+000
<ENDHMM>
~h "a"
<BEGINHMM>
<NUMSTATES> 5
<STATE> 2
<MEAN> 25
 4.823617e+000 -8.516114e+000 -3.743240e+000 -6.762317e+000 -1.572964e+000 2.397412e+000 -4.172339e+000 5.330898e+000 4.520515e+000 9.588543e-001 -2.251311e+000 -5.487890e+000 5.805222e-001 -2.027562e+000 -1.136172e+000 -1.092091e+000 6.778857e-001 1.547302e+000 -1.385035e-001 1.394336e+000 8.689344e-001 -5.624539e-001 -1.261905e+000 -1.529765e+000 1.796106e+000
<VARIANCE> 25
 1.735164e+001 2.868070e+001 3.604013e+001 3.975218e+001 5.310627e+001 7.288184e+001 5.031965e+001 7.700622e+001 4.817051e+001 4.616114e+001 4.809826e+001 3.557502e+001 2.573832e+000 2.702131e+000 2.811901e+000 3.518280e+000 4.289802e+000 4.126197e+000 4.800160e+000 6.757810e+000 4.383951e+000 4.126074e+000 4.385935e+000 3.235263e+000 4.415951e+000
<GCONST> 1.087165e+002
<STATE> 3
<MEAN> 25
 5.095392e+000 -1.209990e+001 -5.670681e+000 -7.750765e+000 1.068558e+000 6.353082e+000 -3.977856e+000 5.668736e+000 5.437690e+000 -1.222060e+000 -5.091261e+000 -7.676394e+000 -3.350021e-002 -1.925558e-001 -9.970913e-002 1.065276e-001 4.715995e-001 1.038490e-001 2.734072e-001 -7.022403e-003 -6.773088e-002 -2.081224e-001 -3.917087e-001 -1.837983e-002 -6.475469e-002
<VARIANCE> 25
 8.553121e+000 1.933479e+001 2.340374e+001 2.345053e+001 3.328981e+001 4.864108e+001 3.233706e+001 5.581338e+001 3.610411e+001 3.907750e+001 4.040593e+001 2.914475e+001 4.080684e-001 1.008417e+000 9.332336e-001 1.234215e+000 1.616974e+000 2.434540e+000 1.847995e+000 2.508157e+000 1.664565e+000 1.897915e+000 2.034565e+000 1.526903e+000 1.096822e+000
<GCONST> 9.110768e+001
<STATE> 4
<MEAN> 25
 3.554132e+000 -8.010986e+000 -5.297895e+000 -4.602647e+000 2.732292e+000 2.821404e+000 -8.982017e-001 4.511433e+000 4.282392e+000 -8.815733e-001 -4.997025e+000 -4.668973e+000 -2.167294e-002 1.035676e+000 4.959531e-001 6.066307e-001 -1.761516e-001 -6.317995e-001 7.464804e-002 -2.540861e-001 -3.691130e-001 3.055458e-001 3.585794e-001 4.207533e-001 -1.512861e+000
<VARIANCE> 25
 1.802864e+001 3.485342e+001 2.569514e+001 3.919402e+001 4.717459e+001 4.812554e+001 4.297581e+001 5.695203e+001 3.922613e+001 4.040005e+001 3.876201e+001 3.690173e+001 9.106547e-001 1.833779e+000 1.565091e+000 1.940314e+000 2.272588e+000 2.651847e+000 2.663912e+000 3.226776e+000 2.467511e+000 2.505216e+000 2.340113e+000 2.112772e+000 2.738455e+000
<GCONST> 9.946747e+001
<TRANSP> 5
 0.000000e+000 1.000000e+000 0.000000e+000 0.000000e+000 0.000000e+000
 0.000000e+000 5.311245e-001 4.688754e-001 0.000000e+000 0.000000e+000
 0.000000e+000 0.000000e+000 7.170384e-001 2.829617e-001 0.000000e+000
 0.000000e+000 0.000000e+000 0.000000e+000 7.557504e-001 2.442496e-001
 0.000000e+000 0.000000e+000 0.000000e+000 0.000000e+000 0.000000e+000
<ENDHMM>
~h "b"
<BEGINHMM>
<NUMSTATES> 5
<STATE> 2
<MEAN> 25
 9.545937e+000 7.855021e+000 4.137243e+000 2.725779e+000 1.664307e+000 4.598443e+000 1.062493e+000 -6.443782e+000 -4.033193e+000 -5.890504e-001 4.576464e-001 -1.432095e+000 5.222631e-001 1.502393e+000 4.070534e-001 7.062302e-001 7.220414e-001 2.963588e-001 1.036039e+000 -4.413873e-001 -2.299180e-001 -2.798196e-001 -2.050538e-001 4.377105e-002 -1.497932e+000
<VARIANCE> 25
 2.932189e+001 4.135254e+001 2.705597e+001 3.856608e+001 3.464894e+001 3.519672e+001 4.508673e+001 4.015841e+001 4.385715e+001 2.965754e+001 3.666301e+001 2.775619e+001 2.210032e+000 2.767665e+000 2.434477e+000 3.153291e+000 2.930092e+000 3.037005e+000 3.707456e+000 3.630652e+000 3.730135e+000 2.798319e+000 3.009237e+000 2.300375e+000 5.842387e+000
<GCONST> 1.033814e+002
<STATE> 3
<MEAN> 25
 9.034986e+000 8.921373e+000 3.796688e+000 3.224770e+000 2.538612e+000 4.440969e+000 2.373703e+000 -6.973216e+000 -4.357775e+000 -1.012155e+000 1.639689e+000 2.963212e-002 -1.089069e+000 -2.477191e+000 -1.711740e+000 -1.752844e+000 -6.286862e-001 -7.434543e-001 -2.015039e+000 8.072860e-001 1.491567e+000 8.303046e-001 1.376276e+000 2.991298e-001 3.844321e+000
<VARIANCE> 25
 2.492282e+001 3.227672e+001 2.297589e+001 3.385026e+001 3.102361e+001 3.335657e+001 3.321265e+001 3.324891e+001 3.688333e+001 2.461481e+001 3.562857e+001 2.529551e+001 2.027102e+000 3.862625e+000 3.355557e+000 6.676073e+000 4.353122e+000 4.105702e+000 5.140720e+000 4.251470e+000 5.795497e+000 4.729186e+000 4.475778e+000 3.559864e+000 6.703503e+000
<GCONST> 1.059740e+002
<STATE> 4
<MEAN> 25
 6.285017e+000 9.979882e-001 -1.279245e+000 -2.463078e+000 -1.084136e+000 2.847619e+000 -4.172409e+000 -4.954509e+000 8.518954e-001 2.787498e+000 4.823073e+000 -1.163627e+000 -7.257776e-001 -2.726411e+000 -1.194074e+000 -1.808771e+000 -1.527137e+000 -2.626424e-001 -2.008108e+000 1.374335e+000 1.800153e+000 7.585931e-001 1.601419e-001 -8.160151e-001 3.988830e+000
<VARIANCE> 25
 2.391306e+001 4.073388e+001 3.516492e+001 8.623678e+001 4.375436e+001 5.370189e+001 5.719048e+001 3.662311e+001 4.344197e+001 4.697735e+001 4.886332e+001 3.037856e+001 2.355633e+000 4.730288e+000 5.136491e+000 8.730954e+000 4.884600e+000 6.833142e+000 6.019168e+000 7.338650e+000 9.701997e+000 6.175821e+000 5.378874e+000 6.586224e+000 7.584586e+000
<GCONST> 1.143751e+002
<TRANSP> 5
 0.000000e+000 1.000000e+000 0.000000e+000 0.000000e+000 0.000000e+000
 0.000000e+000 7.757119e-001 2.242881e-001 0.000000e+000 0.000000e+000
 0.000000e+000 0.000000e+000 4.998601e-001 5.001399e-001 0.000000e+000
 0.000000e+000 0.000000e+000 0.000000e+000 3.503124e-001 6.496875e-001
 0.000000e+000 0.000000e+000 0.000000e+000 0.000000e+000 0.000000e+000
<ENDHMM>
~h "c"
<BEGINHMM>
<NUMSTATES> 5
<STATE> 2
<MEAN> 25
 -1.590142e+000 5.720540e+000 2.070446e+000 4.207234e+000 1.104217e+000 -5.007522e+000 1.889426e+000 -2.047744e-001 3.210364e-001 -1.918639e+000 -5.063225e-001 2.737388e+000 -1.669787e+000 1.267981e-001 -7.985007e-001 -2.537997e-001 7.122368e-001 1.367732e-001 6.388192e-001 -2.188429e-001 3.637144e-001 1.061572e-001 2.088439e-001 1.394170e-001 -1.354530e+000
<VARIANCE> 25
 3.020897e+001 3.585706e+001 3.591682e+001 2.422026e+001 4.226304e+001 4.388508e+001 4.881430e+001 4.689042e+001 4.049225e+001 3.017875e+001 2.708439e+001 2.489636e+001 4.416471e+000 5.213841e+000 2.972049e+000 3.243838e+000 4.242878e+000 3.300760e+000 3.820310e+000 3.752271e+000 3.490526e+000 3.064195e+000 2.746473e+000 2.745079e+000 1.068556e+001
<GCONST> 1.060499e+002
<STATE> 3
<MEAN> 25
 -1.680629e+001 1.873108e+000 -3.814207e+000 -2.124877e+000 3.690407e+000 -3.461560e+000 4.105255e+000 -7.313993e-001 1.740966e+000 3.438325e-001 2.573046e+000 4.456828e+000 -1.953496e+000 -5.793045e-001 -9.993000e-002 -1.070603e+000 -5.302438e-001 -3.964578e-001 6.036341e-002 5.012236e-001 2.892064e-001 -4.271134e-002 3.709423e-001 5.039287e-001 4.079093e+000
<VARIANCE> 25
 3.694638e+001 2.431190e+001 2.976540e+001 3.216274e+001 2.817778e+001 3.828218e+001 4.441470e+001 3.213375e+001 2.707841e+001 2.670527e+001 1.888806e+001 1.662182e+001 9.215704e+000 2.562975e+000 4.418898e+000 3.580094e+000 3.498487e+000 3.610945e+000 3.703542e+000 3.710693e+000 3.050888e+000 2.825202e+000 2.704654e+000 1.849072e+000 6.154319e+000
<GCONST> 1.028523e+002
<STATE> 4
<MEAN> 25
 -9.177687e+000 4.944069e-001 1.593342e+000 -1.319632e+000 -1.434932e+000 -6.100455e+000 6.660315e-001 2.600451e+000 2.844682e+000 -2.330689e+000 -4.359020e-002 3.651322e+000 5.522469e+000 -1.502098e+000 1.662982e+000 5.663444e-002 -1.772666e+000 -1.623349e-001 -2.604393e+000 1.035256e+000 2.746534e-001 -4.355435e-001 -1.186864e+000 -1.371882e+000 2.235153e+000
<VARIANCE> 25
 9.474886e+001 3.031653e+001 3.707336e+001 3.180447e+001 3.171607e+001 3.895179e+001 7.189640e+001 4.061429e+001 3.186078e+001 2.800179e+001 2.790104e+001 2.040212e+001 4.033597e+000 6.042881e+000 5.212793e+000 5.753606e+000 4.081903e+000 5.311399e+000 5.925663e+000 8.742688e+000 6.605495e+000 4.487306e+000 3.907878e+000 3.030947e+000 2.477827e+000
<GCONST> 1.096056e+002
<TRANSP> 5
 0.000000e+000 1.000000e+000 0.000000e+000 0.000000e+000 0.000000e+000
 0.000000e+000 8.394641e-001 1.605359e-001 0.000000e+000 0.000000e+000
 0.000000e+000 0.000000e+000 7.334701e-001 2.665299e-001 0.000000e+000
 0.000000e+000 0.000000e+000 0.000000e+000 6.064031e-001 3.935969e-001
 0.000000e+000 0.000000e+000 0.000000e+000 0.000000e+000 0.000000e+000
<ENDHMM>
~h "d"
<BEGINHMM>
<NUMSTATES> 5
<STATE> 2
<MEAN> 25
 6.025311e+000 4.196375e+000 5.952004e+000 6.610235e+000 -7.818624e-002 -2.551014e+000 -2.150354e+000 -9.134719e-001 1.913142e+000 -1.660131e+000 -3.833879e+000 -1.066378e+000 6.222017e-001 1.277817e+000 8.157933e-001 1.094432e+000 8.006617e-001 -3.789423e-001 3.670608e-001 -1.914493e-001 3.924840e-001 -2.938407e-001 -5.605410e-001 -7.893448e-002 -1.452717e+000
<VARIANCE> 25
 4.748300e+001 5.354825e+001 4.288723e+001 3.858880e+001 4.651096e+001 4.118507e+001 5.870378e+001 7.398474e+001 4.515007e+001 4.141319e+001 3.925694e+001 3.190371e+001 2.912477e+000 3.830066e+000 3.049167e+000 3.318126e+000 4.072517e+000 3.238097e+000 4.530897e+000 5.827827e+000 4.022072e+000 3.473368e+000 3.688700e+000 2.696625e+000 6.981725e+000
<GCONST> 1.092564e+002
<STATE> 3
<MEAN> 25
 6.257589e+000 4.758874e+000 8.576323e+000 7.517334e+000 1.181149e+000 -3.701980e+000 -2.013439e+000 -4.829211e-001 1.768760e+000 -2.344273e+000 -3.326059e+000 1.202336e-001 -1.749629e+000 -2.761482e+000 -3.335370e-001 -2.184836e+000 -1.060590e+000 -4.602035e-001 -1.104165e+000 1.537384e+000 -4.308045e-001 9.104292e-002 1.753319e+000 1.214296e+000 4.153605e+000
<VARIANCE> 25
 3.208546e+001 4.906188e+001 3.099709e+001 3.843633e+001 3.626579e+001 4.269712e+001 5.601793e+001 4.795464e+001 3.869096e+001 3.653414e+001 3.576018e+001 3.344575e+001 2.341168e+000 3.672318e+000 4.014478e+000 3.906484e+000 6.501782e+000 4.227660e+000 6.274990e+000 8.483275e+000 6.261113e+000 4.542231e+000 3.995610e+000 3.292040e+000 6.056926e+000
<GCONST> 1.098910e+002
<STATE> 4
<MEAN> 25
 2.777813e+000 -2.984464e+000 6.225431e+000 6.540859e-001 -5.603378e+000 -4.632353e+000 -6.184050e+000 3.798317e+000 1.657036e+000 -1.075268e+000 1.759267e+000 2.146394e+000 -5.915273e-001 -1.665085e+000 -8.186771e-001 -1.723341e+000 -1.911789e+000 1.132065e-001 -9.129150e-001 1.336853e+000 2.613379e-001 2.546057e-001 8.782470e-001 -2.727351e-001 3.292215e+000
<VARIANCE> 25
 2.392849e+001 3.818479e+001 5.178684e+001 3.823588e+001 6.566557e+001 4.709943e+001 8.403175e+001 7.753217e+001 6.267938e+001 3.257798e+001 3.569456e+001 2.998345e+001 3.043068e+000 3.959832e+000 6.198527e+000 4.817100e+000 7.020507e+000 4.433261e+000 6.830560e+000 1.093069e+001 8.708787e+000 4.827592e+000 6.476525e+000 4.244706e+000 7.786397e+000
<GCONST> 1.145128e+002
<TRANSP> 5
 0.000000e+000 1.000000e+000 0.000000e+000 0.000000e+000 0.000000e+000
 0.000000e+000 7.650949e-001 2.349051e-001 0.000000e+000 0.000000e+000
 0.000000e+000 0.000000e+000 5.186067e-001 4.813932e-001 0.000000e+000
 0.000000e+000 0.000000e+000 0.000000e+000 3.970109e-001 6.029891e-001
 0.000000e+000 0.000000e+000 0.000000e+000 0.000000e+000 0.000000e+000
<ENDHMM>
~h "e"
<BEGINHMM>
<NUMSTATES> 5
<STATE> 2
<MEAN> 25
 2.681645e+000 -4.857555e+000 3.387122e+000 -4.783298e-001 -6.149722e+000 -5.250932e+000 -2.711349e+000 3.920379e+000 4.633996e-001 5.484225e-001 1.423381e+000 -8.494099e-001 6.274993e-001 -1.680260e+000 1.116486e+000 -8.745940e-001 -2.006444e+000 -4.403439e-001 -4.671552e-001 2.143043e+000 -3.418632e-001 -2.534517e-001 3.667599e-001 -2.824273e-001 2.480000e+000
<VARIANCE> 25
 3.881710e+001 5.530436e+001 5.537340e+001 4.593256e+001 5.842595e+001 5.107739e+001 6.835448e+001 7.684397e+001 6.148877e+001 4.221430e+001 4.685030e+001 3.577481e+001 4.633233e+000 4.463599e+000 4.230777e+000 4.988031e+000 6.269275e+000 5.167610e+000 6.604598e+000 8.486917e+000 7.126557e+000 5.026394e+000 5.218065e+000 3.579549e+000 8.880816e+000
<GCONST> 1.155861e+002
<STATE> 3
<MEAN> 25
 3.978048e+000 -7.655573e+000 6.499260e+000 -2.199761e+000 -1.079913e+001 -5.603934e+000 -3.202197e+000 8.254959e+000 -8.162918e-001 -6.382465e-002 3.679735e+000 -1.412393e+000 -1.405450e-001 -2.213717e-002 4.273948e-001 -1.713762e-001 -6.107720e-001 -5.160601e-002 4.657039e-001 3.158445e-001 -3.129886e-001 7.308480e-002 2.765882e-001 -6.002747e-002 1.532477e-001
<VARIANCE> 25
 1.620398e+001 4.335954e+001 5.012008e+001 4.286644e+001 5.513237e+001 4.628708e+001 6.248100e+001 8.581749e+001 6.995118e+001 4.357246e+001 5.513177e+001 3.581892e+001 1.198737e+000 2.296963e+000 2.090747e+000 2.499281e+000 3.497963e+000 2.819140e+000 3.703103e+000 3.858364e+000 3.688344e+000 2.814432e+000 2.816511e+000 2.198991e+000 4.966511e+000
<GCONST> 1.055969e+002
<STATE> 4
<MEAN> 25
 2.144125e+000 -5.951084e+000 6.889928e+000 -2.232364e+000 -1.062280e+001 -6.325667e+000 6.111376e-001 6.823154e+000 -1.842367e+000 4.335030e-001 3.088679e+000 -6.544616e-001 3.179289e-002 3.750022e-001 -2.777390e-001 2.995221e-001 5.732304e-001 9.810415e-002 5.192050e-002 -3.523490e-001 8.727305e-002 2.300257e-002 -3.218520e-001 -2.403940e-002 -6.284375e-001
<VARIANCE> 25
 1.623234e+001 4.365583e+001 5.357481e+001 3.860246e+001 5.843290e+001 5.169721e+001 5.898086e+001 6.977482e+001 5.680202e+001 4.076431e+001 4.416272e+001 3.031196e+001 6.594731e-001 1.242125e+000 1.338263e+000 1.529984e+000 2.138907e+000 1.753571e+000 2.267715e+000 2.233665e+000 2.061817e+000 1.836007e+000 1.801519e+000 1.441596e+000 2.282557e+000
<GCONST> 9.799959e+001
<TRANSP> 5
 0.000000e+000 1.000000e+000 0.000000e+000 0.000000e+000 0.000000e+000
 0.000000e+000 5.757904e-001 4.242095e-001 0.000000e+000 0.000000e+000
 0.000000e+000 0.000000e+000 5.464339e-001 4.535661e-001 0.000000e+000
 0.000000e+000 0.000000e+000 0.000000e+000 8.327858e-001 1.672142e-001
 0.000000e+000 0.000000e+000 0.000000e+000 0.000000e+000 0.000000e+000
<ENDHMM>
~h "f"
<BEGINHMM>
<NUMSTATES> 5
<STATE> 2
<MEAN> 25
 -9.071270e-001 1.980445e+000 -2.841058e-001 3.317103e+000 2.108062e+000 7.272329e-001 2.311263e+000 -9.908054e-001 6.305950e-001 1.215098e-001 4.397713e-001 8.035416e-001 -3.227638e+000 1.551921e-001 -6.644305e-001 1.586310e+000 9.543118e-001 -6.454542e-001 7.437363e-001 3.738929e-001 9.830670e-001 -1.193918e-001 1.738302e-002 5.388191e-001 -1.405690e+000
<VARIANCE> 25
 5.041882e+001 2.849534e+001 4.223706e+001 5.012527e+001 3.899171e+001 5.802524e+001 4.154052e+001 4.299982e+001 4.156186e+001 3.018934e+001 2.893177e+001 3.068210e+001 4.056562e+000 4.310693e+000 3.858541e+000 5.341075e+000 5.296573e+000 6.284929e+000 5.389038e+000 4.874250e+000 4.609003e+000 3.729372e+000 3.374951e+000 2.986876e+000 2.988749e+000
<GCONST> 1.089206e+002
<STATE> 3
<MEAN> 25
 -1.176023e+001 -1.336355e+000 -3.622168e+000 4.732701e+000 2.706124e+000 -1.332076e+000 2.558860e+000 3.827914e-001 2.796866e+000 4.819100e-001 1.199461e+000 3.364110e+000 -5.591313e-001 -4.394390e-001 -3.145231e-001 -5.937225e-002 2.432875e-004 -3.123677e-002 1.126469e-002 7.198493e-002 7.755158e-002 3.914411e-002 9.366383e-002 1.012761e-001 -1.966403e-001
<VARIANCE> 25
 2.481863e+001 2.100908e+001 1.873917e+001 1.884167e+001 2.312966e+001 2.664937e+001 2.874120e+001 2.583286e+001 2.448707e+001 2.338590e+001 1.880655e+001 1.721241e+001 1.852336e+000 1.263467e+000 1.439318e+000 1.394317e+000 1.504519e+000 1.752451e+000 1.726240e+000 1.755734e+000 1.725944e+000 1.711291e+000 1.523315e+000 1.396857e+000 1.301976e+000
<GCONST> 8.896133e+001
<STATE> 4
<MEAN> 25
 -7.895822e+000 -1.597683e+000 -4.863272e+000 3.111959e+000 3.358023e+000 3.838044e-001 2.727985e+000 7.745909e-001 1.473604e+000 -2.882162e-001 9.898628e-001 2.165906e+000 1.828951e+000 3.831730e-001 2.391323e-001 -6.499381e-001 -3.192501e-001 3.067428e-001 -2.250592e-001 -2.151460e-001 -3.655582e-001 -1.500836e-001 -9.749953e-002 -4.798248e-001 4.673058e-001
<VARIANCE> 25
 4.423256e+001 2.933718e+001 2.689115e+001 2.816398e+001 3.043093e+001 3.332273e+001 2.888636e+001 3.263250e+001 3.184635e+001 2.547169e+001 2.087852e+001 1.954338e+001 7.012700e+000 2.628333e+000 2.759347e+000 4.342186e+000 2.965579e+000 3.686933e+000 2.983245e+000 2.790673e+000 2.733907e+000 2.460245e+000 2.204930e+000 2.277594e+000 4.140661e+000
<GCONST> 1.010746e+002
<TRANSP> 5
 0.000000e+000 1.000000e+000 0.000000e+000 0.000000e+000 0.000000e+000
 0.000000e+000 7.102885e-001 2.897114e-001 0.000000e+000 0.000000e+000
 0.000000e+000 0.000000e+000 8.659647e-001 1.340354e-001 0.000000e+000
 0.000000e+000 0.000000e+000 0.000000e+000 7.905035e-001 2.094965e-001
 0.000000e+000 0.000000e+000 0.000000e+000 0.000000e+000 0.000000e+000
<ENDHMM>
~h "g"
<BEGINHMM>
<NUMSTATES> 5
<STATE> 2
<MEAN> 25
 7.911858e+000 5.245536e+000 6.627285e+000 4.335758e+000 -1.752604e+000 -4.219925e+000 -1.245684e+000 -1.543395e+000 -4.071258e+000 2.445003e+000 -2.131692e-001 -2.885978e+000 2.579428e-001 1.516767e+000 6.945177e-001 1.335331e+000 6.195172e-001 -6.323960e-001 9.700868e-001 -5.856708e-001 -6.634769e-002 -4.142768e-001 -2.836469e-001 2.973817e-001 -2.121886e+000
<VARIANCE> 25
 2.139572e+001 5.238346e+001 4.326311e+001 4.167234e+001 5.472446e+001 5.740992e+001 5.812521e+001 6.332822e+001 5.362275e+001 4.597706e+001 3.911825e+001 3.203915e+001 2.583319e+000 3.298272e+000 4.051263e+000 3.306679e+000 4.881828e+000 4.592082e+000 4.519327e+000 4.886244e+000 5.974571e+000 3.729774e+000 3.291703e+000 3.078105e+000 5.816745e+000
<GCONST> 1.097954e+002
<STATE> 3
<MEAN> 25
 2.757307e+000 4.557029e+000 3.291195e+000 7.085924e+000 3.007784e+000 -5.357308e+000 8.508420e-001 -1.590995e+000 -2.455472e+000 1.510922e+000 -1.356370e+000 1.005383e+000 -1.812393e+000 -2.087693e+000 -1.571342e+000 -9.260006e-001 6.046748e-001 -8.426720e-001 -9.966342e-001 1.198259e+000 2.635259e-001 2.118437e-001 3.637570e-001 1.007845e+000 3.310458e+000
<VARIANCE> 25
 4.174881e+001 5.908814e+001 6.739395e+001 3.202677e+001 6.982449e+001 5.346423e+001 5.179116e+001 4.102010e+001 4.110110e+001 3.336569e+001 2.798378e+001 3.066989e+001 3.696658e+000 4.993758e+000 7.671206e+000 4.295305e+000 1.120302e+001 5.355722e+000 5.101985e+000 5.852090e+000 5.639015e+000 3.993037e+000 4.329456e+000 3.796324e+000 6.352787e+000
<GCONST> 1.129635e+002
<STATE> 4
<MEAN> 25
 1.119513e+000 2.267644e-001 1.908331e+000 1.194734e+000 -1.648092e+000 -6.506845e+000 -2.588525e+000 2.027795e+000 -2.130013e+000 2.600133e+000 1.485207e+000 1.202549e+000 1.210216e-001 -9.964452e-001 -1.795268e-002 -2.017769e+000 -1.733655e+000 6.140962e-001 -8.385585e-001 1.280835e+000 4.417765e-001 2.557714e-001 6.021076e-001 -6.913660e-001 2.289172e+000
<VARIANCE> 25
 3.110636e+001 4.361322e+001 6.653319e+001 3.484369e+001 7.876223e+001 6.187749e+001 6.205537e+001 6.351595e+001 5.078803e+001 3.675058e+001 3.989865e+001 2.788705e+001 3.310886e+000 3.388592e+000 5.887613e+000 4.320991e+000 7.838373e+000 4.079406e+000 4.523686e+000 6.812562e+000 6.348403e+000 4.048839e+000 4.745557e+000 3.999333e+000 4.213058e+000
<GCONST> 1.124007e+002
<TRANSP> 5
 0.000000e+000 1.000000e+000 0.000000e+000 0.000000e+000 0.000000e+000
 0.000000e+000 7.381647e-001 2.618353e-001 0.000000e+000 0.000000e+000
 0.000000e+000 0.000000e+000 6.046506e-001 3.953495e-001 0.000000e+000
 0.000000e+000 0.000000e+000 0.000000e+000 4.926953e-001 5.073047e-001
 0.000000e+000 0.000000e+000 0.000000e+000 0.000000e+000 0.000000e+000
<ENDHMM>
~h "h"
<BEGINHMM>
<NUMSTATES> 5
<STATE> 2
<MEAN> 25
 2.076538e+000 -2.452353e+000 -1.864433e+000 7.661456e-001 6.039863e+000 4.251811e+000 3.715712e+000 2.905035e+000 9.370710e-001 -6.123545e-001 -3.051790e+000 1.006366e-001 -1.089289e+000 2.751641e-001 -4.229091e-002 1.516932e+000 1.954567e+000 4.234693e-001 1.544938e+000 1.518749e-001 5.321051e-001 -3.801443e-001 -5.517794e-002 8.291377e-001 -1.215619e+000
<VARIANCE> 25
 2.068846e+001 3.743074e+001 4.773678e+001 4.344306e+001 5.968372e+001 6.519438e+001 5.618649e+001 5.560200e+001 4.535090e+001 4.330807e+001 5.165075e+001 4.428531e+001 1.847106e+000 3.661255e+000 3.463464e+000 3.968137e+000 4.164932e+000 3.931931e+000 5.278329e+000 4.584376e+000 4.100368e+000 3.506447e+000 3.838056e+000 3.686512e+000 2.605319e+000
<GCONST> 1.086544e+002
<STATE> 3
<MEAN> 25
 -1.560554e+000 -3.749491e+000 -2.702437e+000 2.776804e+000 8.822492e+000 3.941496e+000 6.031801e+000 3.487440e+000 2.292597e+000 -1.261173e+000 -2.764254e+000 1.397507e+000 -5.472099e-001 -1.563634e-002 -2.068401e-001 -1.104767e-002 -1.639784e-001 -2.938847e-001 4.440285e-003 -1.909281e-001 3.308230e-002 -3.740967e-002 2.452874e-001 1.576779e-001 -1.220281e+000
<VARIANCE> 25
 2.669165e+001 3.716558e+001 4.173127e+001 4.251036e+001 6.238175e+001 5.647208e+001 5.960980e+001 5.171406e+001 4.388266e+001 4.483113e+001 3.970257e+001 3.785264e+001 1.858283e+000 2.764165e+000 2.773856e+000 2.746634e+000 3.276812e+000 3.312971e+000 3.468432e+000 3.654144e+000 3.152990e+000 2.947107e+000 2.919062e+000 2.467527e+000 3.507839e+000
<GCONST> 1.054777e+002
<STATE> 4
<MEAN> 25
 -3.708224e+000 -3.258437e+000 -4.824107e+000 1.815670e+000 5.459848e+000 2.675877e+000 3.752944e+000 1.277982e+000 1.741345e+000 -1.789352e+000 -8.505535e-001 1.642997e+000 1.625378e-001 2.434213e-001 5.603018e-002 -9.851853e-002 -3.138491e-001 -7.710908e-002 -1.406379e-001 -1.635219e-001 -1.062243e-001 5.823505e-002 2.667678e-002 -1.081059e-001 -1.745571e-001
<VARIANCE> 25
 2.279292e+001 5.067163e+001 3.182785e+001 2.792538e+001 4.337834e+001 3.861046e+001 3.938519e+001 3.239900e+001 3.149188e+001 2.910007e+001 2.648846e+001 2.531091e+001 1.424033e+000 1.810008e+000 1.604184e+000 1.595503e+000 1.965269e+000 2.043658e+000 2.210202e+000 2.142160e+000 2.072248e+000 2.031656e+000 1.926412e+000 1.849138e+000 1.901162e+000
<GCONST> 9.587429e+001
<TRANSP> 5
 0.000000e+000 1.000000e+000 0.000000e+000 0.000000e+000 0.000000e+000
 0.000000e+000 5.405787e-001 4.594213e-001 0.000000e+000 0.000000e+000
 0.000000e+000 0.000000e+000 5.673050e-001 4.326951e-001 0.000000e+000
 0.000000e+000 0.000000e+000 0.000000e+000 8.358114e-001 1.641885e-001
 0.000000e+000 0.000000e+000 0.000000e+000 0.000000e+000 0.000000e+000
<ENDHMM>
~h "i"
<BEGINHMM>
<NUMSTATES> 5
<STATE> 2
<MEAN> 25
 -5.564234e-001 1.411621e+000 1.213949e+001 2.690642e+000 -7.430636e+000 -5.967068e+000 -2.476413e+000 -2.286045e+000 -6.335607e+000 -2.096358e+000 3.026808e+000 1.166595e+000 7.491106e-001 -1.261363e-001 3.193704e+000 -4.967985e-001 -2.999574e+000 9.781157e-002 -1.745446e+000 -3.386853e-001 -2.214865e+000 -2.488956e-001 1.325229e+000 -3.215286e-001 1.976264e+000
<VARIANCE> 25
 3.457473e+001 3.911549e+001 5.451047e+001 4.016115e+001 5.292872e+001 4.457873e+001 6.002248e+001 6.185658e+001 5.209645e+001 3.561358e+001 3.353515e+001 2.955759e+001 6.623186e+000 3.382543e+000 5.323696e+000 5.217750e+000 5.063498e+000 5.409103e+000 6.918706e+000 7.090883e+000 6.879437e+000 5.318710e+000 3.670866e+000 4.023582e+000 5.192356e+000
<GCONST> 1.128345e+002
<STATE> 3
<MEAN> 25
 6.874819e-001 9.691978e-001 1.872718e+001 -2.004721e-001 -1.460510e+001 -2.898322e+000 -7.496196e+000 -2.827356e+000 -1.070857e+001 -1.498612e+000 5.954456e+000 -2.523878e-001 6.894760e-002 8.077053e-002 1.784548e-001 -2.595682e-001 -3.911826e-001 2.287719e-001 -1.450037e-001 -1.213760e-002 -6.651542e-002 2.365639e-001 1.690515e-001 -6.724506e-002 3.568004e-002
<VARIANCE> 25
 1.147278e+001 2.428689e+001 3.394757e+001 4.385851e+001 2.537399e+001 3.988238e+001 3.034074e+001 5.717069e+001 4.739666e+001 5.324109e+001 3.240396e+001 3.937317e+001 7.727836e-001 1.598818e+000 2.141281e+000 1.770398e+000 2.423026e+000 2.555822e+000 2.375969e+000 3.160257e+000 2.552094e+000 2.111022e+000 1.703711e+000 1.589581e+000 1.357578e+000
<GCONST> 9.661519e+001
<STATE> 4
<MEAN> 25
 1.623080e-001 3.655372e+000 1.349285e+001 1.027670e+000 -8.733847e+000 -3.254546e+000 -2.290375e+000 -3.462263e+000 -6.080190e+000 -7.445209e-001 3.014946e+000 5.565825e-001 1.440672e-001 2.259397e-001 -1.396565e+000 4.683235e-001 1.242339e+000 -2.416782e-001 7.640480e-001 2.331744e-001 8.711441e-001 -1.315991e-002 -5.795567e-001 1.349489e-001 -1.465868e+000
<VARIANCE> 25
 1.957959e+001 3.386805e+001 6.249378e+001 4.018405e+001 5.510247e+001 6.003705e+001 4.897387e+001 5.899804e+001 4.872140e+001 4.139448e+001 3.642352e+001 3.218663e+001 1.514975e+000 2.119595e+000 2.496185e+000 2.330955e+000 3.334103e+000 2.963437e+000 3.349279e+000 3.571223e+000 3.479498e+000 2.803888e+000 2.414801e+000 2.066779e+000 3.584662e+000
<GCONST> 1.038834e+002
<TRANSP> 5
 0.000000e+000 1.000000e+000 0.000000e+000 0.000000e+000 0.000000e+000
 0.000000e+000 6.160070e-001 3.839930e-001 0.000000e+000 0.000000e+000
 0.000000e+000 0.000000e+000 7.582113e-001 2.417887e-001 0.000000e+000
 0.000000e+000 0.000000e+000 0.000000e+000 8.044912e-001 1.955089e-001
 0.000000e+000 0.000000e+000 0.000000e+000 0.000000e+000 0.000000e+000
<ENDHMM>
~h "j"
<BEGINHMM>
<NUMSTATES> 5
<STATE> 2
<MEAN> 25
 3.373014e+000 7.926175e+000 8.498480e+000 5.770433e+000 -1.546883e+000 -3.903920e+000 2.180228e-001 7.982993e-001 -1.077456e+000 -3.367460e+000 1.882476e-001 1.648594e+000 -3.491937e-001 1.370448e+000 3.067937e-001 3.825746e-001 8.409775e-001 2.311984e-002 9.895272e-001 -5.961912e-002 4.340879e-001 -6.926966e-002 -1.887751e-001 3.743456e-002 -1.332336e+000
<VARIANCE> 25
 3.730292e+001 4.742334e+001 4.688544e+001 2.913669e+001 4.197276e+001 4.850428e+001 5.032370e+001 4.513403e+001 4.405454e+001 3.327696e+001 2.876070e+001 2.599674e+001 4.871002e+000 3.286382e+000 3.337523e+000 2.916741e+000 3.649486e+000 3.304533e+000 4.123245e+000 4.162806e+000 4.185588e+000 3.119821e+000 2.732971e+000 2.620577e+000 6.422365e+000
<GCONST> 1.066784e+002
<STATE> 3
<MEAN> 25
 -7.781200e+000 9.042903e+000 7.093475e+000 3.800405e+000 2.518669e+000 -3.707316e+000 2.341621e+000 -1.627871e+000 -9.253470e-001 -2.172039e+000 1.669934e+000 3.897357e+000 -1.196970e+000 -1.546012e+000 4.301675e-001 -7.119172e-001 -1.507973e+000 -9.935714e-001 -1.276312e+000 -2.575720e-001 -5.239863e-001 -1.189321e-001 8.792763e-001 9.309692e-001 3.577119e+000
<VARIANCE> 25
 5.183199e+001 4.078895e+001 4.765698e+001 2.781551e+001 4.278217e+001 5.164333e+001 4.002437e+001 3.008545e+001 2.689335e+001 2.404399e+001 2.091277e+001 2.001979e+001 1.286551e+001 3.694969e+000 5.295149e+000 4.036638e+000 8.913405e+000 4.518197e+000 4.619092e+000 4.821904e+000 4.132885e+000 2.842578e+000 2.442201e+000 2.460765e+000 3.301847e+000
<GCONST> 1.072701e+002
<STATE> 4
<MEAN> 25
 8.686307e-001 -1.155103e+000 1.033094e+001 4.622780e-003 -1.052727e+001 -8.566182e+000 -6.674614e+000 3.644808e+000 -7.027332e-001 -2.565636e+000 4.947102e+000 4.870853e+000 2.274630e+000 -2.821142e+000 -1.301134e+000 -1.365238e+000 -1.341108e+000 5.906733e-001 -1.408542e+000 2.361445e+000 1.258826e+000 7.706961e-001 -4.065495e-001 -1.499434e+000 1.393299e+000
<VARIANCE> 25
 1.431639e+001 3.084816e+001 3.002434e+001 3.891571e+001 2.752847e+001 2.222470e+001 3.845145e+001 6.365233e+001 5.537866e+001 2.665291e+001 2.396391e+001 2.218390e+001 2.815162e+000 3.083989e+000 4.947642e+000 2.409478e+000 6.640080e+000 3.643348e+000 6.867853e+000 7.164672e+000 5.605592e+000 3.245263e+000 4.314404e+000 2.837480e+000 1.297605e+000
<GCONST> 1.042810e+002
<TRANSP> 5
 0.000000e+000 1.000000e+000 0.000000e+000 0.000000e+000 0.000000e+000
 0.000000e+000 8.351713e-001 1.648287e-001 0.000000e+000 0.000000e+000
 0.000000e+000 0.000000e+000 7.696158e-001 2.303842e-001 0.000000e+000
 0.000000e+000 0.000000e+000 0.000000e+000 6.296049e-001 3.703951e-001
 0.000000e+000 0.000000e+000 0.000000e+000 0.000000e+000 0.000000e+000
<ENDHMM>
~h "k"
<BEGINHMM>
<NUMSTATES> 5
<STATE> 2
<MEAN> 25
 -1.307053e+000 3.225488e+000 -1.358619e+000 1.898912e+000 1.497634e+000 -2.051458e+000 2.518947e+000 -7.806108e-001 3.494473e-001 4.078772e-001 -5.456998e-001 1.076293e+000 -9.515617e-001 -2.340091e-001 -6.778899e-001 3.166331e-001 5.406248e-001 -2.525708e-001 2.288868e-001 1.006973e-001 3.302695e-001 -7.825607e-002 -4.839553e-002 4.687549e-001 -9.717603e-001
<VARIANCE> 25
 3.188653e+001 3.153089e+001 3.459579e+001 3.394020e+001 4.071322e+001 4.474913e+001 4.082649e+001 4.745261e+001 4.283566e+001 3.588849e+001 3.066975e+001 3.004894e+001 2.293219e+000 4.014184e+000 3.422434e+000 3.034156e+000 4.187160e+000 3.812257e+000 3.661110e+000 3.817394e+000 3.817183e+000 3.240865e+000 2.722928e+000 2.498171e+000 8.523600e+000
<GCONST> 1.057121e+002
<STATE> 3
<MEAN> 25
 -5.682302e+000 -3.245482e+000 -7.472830e+000 1.126615e+000 5.783293e+000 -4.537803e+000 1.227011e+000 8.047799e-001 9.022139e-001 2.429418e+000 -1.233074e+000 3.200240e+000 -7.164064e-001 -2.064979e+000 -2.129369e+000 -1.049803e+000 1.309029e+000 -8.552386e-001 -1.033505e+000 8.278562e-001 -7.315981e-002 9.424021e-001 -5.466949e-001 1.902727e-001 4.722433e+000
<VARIANCE> 25
 2.799879e+001 5.948906e+001 6.406741e+001 5.050603e+001 5.703345e+001 5.692178e+001 5.154552e+001 4.477190e+001 4.307048e+001 3.638487e+001 2.932763e+001 3.005082e+001 3.817429e+000 5.389061e+000 6.917914e+000 5.809522e+000 6.592426e+000 6.055007e+000 5.464781e+000 5.176255e+000 5.011904e+000 4.162002e+000 4.121637e+000 3.720162e+000 1.107198e+001
<GCONST> 1.133337e+002
<STATE> 4
<MEAN> 25
 -3.551022e+000 -3.025764e+000 -7.704309e+000 -2.219096e+000 4.484316e+000 -4.970343e+000 -2.791021e-001 2.346077e+000 6.669655e-001 3.072852e+000 -2.245939e+000 6.107903e-001 1.915268e+000 4.852968e-001 1.510703e+000 -9.394418e-001 -1.670645e+000 6.934500e-001 -4.090468e-001 4.275754e-001 -3.116450e-001 -4.520499e-001 2.635652e-001 -1.465703e+000 2.636951e+000
<VARIANCE> 25
 4.295964e+001 3.976445e+001 6.521963e+001 5.168806e+001 5.934716e+001 6.533240e+001 5.237989e+001 4.940663e+001 4.484661e+001 3.638975e+001 3.465391e+001 4.039627e+001 4.996086e+000 5.008663e+000 5.538486e+000 5.888695e+000 5.947093e+000 5.780818e+000 5.324088e+000 5.758125e+000 5.158442e+000 3.912716e+000 4.124891e+000 4.489168e+000 8.387122e+000
<GCONST> 1.139915e+002
<TRANSP> 5
 0.000000e+000 1.000000e+000 0.000000e+000 0.000000e+000 0.000000e+000
 0.000000e+000 7.934211e-001 2.065788e-001 0.000000e+000 0.000000e+000
 0.000000e+000 0.000000e+000 5.242786e-001 4.757214e-001 0.000000e+000
 0.000000e+000 0.000000e+000 0.000000e+000 5.767001e-001 4.232999e-001
 0.000000e+000 0.000000e+000 0.000000e+000 0.000000e+000 0.000000e+000
<ENDHMM>
~h "l"
<BEGINHMM>
<NUMSTATES> 5
<STATE> 2
<MEAN> 25
 6.751629e+000 -5.152010e+000 1.300806e+000 -6.094370e+000 -2.709993e+000 2.060614e+000 -8.693851e+000 -4.324839e+000 3.586974e+000 4.699418e+000 1.277663e+000 -3.163980e+000 5.585105e-001 1.686525e-001 6.572921e-001 -6.802918e-001 6.904576e-001 2.176858e-002 -1.521268e+000 -1.406996e+000 1.170437e-001 1.234725e+000 4.256581e-001 -3.284507e-001 -3.754136e-001
<VARIANCE> 25
 1.495233e+001 2.657884e+001 4.923223e+001 6.358334e+001 5.319593e+001 6.849728e+001 7.170631e+001 1.092541e+002 5.933933e+001 4.911320e+001 4.963088e+001 4.308267e+001 1.104169e+000 1.891102e+000 2.793848e+000 4.593547e+000 5.121625e+000 5.896028e+000 4.806580e+000 5.858874e+000 4.534002e+000 4.025719e+000 4.536318e+000 3.346104e+000 1.505162e+000
<GCONST> 1.088601e+002
<STATE> 3
<MEAN> 25
 7.788010e+000 -4.446399e+000 2.811510e+000 -8.264718e+000 -1.403956e+000 3.374812e+000 -1.212656e+001 -6.807753e+000 2.844507e+000 7.098553e+000 2.909873e+000 -3.677382e+000 -7.422528e-002 1.471471e-001 -2.119914e-004 -2.152452e-001 3.666828e-001 -1.207080e-001 -2.778147e-001 2.258119e-001 1.008813e-002 -6.154538e-002 -7.619381e-002 8.116834e-003 -6.687068e-002
<VARIANCE> 25
 1.158199e+001 2.134859e+001 4.180792e+001 6.891938e+001 5.085057e+001 5.473806e+001 7.114885e+001 8.106156e+001 5.758532e+001 4.948456e+001 4.533078e+001 4.105386e+001 5.334525e-001 1.344105e+000 2.572100e+000 3.339240e+000 2.304211e+000 3.380427e+000 3.365908e+000 5.182085e+000 3.250289e+000 3.031603e+000 3.160169e+000 2.367838e+000 1.011808e+000
<GCONST> 1.025403e+002
<STATE> 4
<MEAN> 25
 5.744970e+000 -2.457571e+000 -5.606918e-001 -7.233499e+000 1.258799e+000 2.649679e+000 -7.169271e+000 -3.298647e+000 2.413965e+000 4.226818e+000 7.452891e-001 -2.615134e+000 -4.822452e-001 -5.214892e-002 -5.088927e-001 6.294144e-001 -8.481871e-002 -1.248990e-001 1.069436e+000 9.310962e-001 5.431718e-002 -8.860990e-001 -6.656423e-001 1.773903e-001 -1.827005e-001
<VARIANCE> 25
 2.245992e+001 3.240399e+001 5.894675e+001 8.175213e+001 5.861940e+001 6.036636e+001 9.802316e+001 7.487080e+001 5.775842e+001 5.822048e+001 5.089092e+001 4.391879e+001 8.057650e-001 2.355458e+000 2.715269e+000 3.637929e+000 3.312807e+000 3.977720e+000 4.157325e+000 5.325537e+000 3.902094e+000 3.531051e+000 4.058829e+000 2.830867e+000 2.554611e+000
<GCONST> 1.085317e+002
<TRANSP> 5
 0.000000e+000 1.000000e+000 0.000000e+000 0.000000e+000 0.000000e+000
 0.000000e+000 5.156448e-001 4.843552e-001 0.000000e+000 0.000000e+000
 0.000000e+000 0.000000e+000 5.213301e-001 4.786699e-001 0.000000e+000
 0.000000e+000 0.000000e+000 0.000000e+000 5.714828e-001 4.285172e-001
 0.000000e+000 0.000000e+000 0.000000e+000 0.000000e+000 0.000000e+000
<ENDHMM>
~h "m"
<BEGINHMM>
<NUMSTATES> 5
<STATE> 2
<MEAN> 25
 8.276235e+000 -1.360788e+000 1.452788e+000 -8.624065e-001 -1.183775e+000 4.901080e+000 -9.523746e-001 -6.316021e+000 -6.401857e+000 8.028374e-001 9.728029e-001 -2.809368e+000 4.618322e-001 1.380651e+000 1.837747e+000 2.312531e+000 3.351384e-001 -8.178397e-002 1.078514e+000 -3.219415e+000 -3.101384e+000 -2.962595e-002 -5.671778e-001 8.906379e-001 -1.106298e+000
<VARIANCE> 25
 1.925742e+001 3.966218e+001 3.661256e+001 6.545615e+001 3.946565e+001 5.323394e+001 5.841159e+001 7.022886e+001 5.941470e+001 4.115422e+001 4.552726e+001 4.313633e+001 1.991753e+000 2.324685e+000 3.714978e+000 3.893755e+000 3.491131e+000 3.834687e+000 5.695381e+000 4.935273e+000 5.904572e+000 4.350943e+000 6.435716e+000 4.578572e+000 3.965328e+000
<GCONST> 1.098626e+002
<STATE> 3
<MEAN> 25
 8.251719e+000 8.701323e-001 6.657266e+000 4.100796e+000 -4.554404e-001 4.353633e+000 5.813120e-001 -1.288157e+001 -1.344519e+001 9.563786e-001 -1.308412e+000 4.367859e-001 -9.991193e-003 1.658757e-001 4.314469e-001 3.380825e-001 1.432038e-001 1.977192e-001 2.390829e-001 -5.487484e-001 -6.670088e-001 -1.806590e-001 -3.343936e-001 3.390279e-001 -7.041492e-002
<VARIANCE> 25
 9.141948e+000 2.301144e+001 2.309324e+001 3.680350e+001 3.449104e+001 5.396719e+001 7.128728e+001 4.841681e+001 4.008953e+001 5.504065e+001 5.730787e+001 4.874625e+001 7.620913e-001 1.360617e+000 1.377245e+000 2.099543e+000 1.813565e+000 2.004685e+000 2.309941e+000 2.526844e+000 2.939893e+000 2.363874e+000 2.927120e+000 1.955960e+000 2.183036e+000
<GCONST> 9.796812e+001
<STATE> 4
<MEAN> 25
 6.550681e+000 1.235524e+000 4.627688e+000 2.275395e+000 -6.897967e-001 5.129736e+000 8.400313e-001 -9.147390e+000 -9.452813e+000 -9.378203e-001 -1.868284e+000 -3.181440e-001 -8.419763e-002 -2.098247e-001 -9.442887e-001 -8.843359e-001 -2.301311e-001 -2.520970e-002 -1.710082e-001 1.183894e+000 1.212543e+000 3.495102e-002 4.233817e-001 -4.914373e-001 3.673923e-001
<VARIANCE> 25
 2.112788e+001 2.414855e+001 3.623701e+001 4.642703e+001 4.723056e+001 5.190174e+001 6.087999e+001 5.763004e+001 5.958724e+001 4.234364e+001 4.759792e+001 3.941823e+001 5.329311e-001 1.544067e+000 2.607543e+000 3.368011e+000 1.924985e+000 2.239910e+000 2.756620e+000 3.593963e+000 4.217212e+000 2.466708e+000 3.046597e+000 2.662102e+000 2.105437e+000
<GCONST> 1.018595e+002
<TRANSP> 5
 0.000000e+000 1.000000e+000 0.000000e+000 0.000000e+000 0.000000e+000
 0.000000e+000 5.795100e-001 4.204900e-001 0.000000e+000 0.000000e+000
 0.000000e+000 0.000000e+000 6.562924e-001 3.437076e-001 0.000000e+000
 0.000000e+000 0.000000e+000 0.000000e+000 7.460651e-001 2.539349e-001
 0.000000e+000 0.000000e+000 0.000000e+000 0.000000e+000 0.000000e+000
<ENDHMM>
~h "n"
<BEGINHMM>
<NUMSTATES> 5
<STATE> 2
<MEAN> 25
 7.130957e+000 -4.559897e+000 3.411303e+000 6.466282e-001 -2.660522e+000 -1.850009e+000 -4.969258e+000 4.892778e-001 9.020802e-002 1.571930e+000 -5.101089e+000 -4.105451e+000 6.539677e-001 2.238475e+000 2.018344e+000 2.382823e+000 -5.071096e-001 -1.110847e+000 5.545146e-001 -4.254130e+000 -7.537819e-001 1.189516e+000 -7.331837e-001 9.176673e-001 -2.213098e+000
<VARIANCE> 25
 8.725231e+000 3.461083e+001 3.885493e+001 4.157581e+001 4.311954e+001 4.715603e+001 4.587094e+001 1.142037e+002 5.086235e+001 4.830857e+001 4.010306e+001 3.461967e+001 7.326065e-001 1.931608e+000 3.731347e+000 2.541864e+000 3.408954e+000 4.737269e+000 5.846080e+000 6.484626e+000 6.378540e+000 5.637729e+000 5.802541e+000 3.087434e+000 1.089039e+000
<GCONST> 1.058358e+002
<STATE> 3
<MEAN> 25
 8.281735e+000 6.379991e-001 8.619999e+000 5.275998e+000 -4.804142e+000 -2.790016e+000 -3.004545e+000 -1.026879e+001 -2.649694e+000 4.567530e+000 -6.338485e+000 -9.812841e-001 1.510484e-001 8.383855e-001 3.018552e-001 5.607920e-001 -1.264331e-001 1.437758e-001 5.217263e-001 -1.074289e+000 -4.971816e-001 1.899369e-001 -1.038637e-001 5.372936e-001 -8.431461e-001
<VARIANCE> 25
 7.377624e+000 1.577260e+001 2.141596e+001 2.963879e+001 3.256775e+001 4.754027e+001 6.023978e+001 5.062289e+001 4.570590e+001 4.701405e+001 4.297436e+001 3.500532e+001 4.126111e-001 1.258047e+000 1.596304e+000 1.422750e+000 1.704368e+000 1.997300e+000 2.622382e+000 4.013644e+000 2.621386e+000 2.367754e+000 2.294301e+000 1.782715e+000 9.640803e-001
<GCONST> 9.445429e+001
<STATE> 4
<MEAN> 25
 4.989862e+000 3.382594e+000 5.767017e+000 6.114659e+000 -1.169095e+000 -1.417107e+000 4.090316e-001 -7.453627e+000 -2.899654e+000 1.520716e+000 -4.480575e+000 8.475324e-001 -6.188650e-001 2.178084e-001 -5.997405e-001 -1.726238e-001 6.767395e-001 2.030939e-001 1.353331e-001 8.167321e-001 1.340140e-001 -5.711706e-001 4.202733e-001 -9.053446e-002 -8.710011e-001
<VARIANCE> 25
 3.283485e+001 2.617910e+001 3.361277e+001 3.057074e+001 5.204143e+001 3.416595e+001 5.803270e+001 7.002133e+001 5.255360e+001 5.151796e+001 4.616900e+001 3.365908e+001 1.155435e+000 2.099201e+000 1.929390e+000 2.215642e+000 2.749640e+000 2.470906e+000 3.253921e+000 4.111325e+000 3.144942e+000 2.842397e+000 2.525422e+000 2.192233e+000 3.051628e+000
<GCONST> 1.025496e+002
<TRANSP> 5
 0.000000e+000 1.000000e+000 0.000000e+000 0.000000e+000 0.000000e+000
 0.000000e+000 6.061065e-001 3.938935e-001 0.000000e+000 0.000000e+000
 0.000000e+000 0.000000e+000 6.893077e-001 3.106923e-001 0.000000e+000
 0.000000e+000 0.000000e+000 0.000000e+000 7.675723e-001 2.324277e-001
 0.000000e+000 0.000000e+000 0.000000e+000 0.000000e+000 0.000000e+000
<ENDHMM>
~h "o"
<BEGINHMM>
<NUMSTATES> 5
<STATE> 2
<MEAN> 25
 5.888820e+000 4.430436e-001 -5.528288e+000 -9.204384e+000 -2.837500e+000 5.552897e+000 -4.192906e+000 -2.331511e+000 9.789518e-002 1.729231e+000 3.584641e+000 -3.083559e-001 1.945463e+000 -3.455892e-001 -4.985172e-001 -3.283756e+000 -1.524701e+000 2.690056e+000 -8.108027e-001 1.289486e-001 4.575314e-002 7.222571e-002 1.284327e+000 -4.717750e-001 2.147201e+000
<VARIANCE> 25
 3.006997e+001 3.406284e+001 4.360682e+001 7.941557e+001 5.617945e+001 5.590866e+001 7.645705e+001 5.675744e+001 5.810029e+001 5.627060e+001 4.162072e+001 3.364544e+001 4.731620e+000 3.300403e+000 5.885028e+000 6.663109e+000 7.406808e+000 5.587726e+000 6.127273e+000 7.487543e+000 5.898507e+000 5.674642e+000 4.644216e+000 4.080058e+000 5.149244e+000
<GCONST> 1.148507e+002
<STATE> 3
<MEAN> 25
 8.487797e+000 -9.068334e-001 -6.195997e+000 -1.566957e+001 -5.290828e+000 1.227503e+001 -5.290691e+000 -2.048309e+000 -2.698706e-001 1.500385e+000 7.105864e+000 -4.802243e-001 1.914902e-001 -1.162811e-001 -2.141699e-001 -1.030546e+000 -6.523340e-002 1.081470e+000 3.063419e-001 1.451800e-001 -8.591247e-002 -3.496798e-001 4.010952e-001 1.970111e-001 1.960551e-001
<VARIANCE> 25
 1.095590e+001 2.759200e+001 2.589080e+001 4.931699e+001 4.795184e+001 4.016287e+001 5.769773e+001 5.452728e+001 5.244497e+001 6.103683e+001 3.882273e+001 3.890620e+001 5.771130e-001 1.966199e+000 1.331569e+000 3.164220e+000 2.465485e+000 2.663909e+000 3.286753e+000 2.991835e+000 3.620101e+000 3.823573e+000 2.463684e+000 2.402211e+000 2.024873e+000
<GCONST> 1.006628e+002
<STATE> 4
<MEAN> 25
 7.587278e+000 4.469737e-001 -5.792966e+000 -1.456237e+001 -3.986541e+000 1.055137e+001 -2.320820e+000 -1.600515e+000 8.752964e-001 -1.914900e-001 4.373628e+000 2.282133e-002 -2.218944e-001 4.127274e-002 2.366325e-001 1.173437e+000 4.033480e-001 -8.912989e-001 1.133656e-001 -7.178123e-002 1.486844e-001 2.410562e-001 -5.446384e-001 -1.598910e-001 -8.268599e-001
<VARIANCE> 25
 1.931767e+001 3.851941e+001 2.537166e+001 7.259644e+001 5.041609e+001 4.688090e+001 6.960166e+001 5.420794e+001 4.899524e+001 5.871684e+001 3.449796e+001 4.064036e+001 7.146946e-001 1.512720e+000 1.353758e+000 3.327641e+000 2.274077e+000 2.797212e+000 2.842743e+000 2.600040e+000 2.593956e+000 2.842210e+000 2.192820e+000 2.008979e+000 2.388125e+000
<GCONST> 1.010760e+002
<TRANSP> 5
 0.000000e+000 1.000000e+000 0.000000e+000 0.000000e+000 0.000000e+000
 0.000000e+000 5.704221e-001 4.295779e-001 0.000000e+000 0.000000e+000
 0.000000e+000 0.000000e+000 6.414433e-001 3.585566e-001 0.000000e+000
 0.000000e+000 0.000000e+000 0.000000e+000 8.385810e-001 1.614190e-001
 0.000000e+000 0.000000e+000 0.000000e+000 0.000000e+000 0.000000e+000
<ENDHMM>
~h "p"
<BEGINHMM>
<NUMSTATES> 5
<STATE> 2
<MEAN> 25
 2.215396e+000 5.593421e+000 -7.915093e-001 1.315371e+000 1.896547e+000 7.605254e-001 2.691661e+000 -3.688292e+000 -5.156296e-002 2.550261e-002 -1.388000e-001 -1.915942e-001 -1.315867e+000 2.631842e-001 -3.194490e-001 5.339857e-001 2.177917e-001 -5.810273e-001 5.618913e-001 2.779712e-001 4.993766e-001 -2.890239e-001 -2.840305e-002 4.290600e-001 -1.769531e+000
<VARIANCE> 25
 3.543733e+001 2.385476e+001 3.427792e+001 4.082010e+001 2.690370e+001 4.028253e+001 3.299391e+001 3.859717e+001 4.085415e+001 3.103586e+001 2.866813e+001 2.962077e+001 1.817371e+000 2.893699e+000 2.241458e+000 2.778026e+000 2.582206e+000 2.987121e+000 2.993988e+000 2.894017e+000 3.291462e+000 2.679806e+000 2.481833e+000 2.110627e+000 8.096358e+000
<GCONST> 1.015729e+002
<STATE> 3
<MEAN> 25
 -2.680173e+000 2.822632e+000 -2.724258e+000 1.376436e+000 1.612056e+000 -9.796638e-001 3.229473e+000 -1.880573e+000 1.197349e+000 -4.573095e-001 9.081954e-001 1.541459e+000 5.655569e-001 -2.301856e+000 -1.256845e+000 -1.896677e+000 -5.336221e-001 7.048423e-001 -8.475627e-001 1.265351e-001 3.847169e-001 1.978759e-001 8.513793e-001 -3.635275e-001 5.567282e+000
<VARIANCE> 25
 2.612590e+001 2.469719e+001 2.380346e+001 3.839293e+001 2.511809e+001 3.445993e+001 3.033337e+001 2.921257e+001 3.057901e+001 2.462169e+001 2.300260e+001 2.122589e+001 6.678452e+000 3.818473e+000 3.444248e+000 7.405432e+000 3.688777e+000 7.384251e+000 4.244142e+000 4.433669e+000 4.387150e+000 3.795582e+000 3.416986e+000 4.069302e+000 1.297849e+001
<GCONST> 1.063244e+002
<STATE> 4
<MEAN> 25
 -3.917284e+000 3.124277e-001 -4.032965e+000 1.146364e+000 1.917233e+000 5.298985e-001 2.809623e+000 -5.242366e-001 1.836182e+000 -5.846586e-001 1.065627e+000 1.970374e+000 7.944769e-001 -7.669620e-001 -1.620018e-001 -7.594271e-001 -3.420556e-001 4.393839e-001 -6.400957e-001 -3.752582e-002 -5.258946e-002 4.977873e-003 2.191052e-001 -4.084646e-001 2.546118e+000
<VARIANCE> 25
 3.560629e+001 2.801612e+001 1.923028e+001 4.470087e+001 2.567265e+001 3.811586e+001 3.244168e+001 2.649011e+001 2.635724e+001 2.394200e+001 2.124045e+001 2.306226e+001 4.117940e+000 3.806345e+000 2.540191e+000 5.039348e+000 2.863045e+000 5.049792e+000 3.643393e+000 3.409935e+000 2.991651e+000 2.764018e+000 2.577514e+000 3.033389e+000 1.392334e+001
<GCONST> 1.031874e+002
<TRANSP> 5
 0.000000e+000 1.000000e+000 0.000000e+000 0.000000e+000 0.000000e+000
 0.000000e+000 7.746443e-001 2.253557e-001 0.000000e+000 0.000000e+000
 0.000000e+000 0.000000e+000 3.792962e-001 6.207038e-001 0.000000e+000
 0.000000e+000 0.000000e+000 0.000000e+000 7.061210e-001 2.938790e-001
 0.000000e+000 0.000000e+000 0.000000e+000 0.000000e+000 0.000000e+000
<ENDHMM>
~h "q"
<BEGINHMM>
<NUMSTATES> 5
<STATE> 2
<MEAN> 25
 -5.948139e+000 5.564856e+000 1.264732e+000 6.422334e+000 -2.467191e-001 -1.980865e+000 3.154280e+000 -4.792215e+000 1.007638e+000 -3.323786e+000 -4.959311e-001 2.204399e+000 -5.119631e-001 -3.412442e-001 -4.155451e-001 -1.580493e-001 4.943985e-001 -1.548986e-002 -1.457121e-001 2.368013e-001 4.287863e-001 9.701837e-002 -5.285165e-002 9.671098e-001 6.295437e-002
<VARIANCE> 25
 1.366567e+001 2.743888e+001 3.302336e+001 8.299362e+000 2.401109e+001 2.841227e+001 1.357094e+001 1.203683e+001 4.162279e+001 2.029304e+001 2.283130e+001 2.742052e+001 1.714630e+000 4.921551e+000 7.556934e+000 1.892526e+000 2.610000e+000 4.215123e+000 3.025109e+000 1.632634e+000 4.969264e+000 4.160046e+000 1.910250e+000 4.373034e+000 5.931170e+000
<GCONST> 9.800685e+001
<STATE> 3
<MEAN> 25
 -1.614236e+000 -8.494447e-001 -1.251000e+000 -4.514236e-001 -1.724186e+000 -6.843162e+000 6.969124e-001 1.373631e-001 -1.802725e+000 -2.747195e-001 1.240968e+000 5.532496e+000 -4.452408e-001 -2.806954e-001 -1.413610e+000 -5.137445e-001 5.634155e-001 7.206755e-001 3.847920e-001 -6.748173e-002 3.030167e-001 -4.548659e-001 -1.751933e-001 2.296801e-001 6.063809e-001
<VARIANCE> 25
 2.853979e+001 5.777475e+001 2.286565e+002 4.545801e+001 7.657313e+001 5.490522e+001 3.898423e+001 5.710900e+001 4.004486e+001 3.035862e+001 3.828918e+001 4.561346e+001 3.169382e+000 6.269455e+000 9.518192e+000 5.773300e+000 6.658728e+000 5.008807e+000 1.638281e+000 4.382190e+000 6.725493e+000 2.967263e+000 4.345386e+000 3.439380e+000 1.243586e+001
<GCONST> 1.139167e+002
<STATE> 4
<MEAN> 25
 -8.190109e+000 2.856239e+000 -5.833651e+000 3.866498e+000 1.080682e+000 1.599472e+000 6.473825e+000 -4.700942e+000 4.031563e+000 -3.993705e+000 -1.815572e+000 2.309301e+000 -1.642395e-001 2.038164e-001 1.436533e-001 -1.794049e-002 6.166916e-002 2.700573e-001 1.245714e-001 1.871295e-001 1.001680e-001 -1.056852e-001 -1.264760e-001 -1.218885e-001 -7.908987e-002
<VARIANCE> 25
 1.083198e+001 1.250302e+001 1.917329e+001 1.513794e+001 1.176477e+001 2.084447e+001 1.480955e+001 1.589569e+001 2.312856e+001 1.249789e+001 2.021728e+001 1.098248e+001 1.699971e+000 2.131042e+000 2.375129e+000 9.794277e-001 1.957262e+000 1.496114e+000 1.498150e+000 1.902121e+000 2.353423e+000 1.882321e+000 2.032895e+000 1.540160e+000 2.437119e+000
<GCONST> 8.633274e+001
<TRANSP> 5
 0.000000e+000 1.000000e+000 0.000000e+000 0.000000e+000 0.000000e+000
 0.000000e+000 7.950035e-001 2.049965e-001 0.000000e+000 0.000000e+000
 0.000000e+000 0.000000e+000 8.328285e-001 1.671715e-001 0.000000e+000
 0.000000e+000 0.000000e+000 0.000000e+000 8.972484e-001 1.027516e-001
 0.000000e+000 0.000000e+000 0.000000e+000 0.000000e+000 0.000000e+000
<ENDHMM>
~h "r"
<BEGINHMM>
<NUMSTATES> 5
<STATE> 2
<MEAN> 25
 5.661996e+000 -5.545151e+000 -4.197890e+000 -1.152984e+000 -3.206671e+000 -3.589293e-001 -5.362858e+000 2.328624e-001 6.217600e+000 2.404105e+000 2.790247e-001 -3.599170e+000 3.719110e-001 1.230757e-001 1.618306e-001 1.718942e+000 -2.813737e-001 -3.477094e-001 -5.014229e-001 -8.096802e-001 8.513756e-001 -1.810193e-001 2.254131e-001 2.560544e-001 -9.804428e-001
<VARIANCE> 25
 2.066074e+001 3.007113e+001 4.445900e+001 4.844846e+001 4.696312e+001 5.265685e+001 6.219426e+001 8.293082e+001 5.174559e+001 4.479158e+001 4.264842e+001 3.899133e+001 3.063414e+000 3.148277e+000 3.183013e+000 6.121292e+000 5.518694e+000 5.805272e+000 6.068509e+000 6.245345e+000 5.968446e+000 5.630145e+000 4.958061e+000 4.132329e+000 4.856866e+000
<GCONST> 1.120326e+002
<STATE> 3
<MEAN> 25
 6.539477e+000 -4.880988e+000 -2.977415e+000 2.577745e+000 -3.983184e+000 -9.474390e-001 -6.803080e+000 -1.129235e+000 7.077242e+000 2.195390e+000 1.315713e+000 -2.921236e+000 -1.169792e-001 3.333804e-001 5.270948e-001 7.708488e-001 2.811767e-001 -3.922071e-001 2.260023e-002 -2.365726e-001 -4.454283e-001 -2.393896e-001 1.581964e-001 5.818443e-001 -1.022479e+000
<VARIANCE> 25
 1.969632e+001 2.754624e+001 4.676080e+001 4.133098e+001 5.013412e+001 4.912500e+001 6.271432e+001 7.398304e+001 5.203361e+001 4.525916e+001 4.050889e+001 3.586310e+001 2.681476e+000 2.883905e+000 3.126336e+000 4.080160e+000 5.153188e+000 5.308153e+000 5.608244e+000 6.151198e+000 5.380468e+000 4.990225e+000 4.204319e+000 4.181851e+000 3.716818e+000
<GCONST> 1.100182e+002
<STATE> 4
<MEAN> 25
 1.466438e+000 -2.286397e+000 -2.516529e+000 3.505301e+000 2.169631e-001 -5.969470e-001 -1.240750e+000 -5.212059e-001 3.802155e+000 -7.297215e-002 3.089875e-002 3.666742e-001 -1.905743e-001 2.070904e-001 2.778150e-001 -1.010004e-001 1.355608e-001 -6.370236e-003 2.252053e-001 4.204042e-002 -6.013979e-001 -1.291943e-001 4.982228e-002 2.184252e-001 -4.431264e-001
<VARIANCE> 25
 5.058705e+001 3.632246e+001 4.985221e+001 3.781913e+001 5.100566e+001 4.868062e+001 6.953250e+001 5.461304e+001 4.634668e+001 4.320590e+001 3.876251e+001 3.263728e+001 2.021885e+000 2.232291e+000 2.551958e+000 2.292360e+000 3.214665e+000 3.215073e+000 3.444915e+000 3.451945e+000 3.530387e+000 2.932306e+000 2.680389e+000 2.430953e+000 2.725866e+000
<GCONST> 1.051084e+002
<TRANSP> 5
 0.000000e+000 1.000000e+000 0.000000e+000 0.000000e+000 0.000000e+000
 0.000000e+000 4.047826e-001 5.952173e-001 0.000000e+000 0.000000e+000
 0.000000e+000 0.000000e+000 3.611802e-001 6.388198e-001 0.000000e+000
 0.000000e+000 0.000000e+000 0.000000e+000 7.156850e-001 2.843150e-001
 0.000000e+000 0.000000e+000 0.000000e+000 0.000000e+000 0.000000e+000
<ENDHMM>
~h "s"
<BEGINHMM>
<NUMSTATES> 5
<STATE> 2
<MEAN> 25
 -5.877945e+000 5.864724e+000 5.421948e-001 2.523239e+000 4.846777e+000 -4.605770e+000 1.798405e+000 1.303603e+000 1.308471e+000 -6.714646e-001 -1.582123e+000 2.047229e+000 -4.693568e+000 2.046525e+000 -9.812617e-001 9.249846e-001 1.822171e+000 -4.823776e-001 1.881976e+000 7.152545e-001 6.494172e-001 -5.293690e-001 7.482270e-001 8.799584e-001 -7.246585e-001
<VARIANCE> 25
 7.176771e+001 4.708019e+001 4.686145e+001 4.074619e+001 4.922269e+001 4.562282e+001 7.395282e+001 5.435988e+001 5.003843e+001 3.710427e+001 4.093497e+001 3.067258e+001 3.362366e+000 6.042148e+000 4.306631e+000 4.764719e+000 5.282328e+000 4.825783e+000 6.370193e+000 5.881730e+000 4.960703e+000 4.343729e+000 4.127381e+000 3.261326e+000 2.697789e+000
<GCONST> 1.118616e+002
<STATE> 3
<MEAN> 25
 -2.172857e+001 5.711391e+000 -5.450216e+000 1.829551e+000 7.117021e+000 -4.286277e+000 5.399952e+000 3.234612e+000 3.128070e+000 5.030693e-002 2.099519e+000 4.693548e+000 -8.369474e-001 -5.715983e-001 -5.471085e-001 -2.590286e-001 -1.243838e-001 6.364545e-002 9.319439e-002 1.207636e-001 1.731136e-001 1.715862e-001 2.397380e-001 2.014117e-001 -2.685297e-001
<VARIANCE> 25
 1.878534e+001 2.500644e+001 3.417883e+001 3.202589e+001 2.844116e+001 2.981942e+001 5.258838e+001 3.544291e+001 3.550509e+001 2.529261e+001 2.379175e+001 2.282307e+001 3.120490e+000 1.371909e+000 1.834464e+000 1.493157e+000 1.688970e+000 1.760467e+000 1.865483e+000 1.879177e+000 1.918573e+000 1.757970e+000 1.712825e+000 1.455176e+000 1.055095e+000
<GCONST> 9.345655e+001
<STATE> 4
<MEAN> 25
 -1.337113e+001 2.600786e+000 -4.545659e+000 1.322623e+000 4.481099e+000 -3.829880e+000 3.153998e+000 1.831170e+000 3.318171e+000 -6.191900e-001 6.990345e-001 2.935858e+000 3.413559e+000 -2.004580e-001 1.029691e+000 -2.280454e-001 -8.937678e-001 8.416300e-002 -1.298918e+000 -8.046757e-001 -3.050933e-001 -9.421521e-002 -6.698791e-001 -9.875017e-001 8.617969e-002
<VARIANCE> 25
 7.684481e+001 2.886246e+001 3.803879e+001 3.090504e+001 3.401529e+001 4.051969e+001 5.639355e+001 3.978962e+001 3.713887e+001 2.825437e+001 2.744332e+001 2.685366e+001 9.355587e+000 3.414794e+000 3.892304e+000 3.435402e+000 3.325125e+000 3.674594e+000 5.280066e+000 4.372730e+000 4.048870e+000 2.902783e+000 3.049846e+000 2.958693e+000 5.558300e+000
<GCONST> 1.073025e+002
<TRANSP> 5
 0.000000e+000 1.000000e+000 0.000000e+000 0.000000e+000 0.000000e+000
 0.000000e+000 7.058210e-001 2.941790e-001 0.000000e+000 0.000000e+000
 0.000000e+000 0.000000e+000 8.452010e-001 1.547990e-001 0.000000e+000
 0.000000e+000 0.000000e+000 0.000000e+000 7.662514e-001 2.337486e-001
 0.000000e+000 0.000000e+000 0.000000e+000 0.000000e+000 0.000000e+000
<ENDHMM>
~h "t"
<BEGINHMM>
<NUMSTATES> 5
<STATE> 2
<MEAN> 25
 -2.896535e-001 4.501870e+000 -1.041302e+000 2.254071e+000 1.821447e+000 -2.774191e+000 8.037286e-001 -1.318890e+000 2.402509e+000 2.504183e-001 -1.128625e+000 4.423161e-002 -8.395995e-001 2.864456e-001 -2.782934e-001 2.902937e-001 1.521713e-001 -2.201983e-002 7.474461e-001 -7.822930e-002 1.022954e-001 -2.865820e-001 1.481542e-001 3.768968e-001 -1.872934e+000
<VARIANCE> 25
 2.791241e+001 2.697763e+001 3.299878e+001 3.178433e+001 3.077094e+001 3.610854e+001 4.395668e+001 4.085725e+001 3.963292e+001 3.235292e+001 3.074342e+001 2.701509e+001 1.913066e+000 3.045848e+000 2.054300e+000 2.658577e+000 2.941542e+000 2.691964e+000 3.261231e+000 3.139770e+000 2.882009e+000 2.587983e+000 2.401725e+000 2.087320e+000 7.164999e+000
<GCONST> 1.013576e+002
<STATE> 3
<MEAN> 25
 -4.842919e+000 3.297960e+000 -1.770652e+000 2.398687e+000 2.122355e+000 -2.949423e+000 3.320616e+000 -1.381366e+000 2.141836e+000 -5.461549e-001 -3.383576e-001 1.974721e+000 -1.604478e+000 -1.890915e+000 -8.048999e-001 -1.054396e+000 2.304587e-001 -3.147592e-001 -2.238984e-002 4.880526e-001 9.796038e-002 -1.053446e-001 4.054194e-001 4.342804e-001 3.814109e+000
<VARIANCE> 25
 2.908140e+001 3.003359e+001 2.822092e+001 2.651529e+001 2.792840e+001 3.350889e+001 3.512606e+001 3.467990e+001 3.483526e+001 2.679169e+001 2.641013e+001 2.380763e+001 3.465313e+000 3.616396e+000 3.495584e+000 3.667831e+000 3.436638e+000 3.818382e+000 4.201157e+000 3.899823e+000 4.395243e+000 2.945050e+000 3.376034e+000 2.806074e+000 1.265106e+001
<GCONST> 1.043630e+002
<STATE> 4
<MEAN> 25
 -6.599454e+000 -1.737330e+000 -3.974114e+000 -1.360969e+000 2.217112e+000 -3.784698e+000 1.561378e+000 9.211816e-002 2.903648e+000 -1.597557e-001 -1.448692e-001 1.738444e+000 1.402151e+000 -8.767743e-001 1.852699e-001 -1.251772e+000 -5.434409e-001 9.611417e-002 -1.829185e+000 -1.938500e-002 3.415073e-002 2.635878e-001 -8.802745e-002 -9.986423e-001 5.057852e+000
<VARIANCE> 25
 3.825582e+001 3.059395e+001 2.818229e+001 3.346891e+001 3.269162e+001 4.316932e+001 4.603145e+001 3.391566e+001 3.509078e+001 2.878463e+001 2.706069e+001 2.890246e+001 5.786200e+000 4.867008e+000 4.927706e+000 5.696285e+000 4.464222e+000 5.795823e+000 6.718352e+000 6.064527e+000 6.088926e+000 4.146880e+000 4.328548e+000 4.332694e+000 1.612557e+001
<GCONST> 1.106204e+002
<TRANSP> 5
 0.000000e+000 1.000000e+000 0.000000e+000 0.000000e+000 0.000000e+000
 0.000000e+000 8.135179e-001 1.864821e-001 0.000000e+000 0.000000e+000
 0.000000e+000 0.000000e+000 4.485758e-001 5.514242e-001 0.000000e+000
 0.000000e+000 0.000000e+000 0.000000e+000 5.679318e-001 4.320681e-001
 0.000000e+000 0.000000e+000 0.000000e+000 0.000000e+000 0.000000e+000
<ENDHMM>
~h "u"
<BEGINHMM>
<NUMSTATES> 5
<STATE> 2
<MEAN> 25
 5.608497e+000 4.085723e+000 -1.358540e+000 -3.238489e+000 -2.918427e+000 1.872473e+000 -6.900076e+000 -5.337817e+000 -3.525443e+000 -7.868825e-002 2.891951e+000 1.001590e-001 2.278971e+000 9.896250e-001 -4.901328e-002 -2.411453e+000 -1.864889e+000 2.124498e+000 -1.679471e+000 -9.874579e-001 -1.529711e+000 -5.767842e-002 1.438282e+000 -7.588948e-002 1.368325e+000
<VARIANCE> 25
 2.960090e+001 3.651295e+001 4.416277e+001 7.076252e+001 5.179651e+001 5.017220e+001 8.288379e+001 6.716302e+001 5.075910e+001 4.615274e+001 3.728709e+001 3.266913e+001 5.099059e+000 3.624093e+000 4.985301e+000 6.139505e+000 6.236540e+000 5.421081e+000 7.308918e+000 8.469511e+000 6.281306e+000 5.902101e+000 4.346254e+000 4.046278e+000 4.737652e+000
<GCONST> 1.143508e+002
<STATE> 3
<MEAN> 25
 9.168541e+000 5.729568e+000 -2.229526e+000 -9.786914e+000 -6.939117e+000 8.906132e+000 -8.405381e+000 -6.334263e+000 -6.446105e+000 -1.752620e+000 6.581338e+000 1.203843e+000 3.091987e-001 2.378754e-001 -8.164440e-002 -1.000208e+000 -3.087210e-001 9.848107e-001 -1.846460e-002 3.861789e-002 -4.218857e-001 -1.562715e-001 4.758171e-001 2.650496e-001 2.495438e-002
<VARIANCE> 25
 1.129226e+001 3.363380e+001 2.828506e+001 6.363398e+001 4.524943e+001 4.246927e+001 6.311173e+001 8.406744e+001 5.832160e+001 6.019829e+001 4.284402e+001 4.104443e+001 7.150020e-001 2.683283e+000 1.583199e+000 3.955000e+000 3.347536e+000 2.948223e+000 4.385797e+000 4.919945e+000 3.995434e+000 4.369407e+000 3.342031e+000 2.840986e+000 2.115325e+000
<GCONST> 1.048622e+002
<STATE> 4
<MEAN> 25
 8.436265e+000 6.345301e+000 -1.731442e+000 -8.600122e+000 -4.814941e+000 6.425460e+000 -6.505180e+000 -4.671547e+000 -5.067086e+000 -6.833977e-001 4.456086e+000 1.709831e-001 -3.982016e-001 -3.081567e-001 3.017743e-001 1.328296e+000 6.794639e-001 -9.719707e-001 5.384395e-001 -1.489098e-002 8.210878e-001 3.815671e-001 -6.831415e-001 -2.236498e-001 -9.002163e-001
<VARIANCE> 25
 1.652860e+001 4.100304e+001 3.260884e+001 7.310558e+001 5.027085e+001 4.715974e+001 8.344666e+001 7.258901e+001 5.662961e+001 5.710012e+001 4.604600e+001 4.181580e+001 1.057163e+000 2.325298e+000 1.976908e+000 3.919539e+000 3.401841e+000 3.432001e+000 4.216791e+000 4.031026e+000 3.836196e+000 3.817746e+000 3.290809e+000 3.017818e+000 3.387063e+000
<GCONST> 1.068037e+002
<TRANSP> 5
 0.000000e+000 1.000000e+000 0.000000e+000 0.000000e+000 0.000000e+000
 0.000000e+000 5.310934e-001 4.689066e-001 0.000000e+000 0.000000e+000
 0.000000e+000 0.000000e+000 6.494240e-001 3.505760e-001 0.000000e+000
 0.000000e+000 0.000000e+000 0.000000e+000 7.772961e-001 2.227039e-001
 0.000000e+000 0.000000e+000 0.000000e+000 0.000000e+000 0.000000e+000
<ENDHMM>
~h "w"
<BEGINHMM>
<NUMSTATES> 5
<STATE> 2
<MEAN> 25
 8.620725e+000 1.158200e+000 -2.568929e+000 -8.166884e+000 -3.047488e+000 5.907472e+000 -3.772094e+000 -2.130746e+000 -2.437782e+000 1.359420e+000 3.694303e+000 -1.173218e+000 1.514117e+000 1.145126e+000 -1.472348e-001 -2.126643e+000 -1.282868e+000 1.447436e+000 -8.465110e-002 -4.330431e-001 -1.310336e+000 -6.635312e-001 1.028184e+000 8.434234e-001 1.199584e-001
<VARIANCE> 25
 2.259668e+001 7.232124e+001 3.269383e+001 7.828613e+001 4.455315e+001 6.503419e+001 6.435086e+001 5.547554e+001 6.100549e+001 5.314518e+001 4.862594e+001 4.252798e+001 2.664608e+000 2.964474e+000 2.744195e+000 4.080126e+000 4.778733e+000 4.870675e+000 4.505543e+000 5.056966e+000 4.539052e+000 4.159833e+000 3.745837e+000 3.506965e+000 4.575301e+000
<GCONST> 1.108537e+002
<STATE> 3
<MEAN> 25
 1.179586e+001 3.509178e+000 -2.524375e+000 -1.581268e+001 -8.506187e+000 1.109302e+001 -4.823325e+000 -1.039512e+000 -3.287754e+000 -2.394103e+000 5.450015e+000 1.636308e+000 -1.057454e-001 -6.502973e-001 -3.019237e-001 -6.491843e-001 1.680218e-002 6.424742e-001 -7.806845e-002 -8.113969e-002 3.447121e-001 3.158115e-001 4.399520e-001 -1.089575e-002 6.903549e-001
<VARIANCE> 25
 9.855832e+000 3.444453e+001 1.965734e+001 4.755643e+001 4.508664e+001 4.362491e+001 3.803335e+001 4.987724e+001 5.499739e+001 3.965055e+001 3.293934e+001 3.122880e+001 5.973046e-001 3.719426e+000 1.599884e+000 3.022687e+000 3.113436e+000 3.211597e+000 2.505174e+000 2.426409e+000 2.762822e+000 3.858907e+000 2.741445e+000 2.919788e+000 2.490375e+000
<GCONST> 1.002110e+002
<STATE> 4
<MEAN> 25
 8.700905e+000 -4.120748e+000 -5.829607e+000 -1.610420e+001 -3.075554e+000 1.343582e+001 -3.421255e+000 -2.108145e+000 9.958285e-001 2.153468e+000 5.846299e+000 -3.367526e+000 -6.826077e-001 -1.407837e+000 -3.294656e-001 1.075664e+000 1.261316e+000 -5.590698e-001 -1.704595e-001 3.078052e-001 1.093787e+000 6.551630e-001 -1.062266e+000 -1.600876e+000 8.640548e-001
<VARIANCE> 25
 1.038623e+001 4.028972e+001 2.554679e+001 4.531482e+001 3.745995e+001 4.360185e+001 4.829908e+001 4.412914e+001 5.347837e+001 5.161576e+001 3.768913e+001 4.435250e+001 3.604622e-001 1.633389e+000 1.035167e+000 2.160610e+000 2.120297e+000 2.620133e+000 1.652684e+000 1.913060e+000 2.365612e+000 1.997977e+000 2.342237e+000 2.784321e+000 8.004000e-001
<GCONST> 9.579196e+001
<TRANSP> 5
 0.000000e+000 1.000000e+000 0.000000e+000 0.000000e+000 0.000000e+000
 0.000000e+000 6.597632e-001 3.402368e-001 0.000000e+000 0.000000e+000
 0.000000e+000 0.000000e+000 7.567736e-001 2.432264e-001 0.000000e+000
 0.000000e+000 0.000000e+000 0.000000e+000 7.290253e-001 2.709747e-001
 0.000000e+000 0.000000e+000 0.000000e+000 0.000000e+000 0.000000e+000
<ENDHMM>
~h "y"
<BEGINHMM>
<NUMSTATES> 5
<STATE> 2
<MEAN> 25
 7.422839e-001 -9.749030e-001 9.834303e+000 -1.680251e+000 -7.599483e+000 -4.688019e+000 -3.617985e+000 3.729913e+000 -2.987992e+000 -2.351809e+000 2.498211e+000 1.342883e+000 -1.003844e-001 9.144207e-001 2.596863e+000 -7.699259e-003 -1.363211e+000 -4.139791e-001 -1.197620e+000 -5.818849e-001 -1.525879e+000 -3.350317e-001 1.341772e+000 7.837386e-001 4.989130e-001
<VARIANCE> 25
 2.517175e+001 6.226236e+001 7.273065e+001 3.909880e+001 5.883735e+001 5.500614e+001 5.655798e+001 7.387724e+001 6.947408e+001 4.737253e+001 3.949831e+001 3.401159e+001 2.110342e+000 2.849730e+000 3.968577e+000 2.970620e+000 3.897667e+000 3.748915e+000 4.036197e+000 4.725032e+000 4.282102e+000 4.211929e+000 3.025052e+000 2.773379e+000 4.491175e+000
<GCONST> 1.093914e+002
<STATE> 3
<MEAN> 25
 1.067861e+000 -2.886385e-002 1.709108e+001 -1.274692e+000 -1.294411e+001 -4.579361e+000 -8.314621e+000 1.266032e+000 -7.357155e+000 -2.727465e+000 6.609038e+000 3.534574e+000 2.610348e-001 -1.041442e+000 -1.137953e+000 -3.836296e-001 -5.169916e-001 -5.047794e-001 2.730473e-001 1.146932e+000 1.082955e+000 5.360893e-001 1.485249e-002 3.100070e-002 9.385381e-001
<VARIANCE> 25
 1.096083e+001 2.703411e+001 3.952551e+001 3.937433e+001 2.740178e+001 3.966661e+001 3.259651e+001 5.316146e+001 5.881320e+001 6.253710e+001 3.002676e+001 3.171474e+001 5.873129e-001 2.228869e+000 3.570729e+000 1.481659e+000 2.252188e+000 1.880979e+000 2.370663e+000 4.064426e+000 3.800945e+000 2.412152e+000 1.873590e+000 1.650769e+000 1.672480e+000
<GCONST> 9.800960e+001
<STATE> 4
<MEAN> 25
 2.533545e+000 -7.379527e+000 5.658128e+000 -4.580071e+000 -1.067593e+001 -6.626266e+000 -2.489542e+000 1.112958e+001 9.730679e-001 -1.834244e+000 1.715765e+000 1.320873e-001 3.224822e-001 -1.165205e+000 -2.116125e+000 -2.702598e-001 1.544034e+000 9.114975e-001 7.239823e-001 9.818234e-001 1.232064e+000 -5.001585e-001 -1.800237e+000 -1.251656e+000 4.581749e-001
<VARIANCE> 25
 1.005470e+001 2.266065e+001 3.142182e+001 2.514009e+001 3.525746e+001 3.026403e+001 4.884930e+001 6.278555e+001 5.125887e+001 3.229704e+001 3.947207e+001 2.862064e+001 2.659410e-001 1.079305e+000 2.153460e+000 9.317654e-001 2.103324e+000 1.582367e+000 2.145401e+000 3.293880e+000 2.083754e+000 2.565837e+000 2.577478e+000 2.041698e+000 3.544170e-001
<GCONST> 9.239609e+001
<TRANSP> 5
 0.000000e+000 1.000000e+000 0.000000e+000 0.000000e+000 0.000000e+000
 0.000000e+000 7.562671e-001 2.437329e-001 0.000000e+000 0.000000e+000
 0.000000e+000 0.000000e+000 7.673737e-001 2.326263e-001 0.000000e+000
 0.000000e+000 0.000000e+000 0.000000e+000 7.336910e-001 2.663091e-001
 0.000000e+000 0.000000e+000 0.000000e+000 0.000000e+000 0.000000e+000
<ENDHMM>
~h "z"
<BEGINHMM>
<NUMSTATES> 5
<STATE> 2
<MEAN> 25
 -1.431280e+000 8.927739e+000 2.330369e+000 5.354131e+000 2.134400e+000 -6.644512e+000 -1.752525e+000 -1.193415e+000 7.266879e-001 -1.004327e+000 -2.077021e+000 1.991440e+000 -2.157160e+000 2.320933e+000 -7.546862e-001 1.073452e+000 1.485379e+000 -3.139983e-001 1.290381e+000 -8.155956e-002 7.179968e-001 -3.421481e-001 1.573913e-001 6.595479e-001 -9.197935e-001
<VARIANCE> 25
 3.743779e+001 4.539494e+001 4.596342e+001 3.198308e+001 4.501681e+001 3.944062e+001 7.650215e+001 5.114997e+001 4.566325e+001 4.538462e+001 3.400858e+001 3.297675e+001 3.133444e+000 4.322795e+000 2.946868e+000 2.855712e+000 3.223774e+000 4.099775e+000 4.240988e+000 6.256485e+000 4.304834e+000 4.012066e+000 3.078321e+000 2.894534e+000 2.832271e+000
<GCONST> 1.077642e+002
<STATE> 3
<MEAN> 25
 -1.197427e+001 1.440273e+001 8.741453e-001 8.523912e+000 6.792713e+000 -6.693048e+000 2.478547e+000 -8.800716e-001 1.452517e+000 -7.322799e-001 -1.385128e-001 4.530831e+000 -1.150877e+000 -3.486107e-001 -6.479670e-002 3.734000e-002 2.675643e-001 1.802583e-001 3.298625e-001 9.185229e-002 -1.225837e-001 2.345634e-002 2.968244e-001 2.626646e-001 9.245525e-002
<VARIANCE> 25
 4.122553e+001 3.262445e+001 3.294353e+001 3.183287e+001 2.611500e+001 3.295991e+001 6.179543e+001 3.073629e+001 3.560430e+001 3.238748e+001 2.233272e+001 2.560508e+001 2.540312e+000 2.133257e+000 1.554540e+000 1.412921e+000 2.231548e+000 2.090448e+000 2.092295e+000 1.925912e+000 1.939084e+000 1.480770e+000 1.567359e+000 1.481667e+000 1.761301e+000
<GCONST> 9.568641e+001
<STATE> 4
<MEAN> 25
 -1.089546e+001 4.563981e+000 -8.880485e-001 2.975756e+000 4.641417e+000 -1.258734e+000 1.859375e+000 1.972439e+000 9.462689e-001 -4.372422e-001 8.131760e-001 3.806188e+000 6.795932e-001 -4.279734e-001 3.248245e-001 -2.469338e-001 -5.721379e-001 -2.733771e-001 -5.106844e-001 -2.065953e-001 3.267890e-002 6.716831e-002 -2.351783e-003 -6.062262e-002 6.554552e-001
<VARIANCE> 25
 6.308006e+001 4.822376e+001 4.168339e+001 2.893774e+001 3.911029e+001 4.004373e+001 4.369292e+001 3.362864e+001 3.126649e+001 2.136755e+001 2.136581e+001 2.076674e+001 4.236476e+000 2.643545e+000 2.168780e+000 1.974692e+000 3.177329e+000 2.270482e+000 2.818449e+000 2.800092e+000 2.268097e+000 1.831221e+000 1.786482e+000 1.680939e+000 2.414602e+000
<GCONST> 9.962828e+001
<TRANSP> 5
 0.000000e+000 1.000000e+000 0.000000e+000 0.000000e+000 0.000000e+000
 0.000000e+000 7.526590e-001 2.473409e-001 0.000000e+000 0.000000e+000
 0.000000e+000 0.000000e+000 7.619624e-001 2.380376e-001 0.000000e+000
 0.000000e+000 0.000000e+000 0.000000e+000 8.597559e-001 1.402441e-001
 0.000000e+000 0.000000e+000 0.000000e+000 0.000000e+000 0.000000e+000
<ENDHMM>
~h "ai"
<BEGINHMM>
<NUMSTATES> 5
<STATE> 2
<MEAN> 25
 4.873380e+000 -1.188161e+001 -2.844830e+000 -5.777702e+000 -1.940416e+000 1.050821e+000 -4.016345e+000 8.916795e+000 3.822021e+000 -1.304723e+000 -4.182501e+000 -5.935534e+000 -1.333145e-001 -7.793535e-001 1.094569e+000 3.711951e-002 -1.121992e+000 -1.109480e+000 6.439905e-001 2.064131e+000 -3.074373e-001 -8.845231e-001 -3.043021e-001 4.783500e-001 6.134489e-001
<VARIANCE> 25
 9.153342e+000 2.201111e+001 4.165715e+001 2.359548e+001 4.541932e+001 7.249908e+001 3.824045e+001 4.863324e+001 4.521525e+001 4.333305e+001 4.652556e+001 3.021341e+001 9.749584e-001 2.027043e+000 1.781293e+000 2.332927e+000 3.031619e+000 4.172114e+000 2.912624e+000 3.724653e+000 2.546708e+000 2.263722e+000 3.234935e+000 2.629226e+000 1.102966e+000
<GCONST> 9.961721e+001
<STATE> 3
<MEAN> 25
 3.432904e+000 -9.342582e+000 6.297525e+000 -5.119211e+000 -1.123858e+001 -7.205830e+000 -1.027513e+000 1.331626e+001 -1.241193e+000 -7.272262e-001 1.706287e+000 -1.030916e+000 -2.982264e-001 8.993375e-001 1.722180e+000 -8.063570e-002 -1.386049e+000 -5.800163e-001 -1.241082e-001 -8.238641e-001 -1.224907e+000 7.480422e-001 1.507462e+000 6.120132e-001 -4.025691e-001
<VARIANCE> 25
 7.262045e+000 1.525371e+001 3.065479e+001 1.911137e+001 2.825442e+001 3.481790e+001 3.726744e+001 4.137111e+001 4.503577e+001 3.380912e+001 4.876614e+001 2.525122e+001 2.428817e-001 1.034233e+000 1.339225e+000 9.124327e-001 1.488774e+000 1.650125e+000 2.065090e+000 2.750725e+000 2.099380e+000 1.963686e+000 2.020731e+000 1.466677e+000 3.048286e-001
<GCONST> 8.847335e+001
<STATE> 4
<MEAN> 25
 2.056320e+000 -1.497227e+000 1.309903e+001 -3.264585e+000 -1.280321e+001 -7.440512e+000 -3.060227e+000 3.397015e+000 -6.305590e+000 2.119574e+000 5.003061e+000 5.901545e-001 -1.089741e-003 9.131607e-001 -2.249784e-001 6.261227e-001 8.388970e-001 1.826542e-001 1.181268e-001 -9.197990e-001 2.521315e-002 -1.825272e-001 -3.731583e-001 7.041979e-002 -1.454240e+000
<VARIANCE> 25
 1.139087e+001 3.472351e+001 3.966885e+001 3.562360e+001 3.447807e+001 4.453363e+001 4.083834e+001 6.677481e+001 4.659634e+001 4.297765e+001 3.737669e+001 2.908093e+001 8.570988e-001 1.604862e+000 2.569073e+000 1.982512e+000 2.731146e+000 2.178255e+000 2.766807e+000 3.180084e+000 3.286644e+000 2.364605e+000 2.021241e+000 1.594707e+000 2.323471e+000
<GCONST> 9.899010e+001
<TRANSP> 5
 0.000000e+000 1.000000e+000 0.000000e+000 0.000000e+000 0.000000e+000
 0.000000e+000 7.329948e-001 2.670052e-001 0.000000e+000 0.000000e+000
 0.000000e+000 0.000000e+000 7.872236e-001 2.127764e-001 0.000000e+000
 0.000000e+000 0.000000e+000 0.000000e+000 8.598961e-001 1.401039e-001
 0.000000e+000 0.000000e+000 0.000000e+000 0.000000e+000 0.000000e+000
<ENDHMM>
~h "au"
<BEGINHMM>
<NUMSTATES> 5
<STATE> 2
<MEAN> 25
 6.464262e+000 -5.714540e+000 -7.616863e+000 -9.509780e+000 -5.216297e-002 1.077440e+001 -4.730383e+000 -2.092638e+000 7.249791e+000 1.553016e+000 -4.470688e-001 -7.414873e+000 2.203629e-001 7.917731e-002 -3.229143e-001 -7.160493e-001 -5.096369e-002 1.193007e+000 -1.210392e-001 -4.542882e-001 5.145833e-003 -1.443982e-001 7.989334e-001 -5.235010e-002 1.864127e-002
<VARIANCE> 25
 9.005345e+000 2.196222e+001 2.042522e+001 2.764259e+001 2.783675e+001 3.619090e+001 3.497872e+001 4.083418e+001 2.555001e+001 2.994646e+001 2.954045e+001 2.200064e+001 5.780270e-001 1.083832e+000 9.944420e-001 1.332276e+000 1.624835e+000 2.363332e+000 1.746418e+000 2.154477e+000 1.863906e+000 1.960657e+000 2.543866e+000 1.559310e+000 5.619161e-001
<GCONST> 8.944826e+001
<STATE> 3
<MEAN> 25
 8.267777e+000 -1.347839e+000 -7.529404e+000 -1.657531e+001 -3.734878e+000 1.562494e+001 -4.945036e+000 -3.451191e+000 3.498980e+000 -2.968215e-001 6.164703e+000 -2.961127e+000 3.214025e-001 1.020394e+000 2.075271e-001 -4.939388e-001 -6.368126e-001 2.461419e-002 -9.611838e-002 1.136080e-001 -7.767382e-001 -4.634124e-001 5.442517e-001 8.984583e-001 -6.027648e-001
<VARIANCE> 25
 8.548958e+000 2.065448e+001 1.617370e+001 3.549443e+001 3.035220e+001 2.509945e+001 3.964577e+001 3.423434e+001 3.656361e+001 3.638615e+001 2.688757e+001 3.635790e+001 2.401318e-001 1.016142e+000 5.783058e-001 1.164263e+000 1.183477e+000 1.303608e+000 1.332910e+000 1.357123e+000 1.618172e+000 1.952646e+000 1.653644e+000 1.750291e+000 3.881936e-001
<GCONST> 8.588787e+001
<STATE> 4
<MEAN> 25
 6.596823e+000 4.872264e+000 -4.262890e+000 -1.013585e+001 -3.817880e+000 7.921351e+000 -3.061678e+000 -8.973863e-001 -1.571940e+000 -1.661818e+000 3.721794e+000 5.514719e-001 -2.241184e-001 1.713414e-001 2.868899e-001 1.139580e+000 2.791883e-001 -8.018220e-001 1.413382e-002 -4.766811e-002 -2.324929e-001 2.120959e-001 -3.849784e-001 -3.693089e-002 -8.947361e-001
<VARIANCE> 25
 3.928754e+001 3.108476e+001 2.735674e+001 1.108948e+002 4.877684e+001 5.266966e+001 6.449792e+001 4.535020e+001 4.670444e+001 4.795219e+001 3.699033e+001 3.621037e+001 7.524027e-001 1.429395e+000 1.317090e+000 2.813226e+000 2.036589e+000 2.473385e+000 2.875723e+000 2.353770e+000 2.642607e+000 2.574309e+000 2.202680e+000 2.113907e+000 1.169467e+000
<GCONST> 1.003423e+002
<TRANSP> 5
 0.000000e+000 1.000000e+000 0.000000e+000 0.000000e+000 0.000000e+000
 0.000000e+000 8.158713e-001 1.841287e-001 0.000000e+000 0.000000e+000
 0.000000e+000 0.000000e+000 8.529011e-001 1.470989e-001 0.000000e+000
 0.000000e+000 0.000000e+000 0.000000e+000 8.662891e-001 1.337110e-001
 0.000000e+000 0.000000e+000 0.000000e+000 0.000000e+000 0.000000e+000
<ENDHMM>
~h "kh"
<BEGINHMM>
<NUMSTATES> 5
<STATE> 2
<MEAN> 25
 -2.361004e+000 4.993196e-001 -3.403822e+000 9.878861e-001 5.201840e+000 6.223950e-001 3.329137e+000 4.992401e-001 6.083582e-001 9.313173e-001 -9.306421e-001 1.468765e+000 -1.441135e+000 -4.790361e-001 -1.226159e+000 3.310407e-002 1.262965e+000 -3.704311e-001 3.001074e-001 3.519960e-001 2.416674e-001 1.272616e-001 7.700165e-002 5.390686e-001 8.538012e-002
<VARIANCE> 25
 4.514758e+001 5.023936e+001 5.900481e+001 4.764165e+001 5.748377e+001 6.736575e+001 4.707598e+001 4.467861e+001 6.024046e+001 4.423618e+001 4.623640e+001 3.079504e+001 4.472252e+000 5.737731e+000 6.167277e+000 4.947805e+000 6.330666e+000 5.416487e+000 5.836901e+000 4.292267e+000 5.046492e+000 3.874705e+000 3.800672e+000 2.968010e+000 8.344089e+000
<GCONST> 1.136137e+002
<STATE> 3
<MEAN> 25
 -8.364543e+000 -5.240135e+000 -1.119352e+001 -2.953164e+000 1.054623e+001 -4.187344e-001 1.383030e+000 2.942991e+000 2.713780e+000 2.837924e+000 8.641603e-001 2.777105e+000 -4.387343e-001 -3.319072e-001 -4.136175e-001 -2.977468e-001 -1.321489e-001 2.145395e-001 2.167953e-001 1.045180e-001 -4.488232e-002 9.969834e-003 3.567324e-001 4.244124e-002 1.063637e-001
<VARIANCE> 25
 2.379112e+001 3.366745e+001 4.906914e+001 5.554251e+001 5.807092e+001 5.859056e+001 6.058321e+001 4.302864e+001 5.006712e+001 4.086115e+001 3.444066e+001 4.185650e+001 1.619112e+000 2.197273e+000 2.994499e+000 2.944035e+000 3.435180e+000 3.588475e+000 3.476697e+000 2.907528e+000 2.764482e+000 3.056571e+000 2.633754e+000 2.534025e+000 2.066996e+000
<GCONST> 1.044676e+002
<STATE> 4
<MEAN> 25
 -5.244835e+000 -2.949760e-001 -5.411004e+000 1.155101e+000 4.142284e+000 2.088350e+000 4.442400e+000 6.752040e-001 1.415437e+000 -1.038929e+000 1.401655e+000 1.797463e+000 4.708604e-001 2.581434e-001 3.412911e-001 -4.771301e-002 -3.219444e-001 7.609671e-002 5.145878e-003 -2.455706e-001 -1.379657e-001 -1.084917e-001 -7.574275e-002 -1.821643e-001 1.339091e-001
<VARIANCE> 25
 3.299052e+001 4.299977e+001 4.466209e+001 4.148034e+001 4.159754e+001 4.052461e+001 3.673142e+001 3.307204e+001 3.800788e+001 3.214871e+001 2.232274e+001 2.535396e+001 2.534352e+000 1.709136e+000 2.128803e+000 2.041342e+000 2.028715e+000 2.132884e+000 2.339532e+000 2.530477e+000 2.350161e+000 2.064499e+000 1.845023e+000 1.868172e+000 1.913791e+000
<GCONST> 9.835191e+001
<TRANSP> 5
 0.000000e+000 1.000000e+000 0.000000e+000 0.000000e+000 0.000000e+000
 0.000000e+000 7.698745e-001 2.301255e-001 0.000000e+000 0.000000e+000
 0.000000e+000 0.000000e+000 7.654768e-001 2.345233e-001 0.000000e+000
 0.000000e+000 0.000000e+000 0.000000e+000 8.982384e-001 1.017616e-001
 0.000000e+000 0.000000e+000 0.000000e+000 0.000000e+000 0.000000e+000
<ENDHMM>
~h "ng"
<BEGINHMM>
<NUMSTATES> 5
<STATE> 2
<MEAN> 25
 7.557961e+000 -2.111842e+000 4.900954e-001 -2.846962e+000 -2.994444e+000 3.776635e+000 -8.103999e-001 -1.111031e+000 -5.184296e+000 3.592964e+000 -2.400301e+000 -6.426229e+000 4.940307e-001 1.269165e+000 1.545496e+000 1.148191e+000 -1.507888e+000 -2.576748e-001 1.682301e+000 -2.568647e+000 -1.046951e+000 8.745703e-001 -1.225527e+000 1.739365e+000 -1.424477e+000
<VARIANCE> 25
 9.101594e+000 3.252530e+001 3.317520e+001 3.654226e+001 5.136531e+001 5.051154e+001 5.196572e+001 6.134064e+001 4.835818e+001 4.738444e+001 4.444114e+001 4.955201e+001 5.842885e-001 1.687039e+000 2.662342e+000 2.669012e+000 3.431776e+000 3.168375e+000 4.588408e+000 4.373381e+000 5.755530e+000 3.330245e+000 4.700057e+000 4.327487e+000 7.286688e-001
<GCONST> 1.030811e+002
<STATE> 3
<MEAN> 25
 8.279004e+000 1.843865e-001 5.780642e+000 -1.406240e+000 -7.065765e+000 3.349174e+000 1.631737e+000 -6.840931e+000 -5.979777e+000 4.105495e+000 -4.962752e+000 -3.895416e-001 1.148600e-001 5.627444e-001 7.266854e-001 5.263524e-001 -3.841206e-001 -1.016901e-001 3.096097e-001 -8.663334e-001 -1.327368e-001 6.910606e-002 -2.688959e-001 7.205129e-001 -6.868596e-001
<VARIANCE> 25
 7.644945e+000 2.044040e+001 2.559180e+001 3.925815e+001 3.397986e+001 4.263412e+001 5.088287e+001 4.334398e+001 4.311888e+001 3.656154e+001 3.979741e+001 3.720172e+001 3.696884e-001 1.089496e+000 1.617924e+000 1.733390e+000 2.048047e+000 1.908447e+000 2.326537e+000 2.393936e+000 2.387733e+000 2.132591e+000 2.183559e+000 2.016679e+000 6.383095e-001
<GCONST> 9.341467e+001
<STATE> 4
<MEAN> 25
 6.543822e+000 2.344101e+000 4.754060e+000 1.053985e+000 -4.132848e+000 2.910078e+000 2.389357e+000 -6.049725e+000 -5.600480e+000 2.657716e+000 -4.144167e+000 -5.087045e-001 -4.466670e-001 2.906345e-001 -4.821998e-001 3.223765e-001 7.857853e-001 -3.030096e-001 8.624309e-002 4.441142e-001 1.505163e-001 -2.748140e-001 2.008301e-001 -2.913354e-001 -6.405290e-001
<VARIANCE> 25
 2.130299e+001 2.316735e+001 3.232904e+001 4.740200e+001 6.178849e+001 3.818229e+001 5.579688e+001 5.355724e+001 4.635886e+001 4.129940e+001 4.362383e+001 3.569118e+001 8.331722e-001 1.528478e+000 1.751299e+000 2.128618e+000 2.763390e+000 2.320627e+000 2.467604e+000 3.108982e+000 2.618157e+000 2.272624e+000 2.176068e+000 2.255275e+000 2.214508e+000
<GCONST> 9.978212e+001
<TRANSP> 5
 0.000000e+000 1.000000e+000 0.000000e+000 0.000000e+000 0.000000e+000
 0.000000e+000 5.675595e-001 4.324405e-001 0.000000e+000 0.000000e+000
 0.000000e+000 0.000000e+000 6.449675e-001 3.550325e-001 0.000000e+000
 0.000000e+000 0.000000e+000 0.000000e+000 7.723624e-001 2.276376e-001
 0.000000e+000 0.000000e+000 0.000000e+000 0.000000e+000 0.000000e+000
<ENDHMM>
~h "ny"
<BEGINHMM>
<NUMSTATES> 5
<STATE> 2
<MEAN> 25
 5.445916e+000 3.576341e+000 8.283973e+000 9.441935e-001 -6.072190e+000 -3.302183e+000 -2.066464e+000 -1.647320e+000 -7.207791e+000 -2.422377e+000 2.278014e+000 1.312513e+000 -2.552712e-001 -2.013153e-001 5.447643e-001 -6.415755e-001 -5.570511e-001 1.946375e-001 7.534022e-002 5.530385e-001 -2.097733e-001 -2.799731e-001 3.570364e-001 5.871444e-002 5.160339e-001
<VARIANCE> 25
 1.673531e+001 3.040424e+001 3.358082e+001 5.975526e+001 3.765451e+001 3.692088e+001 4.221982e+001 7.514953e+001 4.827594e+001 5.017412e+001 4.872163e+001 4.907515e+001 2.148765e+000 5.423352e+000 3.315369e+000 5.875501e+000 3.844119e+000 3.490053e+000 4.235483e+000 1.145112e+001 5.332271e+000 4.514568e+000 4.302664e+000 3.179623e+000 3.742068e+000
<GCONST> 1.096745e+002
<STATE> 3
<MEAN> 25
 3.087252e+000 -7.405971e+000 7.188066e+000 -4.657388e+000 -8.686665e+000 -1.483946e+000 -1.307534e+000 1.156476e+001 -2.551438e+000 -6.328074e+000 -1.373049e+000 -6.276344e-001 2.494189e-001 -1.746150e+000 -1.722721e+000 3.527190e-001 1.107946e+000 3.550662e-001 -9.367020e-002 1.216744e+000 1.379334e+000 -6.285152e-001 -1.505239e+000 -4.844835e-001 5.812963e-001
<VARIANCE> 25
 8.430286e+000 2.314560e+001 3.217771e+001 2.642084e+001 4.121258e+001 2.668219e+001 2.910769e+001 4.038816e+001 5.287582e+001 3.672786e+001 3.735862e+001 2.533254e+001 3.172868e-001 1.531431e+000 1.168115e+000 1.187596e+000 2.211307e+000 1.413326e+000 1.886951e+000 3.321624e+000 1.816020e+000 2.371768e+000 1.761326e+000 1.918817e+000 6.467360e-001
<GCONST> 9.128518e+001
<STATE> 4
<MEAN> 25
 7.560006e-001 -4.533808e+000 -1.679279e+000 1.659678e+000 2.897094e+000 9.684626e-001 9.188065e-001 6.514009e+000 1.249854e-001 -4.331665e+000 -3.608046e+000 2.100834e-001 -6.929444e-002 9.231761e-002 -4.389785e-001 1.705089e-001 5.209527e-001 1.710659e-001 -9.689325e-003 -3.705418e-001 1.875967e-001 1.941501e-001 -7.704695e-002 -8.364518e-002 -6.816084e-001
<VARIANCE> 25
 1.950969e+001 4.664038e+001 2.416635e+001 3.334243e+001 4.838911e+001 2.462275e+001 3.529221e+001 5.972407e+001 4.075551e+001 4.201370e+001 3.242793e+001 3.080618e+001 4.525367e-001 1.028680e+000 1.206048e+000 1.354408e+000 1.784734e+000 1.406104e+000 1.710136e+000 1.738019e+000 1.753599e+000 1.724814e+000 1.577314e+000 1.549847e+000 1.124367e+000
<GCONST> 9.239418e+001
<TRANSP> 5
 0.000000e+000 1.000000e+000 0.000000e+000 0.000000e+000 0.000000e+000
 0.000000e+000 8.752941e-001 1.247059e-001 0.000000e+000 0.000000e+000
 0.000000e+000 0.000000e+000 7.594517e-001 2.405483e-001 0.000000e+000
 0.000000e+000 0.000000e+000 0.000000e+000 8.464931e-001 1.535069e-001
 0.000000e+000 0.000000e+000 0.000000e+000 0.000000e+000 0.000000e+000
<ENDHMM>
~h "oi"
<BEGINHMM>
<NUMSTATES> 5
<STATE> 2
<MEAN> 25
 8.980638e+000 -2.510053e+000 -7.974890e+000 -1.473658e+001 -7.107245e+000 1.319388e+001 -3.367245e+000 -4.390686e+000 3.515059e+000 -5.332799e-001 4.553195e+000 9.346366e-001 -4.710165e-002 -4.979869e-001 7.957660e-002 -8.448795e-001 -1.882811e-001 2.738792e-001 -6.256682e-001 1.980050e-002 1.437460e-001 8.355716e-001 1.459907e-001 -8.452418e-001 9.204526e-001
<VARIANCE> 25
 1.366455e+001 3.585170e+001 3.199197e+001 6.526072e+001 4.354348e+001 5.096797e+001 6.210872e+001 3.760371e+001 4.266679e+001 4.157853e+001 4.126521e+001 5.408032e+001 1.359653e+000 1.349991e+000 1.327572e+000 6.586196e+000 4.239670e+000 5.107162e+000 3.391290e+000 2.395348e+000 3.165880e+000 3.938775e+000 3.210457e+000 3.089014e+000 1.269965e+000
<GCONST> 1.034395e+002
<STATE> 3
<MEAN> 25
 4.027842e+000 -6.196421e+000 3.932804e+000 -5.482106e+000 -9.071884e+000 -6.305247e+000 -8.800207e+000 4.758780e+000 -9.785744e-001 5.138419e+000 2.505143e+000 -3.745124e+000 -6.527280e-001 3.214965e-001 2.251208e+000 1.465127e+000 -1.165561e+000 -2.273322e+000 2.839389e-001 5.457585e-001 -1.461586e+000 -5.328163e-001 1.529681e-001 7.017106e-001 -4.318853e-001
<VARIANCE> 25
 8.603712e+000 2.594888e+001 9.808364e+001 3.912433e+001 5.154312e+001 9.489722e+001 2.866425e+001 7.410777e+001 7.056037e+001 4.273504e+001 5.003400e+001 4.037937e+001 4.120898e-001 1.097097e+000 2.495003e+000 2.394108e+000 3.370270e+000 5.860899e+000 2.665440e+000 5.762170e+000 4.929436e+000 3.307887e+000 4.006700e+000 3.885203e+000 5.263850e-001
<GCONST> 1.029901e+002
<STATE> 4
<MEAN> 25
 -1.237855e+000 1.080399e+000 8.288918e+000 2.095510e+000 -7.252780e+000 -5.417669e+000 -1.010782e+000 -1.387903e+000 -5.855700e+000 -3.735142e-001 1.403188e+000 1.526732e+000 -4.907609e-002 2.612379e-001 -5.064883e-001 1.996587e-001 6.560596e-001 2.686391e-001 1.449169e-001 -2.216073e-001 2.868178e-001 -1.987872e-001 -4.447827e-001 1.253929e-002 -9.585658e-001
<VARIANCE> 25
 1.885177e+001 2.907038e+001 8.498183e+001 2.900859e+001 7.581359e+001 7.208798e+001 5.404034e+001 6.405309e+001 6.458426e+001 3.872647e+001 3.858980e+001 3.589502e+001 8.973016e-001 1.573015e+000 3.069318e+000 1.818197e+000 2.411012e+000 2.315394e+000 2.336637e+000 3.190629e+000 3.023263e+000 2.319696e+000 2.055871e+000 2.043030e+000 1.139501e+000
<GCONST> 1.011829e+002
<TRANSP> 5
 0.000000e+000 1.000000e+000 0.000000e+000 0.000000e+000 0.000000e+000
 0.000000e+000 8.970920e-001 1.029080e-001 0.000000e+000 0.000000e+000
 0.000000e+000 0.000000e+000 8.855335e-001 1.144666e-001 0.000000e+000
 0.000000e+000 0.000000e+000 0.000000e+000 8.972052e-001 1.027948e-001
 0.000000e+000 0.000000e+000 0.000000e+000 0.000000e+000 0.000000e+000
<ENDHMM>
~h "sy"
<BEGINHMM>
<NUMSTATES> 5
<STATE> 2
<MEAN> 25
 -6.871967e+000 4.301970e+000 3.806117e+000 1.968597e+000 2.935782e+000 -2.973777e+000 2.726601e+000 1.098772e+000 4.063550e-001 -2.287648e+000 -1.548373e+000 2.892653e+000 -3.894576e+000 7.660689e-001 -1.132297e-001 1.637076e-001 8.979374e-001 4.291667e-001 1.161992e+000 3.472910e-001 6.892744e-001 -3.273323e-001 9.325264e-001 4.838345e-001 -6.983641e-002
<VARIANCE> 25
 7.722151e+001 4.073641e+001 5.411398e+001 3.340849e+001 4.451622e+001 5.193893e+001 4.847955e+001 4.695112e+001 4.033181e+001 3.557479e+001 3.425440e+001 2.860831e+001 5.720881e+000 5.710683e+000 4.388403e+000 4.033226e+000 5.230912e+000 4.891754e+000 6.054210e+000 5.038505e+000 4.285319e+000 4.122951e+000 4.495993e+000 3.093122e+000 3.141052e+000
<GCONST> 1.108018e+002
<STATE> 3
<MEAN> 25
 -2.209163e+001 1.770364e+000 1.349115e+000 -1.733256e+000 3.272886e+000 -9.984262e-001 5.317227e+000 2.618983e+000 3.085043e+000 3.494585e-002 4.112267e+000 4.981165e+000 -5.556743e-001 -6.249279e-001 -1.367386e-001 -3.910637e-001 -4.211155e-001 4.202192e-002 7.635854e-002 -7.891332e-003 2.607935e-001 3.137691e-001 2.870440e-001 1.819379e-001 2.200007e-001
<VARIANCE> 25
 2.804180e+001 2.564008e+001 3.369125e+001 2.306267e+001 4.146589e+001 3.663950e+001 4.015733e+001 3.206621e+001 3.472299e+001 2.282716e+001 1.856788e+001 1.862024e+001 2.220312e+000 9.734030e-001 1.292672e+000 1.313270e+000 1.543693e+000 1.675302e+000 1.675397e+000 1.633565e+000 1.526917e+000 1.604832e+000 1.535233e+000 1.362250e+000 7.160646e-001
<GCONST> 9.074490e+001
<STATE> 4
<MEAN> 25
 -1.246759e+001 -9.024867e-001 4.517069e+000 -1.032903e+000 -3.706721e+000 -2.984011e+000 2.043003e+000 1.085888e+000 2.719245e+000 -2.000253e+000 2.559887e+000 4.198211e+000 3.710612e+000 -2.771403e-001 7.673758e-001 8.215436e-002 -1.068675e+000 -1.034869e+000 -1.329083e+000 2.887380e-001 -3.710579e-001 -4.756239e-001 -7.153635e-001 -5.315110e-001 9.242198e-001
<VARIANCE> 25
 1.017877e+002 2.734253e+001 4.837442e+001 2.686265e+001 5.815388e+001 4.377322e+001 4.470196e+001 3.789925e+001 3.385807e+001 2.889598e+001 2.637280e+001 1.661774e+001 9.702617e+000 3.368930e+000 3.936545e+000 2.651413e+000 4.906895e+000 3.229584e+000 4.437197e+000 4.487253e+000 3.906808e+000 2.933750e+000 3.389680e+000 2.265638e+000 2.289296e+000
<GCONST> 1.061862e+002
<TRANSP> 5
 0.000000e+000 1.000000e+000 0.000000e+000 0.000000e+000 0.000000e+000
 0.000000e+000 7.687987e-001 2.312013e-001 0.000000e+000 0.000000e+000
 0.000000e+000 0.000000e+000 8.773305e-001 1.226694e-001 0.000000e+000
 0.000000e+000 0.000000e+000 0.000000e+000 8.101380e-001 1.898620e-001
 0.000000e+000 0.000000e+000 0.000000e+000 0.000000e+000 0.000000e+000
<ENDHMM>
~h "sil"
<BEGINHMM>
<NUMSTATES> 5
<STATE> 2
<MEAN> 25
 -3.900428e+000 3.311344e+000 -1.765133e+000 4.277786e+000 4.352966e+000 -7.042936e-002 4.044073e+000 2.952149e+000 -8.540881e-001 6.270731e-002 1.045091e+000 1.970536e+000 -2.626435e-002 1.902695e-002 -9.047561e-003 -5.619725e-004 -1.166404e-002 -1.635736e-002 -5.589803e-003 -1.120052e-002 8.546016e-003 1.299408e-002 1.454033e-002 -3.410447e-003 -4.645044e-002
<VARIANCE> 25
 5.832666e+000 1.697286e+001 1.429659e+001 1.893413e+001 1.945877e+001 1.925926e+001 2.624075e+001 3.182707e+001 2.122877e+001 2.153730e+001 1.853210e+001 1.869187e+001 2.313552e-001 6.053635e-001 6.695381e-001 1.094385e+000 1.160553e+000 1.437720e+000 1.441305e+000 1.958265e+000 1.621095e+000 1.705204e+000 1.490683e+000 1.486633e+000 2.387519e-001
<GCONST> 8.042273e+001
<STATE> 3
<MEAN> 25
 -6.382837e+000 2.802292e+000 -3.601068e+000 3.156459e+000 3.686671e+000 -1.527952e+000 5.853882e+000 -1.168166e+000 2.063807e+000 -7.606348e-001 2.832391e-001 3.191312e+000 -1.454240e-002 1.451813e-002 6.613819e-003 2.500345e-003 -2.163711e-003 -9.947699e-004 3.266437e-003 2.461991e-003 6.431788e-003 2.114219e-002 9.330368e-003 -2.293788e-003 -2.050821e-002
<VARIANCE> 25
 9.166181e+000 9.555030e+000 9.245648e+000 1.628351e+001 1.570450e+001 1.963779e+001 1.959262e+001 1.840981e+001 2.139765e+001 2.127405e+001 1.814314e+001 1.505600e+001 1.798490e-001 3.490542e-001 5.061718e-001 7.001410e-001 9.146385e-001 1.123560e+000 1.279544e+000 1.362390e+000 1.435196e+000 1.417829e+000 1.352201e+000 1.219816e+000 1.099061e-001
<GCONST> 7.456434e+001
<STATE> 4
<MEAN> 25
 -6.907838e+000 1.229932e+000 -2.691030e+000 4.152975e+000 4.354769e+000 -1.217004e+000 5.017039e+000 5.822096e-001 1.542977e+000 -1.766822e-001 8.393126e-001 3.416333e+000 1.099717e-002 -1.761011e-003 2.136969e-002 -7.829277e-003 9.359901e-003 -7.451924e-003 -1.793310e-002 -1.461311e-002 -1.396365e-002 2.686304e-003 -2.489509e-002 -2.026666e-002 1.322966e-001
<VARIANCE> 25
 1.904751e+001 2.647852e+001 2.116943e+001 3.107344e+001 2.928338e+001 3.218605e+001 3.504937e+001 3.841703e+001 2.750530e+001 2.802761e+001 2.245270e+001 2.241398e+001 1.136739e+000 1.632032e+000 1.469659e+000 1.841532e+000 1.812882e+000 2.219757e+000 2.111272e+000 2.546690e+000 2.096672e+000 2.196083e+000 1.892588e+000 1.712226e+000 2.651613e+000
<GCONST> 9.394753e+001
<TRANSP> 5
 0.000000e+000 1.000000e+000 0.000000e+000 0.000000e+000 0.000000e+000
 0.000000e+000 9.697245e-001 3.027549e-002 0.000000e+000 0.000000e+000
 0.000000e+000 0.000000e+000 9.643289e-001 3.567101e-002 0.000000e+000
 0.000000e+000 0.000000e+000 0.000000e+000 9.493097e-001 5.069029e-002
 0.000000e+000 0.000000e+000 0.000000e+000 0.000000e+000 0.000000e+000
<ENDHMM>
