~o
<STREAMINFO> 1 25
<VECSIZE> 25<NULLD><MFCC_D_N_Z_0><DIAGC>
~h "@"
<BEGINHMM>
<NUMSTATES> 5
<STATE> 2
<MEAN> 25
 2.980384e+000 -2.960431e-001 -1.897209e-001 -1.301901e+000 -1.603086e+000 -2.472579e+000 -3.809163e+000 -1.713758e+000 2.686053e-001 1.507567e+000 4.998451e-001 -8.651937e-001 2.282179e+000 -1.247591e+000 2.473278e-001 -1.838763e+000 -1.565606e+000 6.012776e-001 -2.333284e+000 1.077923e+000 5.774804e-001 8.452412e-001 6.048295e-001 -1.318056e+000 2.987340e+000
<VARIANCE> 25
 3.907042e+001 3.300351e+001 4.451014e+001 5.067207e+001 4.593230e+001 6.575728e+001 6.450317e+001 5.232969e+001 5.588482e+001 3.433858e+001 3.839374e+001 2.973090e+001 7.457701e+000 4.029083e+000 6.879197e+000 6.175068e+000 6.473792e+000 6.658906e+000 8.159575e+000 9.983617e+000 8.715862e+000 5.356697e+000 5.798122e+000 4.466289e+000 7.475616e+000
<GCONST> 1.159920e+002
<STATE> 3
<MEAN> 25
 6.110184e+000 -4.336535e+000 -2.134353e-001 -5.181720e+000 -4.386281e+000 -7.626191e-003 -8.730604e+000 1.677573e+000 1.634458e+000 3.726268e+000 2.124291e+000 -3.537171e+000 1.143463e+000 -1.116712e+000 2.511459e-001 -9.723637e-001 -9.750278e-001 7.160465e-001 -1.365228e+000 1.240384e+000 4.451812e-001 7.802913e-001 3.558547e-001 -9.989361e-001 1.172667e+000
<VARIANCE> 25
 1.595115e+001 2.973430e+001 4.466451e+001 5.182338e+001 4.776057e+001 8.212281e+001 6.092710e+001 6.739494e+001 6.624716e+001 4.445762e+001 5.112336e+001 3.614787e+001 3.190228e+000 2.274532e+000 3.606828e+000 4.109882e+000 4.240615e+000 5.135639e+000 5.498652e+000 7.917046e+000 6.202593e+000 4.626187e+000 4.667296e+000 3.448541e+000 2.549937e+000
<GCONST> 1.105641e+002
<STATE> 4
<MEAN> 25
 5.390634e+000 -4.139916e+000 2.033412e+000 -3.634960e+000 -6.485582e+000 -1.459063e+000 -8.269762e+000 3.438435e+000 9.857062e-001 3.464779e+000 2.424374e+000 -3.846808e+000 9.026417e-002 2.797382e-001 1.631603e-001 3.547309e-001 1.523792e-001 3.311790e-002 3.448131e-001 -2.534153e-001 -1.722581e-001 -4.773924e-002 -1.512357e-001 6.924438e-002 -6.161846e-001
<VARIANCE> 25
 1.715524e+001 3.376546e+001 4.843691e+001 4.369686e+001 5.721455e+001 7.092415e+001 8.594297e+001 7.257144e+001 6.195699e+001 4.885903e+001 4.960955e+001 3.932916e+001 7.170813e-001 1.529026e+000 1.567410e+000 2.081428e+000 2.397717e+000 2.562317e+000 2.796920e+000 3.202579e+000 3.139751e+000 2.471451e+000 2.514185e+000 1.925409e+000 2.226371e+000
<GCONST> 1.023133e+002
<TRANSP> 5
 0.000000e+000 1.000000e+000 0.000000e+000 0.000000e+000 0.000000e+000
 0.000000e+000 3.162372e-001 6.837627e-001 0.000000e+000 0.000000e+000
 0.000000e+000 0.000000e+000 1.602580e-001 8.397420e-001 0.000000e+000
 0.000000e+000 0.000000e+000 0.000000e+000 7.242455e-001 2.757545e-001
 0.000000e+000 0.000000e+000 0.000000e+000 0.000000e+000 0.000000e+000
<ENDHMM>
~h "a"
<BEGINHMM>
<NUMSTATES> 5
<STATE> 2
<MEAN> 25
 4.940506e+000 -8.320302e+000 -3.627174e+000 -6.655681e+000 -1.737105e+000 2.273095e+000 -4.207538e+000 4.907271e+000 4.394436e+000 1.037233e+000 -2.017974e+000 -5.278638e+000 6.533678e-001 -2.122694e+000 -1.191038e+000 -1.207684e+000 5.959616e-001 1.597263e+000 -2.020439e-001 1.500283e+000 9.367225e-001 -5.347832e-001 -1.223251e+000 -1.616295e+000 1.969605e+000
<VARIANCE> 25
 1.714692e+001 2.869615e+001 3.764795e+001 4.171591e+001 5.427668e+001 7.355957e+001 5.226994e+001 7.957061e+001 4.943749e+001 4.597704e+001 4.873785e+001 3.546973e+001 2.738331e+000 2.605196e+000 2.972406e+000 3.647653e+000 4.535262e+000 4.204314e+000 5.026923e+000 6.942541e+000 4.649388e+000 4.292655e+000 4.558267e+000 3.333971e+000 4.422782e+000
<GCONST> 1.093642e+002
<STATE> 3
<MEAN> 25
 4.898733e+000 -1.204816e+001 -5.731704e+000 -7.477710e+000 1.286707e+000 6.147461e+000 -3.609207e+000 5.561100e+000 5.266832e+000 -1.498736e+000 -5.162848e+000 -7.334850e+000 -1.102583e-002 -1.909976e-001 -6.583938e-002 8.887181e-002 3.953725e-001 7.625334e-002 2.117536e-001 3.820873e-002 -7.532798e-002 -1.753506e-001 -3.528247e-001 -3.687500e-002 -1.173863e-002
<VARIANCE> 25
 8.494768e+000 1.909818e+001 2.321131e+001 2.339978e+001 3.376489e+001 4.752169e+001 3.258137e+001 5.648825e+001 3.570226e+001 3.684528e+001 3.766336e+001 2.855877e+001 3.460246e-001 8.216281e-001 8.635334e-001 1.084163e+000 1.503553e+000 2.197482e+000 1.645129e+000 2.271145e+000 1.500830e+000 1.695246e+000 1.847326e+000 1.371996e+000 5.777617e-001
<GCONST> 8.889919e+001
<STATE> 4
<MEAN> 25
 3.804525e+000 -7.772203e+000 -5.092957e+000 -4.736183e+000 2.529738e+000 2.450011e+000 -1.071773e+000 4.690950e+000 4.342947e+000 -3.898202e-001 -4.831543e+000 -4.782319e+000 -3.236216e-002 1.235402e+000 5.551611e-001 7.174984e-001 -1.578714e-001 -7.045584e-001 1.101892e-001 -3.483497e-001 -4.031280e-001 3.484592e-001 3.985903e-001 4.915319e-001 -1.844520e+000
<VARIANCE> 25
 1.862733e+001 3.272078e+001 2.677164e+001 4.140092e+001 5.154932e+001 5.176617e+001 4.648339e+001 5.876212e+001 4.110966e+001 4.396530e+001 4.283730e+001 3.934491e+001 1.075966e+000 2.023531e+000 1.821319e+000 2.236353e+000 2.648847e+000 3.057312e+000 3.112128e+000 3.698978e+000 2.851166e+000 2.882399e+000 2.728178e+000 2.430648e+000 3.138190e+000
<GCONST> 1.019608e+002
<TRANSP> 5
 0.000000e+000 1.000000e+000 0.000000e+000 0.000000e+000 0.000000e+000
 0.000000e+000 5.381102e-001 4.618898e-001 0.000000e+000 0.000000e+000
 0.000000e+000 0.000000e+000 7.560143e-001 2.439857e-001 0.000000e+000
 0.000000e+000 0.000000e+000 0.000000e+000 7.250960e-001 2.749040e-001
 0.000000e+000 0.000000e+000 0.000000e+000 0.000000e+000 0.000000e+000
<ENDHMM>
~h "b"
<BEGINHMM>
<NUMSTATES> 5
<STATE> 2
<MEAN> 25
 9.407132e+000 7.950714e+000 4.005059e+000 2.720871e+000 1.659321e+000 4.592556e+000 1.169839e+000 -6.370948e+000 -3.808738e+000 -6.069353e-001 3.524483e-001 -1.428946e+000 4.402723e-001 1.442882e+000 3.960307e-001 6.989949e-001 6.843621e-001 2.515499e-001 1.016593e+000 -3.692005e-001 -2.065837e-001 -2.794316e-001 -2.153388e-001 5.109655e-002 -1.463882e+000
<VARIANCE> 25
 3.056171e+001 3.945840e+001 2.656649e+001 3.722954e+001 3.409091e+001 3.416735e+001 4.437757e+001 3.943950e+001 4.457675e+001 2.941280e+001 3.670549e+001 2.788151e+001 2.156220e+000 2.703997e+000 2.282919e+000 3.043596e+000 2.831541e+000 3.002865e+000 3.564511e+000 3.537606e+000 3.609891e+000 2.746363e+000 2.922105e+000 2.239015e+000 5.456285e+000
<GCONST> 1.028215e+002
<STATE> 3
<MEAN> 25
 9.052575e+000 9.644820e+000 4.453604e+000 4.026049e+000 2.829294e+000 4.413337e+000 2.971121e+000 -6.657341e+000 -4.535671e+000 -1.419066e+000 8.749125e-001 -2.398374e-001 -1.211300e+000 -2.388337e+000 -1.653634e+000 -1.484149e+000 -4.739780e-001 -9.433387e-001 -1.849261e+000 7.543480e-001 1.194613e+000 5.338229e-001 1.391459e+000 6.048771e-001 3.740354e+000
<VARIANCE> 25
 2.646844e+001 2.797246e+001 2.001717e+001 2.737160e+001 3.027258e+001 3.311564e+001 3.032935e+001 3.504704e+001 3.680918e+001 2.349804e+001 3.279464e+001 2.462191e+001 1.941204e+000 3.187194e+000 3.359006e+000 6.018498e+000 4.212180e+000 3.903470e+000 4.412748e+000 3.891498e+000 5.480289e+000 4.262972e+000 4.214689e+000 3.136936e+000 5.339324e+000
<GCONST> 1.040759e+002
<STATE> 4
<MEAN> 25
 6.023770e+000 7.812805e-001 -1.782142e+000 -2.718659e+000 -6.304165e-001 2.640965e+000 -3.943924e+000 -5.229286e+000 4.000482e-001 2.728268e+000 5.538007e+000 -1.542039e-001 -6.251966e-001 -3.140659e+000 -1.451634e+000 -2.468681e+000 -1.846401e+000 9.976298e-003 -2.553996e+000 1.352083e+000 2.068916e+000 1.194834e+000 4.642056e-001 -1.035369e+000 4.778466e+000
<VARIANCE> 25
 2.417051e+001 3.133755e+001 2.761146e+001 8.223163e+001 3.736820e+001 5.296640e+001 4.832517e+001 3.322001e+001 3.809990e+001 4.185604e+001 3.990191e+001 2.845672e+001 2.518583e+000 4.539971e+000 5.428607e+000 8.864821e+000 4.712469e+000 6.916608e+000 6.093081e+000 8.003542e+000 1.028620e+001 6.686311e+000 5.762511e+000 6.390541e+000 6.299157e+000
<GCONST> 1.130445e+002
<TRANSP> 5
 0.000000e+000 1.000000e+000 0.000000e+000 0.000000e+000 0.000000e+000
 0.000000e+000 7.792041e-001 2.207959e-001 0.000000e+000 0.000000e+000
 0.000000e+000 0.000000e+000 4.634808e-001 5.365192e-001 0.000000e+000
 0.000000e+000 0.000000e+000 0.000000e+000 3.343839e-001 6.656162e-001
 0.000000e+000 0.000000e+000 0.000000e+000 0.000000e+000 0.000000e+000
<ENDHMM>
~h "c"
<BEGINHMM>
<NUMSTATES> 5
<STATE> 2
<MEAN> 25
 -1.380060e+000 5.658392e+000 2.179926e+000 4.272254e+000 8.219352e-001 -4.927788e+000 1.774622e+000 -3.117981e-001 2.824774e-001 -2.033302e+000 -4.576557e-001 2.694135e+000 -1.600552e+000 1.148348e-001 -7.780345e-001 -2.389003e-001 6.849825e-001 1.517210e-001 6.108531e-001 -2.239701e-001 3.498132e-001 8.420101e-002 1.854461e-001 1.121673e-001 -1.425243e+000
<VARIANCE> 25
 2.748248e+001 3.553833e+001 3.815562e+001 2.411130e+001 4.321588e+001 4.548440e+001 4.939959e+001 4.574100e+001 4.080118e+001 3.104535e+001 2.733090e+001 2.499031e+001 4.287411e+000 5.145651e+000 2.947544e+000 3.164249e+000 4.231960e+000 3.303886e+000 3.785395e+000 3.716030e+000 3.449521e+000 3.088250e+000 2.681874e+000 2.627175e+000 1.023603e+001
<GCONST> 1.058851e+002
<STATE> 3
<MEAN> 25
 -1.667459e+001 1.941365e+000 -3.705100e+000 -1.950998e+000 3.836970e+000 -3.472730e+000 3.982964e+000 -8.522790e-001 1.610944e+000 3.767552e-001 2.537895e+000 4.339618e+000 -2.194886e+000 -5.552759e-001 -1.966183e-001 -1.082904e+000 -4.266120e-001 -3.656364e-001 1.386349e-001 4.561489e-001 2.864901e-001 4.947260e-003 4.390190e-001 5.237950e-001 4.081738e+000
<VARIANCE> 25
 3.656862e+001 2.542730e+001 2.994806e+001 3.303833e+001 2.935399e+001 3.913594e+001 4.526897e+001 3.268419e+001 2.687552e+001 2.674433e+001 1.884176e+001 1.688535e+001 8.020519e+000 2.581711e+000 4.415806e+000 3.581750e+000 3.511704e+000 3.615547e+000 3.603915e+000 3.669430e+000 3.057016e+000 2.768791e+000 2.552911e+000 1.840734e+000 6.178721e+000
<GCONST> 1.027844e+002
<STATE> 4
<MEAN> 25
 -1.015781e+001 8.993709e-001 1.269534e+000 -1.212097e+000 -9.792970e-001 -6.199284e+000 1.327465e+000 2.493259e+000 2.728484e+000 -2.295592e+000 7.773505e-002 3.879464e+000 5.635325e+000 -1.432864e+000 1.773229e+000 8.719715e-002 -1.835150e+000 -2.625751e-001 -2.611808e+000 1.101030e+000 2.702704e-001 -5.181294e-001 -1.271442e+000 -1.316096e+000 2.276400e+000
<VARIANCE> 25
 9.247073e+001 2.817101e+001 3.681491e+001 3.122651e+001 3.115613e+001 3.823534e+001 7.109656e+001 3.768252e+001 3.107588e+001 2.730607e+001 2.721535e+001 2.005919e+001 3.481868e+000 5.815525e+000 4.926133e+000 5.767039e+000 4.019893e+000 5.259487e+000 5.782902e+000 8.707303e+000 6.477838e+000 4.374153e+000 3.785837e+000 3.005655e+000 2.569608e+000
<GCONST> 1.089261e+002
<TRANSP> 5
 0.000000e+000 1.000000e+000 0.000000e+000 0.000000e+000 0.000000e+000
 0.000000e+000 8.373176e-001 1.626824e-001 0.000000e+000 0.000000e+000
 0.000000e+000 0.000000e+000 7.366930e-001 2.633070e-001 0.000000e+000
 0.000000e+000 0.000000e+000 0.000000e+000 5.942234e-001 4.057766e-001
 0.000000e+000 0.000000e+000 0.000000e+000 0.000000e+000 0.000000e+000
<ENDHMM>
~h "d"
<BEGINHMM>
<NUMSTATES> 5
<STATE> 2
<MEAN> 25
 5.364491e+000 4.247294e+000 5.544609e+000 6.421733e+000 1.674745e-002 -2.413957e+000 -1.854468e+000 -8.899429e-001 1.880813e+000 -1.694875e+000 -3.544753e+000 -8.130182e-001 5.513651e-001 1.205081e+000 7.407223e-001 9.952435e-001 7.306365e-001 -3.016486e-001 3.699185e-001 -1.991345e-001 3.354886e-001 -2.560814e-001 -5.013881e-001 -8.971391e-002 -1.358925e+000
<VARIANCE> 25
 5.300235e+001 5.083985e+001 4.608199e+001 3.846658e+001 4.556853e+001 4.051860e+001 5.905511e+001 7.109025e+001 4.399485e+001 4.079993e+001 3.879148e+001 3.193679e+001 2.780515e+000 3.570283e+000 2.952801e+000 3.157429e+000 3.878946e+000 3.088408e+000 4.236029e+000 5.410501e+000 3.781886e+000 3.336366e+000 3.507315e+000 2.559298e+000 6.405929e+000
<GCONST> 1.085341e+002
<STATE> 3
<MEAN> 25
 6.824618e+000 5.880076e+000 8.781896e+000 8.208227e+000 1.467461e+000 -3.361694e+000 -1.548082e+000 -1.023333e+000 1.815599e+000 -2.327946e+000 -3.818144e+000 -4.710116e-001 -1.949004e+000 -2.718820e+000 -1.996086e-001 -2.109546e+000 -7.608839e-001 -4.250320e-001 -9.020044e-001 1.247395e+000 -6.653416e-001 2.510324e-002 1.788886e+000 1.326280e+000 4.046557e+000
<VARIANCE> 25
 3.104150e+001 4.120220e+001 3.172420e+001 3.348655e+001 3.473645e+001 4.095268e+001 5.080865e+001 4.868109e+001 3.781067e+001 3.776014e+001 3.414022e+001 3.153121e+001 2.124586e+000 3.304733e+000 3.988216e+000 3.584038e+000 5.862631e+000 4.317699e+000 5.964122e+000 8.214064e+000 6.090882e+000 4.469727e+000 3.712892e+000 3.179819e+000 5.006951e+000
<GCONST> 1.085031e+002
<STATE> 4
<MEAN> 25
 1.920145e+000 -3.229920e+000 6.413109e+000 7.669823e-001 -4.312713e+000 -5.018452e+000 -5.722239e+000 3.292031e+000 1.055407e+000 -1.114142e+000 1.716777e+000 2.888356e+000 -7.344800e-001 -2.181278e+000 -7.599987e-001 -2.112318e+000 -2.503263e+000 -8.117381e-002 -1.462310e+000 1.708902e+000 2.382181e-001 2.960178e-001 1.222151e+000 -7.778679e-002 4.271676e+000
<VARIANCE> 25
 2.297227e+001 3.214166e+001 4.564937e+001 3.394396e+001 6.051553e+001 4.775848e+001 8.973952e+001 6.791074e+001 5.922425e+001 3.002999e+001 3.087183e+001 2.805628e+001 3.144490e+000 3.922616e+000 6.457600e+000 4.835867e+000 6.305500e+000 4.512862e+000 6.831570e+000 1.195582e+001 9.286707e+000 5.034864e+000 6.354898e+000 4.194469e+000 6.348536e+000
<GCONST> 1.135099e+002
<TRANSP> 5
 0.000000e+000 1.000000e+000 0.000000e+000 0.000000e+000 0.000000e+000
 0.000000e+000 7.839716e-001 2.160284e-001 0.000000e+000 0.000000e+000
 0.000000e+000 0.000000e+000 4.769925e-001 5.230075e-001 0.000000e+000
 0.000000e+000 0.000000e+000 0.000000e+000 3.577533e-001 6.422467e-001
 0.000000e+000 0.000000e+000 0.000000e+000 0.000000e+000 0.000000e+000
<ENDHMM>
~h "e"
<BEGINHMM>
<NUMSTATES> 5
<STATE> 2
<MEAN> 25
 2.498476e+000 -4.344492e+000 3.105284e+000 -3.622575e-001 -5.648955e+000 -5.078432e+000 -2.715246e+000 3.269033e+000 3.994805e-001 6.761250e-001 1.468736e+000 -8.895640e-001 7.110130e-001 -1.768220e+000 1.063931e+000 -9.086670e-001 -2.011864e+000 -4.610984e-001 -6.475586e-001 2.158077e+000 -2.233712e-001 -2.192240e-001 2.888191e-001 -3.432481e-001 2.631317e+000
<VARIANCE> 25
 4.120518e+001 5.405037e+001 5.656804e+001 4.665167e+001 5.828663e+001 5.188429e+001 6.806468e+001 7.708043e+001 6.109760e+001 4.272963e+001 4.609862e+001 3.584909e+001 4.985323e+000 4.601304e+000 4.444452e+000 5.279584e+000 6.490167e+000 5.427016e+000 6.749536e+000 8.998359e+000 7.437675e+000 5.293686e+000 5.420609e+000 3.728692e+000 9.345401e+000
<GCONST> 1.162615e+002
<STATE> 3
<MEAN> 25
 4.083746e+000 -7.575500e+000 6.197229e+000 -2.042075e+000 -1.056758e+001 -5.678235e+000 -3.246589e+000 7.861883e+000 -4.960472e-001 -1.212316e-001 3.393452e+000 -1.387783e+000 -1.418928e-001 -7.487612e-002 4.835550e-001 -1.919237e-001 -7.017812e-001 -6.242351e-002 4.069548e-001 4.069613e-001 -3.392723e-001 5.086298e-002 3.098673e-001 -3.292251e-002 1.981974e-001
<VARIANCE> 25
 1.719264e+001 4.413503e+001 5.103598e+001 4.236023e+001 5.533524e+001 4.772574e+001 6.338424e+001 8.434357e+001 6.885471e+001 4.356804e+001 5.577238e+001 3.605365e+001 1.274893e+000 2.359841e+000 2.236554e+000 2.572189e+000 3.890900e+000 2.992539e+000 3.958887e+000 4.091410e+000 3.840295e+000 2.954030e+000 2.947466e+000 2.333380e+000 5.286180e+000
<GCONST> 1.064459e+002
<STATE> 4
<MEAN> 25
 2.315070e+000 -6.384484e+000 7.194875e+000 -2.588410e+000 -1.122226e+001 -6.353756e+000 3.582351e-001 7.193260e+000 -1.976647e+000 4.915846e-001 3.275039e+000 -7.947848e-001 5.238566e-002 3.382801e-001 -2.747269e-001 2.855680e-001 5.439659e-001 8.706768e-002 4.293825e-002 -3.248349e-001 8.032391e-002 2.896729e-002 -3.269812e-001 -4.624027e-002 -5.500515e-001
<VARIANCE> 25
 1.451385e+001 4.135851e+001 5.290268e+001 3.741008e+001 5.299259e+001 5.134872e+001 6.057250e+001 7.033956e+001 5.778023e+001 4.177153e+001 4.428508e+001 3.068707e+001 5.919476e-001 1.145452e+000 1.306380e+000 1.478206e+000 2.052782e+000 1.688884e+000 2.224845e+000 2.150120e+000 2.022786e+000 1.802119e+000 1.753937e+000 1.400009e+000 1.926988e+000
<GCONST> 9.712980e+001
<TRANSP> 5
 0.000000e+000 1.000000e+000 0.000000e+000 0.000000e+000 0.000000e+000
 0.000000e+000 5.628026e-001 4.371975e-001 0.000000e+000 0.000000e+000
 0.000000e+000 0.000000e+000 5.948709e-001 4.051290e-001 0.000000e+000
 0.000000e+000 0.000000e+000 0.000000e+000 8.211567e-001 1.788433e-001
 0.000000e+000 0.000000e+000 0.000000e+000 0.000000e+000 0.000000e+000
<ENDHMM>
~h "f"
<BEGINHMM>
<NUMSTATES> 5
<STATE> 2
<MEAN> 25
 -7.797440e-001 1.736152e+000 -2.304517e-001 3.155702e+000 1.762202e+000 7.918175e-001 2.214086e+000 -8.834298e-001 5.747957e-001 1.119352e-001 4.652725e-001 6.976926e-001 -3.125997e+000 1.726749e-001 -6.454743e-001 1.520615e+000 9.269259e-001 -6.387039e-001 7.339854e-001 3.359243e-001 9.242550e-001 -1.176763e-001 1.529986e-002 5.069864e-001 -1.393150e+000
<VARIANCE> 25
 5.438318e+001 3.098799e+001 4.456911e+001 5.079308e+001 4.153032e+001 5.742599e+001 4.295133e+001 4.567160e+001 4.279892e+001 3.115644e+001 3.108138e+001 3.139647e+001 4.434053e+000 4.443392e+000 3.899945e+000 5.426521e+000 5.526928e+000 6.211864e+000 5.499678e+000 5.091488e+000 4.564047e+000 3.716086e+000 3.419897e+000 3.009343e+000 3.108585e+000
<GCONST> 1.097364e+002
<STATE> 3
<MEAN> 25
 -1.070952e+001 -1.424678e+000 -3.760759e+000 4.371655e+000 2.471612e+000 -8.306682e-001 2.323314e+000 4.797283e-001 2.544194e+000 8.732942e-002 1.122329e+000 3.241107e+000 -4.175276e-001 -3.248821e-001 -2.304973e-001 -3.554369e-002 2.155893e-002 -6.963775e-003 2.603034e-002 6.531048e-002 4.986648e-002 3.437834e-002 6.852967e-002 7.274953e-002 -2.008253e-001
<VARIANCE> 25
 3.008649e+001 2.286308e+001 1.904626e+001 1.848246e+001 2.341875e+001 2.735609e+001 2.885468e+001 2.512247e+001 2.578251e+001 2.370026e+001 1.880893e+001 1.729587e+001 1.558356e+000 1.141982e+000 1.303258e+000 1.280889e+000 1.408766e+000 1.626063e+000 1.676887e+000 1.718289e+000 1.729675e+000 1.681268e+000 1.519469e+000 1.420680e+000 1.039528e+000
<GCONST> 8.844441e+001
<STATE> 4
<MEAN> 25
 -8.474621e+000 -1.910052e+000 -4.580206e+000 3.088314e+000 3.550498e+000 4.246709e-002 2.793988e+000 8.119209e-001 1.631151e+000 2.639244e-001 1.152400e+000 2.151506e+000 2.343856e+000 4.521312e-001 2.722744e-001 -8.849729e-001 -4.474793e-001 3.888154e-001 -3.237011e-001 -2.800872e-001 -4.494257e-001 -1.973372e-001 -1.044259e-001 -5.974314e-001 7.345732e-001
<VARIANCE> 25
 4.866061e+001 2.933564e+001 2.900650e+001 3.229677e+001 3.346651e+001 3.654866e+001 2.987918e+001 3.610503e+001 3.209650e+001 2.548559e+001 2.198987e+001 1.985188e+001 7.948819e+000 3.405585e+000 3.376823e+000 5.277272e+000 3.533385e+000 4.452482e+000 3.514283e+000 3.249517e+000 3.065576e+000 2.769273e+000 2.458783e+000 2.484926e+000 5.297914e+000
<GCONST> 1.039175e+002
<TRANSP> 5
 0.000000e+000 1.000000e+000 0.000000e+000 0.000000e+000 0.000000e+000
 0.000000e+000 7.284344e-001 2.715655e-001 0.000000e+000 0.000000e+000
 0.000000e+000 0.000000e+000 8.873729e-001 1.126271e-001 0.000000e+000
 0.000000e+000 0.000000e+000 0.000000e+000 7.374493e-001 2.625507e-001
 0.000000e+000 0.000000e+000 0.000000e+000 0.000000e+000 0.000000e+000
<ENDHMM>
~h "g"
<BEGINHMM>
<NUMSTATES> 5
<STATE> 2
<MEAN> 25
 8.046103e+000 5.265730e+000 6.653092e+000 4.231159e+000 -1.903617e+000 -4.191064e+000 -1.384145e+000 -1.586713e+000 -4.167074e+000 2.438168e+000 -7.344140e-002 -2.922986e+000 3.333839e-001 1.601083e+000 7.324020e-001 1.302297e+000 5.345219e-001 -5.242736e-001 1.018584e+000 -6.321576e-001 -3.291825e-002 -4.281361e-001 -2.682080e-001 2.208852e-001 -2.246292e+000
<VARIANCE> 25
 1.971386e+001 5.153522e+001 4.192347e+001 4.173312e+001 5.534683e+001 5.752011e+001 5.861462e+001 6.282801e+001 5.408539e+001 4.589233e+001 3.980905e+001 3.155852e+001 2.276652e+000 2.796705e+000 3.618205e+000 3.270486e+000 4.550509e+000 4.295650e+000 4.303275e+000 4.741953e+000 5.808757e+000 3.606232e+000 3.199233e+000 2.939431e+000 5.103246e+000
<GCONST> 1.087914e+002
<STATE> 3
<MEAN> 25
 3.311447e+000 5.344102e+000 3.968598e+000 7.180416e+000 2.783150e+000 -4.487987e+000 1.398829e+000 -2.117692e+000 -2.585317e+000 1.380773e+000 -1.483116e+000 6.648984e-001 -2.185552e+000 -2.279198e+000 -1.935578e+000 -8.076034e-001 1.258814e+000 -7.643722e-001 -8.617239e-001 1.119936e+000 1.392460e-001 1.997521e-001 1.710013e-001 1.249820e+000 3.349125e+000
<VARIANCE> 25
 4.206487e+001 5.845031e+001 6.648824e+001 3.182996e+001 6.823080e+001 5.278958e+001 4.720495e+001 4.113657e+001 4.319194e+001 3.246323e+001 2.743960e+001 3.054447e+001 2.686199e+000 4.187147e+000 6.567302e+000 4.354614e+000 8.543990e+000 5.555783e+000 4.878362e+000 5.696536e+000 5.323922e+000 3.868356e+000 3.985927e+000 3.420813e+000 5.797646e+000
<GCONST> 1.115027e+002
<STATE> 4
<MEAN> 25
 5.835368e-001 -3.247287e-001 1.334512e+000 1.412528e+000 -9.434849e-001 -7.086185e+000 -2.957417e+000 2.003336e+000 -2.431029e+000 2.853947e+000 1.582050e+000 1.755085e+000 3.025367e-001 -9.603284e-001 3.568392e-001 -2.121867e+000 -2.365000e+000 2.869275e-001 -1.160596e+000 1.416356e+000 4.041109e-001 2.928205e-001 9.326881e-001 -7.614400e-001 2.564316e+000
<VARIANCE> 25
 2.873486e+001 3.613249e+001 7.224906e+001 3.314461e+001 8.289339e+001 6.253158e+001 6.290197e+001 5.645549e+001 4.895094e+001 3.590838e+001 3.854042e+001 2.729436e+001 3.049809e+000 3.682306e+000 6.174263e+000 4.174856e+000 8.065109e+000 4.503022e+000 4.820318e+000 6.847055e+000 6.884342e+000 4.276337e+000 4.896415e+000 3.752278e+000 4.057337e+000
<GCONST> 1.122824e+002
<TRANSP> 5
 0.000000e+000 1.000000e+000 0.000000e+000 0.000000e+000 0.000000e+000
 0.000000e+000 7.449951e-001 2.550049e-001 0.000000e+000 0.000000e+000
 0.000000e+000 0.000000e+000 5.952509e-001 4.047491e-001 0.000000e+000
 0.000000e+000 0.000000e+000 0.000000e+000 5.034173e-001 4.965827e-001
 0.000000e+000 0.000000e+000 0.000000e+000 0.000000e+000 0.000000e+000
<ENDHMM>
~h "h"
<BEGINHMM>
<NUMSTATES> 5
<STATE> 2
<MEAN> 25
 2.330087e+000 -2.161596e+000 -1.805524e+000 5.058171e-001 5.897819e+000 4.432390e+000 3.443851e+000 2.800229e+000 6.912715e-001 -3.709087e-001 -3.023678e+000 7.537012e-002 -1.133016e+000 3.387888e-001 -1.009601e-002 1.634350e+000 2.088972e+000 4.496464e-001 1.670736e+000 1.343541e-001 5.429412e-001 -4.105208e-001 -9.784224e-002 8.709248e-001 -1.251888e+000
<VARIANCE> 25
 1.946696e+001 3.726711e+001 4.705877e+001 4.510521e+001 5.758685e+001 6.640107e+001 5.593198e+001 5.623098e+001 4.499585e+001 4.362605e+001 5.325554e+001 4.472762e+001 1.797904e+000 3.685511e+000 3.443356e+000 3.971296e+000 4.086161e+000 4.054167e+000 5.262125e+000 4.777466e+000 4.203944e+000 3.558857e+000 3.925205e+000 3.726074e+000 2.470509e+000
<GCONST> 1.086857e+002
<STATE> 3
<MEAN> 25
 -1.631259e+000 -3.823679e+000 -2.562254e+000 2.675044e+000 8.531071e+000 3.713971e+000 6.032610e+000 3.602857e+000 2.186324e+000 -1.181025e+000 -2.709404e+000 1.321134e+000 -5.313208e-001 -5.988022e-002 -2.429297e-001 -4.275797e-002 -1.772542e-001 -3.066549e-001 -2.261364e-002 -1.792362e-001 5.483083e-002 -3.230117e-002 2.373622e-001 1.363345e-001 -1.153294e+000
<VARIANCE> 25
 2.809630e+001 3.720918e+001 4.243072e+001 4.297729e+001 6.408305e+001 5.701018e+001 6.095086e+001 5.184715e+001 4.477423e+001 4.402701e+001 3.956606e+001 3.905710e+001 1.973015e+000 2.793768e+000 2.761544e+000 2.746366e+000 3.276385e+000 3.296520e+000 3.542718e+000 3.700384e+000 3.167158e+000 2.916994e+000 2.896217e+000 2.445345e+000 3.754561e+000
<GCONST> 1.057888e+002
<STATE> 4
<MEAN> 25
 -3.721926e+000 -3.423718e+000 -4.943510e+000 1.671981e+000 5.401657e+000 2.640838e+000 3.578216e+000 1.248933e+000 1.732101e+000 -1.818916e+000 -7.623008e-001 1.642225e+000 1.673694e-001 2.472136e-001 5.835900e-002 -8.144921e-002 -2.908078e-001 -4.999594e-002 -1.198597e-001 -1.618239e-001 -9.671309e-002 5.562564e-002 2.249383e-002 -1.120142e-001 -1.493947e-001
<VARIANCE> 25
 2.235566e+001 5.052732e+001 3.211142e+001 2.772984e+001 4.355600e+001 3.864695e+001 3.941853e+001 3.182704e+001 3.158968e+001 2.899449e+001 2.643367e+001 2.518688e+001 1.415389e+000 1.807231e+000 1.596878e+000 1.563568e+000 1.922508e+000 1.999942e+000 2.192506e+000 2.114459e+000 2.058226e+000 2.029350e+000 1.910483e+000 1.828362e+000 1.846115e+000
<GCONST> 9.568044e+001
<TRANSP> 5
 0.000000e+000 1.000000e+000 0.000000e+000 0.000000e+000 0.000000e+000
 0.000000e+000 5.151519e-001 4.848482e-001 0.000000e+000 0.000000e+000
 0.000000e+000 0.000000e+000 6.247182e-001 3.752818e-001 0.000000e+000
 0.000000e+000 0.000000e+000 0.000000e+000 8.294168e-001 1.705832e-001
 0.000000e+000 0.000000e+000 0.000000e+000 0.000000e+000 0.000000e+000
<ENDHMM>
~h "i"
<BEGINHMM>
<NUMSTATES> 5
<STATE> 2
<MEAN> 25
 -5.138417e-001 1.420740e+000 1.241016e+001 2.633193e+000 -7.815276e+000 -5.939833e+000 -2.733325e+000 -2.408110e+000 -6.529956e+000 -2.103824e+000 3.124800e+000 1.106672e+000 8.064322e-001 -1.038320e-001 3.168741e+000 -5.067645e-001 -3.022444e+000 1.420560e-001 -1.755978e+000 -3.020242e-001 -2.154867e+000 -2.491085e-001 1.292683e+000 -3.480927e-001 1.932173e+000
<VARIANCE> 25
 3.370525e+001 3.889587e+001 5.390537e+001 4.022580e+001 5.230251e+001 4.474758e+001 5.846873e+001 6.165911e+001 5.204763e+001 3.635567e+001 3.355877e+001 3.014443e+001 6.376360e+000 3.367171e+000 5.336655e+000 5.239521e+000 4.974364e+000 5.461501e+000 6.875701e+000 7.088823e+000 6.960826e+000 5.341118e+000 3.668272e+000 3.988898e+000 4.883564e+000
<GCONST> 1.126911e+002
<STATE> 3
<MEAN> 25
 4.978732e-001 1.482969e+000 1.884951e+001 -5.455593e-001 -1.430613e+001 -2.513469e+000 -7.326882e+000 -3.217483e+000 -1.043670e+001 -1.348149e+000 5.647153e+000 -3.519613e-001 7.132085e-002 3.665915e-002 9.869920e-002 -2.072021e-001 -3.145022e-001 1.523744e-001 -1.014507e-001 2.092346e-002 -4.622091e-002 2.159801e-001 1.247533e-001 -4.885241e-002 3.251817e-002
<VARIANCE> 25
 1.186027e+001 2.608634e+001 3.561000e+001 4.451796e+001 2.598544e+001 4.205095e+001 3.071262e+001 5.966275e+001 4.690232e+001 5.117479e+001 3.325712e+001 3.786204e+001 6.146275e-001 1.336980e+000 1.796006e+000 1.508571e+000 1.921855e+000 2.213485e+000 1.980118e+000 2.699385e+000 2.086183e+000 1.790708e+000 1.473778e+000 1.365792e+000 9.268792e-001
<GCONST> 9.434743e+001
<STATE> 4
<MEAN> 25
 4.594450e-001 3.506879e+000 1.293879e+001 1.532927e+000 -8.460834e+000 -3.829649e+000 -1.813213e+000 -3.100982e+000 -5.888660e+000 -7.038816e-001 3.000296e+000 6.899425e-001 1.740966e-001 3.312867e-001 -1.598738e+000 5.757293e-001 1.480902e+000 -2.472164e-001 9.031784e-001 2.038145e-001 1.040812e+000 -3.042965e-002 -6.792921e-001 1.598242e-001 -1.784171e+000
<VARIANCE> 25
 2.010980e+001 3.550601e+001 5.558590e+001 3.892033e+001 5.611485e+001 6.092650e+001 5.002929e+001 5.758454e+001 4.907320e+001 4.246093e+001 3.710550e+001 3.299435e+001 1.840677e+000 2.520592e+000 2.676951e+000 2.738201e+000 3.642453e+000 3.460253e+000 3.898620e+000 4.191250e+000 4.062321e+000 3.279513e+000 2.770332e+000 2.391287e+000 4.038301e+000
<GCONST> 1.057825e+002
<TRANSP> 5
 0.000000e+000 1.000000e+000 0.000000e+000 0.000000e+000 0.000000e+000
 0.000000e+000 6.141569e-001 3.858431e-001 0.000000e+000 0.000000e+000
 0.000000e+000 0.000000e+000 7.843284e-001 2.156716e-001 0.000000e+000
 0.000000e+000 0.000000e+000 0.000000e+000 7.784345e-001 2.215654e-001
 0.000000e+000 0.000000e+000 0.000000e+000 0.000000e+000 0.000000e+000
<ENDHMM>
~h "j"
<BEGINHMM>
<NUMSTATES> 5
<STATE> 2
<MEAN> 25
 3.325662e+000 7.791694e+000 8.326927e+000 5.780099e+000 -1.563520e+000 -3.777608e+000 2.642720e-001 7.816370e-001 -1.057831e+000 -3.386173e+000 1.979635e-001 1.670526e+000 -3.149125e-001 1.335843e+000 2.981537e-001 3.654889e-001 8.253049e-001 5.617775e-002 9.764647e-001 -3.811795e-002 4.438763e-001 -5.098280e-002 -2.079209e-001 4.213393e-003 -1.347078e+000
<VARIANCE> 25
 3.743413e+001 4.648977e+001 4.854231e+001 2.846169e+001 4.159413e+001 4.836907e+001 5.046053e+001 4.418961e+001 4.418971e+001 3.297853e+001 2.869948e+001 2.550280e+001 4.617001e+000 3.260699e+000 3.247751e+000 2.879417e+000 3.589472e+000 3.241038e+000 4.037095e+000 4.076841e+000 4.075497e+000 3.095260e+000 2.680247e+000 2.512779e+000 6.119151e+000
<GCONST> 1.062918e+002
<STATE> 3
<MEAN> 25
 -7.843026e+000 9.111240e+000 7.046146e+000 3.824142e+000 2.613580e+000 -3.632511e+000 2.387523e+000 -1.612022e+000 -8.928592e-001 -2.133466e+000 1.642918e+000 3.818801e+000 -1.246169e+000 -1.495494e+000 4.307268e-001 -6.920927e-001 -1.459791e+000 -9.984435e-001 -1.244845e+000 -3.102343e-001 -5.433643e-001 -1.288086e-001 8.666730e-001 9.391349e-001 3.596673e+000
<VARIANCE> 25
 5.191865e+001 4.143257e+001 4.830157e+001 2.809877e+001 4.192532e+001 5.134888e+001 3.984964e+001 3.035522e+001 2.700279e+001 2.402386e+001 2.101460e+001 2.001839e+001 1.289110e+001 3.700334e+000 5.340508e+000 4.026996e+000 8.858739e+000 4.485604e+000 4.613064e+000 4.731720e+000 4.092054e+000 2.830619e+000 2.460346e+000 2.469333e+000 3.231274e+000
<GCONST> 1.072488e+002
<STATE> 4
<MEAN> 25
 7.209510e-001 -8.975871e-001 1.053734e+001 1.154872e-001 -1.051795e+001 -8.725608e+000 -6.625584e+000 3.350763e+000 -8.480300e-001 -2.629247e+000 5.078327e+000 5.063100e+000 2.376615e+000 -2.942694e+000 -1.248458e+000 -1.387751e+000 -1.522388e+000 5.434650e-001 -1.513823e+000 2.452709e+000 1.278268e+000 7.748155e-001 -3.384055e-001 -1.466789e+000 1.471126e+000
<VARIANCE> 25
 1.312170e+001 3.027880e+001 2.858300e+001 3.862960e+001 2.711039e+001 2.192148e+001 3.772892e+001 6.241668e+001 5.391408e+001 2.587365e+001 2.329213e+001 2.161271e+001 2.760534e+000 2.899909e+000 5.025940e+000 2.411974e+000 6.674242e+000 3.609720e+000 6.942307e+000 7.091033e+000 5.774400e+000 3.212481e+000 4.308069e+000 2.839492e+000 1.246050e+000
<GCONST> 1.038502e+002
<TRANSP> 5
 0.000000e+000 1.000000e+000 0.000000e+000 0.000000e+000 0.000000e+000
 0.000000e+000 8.349261e-001 1.650740e-001 0.000000e+000 0.000000e+000
 0.000000e+000 0.000000e+000 7.707860e-001 2.292140e-001 0.000000e+000
 0.000000e+000 0.000000e+000 0.000000e+000 6.113932e-001 3.886068e-001
 0.000000e+000 0.000000e+000 0.000000e+000 0.000000e+000 0.000000e+000
<ENDHMM>
~h "k"
<BEGINHMM>
<NUMSTATES> 5
<STATE> 2
<MEAN> 25
 -1.579127e+000 2.939351e+000 -1.533085e+000 1.896374e+000 1.540836e+000 -1.945092e+000 2.446959e+000 -4.769292e-001 4.231085e-001 2.855362e-001 -5.028169e-001 1.177009e+000 -8.202392e-001 -1.005144e-001 -5.128622e-001 2.807886e-001 3.651114e-001 -1.420563e-001 2.521431e-001 5.090635e-002 2.929579e-001 -1.191126e-001 -1.731987e-002 3.875346e-001 -1.045386e+000
<VARIANCE> 25
 3.238387e+001 3.135733e+001 3.387835e+001 3.228971e+001 4.072423e+001 4.456783e+001 4.026051e+001 4.572961e+001 4.146738e+001 3.461255e+001 3.012584e+001 2.877051e+001 2.181288e+000 3.245986e+000 2.929401e+000 2.765607e+000 3.693520e+000 3.487085e+000 3.386458e+000 3.468378e+000 3.572535e+000 2.986264e+000 2.559697e+000 2.335504e+000 6.980344e+000
<GCONST> 1.040904e+002
<STATE> 3
<MEAN> 25
 -5.454224e+000 -2.715833e+000 -7.006631e+000 1.162870e+000 5.228021e+000 -4.340404e+000 1.328984e+000 5.648107e-001 8.258607e-001 2.164618e+000 -1.092878e+000 3.170843e+000 -8.367335e-001 -2.232600e+000 -2.277164e+000 -1.001170e+000 1.458203e+000 -9.091437e-001 -1.049257e+000 8.747385e-001 -7.556967e-002 9.762548e-001 -5.288448e-001 2.685460e-001 4.897088e+000
<VARIANCE> 25
 2.826936e+001 6.190300e+001 6.588837e+001 5.034096e+001 5.772447e+001 5.593185e+001 5.059538e+001 4.546346e+001 4.289182e+001 3.591766e+001 2.893806e+001 2.964953e+001 3.849907e+000 5.213101e+000 6.654968e+000 5.843490e+000 6.461411e+000 6.006692e+000 5.329716e+000 5.219562e+000 4.966222e+000 4.085368e+000 4.106693e+000 3.701111e+000 9.446615e+000
<GCONST> 1.130575e+002
<STATE> 4
<MEAN> 25
 -3.606331e+000 -2.864861e+000 -7.954798e+000 -2.314447e+000 4.712161e+000 -4.886288e+000 -4.662905e-001 2.248705e+000 5.323192e-001 3.222711e+000 -2.199642e+000 6.653489e-001 2.043765e+000 5.924707e-001 1.644544e+000 -9.563569e-001 -1.775056e+000 6.761854e-001 -4.265546e-001 4.076523e-001 -3.474097e-001 -4.763901e-001 2.883017e-001 -1.547114e+000 2.723331e+000
<VARIANCE> 25
 4.225854e+001 3.874556e+001 6.569691e+001 5.380683e+001 5.911487e+001 6.685067e+001 5.187232e+001 5.013726e+001 4.649403e+001 3.683012e+001 3.604771e+001 4.038834e+001 4.755499e+000 5.013958e+000 5.387112e+000 6.037803e+000 5.877104e+000 5.803702e+000 5.455545e+000 5.927763e+000 5.236855e+000 3.949101e+000 4.258357e+000 4.449991e+000 7.938219e+000
<GCONST> 1.140948e+002
<TRANSP> 5
 0.000000e+000 1.000000e+000 0.000000e+000 0.000000e+000 0.000000e+000
 0.000000e+000 8.101469e-001 1.898531e-001 0.000000e+000 0.000000e+000
 0.000000e+000 0.000000e+000 5.568995e-001 4.431005e-001 0.000000e+000
 0.000000e+000 0.000000e+000 0.000000e+000 5.485938e-001 4.514062e-001
 0.000000e+000 0.000000e+000 0.000000e+000 0.000000e+000 0.000000e+000
<ENDHMM>
~h "l"
<BEGINHMM>
<NUMSTATES> 5
<STATE> 2
<MEAN> 25
 6.702715e+000 -5.052685e+000 1.096139e+000 -5.970850e+000 -2.620609e+000 1.898990e+000 -8.563952e+000 -4.149117e+000 3.488757e+000 4.523365e+000 1.203722e+000 -2.941945e+000 5.953851e-001 1.893038e-001 7.162025e-001 -6.181083e-001 7.760231e-001 -4.785424e-002 -1.567807e+000 -1.523452e+000 5.800811e-002 1.255724e+000 4.311464e-001 -3.166521e-001 -4.251662e-001
<VARIANCE> 25
 1.524911e+001 2.673415e+001 5.019873e+001 6.527788e+001 5.377278e+001 6.986254e+001 7.196114e+001 1.088676e+002 5.996198e+001 4.995132e+001 4.967890e+001 4.370681e+001 1.115143e+000 2.039195e+000 2.906659e+000 4.881762e+000 5.501576e+000 6.369942e+000 5.093599e+000 6.002985e+000 4.815533e+000 4.252295e+000 4.794646e+000 3.556414e+000 1.440280e+000
<GCONST> 1.096087e+002
<STATE> 3
<MEAN> 25
 7.912929e+000 -4.331858e+000 2.683556e+000 -8.485242e+000 -1.467813e+000 3.594394e+000 -1.176075e+001 -6.691133e+000 2.655613e+000 6.909934e+000 3.007075e+000 -3.706718e+000 -4.791561e-002 1.920552e-001 2.888375e-002 -2.081077e-001 3.627327e-001 -7.314568e-002 -2.797906e-001 7.202885e-002 -6.212670e-002 -3.886280e-002 1.329508e-002 4.336549e-002 -1.147512e-001
<VARIANCE> 25
 1.103687e+001 2.107372e+001 4.188658e+001 7.103876e+001 5.019226e+001 5.580189e+001 6.930708e+001 7.959753e+001 5.772136e+001 4.886103e+001 4.497176e+001 4.066648e+001 4.509833e-001 1.097577e+000 2.126980e+000 2.914005e+000 1.943366e+000 2.911656e+000 2.861911e+000 4.058136e+000 2.840225e+000 2.633605e+000 2.622648e+000 2.036728e+000 7.956348e-001
<GCONST> 1.001692e+002
<STATE> 4
<MEAN> 25
 5.056547e+000 -1.798781e+000 -2.974717e-001 -5.966486e+000 1.322060e+000 2.136324e+000 -6.568139e+000 -3.526986e+000 1.955340e+000 3.570585e+000 7.068660e-001 -1.907963e+000 -5.422148e-001 -7.137670e-002 -4.855438e-001 6.743747e-001 -1.577995e-001 -1.410871e-001 1.081837e+000 9.537110e-001 1.289926e-001 -8.515817e-001 -6.600663e-001 1.669641e-001 -2.420431e-001
<VARIANCE> 25
 2.771112e+001 3.428135e+001 6.655654e+001 8.402510e+001 6.192924e+001 5.986633e+001 1.028717e+002 7.596469e+001 5.754820e+001 6.025931e+001 5.137558e+001 4.461023e+001 1.002218e+000 2.663174e+000 3.016697e+000 4.197449e+000 3.753587e+000 4.468195e+000 4.619473e+000 5.861882e+000 4.349303e+000 3.966422e+000 4.340188e+000 3.107918e+000 3.288308e+000
<GCONST> 1.107817e+002
<TRANSP> 5
 0.000000e+000 1.000000e+000 0.000000e+000 0.000000e+000 0.000000e+000
 0.000000e+000 4.763106e-001 5.236894e-001 0.000000e+000 0.000000e+000
 0.000000e+000 0.000000e+000 5.941514e-001 4.058485e-001 0.000000e+000
 0.000000e+000 0.000000e+000 0.000000e+000 5.655010e-001 4.344989e-001
 0.000000e+000 0.000000e+000 0.000000e+000 0.000000e+000 0.000000e+000
<ENDHMM>
~h "m"
<BEGINHMM>
<NUMSTATES> 5
<STATE> 2
<MEAN> 25
 8.314095e+000 -1.314766e+000 1.508609e+000 -7.382032e-001 -1.179093e+000 4.888198e+000 -9.238906e-001 -6.362727e+000 -6.490418e+000 8.455932e-001 9.089998e-001 -2.745261e+000 4.800246e-001 1.365164e+000 1.877601e+000 2.313823e+000 3.153169e-001 -7.357939e-002 1.058755e+000 -3.256579e+000 -3.134555e+000 -3.277221e-002 -5.669789e-001 8.733280e-001 -1.050792e+000
<VARIANCE> 25
 1.893748e+001 4.006462e+001 3.634484e+001 6.620699e+001 3.933523e+001 5.334014e+001 5.948349e+001 7.159927e+001 5.957959e+001 4.112101e+001 4.587576e+001 4.312243e+001 2.067203e+000 2.392442e+000 3.617963e+000 3.965377e+000 3.539170e+000 3.898564e+000 5.818512e+000 4.899372e+000 5.835245e+000 4.408221e+000 6.503343e+000 4.645080e+000 4.263000e+000
<GCONST> 1.101060e+002
<STATE> 3
<MEAN> 25
 8.192922e+000 7.042094e-001 6.820487e+000 3.890996e+000 -5.591035e-001 4.833300e+000 -1.704745e-001 -1.239574e+001 -1.309400e+001 7.966548e-001 -1.318645e+000 2.022935e-001 -3.192369e-002 1.751042e-001 3.344992e-001 2.802330e-001 1.272000e-001 1.357222e-001 2.429385e-001 -4.126562e-001 -5.129621e-001 -1.988039e-001 -2.926397e-001 2.842350e-001 -8.146203e-002
<VARIANCE> 25
 8.699864e+000 2.259706e+001 2.242304e+001 3.851480e+001 3.516765e+001 5.718161e+001 6.955293e+001 4.793652e+001 3.963872e+001 5.494226e+001 5.421269e+001 4.614129e+001 5.514139e-001 1.103994e+000 1.084048e+000 1.599378e+000 1.567019e+000 1.689453e+000 1.869256e+000 2.061255e+000 2.415163e+000 1.997830e+000 2.382174e+000 1.637707e+000 1.522216e+000
<GCONST> 9.494994e+001
<STATE> 4
<MEAN> 25
 6.446467e+000 1.414692e+000 4.394593e+000 2.196034e+000 -6.686761e-001 4.706753e+000 1.666972e+000 -9.283962e+000 -9.358742e+000 -1.189674e+000 -2.075389e+000 -1.586992e-001 -7.486977e-002 -2.879393e-001 -1.194309e+000 -1.164530e+000 -3.391438e-001 -2.884947e-002 -2.366621e-001 1.472522e+000 1.513913e+000 9.238335e-002 5.969341e-001 -6.045817e-001 4.997435e-001
<VARIANCE> 25
 2.236263e+001 2.424365e+001 3.629535e+001 4.522811e+001 5.001745e+001 5.000906e+001 6.034469e+001 5.837472e+001 6.264684e+001 4.052349e+001 4.946891e+001 4.052244e+001 6.351671e-001 1.802629e+000 2.817114e+000 3.798730e+000 2.201965e+000 2.638011e+000 3.238070e+000 3.750027e+000 4.436493e+000 2.857908e+000 3.496440e+000 2.938696e+000 2.592756e+000
<GCONST> 1.036643e+002
<TRANSP> 5
 0.000000e+000 1.000000e+000 0.000000e+000 0.000000e+000 0.000000e+000
 0.000000e+000 5.800577e-001 4.199423e-001 0.000000e+000 0.000000e+000
 0.000000e+000 0.000000e+000 7.234682e-001 2.765318e-001 0.000000e+000
 0.000000e+000 0.000000e+000 0.000000e+000 6.607314e-001 3.392686e-001
 0.000000e+000 0.000000e+000 0.000000e+000 0.000000e+000 0.000000e+000
<ENDHMM>
~h "n"
<BEGINHMM>
<NUMSTATES> 5
<STATE> 2
<MEAN> 25
 7.202515e+000 -4.300422e+000 3.529721e+000 9.674074e-001 -2.779017e+000 -1.882636e+000 -4.782578e+000 -4.965600e-002 3.999912e-002 1.685768e+000 -5.181498e+000 -3.876969e+000 6.410747e-001 2.283814e+000 2.010641e+000 2.382948e+000 -5.073884e-001 -1.044838e+000 6.037585e-001 -4.371269e+000 -7.731485e-001 1.155281e+000 -7.056242e-001 9.496670e-001 -2.242713e+000
<VARIANCE> 25
 8.821784e+000 3.542867e+001 3.753033e+001 4.259911e+001 4.251968e+001 4.587247e+001 4.796085e+001 1.166748e+002 5.103809e+001 4.825004e+001 3.936060e+001 3.540192e+001 6.966551e-001 1.864607e+000 3.699689e+000 2.533046e+000 3.428046e+000 4.838549e+000 5.907495e+000 6.169235e+000 6.454560e+000 5.701593e+000 5.780929e+000 3.089384e+000 9.472022e-001
<GCONST> 1.056602e+002
<STATE> 3
<MEAN> 25
 8.319389e+000 7.763464e-001 8.705504e+000 5.218078e+000 -4.764480e+000 -2.544752e+000 -2.904531e+000 -1.027177e+001 -2.906837e+000 4.240664e+000 -5.826295e+000 -7.392297e-001 1.054491e-001 7.217038e-001 2.013734e-001 4.328767e-001 -4.742455e-002 1.342548e-001 4.123598e-001 -7.794415e-001 -4.340689e-001 1.116744e-001 -3.307223e-002 4.285782e-001 -7.275256e-001
<VARIANCE> 25
 7.764030e+000 1.614659e+001 2.101582e+001 3.013618e+001 3.364904e+001 4.628727e+001 5.817367e+001 5.050155e+001 4.524719e+001 4.735223e+001 4.325345e+001 3.482058e+001 3.407940e-001 1.067384e+000 1.320253e+000 1.191787e+000 1.462266e+000 1.678892e+000 2.126895e+000 3.101321e+000 2.190376e+000 2.021056e+000 1.982859e+000 1.601711e+000 7.399788e-001
<GCONST> 9.212126e+001
<STATE> 4
<MEAN> 25
 3.790123e+000 3.610831e+000 4.863021e+000 6.100195e+000 -2.364687e-001 -1.353889e+000 1.073411e+000 -6.438727e+000 -2.476627e+000 9.979246e-001 -4.409567e+000 9.777496e-001 -7.120314e-001 1.983260e-001 -6.335813e-001 -1.937474e-001 7.142166e-001 1.828820e-001 1.496855e-001 8.774012e-001 1.747067e-001 -5.917111e-001 4.459390e-001 -9.671183e-002 -9.681446e-001
<VARIANCE> 25
 3.806164e+001 2.802424e+001 3.769580e+001 3.077103e+001 5.225237e+001 3.497856e+001 5.712054e+001 7.247433e+001 5.470592e+001 5.120327e+001 4.856339e+001 3.377184e+001 1.325000e+000 2.327716e+000 2.096917e+000 2.414569e+000 3.116795e+000 2.785880e+000 3.677019e+000 4.221692e+000 3.465493e+000 3.132748e+000 2.795913e+000 2.380628e+000 3.466934e+000
<GCONST> 1.043304e+002
<TRANSP> 5
 0.000000e+000 1.000000e+000 0.000000e+000 0.000000e+000 0.000000e+000
 0.000000e+000 6.117176e-001 3.882824e-001 0.000000e+000 0.000000e+000
 0.000000e+000 0.000000e+000 7.379560e-001 2.620440e-001 0.000000e+000
 0.000000e+000 0.000000e+000 0.000000e+000 7.396557e-001 2.603443e-001
 0.000000e+000 0.000000e+000 0.000000e+000 0.000000e+000 0.000000e+000
<ENDHMM>
~h "o"
<BEGINHMM>
<NUMSTATES> 5
<STATE> 2
<MEAN> 25
 6.102027e+000 4.439415e-001 -5.347641e+000 -9.203600e+000 -3.112189e+000 5.533379e+000 -4.222735e+000 -2.438795e+000 2.815917e-001 1.607596e+000 3.509357e+000 -2.824596e-001 1.964019e+000 -3.988482e-001 -5.070878e-001 -3.267353e+000 -1.539739e+000 2.685591e+000 -8.409635e-001 1.294836e-001 1.236052e-001 1.072669e-001 1.236393e+000 -5.117568e-001 2.178935e+000
<VARIANCE> 25
 2.872863e+001 3.456205e+001 4.230679e+001 8.201756e+001 5.398262e+001 5.606078e+001 7.674700e+001 5.780283e+001 5.831781e+001 5.613231e+001 4.272708e+001 3.338880e+001 4.723197e+000 3.281205e+000 5.886136e+000 6.645214e+000 7.437898e+000 5.611865e+000 6.119008e+000 7.567967e+000 5.921396e+000 5.779331e+000 4.767981e+000 4.107973e+000 4.991555e+000
<GCONST> 1.148582e+002
<STATE> 3
<MEAN> 25
 8.616203e+000 -1.068647e+000 -6.040092e+000 -1.597878e+001 -5.485789e+000 1.266664e+001 -5.397059e+000 -1.815964e+000 6.047517e-002 1.131857e+000 6.872396e+000 -5.794396e-001 1.716823e-001 -7.623833e-002 -2.180708e-001 -9.936718e-001 -6.120408e-002 1.013736e+000 2.974727e-001 1.557839e-001 -1.176816e-001 -3.741174e-001 3.830791e-001 2.142618e-001 2.025440e-001
<VARIANCE> 25
 1.047992e+001 2.696255e+001 2.501332e+001 4.907835e+001 4.637807e+001 4.007258e+001 5.470501e+001 5.322149e+001 5.021240e+001 6.131658e+001 3.585601e+001 3.784719e+001 4.348015e-001 1.558801e+000 1.130364e+000 2.502142e+000 1.962775e+000 2.225804e+000 2.682011e+000 2.569272e+000 3.058939e+000 3.113123e+000 2.087370e+000 2.001469e+000 1.155255e+000
<GCONST> 9.733619e+001
<STATE> 4
<MEAN> 25
 7.493488e+000 5.794879e-001 -5.906988e+000 -1.446516e+001 -3.787679e+000 1.022931e+001 -2.076834e+000 -1.638484e+000 8.439733e-001 -9.692466e-002 4.281631e+000 4.611475e-002 -2.434095e-001 3.873890e-002 2.692373e-001 1.352027e+000 4.594454e-001 -1.021877e+000 1.037249e-001 -8.609125e-002 1.653011e-001 3.209355e-001 -6.160256e-001 -2.165750e-001 -9.401063e-001
<VARIANCE> 25
 1.930864e+001 3.917875e+001 2.597090e+001 7.227251e+001 5.099507e+001 4.583549e+001 7.184930e+001 5.530816e+001 5.063314e+001 5.935675e+001 3.589400e+001 4.190229e+001 7.634017e-001 1.690341e+000 1.452496e+000 3.291620e+000 2.479364e+000 2.863082e+000 3.139197e+000 2.793029e+000 2.802856e+000 3.083591e+000 2.342235e+000 2.184307e+000 2.753098e+000
<GCONST> 1.022339e+002
<TRANSP> 5
 0.000000e+000 1.000000e+000 0.000000e+000 0.000000e+000 0.000000e+000
 0.000000e+000 5.607172e-001 4.392828e-001 0.000000e+000 0.000000e+000
 0.000000e+000 0.000000e+000 7.026647e-001 2.973354e-001 0.000000e+000
 0.000000e+000 0.000000e+000 0.000000e+000 8.164989e-001 1.835011e-001
 0.000000e+000 0.000000e+000 0.000000e+000 0.000000e+000 0.000000e+000
<ENDHMM>
~h "p"
<BEGINHMM>
<NUMSTATES> 5
<STATE> 2
<MEAN> 25
 1.666764e+000 5.464318e+000 -1.115374e+000 1.411591e+000 1.777805e+000 7.041867e-001 2.824031e+000 -3.398453e+000 1.580497e-001 -7.447127e-002 -8.755175e-002 -1.343474e-003 -1.274568e+000 2.480460e-001 -2.796586e-001 5.138798e-001 1.932308e-001 -5.512174e-001 5.160829e-001 2.895129e-001 4.535186e-001 -2.517668e-001 -3.468977e-002 4.144333e-001 -1.697984e+000
<VARIANCE> 25
 3.567809e+001 2.196503e+001 3.328293e+001 3.824784e+001 2.659126e+001 3.894987e+001 3.310768e+001 3.743211e+001 4.113226e+001 3.021134e+001 2.759118e+001 2.929061e+001 1.636032e+000 2.478831e+000 2.036534e+000 2.518204e+000 2.406391e+000 2.793950e+000 2.805648e+000 2.690679e+000 3.093946e+000 2.531276e+000 2.325262e+000 2.029408e+000 6.591944e+000
<GCONST> 1.001024e+002
<STATE> 3
<MEAN> 25
 -3.410995e+000 3.457903e+000 -2.130100e+000 2.396669e+000 1.929182e+000 -1.361937e+000 3.468889e+000 -1.822747e+000 1.161819e+000 -5.218257e-001 5.900809e-001 1.764288e+000 2.740785e-001 -2.230979e+000 -1.137998e+000 -1.547231e+000 -4.622918e-001 3.955629e-001 -8.179404e-001 1.409415e-001 3.359072e-001 1.379130e-001 8.471876e-001 -1.500027e-001 5.532581e+000
<VARIANCE> 25
 2.097755e+001 2.272161e+001 2.118941e+001 2.757211e+001 2.401420e+001 3.038420e+001 3.059146e+001 2.996914e+001 3.090364e+001 2.472665e+001 2.196604e+001 2.053812e+001 5.900017e+000 3.386510e+000 3.429605e+000 6.608122e+000 3.487907e+000 6.288266e+000 3.871136e+000 4.152009e+000 4.361174e+000 3.571959e+000 3.230779e+000 3.511761e+000 1.045663e+001
<GCONST> 1.041506e+002
<STATE> 4
<MEAN> 25
 -4.179631e+000 -1.621129e-001 -4.059314e+000 1.166792e+000 1.860257e+000 1.893896e-001 2.559762e+000 -4.944206e-001 1.674068e+000 -6.259199e-001 1.129258e+000 2.243116e+000 1.141837e+000 -9.073020e-001 -2.542470e-001 -1.105196e+000 -4.650070e-001 5.993107e-001 -7.812819e-001 -8.808751e-002 -8.081222e-002 -1.546188e-003 3.173026e-001 -5.328854e-001 3.291879e+000
<VARIANCE> 25
 3.531044e+001 2.554803e+001 1.928039e+001 4.100487e+001 2.558750e+001 3.606517e+001 3.171853e+001 2.710125e+001 2.640134e+001 2.302722e+001 2.051713e+001 2.110826e+001 4.582694e+000 4.409989e+000 2.979244e+000 6.155495e+000 3.135136e+000 5.786014e+000 4.009906e+000 3.771626e+000 3.246117e+000 3.025233e+000 2.786456e+000 3.216086e+000 1.561827e+001
<GCONST> 1.042448e+002
<TRANSP> 5
 0.000000e+000 1.000000e+000 0.000000e+000 0.000000e+000 0.000000e+000
 0.000000e+000 7.985117e-001 2.014883e-001 0.000000e+000 0.000000e+000
 0.000000e+000 0.000000e+000 3.494446e-001 6.505554e-001 0.000000e+000
 0.000000e+000 0.000000e+000 0.000000e+000 6.364501e-001 3.635500e-001
 0.000000e+000 0.000000e+000 0.000000e+000 0.000000e+000 0.000000e+000
<ENDHMM>
~h "q"
<BEGINHMM>
<NUMSTATES> 5
<STATE> 2
<MEAN> 25
 -5.938602e+000 5.661097e+000 8.052136e-001 6.489755e+000 -1.200330e-001 -1.620255e+000 3.329600e+000 -5.252057e+000 1.650104e+000 -3.499835e+000 -6.037158e-001 2.284724e+000 -5.857852e-001 -6.380806e-001 -7.559761e-001 -9.166855e-002 8.103868e-001 2.359198e-001 -9.104928e-002 3.053059e-001 5.452051e-001 -5.245509e-002 -1.995898e-001 1.008254e+000 2.439161e-001
<VARIANCE> 25
 1.038177e+001 2.632218e+001 2.179493e+001 8.137692e+000 1.872899e+001 2.087934e+001 1.480332e+001 1.160120e+001 3.311564e+001 1.490277e+001 2.087499e+001 1.712221e+001 1.661347e+000 5.213758e+000 8.532440e+000 1.915146e+000 3.262828e+000 3.994173e+000 3.013320e+000 1.648942e+000 4.867142e+000 3.818540e+000 2.462272e+000 3.868945e+000 5.434152e+000
<GCONST> 9.592320e+001
<STATE> 3
<MEAN> 25
 -1.910252e+000 -1.763409e+000 -2.221496e+000 -1.388729e+000 -7.573587e-001 -6.469095e+000 7.747506e-001 6.520240e-001 -2.054547e+000 -4.543597e-002 5.348362e-001 6.514993e+000 -2.981766e-001 -1.036829e-001 -1.026081e+000 -5.973191e-001 3.492470e-001 6.058283e-001 3.048900e-001 1.161339e-002 -1.183087e-001 -3.462402e-001 -7.134450e-002 1.189779e-001 6.925738e-001
<VARIANCE> 25
 3.048275e+001 5.028876e+001 2.391896e+002 4.255450e+001 7.435440e+001 6.890154e+001 4.318742e+001 5.722759e+001 4.231558e+001 3.282782e+001 4.089857e+001 3.535094e+001 2.788455e+000 5.950402e+000 8.769292e+000 6.125340e+000 6.272752e+000 5.655607e+000 1.194762e+000 4.542057e+000 5.825945e+000 3.335203e+000 3.693444e+000 3.584849e+000 1.219362e+001
<GCONST> 1.134808e+002
<STATE> 4
<MEAN> 25
 -8.083673e+000 2.764502e+000 -5.968204e+000 3.942669e+000 1.146626e+000 1.588570e+000 6.184575e+000 -4.868195e+000 4.051175e+000 -4.149501e+000 -1.906007e+000 2.349440e+000 -1.000273e-001 2.898863e-001 2.098422e-001 -2.614763e-002 -3.184984e-002 2.223718e-001 6.572519e-002 1.413619e-001 1.103197e-001 -7.222764e-002 -7.346506e-002 -1.717481e-001 -9.061261e-002
<VARIANCE> 25
 6.634172e+000 1.293301e+001 1.867877e+001 1.385544e+001 1.071897e+001 1.944800e+001 1.385973e+001 1.556345e+001 2.117825e+001 1.232131e+001 2.030709e+001 1.179520e+001 1.770948e+000 1.936594e+000 2.142436e+000 8.957383e-001 1.793013e+000 1.479183e+000 1.383298e+000 1.799464e+000 2.409083e+000 1.861206e+000 2.062271e+000 1.510539e+000 2.556441e+000
<GCONST> 8.505863e+001
<TRANSP> 5
 0.000000e+000 1.000000e+000 0.000000e+000 0.000000e+000 0.000000e+000
 0.000000e+000 8.111281e-001 1.888719e-001 0.000000e+000 0.000000e+000
 0.000000e+000 0.000000e+000 8.207237e-001 1.792763e-001 0.000000e+000
 0.000000e+000 0.000000e+000 0.000000e+000 8.919074e-001 1.080926e-001
 0.000000e+000 0.000000e+000 0.000000e+000 0.000000e+000 0.000000e+000
<ENDHMM>
~h "r"
<BEGINHMM>
<NUMSTATES> 5
<STATE> 2
<MEAN> 25
 5.976833e+000 -5.780379e+000 -4.218684e+000 -1.739210e+000 -3.423698e+000 -9.149286e-002 -5.677173e+000 4.853980e-001 5.903465e+000 2.642831e+000 3.668621e-001 -3.888853e+000 3.419942e-001 2.270714e-001 1.578919e-001 1.839071e+000 -2.193837e-001 -3.857378e-001 -3.305148e-001 -9.328346e-001 8.524046e-001 -2.275361e-001 2.187030e-001 2.971029e-001 -1.161819e+000
<VARIANCE> 25
 1.879170e+001 3.060535e+001 4.432486e+001 4.847607e+001 4.603866e+001 5.536844e+001 6.375505e+001 8.465791e+001 5.314850e+001 4.616902e+001 4.540273e+001 4.005003e+001 2.917038e+000 3.204961e+000 3.192017e+000 6.129525e+000 5.567639e+000 5.888568e+000 6.142220e+000 6.312168e+000 6.050356e+000 5.751426e+000 5.106609e+000 4.008748e+000 4.412419e+000
<GCONST> 1.121321e+002
<STATE> 3
<MEAN> 25
 6.698396e+000 -4.587052e+000 -2.982885e+000 2.907654e+000 -3.995371e+000 -1.073753e+000 -6.670675e+000 -1.549976e+000 6.956326e+000 2.092572e+000 1.449688e+000 -2.817981e+000 -2.489708e-001 4.790756e-001 6.115432e-001 8.301545e-001 5.131848e-001 -5.065122e-001 2.022336e-001 -2.951209e-001 -5.180249e-001 -3.009901e-001 6.371833e-002 6.994048e-001 -1.181803e+000
<VARIANCE> 25
 1.879305e+001 2.644514e+001 4.817810e+001 4.096178e+001 5.109893e+001 4.988782e+001 6.153358e+001 7.377313e+001 5.241016e+001 4.536748e+001 4.068645e+001 3.444835e+001 2.607845e+000 2.810295e+000 3.113944e+000 3.944240e+000 5.143718e+000 5.184285e+000 5.575576e+000 5.939480e+000 5.509386e+000 4.803939e+000 4.155529e+000 4.010508e+000 3.444333e+000
<GCONST> 1.096358e+002
<STATE> 4
<MEAN> 25
 4.494566e-001 -1.543024e+000 -2.391073e+000 3.592887e+000 1.010388e+000 -5.525233e-001 -3.501805e-001 -5.713357e-001 3.429497e+000 -3.326881e-001 -1.027360e-001 8.567652e-001 -1.782798e-001 1.570629e-001 2.127556e-001 -7.585179e-002 7.591121e-002 -6.380417e-003 1.499968e-001 2.155731e-002 -4.787101e-001 -9.879984e-002 5.941191e-002 1.869278e-001 -3.656489e-001
<VARIANCE> 25
 5.059383e+001 3.552333e+001 4.845823e+001 3.577001e+001 4.653378e+001 4.623070e+001 6.367621e+001 5.000163e+001 4.517524e+001 4.129562e+001 3.563251e+001 2.958723e+001 2.101263e+000 2.132426e+000 2.462575e+000 2.222530e+000 2.918641e+000 3.031440e+000 3.276510e+000 3.193434e+000 3.365489e+000 2.800530e+000 2.524971e+000 2.295789e+000 2.678375e+000
<GCONST> 1.038439e+002
<TRANSP> 5
 0.000000e+000 1.000000e+000 0.000000e+000 0.000000e+000 0.000000e+000
 0.000000e+000 3.962324e-001 6.037676e-001 0.000000e+000 0.000000e+000
 0.000000e+000 0.000000e+000 3.857054e-001 6.142946e-001 0.000000e+000
 0.000000e+000 0.000000e+000 0.000000e+000 7.379917e-001 2.620083e-001
 0.000000e+000 0.000000e+000 0.000000e+000 0.000000e+000 0.000000e+000
<ENDHMM>
~h "s"
<BEGINHMM>
<NUMSTATES> 5
<STATE> 2
<MEAN> 25
 -6.009828e+000 5.826608e+000 4.433739e-001 2.471742e+000 4.863792e+000 -4.566624e+000 1.813340e+000 1.340661e+000 1.377280e+000 -6.226524e-001 -1.476414e+000 2.059502e+000 -4.720566e+000 2.019180e+000 -9.788741e-001 9.017982e-001 1.794621e+000 -4.817054e-001 1.849956e+000 7.070369e-001 6.313910e-001 -5.265976e-001 7.305508e-001 8.649977e-001 -6.948261e-001
<VARIANCE> 25
 7.300716e+001 4.729401e+001 4.627290e+001 4.133210e+001 4.957852e+001 4.546444e+001 7.529218e+001 5.459277e+001 4.989268e+001 3.693518e+001 4.057004e+001 3.054788e+001 3.264493e+000 6.024845e+000 4.308240e+000 4.759590e+000 5.319695e+000 4.816615e+000 6.357320e+000 5.888144e+000 4.926938e+000 4.310896e+000 4.142284e+000 3.234246e+000 2.727795e+000
<GCONST> 1.118533e+002
<STATE> 3
<MEAN> 25
 -2.189993e+001 5.565673e+000 -5.509628e+000 1.730708e+000 7.023654e+000 -4.259262e+000 5.311453e+000 3.207261e+000 3.200558e+000 4.825292e-002 2.112829e+000 4.703841e+000 -7.604438e-001 -5.866297e-001 -5.189603e-001 -2.533825e-001 -1.387737e-001 5.270633e-002 7.576841e-002 1.150650e-001 1.730897e-001 1.646230e-001 2.200780e-001 1.912257e-001 -2.615395e-001
<VARIANCE> 25
 1.676823e+001 2.560748e+001 3.482103e+001 3.200652e+001 2.886856e+001 2.996677e+001 5.280701e+001 3.540584e+001 3.582464e+001 2.524923e+001 2.386128e+001 2.284180e+001 2.983422e+000 1.337580e+000 1.824664e+000 1.483650e+000 1.686721e+000 1.757436e+000 1.867898e+000 1.873444e+000 1.917758e+000 1.753465e+000 1.706094e+000 1.457160e+000 9.739879e-001
<GCONST> 9.324627e+001
<STATE> 4
<MEAN> 25
 -1.324255e+001 2.743749e+000 -4.403308e+000 1.369066e+000 4.543844e+000 -3.994494e+000 3.035116e+000 1.880685e+000 3.221018e+000 -5.894356e-001 6.826872e-001 2.838275e+000 3.643558e+000 -1.702763e-001 1.095325e+000 -2.367354e-001 -9.311329e-001 1.156322e-001 -1.377582e+000 -8.644682e-001 -3.468671e-001 -9.347630e-002 -6.979568e-001 -1.049487e+000 8.509205e-002
<VARIANCE> 25
 7.811469e+001 2.969183e+001 3.873117e+001 3.199484e+001 3.520264e+001 4.137027e+001 5.852241e+001 4.087766e+001 3.762217e+001 2.876271e+001 2.803366e+001 2.779882e+001 9.187948e+000 3.620623e+000 4.072183e+000 3.635844e+000 3.481806e+000 3.859854e+000 5.493601e+000 4.589240e+000 4.273517e+000 3.025778e+000 3.169636e+000 3.036736e+000 6.054641e+000
<GCONST> 1.081768e+002
<TRANSP> 5
 0.000000e+000 1.000000e+000 0.000000e+000 0.000000e+000 0.000000e+000
 0.000000e+000 7.098360e-001 2.901640e-001 0.000000e+000 0.000000e+000
 0.000000e+000 0.000000e+000 8.459323e-001 1.540677e-001 0.000000e+000
 0.000000e+000 0.000000e+000 0.000000e+000 7.504599e-001 2.495401e-001
 0.000000e+000 0.000000e+000 0.000000e+000 0.000000e+000 0.000000e+000
<ENDHMM>
~h "t"
<BEGINHMM>
<NUMSTATES> 5
<STATE> 2
<MEAN> 25
 -7.760527e-001 4.157615e+000 -1.453546e+000 2.086432e+000 1.877884e+000 -2.492198e+000 1.123440e+000 -9.994547e-001 2.524002e+000 1.598210e-001 -1.110344e+000 1.648823e-001 -7.385718e-001 2.616305e-001 -2.345852e-001 2.690642e-001 8.494300e-002 2.644666e-002 6.764073e-001 -5.725345e-002 5.470765e-002 -2.440740e-001 1.413958e-001 3.478795e-001 -1.771475e+000
<VARIANCE> 25
 2.848656e+001 2.622956e+001 3.171076e+001 3.036776e+001 3.009390e+001 3.526549e+001 4.254322e+001 3.958907e+001 3.918027e+001 3.168488e+001 2.980283e+001 2.665816e+001 1.727648e+000 2.574124e+000 1.880471e+000 2.398226e+000 2.667686e+000 2.511455e+000 3.040885e+000 2.871443e+000 2.694230e+000 2.477515e+000 2.238713e+000 1.997488e+000 6.171145e+000
<GCONST> 9.991491e+001
<STATE> 3
<MEAN> 25
 -4.469527e+000 3.890218e+000 -1.346885e+000 2.810697e+000 1.880811e+000 -2.738249e+000 3.225258e+000 -1.672050e+000 1.895769e+000 -6.128935e-001 -2.913492e-001 1.881781e+000 -1.845821e+000 -2.030166e+000 -7.939100e-001 -1.047780e+000 3.206021e-001 -3.837187e-001 3.562983e-002 4.869896e-001 6.881677e-003 -1.557852e-001 4.948081e-001 5.388552e-001 4.182209e+000
<VARIANCE> 25
 2.986650e+001 2.807939e+001 2.907125e+001 2.505461e+001 2.746717e+001 3.125646e+001 3.480968e+001 3.508376e+001 3.401641e+001 2.630339e+001 2.583455e+001 2.291655e+001 3.276243e+000 3.376946e+000 3.766489e+000 3.585401e+000 3.609629e+000 3.824954e+000 4.088524e+000 3.964576e+000 4.413791e+000 2.968312e+000 3.340257e+000 2.674684e+000 1.000254e+001
<GCONST> 1.037953e+002
<STATE> 4
<MEAN> 25
 -7.049908e+000 -2.110990e+000 -3.817772e+000 -1.534193e+000 2.097760e+000 -4.298440e+000 1.315066e+000 -1.152383e-001 2.759953e+000 -1.650743e-001 9.043249e-002 1.876335e+000 1.622670e+000 -1.017013e+000 1.388601e-001 -1.506105e+000 -6.012427e-001 6.006572e-002 -2.130165e+000 -1.580985e-003 1.078601e-001 3.189310e-001 -1.406728e-001 -1.167020e+000 5.827889e+000
<VARIANCE> 25
 3.585983e+001 3.044809e+001 2.966769e+001 3.345727e+001 3.303902e+001 4.337187e+001 4.666217e+001 3.420592e+001 3.527192e+001 2.917740e+001 2.740036e+001 2.867643e+001 5.577710e+000 5.169040e+000 5.534954e+000 5.854784e+000 4.794148e+000 6.076280e+000 6.635933e+000 6.576200e+000 6.597555e+000 4.349317e+000 4.652812e+000 4.307498e+000 1.359530e+001
<GCONST> 1.110407e+002
<TRANSP> 5
 0.000000e+000 1.000000e+000 0.000000e+000 0.000000e+000 0.000000e+000
 0.000000e+000 8.259144e-001 1.740856e-001 0.000000e+000 0.000000e+000
 0.000000e+000 0.000000e+000 4.387855e-001 5.612144e-001 0.000000e+000
 0.000000e+000 0.000000e+000 0.000000e+000 5.070792e-001 4.929208e-001
 0.000000e+000 0.000000e+000 0.000000e+000 0.000000e+000 0.000000e+000
<ENDHMM>
~h "u"
<BEGINHMM>
<NUMSTATES> 5
<STATE> 2
<MEAN> 25
 5.661643e+000 4.050261e+000 -1.202861e+000 -3.221371e+000 -3.038415e+000 1.721371e+000 -7.044421e+000 -5.341615e+000 -3.520890e+000 -4.832317e-002 2.856491e+000 1.143255e-002 2.337014e+000 9.837894e-001 -2.398517e-002 -2.406400e+000 -1.881384e+000 2.124285e+000 -1.725642e+000 -1.016715e+000 -1.479462e+000 -1.800388e-003 1.411054e+000 -1.298463e-001 1.378698e+000
<VARIANCE> 25
 2.823436e+001 3.736606e+001 4.470552e+001 7.091763e+001 5.076659e+001 4.997916e+001 8.184839e+001 6.631831e+001 5.137550e+001 4.626911e+001 3.720072e+001 3.221743e+001 4.999000e+000 3.668405e+000 5.075904e+000 6.219874e+000 6.286259e+000 5.488630e+000 7.245350e+000 8.586737e+000 6.438599e+000 5.998332e+000 4.441606e+000 4.052835e+000 4.701818e+000
<GCONST> 1.143955e+002
<STATE> 3
<MEAN> 25
 9.381363e+000 6.078939e+000 -2.154233e+000 -1.047435e+001 -7.216379e+000 8.989506e+000 -8.491683e+000 -5.565501e+000 -6.218485e+000 -2.071383e+000 6.288726e+000 8.133570e-001 2.494120e-001 2.086492e-001 -1.150526e-001 -9.082111e-001 -2.797587e-001 8.622766e-001 1.307021e-002 3.971595e-002 -3.593916e-001 -1.640780e-001 4.087496e-001 2.615148e-001 3.671184e-002
<VARIANCE> 25
 1.138352e+001 3.422534e+001 2.696395e+001 6.301907e+001 4.361375e+001 3.992820e+001 5.977750e+001 8.153385e+001 5.772082e+001 5.805928e+001 4.202186e+001 4.064431e+001 5.686145e-001 2.213467e+000 1.291661e+000 3.138932e+000 2.685894e+000 2.557144e+000 3.496431e+000 4.040717e+000 3.326113e+000 3.613749e+000 2.935063e+000 2.473141e+000 1.480292e+000
<GCONST> 1.019301e+002
<STATE> 4
<MEAN> 25
 8.216490e+000 6.006462e+000 -1.759584e+000 -7.895499e+000 -4.309698e+000 6.053130e+000 -6.181330e+000 -4.970273e+000 -4.986759e+000 -1.492262e-001 4.302660e+000 2.205116e-001 -4.413318e-001 -3.560712e-001 4.020644e-001 1.619444e+000 8.146951e-001 -1.163224e+000 6.215805e-001 -3.703856e-002 9.426316e-001 4.749929e-001 -8.160954e-001 -2.982295e-001 -1.086601e+000
<VARIANCE> 25
 1.622917e+001 4.291674e+001 3.449485e+001 7.202893e+001 5.056708e+001 4.818949e+001 8.963097e+001 7.587928e+001 5.774229e+001 5.772216e+001 4.830858e+001 4.294957e+001 1.159801e+000 2.686664e+000 2.273577e+000 4.086359e+000 3.827559e+000 3.693805e+000 4.953377e+000 4.654650e+000 4.301208e+000 4.348320e+000 3.655310e+000 3.357838e+000 4.005342e+000
<GCONST> 1.086596e+002
<TRANSP> 5
 0.000000e+000 1.000000e+000 0.000000e+000 0.000000e+000 0.000000e+000
 0.000000e+000 5.176936e-001 4.823064e-001 0.000000e+000 0.000000e+000
 0.000000e+000 0.000000e+000 7.159942e-001 2.840058e-001 0.000000e+000
 0.000000e+000 0.000000e+000 0.000000e+000 7.357245e-001 2.642755e-001
 0.000000e+000 0.000000e+000 0.000000e+000 0.000000e+000 0.000000e+000
<ENDHMM>
~h "w"
<BEGINHMM>
<NUMSTATES> 5
<STATE> 2
<MEAN> 25
 8.306341e+000 6.087818e-001 -2.499707e+000 -7.848465e+000 -3.115669e+000 5.794081e+000 -3.621096e+000 -2.247079e+000 -2.358298e+000 1.330778e+000 3.683828e+000 -1.231005e+000 1.432042e+000 1.157959e+000 -9.916251e-002 -1.892544e+000 -1.198358e+000 1.264353e+000 -5.804743e-002 -4.108169e-001 -1.255559e+000 -6.531853e-001 9.068848e-001 8.145688e-001 2.576569e-002
<VARIANCE> 25
 2.390403e+001 6.886967e+001 3.849599e+001 8.216081e+001 4.642856e+001 6.647822e+001 6.837098e+001 5.870929e+001 6.397091e+001 5.377052e+001 5.549239e+001 4.384833e+001 2.645522e+000 2.905598e+000 2.840844e+000 4.424414e+000 4.904339e+000 5.010375e+000 4.481956e+000 5.037471e+000 4.582262e+000 4.154478e+000 4.036644e+000 3.639917e+000 4.571348e+000
<GCONST> 1.117278e+002
<STATE> 3
<MEAN> 25
 1.177028e+001 4.085709e+000 -2.419724e+000 -1.577418e+001 -8.713151e+000 1.065866e+001 -4.586702e+000 -1.019293e+000 -2.827204e+000 -2.989884e+000 4.978462e+000 1.624763e+000 -7.325143e-002 -5.788702e-001 -2.759152e-001 -6.634228e-001 -3.574664e-002 6.466532e-001 -7.480934e-002 -7.995261e-002 2.634330e-001 2.417963e-001 4.323266e-001 7.732712e-002 6.541792e-001
<VARIANCE> 25
 9.670129e+000 3.314973e+001 1.881557e+001 4.745007e+001 4.544796e+001 4.438897e+001 3.779499e+001 4.851226e+001 6.011818e+001 3.862013e+001 3.148607e+001 2.992482e+001 4.953229e-001 3.184187e+000 1.443945e+000 2.876102e+000 2.637832e+000 3.076346e+000 2.314597e+000 2.297851e+000 2.332210e+000 3.390232e+000 2.574039e+000 2.278123e+000 2.179098e+000
<GCONST> 9.849305e+001
<STATE> 4
<MEAN> 25
 8.773841e+000 -4.456399e+000 -6.041558e+000 -1.610497e+001 -2.913230e+000 1.365665e+001 -3.316813e+000 -2.488216e+000 5.767118e-001 2.831265e+000 6.465117e+000 -3.073105e+000 -8.074360e-001 -1.772689e+000 -4.396831e-001 1.152891e+000 1.517843e+000 -5.045721e-001 -2.610902e-001 3.123425e-001 1.356315e+000 9.041956e-001 -1.118393e+000 -2.005645e+000 1.133943e+000
<VARIANCE> 25
 1.059212e+001 3.339860e+001 2.619795e+001 4.688912e+001 3.402622e+001 4.420251e+001 5.052462e+001 4.587975e+001 5.200693e+001 4.685014e+001 3.761834e+001 4.275141e+001 3.234321e-001 1.435727e+000 1.131648e+000 2.211905e+000 2.120188e+000 2.772958e+000 1.844071e+000 2.072051e+000 2.493661e+000 2.218948e+000 2.501980e+000 2.538713e+000 6.560246e-001
<GCONST> 9.557498e+001
<TRANSP> 5
 0.000000e+000 1.000000e+000 0.000000e+000 0.000000e+000 0.000000e+000
 0.000000e+000 6.842067e-001 3.157933e-001 0.000000e+000 0.000000e+000
 0.000000e+000 0.000000e+000 7.702262e-001 2.297738e-001 0.000000e+000
 0.000000e+000 0.000000e+000 0.000000e+000 6.824526e-001 3.175474e-001
 0.000000e+000 0.000000e+000 0.000000e+000 0.000000e+000 0.000000e+000
<ENDHMM>
~h "y"
<BEGINHMM>
<NUMSTATES> 5
<STATE> 2
<MEAN> 25
 5.055865e-001 -7.044753e-001 9.778173e+000 -1.485886e+000 -7.345201e+000 -4.626785e+000 -3.552100e+000 3.517013e+000 -3.039932e+000 -2.272370e+000 2.530009e+000 1.583650e+000 -9.415649e-002 8.965507e-001 2.497993e+000 -2.050397e-002 -1.241658e+000 -3.315568e-001 -1.167378e+000 -5.998162e-001 -1.467951e+000 -3.452084e-001 1.252843e+000 7.139094e-001 4.845913e-001
<VARIANCE> 25
 2.679433e+001 5.998604e+001 7.235354e+001 3.953070e+001 6.223509e+001 5.363968e+001 5.630098e+001 7.254912e+001 6.771148e+001 4.707218e+001 3.894669e+001 3.318245e+001 2.176286e+000 2.812308e+000 4.145059e+000 2.938443e+000 4.023929e+000 3.661457e+000 4.023573e+000 4.630136e+000 4.304076e+000 4.147973e+000 3.095359e+000 2.739616e+000 4.460929e+000
<GCONST> 1.093888e+002
<STATE> 3
<MEAN> 25
 9.411616e-001 1.138540e-001 1.708136e+001 -1.077562e+000 -1.291955e+001 -4.696283e+000 -8.296751e+000 9.753433e-001 -7.221759e+000 -3.010112e+000 6.640635e+000 3.569194e+000 2.722138e-001 -1.070011e+000 -1.120684e+000 -3.905818e-001 -6.067263e-001 -5.618649e-001 2.457877e-001 1.136784e+000 1.081877e+000 5.906131e-001 8.425350e-002 5.202283e-002 9.829024e-001
<VARIANCE> 25
 1.100438e+001 2.699903e+001 4.035641e+001 3.880541e+001 2.790186e+001 3.998737e+001 3.211344e+001 5.223926e+001 5.934769e+001 6.072044e+001 2.938372e+001 3.251492e+001 5.781602e-001 2.085734e+000 3.282892e+000 1.470621e+000 2.158939e+000 1.822315e+000 2.226937e+000 3.838753e+000 3.574024e+000 2.256196e+000 1.663427e+000 1.553848e+000 1.607181e+000
<GCONST> 9.728011e+001
<STATE> 4
<MEAN> 25
 2.720128e+000 -7.692242e+000 6.012622e+000 -5.038767e+000 -1.110442e+001 -6.655213e+000 -2.681705e+000 1.181887e+001 1.111097e+000 -1.541996e+000 1.672931e+000 1.520280e-001 3.661446e-001 -1.336131e+000 -2.382149e+000 -2.966146e-001 1.694809e+000 1.024512e+000 8.467555e-001 1.168540e+000 1.403836e+000 -5.924428e-001 -2.031025e+000 -1.386962e+000 5.435217e-001
<VARIANCE> 25
 8.917356e+000 2.047174e+001 3.002734e+001 2.356772e+001 2.891642e+001 2.924458e+001 4.809411e+001 5.417708e+001 5.134073e+001 3.360226e+001 4.062662e+001 2.728137e+001 2.764317e-001 1.048790e+000 1.941635e+000 1.006589e+000 2.042698e+000 1.622283e+000 2.288113e+000 3.575459e+000 2.200355e+000 2.740966e+000 2.367556e+000 2.102548e+000 3.723790e-001
<GCONST> 9.193114e+001
<TRANSP> 5
 0.000000e+000 1.000000e+000 0.000000e+000 0.000000e+000 0.000000e+000
 0.000000e+000 7.678454e-001 2.321546e-001 0.000000e+000 0.000000e+000
 0.000000e+000 0.000000e+000 7.578083e-001 2.421918e-001 0.000000e+000
 0.000000e+000 0.000000e+000 0.000000e+000 7.171888e-001 2.828112e-001
 0.000000e+000 0.000000e+000 0.000000e+000 0.000000e+000 0.000000e+000
<ENDHMM>
~h "z"
<BEGINHMM>
<NUMSTATES> 5
<STATE> 2
<MEAN> 25
 -1.007336e+000 8.459894e+000 2.304439e+000 5.111905e+000 1.884068e+000 -6.618505e+000 -2.281744e+000 -1.322090e+000 9.249001e-001 -1.036907e+000 -1.985900e+000 1.819580e+000 -2.163478e+000 2.484488e+000 -7.316846e-001 1.147112e+000 1.533511e+000 -4.266015e-001 1.320289e+000 -1.528374e-001 7.328074e-001 -4.030781e-001 1.434320e-001 6.646767e-001 -8.946235e-001
<VARIANCE> 25
 3.629838e+001 4.606604e+001 4.572141e+001 3.358823e+001 4.547600e+001 3.930570e+001 7.705466e+001 5.248202e+001 4.555531e+001 4.599612e+001 3.424760e+001 3.219682e+001 3.150278e+000 4.137808e+000 3.032514e+000 2.929401e+000 3.282359e+000 4.278983e+000 4.490141e+000 6.626177e+000 4.547496e+000 4.119399e+000 3.202254e+000 3.097671e+000 2.979199e+000
<GCONST> 1.082555e+002
<STATE> 3
<MEAN> 25
 -1.185259e+001 1.455537e+001 8.378412e-001 8.383814e+000 6.863164e+000 -6.394690e+000 1.757541e+000 -7.304362e-001 1.120969e+000 -4.837221e-001 -1.922138e-001 4.093757e+000 -1.157712e+000 -2.823788e-001 -3.587062e-002 9.150077e-002 3.234568e-001 1.836889e-001 3.863958e-001 1.087311e-001 -1.288328e-001 1.961674e-002 2.895581e-001 2.598780e-001 7.889320e-002
<VARIANCE> 25
 3.763156e+001 2.814960e+001 3.170812e+001 3.012411e+001 2.588540e+001 3.186166e+001 6.263068e+001 3.141770e+001 3.663560e+001 3.254028e+001 2.104565e+001 2.663447e+001 2.324773e+000 1.879206e+000 1.444270e+000 1.236495e+000 2.069218e+000 1.927991e+000 1.859155e+000 1.917449e+000 1.845776e+000 1.473639e+000 1.501132e+000 1.416978e+000 1.446276e+000
<GCONST> 9.431980e+001
<STATE> 4
<MEAN> 25
 -1.075851e+001 4.556890e+000 -5.267668e-001 2.809353e+000 4.293076e+000 -1.694144e+000 2.042141e+000 1.739184e+000 1.154046e+000 -4.839343e-001 9.655148e-001 4.119670e+000 8.685262e-001 -5.379000e-001 3.647988e-001 -2.981488e-001 -7.109177e-001 -2.946526e-001 -6.279804e-001 -2.375748e-001 4.031142e-002 8.620267e-002 -1.295189e-002 -9.163618e-002 7.253299e-001
<VARIANCE> 25
 6.505339e+001 4.750233e+001 4.766990e+001 2.916200e+001 4.079313e+001 4.394153e+001 4.496884e+001 3.481621e+001 3.193645e+001 2.128068e+001 2.148125e+001 2.065114e+001 5.116541e+000 3.146959e+000 2.539982e+000 2.262565e+000 3.600985e+000 2.521142e+000 3.194651e+000 3.174730e+000 2.447427e+000 1.928927e+000 1.866763e+000 1.818353e+000 2.839050e+000
<GCONST> 1.015518e+002
<TRANSP> 5
 0.000000e+000 1.000000e+000 0.000000e+000 0.000000e+000 0.000000e+000
 0.000000e+000 7.370279e-001 2.629721e-001 0.000000e+000 0.000000e+000
 0.000000e+000 0.000000e+000 7.826407e-001 2.173593e-001 0.000000e+000
 0.000000e+000 0.000000e+000 0.000000e+000 8.594756e-001 1.405244e-001
 0.000000e+000 0.000000e+000 0.000000e+000 0.000000e+000 0.000000e+000
<ENDHMM>
~h "ai"
<BEGINHMM>
<NUMSTATES> 5
<STATE> 2
<MEAN> 25
 5.014089e+000 -1.201363e+001 -3.171080e+000 -5.870774e+000 -1.838617e+000 1.734629e+000 -4.051805e+000 8.347555e+000 4.148953e+000 -1.169698e+000 -4.030625e+000 -6.140492e+000 -2.378660e-001 -7.853914e-001 9.156528e-001 1.132000e-001 -8.872604e-001 -1.066618e+000 7.056045e-001 1.990884e+000 -2.183648e-001 -9.413052e-001 -4.562261e-001 4.588397e-001 5.758579e-001
<VARIANCE> 25
 9.110865e+000 2.076462e+001 4.248086e+001 2.405585e+001 4.857325e+001 7.277416e+001 3.787974e+001 5.328043e+001 4.587003e+001 4.320640e+001 4.704012e+001 2.986104e+001 7.095491e-001 1.811363e+000 1.698210e+000 2.154174e+000 2.967073e+000 4.048125e+000 2.789793e+000 3.723774e+000 2.475296e+000 2.243255e+000 3.044929e+000 2.507365e+000 8.660921e-001
<GCONST> 9.871656e+001
<STATE> 3
<MEAN> 25
 3.400145e+000 -9.150743e+000 6.806382e+000 -5.172421e+000 -1.137545e+001 -7.331441e+000 -1.006084e+000 1.303846e+001 -1.682942e+000 -4.096510e-001 1.890915e+000 -8.766117e-001 -2.798010e-001 9.125525e-001 1.657162e+000 -4.431822e-002 -1.289611e+000 -5.522555e-001 -1.407050e-001 -8.665375e-001 -1.198956e+000 7.183995e-001 1.419022e+000 5.848809e-001 -4.372577e-001
<VARIANCE> 25
 7.258967e+000 1.570438e+001 3.389234e+001 1.874454e+001 2.844138e+001 3.537978e+001 3.587206e+001 4.196693e+001 4.588023e+001 3.383777e+001 4.701259e+001 2.489024e+001 2.246997e-001 9.098417e-001 1.328909e+000 8.562626e-001 1.538039e+000 1.625775e+000 1.977187e+000 2.562515e+000 1.998616e+000 1.826856e+000 1.999677e+000 1.394049e+000 2.308493e-001
<GCONST> 8.771566e+001
<STATE> 4
<MEAN> 25
 1.890783e+000 -9.676443e-001 1.323377e+001 -3.014291e+000 -1.271644e+001 -7.275313e+000 -3.014185e+000 2.773038e+000 -6.297873e+000 1.944143e+000 5.006574e+000 6.246573e-001 8.010287e-003 9.643935e-001 -3.051072e-001 6.980015e-001 9.502258e-001 1.873647e-001 1.689644e-001 -9.218267e-001 9.166572e-002 -2.352858e-001 -4.345410e-001 4.736736e-002 -1.595483e+000
<VARIANCE> 25
 1.212219e+001 3.376345e+001 4.092619e+001 3.642537e+001 3.601520e+001 4.597493e+001 4.208045e+001 6.366924e+001 4.842686e+001 4.446242e+001 3.876594e+001 3.011082e+001 9.734735e-001 1.712676e+000 2.682287e+000 2.089757e+000 2.830924e+000 2.324547e+000 2.946417e+000 3.334347e+000 3.471201e+000 2.486283e+000 2.072189e+000 1.702888e+000 2.438386e+000
<GCONST> 1.000223e+002
<TRANSP> 5
 0.000000e+000 1.000000e+000 0.000000e+000 0.000000e+000 0.000000e+000
 0.000000e+000 7.461466e-001 2.538534e-001 0.000000e+000 0.000000e+000
 0.000000e+000 0.000000e+000 8.075451e-001 1.924550e-001 0.000000e+000
 0.000000e+000 0.000000e+000 0.000000e+000 8.478293e-001 1.521707e-001
 0.000000e+000 0.000000e+000 0.000000e+000 0.000000e+000 0.000000e+000
<ENDHMM>
~h "au"
<BEGINHMM>
<NUMSTATES> 5
<STATE> 2
<MEAN> 25
 6.632407e+000 -5.229864e+000 -7.773218e+000 -9.436249e+000 -4.345367e-001 1.129183e+001 -4.760848e+000 -2.572207e+000 7.455414e+000 1.289939e+000 1.260065e-001 -7.428483e+000 1.678848e-001 1.366888e-001 -3.396361e-001 -6.368644e-001 -1.993882e-002 1.081955e+000 -8.359759e-002 -4.030557e-001 -2.058245e-002 -1.699227e-001 7.472969e-001 -2.527966e-002 1.045647e-002
<VARIANCE> 25
 8.688502e+000 2.225364e+001 1.967204e+001 2.572414e+001 2.842837e+001 3.608613e+001 3.362256e+001 4.023567e+001 2.512658e+001 2.914750e+001 3.077846e+001 1.982922e+001 5.380362e-001 9.445069e-001 9.596094e-001 1.315510e+000 1.573006e+000 2.268606e+000 1.654410e+000 2.058816e+000 1.743924e+000 1.903417e+000 2.577395e+000 1.434024e+000 4.928250e-001
<GCONST> 8.844482e+001
<STATE> 3
<MEAN> 25
 8.306702e+000 -8.384362e-001 -7.526940e+000 -1.717570e+001 -3.836980e+000 1.559471e+001 -4.584036e+000 -3.070346e+000 2.957766e+000 -7.258186e-001 6.334052e+000 -2.355871e+000 3.370567e-001 1.006257e+000 2.736772e-001 -4.488065e-001 -6.288680e-001 -7.805426e-002 -1.135977e-001 1.180528e-001 -8.283662e-001 -3.878248e-001 4.772983e-001 9.187964e-001 -6.448434e-001
<VARIANCE> 25
 8.778831e+000 2.196914e+001 1.630786e+001 3.209238e+001 3.078943e+001 2.382309e+001 4.240566e+001 3.373043e+001 3.230528e+001 3.635817e+001 2.526231e+001 3.675514e+001 2.151248e-001 9.896675e-001 4.943481e-001 1.145944e+000 1.112118e+000 1.219750e+000 1.248279e+000 1.210850e+000 1.484649e+000 1.900096e+000 1.573157e+000 1.690446e+000 3.221022e-001
<GCONST> 8.472001e+001
<STATE> 4
<MEAN> 25
 7.150906e+000 5.513373e+000 -3.820401e+000 -1.040557e+001 -4.105028e+000 7.302217e+000 -3.746682e+000 -1.448178e+000 -2.282350e+000 -1.292088e+000 4.019846e+000 4.619182e-001 -2.690224e-001 1.693555e-001 3.674887e-001 1.453325e+000 3.800360e-001 -9.577370e-001 8.780877e-002 -1.117207e-001 -1.865344e-001 1.761838e-001 -4.707592e-001 -5.233555e-002 -1.087164e+000
<VARIANCE> 25
 3.722947e+001 3.180797e+001 2.917563e+001 1.073971e+002 5.345114e+001 5.202943e+001 7.330396e+001 5.482016e+001 4.881868e+001 5.742530e+001 3.866977e+001 3.806236e+001 8.536023e-001 1.883218e+000 1.584354e+000 3.438390e+000 2.509017e+000 2.974863e+000 3.476800e+000 2.962270e+000 3.122772e+000 3.082291e+000 2.516029e+000 2.505175e+000 1.480981e+000
<GCONST> 1.035459e+002
<TRANSP> 5
 0.000000e+000 1.000000e+000 0.000000e+000 0.000000e+000 0.000000e+000
 0.000000e+000 8.352440e-001 1.647560e-001 0.000000e+000 0.000000e+000
 0.000000e+000 0.000000e+000 8.482819e-001 1.517181e-001 0.000000e+000
 0.000000e+000 0.000000e+000 0.000000e+000 8.621465e-001 1.378534e-001
 0.000000e+000 0.000000e+000 0.000000e+000 0.000000e+000 0.000000e+000
<ENDHMM>
~h "kh"
<BEGINHMM>
<NUMSTATES> 5
<STATE> 2
<MEAN> 25
 -2.137883e+000 6.697704e-001 -3.630514e+000 2.794490e-001 4.733306e+000 1.180701e+000 3.529117e+000 4.139988e-001 8.123415e-001 5.955361e-001 -6.564307e-001 1.355582e+000 -1.445803e+000 -4.168040e-001 -1.211275e+000 -2.417099e-002 1.215882e+000 -3.900212e-001 3.104960e-001 3.071812e-001 2.196567e-001 1.341017e-001 7.215955e-002 5.245631e-001 3.261160e-002
<VARIANCE> 25
 4.947269e+001 4.509018e+001 6.100541e+001 5.826522e+001 6.552112e+001 7.446161e+001 5.050522e+001 4.558755e+001 6.406499e+001 4.936308e+001 4.703239e+001 3.314211e+001 4.501747e+000 5.579741e+000 6.350576e+000 5.082471e+000 6.666803e+000 5.342100e+000 5.865759e+000 4.502113e+000 5.090173e+000 3.930076e+000 3.865114e+000 3.001534e+000 8.289368e+000
<GCONST> 1.145845e+002
<STATE> 3
<MEAN> 25
 -8.485980e+000 -5.306494e+000 -1.121135e+001 -2.746822e+000 1.063026e+001 3.300986e-002 1.210519e+000 2.780535e+000 2.983272e+000 2.725914e+000 1.075960e+000 2.539452e+000 -3.023208e-001 -2.774978e-001 -2.925191e-001 -2.299573e-001 -1.802554e-001 2.350624e-001 2.398663e-001 -2.154179e-003 -5.353869e-002 -1.686877e-002 2.915079e-001 2.470795e-002 9.464024e-002
<VARIANCE> 25
 2.425867e+001 3.513312e+001 4.656198e+001 5.436506e+001 5.519753e+001 5.909365e+001 5.991423e+001 4.259439e+001 4.945240e+001 3.872995e+001 3.387800e+001 4.073357e+001 1.627803e+000 2.134776e+000 2.845799e+000 2.756373e+000 3.340831e+000 3.348355e+000 3.264403e+000 2.912231e+000 2.757762e+000 2.941895e+000 2.471512e+000 2.470176e+000 1.759108e+000
<GCONST> 1.036929e+002
<STATE> 4
<MEAN> 25
 -5.110404e+000 1.889060e-001 -4.798166e+000 1.687450e+000 3.744106e+000 1.808923e+000 4.584284e+000 6.575588e-001 1.036853e+000 -1.062695e+000 1.346807e+000 1.969337e+000 4.135346e-001 2.457489e-001 3.015253e-001 -4.031816e-002 -2.550343e-001 6.733476e-002 -1.235500e-002 -1.974865e-001 -1.143369e-001 -9.721069e-002 -7.351017e-002 -1.684396e-001 1.197300e-001
<VARIANCE> 25
 2.901866e+001 4.083935e+001 4.231984e+001 3.516077e+001 3.536650e+001 3.576373e+001 3.369959e+001 3.238421e+001 3.582008e+001 3.050788e+001 2.096865e+001 2.406313e+001 2.270190e+000 1.629792e+000 1.997035e+000 1.904974e+000 1.823088e+000 2.024760e+000 2.223999e+000 2.425164e+000 2.213711e+000 1.960340e+000 1.816981e+000 1.836368e+000 1.811389e+000
<GCONST> 9.659024e+001
<TRANSP> 5
 0.000000e+000 1.000000e+000 0.000000e+000 0.000000e+000 0.000000e+000
 0.000000e+000 7.687592e-001 2.312409e-001 0.000000e+000 0.000000e+000
 0.000000e+000 0.000000e+000 7.951436e-001 2.048564e-001 0.000000e+000
 0.000000e+000 0.000000e+000 0.000000e+000 8.857082e-001 1.142919e-001
 0.000000e+000 0.000000e+000 0.000000e+000 0.000000e+000 0.000000e+000
<ENDHMM>
~h "ng"
<BEGINHMM>
<NUMSTATES> 5
<STATE> 2
<MEAN> 25
 7.554285e+000 -2.228329e+000 4.559820e-001 -2.571647e+000 -2.805995e+000 3.541297e+000 -6.806301e-001 -1.018567e+000 -5.173095e+000 3.822966e+000 -2.652708e+000 -6.354807e+000 5.003450e-001 1.323223e+000 1.574524e+000 1.192292e+000 -1.560242e+000 -2.301455e-001 1.716661e+000 -2.683074e+000 -1.002280e+000 8.600420e-001 -1.240735e+000 1.784391e+000 -1.470405e+000
<VARIANCE> 25
 8.954775e+000 3.240444e+001 3.287958e+001 3.675990e+001 5.172417e+001 5.157122e+001 5.300794e+001 6.175035e+001 4.822735e+001 4.778729e+001 4.479743e+001 5.110692e+001 5.909985e-001 1.721000e+000 2.642622e+000 2.689908e+000 3.464136e+000 3.301432e+000 4.618510e+000 4.329397e+000 5.987206e+000 3.474442e+000 4.794141e+000 4.436210e+000 6.876485e-001
<GCONST> 1.033042e+002
<STATE> 3
<MEAN> 25
 8.327884e+000 2.441876e-001 6.025805e+000 -1.330043e+000 -7.008937e+000 3.908000e+000 6.506606e-001 -6.623679e+000 -5.698652e+000 3.724359e+000 -4.447619e+000 -7.851194e-001 8.243074e-002 4.861110e-001 5.812145e-001 4.144839e-001 -2.737784e-001 -1.221837e-001 2.493695e-001 -6.575129e-001 -1.570167e-001 4.993606e-002 -1.416075e-001 5.347105e-001 -5.727220e-001
<VARIANCE> 25
 7.457198e+000 1.958794e+001 2.494857e+001 4.220786e+001 3.466772e+001 4.198207e+001 5.097781e+001 4.249803e+001 4.085082e+001 3.491479e+001 3.874887e+001 3.518323e+001 2.885922e-001 8.891433e-001 1.305320e+000 1.380345e+000 1.635426e+000 1.524286e+000 1.912923e+000 1.883473e+000 1.879131e+000 1.725308e+000 1.735662e+000 1.650901e+000 4.816516e-001
<GCONST> 9.025697e+001
<STATE> 4
<MEAN> 25
 5.594450e+000 2.870045e+000 3.845383e+000 1.415795e+000 -2.927745e+000 2.332716e+000 3.496285e+000 -5.789013e+000 -5.346721e+000 2.242232e+000 -4.164523e+000 -9.251189e-002 -5.731982e-001 3.124217e-001 -6.040223e-001 3.550014e-001 9.403976e-001 -3.219457e-001 8.684690e-002 5.445531e-001 1.997349e-001 -3.168697e-001 2.096924e-001 -3.352180e-001 -7.720335e-001
<VARIANCE> 25
 2.771757e+001 2.402188e+001 3.608756e+001 4.528586e+001 6.664452e+001 3.657908e+001 5.390359e+001 5.670549e+001 5.015141e+001 4.402091e+001 4.562493e+001 3.702022e+001 9.735880e-001 1.818263e+000 1.992397e+000 2.526420e+000 3.165580e+000 2.725333e+000 2.889354e+000 3.445634e+000 3.040335e+000 2.615772e+000 2.581805e+000 2.615054e+000 2.774918e+000
<GCONST> 1.024467e+002
<TRANSP> 5
 0.000000e+000 1.000000e+000 0.000000e+000 0.000000e+000 0.000000e+000
 0.000000e+000 5.593070e-001 4.406930e-001 0.000000e+000 0.000000e+000
 0.000000e+000 0.000000e+000 7.347980e-001 2.652020e-001 0.000000e+000
 0.000000e+000 0.000000e+000 0.000000e+000 7.214630e-001 2.785370e-001
 0.000000e+000 0.000000e+000 0.000000e+000 0.000000e+000 0.000000e+000
<ENDHMM>
~h "ny"
<BEGINHMM>
<NUMSTATES> 5
<STATE> 2
<MEAN> 25
 5.528900e+000 3.960006e+000 8.120979e+000 1.256390e+000 -5.946505e+000 -3.275033e+000 -2.110168e+000 -2.106480e+000 -7.255790e+000 -2.389524e+000 2.344656e+000 1.318795e+000 -2.452512e-001 -2.030912e-001 5.452937e-001 -6.698074e-001 -5.348700e-001 2.103767e-001 5.617297e-002 5.393473e-001 -2.030122e-001 -2.637940e-001 3.595893e-001 3.978856e-002 5.355453e-001
<VARIANCE> 25
 1.684989e+001 2.784906e+001 3.338129e+001 5.967324e+001 3.730144e+001 3.768028e+001 4.323712e+001 7.175626e+001 4.850438e+001 5.011337e+001 4.919623e+001 5.034631e+001 2.253904e+000 5.232977e+000 3.298270e+000 5.873692e+000 3.887494e+000 3.554805e+000 4.337177e+000 1.134484e+001 5.342760e+000 4.504497e+000 4.282415e+000 3.196129e+000 3.766006e+000
<GCONST> 1.096706e+002
<STATE> 3
<MEAN> 25
 2.937475e+000 -7.245509e+000 7.448558e+000 -4.785750e+000 -8.930760e+000 -1.567266e+000 -1.210320e+000 1.144764e+001 -2.706244e+000 -6.304363e+000 -1.130764e+000 -5.402715e-001 2.465003e-001 -1.836117e+000 -1.709398e+000 3.458853e-001 1.026554e+000 3.388346e-001 -5.783095e-002 1.310840e+000 1.408178e+000 -6.638688e-001 -1.552742e+000 -4.671027e-001 6.484376e-001
<VARIANCE> 25
 8.204466e+000 2.240912e+001 3.323073e+001 2.605152e+001 4.062184e+001 2.673334e+001 2.838084e+001 3.926523e+001 5.228689e+001 3.676093e+001 3.694823e+001 2.446060e+001 2.943959e-001 1.421845e+000 1.160275e+000 1.135482e+000 2.271302e+000 1.399253e+000 1.848402e+000 3.307310e+000 1.803510e+000 2.400603e+000 1.673477e+000 1.922116e+000 5.719067e-001
<GCONST> 9.074525e+001
<STATE> 4
<MEAN> 25
 7.854552e-001 -4.542995e+000 -1.592662e+000 1.862160e+000 2.960930e+000 9.974641e-001 1.074919e+000 6.594429e+000 1.447933e-001 -4.388253e+000 -3.677756e+000 4.544026e-001 -8.072013e-002 8.439315e-002 -4.910857e-001 2.060377e-001 5.643111e-001 1.840322e-001 3.780838e-003 -3.853562e-001 1.894705e-001 1.812840e-001 -8.165965e-002 -8.163814e-002 -7.379830e-001
<VARIANCE> 25
 1.933265e+001 4.354251e+001 2.568528e+001 3.312413e+001 5.101480e+001 2.468839e+001 3.616030e+001 6.034067e+001 4.273648e+001 4.296673e+001 3.237795e+001 3.079988e+001 4.920030e-001 1.119374e+000 1.322979e+000 1.463049e+000 1.957907e+000 1.435584e+000 1.828143e+000 1.832644e+000 1.848356e+000 1.826087e+000 1.668967e+000 1.634817e+000 1.220683e+000
<GCONST> 9.340157e+001
<TRANSP> 5
 0.000000e+000 1.000000e+000 0.000000e+000 0.000000e+000 0.000000e+000
 0.000000e+000 8.761399e-001 1.238602e-001 0.000000e+000 0.000000e+000
 0.000000e+000 0.000000e+000 7.547325e-001 2.452676e-001 0.000000e+000
 0.000000e+000 0.000000e+000 0.000000e+000 8.290859e-001 1.709141e-001
 0.000000e+000 0.000000e+000 0.000000e+000 0.000000e+000 0.000000e+000
<ENDHMM>
~h "oi"
<BEGINHMM>
<NUMSTATES> 5
<STATE> 2
<MEAN> 25
 8.912887e+000 -2.825282e+000 -7.783731e+000 -1.476252e+001 -7.065285e+000 1.315148e+001 -3.879992e+000 -4.330461e+000 3.516231e+000 2.146162e-001 4.516286e+000 2.499610e-001 -7.483277e-002 -5.525296e-001 1.471326e-001 -6.133649e-001 -1.156173e-001 2.568394e-002 -7.211082e-001 1.169762e-001 2.316779e-001 9.510785e-001 3.254358e-002 -9.519726e-001 8.978906e-001
<VARIANCE> 25
 1.226144e+001 3.644984e+001 3.106894e+001 6.007007e+001 4.085636e+001 4.854473e+001 6.022657e+001 3.652721e+001 4.338903e+001 4.413955e+001 4.239774e+001 5.469324e+001 1.359554e+000 1.339433e+000 1.364728e+000 7.136331e+000 4.230744e+000 6.095777e+000 3.331595e+000 2.534818e+000 3.224661e+000 4.025376e+000 3.341637e+000 3.061767e+000 1.229131e+000
<GCONST> 1.035305e+002
<STATE> 3
<MEAN> 25
 4.012737e+000 -6.609591e+000 3.585629e+000 -5.052647e+000 -9.030436e+000 -7.314614e+000 -9.024002e+000 5.639589e+000 -2.716764e-001 5.387274e+000 1.776219e+000 -3.790581e+000 -7.158774e-001 3.603436e-001 2.633925e+000 1.452533e+000 -1.587823e+000 -2.462352e+000 3.796827e-001 6.935440e-001 -1.846737e+000 -7.977445e-001 3.904747e-001 1.012174e+000 -3.802395e-001
<VARIANCE> 25
 7.816687e+000 2.478416e+001 8.243152e+001 3.366041e+001 4.938051e+001 7.201279e+001 2.831660e+001 6.557502e+001 6.364897e+001 4.268033e+001 4.883506e+001 4.178142e+001 4.043337e-001 9.925308e-001 1.723619e+000 2.353063e+000 2.753170e+000 5.496827e+000 2.339370e+000 5.975792e+000 4.378006e+000 2.723230e+000 4.131838e+000 3.212472e+000 3.100691e-001
<GCONST> 1.001076e+002
<STATE> 4
<MEAN> 25
 -1.022230e+000 1.297985e+000 9.790102e+000 1.667940e+000 -7.961054e+000 -6.528344e+000 -1.567760e+000 -1.457057e+000 -6.358007e+000 -4.651120e-002 1.848257e+000 1.120532e+000 -6.920148e-002 3.988754e-001 -4.367736e-001 2.612740e-001 7.367839e-001 3.197740e-001 2.367441e-001 -3.375836e-001 2.844656e-001 -2.266598e-001 -4.299238e-001 7.325514e-003 -1.117370e+000
<VARIANCE> 25
 2.049959e+001 3.231850e+001 7.800234e+001 3.075949e+001 7.079906e+001 7.407534e+001 5.347110e+001 7.312957e+001 6.101804e+001 3.679915e+001 3.962573e+001 3.617963e+001 9.210369e-001 1.684930e+000 3.060156e+000 1.828767e+000 2.429423e+000 2.376070e+000 2.552756e+000 3.412541e+000 3.119336e+000 2.255547e+000 2.110031e+000 2.217470e+000 1.417534e+000
<GCONST> 1.019691e+002
<TRANSP> 5
 0.000000e+000 1.000000e+000 0.000000e+000 0.000000e+000 0.000000e+000
 0.000000e+000 9.024667e-001 9.753329e-002 0.000000e+000 0.000000e+000
 0.000000e+000 0.000000e+000 8.603531e-001 1.396470e-001 0.000000e+000
 0.000000e+000 0.000000e+000 0.000000e+000 9.147606e-001 8.523932e-002
 0.000000e+000 0.000000e+000 0.000000e+000 0.000000e+000 0.000000e+000
<ENDHMM>
~h "sy"
<BEGINHMM>
<NUMSTATES> 5
<STATE> 2
<MEAN> 25
 -7.448789e+000 4.065854e+000 3.414831e+000 2.072219e+000 2.756897e+000 -2.691889e+000 2.957683e+000 1.053466e+000 9.110565e-001 -2.435386e+000 -1.257870e+000 2.992729e+000 -3.843564e+000 6.531446e-001 -7.846902e-002 7.127711e-002 7.778961e-001 3.837155e-001 1.085091e+000 3.320007e-001 6.573744e-001 -2.814971e-001 9.065318e-001 4.742402e-001 -2.279361e-002
<VARIANCE> 25
 7.973885e+001 4.001432e+001 5.534266e+001 3.268189e+001 4.536798e+001 5.349698e+001 4.929363e+001 4.593068e+001 4.077898e+001 3.468640e+001 3.388734e+001 2.836762e+001 5.600198e+000 5.506918e+000 4.213519e+000 4.034528e+000 5.038448e+000 4.664161e+000 5.896214e+000 4.733698e+000 4.156144e+000 3.960245e+000 4.202076e+000 3.028732e+000 2.998315e+000
<GCONST> 1.103481e+002
<STATE> 3
<MEAN> 25
 -2.216965e+001 1.427171e+000 1.426281e+000 -1.875455e+000 2.846695e+000 -1.028597e+000 5.237962e+000 2.494762e+000 3.130894e+000 7.576276e-002 4.057959e+000 4.955420e+000 -3.688449e-001 -5.661443e-001 -1.083731e-001 -3.203868e-001 -4.086972e-001 -3.600162e-003 7.590089e-002 -2.692800e-002 2.288426e-001 2.831516e-001 2.153602e-001 1.473489e-001 1.887115e-001
<VARIANCE> 25
 2.687643e+001 2.607706e+001 3.294857e+001 2.250943e+001 4.478271e+001 3.616151e+001 3.987360e+001 3.248432e+001 3.369142e+001 2.286198e+001 1.862532e+001 1.855515e+001 1.792464e+000 9.330553e-001 1.180129e+000 1.258220e+000 1.457978e+000 1.650896e+000 1.599061e+000 1.632519e+000 1.489475e+000 1.561572e+000 1.519848e+000 1.338225e+000 6.689020e-001
<GCONST> 9.005589e+001
<STATE> 4
<MEAN> 25
 -1.159958e+001 -3.031599e-001 5.764658e+000 -1.014345e+000 -4.250463e+000 -4.258883e+000 2.034182e+000 5.302715e-001 2.381977e+000 -2.038813e+000 2.660239e+000 4.086464e+000 4.843169e+000 -3.609631e-001 1.004154e+000 9.688585e-002 -1.317671e+000 -1.277684e+000 -1.843439e+000 4.029402e-001 -5.801183e-001 -5.830102e-001 -8.300210e-001 -6.444315e-001 1.172428e+000
<VARIANCE> 25
 1.084911e+002 2.705142e+001 5.329235e+001 2.898536e+001 6.020036e+001 4.624542e+001 5.388544e+001 3.947220e+001 4.066121e+001 2.649719e+001 2.914965e+001 1.676942e+001 6.466365e+000 4.151510e+000 4.845223e+000 3.229004e+000 5.821780e+000 3.512376e+000 4.760443e+000 5.341111e+000 4.881074e+000 3.292670e+000 3.837061e+000 2.457901e+000 2.397094e+000
<GCONST> 1.082316e+002
<TRANSP> 5
 0.000000e+000 1.000000e+000 0.000000e+000 0.000000e+000 0.000000e+000
 0.000000e+000 7.862924e-001 2.137076e-001 0.000000e+000 0.000000e+000
 0.000000e+000 0.000000e+000 8.822480e-001 1.177520e-001 0.000000e+000
 0.000000e+000 0.000000e+000 0.000000e+000 7.640556e-001 2.359444e-001
 0.000000e+000 0.000000e+000 0.000000e+000 0.000000e+000 0.000000e+000
<ENDHMM>
~h "sil"
<BEGINHMM>
<NUMSTATES> 5
<STATE> 2
<MEAN> 25
 -3.754128e+000 3.176729e+000 -1.636670e+000 3.961684e+000 4.162948e+000 -2.533210e-002 3.542387e+000 3.181135e+000 -9.794892e-001 -1.725663e-002 1.008366e+000 1.819407e+000 -2.878469e-002 2.276457e-002 -9.687809e-003 1.025237e-003 -1.201412e-002 -1.719973e-002 -5.238471e-003 -1.147574e-002 8.028977e-003 1.289139e-002 1.570347e-002 -2.243510e-003 -5.270229e-002
<VARIANCE> 25
 5.231584e+000 1.875529e+001 1.457822e+001 1.793698e+001 2.028097e+001 1.921736e+001 2.645157e+001 3.175792e+001 2.161929e+001 2.163567e+001 1.852759e+001 1.827422e+001 2.455123e-001 6.077600e-001 6.818911e-001 1.065837e+000 1.159457e+000 1.410874e+000 1.462669e+000 1.894238e+000 1.625566e+000 1.677498e+000 1.490000e+000 1.466805e+000 2.623236e-001
<GCONST> 8.050771e+001
<STATE> 3
<MEAN> 25
 -6.095135e+000 2.963294e+000 -3.553196e+000 3.287038e+000 3.743032e+000 -1.362749e+000 5.909235e+000 -1.026477e+000 1.873423e+000 -6.600469e-001 3.182449e-001 3.068078e+000 -1.430479e-002 1.285779e-002 5.410003e-003 1.621777e-003 -3.189625e-003 -1.408987e-003 3.816909e-003 2.012482e-003 8.055296e-003 2.194609e-002 9.305662e-003 -3.237506e-003 -1.926333e-002
<VARIANCE> 25
 9.323751e+000 8.710309e+000 9.216549e+000 1.631730e+001 1.531345e+001 1.916251e+001 1.904072e+001 1.831683e+001 2.111028e+001 2.075863e+001 1.816882e+001 1.492320e+001 1.630225e-001 3.277625e-001 4.888607e-001 6.892936e-001 9.061663e-001 1.111423e+000 1.254661e+000 1.367312e+000 1.421451e+000 1.416967e+000 1.347623e+000 1.218558e+000 8.760878e-002
<GCONST> 7.386972e+001
<STATE> 4
<MEAN> 25
 -7.161243e+000 1.459227e+000 -2.779513e+000 4.548049e+000 4.657078e+000 -1.336791e+000 5.532343e+000 5.694714e-001 1.568864e+000 -1.178748e-001 9.244897e-001 3.640677e+000 7.084000e-003 -1.678763e-003 1.993240e-002 -8.198753e-003 9.404957e-003 -7.541570e-003 -1.692398e-002 -1.437439e-002 -1.227739e-002 2.542016e-003 -2.320789e-002 -1.848119e-002 1.169414e-001
<VARIANCE> 25
 1.672347e+001 2.473607e+001 1.935303e+001 3.081582e+001 2.689737e+001 3.127430e+001 3.200332e+001 3.824370e+001 2.660077e+001 2.798715e+001 2.173939e+001 2.222289e+001 1.042278e+000 1.565334e+000 1.386257e+000 1.838652e+000 1.765786e+000 2.210523e+000 2.048668e+000 2.602509e+000 2.059390e+000 2.197834e+000 1.856211e+000 1.732765e+000 2.387894e+000
<GCONST> 9.300967e+001
<TRANSP> 5
 0.000000e+000 1.000000e+000 0.000000e+000 0.000000e+000 0.000000e+000
 0.000000e+000 9.663109e-001 3.368909e-002 0.000000e+000 0.000000e+000
 0.000000e+000 0.000000e+000 9.658163e-001 3.418369e-002 0.000000e+000
 0.000000e+000 0.000000e+000 0.000000e+000 9.530002e-001 4.699972e-002
 0.000000e+000 0.000000e+000 0.000000e+000 0.000000e+000 0.000000e+000
<ENDHMM>
