~o
<STREAMINFO> 1 25
<VECSIZE> 25<NULLD><MFCC_D_N_Z_0><DIAGC>
~h "@"
<BEGINHMM>
<NUMSTATES> 5
<STATE> 2
<MEAN> 25
 3.453146e+000 -5.462331e-001 -2.642340e-001 -1.782162e+000 -1.945395e+000 -2.423868e+000 -4.354352e+000 -1.601752e+000 4.885980e-001 1.684358e+000 6.086844e-001 -1.103437e+000 2.305184e+000 -1.304318e+000 2.788644e-001 -1.821926e+000 -1.625167e+000 5.779757e-001 -2.346390e+000 1.186725e+000 6.189135e-001 8.716118e-001 5.789596e-001 -1.345301e+000 2.940547e+000
<VARIANCE> 25
 3.462625e+001 3.226865e+001 4.444761e+001 5.140864e+001 4.534584e+001 6.815327e+001 6.270802e+001 5.091825e+001 5.424255e+001 3.463023e+001 3.922579e+001 2.950120e+001 7.248986e+000 3.888493e+000 6.809679e+000 5.902719e+000 6.512153e+000 6.657809e+000 7.969307e+000 1.009217e+001 8.697214e+000 5.377900e+000 5.825513e+000 4.472071e+000 6.552827e+000
<GCONST> 1.155712e+002
<STATE> 3
<MEAN> 25
 6.083177e+000 -4.311703e+000 -2.003797e-001 -5.127512e+000 -4.422696e+000 -6.885180e-002 -8.733984e+000 1.720730e+000 1.713380e+000 3.700364e+000 2.100997e+000 -3.482238e+000 1.143736e+000 -1.146158e+000 2.645934e-001 -9.546035e-001 -9.981735e-001 6.998757e-001 -1.364751e+000 1.260499e+000 4.628185e-001 7.722868e-001 3.328554e-001 -9.972084e-001 1.180737e+000
<VARIANCE> 25
 1.599600e+001 3.030402e+001 4.458420e+001 5.282582e+001 4.828028e+001 8.249152e+001 6.115058e+001 6.614872e+001 6.605927e+001 4.459811e+001 5.110273e+001 3.667543e+001 3.218558e+000 2.210101e+000 3.546571e+000 4.076310e+000 4.214832e+000 5.101163e+000 5.442188e+000 7.773489e+000 6.021598e+000 4.588319e+000 4.639741e+000 3.454856e+000 2.327005e+000
<GCONST> 1.103981e+002
<STATE> 4
<MEAN> 25
 5.435638e+000 -4.252719e+000 2.117948e+000 -3.684394e+000 -6.581866e+000 -1.531292e+000 -8.297971e+000 3.626457e+000 1.021423e+000 3.480329e+000 2.440885e+000 -3.828764e+000 9.894407e-002 2.629528e-001 1.741284e-001 3.497995e-001 1.418919e-001 3.720234e-002 3.321995e-001 -2.408534e-001 -1.808533e-001 -4.231644e-002 -1.569738e-001 6.103948e-002 -5.836343e-001
<VARIANCE> 25
 1.653328e+001 3.290698e+001 4.802737e+001 4.464611e+001 5.712213e+001 7.056669e+001 8.458281e+001 7.227468e+001 6.241215e+001 4.886320e+001 4.934147e+001 3.910889e+001 6.960166e-001 1.476020e+000 1.563919e+000 2.067463e+000 2.362525e+000 2.562035e+000 2.775635e+000 3.197690e+000 3.120627e+000 2.472968e+000 2.522472e+000 1.937871e+000 2.071098e+000
<GCONST> 1.020671e+002
<TRANSP> 5
 0.000000e+000 1.000000e+000 0.000000e+000 0.000000e+000 0.000000e+000
 0.000000e+000 2.379808e-001 7.620192e-001 0.000000e+000 0.000000e+000
 0.000000e+000 0.000000e+000 1.479039e-001 8.520961e-001 0.000000e+000
 0.000000e+000 0.000000e+000 0.000000e+000 7.164810e-001 2.835190e-001
 0.000000e+000 0.000000e+000 0.000000e+000 0.000000e+000 0.000000e+000
<ENDHMM>
~h "a"
<BEGINHMM>
<NUMSTATES> 5
<STATE> 2
<MEAN> 25
 4.970821e+000 -8.499552e+000 -3.670645e+000 -6.682954e+000 -1.732123e+000 2.382226e+000 -4.431273e+000 4.965343e+000 4.575829e+000 1.047852e+000 -1.981333e+000 -5.318039e+000 6.378343e-001 -2.110338e+000 -1.144506e+000 -1.173074e+000 5.434284e-001 1.564014e+000 -1.544666e-001 1.488720e+000 9.194630e-001 -5.381305e-001 -1.239381e+000 -1.574099e+000 1.994094e+000
<VARIANCE> 25
 1.654910e+001 2.808469e+001 3.814878e+001 4.144685e+001 5.524547e+001 7.442625e+001 5.209835e+001 7.823819e+001 4.851385e+001 4.606601e+001 4.909929e+001 3.572131e+001 2.727767e+000 2.523218e+000 2.939847e+000 3.582297e+000 4.533886e+000 4.183646e+000 4.992447e+000 6.751826e+000 4.522404e+000 4.224552e+000 4.435845e+000 3.315179e+000 4.194051e+000
<GCONST> 1.090861e+002
<STATE> 3
<MEAN> 25
 4.687282e+000 -1.192042e+001 -5.802192e+000 -7.246728e+000 1.465033e+000 5.700630e+000 -3.164505e+000 5.535255e+000 5.192702e+000 -1.676972e+000 -5.272181e+000 -6.987553e+000 8.278223e-003 -1.497339e-001 -2.371814e-002 9.411608e-002 3.357527e-001 3.004876e-002 1.666929e-001 5.469609e-002 -8.946361e-002 -1.313775e-001 -3.133631e-001 -3.191974e-002 -4.150707e-002
<VARIANCE> 25
 8.726922e+000 1.922324e+001 2.353459e+001 2.352754e+001 3.519052e+001 4.832384e+001 3.428296e+001 5.756282e+001 3.565911e+001 3.577567e+001 3.644133e+001 2.928665e+001 3.230248e-001 7.409282e-001 8.749964e-001 1.031483e+000 1.508088e+000 2.138825e+000 1.607597e+000 2.207361e+000 1.451311e+000 1.638090e+000 1.750774e+000 1.339094e+000 4.468070e-001
<GCONST> 8.835406e+001
<STATE> 4
<MEAN> 25
 4.466394e+000 -7.709303e+000 -4.652605e+000 -5.054573e+000 2.065847e+000 2.371976e+000 -1.830358e+000 4.952106e+000 4.324446e+000 1.596676e-001 -4.600642e+000 -5.243769e+000 -3.110422e-002 1.453193e+000 6.141342e-001 8.721233e-001 -1.072290e-001 -7.458119e-001 1.913697e-001 -5.397268e-001 -4.429161e-001 3.420641e-001 4.195304e-001 5.527502e-001 -2.182442e+000
<VARIANCE> 25
 1.743353e+001 3.210846e+001 2.827275e+001 4.125754e+001 5.293940e+001 5.725069e+001 4.780079e+001 5.950906e+001 4.257151e+001 4.646888e+001 4.639416e+001 3.954208e+001 1.277764e+000 2.250563e+000 2.121204e+000 2.588480e+000 2.980415e+000 3.397560e+000 3.505885e+000 4.170152e+000 3.240413e+000 3.253783e+000 3.110134e+000 2.679210e+000 3.573560e+000
<GCONST> 1.039166e+002
<TRANSP> 5
 0.000000e+000 1.000000e+000 0.000000e+000 0.000000e+000 0.000000e+000
 0.000000e+000 5.591357e-001 4.408644e-001 0.000000e+000 0.000000e+000
 0.000000e+000 0.000000e+000 7.662763e-001 2.337237e-001 0.000000e+000
 0.000000e+000 0.000000e+000 0.000000e+000 7.191464e-001 2.808536e-001
 0.000000e+000 0.000000e+000 0.000000e+000 0.000000e+000 0.000000e+000
<ENDHMM>
~h "b"
<BEGINHMM>
<NUMSTATES> 5
<STATE> 2
<MEAN> 25
 8.712363e+000 8.024656e+000 3.761661e+000 2.951199e+000 1.804768e+000 4.437782e+000 1.452712e+000 -6.223029e+000 -3.625824e+000 -6.810739e-001 1.735201e-001 -1.294689e+000 3.854525e-001 1.341190e+000 3.771052e-001 6.392727e-001 5.968934e-001 2.320852e-001 9.449548e-001 -2.966283e-001 -1.885376e-001 -2.557162e-001 -2.084857e-001 3.552366e-002 -1.323649e+000
<VARIANCE> 25
 3.835846e+001 3.641529e+001 2.687382e+001 3.361512e+001 3.306822e+001 3.321311e+001 4.229586e+001 4.043648e+001 4.507685e+001 2.846581e+001 3.523224e+001 2.745919e+001 2.063366e+000 2.573238e+000 2.098639e+000 2.839800e+000 2.641870e+000 2.821329e+000 3.373039e+000 3.317791e+000 3.409679e+000 2.646113e+000 2.798538e+000 2.121020e+000 4.875043e+000
<GCONST> 1.019159e+002
<STATE> 3
<MEAN> 25
 9.261730e+000 1.021227e+001 4.864402e+000 4.286637e+000 2.744587e+000 4.420456e+000 3.298657e+000 -6.573540e+000 -4.508919e+000 -1.441742e+000 3.791225e-001 -6.125973e-001 -1.256015e+000 -2.205255e+000 -1.493755e+000 -1.190891e+000 -2.978581e-001 -1.046878e+000 -1.627936e+000 7.401980e-001 9.554652e-001 2.854555e-001 1.294123e+000 7.919940e-001 3.484926e+000
<VARIANCE> 25
 2.646518e+001 2.648182e+001 1.927063e+001 2.538091e+001 3.062699e+001 3.294991e+001 2.987351e+001 3.620334e+001 3.781590e+001 2.367928e+001 3.201759e+001 2.419328e+001 1.957934e+000 2.851669e+000 3.414907e+000 5.493274e+000 3.933895e+000 3.780726e+000 3.955922e+000 3.663564e+000 5.106799e+000 3.836410e+000 3.942036e+000 2.820518e+000 4.669029e+000
<GCONST> 1.029938e+002
<STATE> 4
<MEAN> 25
 5.890461e+000 1.361701e+000 -1.331859e+000 -1.884222e+000 2.569050e-002 2.424613e+000 -3.077755e+000 -5.360896e+000 -3.748206e-001 1.900756e+000 5.340425e+000 5.619568e-001 -6.345049e-001 -3.296462e+000 -1.607526e+000 -2.808811e+000 -1.958837e+000 7.014434e-002 -2.807717e+000 1.252551e+000 2.050823e+000 1.362990e+000 7.884901e-001 -9.555433e-001 5.149288e+000
<VARIANCE> 25
 2.522981e+001 2.866294e+001 2.630614e+001 7.851550e+001 3.610616e+001 5.106414e+001 4.384385e+001 3.132724e+001 3.577098e+001 3.954503e+001 3.635597e+001 2.565939e+001 2.516905e+000 4.448697e+000 5.623114e+000 8.094044e+000 4.669415e+000 6.607773e+000 5.879379e+000 7.917772e+000 1.049499e+001 6.642773e+000 5.901152e+000 6.116876e+000 5.442057e+000
<GCONST> 1.120294e+002
<TRANSP> 5
 0.000000e+000 1.000000e+000 0.000000e+000 0.000000e+000 0.000000e+000
 0.000000e+000 7.776416e-001 2.223584e-001 0.000000e+000 0.000000e+000
 0.000000e+000 0.000000e+000 4.340899e-001 5.659100e-001 0.000000e+000
 0.000000e+000 0.000000e+000 0.000000e+000 3.587634e-001 6.412366e-001
 0.000000e+000 0.000000e+000 0.000000e+000 0.000000e+000 0.000000e+000
<ENDHMM>
~h "c"
<BEGINHMM>
<NUMSTATES> 5
<STATE> 2
<MEAN> 25
 -1.492019e+000 5.667301e+000 2.156094e+000 4.237679e+000 7.788655e-001 -4.909277e+000 1.802434e+000 -2.028233e-001 3.767759e-001 -2.101450e+000 -3.811548e-001 2.724139e+000 -1.484137e+000 8.748388e-002 -7.673798e-001 -2.482214e-001 6.044777e-001 1.858509e-001 5.571789e-001 -2.384505e-001 3.160349e-001 8.352632e-002 1.726911e-001 8.896049e-002 -1.445462e+000
<VARIANCE> 25
 2.559966e+001 3.383334e+001 3.715387e+001 2.372557e+001 4.174821e+001 4.538631e+001 4.782229e+001 4.292408e+001 3.987376e+001 3.007894e+001 2.598175e+001 2.408851e+001 4.179716e+000 4.843085e+000 2.805621e+000 2.947740e+000 4.061062e+000 3.090106e+000 3.618288e+000 3.556153e+000 3.289818e+000 2.918332e+000 2.560674e+000 2.434781e+000 9.758736e+000
<GCONST> 1.047699e+002
<STATE> 3
<MEAN> 25
 -1.619298e+001 2.103554e+000 -3.526082e+000 -1.702481e+000 3.848930e+000 -3.472054e+000 3.874293e+000 -9.617230e-001 1.559431e+000 3.145972e-001 2.397267e+000 4.224186e+000 -2.483084e+000 -5.963246e-001 -3.370273e-001 -1.158189e+000 -3.284418e-001 -3.196228e-001 1.951397e-001 4.277968e-001 2.929063e-001 7.712485e-002 5.162019e-001 5.430199e-001 4.127104e+000
<VARIANCE> 25
 3.816040e+001 2.670802e+001 3.021829e+001 3.338655e+001 2.969271e+001 3.933114e+001 4.515420e+001 3.318550e+001 2.731744e+001 2.683429e+001 1.914382e+001 1.717198e+001 6.885843e+000 2.669311e+000 4.298430e+000 3.503386e+000 3.585993e+000 3.642766e+000 3.552902e+000 3.683746e+000 3.062913e+000 2.764671e+000 2.470399e+000 1.855362e+000 6.059021e+000
<GCONST> 1.027829e+002
<STATE> 4
<MEAN> 25
 -1.123217e+001 1.233220e+000 9.529697e-001 -1.290976e+000 -5.900724e-001 -6.130002e+000 1.882772e+000 2.263359e+000 2.584782e+000 -2.149656e+000 3.213293e-001 4.077559e+000 5.567535e+000 -1.290262e+000 1.871680e+000 1.555709e-001 -1.840707e+000 -3.547548e-001 -2.518130e+000 1.095056e+000 2.188851e-001 -5.877593e-001 -1.294838e+000 -1.221957e+000 2.277831e+000
<VARIANCE> 25
 9.057700e+001 2.606220e+001 3.815036e+001 3.174836e+001 3.049839e+001 3.839452e+001 6.936073e+001 3.658221e+001 3.057442e+001 2.784261e+001 2.721330e+001 1.969047e+001 3.557753e+000 5.623685e+000 4.794460e+000 5.630867e+000 3.977662e+000 5.075228e+000 5.808264e+000 8.480834e+000 6.262370e+000 4.296453e+000 3.618701e+000 2.959481e+000 2.714890e+000
<GCONST> 1.086042e+002
<TRANSP> 5
 0.000000e+000 1.000000e+000 0.000000e+000 0.000000e+000 0.000000e+000
 0.000000e+000 8.310094e-001 1.689906e-001 0.000000e+000 0.000000e+000
 0.000000e+000 0.000000e+000 7.358926e-001 2.641073e-001 0.000000e+000
 0.000000e+000 0.000000e+000 0.000000e+000 6.022492e-001 3.977508e-001
 0.000000e+000 0.000000e+000 0.000000e+000 0.000000e+000 0.000000e+000
<ENDHMM>
~h "d"
<BEGINHMM>
<NUMSTATES> 5
<STATE> 2
<MEAN> 25
 4.252090e+000 4.431731e+000 4.835236e+000 6.300440e+000 4.387944e-001 -2.177530e+000 -1.029063e+000 -8.233839e-001 1.699444e+000 -1.823404e+000 -3.243521e+000 -4.069918e-001 4.682782e-001 1.048531e+000 6.356237e-001 8.314646e-001 5.918257e-001 -2.180529e-001 3.257402e-001 -1.711067e-001 2.637070e-001 -2.214249e-001 -3.892274e-001 -8.616299e-002 -1.105780e+000
<VARIANCE> 25
 5.843055e+001 4.567014e+001 4.998769e+001 3.666043e+001 4.247457e+001 3.970105e+001 5.603534e+001 6.299062e+001 4.165788e+001 3.825227e+001 3.756083e+001 3.134373e+001 2.661319e+000 3.422757e+000 2.775850e+000 2.866006e+000 3.546464e+000 2.836479e+000 3.897416e+000 4.850455e+000 3.363760e+000 3.099476e+000 3.135143e+000 2.364171e+000 5.833641e+000
<GCONST> 1.070357e+002
<STATE> 3
<MEAN> 25
 7.823129e+000 7.227569e+000 8.912436e+000 8.982289e+000 1.221545e+000 -3.401210e+000 -1.425228e+000 -1.442348e+000 2.222676e+000 -2.163984e+000 -4.434876e+000 -1.182266e+000 -2.006330e+000 -2.467508e+000 -2.296745e-002 -1.907621e+000 -3.924278e-001 -3.446625e-001 -6.411728e-001 9.509649e-001 -7.965597e-001 -5.862922e-002 1.721302e+000 1.317918e+000 3.687150e+000
<VARIANCE> 25
 2.686426e+001 3.173846e+001 3.267701e+001 2.937080e+001 3.401616e+001 3.847289e+001 4.729911e+001 5.128360e+001 3.687663e+001 3.912354e+001 3.326682e+001 2.911556e+001 2.251608e+000 3.167657e+000 4.022535e+000 3.323334e+000 5.253563e+000 4.405889e+000 5.808220e+000 7.835385e+000 6.053042e+000 4.366403e+000 3.643131e+000 3.215702e+000 4.415516e+000
<GCONST> 1.074205e+002
<STATE> 4
<MEAN> 25
 1.473821e+000 -2.834171e+000 7.064659e+000 1.371564e+000 -2.213050e+000 -4.828098e+000 -4.755450e+000 2.446602e+000 2.857771e-001 -1.561007e+000 1.314165e+000 3.218675e+000 -1.030098e+000 -2.721472e+000 -6.757572e-001 -2.467300e+000 -2.822785e+000 -3.434703e-001 -1.871051e+000 1.942451e+000 4.956034e-002 3.244407e-001 1.597224e+000 3.043562e-001 5.101313e+000
<VARIANCE> 25
 2.053083e+001 2.864178e+001 4.150345e+001 3.299519e+001 5.687495e+001 4.934844e+001 8.895617e+001 5.712130e+001 5.258409e+001 2.974984e+001 2.734299e+001 2.674483e+001 2.948133e+000 3.636101e+000 6.316353e+000 4.597999e+000 5.458732e+000 4.369761e+000 5.998493e+000 1.220263e+001 9.183476e+000 5.055295e+000 5.771819e+000 4.018773e+000 4.259727e+000
<GCONST> 1.116059e+002
<TRANSP> 5
 0.000000e+000 1.000000e+000 0.000000e+000 0.000000e+000 0.000000e+000
 0.000000e+000 7.930301e-001 2.069699e-001 0.000000e+000 0.000000e+000
 0.000000e+000 0.000000e+000 4.094715e-001 5.905285e-001 0.000000e+000
 0.000000e+000 0.000000e+000 0.000000e+000 3.663672e-001 6.336328e-001
 0.000000e+000 0.000000e+000 0.000000e+000 0.000000e+000 0.000000e+000
<ENDHMM>
~h "e"
<BEGINHMM>
<NUMSTATES> 5
<STATE> 2
<MEAN> 25
 2.296725e+000 -3.868464e+000 2.855962e+000 -3.937775e-001 -5.030315e+000 -4.582932e+000 -2.586658e+000 2.662816e+000 2.997500e-001 8.566895e-001 1.358134e+000 -7.895315e-001 7.718524e-001 -1.822344e+000 1.029024e+000 -9.132274e-001 -2.051857e+000 -4.652613e-001 -7.995654e-001 2.082505e+000 -1.704378e-001 -1.347696e-001 2.680837e-001 -3.946810e-001 2.759711e+000
<VARIANCE> 25
 4.414161e+001 5.315295e+001 6.001770e+001 4.744477e+001 5.779493e+001 5.474305e+001 6.894909e+001 7.576495e+001 6.149588e+001 4.302700e+001 4.582968e+001 3.505929e+001 5.239928e+000 4.594141e+000 4.657366e+000 5.604200e+000 6.482531e+000 5.533040e+000 6.669850e+000 9.398332e+000 7.658775e+000 5.433506e+000 5.536876e+000 3.774933e+000 9.030514e+000
<GCONST> 1.166749e+002
<STATE> 3
<MEAN> 25
 4.051609e+000 -6.875309e+000 5.867535e+000 -1.607508e+000 -9.974798e+000 -5.868023e+000 -3.019454e+000 6.793485e+000 -2.533210e-001 5.956683e-002 3.129159e+000 -1.102772e+000 -1.147161e-001 -1.161823e-001 4.686904e-001 -1.810877e-001 -7.300735e-001 -6.887101e-002 3.379349e-001 4.768371e-001 -2.856965e-001 3.003143e-005 2.864325e-001 -2.100673e-002 1.644266e-001
<VARIANCE> 25
 1.958661e+001 4.748993e+001 5.277019e+001 4.508471e+001 5.800066e+001 5.221586e+001 6.395855e+001 8.333669e+001 6.677509e+001 4.333434e+001 5.524884e+001 3.712384e+001 1.516250e+000 2.677854e+000 2.564444e+000 2.803303e+000 4.535754e+000 3.364963e+000 4.329838e+000 4.665956e+000 4.190910e+000 3.174282e+000 3.135610e+000 2.572906e+000 6.534895e+000
<GCONST> 1.084082e+002
<STATE> 4
<MEAN> 25
 2.624746e+000 -6.947989e+000 7.587263e+000 -3.104496e+000 -1.189266e+001 -6.480266e+000 -5.303205e-002 7.732051e+000 -2.097790e+000 5.715241e-001 3.490753e+000 -1.062155e+000 5.420852e-002 3.060227e-001 -2.445004e-001 2.544946e-001 4.819652e-001 7.988927e-002 4.956126e-002 -2.920510e-001 6.074639e-002 4.173875e-002 -3.084733e-001 -6.585986e-002 -4.625598e-001
<VARIANCE> 25
 1.253516e+001 3.864535e+001 5.100533e+001 3.569652e+001 4.691761e+001 4.997018e+001 6.123106e+001 7.131699e+001 5.927612e+001 4.171248e+001 4.524837e+001 3.023695e+001 5.450375e-001 1.081463e+000 1.291991e+000 1.452326e+000 2.025432e+000 1.618002e+000 2.202865e+000 2.098605e+000 1.991920e+000 1.764203e+000 1.748127e+000 1.354953e+000 1.611784e+000
<GCONST> 9.622794e+001
<TRANSP> 5
 0.000000e+000 1.000000e+000 0.000000e+000 0.000000e+000 0.000000e+000
 0.000000e+000 5.237862e-001 4.762138e-001 0.000000e+000 0.000000e+000
 0.000000e+000 0.000000e+000 6.380137e-001 3.619863e-001 0.000000e+000
 0.000000e+000 0.000000e+000 0.000000e+000 8.150969e-001 1.849031e-001
 0.000000e+000 0.000000e+000 0.000000e+000 0.000000e+000 0.000000e+000
<ENDHMM>
~h "f"
<BEGINHMM>
<NUMSTATES> 5
<STATE> 2
<MEAN> 25
 -1.776753e+000 1.301995e+000 -7.565290e-001 3.411628e+000 2.002889e+000 5.655837e-001 2.100676e+000 -7.244417e-001 9.926028e-001 2.612691e-001 5.429537e-001 8.042289e-001 -3.021557e+000 -8.261412e-003 -6.381250e-001 1.286991e+000 7.038328e-001 -6.260046e-001 5.792757e-001 2.661173e-001 8.299624e-001 -8.901805e-002 7.105806e-002 4.893404e-001 -1.242712e+000
<VARIANCE> 25
 5.920062e+001 3.170593e+001 4.014264e+001 5.060542e+001 4.015675e+001 5.533943e+001 4.267818e+001 4.537902e+001 4.161548e+001 3.048569e+001 2.928876e+001 3.170491e+001 4.946487e+000 4.411589e+000 3.621817e+000 5.510126e+000 5.093949e+000 5.892733e+000 5.228978e+000 4.669499e+000 4.252132e+000 3.521348e+000 3.168652e+000 2.945320e+000 3.177197e+000
<GCONST> 1.091246e+002
<STATE> 3
<MEAN> 25
 -1.025673e+001 -1.384796e+000 -4.062639e+000 4.092895e+000 2.624642e+000 -4.747678e-001 2.327633e+000 6.158620e-001 2.418692e+000 -5.546300e-002 1.016333e+000 3.059927e+000 -2.921487e-001 -2.407552e-001 -1.639246e-001 -2.836835e-002 3.347764e-002 2.368189e-002 5.080727e-002 5.515983e-002 2.499950e-002 2.509121e-002 4.815338e-002 4.604329e-002 -2.004692e-001
<VARIANCE> 25
 3.197164e+001 2.372289e+001 1.919398e+001 1.883903e+001 2.414971e+001 2.754089e+001 2.800974e+001 2.598929e+001 2.642603e+001 2.453259e+001 1.869445e+001 1.743169e+001 1.349301e+000 1.093505e+000 1.275073e+000 1.289336e+000 1.399386e+000 1.601099e+000 1.654007e+000 1.718538e+000 1.733346e+000 1.720730e+000 1.542106e+000 1.421711e+000 1.018064e+000
<GCONST> 8.845303e+001
<STATE> 4
<MEAN> 25
 -9.013070e+000 -2.063568e+000 -4.189688e+000 3.396465e+000 2.912541e+000 -6.321529e-001 2.992358e+000 3.015832e-001 2.148420e+000 4.138272e-001 1.234740e+000 2.409353e+000 3.187627e+000 5.401260e-001 4.287863e-001 -1.219710e+000 -7.334173e-001 5.163261e-001 -5.775747e-001 -3.729055e-001 -6.538044e-001 -2.742921e-001 -7.731773e-002 -7.913599e-001 1.222019e+000
<VARIANCE> 25
 5.257510e+001 2.811818e+001 3.242529e+001 3.583045e+001 3.310887e+001 4.024823e+001 3.216235e+001 3.460988e+001 3.172114e+001 2.486517e+001 2.237147e+001 2.003744e+001 7.913465e+000 4.123281e+000 4.414421e+000 6.522939e+000 4.269581e+000 5.590034e+000 4.354096e+000 4.005618e+000 3.909200e+000 3.173739e+000 2.786513e+000 2.712316e+000 6.244754e+000
<GCONST> 1.065383e+002
<TRANSP> 5
 0.000000e+000 1.000000e+000 0.000000e+000 0.000000e+000 0.000000e+000
 0.000000e+000 7.394792e-001 2.605208e-001 0.000000e+000 0.000000e+000
 0.000000e+000 0.000000e+000 8.945986e-001 1.054014e-001 0.000000e+000
 0.000000e+000 0.000000e+000 0.000000e+000 6.786276e-001 3.213724e-001
 0.000000e+000 0.000000e+000 0.000000e+000 0.000000e+000 0.000000e+000
<ENDHMM>
~h "g"
<BEGINHMM>
<NUMSTATES> 5
<STATE> 2
<MEAN> 25
 8.086405e+000 5.381995e+000 6.842505e+000 4.509660e+000 -1.933899e+000 -4.282347e+000 -1.316188e+000 -1.733923e+000 -4.314676e+000 2.344909e+000 -1.087226e-001 -2.849170e+000 4.133523e-001 1.676017e+000 7.519737e-001 1.236386e+000 4.518098e-001 -4.209715e-001 1.048060e+000 -6.584529e-001 1.879227e-002 -4.406343e-001 -2.649679e-001 1.339356e-001 -2.284547e+000
<VARIANCE> 25
 1.963460e+001 4.908849e+001 4.020357e+001 3.853597e+001 5.622919e+001 5.598777e+001 5.831128e+001 6.095002e+001 5.364187e+001 4.518069e+001 3.927371e+001 3.085221e+001 2.098503e+000 2.567156e+000 3.436477e+000 3.190203e+000 4.396088e+000 4.056301e+000 4.185120e+000 4.644226e+000 5.513377e+000 3.556572e+000 3.054440e+000 2.800744e+000 4.877132e+000
<GCONST> 1.079203e+002
<STATE> 3
<MEAN> 25
 4.084064e+000 6.383686e+000 4.974732e+000 7.043090e+000 2.077252e+000 -3.944941e+000 1.724947e+000 -2.559374e+000 -2.760920e+000 1.213130e+000 -1.453333e+000 1.545817e-001 -2.359821e+000 -2.211453e+000 -2.042522e+000 -6.491845e-001 1.675231e+000 -6.096143e-001 -6.819918e-001 1.008991e+000 7.073442e-002 1.381940e-001 2.107169e-002 1.357007e+000 3.087685e+000
<VARIANCE> 25
 4.150467e+001 5.399205e+001 6.161234e+001 3.362224e+001 6.515876e+001 5.104537e+001 4.308400e+001 4.076085e+001 4.490877e+001 3.213356e+001 2.778945e+001 3.031351e+001 2.334266e+000 4.120774e+000 6.327717e+000 4.437358e+000 6.821310e+000 5.534969e+000 4.715253e+000 5.598634e+000 5.162188e+000 3.860107e+000 3.791489e+000 3.316840e+000 5.610230e+000
<GCONST> 1.106404e+002
<STATE> 4
<MEAN> 25
 2.585431e-001 -4.695631e-001 6.964439e-001 1.960485e+000 2.167202e-001 -7.228308e+000 -2.775508e+000 1.685724e+000 -2.614722e+000 2.872718e+000 1.359115e+000 2.138188e+000 2.342318e-001 -1.068496e+000 3.832453e-001 -2.125320e+000 -2.578110e+000 -2.753342e-002 -1.372920e+000 1.430005e+000 3.600781e-001 3.095495e-001 1.122258e+000 -6.141909e-001 2.912334e+000
<VARIANCE> 25
 2.767372e+001 3.455792e+001 7.669483e+001 3.559644e+001 8.745499e+001 6.345045e+001 6.157330e+001 5.212505e+001 4.641544e+001 3.574150e+001 3.747741e+001 2.751181e+001 2.992597e+000 3.956631e+000 6.304356e+000 4.078598e+000 7.666565e+000 4.920478e+000 4.868925e+000 6.818223e+000 7.016057e+000 4.297656e+000 4.746598e+000 3.760941e+000 4.465888e+000
<GCONST> 1.124058e+002
<TRANSP> 5
 0.000000e+000 1.000000e+000 0.000000e+000 0.000000e+000 0.000000e+000
 0.000000e+000 7.304832e-001 2.695168e-001 0.000000e+000 0.000000e+000
 0.000000e+000 0.000000e+000 5.814083e-001 4.185917e-001 0.000000e+000
 0.000000e+000 0.000000e+000 0.000000e+000 5.312303e-001 4.687697e-001
 0.000000e+000 0.000000e+000 0.000000e+000 0.000000e+000 0.000000e+000
<ENDHMM>
~h "h"
<BEGINHMM>
<NUMSTATES> 5
<STATE> 2
<MEAN> 25
 2.290807e+000 -2.222492e+000 -1.905851e+000 4.201517e-001 6.041182e+000 4.545807e+000 3.363163e+000 2.923465e+000 8.876768e-001 -3.185980e-001 -3.084830e+000 1.717274e-001 -1.141911e+000 3.806284e-001 2.845889e-002 1.657909e+000 2.091288e+000 4.758824e-001 1.742316e+000 6.703056e-002 5.233576e-001 -4.356819e-001 -9.894481e-002 8.999612e-001 -1.272425e+000
<VARIANCE> 25
 1.939414e+001 3.626041e+001 4.518800e+001 4.427032e+001 5.676840e+001 6.517354e+001 5.484250e+001 5.537246e+001 4.376521e+001 4.288247e+001 5.298747e+001 4.326801e+001 1.795574e+000 3.614682e+000 3.325210e+000 3.816870e+000 3.912622e+000 3.972908e+000 5.128894e+000 4.640353e+000 4.020187e+000 3.474500e+000 3.876734e+000 3.632423e+000 2.393638e+000
<GCONST> 1.080923e+002
<STATE> 3
<MEAN> 25
 -1.734082e+000 -3.950012e+000 -2.474875e+000 2.508459e+000 8.294391e+000 3.544555e+000 5.978358e+000 3.535125e+000 2.110325e+000 -1.149671e+000 -2.681887e+000 1.260061e+000 -4.971337e-001 -1.180210e-001 -2.708883e-001 -6.828202e-002 -1.599220e-001 -2.886461e-001 -3.549634e-002 -1.768720e-001 6.509846e-002 -2.609856e-002 2.224853e-001 1.095791e-001 -1.023534e+000
<VARIANCE> 25
 3.029003e+001 3.876092e+001 4.395928e+001 4.287518e+001 6.419465e+001 5.670711e+001 6.065176e+001 5.269663e+001 4.608257e+001 4.315281e+001 3.969665e+001 3.983405e+001 2.088092e+000 2.886836e+000 2.765227e+000 2.741612e+000 3.252128e+000 3.295254e+000 3.519808e+000 3.699113e+000 3.191149e+000 2.865314e+000 2.891112e+000 2.486225e+000 4.002317e+000
<GCONST> 1.061201e+002
<STATE> 4
<MEAN> 25
 -3.635769e+000 -3.637793e+000 -5.059484e+000 1.538208e+000 5.539089e+000 2.644618e+000 3.523912e+000 1.227571e+000 1.792794e+000 -1.889831e+000 -8.011492e-001 1.572762e+000 1.685022e-001 2.773356e-001 6.843215e-002 -6.745295e-002 -3.008323e-001 -4.644525e-002 -1.112222e-001 -1.637006e-001 -9.745223e-002 5.339293e-002 2.411352e-002 -1.052969e-001 -1.695544e-001
<VARIANCE> 25
 2.292627e+001 5.097810e+001 3.281866e+001 2.790544e+001 4.394056e+001 3.940026e+001 3.910117e+001 3.197193e+001 3.165668e+001 2.955221e+001 2.681955e+001 2.542918e+001 1.395067e+000 1.778496e+000 1.574129e+000 1.540249e+000 1.917556e+000 1.988667e+000 2.181883e+000 2.103964e+000 2.074496e+000 2.035057e+000 1.912000e+000 1.829546e+000 1.806253e+000
<GCONST> 9.572478e+001
<TRANSP> 5
 0.000000e+000 1.000000e+000 0.000000e+000 0.000000e+000 0.000000e+000
 0.000000e+000 4.767443e-001 5.232557e-001 0.000000e+000 0.000000e+000
 0.000000e+000 0.000000e+000 6.543315e-001 3.456685e-001 0.000000e+000
 0.000000e+000 0.000000e+000 0.000000e+000 8.227326e-001 1.772674e-001
 0.000000e+000 0.000000e+000 0.000000e+000 0.000000e+000 0.000000e+000
<ENDHMM>
~h "i"
<BEGINHMM>
<NUMSTATES> 5
<STATE> 2
<MEAN> 25
 -2.548031e-001 1.321135e+000 1.327517e+001 2.426224e+000 -8.791859e+000 -5.831817e+000 -3.308544e+000 -2.421685e+000 -7.166024e+000 -2.104820e+000 3.516045e+000 9.449981e-001 7.529863e-001 -8.169065e-002 3.036946e+000 -5.659497e-001 -2.967880e+000 3.118304e-001 -1.720004e+000 -3.023871e-001 -2.052433e+000 -1.781365e-001 1.251657e+000 -3.883775e-001 1.799676e+000
<VARIANCE> 25
 2.962562e+001 3.723814e+001 5.089151e+001 4.048131e+001 5.056973e+001 4.459275e+001 5.541108e+001 6.032621e+001 5.165105e+001 3.770973e+001 3.333961e+001 3.134300e+001 5.831174e+000 3.278929e+000 5.228189e+000 5.027033e+000 4.839151e+000 5.325792e+000 6.592193e+000 6.800541e+000 6.828848e+000 5.229261e+000 3.533928e+000 3.831622e+000 4.428228e+000
<GCONST> 1.118860e+002
<STATE> 3
<MEAN> 25
 2.900328e-001 2.025386e+000 1.888902e+001 -7.630259e-001 -1.386634e+001 -2.309401e+000 -7.038648e+000 -3.710718e+000 -1.016337e+001 -1.274380e+000 5.384460e+000 -4.304474e-001 8.485164e-002 3.888430e-002 -1.665593e-002 -1.411105e-001 -1.840442e-001 7.989170e-002 -1.850143e-002 3.415113e-002 1.605940e-002 1.934776e-001 5.367867e-002 -2.645277e-002 -3.382449e-002
<VARIANCE> 25
 1.224969e+001 2.815401e+001 3.651223e+001 4.463659e+001 2.865466e+001 4.388285e+001 3.198711e+001 6.070420e+001 4.702702e+001 5.063637e+001 3.381155e+001 3.746893e+001 5.397094e-001 1.194211e+000 1.551791e+000 1.378714e+000 1.658845e+000 1.983141e+000 1.798489e+000 2.386019e+000 1.814720e+000 1.631620e+000 1.373426e+000 1.252416e+000 8.349529e-001
<GCONST> 9.323041e+001
<STATE> 4
<MEAN> 25
 1.003414e+000 3.133784e+000 1.279860e+001 1.971545e+000 -8.644340e+000 -4.339739e+000 -1.899899e+000 -2.532290e+000 -6.023881e+000 -7.357824e-001 3.163388e+000 7.748564e-001 1.876380e-001 4.115574e-001 -1.744812e+000 6.480333e-001 1.655276e+000 -2.449339e-001 1.005216e+000 1.657785e-001 1.189918e+000 -3.244134e-002 -7.664617e-001 1.857628e-001 -1.985003e+000
<VARIANCE> 25
 2.077668e+001 3.614277e+001 4.836119e+001 3.885497e+001 5.665587e+001 5.975689e+001 5.291637e+001 5.638580e+001 5.033255e+001 4.342624e+001 3.784591e+001 3.360421e+001 2.171294e+000 2.923793e+000 2.798200e+000 3.065200e+000 3.903435e+000 3.862664e+000 4.345934e+000 4.884524e+000 4.522299e+000 3.631758e+000 3.067396e+000 2.627812e+000 4.372108e+000
<GCONST> 1.071996e+002
<TRANSP> 5
 0.000000e+000 1.000000e+000 0.000000e+000 0.000000e+000 0.000000e+000
 0.000000e+000 6.248333e-001 3.751667e-001 0.000000e+000 0.000000e+000
 0.000000e+000 0.000000e+000 7.865380e-001 2.134620e-001 0.000000e+000
 0.000000e+000 0.000000e+000 0.000000e+000 7.662042e-001 2.337958e-001
 0.000000e+000 0.000000e+000 0.000000e+000 0.000000e+000 0.000000e+000
<ENDHMM>
~h "j"
<BEGINHMM>
<NUMSTATES> 5
<STATE> 2
<MEAN> 25
 3.225621e+000 7.980277e+000 8.302355e+000 5.861479e+000 -1.524775e+000 -3.567039e+000 3.588957e-001 6.656306e-001 -1.028592e+000 -3.471662e+000 1.613643e-001 1.686791e+000 -2.621136e-001 1.318128e+000 2.590623e-001 3.344420e-001 8.260669e-001 1.015510e-001 9.624768e-001 -2.007770e-002 4.778012e-001 -1.918334e-002 -2.209916e-001 -4.946046e-002 -1.349100e+000
<VARIANCE> 25
 3.880099e+001 4.308024e+001 5.037077e+001 2.777107e+001 4.054975e+001 4.857064e+001 4.774076e+001 4.146954e+001 4.369863e+001 3.239542e+001 2.762268e+001 2.507204e+001 4.512995e+000 3.151171e+000 3.033042e+000 2.793054e+000 3.463760e+000 3.102332e+000 3.897795e+000 3.869314e+000 3.886294e+000 3.015618e+000 2.565386e+000 2.359878e+000 6.020648e+000
<GCONST> 1.055205e+002
<STATE> 3
<MEAN> 25
 -7.731372e+000 9.279064e+000 7.085447e+000 3.887825e+000 2.748050e+000 -3.525008e+000 2.449601e+000 -1.550953e+000 -8.374143e-001 -2.099823e+000 1.573696e+000 3.706884e+000 -1.371974e+000 -1.447662e+000 3.919803e-001 -6.885563e-001 -1.369130e+000 -9.852954e-001 -1.188319e+000 -3.660608e-001 -5.545674e-001 -1.253642e-001 8.576975e-001 9.562954e-001 3.628483e+000
<VARIANCE> 25
 5.419977e+001 4.227537e+001 4.727777e+001 2.853062e+001 4.120677e+001 5.087674e+001 3.969010e+001 3.075894e+001 2.708465e+001 2.418268e+001 2.087394e+001 2.016224e+001 1.274701e+001 3.676797e+000 5.390821e+000 4.030012e+000 8.930912e+000 4.525824e+000 4.568036e+000 4.650682e+000 4.050783e+000 2.837006e+000 2.445265e+000 2.481168e+000 3.148840e+000
<GCONST> 1.072458e+002
<STATE> 4
<MEAN> 25
 4.337340e-001 -4.336518e-001 1.071705e+001 3.446813e-001 -1.033954e+001 -8.886295e+000 -6.437160e+000 2.896399e+000 -1.035522e+000 -2.787012e+000 5.155669e+000 5.319995e+000 2.473557e+000 -3.043164e+000 -1.121212e+000 -1.396241e+000 -1.757479e+000 4.412778e-001 -1.653083e+000 2.500885e+000 1.248082e+000 7.460901e-001 -2.282684e-001 -1.382097e+000 1.566194e+000
<VARIANCE> 25
 1.343009e+001 3.074073e+001 2.730684e+001 3.804618e+001 2.771679e+001 2.217332e+001 3.717823e+001 6.040474e+001 5.091793e+001 2.547360e+001 2.284298e+001 2.128504e+001 2.782470e+000 2.847132e+000 5.237015e+000 2.524210e+000 6.692374e+000 3.725195e+000 6.940564e+000 7.190777e+000 6.009132e+000 3.228023e+000 4.256094e+000 2.939301e+000 1.261406e+000
<GCONST> 1.039097e+002
<TRANSP> 5
 0.000000e+000 1.000000e+000 0.000000e+000 0.000000e+000 0.000000e+000
 0.000000e+000 8.281984e-001 1.718015e-001 0.000000e+000 0.000000e+000
 0.000000e+000 0.000000e+000 7.675812e-001 2.324188e-001 0.000000e+000
 0.000000e+000 0.000000e+000 0.000000e+000 6.003524e-001 3.996476e-001
 0.000000e+000 0.000000e+000 0.000000e+000 0.000000e+000 0.000000e+000
<ENDHMM>
~h "k"
<BEGINHMM>
<NUMSTATES> 5
<STATE> 2
<MEAN> 25
 -2.335164e+000 2.748366e+000 -1.822540e+000 2.103647e+000 1.660334e+000 -1.844643e+000 2.667854e+000 -3.965907e-001 7.016397e-001 -2.036069e-002 -4.743991e-001 1.456221e+000 -7.065130e-001 -5.809615e-002 -4.240279e-001 2.289626e-001 2.375164e-001 -3.454259e-002 2.343448e-001 4.029989e-002 2.416648e-001 -1.213080e-001 6.064869e-003 3.092441e-001 -9.830254e-001
<VARIANCE> 25
 2.960823e+001 3.015825e+001 3.106726e+001 2.953104e+001 3.864280e+001 4.176587e+001 3.760732e+001 4.156577e+001 3.785724e+001 3.177876e+001 2.787148e+001 2.601989e+001 1.902844e+000 2.522069e+000 2.456171e+000 2.350577e+000 3.145118e+000 2.996887e+000 3.010616e+000 2.969908e+000 3.147980e+000 2.666245e+000 2.302515e+000 2.078606e+000 5.328119e+000
<GCONST> 1.011050e+002
<STATE> 3
<MEAN> 25
 -5.116439e+000 -2.029413e+000 -6.379733e+000 1.225039e+000 4.598892e+000 -4.084496e+000 1.494155e+000 2.875625e-001 7.675963e-001 1.853537e+000 -9.949324e-001 2.978853e+000 -9.444466e-001 -2.327278e+000 -2.331233e+000 -9.338284e-001 1.526280e+000 -8.868912e-001 -9.966885e-001 8.770797e-001 -6.259307e-002 9.626200e-001 -4.846353e-001 3.438231e-001 4.825691e+000
<VARIANCE> 25
 2.862700e+001 6.289206e+001 6.639645e+001 4.832081e+001 5.842709e+001 5.404128e+001 4.917418e+001 4.634888e+001 4.271767e+001 3.555780e+001 2.850392e+001 2.979023e+001 3.874101e+000 5.038060e+000 6.515336e+000 5.818179e+000 6.432731e+000 5.929614e+000 5.287125e+000 5.245234e+000 4.936385e+000 4.061404e+000 4.045158e+000 3.659783e+000 8.848689e+000
<GCONST> 1.128191e+002
<STATE> 4
<MEAN> 25
 -3.644125e+000 -2.816970e+000 -8.091601e+000 -2.334594e+000 4.896677e+000 -4.811225e+000 -5.016115e-001 2.107125e+000 4.530522e-001 3.291157e+000 -2.174363e+000 8.022205e-001 2.056499e+000 6.326694e-001 1.671427e+000 -9.625777e-001 -1.779643e+000 6.292548e-001 -4.790095e-001 3.986501e-001 -3.697517e-001 -4.569958e-001 2.891952e-001 -1.537476e+000 2.804440e+000
<VARIANCE> 25
 4.102539e+001 3.979089e+001 6.753496e+001 5.440384e+001 5.909641e+001 6.824729e+001 5.202620e+001 5.038641e+001 4.714919e+001 3.691013e+001 3.677144e+001 4.010652e+001 4.664116e+000 4.988509e+000 5.455673e+000 6.067756e+000 5.906881e+000 5.848534e+000 5.573610e+000 5.985407e+000 5.245862e+000 3.968435e+000 4.327567e+000 4.412842e+000 7.952947e+000
<GCONST> 1.142409e+002
<TRANSP> 5
 0.000000e+000 1.000000e+000 0.000000e+000 0.000000e+000 0.000000e+000
 0.000000e+000 7.987137e-001 2.012862e-001 0.000000e+000 0.000000e+000
 0.000000e+000 0.000000e+000 5.844007e-001 4.155993e-001 0.000000e+000
 0.000000e+000 0.000000e+000 0.000000e+000 5.488833e-001 4.511168e-001
 0.000000e+000 0.000000e+000 0.000000e+000 0.000000e+000 0.000000e+000
<ENDHMM>
~h "l"
<BEGINHMM>
<NUMSTATES> 5
<STATE> 2
<MEAN> 25
 6.692885e+000 -4.918292e+000 1.235614e+000 -5.836542e+000 -2.406961e+000 1.691062e+000 -8.844374e+000 -4.154656e+000 3.315197e+000 4.487581e+000 1.255761e+000 -2.873399e+000 5.868744e-001 2.264789e-001 7.265093e-001 -6.425827e-001 8.014064e-001 -1.893855e-002 -1.529686e+000 -1.540075e+000 -3.250971e-003 1.175664e+000 4.371725e-001 -3.167359e-001 -4.429664e-001
<VARIANCE> 25
 1.527561e+001 2.656455e+001 5.090349e+001 6.644507e+001 5.417896e+001 6.868906e+001 7.308352e+001 1.048445e+002 6.009241e+001 5.127019e+001 4.957094e+001 4.355395e+001 1.123367e+000 2.037200e+000 2.967375e+000 4.958502e+000 5.477234e+000 6.373794e+000 5.329206e+000 6.235432e+000 4.944030e+000 4.474693e+000 4.915769e+000 3.653324e+000 1.380234e+000
<GCONST> 1.098353e+002
<STATE> 3
<MEAN> 25
 7.830550e+000 -4.189878e+000 2.101952e+000 -8.718137e+000 -1.251232e+000 3.544967e+000 -1.104916e+001 -6.233830e+000 2.566421e+000 6.672359e+000 2.817523e+000 -3.868575e+000 -3.021425e-002 2.121287e-001 1.092187e-002 -1.814402e-001 3.039792e-001 -1.822933e-002 -2.096461e-001 -2.973680e-002 -7.221354e-002 -2.532365e-002 4.655780e-002 6.141515e-002 -1.521840e-001
<VARIANCE> 25
 1.108266e+001 2.170314e+001 4.593454e+001 7.202595e+001 5.203886e+001 5.652153e+001 7.338690e+001 8.058096e+001 5.897519e+001 4.968780e+001 4.500346e+001 4.160632e+001 4.105170e-001 9.893462e-001 1.872089e+000 2.554177e+000 1.772527e+000 2.595593e+000 2.618951e+000 3.421901e+000 2.552141e+000 2.426955e+000 2.353733e+000 1.874336e+000 6.949500e-001
<GCONST> 9.905033e+001
<STATE> 4
<MEAN> 25
 4.100085e+000 -1.345936e+000 -2.068022e-001 -4.192086e+000 8.764887e-001 1.867313e+000 -5.295075e+000 -3.766962e+000 1.692830e+000 2.507110e+000 6.765246e-001 -1.369422e+000 -5.409354e-001 -5.566917e-003 -3.334998e-001 6.300099e-001 -1.713806e-001 -1.842693e-001 9.253951e-001 8.295277e-001 6.926502e-002 -6.971150e-001 -5.098295e-001 1.906994e-001 -3.407809e-001
<VARIANCE> 25
 3.800870e+001 3.671143e+001 6.720512e+001 7.786324e+001 6.429765e+001 6.079275e+001 1.057726e+002 8.023228e+001 5.702803e+001 5.943319e+001 5.116937e+001 4.402835e+001 1.405486e+000 2.818677e+000 3.275527e+000 4.487186e+000 4.243936e+000 4.831140e+000 4.980763e+000 6.036283e+000 4.612560e+000 4.221118e+000 4.381125e+000 3.139133e+000 4.058702e+000
<GCONST> 1.123954e+002
<TRANSP> 5
 0.000000e+000 1.000000e+000 0.000000e+000 0.000000e+000 0.000000e+000
 0.000000e+000 4.329081e-001 5.670920e-001 0.000000e+000 0.000000e+000
 0.000000e+000 0.000000e+000 6.334028e-001 3.665971e-001 0.000000e+000
 0.000000e+000 0.000000e+000 0.000000e+000 6.262943e-001 3.737058e-001
 0.000000e+000 0.000000e+000 0.000000e+000 0.000000e+000 0.000000e+000
<ENDHMM>
~h "m"
<BEGINHMM>
<NUMSTATES> 5
<STATE> 2
<MEAN> 25
 8.250913e+000 -9.441527e-001 2.107174e+000 -2.525163e-002 -1.104545e+000 4.703324e+000 -5.235986e-001 -7.178689e+000 -7.320349e+000 8.857671e-001 6.230471e-001 -2.317595e+000 4.519359e-001 1.219464e+000 1.888943e+000 2.177128e+000 2.880738e-001 -2.663825e-002 9.878037e-001 -3.133204e+000 -3.079414e+000 -7.808182e-002 -6.042163e-001 8.602302e-001 -8.485813e-001
<VARIANCE> 25
 1.896740e+001 3.798416e+001 3.626873e+001 6.383934e+001 3.860910e+001 5.228660e+001 6.050481e+001 7.119393e+001 5.993228e+001 4.134224e+001 4.801995e+001 4.384325e+001 2.103435e+000 2.486955e+000 3.293480e+000 4.166574e+000 3.414292e+000 3.859917e+000 5.781792e+000 4.965629e+000 5.749053e+000 4.391255e+000 6.301066e+000 4.525752e+000 4.586763e+000
<GCONST> 1.100317e+002
<STATE> 3
<MEAN> 25
 8.056531e+000 7.389935e-001 6.735640e+000 3.458262e+000 -7.258294e-001 5.160047e+000 -2.748250e-001 -1.185824e+001 -1.256516e+001 3.119169e-001 -1.529725e+000 -1.283672e-001 -4.480205e-002 1.686345e-001 1.852737e-001 1.529699e-001 6.709694e-002 9.434646e-002 2.177557e-001 -1.981299e-001 -2.684575e-001 -1.945001e-001 -2.198724e-001 1.927135e-001 -5.910772e-002
<VARIANCE> 25
 9.046831e+000 2.221969e+001 2.423040e+001 4.019902e+001 3.796972e+001 5.806158e+001 6.848612e+001 4.886606e+001 4.336686e+001 5.520153e+001 5.344837e+001 4.522585e+001 3.867520e-001 9.600304e-001 9.340395e-001 1.400292e+000 1.406291e+000 1.512512e+000 1.609866e+000 1.813687e+000 2.161947e+000 1.745552e+000 2.064029e+000 1.492035e+000 1.148327e+000
<GCONST> 9.321196e+001
<STATE> 4
<MEAN> 25
 6.758815e+000 1.445874e+000 4.233140e+000 2.389413e+000 -5.893866e-001 4.287959e+000 1.987629e+000 -9.794018e+000 -9.692135e+000 -7.478039e-001 -1.754864e+000 1.282832e-001 -9.985134e-002 -4.260924e-001 -1.502922e+000 -1.478088e+000 -3.205208e-001 2.728638e-002 -4.064695e-001 1.889513e+000 1.933058e+000 1.468492e-001 7.722765e-001 -7.887803e-001 5.844565e-001
<VARIANCE> 25
 2.082992e+001 2.630981e+001 3.558400e+001 4.660162e+001 4.717576e+001 4.753963e+001 6.044816e+001 5.828129e+001 6.077135e+001 4.025095e+001 5.101191e+001 4.103230e+001 9.145106e-001 2.423006e+000 3.331046e+000 4.634055e+000 2.798844e+000 3.291702e+000 4.238258e+000 4.388124e+000 5.391120e+000 3.560080e+000 4.294069e+000 3.699219e+000 3.804357e+000
<GCONST> 1.067300e+002
<TRANSP> 5
 0.000000e+000 1.000000e+000 0.000000e+000 0.000000e+000 0.000000e+000
 0.000000e+000 5.968999e-001 4.031001e-001 0.000000e+000 0.000000e+000
 0.000000e+000 0.000000e+000 7.459729e-001 2.540271e-001 0.000000e+000
 0.000000e+000 0.000000e+000 0.000000e+000 5.970805e-001 4.029195e-001
 0.000000e+000 0.000000e+000 0.000000e+000 0.000000e+000 0.000000e+000
<ENDHMM>
~h "n"
<BEGINHMM>
<NUMSTATES> 5
<STATE> 2
<MEAN> 25
 7.346529e+000 -3.644454e+000 4.121363e+000 1.672291e+000 -3.088614e+000 -2.081891e+000 -4.506320e+000 -1.358656e+000 -1.868633e-001 2.019435e+000 -5.300732e+000 -3.519341e+000 5.940174e-001 2.267795e+000 1.964764e+000 2.292958e+000 -5.231605e-001 -9.208313e-001 6.772164e-001 -4.408734e+000 -8.110211e-001 1.116051e+000 -6.809728e-001 1.008477e+000 -2.189867e+000
<VARIANCE> 25
 9.070602e+000 3.466600e+001 3.544500e+001 4.165474e+001 4.073612e+001 4.482764e+001 5.071966e+001 1.185201e+002 5.065498e+001 4.800531e+001 3.787395e+001 3.564097e+001 6.452284e-001 1.787807e+000 3.577336e+000 2.557509e+000 3.357357e+000 4.756680e+000 5.791304e+000 5.917093e+000 6.353494e+000 5.657854e+000 5.507200e+000 2.989121e+000 8.666824e-001
<GCONST> 1.051120e+002
<STATE> 3
<MEAN> 25
 8.258219e+000 1.022020e+000 8.657989e+000 5.203774e+000 -4.632060e+000 -2.486840e+000 -2.732412e+000 -1.023287e+001 -3.078474e+000 3.959027e+000 -5.580384e+000 -5.315465e-001 5.730321e-002 6.328266e-001 1.000110e-001 3.340635e-001 4.493603e-002 1.412687e-001 3.391875e-001 -5.027525e-001 -3.814203e-001 2.951185e-002 2.945339e-002 3.450882e-001 -6.506879e-001
<VARIANCE> 25
 8.528258e+000 1.731066e+001 2.152044e+001 3.051577e+001 3.519294e+001 4.519907e+001 5.765408e+001 5.107793e+001 4.664683e+001 4.986017e+001 4.466282e+001 3.533824e+001 3.233645e-001 9.693343e-001 1.113244e+000 1.075308e+000 1.394046e+000 1.508171e+000 1.857988e+000 2.477731e+000 1.947839e+000 1.827064e+000 1.818910e+000 1.516182e+000 6.616880e-001
<GCONST> 9.106515e+001
<STATE> 4
<MEAN> 25
 3.008760e+000 3.503431e+000 4.260691e+000 6.003596e+000 3.170388e-001 -1.283454e+000 1.256449e+000 -5.732348e+000 -2.083169e+000 8.523222e-001 -4.308566e+000 9.323365e-001 -7.695492e-001 1.554267e-001 -6.471900e-001 -2.270858e-001 6.908057e-001 1.683647e-001 1.664749e-001 8.994554e-001 1.991754e-001 -5.923070e-001 4.486359e-001 -8.425511e-002 -9.900695e-001
<VARIANCE> 25
 4.119056e+001 3.097745e+001 3.975828e+001 3.149897e+001 5.148289e+001 3.625284e+001 5.630784e+001 7.278962e+001 5.297643e+001 4.943381e+001 4.864216e+001 3.343351e+001 1.664336e+000 2.660171e+000 2.384636e+000 2.645297e+000 3.440515e+000 3.091764e+000 4.079038e+000 4.565844e+000 3.714198e+000 3.396237e+000 3.001947e+000 2.539050e+000 4.083943e+000
<GCONST> 1.059373e+002
<TRANSP> 5
 0.000000e+000 1.000000e+000 0.000000e+000 0.000000e+000 0.000000e+000
 0.000000e+000 6.206441e-001 3.793558e-001 0.000000e+000 0.000000e+000
 0.000000e+000 0.000000e+000 7.450823e-001 2.549177e-001 0.000000e+000
 0.000000e+000 0.000000e+000 0.000000e+000 7.409371e-001 2.590629e-001
 0.000000e+000 0.000000e+000 0.000000e+000 0.000000e+000 0.000000e+000
<ENDHMM>
~h "o"
<BEGINHMM>
<NUMSTATES> 5
<STATE> 2
<MEAN> 25
 6.637635e+000 1.534252e-001 -5.319139e+000 -9.846427e+000 -3.658321e+000 6.293628e+000 -4.641111e+000 -2.506805e+000 4.997516e-001 1.738244e+000 3.891010e+000 -3.851250e-001 1.748013e+000 -4.246339e-001 -5.339842e-001 -3.128896e+000 -1.389087e+000 2.646120e+000 -7.053243e-001 1.244140e-001 1.131056e-001 1.012144e-001 1.222370e+000 -4.448317e-001 1.986782e+000
<VARIANCE> 25
 2.527932e+001 3.459931e+001 4.035736e+001 8.333073e+001 5.200128e+001 5.552886e+001 7.727670e+001 5.919574e+001 5.887729e+001 5.734103e+001 4.375828e+001 3.410360e+001 4.318536e+000 3.122272e+000 5.396671e+000 6.177777e+000 7.003197e+000 5.343277e+000 5.957484e+000 7.249891e+000 5.761721e+000 5.726539e+000 4.531402e+000 4.074079e+000 4.451015e+000
<GCONST> 1.140715e+002
<STATE> 3
<MEAN> 25
 8.703322e+000 -8.313434e-001 -5.987328e+000 -1.709275e+001 -5.542969e+000 1.297950e+001 -4.308107e+000 -1.562742e+000 7.220484e-001 -1.616649e-001 6.139408e+000 -3.716435e-001 8.648328e-002 -5.395038e-002 -1.129546e-001 -5.168943e-001 5.728666e-002 5.003058e-001 1.764808e-001 1.022648e-001 -6.468040e-002 -1.522666e-001 1.436085e-001 9.248514e-002 7.677491e-002
<VARIANCE> 25
 1.099683e+001 2.911509e+001 2.466844e+001 4.954617e+001 4.704188e+001 3.711459e+001 5.591322e+001 5.259508e+001 4.921013e+001 6.150150e+001 3.286832e+001 3.784513e+001 3.138965e-001 1.098927e+000 8.805121e-001 1.972719e+000 1.468304e+000 1.875196e+000 2.023235e+000 1.903592e+000 2.181293e+000 2.408931e+000 1.642058e+000 1.575512e+000 7.222705e-001
<GCONST> 9.355022e+001
<STATE> 4
<MEAN> 25
 7.185073e+000 8.721600e-001 -5.832082e+000 -1.268972e+001 -2.949850e+000 8.953455e+000 -2.385063e+000 -1.799489e+000 3.704211e-001 1.049081e+000 4.205286e+000 -1.170469e-001 -3.644495e-001 1.292427e-001 3.945175e-001 1.892956e+000 5.897428e-001 -1.368809e+000 2.479250e-001 -1.605193e-001 2.134589e-001 2.952615e-001 -8.095131e-001 -1.984846e-001 -1.448012e+000
<VARIANCE> 25
 1.924220e+001 4.142869e+001 2.760016e+001 6.665543e+001 5.100883e+001 4.808564e+001 7.981039e+001 5.607725e+001 5.347996e+001 5.861180e+001 4.095792e+001 4.353770e+001 1.082483e+000 2.387306e+000 1.944523e+000 3.737892e+000 3.328554e+000 3.519498e+000 4.242134e+000 3.760010e+000 3.811972e+000 4.085371e+000 2.986901e+000 2.842405e+000 3.700429e+000
<GCONST> 1.062493e+002
<TRANSP> 5
 0.000000e+000 1.000000e+000 0.000000e+000 0.000000e+000 0.000000e+000
 0.000000e+000 5.930008e-001 4.069992e-001 0.000000e+000 0.000000e+000
 0.000000e+000 0.000000e+000 7.807472e-001 2.192528e-001 0.000000e+000
 0.000000e+000 0.000000e+000 0.000000e+000 7.652767e-001 2.347234e-001
 0.000000e+000 0.000000e+000 0.000000e+000 0.000000e+000 0.000000e+000
<ENDHMM>
~h "p"
<BEGINHMM>
<NUMSTATES> 5
<STATE> 2
<MEAN> 25
 -5.681413e-001 4.658974e+000 -1.812447e+000 1.964560e+000 2.001368e+000 3.523715e-001 3.096628e+000 -2.277812e+000 7.577581e-001 -2.926804e-001 1.110614e-002 8.621219e-001 -9.959357e-001 1.072601e-001 -2.211482e-001 3.515666e-001 1.216871e-001 -3.897827e-001 3.338957e-001 2.359146e-001 2.937299e-001 -1.613213e-001 -3.945593e-003 3.269770e-001 -1.155352e+000
<VARIANCE> 25
 3.751823e+001 2.255883e+001 2.838450e+001 3.081355e+001 2.641436e+001 3.414415e+001 3.143882e+001 3.557030e+001 3.616113e+001 2.774144e+001 2.393150e+001 2.680220e+001 1.649088e+000 1.801283e+000 1.682276e+000 1.988574e+000 2.018277e+000 2.386014e+000 2.333508e+000 2.290868e+000 2.628687e+000 2.197091e+000 2.007192e+000 1.839655e+000 4.705671e+000
<GCONST> 9.681349e+001
<STATE> 3
<MEAN> 25
 -3.781674e+000 4.284862e+000 -1.572828e+000 3.099007e+000 2.282814e+000 -1.140022e+000 3.725165e+000 -1.826320e+000 1.011072e+000 -6.490618e-001 1.235951e-001 1.723151e+000 -2.094076e-001 -1.957376e+000 -7.992223e-001 -8.361322e-001 -2.987014e-001 -2.398122e-001 -7.330660e-001 1.182369e-001 2.346533e-001 -1.406235e-002 6.882854e-001 1.427492e-001 5.149008e+000
<VARIANCE> 25
 1.946143e+001 1.955609e+001 1.951172e+001 2.222275e+001 2.309437e+001 2.630305e+001 3.078499e+001 3.132250e+001 3.052421e+001 2.506367e+001 2.093646e+001 2.080500e+001 4.487292e+000 2.984070e+000 3.530571e+000 4.574718e+000 3.131801e+000 4.361697e+000 3.388978e+000 3.817687e+000 4.242529e+000 3.186711e+000 2.908394e+000 2.652740e+000 6.628556e+000
<GCONST> 1.010480e+002
<STATE> 4
<MEAN> 25
 -2.335559e+000 -1.371709e+000 -4.592453e+000 -5.655758e-001 1.007307e+000 -8.834745e-001 1.671021e+000 -1.920005e+000 1.330421e+000 -3.420258e-001 1.965880e+000 1.532193e+000 2.715988e+000 -1.936420e+000 -7.023695e-001 -2.843673e+000 -1.196186e+000 1.645974e+000 -1.677695e+000 -1.124397e-001 -1.197308e-001 9.537328e-002 7.939183e-001 -1.206319e+000 6.807961e+000
<VARIANCE> 25
 4.169833e+001 2.399666e+001 2.288321e+001 5.033269e+001 2.531699e+001 4.529140e+001 3.055823e+001 2.867277e+001 2.876051e+001 2.373322e+001 2.204008e+001 2.195571e+001 4.769501e+000 6.403451e+000 5.127299e+000 8.681084e+000 4.821756e+000 9.317693e+000 5.595544e+000 6.147673e+000 5.156833e+000 4.654882e+000 4.039629e+000 4.405506e+000 9.827056e+000
<GCONST> 1.093326e+002
<TRANSP> 5
 0.000000e+000 1.000000e+000 0.000000e+000 0.000000e+000 0.000000e+000
 0.000000e+000 8.310561e-001 1.689439e-001 0.000000e+000 0.000000e+000
 0.000000e+000 0.000000e+000 3.128851e-001 6.871148e-001 0.000000e+000
 0.000000e+000 0.000000e+000 0.000000e+000 4.227541e-001 5.772458e-001
 0.000000e+000 0.000000e+000 0.000000e+000 0.000000e+000 0.000000e+000
<ENDHMM>
~h "q"
<BEGINHMM>
<NUMSTATES> 5
<STATE> 2
<MEAN> 25
 -5.871656e+000 5.537828e+000 6.785874e-001 6.514764e+000 -5.296330e-002 -1.597263e+000 3.373304e+000 -5.254928e+000 1.678878e+000 -3.458131e+000 -8.129959e-001 2.291633e+000 -5.937968e-001 -6.661528e-001 -8.258317e-001 -8.003404e-002 8.584569e-001 2.587315e-001 -6.584770e-002 2.880654e-001 5.631182e-001 -8.477801e-002 -2.307408e-001 1.076222e+000 2.495656e-001
<VARIANCE> 25
 1.044475e+001 2.650419e+001 2.152173e+001 8.138016e+000 1.804712e+001 2.034630e+001 1.458780e+001 1.143151e+001 3.243761e+001 1.473526e+001 2.186763e+001 1.636051e+001 1.632714e+000 5.174538e+000 8.663918e+000 1.879431e+000 3.310951e+000 3.957463e+000 2.993592e+000 1.635662e+000 4.796697e+000 3.800227e+000 2.484066e+000 4.041402e+000 5.344860e+000
<GCONST> 9.577891e+001
<STATE> 3
<MEAN> 25
 -1.917110e+000 -1.847429e+000 -2.349713e+000 -1.451306e+000 -7.934420e-001 -6.505575e+000 8.043752e-001 7.305995e-001 -1.998471e+000 -6.024519e-002 5.155594e-001 6.532768e+000 -3.000253e-001 -5.439773e-002 -9.437198e-001 -5.920331e-001 2.908909e-001 5.855033e-001 2.908168e-001 4.042770e-002 -1.257852e-001 -3.199060e-001 -3.291182e-004 7.015598e-002 6.649257e-001
<VARIANCE> 25
 3.044508e+001 5.010132e+001 2.405370e+002 4.171065e+001 7.433079e+001 6.874155e+001 4.355108e+001 5.682440e+001 4.292075e+001 3.296806e+001 4.135579e+001 3.523050e+001 2.788443e+000 5.879399e+000 8.491250e+000 6.146528e+000 6.118435e+000 5.626500e+000 1.179660e+000 4.531994e+000 5.817375e+000 3.306870e+000 3.662564e+000 3.240173e+000 1.223465e+001
<GCONST> 1.132843e+002
<STATE> 4
<MEAN> 25
 -8.147806e+000 2.840675e+000 -5.962481e+000 3.878307e+000 1.148965e+000 1.590251e+000 6.145193e+000 -4.922822e+000 4.064811e+000 -4.179539e+000 -1.772099e+000 2.379978e+000 -9.244432e-002 2.559575e-001 2.033797e-001 -3.285532e-002 -6.804633e-002 2.291605e-001 7.713170e-002 1.397821e-001 9.759414e-002 -7.184315e-002 -1.072432e-001 -1.913214e-001 -9.417360e-002
<VARIANCE> 25
 6.290963e+000 1.275683e+001 1.864946e+001 1.375472e+001 1.089069e+001 1.902872e+001 1.394079e+001 1.563638e+001 2.142559e+001 1.247731e+001 1.960186e+001 1.197673e+001 1.755208e+000 1.772061e+000 2.125014e+000 9.055813e-001 1.658083e+000 1.495212e+000 1.372030e+000 1.818561e+000 2.417971e+000 1.890051e+000 2.022222e+000 1.499331e+000 2.562881e+000
<GCONST> 8.482615e+001
<TRANSP> 5
 0.000000e+000 1.000000e+000 0.000000e+000 0.000000e+000 0.000000e+000
 0.000000e+000 8.146690e-001 1.853310e-001 0.000000e+000 0.000000e+000
 0.000000e+000 0.000000e+000 8.203203e-001 1.796797e-001 0.000000e+000
 0.000000e+000 0.000000e+000 0.000000e+000 8.899376e-001 1.100624e-001
 0.000000e+000 0.000000e+000 0.000000e+000 0.000000e+000 0.000000e+000
<ENDHMM>
~h "r"
<BEGINHMM>
<NUMSTATES> 5
<STATE> 2
<MEAN> 25
 6.110080e+000 -5.939960e+000 -3.943289e+000 -1.753469e+000 -3.740041e+000 -1.155949e-001 -6.118682e+000 6.697612e-001 5.822517e+000 2.815518e+000 4.219127e-001 -4.100865e+000 3.014531e-001 2.855393e-001 1.767923e-001 1.776688e+000 -1.577968e-001 -3.525864e-001 -2.185999e-001 -9.466696e-001 7.276160e-001 -2.444642e-001 2.180282e-001 3.317087e-001 -1.215754e+000
<VARIANCE> 25
 1.839513e+001 3.065958e+001 4.405484e+001 4.658972e+001 4.544723e+001 5.573751e+001 6.588831e+001 8.263326e+001 5.423831e+001 4.660385e+001 4.655492e+001 3.958308e+001 2.778336e+000 3.193789e+000 3.094222e+000 6.034335e+000 5.369635e+000 5.816728e+000 6.056437e+000 6.178665e+000 5.833087e+000 5.675582e+000 4.922508e+000 3.911896e+000 4.175300e+000
<GCONST> 1.117630e+002
<STATE> 3
<MEAN> 25
 6.641977e+000 -4.091053e+000 -2.903964e+000 3.450519e+000 -3.641067e+000 -1.444933e+000 -6.176880e+000 -2.055185e+000 6.629395e+000 1.824731e+000 1.286251e+000 -2.326391e+000 -3.404442e-001 5.776421e-001 6.407710e-001 7.305873e-001 6.554883e-001 -4.661044e-001 3.632903e-001 -2.663087e-001 -5.687451e-001 -3.607954e-001 -2.204082e-002 7.407265e-001 -1.261566e+000
<VARIANCE> 25
 1.983280e+001 2.596638e+001 5.445333e+001 4.071389e+001 5.200545e+001 5.122313e+001 6.140692e+001 7.087022e+001 5.248970e+001 4.590928e+001 4.031580e+001 3.226628e+001 2.545604e+000 2.755720e+000 3.114070e+000 3.807978e+000 4.937460e+000 4.981839e+000 5.434520e+000 5.477455e+000 5.374955e+000 4.482989e+000 3.886824e+000 3.771009e+000 3.431168e+000
<GCONST> 1.092359e+002
<STATE> 4
<MEAN> 25
 -4.844740e-001 -1.097093e+000 -2.285896e+000 3.571712e+000 1.643598e+000 -4.078712e-001 2.495262e-001 -3.369714e-001 3.139921e+000 -5.451047e-001 -1.465876e-001 1.182733e+000 -1.785413e-001 1.215562e-001 1.674259e-001 -6.835066e-002 1.662302e-002 -1.463574e-002 1.008764e-001 2.374754e-002 -4.130397e-001 -8.616173e-002 7.782469e-002 1.598041e-001 -3.146898e-001
<VARIANCE> 25
 4.945700e+001 3.649434e+001 4.503181e+001 3.394257e+001 4.253122e+001 4.500900e+001 5.862644e+001 4.671054e+001 4.345407e+001 3.923201e+001 3.332383e+001 2.821904e+001 2.143029e+000 2.112991e+000 2.367668e+000 2.127765e+000 2.729315e+000 2.876003e+000 3.094235e+000 3.032815e+000 3.248420e+000 2.702520e+000 2.449783e+000 2.211543e+000 2.640727e+000
<GCONST> 1.027968e+002
<TRANSP> 5
 0.000000e+000 1.000000e+000 0.000000e+000 0.000000e+000 0.000000e+000
 0.000000e+000 3.994481e-001 6.005519e-001 0.000000e+000 0.000000e+000
 0.000000e+000 0.000000e+000 4.473377e-001 5.526623e-001 0.000000e+000
 0.000000e+000 0.000000e+000 0.000000e+000 7.302713e-001 2.697287e-001
 0.000000e+000 0.000000e+000 0.000000e+000 0.000000e+000 0.000000e+000
<ENDHMM>
~h "s"
<BEGINHMM>
<NUMSTATES> 5
<STATE> 2
<MEAN> 25
 -6.740792e+000 6.033112e+000 2.038231e-001 2.551335e+000 5.155910e+000 -4.608377e+000 2.115226e+000 1.499123e+000 1.546950e+000 -6.724405e-001 -1.330618e+000 2.164387e+000 -4.770630e+000 1.885680e+000 -9.883854e-001 8.049955e-001 1.684433e+000 -4.199985e-001 1.767006e+000 7.080032e-001 5.814418e-001 -4.910357e-001 7.607488e-001 8.267487e-001 -6.339500e-001
<VARIANCE> 25
 7.285192e+001 4.607391e+001 4.476472e+001 4.047098e+001 4.828995e+001 4.462706e+001 7.422552e+001 5.274331e+001 4.862668e+001 3.601357e+001 3.861437e+001 2.982054e+001 3.232200e+000 6.125163e+000 4.231723e+000 4.692014e+000 5.273661e+000 4.620745e+000 6.287576e+000 5.731188e+000 4.720022e+000 4.161426e+000 4.011314e+000 3.107349e+000 2.866650e+000
<GCONST> 1.113381e+002
<STATE> 3
<MEAN> 25
 -2.205217e+001 5.453318e+000 -5.604133e+000 1.670238e+000 6.968750e+000 -4.259474e+000 5.288860e+000 3.205366e+000 3.253314e+000 4.866234e-002 2.146870e+000 4.742278e+000 -6.777369e-001 -5.917544e-001 -4.891429e-001 -2.451790e-001 -1.485972e-001 4.397736e-002 5.919411e-002 1.040664e-001 1.700695e-001 1.583794e-001 1.990807e-001 1.787580e-001 -2.519937e-001
<VARIANCE> 25
 1.556914e+001 2.579057e+001 3.484829e+001 3.193109e+001 2.907071e+001 3.006527e+001 5.273812e+001 3.539243e+001 3.590072e+001 2.523220e+001 2.378064e+001 2.274262e+001 2.855754e+000 1.319375e+000 1.811001e+000 1.482557e+000 1.690918e+000 1.768138e+000 1.876617e+000 1.871594e+000 1.920626e+000 1.751225e+000 1.700163e+000 1.461580e+000 9.482999e-001
<GCONST> 9.309946e+001
<STATE> 4
<MEAN> 25
 -1.328047e+001 2.863000e+000 -4.206056e+000 1.337349e+000 4.557189e+000 -4.248686e+000 2.906615e+000 1.873657e+000 3.112921e+000 -5.383828e-001 5.983142e-001 2.788752e+000 3.937518e+000 -1.637348e-001 1.199228e+000 -2.580860e-001 -1.017958e+000 1.385891e-001 -1.509661e+000 -9.442739e-001 -3.971537e-001 -9.888589e-002 -7.254918e-001 -1.125594e+000 1.339844e-001
<VARIANCE> 25
 7.845121e+001 3.072302e+001 4.084768e+001 3.264746e+001 3.577206e+001 4.184150e+001 6.116570e+001 4.185846e+001 3.842346e+001 2.875698e+001 2.865599e+001 2.867080e+001 8.860349e+000 3.800174e+000 4.326251e+000 3.846512e+000 3.635523e+000 4.020616e+000 5.728653e+000 4.830058e+000 4.524722e+000 3.174540e+000 3.293688e+000 3.094034e+000 6.365483e+000
<GCONST> 1.089759e+002
<TRANSP> 5
 0.000000e+000 1.000000e+000 0.000000e+000 0.000000e+000 0.000000e+000
 0.000000e+000 7.074936e-001 2.925064e-001 0.000000e+000 0.000000e+000
 0.000000e+000 0.000000e+000 8.449796e-001 1.550204e-001 0.000000e+000
 0.000000e+000 0.000000e+000 0.000000e+000 7.337775e-001 2.662225e-001
 0.000000e+000 0.000000e+000 0.000000e+000 0.000000e+000 0.000000e+000
<ENDHMM>
~h "t"
<BEGINHMM>
<NUMSTATES> 5
<STATE> 2
<MEAN> 25
 -1.520843e+000 4.007835e+000 -1.755555e+000 2.303376e+000 1.942019e+000 -2.301948e+000 1.660759e+000 -7.854855e-001 2.526426e+000 -4.116409e-002 -1.050716e+000 4.865491e-001 -6.659084e-001 1.509562e-001 -2.227824e-001 1.893006e-001 3.642494e-002 6.890044e-002 5.581739e-001 -1.483433e-003 1.898773e-002 -1.770957e-001 1.512839e-001 3.185135e-001 -1.508028e+000
<VARIANCE> 25
 2.717810e+001 2.546391e+001 2.955618e+001 2.735644e+001 2.947175e+001 3.367141e+001 3.913794e+001 3.746281e+001 3.800071e+001 3.004743e+001 2.819720e+001 2.562424e+001 1.573820e+000 2.051086e+000 1.703791e+000 2.056065e+000 2.355994e+000 2.254607e+000 2.684762e+000 2.488229e+000 2.461051e+000 2.267159e+000 2.030434e+000 1.848678e+000 5.119927e+000
<GCONST> 9.766512e+001
<STATE> 3
<MEAN> 25
 -3.878058e+000 4.219205e+000 -1.087682e+000 2.889881e+000 1.532537e+000 -2.695716e+000 2.826407e+000 -1.846607e+000 1.776102e+000 -5.624272e-001 -3.477809e-001 1.562942e+000 -1.971442e+000 -2.072785e+000 -7.505111e-001 -1.014001e+000 3.706824e-001 -4.046144e-001 1.121035e-001 4.933236e-001 -6.043957e-002 -1.987951e-001 5.394434e-001 6.052150e-001 4.289255e+000
<VARIANCE> 25
 2.923622e+001 2.656761e+001 3.086435e+001 2.472308e+001 2.851509e+001 3.112881e+001 3.552605e+001 3.664909e+001 3.510568e+001 2.691703e+001 2.682304e+001 2.275111e+001 3.260449e+000 3.407861e+000 4.079307e+000 3.703215e+000 3.859320e+000 3.949235e+000 4.276387e+000 4.185097e+000 4.597554e+000 3.087391e+000 3.440305e+000 2.697304e+000 8.841883e+000
<GCONST> 1.042565e+002
<STATE> 4
<MEAN> 25
 -7.342956e+000 -2.126189e+000 -3.677693e+000 -1.466849e+000 2.029051e+000 -4.497413e+000 1.454165e+000 -2.649804e-001 2.563873e+000 -2.395170e-001 3.036759e-001 2.070425e+000 1.652418e+000 -1.078481e+000 1.246002e-001 -1.588983e+000 -6.501361e-001 9.448590e-003 -2.227486e+000 -6.696766e-003 1.067921e-001 3.205040e-001 -1.336623e-001 -1.192444e+000 6.173276e+000
<VARIANCE> 25
 3.356704e+001 2.952245e+001 2.999032e+001 3.305181e+001 3.258729e+001 4.235257e+001 4.685197e+001 3.419170e+001 3.515157e+001 2.898548e+001 2.696507e+001 2.797049e+001 5.457373e+000 5.150801e+000 5.985121e+000 5.769818e+000 4.956942e+000 6.056666e+000 6.443275e+000 6.733507e+000 6.787122e+000 4.346367e+000 4.748524e+000 4.245687e+000 1.216576e+001
<GCONST> 1.108425e+002
<TRANSP> 5
 0.000000e+000 1.000000e+000 0.000000e+000 0.000000e+000 0.000000e+000
 0.000000e+000 8.225120e-001 1.774880e-001 0.000000e+000 0.000000e+000
 0.000000e+000 0.000000e+000 4.165550e-001 5.834451e-001 0.000000e+000
 0.000000e+000 0.000000e+000 0.000000e+000 4.983374e-001 5.016626e-001
 0.000000e+000 0.000000e+000 0.000000e+000 0.000000e+000 0.000000e+000
<ENDHMM>
~h "u"
<BEGINHMM>
<NUMSTATES> 5
<STATE> 2
<MEAN> 25
 6.112719e+000 4.076805e+000 -1.275053e+000 -3.637461e+000 -3.582079e+000 2.318796e+000 -7.470285e+000 -5.596408e+000 -3.669671e+000 -6.331232e-002 3.250359e+000 7.012384e-002 2.220960e+000 9.528371e-001 -2.253933e-002 -2.434917e+000 -1.858099e+000 2.173146e+000 -1.658358e+000 -9.729946e-001 -1.439487e+000 5.101230e-003 1.399160e+000 -1.087446e-001 1.299464e+000
<VARIANCE> 25
 2.572065e+001 3.786691e+001 4.229519e+001 7.227185e+001 4.974630e+001 5.154490e+001 8.051450e+001 6.820868e+001 5.309621e+001 4.788181e+001 3.817481e+001 3.280487e+001 4.688856e+000 3.582329e+000 4.822130e+000 5.967391e+000 6.147136e+000 5.311427e+000 7.174781e+000 8.416206e+000 6.436854e+000 5.994856e+000 4.414146e+000 4.059973e+000 4.403759e+000
<GCONST> 1.140761e+002
<STATE> 3
<MEAN> 25
 9.372724e+000 6.487267e+000 -2.066248e+000 -1.101811e+001 -6.949441e+000 8.490829e+000 -8.240062e+000 -4.569825e+000 -6.264814e+000 -1.993553e+000 5.745776e+000 3.748389e-001 1.725097e-001 1.557220e-001 -9.065226e-002 -6.193666e-001 -1.472925e-001 5.418256e-001 8.287343e-002 6.408244e-002 -2.056967e-001 -1.026396e-001 2.341569e-001 1.656746e-001 -3.661781e-002
<VARIANCE> 25
 1.141533e+001 3.624627e+001 2.723953e+001 6.189523e+001 4.345248e+001 4.127339e+001 6.186023e+001 7.830128e+001 5.710316e+001 5.604535e+001 4.318322e+001 4.084000e+001 4.674936e-001 1.842072e+000 1.118221e+000 2.734805e+000 2.195308e+000 2.424379e+000 2.922569e+000 3.290059e+000 2.899211e+000 3.082350e+000 2.617960e+000 2.240505e+000 1.208074e+000
<GCONST> 9.997763e+001
<STATE> 4
<MEAN> 25
 8.023459e+000 5.385448e+000 -1.559063e+000 -6.420836e+000 -3.918035e+000 5.880833e+000 -5.928072e+000 -5.982263e+000 -4.406118e+000 2.488344e-001 4.248642e+000 4.508896e-001 -5.579133e-001 -3.877862e-001 5.265701e-001 1.911228e+000 9.886737e-001 -1.322363e+000 7.723975e-001 -5.585859e-002 1.067613e+000 5.006352e-001 -9.631852e-001 -2.603912e-001 -1.356704e+000
<VARIANCE> 25
 1.672164e+001 4.222416e+001 3.781281e+001 7.098300e+001 5.414022e+001 5.070024e+001 9.406839e+001 7.756952e+001 5.925356e+001 5.883485e+001 5.002816e+001 4.310642e+001 1.458467e+000 3.318286e+000 2.800539e+000 4.432378e+000 4.591512e+000 4.339585e+000 6.034382e+000 5.768506e+000 5.092438e+000 5.157228e+000 4.417792e+000 3.922928e+000 4.913268e+000
<GCONST> 1.113973e+002
<TRANSP> 5
 0.000000e+000 1.000000e+000 0.000000e+000 0.000000e+000 0.000000e+000
 0.000000e+000 5.410084e-001 4.589917e-001 0.000000e+000 0.000000e+000
 0.000000e+000 0.000000e+000 7.504193e-001 2.495807e-001 0.000000e+000
 0.000000e+000 0.000000e+000 0.000000e+000 7.042963e-001 2.957037e-001
 0.000000e+000 0.000000e+000 0.000000e+000 0.000000e+000 0.000000e+000
<ENDHMM>
~h "w"
<BEGINHMM>
<NUMSTATES> 5
<STATE> 2
<MEAN> 25
 7.966180e+000 6.938180e-001 -2.609698e+000 -7.579875e+000 -2.998995e+000 5.857708e+000 -3.428479e+000 -2.288338e+000 -2.351897e+000 1.040581e+000 3.730493e+000 -1.022885e+000 1.361048e+000 1.150861e+000 -3.588636e-002 -1.713522e+000 -1.149605e+000 1.104727e+000 -6.219406e-002 -3.696682e-001 -1.163970e+000 -6.634686e-001 7.798693e-001 7.493009e-001 -2.311376e-002
<VARIANCE> 25
 3.125375e+001 6.460203e+001 3.978875e+001 8.584232e+001 5.031925e+001 6.780171e+001 6.736230e+001 6.015050e+001 6.288131e+001 5.360110e+001 5.573666e+001 4.475716e+001 2.753370e+000 3.046605e+000 2.877553e+000 4.816159e+000 4.997047e+000 5.154750e+000 4.504727e+000 4.941618e+000 4.711992e+000 4.217952e+000 4.305909e+000 3.751768e+000 4.739877e+000
<GCONST> 1.125151e+002
<STATE> 3
<MEAN> 25
 1.161370e+001 4.329968e+000 -2.224378e+000 -1.557220e+001 -8.422833e+000 1.015705e+001 -4.323348e+000 -1.057782e+000 -2.636504e+000 -3.001652e+000 4.683237e+000 1.464648e+000 -3.134178e-002 -4.744186e-001 -2.271375e-001 -7.117479e-001 -1.304955e-001 6.465576e-001 -7.022983e-002 -4.618644e-002 2.024410e-001 1.197524e-001 4.150290e-001 1.814062e-001 5.914256e-001
<VARIANCE> 25
 1.036466e+001 3.442146e+001 1.832598e+001 4.873975e+001 4.567216e+001 4.571328e+001 3.945120e+001 4.639495e+001 6.064303e+001 3.807518e+001 3.027096e+001 2.961605e+001 4.233683e-001 2.680742e+000 1.297215e+000 2.719242e+000 2.257375e+000 2.939665e+000 2.102335e+000 2.135521e+000 2.021938e+000 2.755762e+000 2.389339e+000 1.882491e+000 1.912177e+000
<GCONST> 9.696904e+001
<STATE> 4
<MEAN> 25
 9.092103e+000 -4.111150e+000 -5.940413e+000 -1.617721e+001 -3.425758e+000 1.370697e+001 -3.677254e+000 -2.503023e+000 6.845346e-002 2.854922e+000 6.810217e+000 -2.412221e+000 -8.957723e-001 -2.034140e+000 -5.504981e-001 1.112556e+000 1.657924e+000 -3.888167e-001 -2.997305e-001 2.794289e-001 1.498272e+000 1.122703e+000 -1.003675e+000 -2.208527e+000 1.355357e+000
<VARIANCE> 25
 1.106046e+001 3.231617e+001 2.664546e+001 4.878346e+001 3.709289e+001 4.488173e+001 5.014682e+001 4.785891e+001 5.261630e+001 4.543463e+001 3.776462e+001 4.351190e+001 3.211073e-001 1.418278e+000 1.316696e+000 2.460505e+000 2.207498e+000 3.145247e+000 2.231097e+000 2.370913e+000 2.657135e+000 2.598969e+000 3.011504e+000 2.341393e+000 6.856530e-001
<GCONST> 9.688090e+001
<TRANSP> 5
 0.000000e+000 1.000000e+000 0.000000e+000 0.000000e+000 0.000000e+000
 0.000000e+000 7.036995e-001 2.963004e-001 0.000000e+000 0.000000e+000
 0.000000e+000 0.000000e+000 7.613373e-001 2.386627e-001 0.000000e+000
 0.000000e+000 0.000000e+000 0.000000e+000 6.700047e-001 3.299953e-001
 0.000000e+000 0.000000e+000 0.000000e+000 0.000000e+000 0.000000e+000
<ENDHMM>
~h "y"
<BEGINHMM>
<NUMSTATES> 5
<STATE> 2
<MEAN> 25
 1.813269e-001 -2.303322e-001 9.562533e+000 -1.151122e+000 -6.923898e+000 -4.415070e+000 -3.183121e+000 3.138017e+000 -3.231868e+000 -2.186700e+000 2.624829e+000 1.792094e+000 -7.530856e-002 8.198491e-001 2.293625e+000 -3.053941e-002 -1.095130e+000 -2.227204e-001 -1.097926e+000 -5.885523e-001 -1.350078e+000 -3.168954e-001 1.124038e+000 6.258187e-001 4.654309e-001
<VARIANCE> 25
 2.765644e+001 5.666285e+001 7.558086e+001 3.961264e+001 6.669170e+001 5.352441e+001 5.771402e+001 6.931850e+001 6.495432e+001 4.630634e+001 3.725705e+001 3.210115e+001 2.048931e+000 2.775058e+000 4.370777e+000 2.774158e+000 3.988530e+000 3.457875e+000 3.908047e+000 4.431541e+000 4.271961e+000 3.928801e+000 3.063230e+000 2.641191e+000 4.377768e+000
<GCONST> 1.089752e+002
<STATE> 3
<MEAN> 25
 9.251526e-001 4.542539e-002 1.704364e+001 -1.021779e+000 -1.293378e+001 -4.810211e+000 -8.268542e+000 1.002713e+000 -7.191539e+000 -3.124540e+000 6.628957e+000 3.614659e+000 2.721820e-001 -1.062642e+000 -1.095855e+000 -3.831809e-001 -6.412591e-001 -5.828734e-001 2.178603e-001 1.106844e+000 1.068559e+000 6.164938e-001 1.334780e-001 6.329127e-002 9.871844e-001
<VARIANCE> 25
 1.065677e+001 2.651902e+001 4.127837e+001 3.758437e+001 2.740798e+001 4.012561e+001 3.185345e+001 5.165857e+001 5.969409e+001 5.969674e+001 2.906847e+001 3.250208e+001 5.609648e-001 1.991925e+000 3.040850e+000 1.425098e+000 2.094762e+000 1.748400e+000 2.074267e+000 3.602772e+000 3.369409e+000 2.122862e+000 1.501064e+000 1.470818e+000 1.554880e+000
<GCONST> 9.646375e+001
<STATE> 4
<MEAN> 25
 2.694250e+000 -7.543336e+000 6.377859e+000 -5.080787e+000 -1.139162e+001 -6.662550e+000 -2.908391e+000 1.176484e+001 1.031291e+000 -1.331809e+000 1.924151e+000 4.062187e-001 3.984574e-001 -1.462899e+000 -2.570048e+000 -3.349584e-001 1.738994e+000 1.033247e+000 9.550002e-001 1.364985e+000 1.554764e+000 -6.179932e-001 -2.159633e+000 -1.454576e+000 6.190858e-001
<VARIANCE> 25
 8.825867e+000 2.025829e+001 3.073207e+001 2.407653e+001 2.786393e+001 2.845123e+001 4.906828e+001 5.166293e+001 5.228665e+001 3.451302e+001 4.135416e+001 2.700820e+001 2.987375e-001 1.062938e+000 1.808969e+000 1.082965e+000 2.027434e+000 1.711011e+000 2.412377e+000 3.710165e+000 2.317960e+000 2.941928e+000 2.225386e+000 2.175341e+000 4.089941e-001
<GCONST> 9.233325e+001
<TRANSP> 5
 0.000000e+000 1.000000e+000 0.000000e+000 0.000000e+000 0.000000e+000
 0.000000e+000 7.835851e-001 2.164150e-001 0.000000e+000 0.000000e+000
 0.000000e+000 0.000000e+000 7.462604e-001 2.537396e-001 0.000000e+000
 0.000000e+000 0.000000e+000 0.000000e+000 7.005526e-001 2.994474e-001
 0.000000e+000 0.000000e+000 0.000000e+000 0.000000e+000 0.000000e+000
<ENDHMM>
~h "z"
<BEGINHMM>
<NUMSTATES> 5
<STATE> 2
<MEAN> 25
 -1.105587e+000 8.535929e+000 2.424153e+000 5.041296e+000 1.864882e+000 -6.783322e+000 -2.387606e+000 -1.333429e+000 1.049165e+000 -1.104920e+000 -1.745123e+000 1.978178e+000 -2.210659e+000 2.573206e+000 -7.559000e-001 1.166393e+000 1.596961e+000 -4.240313e-001 1.390200e+000 -1.551209e-001 7.224140e-001 -4.162420e-001 1.265587e-001 6.592411e-001 -8.738340e-001
<VARIANCE> 25
 3.639120e+001 4.584014e+001 4.553315e+001 3.336980e+001 4.374209e+001 3.888073e+001 7.419106e+001 5.207296e+001 4.388964e+001 4.437768e+001 3.326951e+001 3.215763e+001 3.243898e+000 3.991366e+000 2.914422e+000 2.981980e+000 3.257051e+000 4.215218e+000 4.381662e+000 6.758177e+000 4.487127e+000 4.138807e+000 3.202483e+000 3.116499e+000 3.176012e+000
<GCONST> 1.080491e+002
<STATE> 3
<MEAN> 25
 -1.173491e+001 1.400338e+001 5.691127e-001 7.935988e+000 6.985437e+000 -5.873624e+000 1.548306e+000 -2.996156e-001 9.775120e-001 -2.731194e-001 -2.883641e-001 3.667617e+000 -1.125471e+000 -2.053835e-001 -2.352820e-002 1.328828e-001 3.800171e-001 1.997025e-001 4.130710e-001 1.286658e-001 -1.065850e-001 2.632313e-002 2.883106e-001 2.458309e-001 1.190992e-002
<VARIANCE> 25
 4.047025e+001 2.899864e+001 3.181502e+001 3.085424e+001 2.596063e+001 3.231185e+001 6.235027e+001 3.266572e+001 3.511813e+001 3.269656e+001 2.099888e+001 2.659410e+001 2.140722e+000 1.669555e+000 1.315685e+000 1.118802e+000 1.856434e+000 1.770594e+000 1.712601e+000 1.908249e+000 1.772638e+000 1.475146e+000 1.483620e+000 1.353157e+000 1.231651e+000
<GCONST> 9.352721e+001
<STATE> 4
<MEAN> 25
 -1.046728e+001 5.085097e+000 1.746246e-001 3.044071e+000 3.950241e+000 -2.243987e+000 1.962109e+000 1.325253e+000 1.313183e+000 -5.998058e-001 9.939052e-001 4.371630e+000 1.035773e+000 -7.056543e-001 3.792660e-001 -3.937905e-001 -8.921978e-001 -3.205327e-001 -7.742605e-001 -2.732131e-001 4.443587e-002 1.190705e-001 -1.119723e-003 -1.224882e-001 8.568110e-001
<VARIANCE> 25
 6.763163e+001 5.153968e+001 5.434460e+001 3.105301e+001 4.138497e+001 4.926612e+001 4.679212e+001 3.483098e+001 3.383575e+001 2.137328e+001 2.183477e+001 2.064265e+001 5.705764e+000 3.687930e+000 2.807485e+000 2.571086e+000 3.960105e+000 2.794655e+000 3.393007e+000 3.480220e+000 2.655891e+000 2.051080e+000 1.936024e+000 1.938933e+000 3.089729e+000
<GCONST> 1.032873e+002
<TRANSP> 5
 0.000000e+000 1.000000e+000 0.000000e+000 0.000000e+000 0.000000e+000
 0.000000e+000 7.162625e-001 2.837375e-001 0.000000e+000 0.000000e+000
 0.000000e+000 0.000000e+000 7.975857e-001 2.024142e-001 0.000000e+000
 0.000000e+000 0.000000e+000 0.000000e+000 8.583198e-001 1.416802e-001
 0.000000e+000 0.000000e+000 0.000000e+000 0.000000e+000 0.000000e+000
<ENDHMM>
~h "ai"
<BEGINHMM>
<NUMSTATES> 5
<STATE> 2
<MEAN> 25
 5.002581e+000 -1.203764e+001 -3.127127e+000 -5.792584e+000 -2.036305e+000 1.632403e+000 -3.984623e+000 8.388802e+000 4.232696e+000 -1.174372e+000 -3.989130e+000 -6.034476e+000 -2.909558e-001 -7.230054e-001 8.687435e-001 1.522149e-001 -8.374854e-001 -1.075489e+000 7.729076e-001 1.921213e+000 -2.139548e-001 -9.524395e-001 -4.605236e-001 4.828764e-001 5.195684e-001
<VARIANCE> 25
 9.066644e+000 2.018474e+001 4.291795e+001 2.480541e+001 5.071027e+001 7.304365e+001 3.839769e+001 5.458603e+001 4.660837e+001 4.311200e+001 4.711339e+001 3.017858e+001 5.528085e-001 1.618314e+000 1.665476e+000 2.008052e+000 2.858832e+000 3.857100e+000 2.641392e+000 3.563551e+000 2.409634e+000 2.254723e+000 2.972444e+000 2.404082e+000 6.826748e-001
<GCONST> 9.787267e+001
<STATE> 3
<MEAN> 25
 3.319854e+000 -8.826887e+000 7.378446e+000 -5.229799e+000 -1.169311e+001 -7.476409e+000 -1.176764e+000 1.259746e+001 -2.117518e+000 -8.660585e-002 2.243787e+000 -7.176249e-001 -2.636240e-001 9.254703e-001 1.603477e+000 -2.099884e-002 -1.188835e+000 -4.921563e-001 -1.968774e-001 -9.332966e-001 -1.185291e+000 7.058610e-001 1.323316e+000 5.491578e-001 -4.663924e-001
<VARIANCE> 25
 7.202300e+000 1.651987e+001 3.635287e+001 1.946951e+001 2.874220e+001 3.512840e+001 3.546364e+001 4.412906e+001 4.628043e+001 3.426460e+001 4.625840e+001 2.478936e+001 2.213042e-001 8.771054e-001 1.347159e+000 8.632745e-001 1.609647e+000 1.616984e+000 1.908240e+000 2.475602e+000 1.952699e+000 1.761749e+000 2.050778e+000 1.362530e+000 2.157782e-001
<GCONST> 8.772494e+001
<STATE> 4
<MEAN> 25
 1.797878e+000 -4.587572e-001 1.306377e+001 -2.600598e+000 -1.221217e+001 -7.037837e+000 -2.854683e+000 2.305096e+000 -6.128721e+000 1.740091e+000 4.822242e+000 6.196474e-001 1.284281e-002 9.897028e-001 -4.420782e-001 7.559233e-001 1.046616e+000 1.923083e-001 2.708826e-001 -8.982116e-001 2.029530e-001 -2.915443e-001 -4.898136e-001 4.253009e-002 -1.734152e+000
<VARIANCE> 25
 1.345648e+001 3.393325e+001 4.264905e+001 3.654764e+001 3.925916e+001 4.744283e+001 4.400549e+001 6.452124e+001 5.016458e+001 4.578725e+001 3.925447e+001 3.073241e+001 1.105102e+000 1.908683e+000 2.783568e+000 2.234975e+000 2.977764e+000 2.508710e+000 3.132938e+000 3.509874e+000 3.686733e+000 2.653197e+000 2.167943e+000 1.817035e+000 2.705178e+000
<GCONST> 1.013676e+002
<TRANSP> 5
 0.000000e+000 1.000000e+000 0.000000e+000 0.000000e+000 0.000000e+000
 0.000000e+000 7.519316e-001 2.480684e-001 0.000000e+000 0.000000e+000
 0.000000e+000 0.000000e+000 8.190095e-001 1.809905e-001 0.000000e+000
 0.000000e+000 0.000000e+000 0.000000e+000 8.427123e-001 1.572876e-001
 0.000000e+000 0.000000e+000 0.000000e+000 0.000000e+000 0.000000e+000
<ENDHMM>
~h "au"
<BEGINHMM>
<NUMSTATES> 5
<STATE> 2
<MEAN> 25
 6.782397e+000 -5.073579e+000 -7.936036e+000 -9.812749e+000 -6.936915e-001 1.198050e+001 -4.843527e+000 -2.946266e+000 7.427235e+000 1.099768e+000 8.533169e-001 -7.344130e+000 1.286709e-001 2.050337e-001 -3.605528e-001 -6.208988e-001 1.544421e-002 9.936301e-001 -1.267711e-002 -3.575755e-001 -9.700154e-002 -1.801923e-001 7.475928e-001 1.100398e-002 4.780584e-003
<VARIANCE> 25
 8.627517e+000 2.415279e+001 1.914870e+001 2.531104e+001 2.776056e+001 3.526819e+001 3.288551e+001 3.905319e+001 2.526669e+001 2.965379e+001 3.029435e+001 1.975509e+001 4.846587e-001 8.688351e-001 8.832631e-001 1.322571e+000 1.476654e+000 2.192653e+000 1.572312e+000 1.947392e+000 1.692744e+000 1.853238e+000 2.556871e+000 1.431356e+000 4.428898e-001
<GCONST> 8.773846e+001
<STATE> 3
<MEAN> 25
 8.530598e+000 -1.243961e-001 -7.115784e+000 -1.783567e+001 -4.344128e+000 1.537658e+001 -4.748019e+000 -2.656075e+000 2.394852e+000 -1.053504e+000 6.333177e+000 -1.574170e+000 3.400362e-001 1.021063e+000 3.257443e-001 -3.642576e-001 -6.137744e-001 -1.942013e-001 -1.568666e-001 1.466841e-001 -8.280701e-001 -3.533754e-001 3.719651e-001 8.734756e-001 -6.940081e-001
<VARIANCE> 25
 9.073486e+000 2.593784e+001 1.713426e+001 3.000626e+001 3.406572e+001 2.466211e+001 4.416585e+001 3.458934e+001 3.234698e+001 3.974791e+001 2.468687e+001 3.699721e+001 2.114917e-001 1.003982e+000 4.842522e-001 1.248923e+000 1.121954e+000 1.244118e+000 1.239325e+000 1.204756e+000 1.472553e+000 1.907544e+000 1.548460e+000 1.804367e+000 3.037393e-001
<GCONST> 8.524231e+001
<STATE> 4
<MEAN> 25
 7.154871e+000 5.211425e+000 -3.411134e+000 -9.508635e+000 -3.741983e+000 6.661285e+000 -3.823338e+000 -1.704600e+000 -2.642858e+000 -5.509815e-001 3.994830e+000 3.855282e-001 -3.186925e-001 1.738644e-001 4.249701e-001 1.670315e+000 5.265403e-001 -1.042627e+000 2.288088e-001 -1.465988e-001 -9.121327e-002 1.439836e-001 -5.605013e-001 1.744720e-003 -1.323727e+000
<VARIANCE> 25
 3.600243e+001 3.509529e+001 3.484906e+001 1.036363e+002 5.455276e+001 5.366106e+001 7.632266e+001 6.057402e+001 5.294046e+001 5.991530e+001 4.151468e+001 3.857587e+001 1.012104e+000 2.233653e+000 1.898782e+000 3.945019e+000 3.093217e+000 3.448267e+000 4.046220e+000 3.493170e+000 3.725431e+000 3.566182e+000 3.079422e+000 2.824221e+000 2.166131e+000
<GCONST> 1.065096e+002
<TRANSP> 5
 0.000000e+000 1.000000e+000 0.000000e+000 0.000000e+000 0.000000e+000
 0.000000e+000 8.395788e-001 1.604212e-001 0.000000e+000 0.000000e+000
 0.000000e+000 0.000000e+000 8.481700e-001 1.518300e-001 0.000000e+000
 0.000000e+000 0.000000e+000 0.000000e+000 8.642682e-001 1.357317e-001
 0.000000e+000 0.000000e+000 0.000000e+000 0.000000e+000 0.000000e+000
<ENDHMM>
~h "kh"
<BEGINHMM>
<NUMSTATES> 5
<STATE> 2
<MEAN> 25
 -2.361762e+000 4.401827e-002 -4.063519e+000 -2.892171e-002 4.863657e+000 9.911042e-001 3.332096e+000 8.776448e-001 9.206554e-001 6.926996e-001 -7.242997e-001 1.565721e+000 -1.291913e+000 -4.924387e-001 -1.151959e+000 -1.212905e-001 9.984380e-001 -2.579800e-001 1.976507e-001 2.921494e-001 1.868818e-001 1.415196e-001 1.501238e-001 4.127814e-001 1.529151e-001
<VARIANCE> 25
 5.311992e+001 4.714784e+001 5.892035e+001 5.865907e+001 6.554427e+001 7.235466e+001 5.282850e+001 4.533066e+001 6.269704e+001 4.743581e+001 4.603969e+001 3.178209e+001 4.702633e+000 5.173303e+000 6.107053e+000 5.035019e+000 6.514436e+000 5.041824e+000 5.552962e+000 4.378865e+000 4.726583e+000 3.713789e+000 3.791865e+000 2.878437e+000 8.244717e+000
<GCONST> 1.141175e+002
<STATE> 3
<MEAN> 25
 -8.515981e+000 -5.216593e+000 -1.082478e+001 -2.563903e+000 1.045293e+001 5.641245e-001 1.903823e+000 2.377532e+000 3.050140e+000 2.257230e+000 1.231186e+000 2.263438e+000 -1.271260e-001 -1.517687e-001 -1.304784e-001 -1.466854e-001 -2.220210e-001 2.231317e-001 2.626578e-001 -7.243749e-002 -6.776769e-002 -8.972664e-002 1.703392e-001 -1.085411e-002 8.770796e-002
<VARIANCE> 25
 2.794667e+001 3.826828e+001 4.586002e+001 5.072277e+001 5.211156e+001 5.847018e+001 5.875035e+001 4.571167e+001 4.750403e+001 3.829153e+001 3.269164e+001 4.117827e+001 1.844335e+000 2.144900e+000 2.591198e+000 2.545367e+000 3.102909e+000 3.163428e+000 3.127631e+000 3.006247e+000 2.740873e+000 2.722091e+000 2.338045e+000 2.325241e+000 1.618969e+000
<GCONST> 1.032736e+002
<STATE> 4
<MEAN> 25
 -4.689613e+000 9.004099e-001 -4.067046e+000 2.713802e+000 3.016228e+000 1.186040e+000 4.430908e+000 6.831684e-001 4.038790e-001 -9.304286e-001 1.302876e+000 1.948483e+000 3.456597e-001 2.387813e-001 2.654182e-001 -5.131195e-002 -2.274534e-001 5.910307e-002 -4.474533e-002 -1.683510e-001 -1.004491e-001 -5.577426e-002 -4.355592e-002 -1.603968e-001 1.061085e-001
<VARIANCE> 25
 2.337202e+001 3.629430e+001 3.823479e+001 2.847221e+001 3.068430e+001 3.117005e+001 3.118485e+001 2.852502e+001 3.178481e+001 2.597644e+001 2.053513e+001 2.097542e+001 1.996907e+000 1.473146e+000 1.947000e+000 1.763514e+000 1.667367e+000 1.939751e+000 2.053054e+000 2.193299e+000 2.108341e+000 1.896300e+000 1.783028e+000 1.772281e+000 1.677494e+000
<GCONST> 9.416323e+001
<TRANSP> 5
 0.000000e+000 1.000000e+000 0.000000e+000 0.000000e+000 0.000000e+000
 0.000000e+000 7.834697e-001 2.165303e-001 0.000000e+000 0.000000e+000
 0.000000e+000 0.000000e+000 8.252807e-001 1.747192e-001 0.000000e+000
 0.000000e+000 0.000000e+000 0.000000e+000 8.707481e-001 1.292519e-001
 0.000000e+000 0.000000e+000 0.000000e+000 0.000000e+000 0.000000e+000
<ENDHMM>
~h "ng"
<BEGINHMM>
<NUMSTATES> 5
<STATE> 2
<MEAN> 25
 7.611165e+000 -2.011921e+000 1.063742e+000 -2.204619e+000 -3.302915e+000 3.327917e+000 -1.881363e-001 -1.790441e+000 -5.277683e+000 4.088012e+000 -3.081773e+000 -5.568594e+000 4.766546e-001 1.264399e+000 1.600299e+000 1.105778e+000 -1.561183e+000 -1.362190e-001 1.606822e+000 -2.646024e+000 -8.615833e-001 7.098779e-001 -1.199602e+000 1.831082e+000 -1.412335e+000
<VARIANCE> 25
 8.705775e+000 3.065031e+001 3.289256e+001 3.718319e+001 5.018064e+001 5.143418e+001 5.262552e+001 6.169131e+001 4.714168e+001 4.487268e+001 4.441769e+001 5.310537e+001 5.755821e-001 1.670191e+000 2.542908e+000 2.711938e+000 3.410812e+000 3.292263e+000 4.697471e+000 4.242817e+000 6.010503e+000 3.537051e+000 4.677731e+000 4.315172e+000 6.749152e-001
<GCONST> 1.029777e+002
<STATE> 3
<MEAN> 25
 8.310334e+000 4.514740e-001 6.010158e+000 -1.203640e+000 -6.995441e+000 3.946625e+000 4.454277e-001 -6.608323e+000 -5.646736e+000 3.512753e+000 -4.086559e+000 -1.018842e+000 3.180586e-002 4.203425e-001 4.097750e-001 3.461728e-001 -1.045697e-001 -1.522832e-001 2.193003e-001 -4.280531e-001 -1.759137e-001 4.633379e-002 -7.066347e-002 3.497969e-001 -4.791111e-001
<VARIANCE> 25
 8.121258e+000 1.973613e+001 2.565839e+001 4.373684e+001 3.603362e+001 4.024462e+001 5.110636e+001 4.453252e+001 4.051210e+001 3.515948e+001 4.038594e+001 3.523821e+001 2.633440e-001 8.229794e-001 1.129308e+000 1.202984e+000 1.450937e+000 1.310667e+000 1.680613e+000 1.623588e+000 1.569159e+000 1.476885e+000 1.482901e+000 1.441527e+000 4.747596e-001
<GCONST> 8.885764e+001
<STATE> 4
<MEAN> 25
 4.310191e+000 3.171464e+000 3.079985e+000 1.939073e+000 -1.687803e+000 2.076264e+000 4.070458e+000 -5.252869e+000 -4.667511e+000 1.764744e+000 -4.079831e+000 3.110122e-001 -6.951658e-001 3.080238e-001 -6.528741e-001 3.407565e-001 9.895267e-001 -3.636094e-001 2.684129e-002 5.666927e-001 2.990377e-001 -3.989871e-001 2.580771e-001 -3.106319e-001 -9.201821e-001
<VARIANCE> 25
 3.537105e+001 2.603738e+001 3.975611e+001 4.243673e+001 6.498129e+001 3.764919e+001 5.230540e+001 5.638363e+001 5.297102e+001 4.621807e+001 4.554602e+001 3.648659e+001 1.320870e+000 2.181185e+000 2.324136e+000 2.945032e+000 3.797142e+000 3.222808e+000 3.475438e+000 4.094608e+000 3.606846e+000 3.095148e+000 2.961457e+000 3.041842e+000 3.575491e+000
<GCONST> 1.052400e+002
<TRANSP> 5
 0.000000e+000 1.000000e+000 0.000000e+000 0.000000e+000 0.000000e+000
 0.000000e+000 5.803838e-001 4.196162e-001 0.000000e+000 0.000000e+000
 0.000000e+000 0.000000e+000 7.534137e-001 2.465862e-001 0.000000e+000
 0.000000e+000 0.000000e+000 0.000000e+000 7.317153e-001 2.682847e-001
 0.000000e+000 0.000000e+000 0.000000e+000 0.000000e+000 0.000000e+000
<ENDHMM>
~h "ny"
<BEGINHMM>
<NUMSTATES> 5
<STATE> 2
<MEAN> 25
 5.639519e+000 4.274928e+000 8.076581e+000 1.490331e+000 -5.806339e+000 -3.280175e+000 -2.150705e+000 -2.485285e+000 -7.357253e+000 -2.396918e+000 2.440669e+000 1.331122e+000 -2.605089e-001 -2.202615e-001 5.361789e-001 -7.370983e-001 -5.177114e-001 2.421071e-001 3.931218e-002 5.624700e-001 -1.951840e-001 -2.449371e-001 3.650192e-001 1.302943e-002 5.772786e-001
<VARIANCE> 25
 1.693077e+001 2.613781e+001 3.269113e+001 5.916386e+001 3.667443e+001 3.767856e+001 4.306656e+001 6.817420e+001 4.843249e+001 5.029955e+001 4.912654e+001 5.107335e+001 2.303645e+000 5.048067e+000 3.235604e+000 5.823399e+000 3.913205e+000 3.529356e+000 4.306777e+000 1.128091e+001 5.202332e+000 4.492451e+000 4.236426e+000 3.152623e+000 3.703275e+000
<GCONST> 1.093997e+002
<STATE> 3
<MEAN> 25
 2.835265e+000 -6.814722e+000 7.946404e+000 -4.907112e+000 -9.293695e+000 -1.664547e+000 -1.118178e+000 1.114620e+001 -3.062656e+000 -6.132773e+000 -7.249999e-001 -3.975018e-001 2.236462e-001 -1.953959e+000 -1.677635e+000 3.370532e-001 8.933382e-001 3.117132e-001 -6.185839e-003 1.496273e+000 1.449945e+000 -7.274601e-001 -1.577103e+000 -4.347910e-001 7.311877e-001
<VARIANCE> 25
 8.160291e+000 2.251060e+001 3.380005e+001 2.688642e+001 3.985148e+001 2.688960e+001 2.815305e+001 3.998916e+001 5.189056e+001 3.727473e+001 3.660327e+001 2.488211e+001 3.075663e-001 1.418684e+000 1.251575e+000 1.202168e+000 2.492250e+000 1.435642e+000 1.899620e+000 3.316185e+000 1.856276e+000 2.464802e+000 1.709629e+000 1.971819e+000 5.807056e-001
<GCONST> 9.124404e+001
<STATE> 4
<MEAN> 25
 9.009490e-001 -4.899737e+000 -1.514322e+000 1.717920e+000 3.078470e+000 1.164886e+000 9.719437e-001 6.958516e+000 1.466041e-001 -4.669538e+000 -3.856731e+000 6.362147e-001 -9.675079e-002 6.409344e-002 -5.510106e-001 2.228006e-001 6.103508e-001 1.928264e-001 1.254396e-002 -3.970328e-001 2.124308e-001 1.533375e-001 -1.168036e-001 -8.519518e-002 -7.998561e-001
<VARIANCE> 25
 1.962181e+001 4.038784e+001 2.843412e+001 3.375220e+001 5.500120e+001 2.518978e+001 3.724167e+001 6.165210e+001 4.457255e+001 4.426396e+001 3.324926e+001 3.185708e+001 5.339095e-001 1.241928e+000 1.430846e+000 1.570981e+000 2.096607e+000 1.470563e+000 1.905449e+000 1.951803e+000 1.997275e+000 1.929474e+000 1.771832e+000 1.692524e+000 1.291759e+000
<GCONST> 9.455585e+001
<TRANSP> 5
 0.000000e+000 1.000000e+000 0.000000e+000 0.000000e+000 0.000000e+000
 0.000000e+000 8.704193e-001 1.295807e-001 0.000000e+000 0.000000e+000
 0.000000e+000 0.000000e+000 7.436772e-001 2.563227e-001 0.000000e+000
 0.000000e+000 0.000000e+000 0.000000e+000 8.197802e-001 1.802198e-001
 0.000000e+000 0.000000e+000 0.000000e+000 0.000000e+000 0.000000e+000
<ENDHMM>
~h "oi"
<BEGINHMM>
<NUMSTATES> 5
<STATE> 2
<MEAN> 25
 8.955933e+000 -3.347123e+000 -7.733920e+000 -1.451631e+001 -6.979855e+000 1.300297e+001 -4.339211e+000 -4.346136e+000 3.699826e+000 7.792753e-001 4.381258e+000 -1.241309e-001 -1.333843e-001 -6.090213e-001 2.196811e-001 -4.534098e-001 -7.743801e-002 -1.407649e-001 -7.642235e-001 2.337063e-001 2.614223e-001 9.850557e-001 -6.820953e-002 -9.721263e-001 8.340536e-001
<VARIANCE> 25
 1.182416e+001 3.354517e+001 3.157987e+001 5.991690e+001 4.050853e+001 5.060404e+001 6.098845e+001 3.691671e+001 4.201317e+001 4.807701e+001 4.372880e+001 5.728378e+001 1.183836e+000 1.204633e+000 1.398895e+000 7.016685e+000 4.060660e+000 6.803448e+000 3.330306e+000 2.589083e+000 3.263973e+000 4.081884e+000 3.415498e+000 3.057228e+000 1.141747e+000
<GCONST> 1.034371e+002
<STATE> 3
<MEAN> 25
 4.024272e+000 -7.036143e+000 3.339530e+000 -4.750944e+000 -9.024611e+000 -7.615908e+000 -9.034704e+000 6.056082e+000 5.221564e-001 5.193711e+000 1.134181e+000 -3.589280e+000 -7.620395e-001 3.976222e-001 2.879441e+000 1.474619e+000 -1.908655e+000 -2.568425e+000 4.709377e-001 8.290108e-001 -2.092261e+000 -1.041054e+000 5.383077e-001 1.229303e+000 -3.677384e-001
<VARIANCE> 25
 7.542577e+000 2.408053e+001 7.027199e+001 3.258580e+001 4.786053e+001 6.118395e+001 2.953875e+001 6.432538e+001 5.758792e+001 4.198352e+001 4.887461e+001 4.359699e+001 4.127705e-001 9.338281e-001 1.421511e+000 2.291476e+000 2.332096e+000 5.317451e+000 2.259632e+000 6.021458e+000 4.071867e+000 2.351089e+000 4.248127e+000 3.093638e+000 2.609428e-001
<GCONST> 9.871904e+001
<STATE> 4
<MEAN> 25
 -2.661565e-001 6.604931e-001 1.134534e+001 1.257006e+000 -9.295220e+000 -8.015722e+000 -2.301406e+000 -1.082066e+000 -7.075646e+000 5.059559e-001 2.262278e+000 7.569849e-001 -8.605519e-002 4.948367e-001 -4.115114e-001 3.020473e-001 8.137072e-001 3.207655e-001 3.114489e-001 -4.784476e-001 2.269175e-001 -2.314677e-001 -4.010419e-001 1.897269e-002 -1.219280e+000
<VARIANCE> 25
 1.967297e+001 3.274111e+001 6.537282e+001 3.133498e+001 6.706198e+001 6.417440e+001 5.841821e+001 8.015000e+001 6.192051e+001 3.826968e+001 4.124420e+001 3.519381e+001 9.379778e-001 1.716189e+000 3.235588e+000 1.759791e+000 2.441259e+000 2.293318e+000 2.686819e+000 3.618256e+000 3.448611e+000 2.252793e+000 2.164463e+000 2.200465e+000 1.404100e+000
<GCONST> 1.020720e+002
<TRANSP> 5
 0.000000e+000 1.000000e+000 0.000000e+000 0.000000e+000 0.000000e+000
 0.000000e+000 9.039677e-001 9.603234e-002 0.000000e+000 0.000000e+000
 0.000000e+000 0.000000e+000 8.334146e-001 1.665854e-001 0.000000e+000
 0.000000e+000 0.000000e+000 0.000000e+000 9.090221e-001 9.097790e-002
 0.000000e+000 0.000000e+000 0.000000e+000 0.000000e+000 0.000000e+000
<ENDHMM>
~h "sy"
<BEGINHMM>
<NUMSTATES> 5
<STATE> 2
<MEAN> 25
 -8.883494e+000 4.153026e+000 2.847321e+000 2.115183e+000 2.728986e+000 -1.973592e+000 3.157428e+000 1.342335e+000 1.228583e+000 -2.605887e+000 -6.538758e-001 3.319108e+000 -3.649382e+000 3.475389e-001 -1.388485e-001 -1.026272e-001 5.398818e-001 3.757515e-001 9.080011e-001 3.302256e-001 6.021486e-001 -1.756968e-001 8.853397e-001 4.416518e-001 6.711887e-002
<VARIANCE> 25
 7.537711e+001 3.539879e+001 4.984723e+001 3.041032e+001 4.371072e+001 5.355903e+001 4.628660e+001 4.059928e+001 4.125159e+001 3.239323e+001 3.114485e+001 2.606055e+001 5.758152e+000 5.010776e+000 3.769204e+000 3.657781e+000 4.773360e+000 4.288462e+000 5.470957e+000 4.126571e+000 3.604537e+000 3.587654e+000 3.799934e+000 2.679631e+000 2.841748e+000
<GCONST> 1.084001e+002
<STATE> 3
<MEAN> 25
 -2.294815e+001 1.060135e+000 1.554338e+000 -2.136009e+000 2.598656e+000 -1.133459e+000 5.432790e+000 2.338675e+000 3.267832e+000 3.125001e-001 4.159667e+000 5.048273e+000 -1.698576e-001 -5.066723e-001 -6.063050e-002 -2.551166e-001 -4.172044e-001 -3.839504e-002 7.262986e-002 -4.666128e-002 1.935340e-001 2.533331e-001 1.728894e-001 1.220634e-001 1.766221e-001
<VARIANCE> 25
 1.623828e+001 2.644614e+001 3.339225e+001 2.136614e+001 5.103848e+001 3.553141e+001 3.945924e+001 3.337719e+001 3.310140e+001 2.230779e+001 1.811433e+001 1.843657e+001 1.577102e+000 9.306303e-001 1.141412e+000 1.256900e+000 1.421691e+000 1.636412e+000 1.574814e+000 1.589515e+000 1.487718e+000 1.589011e+000 1.498170e+000 1.308907e+000 6.495640e-001
<GCONST> 8.929010e+001
<STATE> 4
<MEAN> 25
 -1.057342e+001 2.954654e-001 6.077273e+000 -8.539400e-001 -3.755821e+000 -4.700133e+000 1.624079e+000 7.469885e-001 1.726059e+000 -2.065514e+000 2.313180e+000 4.081633e+000 5.450424e+000 -3.913265e-001 1.145781e+000 1.037149e-001 -1.404805e+000 -1.367431e+000 -2.165353e+000 4.054033e-001 -7.174858e-001 -6.462408e-001 -8.707055e-001 -7.133504e-001 1.284850e+000
<VARIANCE> 25
 1.047079e+002 2.731975e+001 5.661325e+001 3.036817e+001 5.833869e+001 4.312547e+001 5.610819e+001 4.091279e+001 4.132467e+001 2.668713e+001 3.109398e+001 1.713926e+001 3.922374e+000 4.451999e+000 5.100046e+000 3.358989e+000 6.297646e+000 3.689654e+000 4.539402e+000 6.016705e+000 5.509433e+000 3.467949e+000 4.149854e+000 2.696135e+000 2.206857e+000
<GCONST> 1.085190e+002
<TRANSP> 5
 0.000000e+000 1.000000e+000 0.000000e+000 0.000000e+000 0.000000e+000
 0.000000e+000 8.057783e-001 1.942217e-001 0.000000e+000 0.000000e+000
 0.000000e+000 0.000000e+000 8.795699e-001 1.204301e-001 0.000000e+000
 0.000000e+000 0.000000e+000 0.000000e+000 7.410451e-001 2.589549e-001
 0.000000e+000 0.000000e+000 0.000000e+000 0.000000e+000 0.000000e+000
<ENDHMM>
~h "sil"
<BEGINHMM>
<NUMSTATES> 5
<STATE> 2
<MEAN> 25
 -3.757171e+000 2.882313e+000 -1.443877e+000 3.576186e+000 4.074240e+000 2.897342e-002 2.886413e+000 3.444560e+000 -9.989166e-001 -7.436211e-002 8.755476e-001 1.702044e+000 -3.141769e-002 2.778720e-002 -1.199600e-002 3.294107e-003 -1.322302e-002 -1.994366e-002 -5.007950e-003 -1.096809e-002 4.084267e-003 8.050020e-003 1.731057e-002 2.046302e-003 -6.226056e-002
<VARIANCE> 25
 5.196657e+000 2.176564e+001 1.488667e+001 1.670083e+001 2.192566e+001 1.976878e+001 2.614906e+001 3.163395e+001 2.275142e+001 2.214045e+001 1.859879e+001 1.793608e+001 2.654593e-001 6.232703e-001 6.985588e-001 1.042467e+000 1.156073e+000 1.397406e+000 1.483250e+000 1.821009e+000 1.632069e+000 1.656677e+000 1.487727e+000 1.445743e+000 2.958587e-001
<GCONST> 8.091266e+001
<STATE> 3
<MEAN> 25
 -5.724359e+000 3.125845e+000 -3.554065e+000 3.506673e+000 3.688698e+000 -1.184429e+000 6.011901e+000 -8.890280e-001 1.636129e+000 -6.591930e-001 4.350446e-001 2.941132e+000 -1.373245e-002 1.349651e-002 6.071500e-003 1.544032e-003 -3.640756e-003 -1.938204e-003 4.099973e-003 -1.098397e-003 1.144980e-002 2.573235e-002 8.766588e-003 -5.660092e-003 -1.875287e-002
<VARIANCE> 25
 9.283459e+000 7.918143e+000 9.185596e+000 1.683401e+001 1.476710e+001 1.867949e+001 1.863845e+001 1.859188e+001 2.094525e+001 2.017639e+001 1.830534e+001 1.480997e+001 1.499535e-001 3.193105e-001 4.795526e-001 6.914427e-001 9.079182e-001 1.113336e+000 1.240741e+000 1.405678e+000 1.418323e+000 1.424635e+000 1.351496e+000 1.228911e+000 7.390758e-002
<GCONST> 7.343192e+001
<STATE> 4
<MEAN> 25
 -7.313388e+000 1.695524e+000 -2.865135e+000 4.718667e+000 4.827859e+000 -1.483609e+000 5.950830e+000 4.392203e-001 1.600745e+000 -3.288327e-002 9.826360e-001 3.794550e+000 1.359854e-003 -4.159899e-003 1.374201e-002 -9.516899e-003 9.162369e-003 -5.784717e-003 -1.331358e-002 -1.066285e-002 -9.040578e-003 1.367247e-003 -1.966834e-002 -1.672889e-002 9.426569e-002
<VARIANCE> 25
 1.554280e+001 2.266122e+001 1.852082e+001 3.060034e+001 2.534193e+001 3.030387e+001 2.959447e+001 3.757639e+001 2.592191e+001 2.774714e+001 2.137260e+001 2.222956e+001 9.336827e-001 1.475954e+000 1.307645e+000 1.808344e+000 1.721545e+000 2.168932e+000 1.993360e+000 2.607240e+000 2.021625e+000 2.180587e+000 1.820862e+000 1.731801e+000 2.105126e+000
<GCONST> 9.207379e+001
<TRANSP> 5
 0.000000e+000 1.000000e+000 0.000000e+000 0.000000e+000 0.000000e+000
 0.000000e+000 9.632401e-001 3.675988e-002 0.000000e+000 0.000000e+000
 0.000000e+000 0.000000e+000 9.668394e-001 3.316065e-002 0.000000e+000
 0.000000e+000 0.000000e+000 0.000000e+000 9.555430e-001 4.445705e-002
 0.000000e+000 0.000000e+000 0.000000e+000 0.000000e+000 0.000000e+000
<ENDHMM>
