~o
<STREAMINFO> 1 25
<VECSIZE> 25<NULLD><MFCC_D_N_Z_0><DIAGC>
~s "silst"
<MEAN> 25
 -6.243004e+000 3.288405e+000 -3.636194e+000 3.845549e+000 4.150136e+000 -1.180984e+000 6.417680e+000 -8.562107e-001 1.849249e+000 -3.969619e-001 6.220590e-001 3.157862e+000 -1.239451e-002 1.084818e-002 2.308640e-003 -3.475047e-003 1.781011e-003 3.118231e-003 1.600707e-003 -9.393910e-004 8.621962e-003 2.404272e-002 5.908209e-003 -7.497001e-003 -1.409324e-002
<VARIANCE> 25
 9.455557e+000 7.651659e+000 8.865683e+000 1.651407e+001 1.545155e+001 1.801009e+001 1.759207e+001 1.724665e+001 1.991084e+001 1.995650e+001 1.751521e+001 1.447884e+001 1.447079e-001 3.027461e-001 4.629766e-001 6.599880e-001 8.666663e-001 1.078292e+000 1.213257e+000 1.333091e+000 1.393996e+000 1.383431e+000 1.317798e+000 1.201684e+000 6.552547e-002
<GCONST> 7.256981e+001
~h "@"
<BEGINHMM>
<NUMSTATES> 5
<STATE> 2
<MEAN> 25
 2.995704e+000 -3.085954e-001 -1.996164e-001 -1.324795e+000 -1.606467e+000 -2.459568e+000 -3.817070e+000 -1.730125e+000 2.553603e-001 1.526631e+000 4.860253e-001 -8.474834e-001 2.279827e+000 -1.247518e+000 2.485220e-001 -1.839160e+000 -1.563690e+000 6.083324e-001 -2.333200e+000 1.084191e+000 5.780806e-001 8.462455e-001 6.063598e-001 -1.317263e+000 2.971093e+000
<VARIANCE> 25
 3.877210e+001 3.255777e+001 4.430212e+001 5.069451e+001 4.591541e+001 6.571384e+001 6.475160e+001 5.220481e+001 5.598725e+001 3.403945e+001 3.822445e+001 2.972849e+001 7.459171e+000 4.010698e+000 6.875518e+000 6.191218e+000 6.481974e+000 6.637728e+000 8.168305e+000 1.000444e+001 8.732194e+000 5.352393e+000 5.805479e+000 4.466449e+000 7.427271e+000
<GCONST> 1.159503e+002
<STATE> 3
<MEAN> 25
 6.106377e+000 -4.348410e+000 -1.993334e-001 -5.176957e+000 -4.380668e+000 -7.810518e-003 -8.759386e+000 1.686646e+000 1.618419e+000 3.728916e+000 2.123474e+000 -3.521049e+000 1.146519e+000 -1.116199e+000 2.519561e-001 -9.745395e-001 -9.764329e-001 7.167295e-001 -1.368697e+000 1.240634e+000 4.434030e-001 7.854641e-001 3.572765e-001 -1.000493e+000 1.171132e+000
<VARIANCE> 25
 1.595048e+001 2.970962e+001 4.444688e+001 5.169038e+001 4.788462e+001 8.208376e+001 6.068640e+001 6.739450e+001 6.599765e+001 4.438522e+001 5.112180e+001 3.635239e+001 3.191601e+000 2.274831e+000 3.597586e+000 4.085256e+000 4.246719e+000 5.143440e+000 5.495949e+000 7.916486e+000 6.168772e+000 4.617995e+000 4.671592e+000 3.447688e+000 2.549015e+000
<GCONST> 1.105415e+002
<STATE> 4
<MEAN> 25
 5.400239e+000 -4.138323e+000 2.050708e+000 -3.646300e+000 -6.507051e+000 -1.460771e+000 -8.330153e+000 3.448522e+000 9.773089e-001 3.489273e+000 2.444753e+000 -3.847674e+000 9.039482e-002 2.806371e-001 1.653371e-001 3.563909e-001 1.500513e-001 3.289767e-002 3.452140e-001 -2.522045e-001 -1.722164e-001 -4.854348e-002 -1.490539e-001 6.800945e-002 -6.145505e-001
<VARIANCE> 25
 1.709644e+001 3.371180e+001 4.847114e+001 4.363187e+001 5.691747e+001 7.102696e+001 8.515351e+001 7.272009e+001 6.203855e+001 4.867199e+001 4.949631e+001 3.933675e+001 7.164960e-001 1.527328e+000 1.566703e+000 2.078164e+000 2.393383e+000 2.564275e+000 2.794330e+000 3.201445e+000 3.133504e+000 2.466447e+000 2.509836e+000 1.927922e+000 2.223741e+000
<GCONST> 1.022800e+002
<TRANSP> 5
 0.000000e+000 1.000000e+000 0.000000e+000 0.000000e+000 0.000000e+000
 0.000000e+000 3.117756e-001 6.882244e-001 0.000000e+000 0.000000e+000
 0.000000e+000 0.000000e+000 1.578716e-001 8.421284e-001 0.000000e+000
 0.000000e+000 0.000000e+000 0.000000e+000 7.231543e-001 2.768457e-001
 0.000000e+000 0.000000e+000 0.000000e+000 0.000000e+000 0.000000e+000
<ENDHMM>
~h "a"
<BEGINHMM>
<NUMSTATES> 5
<STATE> 2
<MEAN> 25
 4.959080e+000 -8.355884e+000 -3.644796e+000 -6.696362e+000 -1.748337e+000 2.285327e+000 -4.212780e+000 4.918923e+000 4.410860e+000 1.035491e+000 -2.024070e+000 -5.296900e+000 6.494616e-001 -2.117446e+000 -1.188401e+000 -1.204089e+000 5.983796e-001 1.596954e+000 -1.992508e-001 1.506447e+000 9.347464e-001 -5.356484e-001 -1.226580e+000 -1.616507e+000 1.959134e+000
<VARIANCE> 25
 1.691253e+001 2.829371e+001 3.757281e+001 4.132937e+001 5.425309e+001 7.374899e+001 5.221020e+001 7.955608e+001 4.945808e+001 4.597054e+001 4.876536e+001 3.545301e+001 2.726506e+000 2.589935e+000 2.970025e+000 3.650294e+000 4.534263e+000 4.204681e+000 5.020071e+000 6.913085e+000 4.649982e+000 4.288972e+000 4.553790e+000 3.339952e+000 4.396433e+000
<GCONST> 1.093043e+002
<STATE> 3
<MEAN> 25
 4.898085e+000 -1.204687e+001 -5.733474e+000 -7.479710e+000 1.292659e+000 6.145799e+000 -3.604301e+000 5.555490e+000 5.263732e+000 -1.499534e+000 -5.158126e+000 -7.330640e+000 -1.133898e-002 -1.933784e-001 -6.676975e-002 8.857777e-002 3.971545e-001 7.852823e-002 2.128456e-001 3.765061e-002 -7.489628e-002 -1.767273e-001 -3.545248e-001 -3.715938e-002 -1.006608e-002
<VARIANCE> 25
 8.480947e+000 1.906452e+001 2.327202e+001 2.340469e+001 3.383580e+001 4.752659e+001 3.264024e+001 5.649602e+001 3.575068e+001 3.682376e+001 3.767921e+001 2.861472e+001 3.454414e-001 8.184767e-001 8.630810e-001 1.084134e+000 1.501353e+000 2.193311e+000 1.643145e+000 2.268530e+000 1.499231e+000 1.692700e+000 1.845013e+000 1.370513e+000 5.746214e-001
<GCONST> 8.888374e+001
<STATE> 4
<MEAN> 25
 3.914392e+000 -7.859312e+000 -5.087813e+000 -4.929105e+000 2.344083e+000 2.446601e+000 -1.241050e+000 4.750374e+000 4.426512e+000 -2.937102e-001 -4.880280e+000 -4.937161e+000 -2.391931e-002 1.253168e+000 5.723065e-001 7.300974e-001 -1.565979e-001 -7.164126e-001 1.089289e-001 -3.418889e-001 -4.089513e-001 3.597597e-001 4.010176e-001 4.984128e-001 -1.850892e+000
<VARIANCE> 25
 1.814271e+001 3.249848e+001 2.676277e+001 3.920435e+001 4.998941e+001 5.198207e+001 4.552827e+001 5.862855e+001 4.068292e+001 4.361681e+001 4.279794e+001 3.828635e+001 1.076556e+000 2.001289e+000 1.807429e+000 2.204999e+000 2.650017e+000 3.058711e+000 3.127200e+000 3.701695e+000 2.850528e+000 2.881590e+000 2.735526e+000 2.427258e+000 3.162431e+000
<GCONST> 1.017593e+002
<TRANSP> 5
 0.000000e+000 1.000000e+000 0.000000e+000 0.000000e+000 0.000000e+000
 0.000000e+000 5.363021e-001 4.636979e-001 0.000000e+000 0.000000e+000
 0.000000e+000 0.000000e+000 7.555655e-001 2.444346e-001 0.000000e+000
 0.000000e+000 0.000000e+000 0.000000e+000 7.205294e-001 2.794705e-001
 0.000000e+000 0.000000e+000 0.000000e+000 0.000000e+000 0.000000e+000
<ENDHMM>
~h "b"
<BEGINHMM>
<NUMSTATES> 5
<STATE> 2
<MEAN> 25
 9.465369e+000 7.945592e+000 4.002879e+000 2.710763e+000 1.660898e+000 4.618804e+000 1.190229e+000 -6.414712e+000 -3.812220e+000 -6.080134e-001 3.343757e-001 -1.436354e+000 4.324512e-001 1.442031e+000 3.900919e-001 6.951861e-001 6.842762e-001 2.477195e-001 1.018366e+000 -3.703437e-001 -2.030170e-001 -2.780898e-001 -2.174375e-001 5.094276e-002 -1.472765e+000
<VARIANCE> 25
 2.999421e+001 3.956171e+001 2.654011e+001 3.723536e+001 3.398381e+001 3.400204e+001 4.437527e+001 3.881813e+001 4.443811e+001 2.935051e+001 3.664223e+001 2.781857e+001 2.136808e+000 2.694335e+000 2.278301e+000 3.053970e+000 2.825135e+000 3.002426e+000 3.570253e+000 3.523986e+000 3.596635e+000 2.755580e+000 2.918142e+000 2.235069e+000 5.470757e+000
<GCONST> 1.027547e+002
<STATE> 3
<MEAN> 25
 9.072614e+000 9.635536e+000 4.454501e+000 4.022911e+000 2.818322e+000 4.413234e+000 2.955100e+000 -6.680474e+000 -4.537801e+000 -1.410390e+000 8.808868e-001 -2.498105e-001 -1.209601e+000 -2.386553e+000 -1.654752e+000 -1.484751e+000 -4.742474e-001 -9.409099e-001 -1.853349e+000 7.571461e-001 1.194969e+000 5.359483e-001 1.391099e+000 6.027840e-001 3.742619e+000
<VARIANCE> 25
 2.613681e+001 2.821325e+001 2.004893e+001 2.739240e+001 3.032800e+001 3.314540e+001 3.033948e+001 3.486041e+001 3.689729e+001 2.351672e+001 3.283168e+001 2.467600e+001 1.954674e+000 3.193614e+000 3.370150e+000 6.022328e+000 4.217275e+000 3.921374e+000 4.424661e+000 3.904669e+000 5.483420e+000 4.267241e+000 4.228171e+000 3.140109e+000 5.375038e+000
<GCONST> 1.041156e+002
<STATE> 4
<MEAN> 25
 6.043990e+000 7.892773e-001 -1.792238e+000 -2.722876e+000 -6.241978e-001 2.650949e+000 -3.962823e+000 -5.238531e+000 4.089695e-001 2.728619e+000 5.537155e+000 -1.700493e-001 -6.301732e-001 -3.137601e+000 -1.450473e+000 -2.470343e+000 -1.851310e+000 3.832728e-003 -2.553743e+000 1.356649e+000 2.068917e+000 1.190509e+000 4.693187e-001 -1.036117e+000 4.764678e+000
<VARIANCE> 25
 2.393763e+001 3.131001e+001 2.781128e+001 8.229613e+001 3.753476e+001 5.303716e+001 4.821076e+001 3.309676e+001 3.813166e+001 4.177069e+001 4.002023e+001 2.842432e+001 2.497263e+000 4.554408e+000 5.453161e+000 8.856565e+000 4.721128e+000 6.916285e+000 6.085084e+000 8.002729e+000 1.031302e+001 6.689923e+000 5.766736e+000 6.399199e+000 6.251846e+000
<GCONST> 1.130386e+002
<TRANSP> 5
 0.000000e+000 1.000000e+000 0.000000e+000 0.000000e+000 0.000000e+000
 0.000000e+000 7.777370e-001 2.222631e-001 0.000000e+000 0.000000e+000
 0.000000e+000 0.000000e+000 4.635397e-001 5.364602e-001 0.000000e+000
 0.000000e+000 0.000000e+000 0.000000e+000 3.332219e-001 6.667781e-001
 0.000000e+000 0.000000e+000 0.000000e+000 0.000000e+000 0.000000e+000
<ENDHMM>
~h "c"
<BEGINHMM>
<NUMSTATES> 5
<STATE> 2
<MEAN> 25
 -1.371169e+000 5.653123e+000 2.169649e+000 4.259594e+000 8.100228e-001 -4.868595e+000 1.764341e+000 -3.329632e-001 2.612421e-001 -2.067250e+000 -4.300645e-001 2.671555e+000 -1.589188e+000 1.154718e-001 -7.749471e-001 -2.366330e-001 6.776284e-001 1.475085e-001 6.074331e-001 -2.239692e-001 3.436691e-001 8.528148e-002 1.824730e-001 1.126437e-001 -1.416098e+000
<VARIANCE> 25
 2.728344e+001 3.551211e+001 3.827491e+001 2.429020e+001 4.340061e+001 4.581241e+001 4.934929e+001 4.590813e+001 4.125152e+001 3.079769e+001 2.731332e+001 2.495072e+001 4.278085e+000 5.117912e+000 2.914489e+000 3.166078e+000 4.222071e+000 3.297220e+000 3.778400e+000 3.711574e+000 3.464356e+000 3.070799e+000 2.678452e+000 2.613669e+000 1.024148e+001
<GCONST> 1.058694e+002
<STATE> 3
<MEAN> 25
 -1.669078e+001 1.947397e+000 -3.717235e+000 -1.958532e+000 3.839066e+000 -3.481538e+000 3.992554e+000 -8.609708e-001 1.616057e+000 3.731240e-001 2.538455e+000 4.346130e+000 -2.193533e+000 -5.529560e-001 -1.957922e-001 -1.082027e+000 -4.247505e-001 -3.657962e-001 1.401902e-001 4.555235e-001 2.876592e-001 6.240372e-003 4.375795e-001 5.252787e-001 4.075365e+000
<VARIANCE> 25
 3.647453e+001 2.544471e+001 2.993010e+001 3.300967e+001 2.937769e+001 3.907203e+001 4.529445e+001 3.263132e+001 2.688643e+001 2.678494e+001 1.886220e+001 1.686695e+001 8.026536e+000 2.581832e+000 4.410024e+000 3.582937e+000 3.513207e+000 3.617550e+000 3.597616e+000 3.671638e+000 3.054162e+000 2.765943e+000 2.550477e+000 1.837226e+000 6.185246e+000
<GCONST> 1.027769e+002
<STATE> 4
<MEAN> 25
 -1.015952e+001 9.001058e-001 1.267966e+000 -1.213019e+000 -9.747789e-001 -6.198648e+000 1.327798e+000 2.494939e+000 2.729163e+000 -2.298226e+000 7.794873e-002 3.880781e+000 5.634918e+000 -1.433591e+000 1.773904e+000 8.666570e-002 -1.834215e+000 -2.642402e-001 -2.612211e+000 1.101509e+000 2.694931e-001 -5.177397e-001 -1.272459e+000 -1.315464e+000 2.277308e+000
<VARIANCE> 25
 9.246249e+001 2.817563e+001 3.680024e+001 3.122058e+001 3.114271e+001 3.824241e+001 7.106514e+001 3.768506e+001 3.106456e+001 2.732163e+001 2.720665e+001 2.005131e+001 3.479397e+000 5.813753e+000 4.924787e+000 5.768846e+000 4.025821e+000 5.258030e+000 5.779769e+000 8.703961e+000 6.477696e+000 4.375974e+000 3.783370e+000 3.007177e+000 2.566676e+000
<GCONST> 1.089228e+002
<TRANSP> 5
 0.000000e+000 1.000000e+000 0.000000e+000 0.000000e+000 0.000000e+000
 0.000000e+000 8.384654e-001 1.615346e-001 0.000000e+000 0.000000e+000
 0.000000e+000 0.000000e+000 7.363753e-001 2.636247e-001 0.000000e+000
 0.000000e+000 0.000000e+000 0.000000e+000 5.941522e-001 4.058478e-001
 0.000000e+000 0.000000e+000 0.000000e+000 0.000000e+000 0.000000e+000
<ENDHMM>
~h "d"
<BEGINHMM>
<NUMSTATES> 5
<STATE> 2
<MEAN> 25
 5.391121e+000 4.237628e+000 5.551780e+000 6.423695e+000 6.125450e-003 -2.407072e+000 -1.874176e+000 -8.834783e-001 1.891572e+000 -1.703244e+000 -3.546201e+000 -8.140288e-001 5.436982e-001 1.202390e+000 7.358873e-001 9.936851e-001 7.297560e-001 -3.033974e-001 3.718672e-001 -2.004153e-001 3.364382e-001 -2.578718e-001 -5.008021e-001 -8.791048e-002 -1.364186e+000
<VARIANCE> 25
 5.261556e+001 5.094156e+001 4.604960e+001 3.834646e+001 4.552471e+001 4.048123e+001 5.897521e+001 7.097082e+001 4.399483e+001 4.076182e+001 3.886583e+001 3.193552e+001 2.776792e+000 3.562811e+000 2.946916e+000 3.147527e+000 3.877671e+000 3.089490e+000 4.237620e+000 5.411790e+000 3.778503e+000 3.337198e+000 3.510147e+000 2.558316e+000 6.401738e+000
<GCONST> 1.085122e+002
<STATE> 3
<MEAN> 25
 6.830896e+000 5.879270e+000 8.790550e+000 8.204860e+000 1.471006e+000 -3.361180e+000 -1.554385e+000 -1.019335e+000 1.819178e+000 -2.328904e+000 -3.827784e+000 -4.769741e-001 -1.950634e+000 -2.715763e+000 -1.986267e-001 -2.107338e+000 -7.594608e-001 -4.263152e-001 -9.026023e-001 1.247247e+000 -6.673282e-001 2.649619e-002 1.788779e+000 1.328673e+000 4.043298e+000
<VARIANCE> 25
 3.098665e+001 4.140141e+001 3.158315e+001 3.349797e+001 3.478703e+001 4.096755e+001 5.062304e+001 4.865677e+001 3.784756e+001 3.773956e+001 3.414088e+001 3.152347e+001 2.127408e+000 3.308288e+000 3.992783e+000 3.589430e+000 5.857233e+000 4.320072e+000 5.963902e+000 8.209326e+000 6.094513e+000 4.468039e+000 3.715841e+000 3.180458e+000 5.016216e+000
<GCONST> 1.085070e+002
<STATE> 4
<MEAN> 25
 1.974143e+000 -3.219342e+000 6.472787e+000 7.766593e-001 -4.320067e+000 -5.040192e+000 -5.824536e+000 3.308008e+000 1.075409e+000 -1.097213e+000 1.742680e+000 2.868271e+000 -7.478580e-001 -2.208750e+000 -7.671615e-001 -2.136679e+000 -2.533970e+000 -8.113398e-002 -1.477694e+000 1.725946e+000 2.416855e-001 2.983563e-001 1.242486e+000 -7.833064e-002 4.318624e+000
<VARIANCE> 25
 2.268932e+001 3.215269e+001 4.543931e+001 3.408612e+001 6.072277e+001 4.757316e+001 8.894633e+001 6.805231e+001 5.928706e+001 2.993548e+001 3.069742e+001 2.775756e+001 3.140914e+000 3.851234e+000 6.487488e+000 4.797306e+000 6.238319e+000 4.505756e+000 6.796174e+000 1.203448e+001 9.361719e+000 5.061767e+000 6.349134e+000 4.199317e+000 6.017504e+000
<GCONST> 1.133979e+002
<TRANSP> 5
 0.000000e+000 1.000000e+000 0.000000e+000 0.000000e+000 0.000000e+000
 0.000000e+000 7.836685e-001 2.163315e-001 0.000000e+000 0.000000e+000
 0.000000e+000 0.000000e+000 4.767264e-001 5.232735e-001 0.000000e+000
 0.000000e+000 0.000000e+000 0.000000e+000 3.509796e-001 6.490204e-001
 0.000000e+000 0.000000e+000 0.000000e+000 0.000000e+000 0.000000e+000
<ENDHMM>
~h "e"
<BEGINHMM>
<NUMSTATES> 5
<STATE> 2
<MEAN> 25
 2.500706e+000 -4.338737e+000 3.115666e+000 -3.733109e-001 -5.663429e+000 -5.078937e+000 -2.728764e+000 3.277735e+000 4.053996e-001 6.583700e-001 1.486206e+000 -8.922079e-001 7.044655e-001 -1.764487e+000 1.062296e+000 -9.080005e-001 -2.013078e+000 -4.585728e-001 -6.468097e-001 2.156723e+000 -2.236244e-001 -2.228993e-001 2.909604e-001 -3.421976e-001 2.618717e+000
<VARIANCE> 25
 4.106430e+001 5.408157e+001 5.663883e+001 4.650164e+001 5.830360e+001 5.198298e+001 6.806718e+001 7.703680e+001 6.107841e+001 4.274271e+001 4.601787e+001 3.589718e+001 4.976883e+000 4.607606e+000 4.452831e+000 5.264780e+000 6.498775e+000 5.440458e+000 6.754726e+000 8.985726e+000 7.448345e+000 5.272132e+000 5.413571e+000 3.741860e+000 9.355733e+000
<GCONST> 1.162605e+002
<STATE> 3
<MEAN> 25
 4.083428e+000 -7.565304e+000 6.196718e+000 -2.035442e+000 -1.056303e+001 -5.675629e+000 -3.248125e+000 7.853913e+000 -4.969400e-001 -1.211819e-001 3.392262e+000 -1.388946e+000 -1.421392e-001 -7.553450e-002 4.834408e-001 -1.924694e-001 -7.024898e-001 -6.218072e-002 4.065492e-001 4.057735e-001 -3.390960e-001 5.063526e-002 3.102176e-001 -3.298374e-002 1.975399e-001
<VARIANCE> 25
 1.718120e+001 4.413012e+001 5.103830e+001 4.241242e+001 5.534522e+001 4.777336e+001 6.342473e+001 8.433989e+001 6.892801e+001 4.357486e+001 5.572412e+001 3.604623e+001 1.277457e+000 2.361862e+000 2.236345e+000 2.573679e+000 3.893721e+000 2.995834e+000 3.959344e+000 4.089131e+000 3.840601e+000 2.955427e+000 2.949999e+000 2.337703e+000 5.290870e+000
<GCONST> 1.064572e+002
<STATE> 4
<MEAN> 25
 2.317021e+000 -6.385328e+000 7.201460e+000 -2.599056e+000 -1.124731e+001 -6.378238e+000 3.285268e-001 7.218352e+000 -1.986630e+000 4.881837e-001 3.307024e+000 -8.028620e-001 5.285218e-002 3.388934e-001 -2.720869e-001 2.848338e-001 5.426885e-001 8.478093e-002 4.460289e-002 -3.241087e-001 7.897557e-002 3.217042e-002 -3.274591e-001 -4.702125e-002 -5.472919e-001
<VARIANCE> 25
 1.447241e+001 4.114211e+001 5.286076e+001 3.727070e+001 5.262207e+001 5.124343e+001 6.019408e+001 7.015585e+001 5.761589e+001 4.175058e+001 4.430009e+001 3.066807e+001 5.902222e-001 1.143093e+000 1.302006e+000 1.472245e+000 2.050150e+000 1.680673e+000 2.218644e+000 2.147917e+000 2.019178e+000 1.793266e+000 1.752139e+000 1.399027e+000 1.926423e+000
<GCONST> 9.706448e+001
<TRANSP> 5
 0.000000e+000 1.000000e+000 0.000000e+000 0.000000e+000 0.000000e+000
 0.000000e+000 5.617927e-001 4.382073e-001 0.000000e+000 0.000000e+000
 0.000000e+000 0.000000e+000 5.944303e-001 4.055696e-001 0.000000e+000
 0.000000e+000 0.000000e+000 0.000000e+000 8.210283e-001 1.789717e-001
 0.000000e+000 0.000000e+000 0.000000e+000 0.000000e+000 0.000000e+000
<ENDHMM>
~h "f"
<BEGINHMM>
<NUMSTATES> 5
<STATE> 2
<MEAN> 25
 -7.507486e-001 1.729303e+000 -2.406876e-001 3.149628e+000 1.774354e+000 7.744175e-001 2.226412e+000 -8.807639e-001 5.859574e-001 1.152057e-001 4.461014e-001 6.958053e-001 -3.128627e+000 1.717310e-001 -6.479623e-001 1.521519e+000 9.292226e-001 -6.400649e-001 7.391374e-001 3.370721e-001 9.252307e-001 -1.166704e-001 1.533358e-002 5.094889e-001 -1.399998e+000
<VARIANCE> 25
 5.429655e+001 3.104634e+001 4.458958e+001 5.073466e+001 4.130755e+001 5.753146e+001 4.304150e+001 4.583452e+001 4.295034e+001 3.124013e+001 3.109075e+001 3.143575e+001 4.412521e+000 4.431098e+000 3.883648e+000 5.413847e+000 5.498475e+000 6.206523e+000 5.493068e+000 5.091896e+000 4.570304e+000 3.726153e+000 3.412830e+000 3.013248e+000 3.089442e+000
<GCONST> 1.097217e+002
<STATE> 3
<MEAN> 25
 -1.081067e+001 -1.432333e+000 -3.840686e+000 4.367299e+000 2.612487e+000 -9.506081e-001 2.463367e+000 4.586073e-001 2.576518e+000 8.317998e-002 1.146312e+000 3.263566e+000 -4.244145e-001 -3.247122e-001 -2.311779e-001 -3.649573e-002 2.124362e-002 -5.784210e-003 2.304485e-002 6.371421e-002 4.981083e-002 3.443956e-002 6.818409e-002 7.364734e-002 -2.066220e-001
<VARIANCE> 25
 2.979550e+001 2.312291e+001 1.890497e+001 1.879782e+001 2.310511e+001 2.737704e+001 2.861471e+001 2.544280e+001 2.580529e+001 2.386001e+001 1.877013e+001 1.734672e+001 1.566086e+000 1.152153e+000 1.318876e+000 1.286783e+000 1.412911e+000 1.629249e+000 1.680408e+000 1.732044e+000 1.732407e+000 1.682221e+000 1.511891e+000 1.410014e+000 1.046066e+000
<GCONST> 8.849670e+001
<STATE> 4
<MEAN> 25
 -8.467642e+000 -1.877936e+000 -4.607784e+000 3.077797e+000 3.566489e+000 4.926535e-002 2.795905e+000 7.665793e-001 1.666223e+000 2.342751e-001 1.208542e+000 2.184205e+000 2.345395e+000 4.509348e-001 2.772481e-001 -8.836884e-001 -4.482579e-001 3.938558e-001 -3.286162e-001 -2.742523e-001 -4.484964e-001 -1.966671e-001 -9.981687e-002 -5.978467e-001 7.422389e-001
<VARIANCE> 25
 4.875791e+001 2.935524e+001 2.864516e+001 3.236211e+001 3.341678e+001 3.663392e+001 2.993815e+001 3.575419e+001 3.184680e+001 2.534015e+001 2.192273e+001 1.978272e+001 7.975424e+000 3.402961e+000 3.365134e+000 5.301814e+000 3.552594e+000 4.453054e+000 3.526166e+000 3.247160e+000 3.072840e+000 2.749425e+000 2.476996e+000 2.486983e+000 5.282344e+000
<GCONST> 1.038950e+002
<TRANSP> 5
 0.000000e+000 1.000000e+000 0.000000e+000 0.000000e+000 0.000000e+000
 0.000000e+000 7.285485e-001 2.714515e-001 0.000000e+000 0.000000e+000
 0.000000e+000 0.000000e+000 8.855224e-001 1.144776e-001 0.000000e+000
 0.000000e+000 0.000000e+000 0.000000e+000 7.374806e-001 2.625194e-001
 0.000000e+000 0.000000e+000 0.000000e+000 0.000000e+000 0.000000e+000
<ENDHMM>
~h "g"
<BEGINHMM>
<NUMSTATES> 5
<STATE> 2
<MEAN> 25
 8.070355e+000 5.275519e+000 6.656300e+000 4.228045e+000 -1.914924e+000 -4.202746e+000 -1.392860e+000 -1.595629e+000 -4.181271e+000 2.435292e+000 -7.262327e-002 -2.930237e+000 3.256932e-001 1.596546e+000 7.249545e-001 1.300071e+000 5.334582e-001 -5.251963e-001 1.023626e+000 -6.324152e-001 -2.893896e-002 -4.282928e-001 -2.677965e-001 2.228789e-001 -2.254069e+000
<VARIANCE> 25
 1.944043e+001 5.158232e+001 4.195845e+001 4.170760e+001 5.535090e+001 5.746673e+001 5.861664e+001 6.279218e+001 5.405094e+001 4.592685e+001 3.986049e+001 3.152582e+001 2.263026e+000 2.801718e+000 3.612922e+000 3.273216e+000 4.555182e+000 4.301580e+000 4.295875e+000 4.739612e+000 5.804193e+000 3.609404e+000 3.205730e+000 2.937297e+000 5.087169e+000
<GCONST> 1.087711e+002
<STATE> 3
<MEAN> 25
 3.307833e+000 5.340411e+000 3.959314e+000 7.175280e+000 2.785332e+000 -4.492136e+000 1.396762e+000 -2.115129e+000 -2.586465e+000 1.376607e+000 -1.482489e+000 6.670415e-001 -2.184701e+000 -2.278267e+000 -1.932578e+000 -8.068705e-001 1.256194e+000 -7.639383e-001 -8.608190e-001 1.118221e+000 1.394000e-001 1.979719e-001 1.725233e-001 1.248315e+000 3.347333e+000
<VARIANCE> 25
 4.206085e+001 5.845599e+001 6.658448e+001 3.187484e+001 6.820624e+001 5.277338e+001 4.715382e+001 4.109477e+001 4.316861e+001 3.245554e+001 2.745277e+001 3.054966e+001 2.685900e+000 4.189061e+000 6.571805e+000 4.356836e+000 8.548330e+000 5.554121e+000 4.880477e+000 5.699817e+000 5.324257e+000 3.865221e+000 3.987256e+000 3.423043e+000 5.801820e+000
<GCONST> 1.115063e+002
<STATE> 4
<MEAN> 25
 6.006502e-001 -3.175359e-001 1.357239e+000 1.426967e+000 -9.777372e-001 -7.091305e+000 -2.954172e+000 2.007572e+000 -2.431277e+000 2.863621e+000 1.601004e+000 1.762524e+000 3.023943e-001 -9.669890e-001 3.593633e-001 -2.128575e+000 -2.375259e+000 2.879364e-001 -1.161334e+000 1.421572e+000 4.055023e-001 2.949395e-001 9.318541e-001 -7.641198e-001 2.576400e+000
<VARIANCE> 25
 2.867395e+001 3.620016e+001 7.226930e+001 3.308448e+001 8.296889e+001 6.264974e+001 6.284850e+001 5.660072e+001 4.896909e+001 3.584228e+001 3.860786e+001 2.726654e+001 3.047487e+000 3.678555e+000 6.179596e+000 4.164616e+000 8.037771e+000 4.506753e+000 4.805117e+000 6.854119e+000 6.886849e+000 4.279884e+000 4.918459e+000 3.754736e+000 3.996736e+000
<GCONST> 1.122676e+002
<TRANSP> 5
 0.000000e+000 1.000000e+000 0.000000e+000 0.000000e+000 0.000000e+000
 0.000000e+000 7.443378e-001 2.556622e-001 0.000000e+000 0.000000e+000
 0.000000e+000 0.000000e+000 5.953400e-001 4.046600e-001 0.000000e+000
 0.000000e+000 0.000000e+000 0.000000e+000 5.018997e-001 4.981003e-001
 0.000000e+000 0.000000e+000 0.000000e+000 0.000000e+000 0.000000e+000
<ENDHMM>
~h "h"
<BEGINHMM>
<NUMSTATES> 5
<STATE> 2
<MEAN> 25
 2.371352e+000 -2.233254e+000 -1.794078e+000 4.813636e-001 5.877569e+000 4.437922e+000 3.396056e+000 2.837780e+000 6.898282e-001 -3.522171e-001 -3.014052e+000 5.959994e-002 -1.134256e+000 3.393236e-001 -6.036729e-003 1.631713e+000 2.090147e+000 4.496508e-001 1.669046e+000 1.291571e-001 5.441432e-001 -4.045634e-001 -9.946844e-002 8.716139e-001 -1.252847e+000
<VARIANCE> 25
 1.927580e+001 3.759424e+001 4.734792e+001 4.516830e+001 5.763348e+001 6.629601e+001 5.614966e+001 5.627461e+001 4.480043e+001 4.368347e+001 5.332407e+001 4.472304e+001 1.763752e+000 3.675242e+000 3.419774e+000 3.938886e+000 4.054487e+000 4.034596e+000 5.217887e+000 4.772646e+000 4.184302e+000 3.552386e+000 3.915967e+000 3.701861e+000 2.461530e+000
<GCONST> 1.086160e+002
<STATE> 3
<MEAN> 25
 -1.615037e+000 -3.874044e+000 -2.580289e+000 2.744563e+000 8.595077e+000 3.822199e+000 6.096849e+000 3.544745e+000 2.191943e+000 -1.252107e+000 -2.788760e+000 1.318567e+000 -5.471240e-001 -5.015633e-002 -2.450542e-001 -4.130135e-002 -1.796470e-001 -3.187697e-001 -2.028380e-002 -1.802761e-001 5.783647e-002 -2.998424e-002 2.435527e-001 1.408437e-001 -1.189579e+000
<VARIANCE> 25
 2.663873e+001 3.705764e+001 4.227379e+001 4.295275e+001 6.460440e+001 5.651363e+001 6.034227e+001 5.158942e+001 4.442852e+001 4.415199e+001 3.983371e+001 3.943559e+001 1.901487e+000 2.735189e+000 2.750027e+000 2.736269e+000 3.270975e+000 3.296128e+000 3.529764e+000 3.695498e+000 3.148761e+000 2.932938e+000 2.926991e+000 2.459391e+000 3.656952e+000
<GCONST> 1.056398e+002
<STATE> 4
<MEAN> 25
 -3.686694e+000 -3.417413e+000 -4.960299e+000 1.634674e+000 5.506287e+000 2.653738e+000 3.708261e+000 1.222840e+000 1.767778e+000 -1.807279e+000 -8.059104e-001 1.625863e+000 1.693342e-001 2.595839e-001 6.413925e-002 -8.045287e-002 -3.007100e-001 -5.533432e-002 -1.239723e-001 -1.655920e-001 -9.618836e-002 5.430727e-002 2.252200e-002 -1.162445e-001 -1.609139e-001
<VARIANCE> 25
 2.249894e+001 5.098404e+001 3.242331e+001 2.787310e+001 4.319532e+001 3.894626e+001 3.893776e+001 3.195753e+001 3.171234e+001 2.909754e+001 2.641573e+001 2.533726e+001 1.417676e+000 1.799888e+000 1.600931e+000 1.573292e+000 1.927524e+000 2.005156e+000 2.194674e+000 2.110050e+000 2.051798e+000 2.020485e+000 1.901755e+000 1.828176e+000 1.844446e+000
<GCONST> 9.571187e+001
<TRANSP> 5
 0.000000e+000 1.000000e+000 0.000000e+000 0.000000e+000 0.000000e+000
 0.000000e+000 5.176616e-001 4.823385e-001 0.000000e+000 0.000000e+000
 0.000000e+000 0.000000e+000 6.171477e-001 3.828523e-001 0.000000e+000
 0.000000e+000 0.000000e+000 0.000000e+000 8.275055e-001 1.724945e-001
 0.000000e+000 0.000000e+000 0.000000e+000 0.000000e+000 0.000000e+000
<ENDHMM>
~h "i"
<BEGINHMM>
<NUMSTATES> 5
<STATE> 2
<MEAN> 25
 -5.092834e-001 1.418143e+000 1.241726e+001 2.628513e+000 -7.826462e+000 -5.946772e+000 -2.742790e+000 -2.405369e+000 -6.531611e+000 -2.110155e+000 3.129471e+000 1.102763e+000 8.025484e-001 -1.034955e-001 3.161701e+000 -5.055175e-001 -3.017723e+000 1.439549e-001 -1.751593e+000 -3.019007e-001 -2.151750e+000 -2.487020e-001 1.290405e+000 -3.467603e-001 1.923953e+000
<VARIANCE> 25
 3.363161e+001 3.895282e+001 5.385901e+001 4.022979e+001 5.230375e+001 4.468330e+001 5.835800e+001 6.171251e+001 5.223476e+001 3.634756e+001 3.354354e+001 3.017478e+001 6.370509e+000 3.364921e+000 5.357911e+000 5.238928e+000 4.998025e+000 5.453360e+000 6.881814e+000 7.084046e+000 6.977239e+000 5.339179e+000 3.671201e+000 3.989388e+000 4.898568e+000
<GCONST> 1.127028e+002
<STATE> 3
<MEAN> 25
 4.962607e-001 1.486476e+000 1.885237e+001 -5.425307e-001 -1.430933e+001 -2.503487e+000 -7.331676e+000 -3.221286e+000 -1.044060e+001 -1.353614e+000 5.644521e+000 -3.522654e-001 7.106068e-002 3.590520e-002 1.012323e-001 -2.083399e-001 -3.169101e-001 1.540738e-001 -1.030226e-001 2.051492e-002 -4.743332e-002 2.163283e-001 1.258459e-001 -4.878690e-002 3.462278e-002
<VARIANCE> 25
 1.185601e+001 2.603253e+001 3.561339e+001 4.455285e+001 2.599019e+001 4.199960e+001 3.070748e+001 5.957222e+001 4.694870e+001 5.123564e+001 3.325605e+001 3.789426e+001 6.145211e-001 1.335935e+000 1.791951e+000 1.506787e+000 1.919767e+000 2.212053e+000 1.977508e+000 2.696579e+000 2.082844e+000 1.788951e+000 1.471933e+000 1.364379e+000 9.236948e-001
<GCONST> 9.432932e+001
<STATE> 4
<MEAN> 25
 5.419775e-001 3.543532e+000 1.311962e+001 1.506506e+000 -8.656137e+000 -3.905033e+000 -1.973946e+000 -3.139078e+000 -5.975369e+000 -7.077807e-001 3.061038e+000 6.697177e-001 1.799628e-001 3.439586e-001 -1.609982e+000 5.876350e-001 1.503003e+000 -2.494656e-001 9.157194e-001 2.080525e-001 1.056580e+000 -2.597871e-002 -6.900311e-001 1.594784e-001 -1.801980e+000
<VARIANCE> 25
 1.963706e+001 3.539169e+001 5.407636e+001 3.884981e+001 5.418266e+001 6.059858e+001 4.847350e+001 5.777533e+001 4.866515e+001 4.252764e+001 3.694891e+001 3.316367e+001 1.837972e+000 2.508494e+000 2.654235e+000 2.722487e+000 3.620050e+000 3.447334e+000 3.905316e+000 4.207792e+000 4.056955e+000 3.275810e+000 2.773776e+000 2.387196e+000 4.026068e+000
<GCONST> 1.056208e+002
<TRANSP> 5
 0.000000e+000 1.000000e+000 0.000000e+000 0.000000e+000 0.000000e+000
 0.000000e+000 6.143072e-001 3.856928e-001 0.000000e+000 0.000000e+000
 0.000000e+000 0.000000e+000 7.837581e-001 2.162419e-001 0.000000e+000
 0.000000e+000 0.000000e+000 0.000000e+000 7.749276e-001 2.250724e-001
 0.000000e+000 0.000000e+000 0.000000e+000 0.000000e+000 0.000000e+000
<ENDHMM>
~h "j"
<BEGINHMM>
<NUMSTATES> 5
<STATE> 2
<MEAN> 25
 3.298255e+000 7.781146e+000 8.296371e+000 5.762826e+000 -1.550520e+000 -3.779378e+000 2.755617e-001 7.833721e-001 -1.055871e+000 -3.387280e+000 1.925602e-001 1.668980e+000 -3.202775e-001 1.326647e+000 2.917958e-001 3.582534e-001 8.192009e-001 5.303010e-002 9.721221e-001 -3.895016e-002 4.438886e-001 -4.951539e-002 -2.064456e-001 4.970763e-003 -1.348277e+000
<VARIANCE> 25
 3.763631e+001 4.650580e+001 4.884912e+001 2.846358e+001 4.150141e+001 4.822379e+001 5.047894e+001 4.403094e+001 4.414830e+001 3.287909e+001 2.868290e+001 2.546375e+001 4.604494e+000 3.260164e+000 3.235565e+000 2.869529e+000 3.586611e+000 3.234694e+000 4.035622e+000 4.065439e+000 4.071112e+000 3.090634e+000 2.678500e+000 2.508827e+000 6.099566e+000
<GCONST> 1.062654e+002
<STATE> 3
<MEAN> 25
 -7.841818e+000 9.112368e+000 7.055076e+000 3.826519e+000 2.609979e+000 -3.632537e+000 2.384321e+000 -1.614692e+000 -8.906311e-001 -2.129885e+000 1.645163e+000 3.821056e+000 -1.245028e+000 -1.498147e+000 4.292440e-001 -6.917519e-001 -1.460544e+000 -9.981856e-001 -1.244504e+000 -3.099377e-001 -5.439686e-001 -1.282701e-001 8.667934e-001 9.389720e-001 3.595252e+000
<VARIANCE> 25
 5.188947e+001 4.147976e+001 4.826845e+001 2.806376e+001 4.197234e+001 5.135276e+001 3.988898e+001 3.039721e+001 2.703321e+001 2.403950e+001 2.103966e+001 2.002595e+001 1.289344e+001 3.699632e+000 5.341309e+000 4.024055e+000 8.864652e+000 4.487028e+000 4.618073e+000 4.736504e+000 4.096983e+000 2.833966e+000 2.463180e+000 2.472133e+000 3.229051e+000
<GCONST> 1.072608e+002
<STATE> 4
<MEAN> 25
 7.218733e-001 -9.008456e-001 1.053485e+001 1.115520e-001 -1.051749e+001 -8.724572e+000 -6.625024e+000 3.357678e+000 -8.447220e-001 -2.631541e+000 5.077113e+000 5.064855e+000 2.376276e+000 -2.943311e+000 -1.249343e+000 -1.388154e+000 -1.521882e+000 5.438671e-001 -1.514100e+000 2.454607e+000 1.279228e+000 7.740278e-001 -3.391143e-001 -1.467732e+000 1.471632e+000
<VARIANCE> 25
 1.310977e+001 3.028996e+001 2.860466e+001 3.862753e+001 2.714818e+001 2.193982e+001 3.770450e+001 6.237970e+001 5.392321e+001 2.585877e+001 2.329006e+001 2.160393e+001 2.760850e+000 2.898739e+000 5.021326e+000 2.411431e+000 6.672534e+000 3.608271e+000 6.943307e+000 7.085445e+000 5.772176e+000 3.212326e+000 4.309690e+000 2.839588e+000 1.245012e+000
<GCONST> 1.038469e+002
<TRANSP> 5
 0.000000e+000 1.000000e+000 0.000000e+000 0.000000e+000 0.000000e+000
 0.000000e+000 8.353060e-001 1.646940e-001 0.000000e+000 0.000000e+000
 0.000000e+000 0.000000e+000 7.705466e-001 2.294534e-001 0.000000e+000
 0.000000e+000 0.000000e+000 0.000000e+000 6.111874e-001 3.888126e-001
 0.000000e+000 0.000000e+000 0.000000e+000 0.000000e+000 0.000000e+000
<ENDHMM>
~h "k"
<BEGINHMM>
<NUMSTATES> 5
<STATE> 2
<MEAN> 25
 -1.527415e+000 2.984861e+000 -1.566591e+000 1.899601e+000 1.535708e+000 -1.923480e+000 2.425802e+000 -4.497434e-001 4.210198e-001 2.672341e-001 -5.188839e-001 1.162227e+000 -8.352993e-001 -1.066136e-001 -5.282750e-001 2.831655e-001 3.671031e-001 -1.495967e-001 2.509052e-001 4.891512e-002 3.006082e-001 -1.193352e-001 -1.737130e-002 3.968483e-001 -1.059184e+000
<VARIANCE> 25
 3.146972e+001 3.113355e+001 3.352101e+001 3.239252e+001 4.034700e+001 4.448901e+001 3.971363e+001 4.536125e+001 4.105646e+001 3.476029e+001 3.014294e+001 2.860524e+001 2.164010e+000 3.285074e+000 2.940109e+000 2.773922e+000 3.708023e+000 3.485683e+000 3.405573e+000 3.443000e+000 3.546881e+000 2.992923e+000 2.560587e+000 2.322726e+000 7.119614e+000
<GCONST> 1.040256e+002
<STATE> 3
<MEAN> 25
 -5.416288e+000 -2.756775e+000 -7.051853e+000 1.125160e+000 5.212898e+000 -4.350224e+000 1.255430e+000 5.885574e-001 8.145134e-001 2.186667e+000 -1.093660e+000 3.157153e+000 -8.436580e-001 -2.225617e+000 -2.278277e+000 -1.001408e+000 1.463899e+000 -9.017926e-001 -1.045556e+000 8.794796e-001 -7.910410e-002 9.734398e-001 -5.285101e-001 2.656891e-001 4.895348e+000
<VARIANCE> 25
 2.828218e+001 6.209146e+001 6.631408e+001 5.045782e+001 5.805701e+001 5.607340e+001 5.047128e+001 4.563956e+001 4.311292e+001 3.601726e+001 2.898941e+001 2.979821e+001 3.855688e+000 5.194834e+000 6.685937e+000 5.847014e+000 6.469889e+000 6.011566e+000 5.335005e+000 5.236121e+000 4.988761e+000 4.095181e+000 4.112034e+000 3.726074e+000 9.389938e+000
<GCONST> 1.131126e+002
<STATE> 4
<MEAN> 25
 -3.594763e+000 -2.829759e+000 -7.980317e+000 -2.357309e+000 4.715271e+000 -4.898658e+000 -4.947451e-001 2.265045e+000 5.270506e-001 3.235594e+000 -2.200785e+000 6.486058e-001 2.058582e+000 5.931181e-001 1.656778e+000 -9.654687e-001 -1.791232e+000 6.803780e-001 -4.291774e-001 4.144384e-001 -3.521141e-001 -4.762277e-001 2.890984e-001 -1.560454e+000 2.762736e+000
<VARIANCE> 25
 4.200321e+001 3.871857e+001 6.600809e+001 5.380796e+001 5.923049e+001 6.671465e+001 5.185695e+001 5.005719e+001 4.635958e+001 3.687253e+001 3.601021e+001 4.036293e+001 4.737536e+000 5.027327e+000 5.399148e+000 6.061289e+000 5.885751e+000 5.830536e+000 5.493948e+000 5.957053e+000 5.263731e+000 3.960317e+000 4.279980e+000 4.452346e+000 7.817279e+000
<GCONST> 1.141086e+002
<TRANSP> 5
 0.000000e+000 1.000000e+000 0.000000e+000 0.000000e+000 0.000000e+000
 0.000000e+000 8.071564e-001 1.928436e-001 0.000000e+000 0.000000e+000
 0.000000e+000 0.000000e+000 5.516172e-001 4.483828e-001 0.000000e+000
 0.000000e+000 0.000000e+000 0.000000e+000 5.438680e-001 4.561320e-001
 0.000000e+000 0.000000e+000 0.000000e+000 0.000000e+000 0.000000e+000
<ENDHMM>
~h "l"
<BEGINHMM>
<NUMSTATES> 5
<STATE> 2
<MEAN> 25
 6.715096e+000 -5.062910e+000 1.109330e+000 -5.984872e+000 -2.636638e+000 1.892128e+000 -8.583368e+000 -4.156348e+000 3.486711e+000 4.525363e+000 1.210225e+000 -2.942629e+000 5.893141e-001 1.897993e-001 7.145371e-001 -6.156078e-001 7.761397e-001 -4.361701e-002 -1.563958e+000 -1.524171e+000 6.297924e-002 1.252129e+000 4.299466e-001 -3.186316e-001 -4.327811e-001
<VARIANCE> 25
 1.521096e+001 2.642780e+001 5.022310e+001 6.511364e+001 5.377713e+001 6.988818e+001 7.194447e+001 1.091020e+002 5.989870e+001 4.996843e+001 4.976164e+001 4.372770e+001 1.092744e+000 2.036314e+000 2.915608e+000 4.881402e+000 5.515321e+000 6.368901e+000 5.098855e+000 6.012546e+000 4.819413e+000 4.250079e+000 4.797414e+000 3.553546e+000 1.390452e+000
<GCONST> 1.095476e+002
<STATE> 3
<MEAN> 25
 7.919755e+000 -4.326729e+000 2.687680e+000 -8.463710e+000 -1.467675e+000 3.571434e+000 -1.175813e+001 -6.705980e+000 2.646906e+000 6.913386e+000 2.989839e+000 -3.712622e+000 -4.781547e-002 1.908162e-001 2.930446e-002 -2.105371e-001 3.624413e-001 -7.180407e-002 -2.815996e-001 6.818999e-002 -6.314021e-002 -3.959789e-002 1.689675e-002 4.417406e-002 -1.137281e-001
<VARIANCE> 25
 1.097108e+001 2.104471e+001 4.194689e+001 7.094241e+001 5.033067e+001 5.576635e+001 6.938915e+001 7.974726e+001 5.771297e+001 4.882034e+001 4.500750e+001 4.067291e+001 4.499149e-001 1.097088e+000 2.127348e+000 2.917800e+000 1.949186e+000 2.907794e+000 2.858645e+000 4.053100e+000 2.838873e+000 2.628725e+000 2.614931e+000 2.035220e+000 7.947850e-001
<GCONST> 1.001579e+002
<STATE> 4
<MEAN> 25
 5.332772e+000 -1.896022e+000 -1.436392e-001 -6.270667e+000 1.141890e+000 2.137879e+000 -6.985944e+000 -3.673400e+000 2.013903e+000 3.761383e+000 8.032371e-001 -2.051803e+000 -5.425823e-001 -8.465374e-002 -5.083147e-001 6.883789e-001 -1.566627e-001 -1.360318e-001 1.117809e+000 1.006073e+000 1.390949e-001 -8.729838e-001 -6.978130e-001 1.645550e-001 -2.147698e-001
<VARIANCE> 25
 2.592646e+001 3.448125e+001 6.601859e+001 8.321385e+001 6.145264e+001 6.055365e+001 1.002725e+002 7.651196e+001 5.799309e+001 6.006939e+001 5.109164e+001 4.483530e+001 9.870488e-001 2.675550e+000 2.999189e+000 4.242555e+000 3.796211e+000 4.549389e+000 4.639498e+000 5.925768e+000 4.408412e+000 3.999385e+000 4.361850e+000 3.151710e+000 3.330784e+000
<GCONST> 1.107848e+002
<TRANSP> 5
 0.000000e+000 1.000000e+000 0.000000e+000 0.000000e+000 0.000000e+000
 0.000000e+000 4.750744e-001 5.249255e-001 0.000000e+000 0.000000e+000
 0.000000e+000 0.000000e+000 5.929853e-001 4.070148e-001 0.000000e+000
 0.000000e+000 0.000000e+000 0.000000e+000 5.518431e-001 4.481569e-001
 0.000000e+000 0.000000e+000 0.000000e+000 0.000000e+000 0.000000e+000
<ENDHMM>
~h "m"
<BEGINHMM>
<NUMSTATES> 5
<STATE> 2
<MEAN> 25
 8.397067e+000 -1.356024e+000 1.506389e+000 -8.123134e-001 -1.239959e+000 4.897942e+000 -9.850647e-001 -6.359986e+000 -6.509163e+000 8.303915e-001 9.371736e-001 -2.780946e+000 4.562890e-001 1.364146e+000 1.864081e+000 2.315700e+000 3.174738e-001 -8.062964e-002 1.066172e+000 -3.257569e+000 -3.125383e+000 -3.685912e-002 -5.610756e-001 8.750834e-001 -1.082438e+000
<VARIANCE> 25
 1.791404e+001 4.002057e+001 3.658111e+001 6.584068e+001 3.934463e+001 5.350660e+001 5.902635e+001 7.202042e+001 5.981842e+001 4.137857e+001 4.587426e+001 4.295367e+001 2.002662e+000 2.399774e+000 3.637276e+000 3.986944e+000 3.535360e+000 3.896800e+000 5.826480e+000 4.925219e+000 5.894609e+000 4.408696e+000 6.518812e+000 4.657873e+000 4.100247e+000
<GCONST> 1.100217e+002
<STATE> 3
<MEAN> 25
 8.200757e+000 7.075194e-001 6.810904e+000 3.887496e+000 -5.435417e-001 4.836637e+000 -1.550809e-001 -1.240943e+001 -1.311606e+001 7.867880e-001 -1.316825e+000 2.065902e-001 -3.149478e-002 1.753268e-001 3.337253e-001 2.795914e-001 1.269410e-001 1.350507e-001 2.414874e-001 -4.127282e-001 -5.136511e-001 -1.996873e-001 -2.911578e-001 2.831033e-001 -8.152997e-002
<VARIANCE> 25
 8.656915e+000 2.261554e+001 2.237503e+001 3.844376e+001 3.527207e+001 5.712842e+001 6.973241e+001 4.784550e+001 3.959675e+001 5.490603e+001 5.420949e+001 4.617410e+001 5.515235e-001 1.104580e+000 1.082281e+000 1.606037e+000 1.565434e+000 1.689205e+000 1.867405e+000 2.059364e+000 2.415785e+000 1.996899e+000 2.382275e+000 1.638379e+000 1.523149e+000
<GCONST> 9.494453e+001
<STATE> 4
<MEAN> 25
 6.529926e+000 1.406525e+000 4.405989e+000 2.108083e+000 -8.262401e-001 4.706661e+000 1.602224e+000 -9.280479e+000 -9.373650e+000 -1.211241e+000 -2.060202e+000 -2.620019e-001 -6.853537e-002 -2.879385e-001 -1.192520e+000 -1.166485e+000 -3.362921e-001 -2.195737e-002 -2.421832e-001 1.486550e+000 1.518748e+000 1.005126e-001 5.996026e-001 -6.036825e-001 5.156893e-001
<VARIANCE> 25
 2.187008e+001 2.423886e+001 3.649130e+001 4.459953e+001 4.791317e+001 5.032631e+001 6.062575e+001 5.865429e+001 6.291352e+001 4.059747e+001 4.925767e+001 3.981188e+001 6.346785e-001 1.813305e+000 2.824198e+000 3.808055e+000 2.192847e+000 2.633948e+000 3.246088e+000 3.741198e+000 4.466124e+000 2.847481e+000 3.509566e+000 2.956252e+000 2.586571e+000
<GCONST> 1.036049e+002
<TRANSP> 5
 0.000000e+000 1.000000e+000 0.000000e+000 0.000000e+000 0.000000e+000
 0.000000e+000 5.780766e-001 4.219234e-001 0.000000e+000 0.000000e+000
 0.000000e+000 0.000000e+000 7.231556e-001 2.768444e-001 0.000000e+000
 0.000000e+000 0.000000e+000 0.000000e+000 6.593410e-001 3.406590e-001
 0.000000e+000 0.000000e+000 0.000000e+000 0.000000e+000 0.000000e+000
<ENDHMM>
~h "n"
<BEGINHMM>
<NUMSTATES> 5
<STATE> 2
<MEAN> 25
 7.211240e+000 -4.301053e+000 3.540176e+000 9.777714e-001 -2.786175e+000 -1.884829e+000 -4.788197e+000 -5.648997e-002 3.892241e-002 1.693118e+000 -5.182506e+000 -3.878640e+000 6.402826e-001 2.281590e+000 2.009212e+000 2.383584e+000 -5.061716e-001 -1.043462e+000 6.038075e-001 -4.373748e+000 -7.718434e-001 1.156461e+000 -7.057974e-001 9.501562e-001 -2.241449e+000
<VARIANCE> 25
 8.726345e+000 3.532110e+001 3.752100e+001 4.259112e+001 4.255979e+001 4.583648e+001 4.794529e+001 1.166897e+002 5.103260e+001 4.822254e+001 3.936307e+001 3.537170e+001 6.899508e-001 1.872378e+000 3.692106e+000 2.532121e+000 3.424839e+000 4.840396e+000 5.915054e+000 6.172503e+000 6.462889e+000 5.704072e+000 5.777785e+000 3.086975e+000 9.594774e-001
<GCONST> 1.056510e+002
<STATE> 3
<MEAN> 25
 8.320691e+000 7.706724e-001 8.709996e+000 5.221085e+000 -4.764416e+000 -2.546495e+000 -2.910779e+000 -1.027017e+001 -2.895834e+000 4.249485e+000 -5.830350e+000 -7.410051e-001 1.051207e-001 7.209468e-001 2.003822e-001 4.322703e-001 -4.839079e-002 1.347498e-001 4.131320e-001 -7.817463e-001 -4.344067e-001 1.132522e-001 -3.303604e-002 4.298082e-001 -7.266697e-001
<VARIANCE> 25
 7.692683e+000 1.610329e+001 2.101267e+001 3.014040e+001 3.369342e+001 4.631792e+001 5.818785e+001 5.043677e+001 4.527322e+001 4.732801e+001 4.321953e+001 3.483482e+001 3.374264e-001 1.067078e+000 1.316360e+000 1.192351e+000 1.457369e+000 1.677700e+000 2.123501e+000 3.100595e+000 2.188995e+000 2.019842e+000 1.981251e+000 1.599370e+000 7.385741e-001
<GCONST> 9.208596e+001
<STATE> 4
<MEAN> 25
 3.964901e+000 3.664366e+000 4.962150e+000 6.079781e+000 -3.948795e-001 -1.396185e+000 9.766127e-001 -6.579918e+000 -2.636507e+000 1.088443e+000 -4.511742e+000 9.360565e-001 -7.250158e-001 2.103044e-001 -6.379932e-001 -1.952282e-001 7.358362e-001 1.858742e-001 1.544574e-001 9.033739e-001 1.812300e-001 -6.052856e-001 4.558610e-001 -9.986952e-002 -9.824193e-001
<VARIANCE> 25
 3.727143e+001 2.762966e+001 3.707212e+001 3.050425e+001 5.088301e+001 3.446727e+001 5.700190e+001 7.245704e+001 5.386805e+001 5.135882e+001 4.786136e+001 3.375874e+001 1.312829e+000 2.325642e+000 2.090013e+000 2.414471e+000 3.107556e+000 2.790734e+000 3.697180e+000 4.242626e+000 3.488472e+000 3.138611e+000 2.807678e+000 2.387423e+000 3.487425e+000
<GCONST> 1.042160e+002
<TRANSP> 5
 0.000000e+000 1.000000e+000 0.000000e+000 0.000000e+000 0.000000e+000
 0.000000e+000 6.113788e-001 3.886212e-001 0.000000e+000 0.000000e+000
 0.000000e+000 0.000000e+000 7.374896e-001 2.625104e-001 0.000000e+000
 0.000000e+000 0.000000e+000 0.000000e+000 7.340906e-001 2.659094e-001
 0.000000e+000 0.000000e+000 0.000000e+000 0.000000e+000 0.000000e+000
<ENDHMM>
~h "o"
<BEGINHMM>
<NUMSTATES> 5
<STATE> 2
<MEAN> 25
 6.105694e+000 4.307571e-001 -5.377558e+000 -9.262552e+000 -3.119688e+000 5.559851e+000 -4.227259e+000 -2.416435e+000 2.905639e-001 1.609473e+000 3.528168e+000 -2.835775e-001 1.954276e+000 -3.970056e-001 -5.101381e-001 -3.265831e+000 -1.535557e+000 2.690854e+000 -8.369769e-001 1.304250e-001 1.243334e-001 1.061143e-001 1.239276e+000 -5.118665e-001 2.165056e+000
<VARIANCE> 25
 2.884657e+001 3.455073e+001 4.196892e+001 8.118169e+001 5.400950e+001 5.592628e+001 7.690978e+001 5.775597e+001 5.827052e+001 5.616785e+001 4.261234e+001 3.338793e+001 4.722300e+000 3.278542e+000 5.877528e+000 6.629950e+000 7.432166e+000 5.606894e+000 6.119459e+000 7.570425e+000 5.916946e+000 5.783519e+000 4.753775e+000 4.107255e+000 4.963574e+000
<GCONST> 1.148254e+002
<STATE> 3
<MEAN> 25
 8.609756e+000 -1.073932e+000 -6.037565e+000 -1.597025e+001 -5.468422e+000 1.264705e+001 -5.396897e+000 -1.808809e+000 4.949084e-002 1.158888e+000 6.872531e+000 -5.808645e-001 1.720899e-001 -7.534274e-002 -2.186283e-001 -9.991796e-001 -6.226141e-002 1.020042e+000 2.985955e-001 1.554068e-001 -1.185563e-001 -3.772584e-001 3.862920e-001 2.155373e-001 2.038452e-001
<VARIANCE> 25
 1.047980e+001 2.698170e+001 2.503082e+001 4.907326e+001 4.639355e+001 4.015970e+001 5.487591e+001 5.317659e+001 5.017340e+001 6.112168e+001 3.601146e+001 3.784227e+001 4.364912e-001 1.563167e+000 1.133484e+000 2.502777e+000 1.965481e+000 2.223138e+000 2.685900e+000 2.572942e+000 3.061623e+000 3.117841e+000 2.088691e+000 2.004113e+000 1.157594e+000
<GCONST> 9.736160e+001
<STATE> 4
<MEAN> 25
 7.560131e+000 5.403920e-001 -5.921449e+000 -1.460444e+001 -3.869481e+000 1.027692e+001 -2.190822e+000 -1.647300e+000 8.701630e-001 -6.621046e-002 4.379412e+000 9.702737e-003 -2.361791e-001 4.349277e-002 2.729798e-001 1.356997e+000 4.624858e-001 -1.020402e+000 1.031791e-001 -8.145992e-002 1.655187e-001 3.274237e-001 -6.173745e-001 -2.196420e-001 -9.351840e-001
<VARIANCE> 25
 1.882578e+001 3.935187e+001 2.594369e+001 7.093645e+001 5.052358e+001 4.574696e+001 7.093613e+001 5.536046e+001 5.090376e+001 5.931917e+001 3.510381e+001 4.164309e+001 7.574816e-001 1.682235e+000 1.440527e+000 3.282810e+000 2.474594e+000 2.850116e+000 3.139485e+000 2.788668e+000 2.805917e+000 3.073919e+000 2.343480e+000 2.182652e+000 2.767239e+000
<GCONST> 1.021178e+002
<TRANSP> 5
 0.000000e+000 1.000000e+000 0.000000e+000 0.000000e+000 0.000000e+000
 0.000000e+000 5.591727e-001 4.408273e-001 0.000000e+000 0.000000e+000
 0.000000e+000 0.000000e+000 7.010935e-001 2.989066e-001 0.000000e+000
 0.000000e+000 0.000000e+000 0.000000e+000 8.154901e-001 1.845099e-001
 0.000000e+000 0.000000e+000 0.000000e+000 0.000000e+000 0.000000e+000
<ENDHMM>
~h "p"
<BEGINHMM>
<NUMSTATES> 5
<STATE> 2
<MEAN> 25
 1.679023e+000 5.475729e+000 -1.126452e+000 1.407804e+000 1.768900e+000 7.109104e-001 2.823498e+000 -3.398918e+000 1.727759e-001 -1.002238e-001 -8.824172e-002 2.386242e-003 -1.272649e+000 2.462125e-001 -2.814819e-001 5.123945e-001 1.916510e-001 -5.497912e-001 5.145392e-001 2.878026e-001 4.543696e-001 -2.515277e-001 -3.292509e-002 4.123787e-001 -1.692221e+000
<VARIANCE> 25
 3.570744e+001 2.210533e+001 3.299601e+001 3.832451e+001 2.661016e+001 3.896060e+001 3.306797e+001 3.739426e+001 4.095284e+001 3.047514e+001 2.764111e+001 2.939460e+001 1.648886e+000 2.487440e+000 2.021995e+000 2.519047e+000 2.396315e+000 2.798667e+000 2.806795e+000 2.686569e+000 3.076528e+000 2.531634e+000 2.330073e+000 2.035339e+000 6.703388e+000
<GCONST> 1.001285e+002
<STATE> 3
<MEAN> 25
 -3.393575e+000 3.440945e+000 -2.140484e+000 2.392500e+000 1.913009e+000 -1.368372e+000 3.442373e+000 -1.831857e+000 1.159739e+000 -5.204712e-001 5.930489e-001 1.755121e+000 2.797156e-001 -2.237902e+000 -1.140046e+000 -1.557142e+000 -4.603749e-001 4.077876e-001 -8.257543e-001 1.460809e-001 3.368383e-001 1.423335e-001 8.544185e-001 -1.508236e-001 5.533602e+000
<VARIANCE> 25
 2.099804e+001 2.292919e+001 2.130442e+001 2.767603e+001 2.402950e+001 3.041050e+001 3.060697e+001 2.996710e+001 3.097777e+001 2.472575e+001 2.192894e+001 2.052334e+001 5.950137e+000 3.404041e+000 3.437211e+000 6.667286e+000 3.502082e+000 6.299077e+000 3.885920e+000 4.151686e+000 4.351196e+000 3.572520e+000 3.217196e+000 3.520600e+000 1.051803e+001
<GCONST> 1.042080e+002
<STATE> 4
<MEAN> 25
 -4.182203e+000 -1.510013e-001 -4.035235e+000 1.180357e+000 1.799657e+000 1.888872e-001 2.551806e+000 -4.751588e-001 1.649933e+000 -6.660745e-001 1.163010e+000 2.259712e+000 1.150726e+000 -9.133669e-001 -2.542942e-001 -1.113573e+000 -4.707660e-001 6.044347e-001 -7.857619e-001 -8.745444e-002 -8.040652e-002 -2.817384e-003 3.169168e-001 -5.332834e-001 3.308571e+000
<VARIANCE> 25
 3.511595e+001 2.525592e+001 1.937696e+001 4.089654e+001 2.565789e+001 3.616054e+001 3.160449e+001 2.758466e+001 2.630081e+001 2.292015e+001 2.039846e+001 2.086332e+001 4.585039e+000 4.395228e+000 2.992517e+000 6.186528e+000 3.143273e+000 5.808996e+000 4.025893e+000 3.763152e+000 3.254315e+000 3.029277e+000 2.781780e+000 3.211395e+000 1.550923e+001
<GCONST> 1.042322e+002
<TRANSP> 5
 0.000000e+000 1.000000e+000 0.000000e+000 0.000000e+000 0.000000e+000
 0.000000e+000 7.991508e-001 2.008493e-001 0.000000e+000 0.000000e+000
 0.000000e+000 0.000000e+000 3.464321e-001 6.535679e-001 0.000000e+000
 0.000000e+000 0.000000e+000 0.000000e+000 6.351376e-001 3.648625e-001
 0.000000e+000 0.000000e+000 0.000000e+000 0.000000e+000 0.000000e+000
<ENDHMM>
~h "q"
<BEGINHMM>
<NUMSTATES> 5
<STATE> 2
<MEAN> 25
 -5.937639e+000 5.661452e+000 8.059610e-001 6.487821e+000 -1.227102e-001 -1.621390e+000 3.330108e+000 -5.252487e+000 1.649428e+000 -3.498631e+000 -6.044484e-001 2.283804e+000 -5.860187e-001 -6.374903e-001 -7.566582e-001 -9.161633e-002 8.108902e-001 2.364673e-001 -9.056272e-002 3.047050e-001 5.460974e-001 -5.252329e-002 -2.001154e-001 1.008469e+000 2.429422e-001
<VARIANCE> 25
 1.037888e+001 2.631459e+001 2.179149e+001 8.143842e+000 1.874422e+001 2.087379e+001 1.479762e+001 1.160491e+001 3.311063e+001 1.490323e+001 2.088194e+001 1.711357e+001 1.660712e+000 5.212357e+000 8.530429e+000 1.914840e+000 3.262205e+000 3.993315e+000 3.013537e+000 1.649510e+000 4.866532e+000 3.816752e+000 2.462268e+000 3.867660e+000 5.434084e+000
<GCONST> 9.592145e+001
<STATE> 3
<MEAN> 25
 -1.910244e+000 -1.763604e+000 -2.221823e+000 -1.388904e+000 -7.572180e-001 -6.469092e+000 7.747649e-001 6.521989e-001 -2.054517e+000 -4.543780e-002 5.347182e-001 6.515164e+000 -2.981156e-001 -1.036030e-001 -1.025947e+000 -5.973334e-001 3.491395e-001 6.058111e-001 3.048815e-001 1.161286e-002 -1.183870e-001 -3.462169e-001 -7.125285e-002 1.189340e-001 6.925487e-001
<VARIANCE> 25
 3.048288e+001 5.028857e+001 2.391955e+002 4.255481e+001 7.435600e+001 6.890228e+001 4.318862e+001 5.722722e+001 4.231633e+001 3.282843e+001 4.089946e+001 3.535025e+001 2.788357e+000 5.950260e+000 8.768872e+000 6.125550e+000 6.272480e+000 5.655604e+000 1.194766e+000 4.542136e+000 5.825797e+000 3.335245e+000 3.692981e+000 3.584547e+000 1.219377e+001
<GCONST> 1.134806e+002
<STATE> 4
<MEAN> 25
 -8.083661e+000 2.764565e+000 -5.968198e+000 3.942633e+000 1.146606e+000 1.588595e+000 6.184653e+000 -4.868151e+000 4.051186e+000 -4.149580e+000 -1.906105e+000 2.349421e+000 -9.999327e-002 2.899283e-001 2.098810e-001 -2.613300e-002 -3.185489e-002 2.223589e-001 6.569758e-002 1.413320e-001 1.102826e-001 -7.227869e-002 -7.349683e-002 -1.717978e-001 -9.058932e-002
<VARIANCE> 25
 6.633777e+000 1.293336e+001 1.867870e+001 1.385541e+001 1.071897e+001 1.944890e+001 1.386049e+001 1.556362e+001 2.117801e+001 1.232167e+001 2.030756e+001 1.179540e+001 1.771036e+000 1.936681e+000 2.142555e+000 8.957645e-001 1.793029e+000 1.479201e+000 1.383340e+000 1.799505e+000 2.409224e+000 1.861372e+000 2.062423e+000 1.510658e+000 2.556481e+000
<GCONST> 8.505934e+001
<TRANSP> 5
 0.000000e+000 1.000000e+000 0.000000e+000 0.000000e+000 0.000000e+000
 0.000000e+000 8.112194e-001 1.887807e-001 0.000000e+000 0.000000e+000
 0.000000e+000 0.000000e+000 8.207194e-001 1.792806e-001 0.000000e+000
 0.000000e+000 0.000000e+000 0.000000e+000 8.919070e-001 1.080930e-001
 0.000000e+000 0.000000e+000 0.000000e+000 0.000000e+000 0.000000e+000
<ENDHMM>
~h "r"
<BEGINHMM>
<NUMSTATES> 5
<STATE> 2
<MEAN> 25
 6.016834e+000 -5.816502e+000 -4.227288e+000 -1.729874e+000 -3.464593e+000 -1.111683e-001 -5.717058e+000 4.964994e-001 5.920579e+000 2.649500e+000 3.806861e-001 -3.890888e+000 3.421525e-001 2.276548e-001 1.570806e-001 1.844486e+000 -2.217775e-001 -3.802795e-001 -3.293984e-001 -9.379647e-001 8.581672e-001 -2.265161e-001 2.180119e-001 3.008657e-001 -1.171727e+000
<VARIANCE> 25
 1.831923e+001 3.035455e+001 4.415273e+001 4.831953e+001 4.564922e+001 5.553839e+001 6.356852e+001 8.499093e+001 5.321216e+001 4.614315e+001 4.529504e+001 4.009076e+001 2.921876e+000 3.200196e+000 3.162228e+000 6.128132e+000 5.581753e+000 5.892897e+000 6.155765e+000 6.315174e+000 6.065292e+000 5.757520e+000 5.100653e+000 4.003442e+000 4.370383e+000
<GCONST> 1.120741e+002
<STATE> 3
<MEAN> 25
 6.710072e+000 -4.600566e+000 -2.978574e+000 2.909534e+000 -4.015309e+000 -1.064536e+000 -6.678774e+000 -1.547640e+000 6.962776e+000 2.101537e+000 1.456217e+000 -2.813661e+000 -2.479862e-001 4.794649e-001 6.126713e-001 8.316780e-001 5.113930e-001 -5.041125e-001 1.989300e-001 -2.987467e-001 -5.141540e-001 -3.002613e-001 6.770026e-002 6.980649e-001 -1.178866e+000
<VARIANCE> 25
 1.869313e+001 2.634093e+001 4.817071e+001 4.093047e+001 5.099591e+001 4.985657e+001 6.161597e+001 7.382772e+001 5.258973e+001 4.534518e+001 4.064446e+001 3.449150e+001 2.614669e+000 2.801980e+000 3.106267e+000 3.944451e+000 5.148143e+000 5.180534e+000 5.573367e+000 5.943889e+000 5.512433e+000 4.809001e+000 4.159214e+000 4.019189e+000 3.420021e+000
<GCONST> 1.096234e+002
<STATE> 4
<MEAN> 25
 6.291192e-001 -1.548025e+000 -2.310487e+000 3.525630e+000 8.209161e-001 -5.725950e-001 -5.847858e-001 -6.029869e-001 3.528136e+000 -2.858514e-001 -5.228192e-002 7.834871e-001 -1.762756e-001 1.563545e-001 2.234528e-001 -7.935700e-002 7.666116e-002 -4.572751e-003 1.543146e-001 2.789554e-002 -4.881271e-001 -9.730954e-002 6.129414e-002 1.870389e-001 -3.630103e-001
<VARIANCE> 25
 5.125057e+001 3.585144e+001 4.897128e+001 3.633943e+001 4.605353e+001 4.626892e+001 6.334503e+001 5.060354e+001 4.537099e+001 4.137866e+001 3.579377e+001 2.969242e+001 2.138549e+000 2.153847e+000 2.472202e+000 2.256951e+000 2.948931e+000 3.054468e+000 3.324743e+000 3.228720e+000 3.403299e+000 2.816343e+000 2.541809e+000 2.320917e+000 2.700873e+000
<GCONST> 1.040370e+002
<TRANSP> 5
 0.000000e+000 1.000000e+000 0.000000e+000 0.000000e+000 0.000000e+000
 0.000000e+000 3.932178e-001 6.067822e-001 0.000000e+000 0.000000e+000
 0.000000e+000 0.000000e+000 3.833002e-001 6.166998e-001 0.000000e+000
 0.000000e+000 0.000000e+000 0.000000e+000 7.317581e-001 2.682419e-001
 0.000000e+000 0.000000e+000 0.000000e+000 0.000000e+000 0.000000e+000
<ENDHMM>
~h "s"
<BEGINHMM>
<NUMSTATES> 5
<STATE> 2
<MEAN> 25
 -6.075923e+000 5.912889e+000 4.391235e-001 2.503655e+000 4.917877e+000 -4.592993e+000 1.851244e+000 1.350136e+000 1.392478e+000 -6.124105e-001 -1.500016e+000 2.079039e+000 -4.758935e+000 2.043209e+000 -9.949656e-001 9.178615e-001 1.810184e+000 -4.790385e-001 1.873881e+000 7.126493e-001 6.361315e-001 -5.336011e-001 7.392823e-001 8.740887e-001 -7.196209e-001
<VARIANCE> 25
 7.270158e+001 4.669951e+001 4.579612e+001 4.119597e+001 4.906425e+001 4.504758e+001 7.524265e+001 5.462310e+001 4.983662e+001 3.699749e+001 4.032856e+001 3.040705e+001 3.115120e+000 5.995657e+000 4.268415e+000 4.736945e+000 5.288213e+000 4.813572e+000 6.318490e+000 5.900314e+000 4.929733e+000 4.311676e+000 4.142578e+000 3.237058e+000 2.627270e+000
<GCONST> 1.116808e+002
<STATE> 3
<MEAN> 25
 -2.189907e+001 5.573432e+000 -5.506523e+000 1.731224e+000 7.028662e+000 -4.259644e+000 5.308934e+000 3.210771e+000 3.198270e+000 5.311348e-002 2.108202e+000 4.704173e+000 -7.597859e-001 -5.878550e-001 -5.193630e-001 -2.537023e-001 -1.387372e-001 5.225606e-002 7.597794e-002 1.149922e-001 1.730359e-001 1.652781e-001 2.205534e-001 1.917543e-001 -2.627191e-001
<VARIANCE> 25
 1.690894e+001 2.557573e+001 3.482533e+001 3.200117e+001 2.885738e+001 2.996427e+001 5.284900e+001 3.542422e+001 3.585703e+001 2.526758e+001 2.386354e+001 2.283530e+001 2.979513e+000 1.336984e+000 1.824968e+000 1.483801e+000 1.686126e+000 1.757663e+000 1.867776e+000 1.872409e+000 1.919863e+000 1.753644e+000 1.705111e+000 1.456899e+000 9.704986e-001
<GCONST> 9.325015e+001
<STATE> 4
<MEAN> 25
 -1.349876e+001 2.762914e+000 -4.457507e+000 1.425887e+000 4.622561e+000 -4.100799e+000 3.133305e+000 1.905296e+000 3.270160e+000 -6.006475e-001 6.875438e-001 2.930875e+000 3.711685e+000 -1.760551e-001 1.115729e+000 -2.414825e-001 -9.498804e-001 1.176409e-001 -1.404725e+000 -8.811762e-001 -3.541969e-001 -9.680687e-002 -7.138477e-001 -1.071204e+000 9.199594e-002
<VARIANCE> 25
 7.423788e+001 2.907608e+001 3.846371e+001 3.138443e+001 3.408231e+001 4.052033e+001 5.774192e+001 4.065015e+001 3.741234e+001 2.861358e+001 2.774240e+001 2.713499e+001 9.055896e+000 3.647197e+000 4.091088e+000 3.666037e+000 3.481843e+000 3.881336e+000 5.483438e+000 4.604585e+000 4.296315e+000 3.030766e+000 3.161896e+000 3.027750e+000 6.052424e+000
<GCONST> 1.079752e+002
<TRANSP> 5
 0.000000e+000 1.000000e+000 0.000000e+000 0.000000e+000 0.000000e+000
 0.000000e+000 7.065449e-001 2.934551e-001 0.000000e+000 0.000000e+000
 0.000000e+000 0.000000e+000 8.457677e-001 1.542323e-001 0.000000e+000
 0.000000e+000 0.000000e+000 0.000000e+000 7.456521e-001 2.543478e-001
 0.000000e+000 0.000000e+000 0.000000e+000 0.000000e+000 0.000000e+000
<ENDHMM>
~h "t"
<BEGINHMM>
<NUMSTATES> 5
<STATE> 2
<MEAN> 25
 -7.187479e-001 4.160207e+000 -1.478504e+000 2.066033e+000 1.877355e+000 -2.525841e+000 1.091444e+000 -1.002117e+000 2.559837e+000 1.416615e-001 -1.137025e+000 1.599867e-001 -7.510406e-001 2.623979e-001 -2.394846e-001 2.701929e-001 8.245993e-002 2.491445e-002 6.843351e-001 -5.614031e-002 6.151931e-002 -2.475556e-001 1.411269e-001 3.492023e-001 -1.795051e+000
<VARIANCE> 25
 2.849351e+001 2.628703e+001 3.171263e+001 3.042450e+001 3.014539e+001 3.543624e+001 4.270270e+001 3.961364e+001 3.910099e+001 3.186224e+001 2.984324e+001 2.685234e+001 1.736862e+000 2.593119e+000 1.888411e+000 2.420246e+000 2.685379e+000 2.527843e+000 3.049022e+000 2.865162e+000 2.683003e+000 2.488244e+000 2.237043e+000 2.005337e+000 6.208608e+000
<GCONST> 9.999132e+001
<STATE> 3
<MEAN> 25
 -4.476230e+000 3.898283e+000 -1.336186e+000 2.806331e+000 1.862108e+000 -2.746991e+000 3.199190e+000 -1.651539e+000 1.956538e+000 -6.256574e-001 -2.898523e-001 1.865121e+000 -1.851380e+000 -2.031257e+000 -7.986230e-001 -1.045047e+000 3.252250e-001 -3.784903e-001 3.672812e-002 4.907200e-001 1.041790e-002 -1.509869e-001 4.986276e-001 5.355182e-001 4.193652e+000
<VARIANCE> 25
 3.019440e+001 2.817711e+001 2.929120e+001 2.500469e+001 2.748733e+001 3.143512e+001 3.481408e+001 3.487120e+001 3.362783e+001 2.633648e+001 2.588437e+001 2.296708e+001 3.283754e+000 3.387762e+000 3.783606e+000 3.592940e+000 3.607183e+000 3.837638e+000 4.101676e+000 3.941253e+000 4.373142e+000 2.964968e+000 3.341611e+000 2.676634e+000 9.995291e+000
<GCONST> 1.038117e+002
<STATE> 4
<MEAN> 25
 -7.072897e+000 -2.096067e+000 -3.831263e+000 -1.517821e+000 2.100568e+000 -4.297662e+000 1.313770e+000 -1.228494e-001 2.830315e+000 -1.391963e-001 9.976201e-002 1.840212e+000 1.642919e+000 -1.032354e+000 1.357132e-001 -1.525363e+000 -6.071551e-001 5.968009e-002 -2.148308e+000 -5.051566e-003 9.873396e-002 3.251624e-001 -1.404373e-001 -1.174976e+000 5.888368e+000
<VARIANCE> 25
 3.571600e+001 3.040672e+001 2.969005e+001 3.339412e+001 3.298380e+001 4.299661e+001 4.650149e+001 3.396265e+001 3.502738e+001 2.885227e+001 2.724594e+001 2.833902e+001 5.575624e+000 5.162073e+000 5.559560e+000 5.853410e+000 4.800740e+000 6.085373e+000 6.631231e+000 6.608675e+000 6.649340e+000 4.344134e+000 4.674725e+000 4.325945e+000 1.313590e+001
<GCONST> 1.109683e+002
<TRANSP> 5
 0.000000e+000 1.000000e+000 0.000000e+000 0.000000e+000 0.000000e+000
 0.000000e+000 8.234813e-001 1.765187e-001 0.000000e+000 0.000000e+000
 0.000000e+000 0.000000e+000 4.349257e-001 5.650743e-001 0.000000e+000
 0.000000e+000 0.000000e+000 0.000000e+000 5.015692e-001 4.984308e-001
 0.000000e+000 0.000000e+000 0.000000e+000 0.000000e+000 0.000000e+000
<ENDHMM>
~h "u"
<BEGINHMM>
<NUMSTATES> 5
<STATE> 2
<MEAN> 25
 5.677536e+000 4.060170e+000 -1.205886e+000 -3.236841e+000 -3.054428e+000 1.732581e+000 -7.061211e+000 -5.345655e+000 -3.533025e+000 -4.837614e-002 2.865896e+000 2.044661e-002 2.333266e+000 9.836817e-001 -2.425465e-002 -2.406631e+000 -1.878815e+000 2.126488e+000 -1.720955e+000 -1.016321e+000 -1.480796e+000 -3.183074e-004 1.414116e+000 -1.304027e-001 1.370228e+000
<VARIANCE> 25
 2.811479e+001 3.735830e+001 4.467516e+001 7.080819e+001 5.077286e+001 4.992359e+001 8.181476e+001 6.637711e+001 5.144014e+001 4.635638e+001 3.722021e+001 3.222019e+001 5.002941e+000 3.667180e+000 5.078111e+000 6.214162e+000 6.301414e+000 5.482576e+000 7.251431e+000 8.588576e+000 6.439904e+000 5.997642e+000 4.439447e+000 4.049679e+000 4.675087e+000
<GCONST> 1.143876e+002
<STATE> 3
<MEAN> 25
 9.379680e+000 6.073173e+000 -2.156523e+000 -1.046056e+001 -7.221385e+000 8.985354e+000 -8.479146e+000 -5.575166e+000 -6.217230e+000 -2.071408e+000 6.290087e+000 8.096243e-001 2.500700e-001 2.098724e-001 -1.158224e-001 -9.120699e-001 -2.807052e-001 8.653661e-001 1.257201e-002 4.092193e-002 -3.611212e-001 -1.664613e-001 4.098804e-001 2.629595e-001 3.719138e-002
<VARIANCE> 25
 1.139496e+001 3.421685e+001 2.699803e+001 6.304352e+001 4.362737e+001 3.993887e+001 5.996104e+001 8.150306e+001 5.775816e+001 5.810855e+001 4.202856e+001 4.057882e+001 5.694988e-001 2.211581e+000 1.291713e+000 3.132842e+000 2.684318e+000 2.553098e+000 3.495166e+000 4.034298e+000 3.323001e+000 3.612026e+000 2.933688e+000 2.469789e+000 1.481176e+000
<GCONST> 1.019279e+002
<STATE> 4
<MEAN> 25
 8.305425e+000 6.043573e+000 -1.808048e+000 -8.012766e+000 -4.380299e+000 6.109772e+000 -6.310009e+000 -5.005468e+000 -5.032499e+000 -1.395934e-001 4.363130e+000 1.999314e-001 -4.346614e-001 -3.516438e-001 4.089321e-001 1.630399e+000 8.205343e-001 -1.170252e+000 6.226316e-001 -3.847849e-002 9.481508e-001 4.840435e-001 -8.234773e-001 -3.052110e-001 -1.086125e+000
<VARIANCE> 25
 1.549155e+001 4.295238e+001 3.385382e+001 7.113266e+001 4.996014e+001 4.759060e+001 8.830152e+001 7.598269e+001 5.746936e+001 5.773752e+001 4.762892e+001 4.296049e+001 1.153154e+000 2.691830e+000 2.265879e+000 4.077404e+000 3.828173e+000 3.686788e+000 4.973130e+000 4.675359e+000 4.314952e+000 4.348034e+000 3.657883e+000 3.364827e+000 4.024266e+000
<GCONST> 1.085340e+002
<TRANSP> 5
 0.000000e+000 1.000000e+000 0.000000e+000 0.000000e+000 0.000000e+000
 0.000000e+000 5.168605e-001 4.831394e-001 0.000000e+000 0.000000e+000
 0.000000e+000 0.000000e+000 7.152383e-001 2.847616e-001 0.000000e+000
 0.000000e+000 0.000000e+000 0.000000e+000 7.334052e-001 2.665948e-001
 0.000000e+000 0.000000e+000 0.000000e+000 0.000000e+000 0.000000e+000
<ENDHMM>
~h "w"
<BEGINHMM>
<NUMSTATES> 5
<STATE> 2
<MEAN> 25
 8.359415e+000 6.014262e-001 -2.469918e+000 -7.890539e+000 -3.153931e+000 5.850437e+000 -3.702662e+000 -2.252971e+000 -2.381257e+000 1.333306e+000 3.701627e+000 -1.203692e+000 1.419103e+000 1.147254e+000 -1.093402e-001 -1.902267e+000 -1.195987e+000 1.269583e+000 -5.185983e-002 -4.104797e-001 -1.253464e+000 -6.478372e-001 9.155070e-001 8.234429e-001 1.673867e-002
<VARIANCE> 25
 2.348289e+001 6.904811e+001 3.830790e+001 8.216972e+001 4.632220e+001 6.635951e+001 6.788342e+001 5.893130e+001 6.413287e+001 5.406157e+001 5.538053e+001 4.367656e+001 2.616210e+000 2.880240e+000 2.838701e+000 4.423563e+000 4.919665e+000 5.018070e+000 4.490416e+000 5.059397e+000 4.597005e+000 4.169335e+000 4.020529e+000 3.635765e+000 4.553190e+000
<GCONST> 1.116900e+002
<STATE> 3
<MEAN> 25
 1.176687e+001 4.075279e+000 -2.410628e+000 -1.578895e+001 -8.729337e+000 1.068218e+001 -4.595400e+000 -1.023913e+000 -2.822058e+000 -2.988602e+000 4.991517e+000 1.635075e+000 -7.296287e-002 -5.795257e-001 -2.762018e-001 -6.648576e-001 -3.843889e-002 6.471282e-001 -7.343260e-002 -7.975593e-002 2.642147e-001 2.401199e-001 4.321156e-001 7.712007e-002 6.544703e-001
<VARIANCE> 25
 9.679320e+000 3.315486e+001 1.879435e+001 4.741568e+001 4.531370e+001 4.412472e+001 3.783541e+001 4.856147e+001 6.016892e+001 3.866403e+001 3.142224e+001 2.989222e+001 4.953385e-001 3.189552e+000 1.445616e+000 2.878443e+000 2.637198e+000 3.081233e+000 2.318257e+000 2.292611e+000 2.333146e+000 3.393162e+000 2.575270e+000 2.273540e+000 2.182442e+000
<GCONST> 9.848991e+001
<STATE> 4
<MEAN> 25
 8.773916e+000 -4.454865e+000 -6.041341e+000 -1.610592e+001 -2.912740e+000 1.365543e+001 -3.314458e+000 -2.488699e+000 5.754688e-001 2.830833e+000 6.465526e+000 -3.071026e+000 -8.074876e-001 -1.772750e+000 -4.399473e-001 1.152382e+000 1.518181e+000 -5.039136e-001 -2.609844e-001 3.120096e-001 1.356327e+000 9.041886e-001 -1.117997e+000 -2.005813e+000 1.134089e+000
<VARIANCE> 25
 1.059552e+001 3.339838e+001 2.620001e+001 4.689270e+001 3.403840e+001 4.419882e+001 5.053695e+001 4.587360e+001 5.200827e+001 4.684976e+001 3.761602e+001 4.274560e+001 3.233382e-001 1.435837e+000 1.131419e+000 2.211599e+000 2.119817e+000 2.771671e+000 1.844177e+000 2.071261e+000 2.493882e+000 2.218848e+000 2.501688e+000 2.538800e+000 6.559594e-001
<GCONST> 9.557399e+001
<TRANSP> 5
 0.000000e+000 1.000000e+000 0.000000e+000 0.000000e+000 0.000000e+000
 0.000000e+000 6.820393e-001 3.179607e-001 0.000000e+000 0.000000e+000
 0.000000e+000 0.000000e+000 7.697774e-001 2.302227e-001 0.000000e+000
 0.000000e+000 0.000000e+000 0.000000e+000 6.823678e-001 3.176322e-001
 0.000000e+000 0.000000e+000 0.000000e+000 0.000000e+000 0.000000e+000
<ENDHMM>
~h "y"
<BEGINHMM>
<NUMSTATES> 5
<STATE> 2
<MEAN> 25
 4.759411e-001 -6.998801e-001 9.755697e+000 -1.519715e+000 -7.337894e+000 -4.631682e+000 -3.571579e+000 3.535281e+000 -2.978545e+000 -2.295549e+000 2.578054e+000 1.567816e+000 -9.676598e-002 9.013804e-001 2.505742e+000 -2.036842e-002 -1.248532e+000 -3.354247e-001 -1.172059e+000 -6.057181e-001 -1.472252e+000 -3.450640e-001 1.261032e+000 7.164847e-001 4.864429e-001
<VARIANCE> 25
 2.661255e+001 6.006032e+001 7.278083e+001 3.937066e+001 6.205223e+001 5.377100e+001 5.552923e+001 7.263026e+001 6.737845e+001 4.693994e+001 3.850705e+001 3.308289e+001 2.177412e+000 2.815276e+000 4.123132e+000 2.932661e+000 4.002848e+000 3.648950e+000 4.004904e+000 4.628702e+000 4.284405e+000 4.147326e+000 3.081767e+000 2.734103e+000 4.461040e+000
<GCONST> 1.093193e+002
<STATE> 3
<MEAN> 25
 9.516463e-001 1.128774e-001 1.707780e+001 -1.067924e+000 -1.292964e+001 -4.688690e+000 -8.289946e+000 9.749838e-001 -7.215528e+000 -3.021132e+000 6.640767e+000 3.576177e+000 2.735544e-001 -1.069265e+000 -1.118647e+000 -3.901403e-001 -6.048489e-001 -5.616072e-001 2.486434e-001 1.135311e+000 1.076481e+000 5.925504e-001 8.040313e-002 5.008485e-002 9.797399e-001
<VARIANCE> 25
 1.106900e+001 2.696551e+001 4.024122e+001 3.879867e+001 2.792540e+001 4.001309e+001 3.215044e+001 5.222821e+001 5.938922e+001 6.067382e+001 2.936007e+001 3.247129e+001 5.780776e-001 2.082387e+000 3.283002e+000 1.472279e+000 2.167441e+000 1.823053e+000 2.236363e+000 3.851621e+000 3.596810e+000 2.261238e+000 1.664728e+000 1.556245e+000 1.611127e+000
<GCONST> 9.730658e+001
<STATE> 4
<MEAN> 25
 2.722259e+000 -7.688097e+000 6.012666e+000 -5.040650e+000 -1.110482e+001 -6.661338e+000 -2.670896e+000 1.181825e+001 1.111627e+000 -1.539584e+000 1.688936e+000 1.492623e-001 3.668327e-001 -1.335538e+000 -2.382224e+000 -2.951846e-001 1.691920e+000 1.023809e+000 8.494414e-001 1.167818e+000 1.402698e+000 -5.907134e-001 -2.033492e+000 -1.387435e+000 5.429326e-001
<VARIANCE> 25
 8.928821e+000 2.045763e+001 3.007259e+001 2.353836e+001 2.883470e+001 2.928332e+001 4.807578e+001 5.418351e+001 5.148396e+001 3.361679e+001 4.066093e+001 2.728489e+001 2.757072e-001 1.045970e+000 1.939559e+000 1.006369e+000 2.040618e+000 1.621759e+000 2.281845e+000 3.572407e+000 2.196853e+000 2.738095e+000 2.358817e+000 2.099145e+000 3.695932e-001
<GCONST> 9.190742e+001
<TRANSP> 5
 0.000000e+000 1.000000e+000 0.000000e+000 0.000000e+000 0.000000e+000
 0.000000e+000 7.668644e-001 2.331357e-001 0.000000e+000 0.000000e+000
 0.000000e+000 0.000000e+000 7.583644e-001 2.416356e-001 0.000000e+000
 0.000000e+000 0.000000e+000 0.000000e+000 7.172374e-001 2.827626e-001
 0.000000e+000 0.000000e+000 0.000000e+000 0.000000e+000 0.000000e+000
<ENDHMM>
~h "z"
<BEGINHMM>
<NUMSTATES> 5
<STATE> 2
<MEAN> 25
 -9.620264e-001 8.416476e+000 2.233069e+000 5.151505e+000 1.929193e+000 -6.596958e+000 -2.206386e+000 -1.289277e+000 9.106658e-001 -1.048814e+000 -2.065442e+000 1.828878e+000 -2.159409e+000 2.472166e+000 -7.321586e-001 1.144316e+000 1.522736e+000 -4.242707e-001 1.318257e+000 -1.571338e-001 7.344227e-001 -4.021941e-001 1.459355e-001 6.628822e-001 -9.061021e-001
<VARIANCE> 25
 3.617720e+001 4.628506e+001 4.638509e+001 3.390219e+001 4.592650e+001 3.929222e+001 7.793781e+001 5.252962e+001 4.552552e+001 4.589533e+001 3.493279e+001 3.219791e+001 3.137623e+000 4.144022e+000 3.006994e+000 2.920756e+000 3.298342e+000 4.261425e+000 4.501348e+000 6.603209e+000 4.540910e+000 4.120193e+000 3.202460e+000 3.096122e+000 2.973758e+000
<GCONST> 1.083018e+002
<STATE> 3
<MEAN> 25
 -1.184798e+001 1.455346e+001 8.367594e-001 8.382011e+000 6.860061e+000 -6.395007e+000 1.758273e+000 -7.302985e-001 1.120182e+000 -4.865569e-001 -1.946609e-001 4.094153e+000 -1.158191e+000 -2.824998e-001 -3.631094e-002 9.075598e-002 3.224664e-001 1.830136e-001 3.858458e-001 1.086667e-001 -1.284796e-001 1.992596e-002 2.904513e-001 2.601291e-001 7.749941e-002
<VARIANCE> 25
 3.763726e+001 2.818270e+001 3.175029e+001 3.012714e+001 2.588510e+001 3.187533e+001 6.263107e+001 3.142266e+001 3.664791e+001 3.256147e+001 2.106226e+001 2.663675e+001 2.325762e+000 1.880264e+000 1.444102e+000 1.231907e+000 2.066967e+000 1.927971e+000 1.859546e+000 1.917779e+000 1.845303e+000 1.474110e+000 1.503241e+000 1.417824e+000 1.445440e+000
<GCONST> 9.432293e+001
<STATE> 4
<MEAN> 25
 -1.074962e+001 4.548470e+000 -5.323703e-001 2.804203e+000 4.288898e+000 -1.680768e+000 2.039768e+000 1.736834e+000 1.157717e+000 -4.925628e-001 9.634448e-001 4.114577e+000 8.649532e-001 -5.357011e-001 3.652554e-001 -2.971942e-001 -7.079482e-001 -2.934304e-001 -6.269041e-001 -2.368817e-001 4.050076e-002 8.707718e-002 -1.248508e-002 -9.124240e-002 7.232170e-001
<VARIANCE> 25
 6.498844e+001 4.748349e+001 4.771273e+001 2.914492e+001 4.073057e+001 4.394065e+001 4.490812e+001 3.476229e+001 3.192084e+001 2.131856e+001 2.145858e+001 2.064421e+001 5.112478e+000 3.144643e+000 2.536272e+000 2.259337e+000 3.598756e+000 2.520200e+000 3.191647e+000 3.169191e+000 2.445847e+000 1.931137e+000 1.866056e+000 1.816733e+000 2.835727e+000
<GCONST> 1.015361e+002
<TRANSP> 5
 0.000000e+000 1.000000e+000 0.000000e+000 0.000000e+000 0.000000e+000
 0.000000e+000 7.386781e-001 2.613219e-001 0.000000e+000 0.000000e+000
 0.000000e+000 0.000000e+000 7.826693e-001 2.173307e-001 0.000000e+000
 0.000000e+000 0.000000e+000 0.000000e+000 8.597910e-001 1.402091e-001
 0.000000e+000 0.000000e+000 0.000000e+000 0.000000e+000 0.000000e+000
<ENDHMM>
~h "ai"
<BEGINHMM>
<NUMSTATES> 5
<STATE> 2
<MEAN> 25
 5.012462e+000 -1.201018e+001 -3.172367e+000 -5.869008e+000 -1.839507e+000 1.730526e+000 -4.046340e+000 8.350980e+000 4.150246e+000 -1.174539e+000 -4.032802e+000 -6.137163e+000 -2.383553e-001 -7.838878e-001 9.164022e-001 1.139905e-001 -8.867912e-001 -1.067836e+000 7.069789e-001 1.989549e+000 -2.191817e-001 -9.414606e-001 -4.556955e-001 4.605811e-001 5.745584e-001
<VARIANCE> 25
 9.110858e+000 2.081125e+001 4.245784e+001 2.404255e+001 4.859528e+001 7.273622e+001 3.786401e+001 5.323771e+001 4.586708e+001 4.319181e+001 4.700322e+001 2.988346e+001 7.082511e-001 1.808314e+000 1.696021e+000 2.151896e+000 2.965082e+000 4.045319e+000 2.787205e+000 3.720446e+000 2.472638e+000 2.241144e+000 3.041030e+000 2.502834e+000 8.634523e-001
<GCONST> 9.869878e+001
<STATE> 3
<MEAN> 25
 3.397749e+000 -9.148423e+000 6.797403e+000 -5.171850e+000 -1.137022e+001 -7.329759e+000 -9.986113e-001 1.303577e+001 -1.674592e+000 -4.168818e-001 1.884965e+000 -8.754121e-001 -2.801061e-001 9.129484e-001 1.658592e+000 -4.482097e-002 -1.290869e+000 -5.526369e-001 -1.405476e-001 -8.668813e-001 -1.199114e+000 7.187061e-001 1.420508e+000 5.850899e-001 -4.372750e-001
<VARIANCE> 25
 7.264757e+000 1.575841e+001 3.384779e+001 1.875120e+001 2.850210e+001 3.540378e+001 3.590563e+001 4.197009e+001 4.585517e+001 3.382988e+001 4.701263e+001 2.490480e+001 2.245449e-001 9.097759e-001 1.327738e+000 8.558271e-001 1.536753e+000 1.625741e+000 1.977737e+000 2.564074e+000 1.999322e+000 1.827033e+000 1.997798e+000 1.393730e+000 2.307669e-001
<GCONST> 8.771935e+001
<STATE> 4
<MEAN> 25
 1.929246e+000 -1.016656e+000 1.328877e+001 -3.058082e+000 -1.281153e+001 -7.366797e+000 -3.084910e+000 2.787892e+000 -6.357956e+000 1.980037e+000 5.029064e+000 6.145940e-001 1.219166e-002 9.788808e-001 -2.906208e-001 7.040147e-001 9.569030e-001 1.911123e-001 1.755113e-001 -9.220918e-001 9.466981e-002 -2.275900e-001 -4.342423e-001 4.652870e-002 -1.597438e+000
<VARIANCE> 25
 1.187500e+001 3.354072e+001 4.051897e+001 3.629056e+001 3.474580e+001 4.478777e+001 4.132743e+001 6.371839e+001 4.804858e+001 4.428537e+001 3.880825e+001 3.017030e+001 9.669979e-001 1.684594e+000 2.663198e+000 2.073311e+000 2.814709e+000 2.296813e+000 2.932575e+000 3.318696e+000 3.464162e+000 2.479835e+000 2.071434e+000 1.697354e+000 2.446543e+000
<GCONST> 9.982292e+001
<TRANSP> 5
 0.000000e+000 1.000000e+000 0.000000e+000 0.000000e+000 0.000000e+000
 0.000000e+000 7.460028e-001 2.539972e-001 0.000000e+000 0.000000e+000
 0.000000e+000 0.000000e+000 8.074183e-001 1.925817e-001 0.000000e+000
 0.000000e+000 0.000000e+000 0.000000e+000 8.467499e-001 1.532501e-001
 0.000000e+000 0.000000e+000 0.000000e+000 0.000000e+000 0.000000e+000
<ENDHMM>
~h "au"
<BEGINHMM>
<NUMSTATES> 5
<STATE> 2
<MEAN> 25
 6.619064e+000 -5.292991e+000 -7.761027e+000 -9.407479e+000 -4.131390e-001 1.131442e+001 -4.736457e+000 -2.565862e+000 7.456860e+000 1.262346e+000 1.049654e-001 -7.408574e+000 1.682032e-001 1.413713e-001 -3.371311e-001 -6.435220e-001 -1.609873e-002 1.078460e+000 -8.559348e-002 -3.969287e-001 -1.920740e-002 -1.643598e-001 7.502223e-001 -3.449168e-002 1.138512e-002
<VARIANCE> 25
 8.648421e+000 2.296239e+001 1.962741e+001 2.589747e+001 2.837965e+001 3.593638e+001 3.353833e+001 4.006777e+001 2.486297e+001 2.915025e+001 3.067675e+001 1.994784e+001 5.379155e-001 9.486372e-001 9.565743e-001 1.323383e+000 1.567806e+000 2.262226e+000 1.650486e+000 2.049454e+000 1.738003e+000 1.895548e+000 2.568369e+000 1.445165e+000 4.942837e-001
<GCONST> 8.844917e+001
<STATE> 3
<MEAN> 25
 8.306346e+000 -8.499670e-001 -7.524933e+000 -1.719198e+001 -3.817041e+000 1.560630e+001 -4.584383e+000 -3.063961e+000 2.962798e+000 -7.065923e-001 6.334514e+000 -2.362898e+000 3.377696e-001 1.012442e+000 2.739294e-001 -4.559705e-001 -6.322563e-001 -7.492644e-002 -1.159678e-001 1.220773e-001 -8.327094e-001 -3.852738e-001 4.799699e-001 9.272326e-001 -6.452129e-001
<VARIANCE> 25
 8.697175e+000 2.197577e+001 1.629686e+001 3.183455e+001 3.080371e+001 2.366939e+001 4.227331e+001 3.371410e+001 3.224520e+001 3.625529e+001 2.522725e+001 3.672862e+001 2.149210e-001 1.011024e+000 4.922598e-001 1.154800e+000 1.112260e+000 1.218345e+000 1.249226e+000 1.212373e+000 1.492386e+000 1.897688e+000 1.569481e+000 1.708627e+000 3.220849e-001
<GCONST> 8.472286e+001
<STATE> 4
<MEAN> 25
 7.174697e+000 5.465520e+000 -3.786103e+000 -1.050162e+001 -4.091630e+000 7.321693e+000 -3.839482e+000 -1.393500e+000 -2.321742e+000 -1.252061e+000 4.065668e+000 4.557571e-001 -2.664901e-001 1.638340e-001 3.692396e-001 1.452648e+000 3.697481e-001 -9.564793e-001 9.131033e-002 -1.056714e-001 -1.908593e-001 1.785485e-001 -4.669223e-001 -4.686477e-002 -1.073952e+000
<VARIANCE> 25
 3.682164e+001 3.191619e+001 2.935121e+001 1.069152e+002 5.354535e+001 5.204913e+001 7.231770e+001 5.483102e+001 4.876575e+001 5.796341e+001 3.817280e+001 3.798195e+001 8.507246e-001 1.899733e+000 1.588204e+000 3.468138e+000 2.529076e+000 2.989803e+000 3.508428e+000 3.004806e+000 3.149062e+000 3.132831e+000 2.521024e+000 2.521249e+000 1.497422e+000
<GCONST> 1.036185e+002
<TRANSP> 5
 0.000000e+000 1.000000e+000 0.000000e+000 0.000000e+000 0.000000e+000
 0.000000e+000 8.359023e-001 1.640976e-001 0.000000e+000 0.000000e+000
 0.000000e+000 0.000000e+000 8.482229e-001 1.517772e-001 0.000000e+000
 0.000000e+000 0.000000e+000 0.000000e+000 8.629947e-001 1.370053e-001
 0.000000e+000 0.000000e+000 0.000000e+000 0.000000e+000 0.000000e+000
<ENDHMM>
~h "kh"
<BEGINHMM>
<NUMSTATES> 5
<STATE> 2
<MEAN> 25
 -2.229914e+000 6.778212e-001 -3.317822e+000 2.052664e-001 4.817786e+000 1.119541e+000 3.545524e+000 4.253647e-001 4.651042e-001 7.293355e-001 -7.578094e-001 1.411828e+000 -1.494501e+000 -4.489377e-001 -1.288277e+000 -3.876255e-002 1.245979e+000 -4.052289e-001 3.297905e-001 3.232395e-001 2.420668e-001 1.400956e-001 7.540367e-002 5.378974e-001 3.127132e-002
<VARIANCE> 25
 5.050953e+001 4.491866e+001 5.749404e+001 5.863468e+001 6.712246e+001 7.656344e+001 5.143487e+001 4.687295e+001 6.213806e+001 5.011127e+001 4.804664e+001 3.389755e+001 4.559433e+000 5.632620e+000 6.237607e+000 5.133460e+000 6.813786e+000 5.468487e+000 5.953121e+000 4.612366e+000 5.159079e+000 4.003080e+000 3.961467e+000 3.055099e+000 8.532111e+000
<GCONST> 1.148763e+002
<STATE> 3
<MEAN> 25
 -8.483375e+000 -5.308282e+000 -1.120088e+001 -2.739440e+000 1.063000e+001 3.077915e-002 1.208796e+000 2.779185e+000 2.990375e+000 2.730043e+000 1.077391e+000 2.537744e+000 -3.022264e-001 -2.778511e-001 -2.932482e-001 -2.297588e-001 -1.791292e-001 2.359149e-001 2.405998e-001 -1.143351e-003 -5.247403e-002 -1.649317e-002 2.921972e-001 2.478226e-002 9.421848e-002
<VARIANCE> 25
 2.426156e+001 3.508957e+001 4.654971e+001 5.434064e+001 5.519011e+001 5.904594e+001 5.991581e+001 4.259475e+001 4.942204e+001 3.876567e+001 3.386318e+001 4.071002e+001 1.626933e+000 2.133741e+000 2.845480e+000 2.756412e+000 3.341577e+000 3.348645e+000 3.262414e+000 2.911522e+000 2.756797e+000 2.940305e+000 2.470277e+000 2.468350e+000 1.757585e+000
<GCONST> 1.036848e+002
<STATE> 4
<MEAN> 25
 -5.107882e+000 1.882772e-001 -4.794318e+000 1.700779e+000 3.748278e+000 1.799957e+000 4.580079e+000 6.518683e-001 1.039429e+000 -1.073956e+000 1.339877e+000 1.969223e+000 4.128463e-001 2.468756e-001 3.011912e-001 -4.016217e-002 -2.552296e-001 6.674594e-002 -1.359232e-002 -1.961979e-001 -1.146388e-001 -9.803694e-002 -7.366361e-002 -1.686540e-001 1.172717e-001
<VARIANCE> 25
 2.896238e+001 4.083091e+001 4.227890e+001 3.514941e+001 3.541431e+001 3.574503e+001 3.368166e+001 3.244081e+001 3.580005e+001 3.061509e+001 2.100446e+001 2.404931e+001 2.267041e+000 1.629519e+000 1.997632e+000 1.906718e+000 1.827076e+000 2.024745e+000 2.224952e+000 2.424650e+000 2.212831e+000 1.959702e+000 1.815398e+000 1.838180e+000 1.811743e+000
<GCONST> 9.659456e+001
<TRANSP> 5
 0.000000e+000 1.000000e+000 0.000000e+000 0.000000e+000 0.000000e+000
 0.000000e+000 7.611323e-001 2.388678e-001 0.000000e+000 0.000000e+000
 0.000000e+000 0.000000e+000 7.952356e-001 2.047643e-001 0.000000e+000
 0.000000e+000 0.000000e+000 0.000000e+000 8.859034e-001 1.140967e-001
 0.000000e+000 0.000000e+000 0.000000e+000 0.000000e+000 0.000000e+000
<ENDHMM>
~h "ng"
<BEGINHMM>
<NUMSTATES> 5
<STATE> 2
<MEAN> 25
 7.565439e+000 -2.234309e+000 4.633318e-001 -2.578791e+000 -2.821034e+000 3.536843e+000 -6.699612e-001 -1.022851e+000 -5.183771e+000 3.824874e+000 -2.658797e+000 -6.361265e+000 5.013291e-001 1.321452e+000 1.575385e+000 1.190235e+000 -1.562126e+000 -2.286399e-001 1.717096e+000 -2.683990e+000 -1.002090e+000 8.599164e-001 -1.242804e+000 1.786763e+000 -1.468923e+000
<VARIANCE> 25
 8.882239e+000 3.247475e+001 3.293327e+001 3.680175e+001 5.171306e+001 5.159020e+001 5.290374e+001 6.171967e+001 4.825717e+001 4.785658e+001 4.483448e+001 5.118675e+001 5.898418e-001 1.721646e+000 2.643829e+000 2.689466e+000 3.455973e+000 3.301620e+000 4.615798e+000 4.331302e+000 5.989470e+000 3.472182e+000 4.794696e+000 4.442316e+000 6.897499e-001
<GCONST> 1.033037e+002
<STATE> 3
<MEAN> 25
 8.332623e+000 2.192399e-001 6.023562e+000 -1.344725e+000 -7.007938e+000 3.911547e+000 6.534023e-001 -6.611058e+000 -5.683346e+000 3.715576e+000 -4.459434e+000 -7.855995e-001 8.378474e-002 4.866816e-001 5.867575e-001 4.143973e-001 -2.790647e-001 -1.224608e-001 2.482400e-001 -6.617282e-001 -1.560937e-001 5.162200e-002 -1.431009e-001 5.397459e-001 -5.733017e-001
<VARIANCE> 25
 7.380773e+000 1.960947e+001 2.496728e+001 4.208921e+001 3.460894e+001 4.208652e+001 5.092059e+001 4.235820e+001 4.087230e+001 3.494479e+001 3.864723e+001 3.520942e+001 2.882913e-001 8.880109e-001 1.303977e+000 1.381446e+000 1.630933e+000 1.527103e+000 1.911567e+000 1.886010e+000 1.881453e+000 1.727367e+000 1.737408e+000 1.649023e+000 4.795044e-001
<GCONST> 9.023657e+001
<STATE> 4
<MEAN> 25
 5.896992e+000 2.900458e+000 4.043587e+000 1.312237e+000 -3.344849e+000 2.309993e+000 3.425982e+000 -6.007109e+000 -5.511522e+000 2.433432e+000 -4.208359e+000 -1.780108e-001 -5.693580e-001 3.323870e-001 -6.056760e-001 3.750091e-001 9.825705e-001 -3.217686e-001 9.566323e-002 5.614064e-001 1.918199e-001 -3.123629e-001 2.084946e-001 -3.504545e-001 -7.715884e-001
<VARIANCE> 25
 2.604594e+001 2.357234e+001 3.530137e+001 4.541610e+001 6.341700e+001 3.653446e+001 5.404249e+001 5.594944e+001 4.948386e+001 4.305341e+001 4.551837e+001 3.696047e+001 9.648234e-001 1.815044e+000 1.981343e+000 2.508659e+000 3.119891e+000 2.702761e+000 2.875490e+000 3.431139e+000 3.039886e+000 2.595306e+000 2.561792e+000 2.622500e+000 2.819709e+000
<GCONST> 1.021929e+002
<TRANSP> 5
 0.000000e+000 1.000000e+000 0.000000e+000 0.000000e+000 0.000000e+000
 0.000000e+000 5.590993e-001 4.409007e-001 0.000000e+000 0.000000e+000
 0.000000e+000 0.000000e+000 7.332427e-001 2.667574e-001 0.000000e+000
 0.000000e+000 0.000000e+000 0.000000e+000 7.130056e-001 2.869944e-001
 0.000000e+000 0.000000e+000 0.000000e+000 0.000000e+000 0.000000e+000
<ENDHMM>
~h "ny"
<BEGINHMM>
<NUMSTATES> 5
<STATE> 2
<MEAN> 25
 5.531782e+000 3.953707e+000 8.120011e+000 1.237821e+000 -5.953541e+000 -3.264691e+000 -2.117627e+000 -2.108208e+000 -7.258007e+000 -2.396809e+000 2.354842e+000 1.317281e+000 -2.487126e-001 -2.047819e-001 5.447745e-001 -6.713225e-001 -5.353280e-001 2.113925e-001 5.682205e-002 5.405326e-001 -2.038413e-001 -2.638938e-001 3.576827e-001 4.034597e-002 5.315689e-001
<VARIANCE> 25
 1.682077e+001 2.781606e+001 3.346745e+001 5.953326e+001 3.731227e+001 3.768736e+001 4.321972e+001 7.174913e+001 4.850951e+001 5.013161e+001 4.917166e+001 5.040305e+001 2.239765e+000 5.236861e+000 3.298897e+000 5.871175e+000 3.890520e+000 3.557636e+000 4.337025e+000 1.135139e+001 5.348105e+000 4.500912e+000 4.283120e+000 3.196179e+000 3.750144e+000
<GCONST> 1.096615e+002
<STATE> 3
<MEAN> 25
 2.929411e+000 -7.232341e+000 7.462970e+000 -4.791319e+000 -8.962311e+000 -1.571670e+000 -1.207719e+000 1.143351e+001 -2.700305e+000 -6.299553e+000 -1.109321e+000 -5.315585e-001 2.466666e-001 -1.842755e+000 -1.712751e+000 3.467486e-001 1.026449e+000 3.378337e-001 -5.545659e-002 1.317934e+000 1.411154e+000 -6.683920e-001 -1.557264e+000 -4.670463e-001 6.517235e-001
<VARIANCE> 25
 8.222215e+000 2.240281e+001 3.326027e+001 2.609867e+001 4.050766e+001 2.674574e+001 2.842293e+001 3.931831e+001 5.230141e+001 3.675874e+001 3.692039e+001 2.450619e+001 2.948339e-001 1.416602e+000 1.160884e+000 1.139260e+000 2.277800e+000 1.402630e+000 1.852504e+000 3.305879e+000 1.805281e+000 2.401565e+000 1.673066e+000 1.927088e+000 5.702063e-001
<GCONST> 9.076108e+001
<STATE> 4
<MEAN> 25
 7.418376e-001 -4.614151e+000 -1.659252e+000 1.645318e+000 2.653340e+000 1.014124e+000 8.232542e-001 6.561777e+000 3.774403e-001 -4.364704e+000 -3.505788e+000 9.523316e-002 -6.693852e-002 7.083540e-002 -4.834841e-001 1.842175e-001 5.762031e-001 1.921042e-001 -1.622291e-002 -3.476740e-001 1.772096e-001 2.053153e-001 -1.012962e-001 -9.411093e-002 -6.958520e-001
<VARIANCE> 25
 1.982630e+001 4.438993e+001 2.530267e+001 3.122534e+001 4.922073e+001 2.417714e+001 3.455183e+001 6.050872e+001 4.184730e+001 4.199933e+001 3.187423e+001 2.764681e+001 4.774129e-001 1.090213e+000 1.322072e+000 1.354225e+000 1.957058e+000 1.386520e+000 1.756037e+000 1.775837e+000 1.794020e+000 1.774779e+000 1.613709e+000 1.593184e+000 1.206870e+000
<GCONST> 9.273450e+001
<TRANSP> 5
 0.000000e+000 1.000000e+000 0.000000e+000 0.000000e+000 0.000000e+000
 0.000000e+000 8.760139e-001 1.239861e-001 0.000000e+000 0.000000e+000
 0.000000e+000 0.000000e+000 7.535553e-001 2.464447e-001 0.000000e+000
 0.000000e+000 0.000000e+000 0.000000e+000 8.244815e-001 1.755185e-001
 0.000000e+000 0.000000e+000 0.000000e+000 0.000000e+000 0.000000e+000
<ENDHMM>
~h "oi"
<BEGINHMM>
<NUMSTATES> 5
<STATE> 2
<MEAN> 25
 8.914914e+000 -2.831309e+000 -7.782040e+000 -1.476897e+001 -7.073774e+000 1.316036e+001 -3.887629e+000 -4.335144e+000 3.516569e+000 2.174322e-001 4.518688e+000 2.478232e-001 -7.661864e-002 -5.529029e-001 1.474959e-001 -6.111549e-001 -1.129942e-001 2.431218e-002 -7.214967e-001 1.178086e-001 2.317985e-001 9.513723e-001 3.278179e-002 -9.525216e-001 8.963558e-001
<VARIANCE> 25
 1.224884e+001 3.642588e+001 3.106975e+001 5.996144e+001 4.074759e+001 4.847176e+001 6.021754e+001 3.651515e+001 4.339166e+001 4.412915e+001 4.238704e+001 5.469366e+001 1.352737e+000 1.337268e+000 1.362900e+000 7.129058e+000 4.224496e+000 6.090468e+000 3.326550e+000 2.534070e+000 3.221757e+000 4.026130e+000 3.341371e+000 3.062062e+000 1.225280e+000
<GCONST> 1.035049e+002
<STATE> 3
<MEAN> 25
 4.012576e+000 -6.609506e+000 3.586627e+000 -5.052886e+000 -9.030841e+000 -7.315001e+000 -9.024109e+000 5.639863e+000 -2.733455e-001 5.387218e+000 1.777040e+000 -3.790413e+000 -7.158982e-001 3.604563e-001 2.633614e+000 1.452345e+000 -1.587507e+000 -2.462168e+000 3.797689e-001 6.932678e-001 -1.846520e+000 -7.977281e-001 3.905482e-001 1.012004e+000 -3.802945e-001
<VARIANCE> 25
 7.817043e+000 2.478223e+001 8.243322e+001 3.366326e+001 4.938433e+001 7.201469e+001 2.831320e+001 6.557938e+001 6.366399e+001 4.268084e+001 4.883453e+001 4.177626e+001 4.044606e-001 9.925698e-001 1.724182e+000 2.353106e+000 2.753476e+000 5.496926e+000 2.339293e+000 5.976482e+000 4.378268e+000 2.723140e+000 4.131504e+000 3.212771e+000 3.103552e-001
<GCONST> 1.001097e+002
<STATE> 4
<MEAN> 25
 -1.041892e+000 1.308779e+000 9.695757e+000 1.649078e+000 -7.864684e+000 -6.461082e+000 -1.517719e+000 -1.488441e+000 -6.333713e+000 -8.586633e-002 1.845552e+000 1.128348e+000 -7.158840e-002 4.019919e-001 -4.391055e-001 2.626609e-001 7.322414e-001 3.210260e-001 2.449228e-001 -3.391582e-001 2.812974e-001 -2.242336e-001 -4.295639e-001 5.991604e-003 -1.116949e+000
<VARIANCE> 25
 2.054732e+001 3.243024e+001 7.979655e+001 3.053237e+001 7.116634e+001 7.396203e+001 5.342302e+001 7.333983e+001 6.061450e+001 3.680941e+001 3.942445e+001 3.601359e+001 9.147264e-001 1.672166e+000 3.038355e+000 1.815359e+000 2.416249e+000 2.359781e+000 2.553990e+000 3.412635e+000 3.115693e+000 2.266418e+000 2.107319e+000 2.200357e+000 1.406505e+000
<GCONST> 1.019258e+002
<TRANSP> 5
 0.000000e+000 1.000000e+000 0.000000e+000 0.000000e+000 0.000000e+000
 0.000000e+000 9.023978e-001 9.760219e-002 0.000000e+000 0.000000e+000
 0.000000e+000 0.000000e+000 8.603770e-001 1.396231e-001 0.000000e+000
 0.000000e+000 0.000000e+000 0.000000e+000 9.156325e-001 8.436744e-002
 0.000000e+000 0.000000e+000 0.000000e+000 0.000000e+000 0.000000e+000
<ENDHMM>
~h "sp"
<BEGINHMM>
<NUMSTATES> 3
<STATE> 2
~s "silst"
<TRANSP> 3
 0.000000e+000 7.000000e-001 3.000000e-001
 0.000000e+000 9.000000e-001 9.999999e-002
 0.000000e+000 0.000000e+000 0.000000e+000
<ENDHMM>
~h "sy"
<BEGINHMM>
<NUMSTATES> 5
<STATE> 2
<MEAN> 25
 -7.453839e+000 4.090992e+000 3.385710e+000 2.091144e+000 2.787171e+000 -2.659526e+000 2.989215e+000 1.040405e+000 9.186664e-001 -2.462139e+000 -1.271366e+000 2.988329e+000 -3.846925e+000 6.580081e-001 -8.198250e-002 7.850975e-002 7.785731e-001 3.849772e-001 1.088913e+000 3.296189e-001 6.591933e-001 -2.810213e-001 9.079196e-001 4.752207e-001 -3.079718e-002
<VARIANCE> 25
 7.974873e+001 3.959537e+001 5.553974e+001 3.261586e+001 4.506908e+001 5.351210e+001 4.921817e+001 4.586737e+001 4.082193e+001 3.479305e+001 3.389236e+001 2.842237e+001 5.594420e+000 5.497171e+000 4.198978e+000 4.029757e+000 5.046792e+000 4.662862e+000 5.902753e+000 4.733889e+000 4.149625e+000 3.965522e+000 4.204604e+000 3.036407e+000 2.997520e+000
<GCONST> 1.103339e+002
<STATE> 3
<MEAN> 25
 -2.216919e+001 1.426585e+000 1.428234e+000 -1.870298e+000 2.847401e+000 -1.020708e+000 5.237509e+000 2.493214e+000 3.132071e+000 7.625630e-002 4.055160e+000 4.956519e+000 -3.693912e-001 -5.666779e-001 -1.084262e-001 -3.207377e-001 -4.095824e-001 -4.794203e-003 7.462352e-002 -2.683838e-002 2.291281e-001 2.832193e-001 2.151899e-001 1.474095e-001 1.899488e-001
<VARIANCE> 25
 2.687440e+001 2.609683e+001 3.296396e+001 2.251254e+001 4.481408e+001 3.612265e+001 3.980594e+001 3.246892e+001 3.370646e+001 2.286556e+001 1.863850e+001 1.854690e+001 1.798120e+000 9.339200e-001 1.181920e+000 1.259292e+000 1.458341e+000 1.653986e+000 1.600046e+000 1.633541e+000 1.491850e+000 1.561951e+000 1.521267e+000 1.338849e+000 6.720780e-001
<GCONST> 9.007325e+001
<STATE> 4
<MEAN> 25
 -1.158680e+001 -3.030553e-001 5.778115e+000 -1.008312e+000 -4.258788e+000 -4.256448e+000 2.019001e+000 5.278083e-001 2.373229e+000 -2.038248e+000 2.656662e+000 4.086909e+000 4.843241e+000 -3.631370e-001 1.004471e+000 9.560804e-002 -1.318522e+000 -1.279225e+000 -1.844890e+000 4.059370e-001 -5.797433e-001 -5.822339e-001 -8.269742e-001 -6.442227e-001 1.174656e+000
<VARIANCE> 25
 1.084933e+002 2.707870e+001 5.342539e+001 2.897614e+001 6.025816e+001 4.618544e+001 5.393582e+001 3.950249e+001 4.080544e+001 2.649840e+001 2.914983e+001 1.676472e+001 6.465535e+000 4.156499e+000 4.851677e+000 3.232171e+000 5.824255e+000 3.514925e+000 4.762022e+000 5.350971e+000 4.890832e+000 3.293641e+000 3.844947e+000 2.461184e+000 2.396631e+000
<GCONST> 1.082517e+002
<TRANSP> 5
 0.000000e+000 1.000000e+000 0.000000e+000 0.000000e+000 0.000000e+000
 0.000000e+000 7.857640e-001 2.142359e-001 0.000000e+000 0.000000e+000
 0.000000e+000 0.000000e+000 8.822328e-001 1.177672e-001 0.000000e+000
 0.000000e+000 0.000000e+000 0.000000e+000 7.640201e-001 2.359799e-001
 0.000000e+000 0.000000e+000 0.000000e+000 0.000000e+000 0.000000e+000
<ENDHMM>
~h "sil"
<BEGINHMM>
<NUMSTATES> 5
<STATE> 2
<MEAN> 25
 -3.670150e+000 3.110572e+000 -1.095359e+000 3.490051e+000 4.385125e+000 2.012474e-001 2.595348e+000 3.651017e+000 -9.820870e-001 1.125688e-001 8.228325e-001 1.470886e+000 -2.608170e-002 5.428338e-002 -1.351832e-002 -4.635653e-003 7.602414e-003 9.219970e-003 5.893304e-003 -2.066753e-002 1.724839e-002 2.961017e-002 1.177953e-002 -1.779695e-002 -7.028103e-002
<VARIANCE> 25
 4.682182e+000 2.029666e+001 1.256977e+001 1.244367e+001 1.931880e+001 1.639702e+001 2.324095e+001 2.669253e+001 2.088506e+001 1.925046e+001 1.691501e+001 1.520435e+001 1.739042e-001 3.908165e-001 5.535344e-001 7.345777e-001 9.496806e-001 1.165701e+000 1.314762e+000 1.459055e+000 1.466121e+000 1.465819e+000 1.364788e+000 1.265379e+000 1.133872e-001
<GCONST> 7.558743e+001
<STATE> 3
~s "silst"
<STATE> 4
<MEAN> 25
 -6.507844e+000 1.434132e-001 -2.661638e+000 4.512617e+000 3.851821e+000 -1.649046e+000 5.180907e+000 7.924410e-001 8.139676e-001 -7.419097e-001 6.633981e-001 3.824257e+000 -1.034655e-003 -6.001777e-002 1.588557e-002 5.953213e-003 -3.217657e-002 -7.243253e-002 -4.037178e-002 -2.396302e-002 -3.929672e-002 -5.362500e-002 -1.406249e-002 1.589478e-002 1.541131e-001
<VARIANCE> 25
 2.324556e+001 2.974123e+001 2.825376e+001 4.683100e+001 3.746543e+001 4.435445e+001 4.055332e+001 5.671508e+001 3.538478e+001 3.779394e+001 2.999199e+001 3.118187e+001 1.681588e+000 2.616958e+000 2.182615e+000 3.039546e+000 2.673052e+000 3.235828e+000 2.813487e+000 4.026907e+000 2.768916e+000 3.024173e+000 2.414377e+000 2.381896e+000 3.863787e+000
<GCONST> 1.020538e+002
<TRANSP> 5
 0.000000e+000 1.000000e+000 0.000000e+000 0.000000e+000 0.000000e+000
 0.000000e+000 8.885226e-001 6.142548e-002 5.005189e-002 0.000000e+000
 0.000000e+000 0.000000e+000 9.578558e-001 4.214428e-002 0.000000e+000
 0.000000e+000 1.166541e-001 0.000000e+000 8.236411e-001 5.970484e-002
 0.000000e+000 0.000000e+000 0.000000e+000 0.000000e+000 0.000000e+000
<ENDHMM>
