~o
<STREAMINFO> 1 25
<VECSIZE> 25<NULLD><MFCC_D_N_Z_0><DIAGC>
~s "silst"
<MEAN> 25
 -6.453115e+000 1.204957e-001 -3.175203e+000 3.982698e+000 4.052936e+000 -1.782785e+000 5.141017e+000 1.261007e-001 1.010208e+000 -1.464361e+000 5.650617e-001 3.753008e+000 -1.302373e-002 3.215061e-001 -3.153656e-002 -8.803778e-002 5.332800e-002 1.454454e-001 2.631931e-002 -1.185106e-001 8.112154e-002 9.364069e-002 5.553950e-002 -1.447522e-001 -3.966284e-001
<VARIANCE> 25
 1.554486e+001 2.440130e+001 2.185573e+001 3.142830e+001 2.646051e+001 3.417205e+001 3.043164e+001 4.098252e+001 2.841321e+001 3.143434e+001 2.437873e+001 2.150345e+001 8.800688e-001 1.448558e+000 1.442934e+000 1.759415e+000 1.767522e+000 2.122998e+000 2.006218e+000 2.385891e+000 1.982348e+000 2.145289e+000 1.738144e+000 1.557341e+000 9.457056e-001
<GCONST> 9.186006e+001
~h "@"
<BEGINHMM>
<NUMSTATES> 5
<STATE> 2
<MEAN> 25
 2.838534e+000 -2.157375e-001 -1.237918e-001 -1.005565e+000 -1.389931e+000 -2.301655e+000 -3.418622e+000 -1.764327e+000 1.921766e-001 1.409964e+000 4.206560e-001 -6.290419e-001 2.170151e+000 -1.160654e+000 2.581835e-001 -1.739448e+000 -1.419188e+000 5.327321e-001 -2.181756e+000 1.017731e+000 4.979275e-001 8.566085e-001 5.482445e-001 -1.178430e+000 2.855572e+000
<VARIANCE> 25
 3.495153e+001 2.991445e+001 4.052150e+001 4.722806e+001 4.174357e+001 5.965594e+001 5.970494e+001 4.642650e+001 5.054867e+001 3.077948e+001 3.380375e+001 2.558348e+001 6.792017e+000 3.703166e+000 6.346979e+000 5.777322e+000 5.886596e+000 6.085012e+000 7.365554e+000 8.824762e+000 7.770275e+000 4.735905e+000 5.054154e+000 3.893785e+000 7.050424e+000
<GCONST> 1.134337e+002
<STATE> 3
<MEAN> 25
 5.882625e+000 -4.091624e+000 -1.014382e-001 -4.921360e+000 -4.022960e+000 -8.297789e-002 -8.317027e+000 1.614344e+000 1.432754e+000 3.732484e+000 1.961526e+000 -3.154804e+000 1.108548e+000 -1.067583e+000 2.541881e-001 -9.597918e-001 -9.011314e-001 6.534564e-001 -1.319124e+000 1.210355e+000 4.019740e-001 8.061679e-001 3.180030e-001 -9.312347e-001 1.136962e+000
<VARIANCE> 25
 1.478928e+001 2.709836e+001 4.103519e+001 4.795763e+001 4.318261e+001 7.514207e+001 5.531714e+001 6.051414e+001 5.902186e+001 3.946228e+001 4.468353e+001 3.154612e+001 2.936831e+000 2.097420e+000 3.342450e+000 3.793124e+000 3.857296e+000 4.735622e+000 4.969075e+000 7.140481e+000 5.600027e+000 4.141247e+000 4.081996e+000 2.975612e+000 2.388180e+000
<GCONST> 1.080735e+002
<STATE> 4
<MEAN> 25
 5.229019e+000 -3.896806e+000 2.059931e+000 -3.476768e+000 -6.035151e+000 -1.527366e+000 -7.946318e+000 3.309161e+000 8.333617e-001 3.516623e+000 2.237789e+000 -3.447329e+000 9.092548e-002 2.645260e-001 1.572290e-001 3.371340e-001 1.402927e-001 4.706611e-002 3.286816e-001 -2.326395e-001 -1.524525e-001 -4.534200e-002 -1.303061e-001 6.395855e-002 -5.819029e-001
<VARIANCE> 25
 1.577671e+001 3.054099e+001 4.452838e+001 4.069663e+001 5.106532e+001 6.523712e+001 7.741370e+001 6.653102e+001 5.578098e+001 4.361524e+001 4.226065e+001 3.380427e+001 6.561871e-001 1.392659e+000 1.413248e+000 1.924080e+000 2.184332e+000 2.339727e+000 2.553844e+000 2.897223e+000 2.816195e+000 2.213338e+000 2.169311e+000 1.662923e+000 2.077296e+000
<GCONST> 9.973293e+001
<TRANSP> 5
 0.000000e+000 1.000000e+000 0.000000e+000 0.000000e+000 0.000000e+000
 0.000000e+000 3.254084e-001 6.745915e-001 0.000000e+000 0.000000e+000
 0.000000e+000 0.000000e+000 1.584326e-001 8.415674e-001 0.000000e+000
 0.000000e+000 0.000000e+000 0.000000e+000 7.215497e-001 2.784503e-001
 0.000000e+000 0.000000e+000 0.000000e+000 0.000000e+000 0.000000e+000
<ENDHMM>
~h "a"
<BEGINHMM>
<NUMSTATES> 5
<STATE> 2
<MEAN> 25
 4.700430e+000 -7.847443e+000 -3.425895e+000 -6.375741e+000 -1.565426e+000 2.052723e+000 -3.994078e+000 4.678564e+000 4.125895e+000 1.201240e+000 -1.865520e+000 -4.789213e+000 6.242242e-001 -2.028043e+000 -1.139387e+000 -1.168758e+000 5.743694e-001 1.483092e+000 -1.982568e-001 1.441489e+000 9.053392e-001 -4.495870e-001 -1.147771e+000 -1.505963e+000 1.898607e+000
<VARIANCE> 25
 1.641510e+001 2.717550e+001 3.494987e+001 3.863279e+001 4.971812e+001 6.776542e+001 4.724847e+001 7.156898e+001 4.459700e+001 4.120516e+001 4.298660e+001 3.088960e+001 2.535475e+000 2.400546e+000 2.773945e+000 3.395582e+000 4.094648e+000 3.826047e+000 4.526905e+000 6.283794e+000 4.193502e+000 3.832075e+000 3.967448e+000 2.902770e+000 4.116791e+000
<GCONST> 1.069957e+002
<STATE> 3
<MEAN> 25
 4.694270e+000 -1.149708e+001 -5.499543e+000 -7.236779e+000 1.272790e+000 5.680115e+000 -3.436772e+000 5.408445e+000 5.021239e+000 -1.174864e+000 -4.886690e+000 -6.816567e+000 -1.756497e-002 -2.077470e-001 -8.140154e-002 8.025837e-002 3.986035e-001 9.531507e-002 2.205683e-001 3.309020e-002 -5.770641e-002 -1.870408e-001 -3.498293e-001 -4.882122e-002 6.202705e-003
<VARIANCE> 25
 7.763149e+000 1.742395e+001 2.167124e+001 2.146598e+001 3.095424e+001 4.407348e+001 2.930707e+001 5.076367e+001 3.186072e+001 3.277635e+001 3.248261e+001 2.473144e+001 3.155066e-001 7.322015e-001 7.968327e-001 9.945889e-001 1.359302e+000 1.999117e+000 1.478664e+000 2.021382e+000 1.340912e+000 1.508218e+000 1.587699e+000 1.185743e+000 5.105440e-001
<GCONST> 8.622129e+001
<STATE> 4
<MEAN> 25
 3.987628e+000 -7.857861e+000 -4.879648e+000 -5.116890e+000 2.044639e+000 2.302854e+000 -1.472359e+000 4.631783e+000 4.357554e+000 -1.014584e-001 -4.656847e+000 -4.845339e+000 1.233332e-002 1.203176e+000 5.641752e-001 7.135029e-001 -1.419544e-001 -6.866608e-001 9.351772e-002 -3.083021e-001 -3.931709e-001 3.561366e-001 3.857611e-001 4.637480e-001 -1.756508e+000
<VARIANCE> 25
 1.555795e+001 2.844932e+001 2.489121e+001 3.367811e+001 4.456002e+001 4.801376e+001 4.019665e+001 5.379329e+001 3.626163e+001 3.949945e+001 3.746144e+001 3.236776e+001 9.480776e-001 1.789035e+000 1.632314e+000 1.990629e+000 2.378926e+000 2.773674e+000 2.792484e+000 3.326994e+000 2.538842e+000 2.553405e+000 2.368639e+000 2.097430e+000 2.889551e+000
<GCONST> 9.884167e+001
<TRANSP> 5
 0.000000e+000 1.000000e+000 0.000000e+000 0.000000e+000 0.000000e+000
 0.000000e+000 5.394778e-001 4.605222e-001 0.000000e+000 0.000000e+000
 0.000000e+000 0.000000e+000 7.511483e-001 2.488517e-001 0.000000e+000
 0.000000e+000 0.000000e+000 0.000000e+000 7.142536e-001 2.857464e-001
 0.000000e+000 0.000000e+000 0.000000e+000 0.000000e+000 0.000000e+000
<ENDHMM>
~h "b"
<BEGINHMM>
<NUMSTATES> 5
<STATE> 2
<MEAN> 25
 8.614491e+000 7.474180e+000 3.750917e+000 2.747507e+000 1.723115e+000 4.476866e+000 1.387801e+000 -5.651406e+000 -3.336616e+000 -5.349519e-001 4.721997e-001 -1.194167e+000 4.222946e-001 1.357882e+000 3.845195e-001 6.870925e-001 6.484833e-001 2.700716e-001 9.646211e-001 -3.379411e-001 -1.676184e-001 -2.547393e-001 -1.579084e-001 5.087543e-002 -1.375270e+000
<VARIANCE> 25
 3.313487e+001 3.601532e+001 2.503636e+001 3.348489e+001 3.077062e+001 3.135777e+001 4.012234e+001 3.631463e+001 4.000657e+001 2.626206e+001 3.204488e+001 2.431908e+001 1.988253e+000 2.454093e+000 2.118380e+000 2.766633e+000 2.550868e+000 2.746314e+000 3.209748e+000 3.129588e+000 3.184539e+000 2.430443e+000 2.528266e+000 1.960235e+000 4.901482e+000
<GCONST> 1.003782e+002
<STATE> 3
<MEAN> 25
 8.737588e+000 9.255515e+000 4.322866e+000 3.928503e+000 2.776025e+000 4.477672e+000 2.999100e+000 -6.150113e+000 -4.178864e+000 -1.280695e+000 1.044807e+000 -1.716152e-001 -1.151449e+000 -2.277184e+000 -1.588071e+000 -1.434285e+000 -4.532290e-001 -9.343807e-001 -1.812067e+000 6.667306e-001 1.062372e+000 4.953566e-001 1.287059e+000 5.336182e-001 3.606161e+000
<VARIANCE> 25
 2.441393e+001 2.558918e+001 1.867934e+001 2.543549e+001 2.756826e+001 3.003456e+001 2.822698e+001 3.199807e+001 3.360999e+001 2.111031e+001 2.943470e+001 2.162289e+001 1.780983e+000 2.946774e+000 3.118347e+000 5.576941e+000 3.845553e+000 3.528669e+000 4.060638e+000 3.514518e+000 4.914547e+000 3.867750e+000 3.703147e+000 2.737992e+000 4.885247e+000
<GCONST> 1.017207e+002
<STATE> 4
<MEAN> 25
 5.860141e+000 7.708315e-001 -1.664961e+000 -2.593444e+000 -5.615011e-001 2.649060e+000 -3.774316e+000 -4.944659e+000 3.156929e-001 2.602006e+000 5.317739e+000 -1.964176e-001 -5.949341e-001 -2.998891e+000 -1.378223e+000 -2.366271e+000 -1.745847e+000 -7.210216e-002 -2.480006e+000 1.265078e+000 1.922992e+000 1.154990e+000 3.855882e-001 -9.550550e-001 4.602548e+000
<VARIANCE> 25
 2.206678e+001 2.901085e+001 2.577095e+001 7.684815e+001 3.451086e+001 4.823832e+001 4.520612e+001 2.977213e+001 3.446291e+001 3.767898e+001 3.503527e+001 2.408680e+001 2.339968e+000 4.147325e+000 4.988316e+000 8.220119e+000 4.310133e+000 6.242665e+000 5.481581e+000 7.241656e+000 9.415708e+000 6.104725e+000 5.060116e+000 5.547456e+000 5.852503e+000
<GCONST> 1.106419e+002
<TRANSP> 5
 0.000000e+000 1.000000e+000 0.000000e+000 0.000000e+000 0.000000e+000
 0.000000e+000 7.858619e-001 2.141381e-001 0.000000e+000 0.000000e+000
 0.000000e+000 0.000000e+000 4.634053e-001 5.365947e-001 0.000000e+000
 0.000000e+000 0.000000e+000 0.000000e+000 3.370439e-001 6.629561e-001
 0.000000e+000 0.000000e+000 0.000000e+000 0.000000e+000 0.000000e+000
<ENDHMM>
~h "c"
<BEGINHMM>
<NUMSTATES> 5
<STATE> 2
<MEAN> 25
 -1.318696e+000 5.304509e+000 2.006523e+000 4.068869e+000 9.555025e-001 -4.512195e+000 1.696662e+000 -1.026836e-001 2.567036e-001 -1.962018e+000 -4.015685e-001 2.486284e+000 -1.478345e+000 1.248393e-001 -7.265464e-001 -2.104208e-001 5.994666e-001 1.298911e-001 5.476729e-001 -2.331430e-001 3.118196e-001 5.367856e-002 1.653008e-001 8.819643e-002 -1.377688e+000
<VARIANCE> 25
 2.514487e+001 3.309950e+001 3.437969e+001 2.210426e+001 3.931355e+001 4.067400e+001 4.396434e+001 4.116607e+001 3.732434e+001 2.788160e+001 2.393449e+001 2.200764e+001 3.882639e+000 4.618075e+000 2.666900e+000 2.848454e+000 3.773103e+000 2.926713e+000 3.407753e+000 3.319356e+000 3.146967e+000 2.737880e+000 2.341358e+000 2.304122e+000 9.151412e+000
<GCONST> 1.031916e+002
<STATE> 3
<MEAN> 25
 -1.589596e+001 1.927541e+000 -3.550452e+000 -1.765187e+000 3.515770e+000 -3.249051e+000 3.716463e+000 -9.374215e-001 1.552892e+000 1.129387e-001 2.329460e+000 4.001207e+000 -2.143429e+000 -5.555682e-001 -2.225123e-001 -1.063947e+000 -4.052649e-001 -3.502594e-001 1.030920e-001 3.967693e-001 2.431909e-001 4.479960e-004 4.078638e-001 4.948643e-001 3.925838e+000
<VARIANCE> 25
 3.413674e+001 2.357726e+001 2.767524e+001 3.035061e+001 2.665415e+001 3.566806e+001 4.032479e+001 2.936780e+001 2.470088e+001 2.378577e+001 1.673968e+001 1.469844e+001 7.149210e+000 2.360277e+000 4.009561e+000 3.265076e+000 3.223760e+000 3.336734e+000 3.183594e+000 3.299778e+000 2.742222e+000 2.437760e+000 2.225368e+000 1.621857e+000 5.696815e+000
<GCONST> 1.002349e+002
<STATE> 4
<MEAN> 25
 -9.812851e+000 8.818754e-001 1.179013e+000 -1.141747e+000 -9.803429e-001 -5.891119e+000 1.212323e+000 2.346193e+000 2.621446e+000 -2.205333e+000 1.307901e-001 3.646114e+000 5.400766e+000 -1.336991e+000 1.758040e+000 1.176408e-001 -1.682599e+000 -2.574654e-001 -2.433413e+000 1.106271e+000 2.669463e-001 -3.826832e-001 -1.160842e+000 -1.184294e+000 2.188157e+000
<VARIANCE> 25
 8.586581e+001 2.610270e+001 3.467881e+001 2.879428e+001 2.751110e+001 3.461599e+001 6.296155e+001 3.471751e+001 2.811110e+001 2.465030e+001 2.375515e+001 1.721450e+001 3.206789e+000 5.399652e+000 4.516031e+000 5.321651e+000 3.703271e+000 4.664681e+000 5.249639e+000 7.752542e+000 5.802288e+000 3.956335e+000 3.339139e+000 2.636799e+000 2.400822e+000
<GCONST> 1.064423e+002
<TRANSP> 5
 0.000000e+000 1.000000e+000 0.000000e+000 0.000000e+000 0.000000e+000
 0.000000e+000 8.430722e-001 1.569279e-001 0.000000e+000 0.000000e+000
 0.000000e+000 0.000000e+000 7.380750e-001 2.619250e-001 0.000000e+000
 0.000000e+000 0.000000e+000 0.000000e+000 5.989183e-001 4.010817e-001
 0.000000e+000 0.000000e+000 0.000000e+000 0.000000e+000 0.000000e+000
<ENDHMM>
~h "d"
<BEGINHMM>
<NUMSTATES> 5
<STATE> 2
<MEAN> 25
 4.663545e+000 3.918030e+000 4.929941e+000 6.064802e+000 2.485522e-001 -1.992000e+000 -1.430249e+000 -5.844039e-001 1.917361e+000 -1.566505e+000 -3.053716e+000 -5.822927e-001 5.001937e-001 1.100850e+000 6.823504e-001 9.353560e-001 6.700665e-001 -2.420594e-001 3.393181e-001 -1.723178e-001 3.320219e-001 -2.206903e-001 -3.989466e-001 -7.629203e-002 -1.253581e+000
<VARIANCE> 25
 5.124168e+001 4.562175e+001 4.499030e+001 3.527475e+001 4.016099e+001 3.755436e+001 5.407570e+001 6.167881e+001 3.895172e+001 3.538830e+001 3.386364e+001 2.795163e+001 2.527044e+000 3.238416e+000 2.750628e+000 2.894296e+000 3.446718e+000 2.805336e+000 3.751208e+000 4.706929e+000 3.354687e+000 2.925049e+000 2.971313e+000 2.208749e+000 5.731695e+000
<GCONST> 1.058139e+002
<STATE> 3
<MEAN> 25
 6.626228e+000 5.666538e+000 8.493294e+000 8.032423e+000 1.541747e+000 -2.998258e+000 -1.424186e+000 -8.478379e-001 1.960386e+000 -2.086540e+000 -3.424689e+000 -3.894196e-001 -1.871158e+000 -2.584215e+000 -1.742123e-001 -2.031965e+000 -6.935120e-001 -4.540673e-001 -8.506699e-001 1.139816e+000 -7.127439e-001 -4.929274e-003 1.624226e+000 1.225507e+000 3.876194e+000
<VARIANCE> 25
 2.847686e+001 3.716746e+001 2.954885e+001 3.067422e+001 3.177545e+001 3.784676e+001 4.597279e+001 4.423832e+001 3.457177e+001 3.350163e+001 2.977875e+001 2.778016e+001 1.980985e+000 3.031997e+000 3.658883e+000 3.307901e+000 5.307855e+000 3.999902e+000 5.476582e+000 7.440646e+000 5.456237e+000 3.930694e+000 3.214271e+000 2.782725e+000 4.613904e+000
<GCONST> 1.060384e+002
<STATE> 4
<MEAN> 25
 1.948020e+000 -3.136260e+000 6.380200e+000 8.137423e-001 -3.949133e+000 -4.868209e+000 -5.620119e+000 3.219025e+000 9.823228e-001 -1.037776e+000 1.634280e+000 2.687453e+000 -7.221721e-001 -2.139760e+000 -7.377962e-001 -2.101655e+000 -2.449496e+000 -1.561056e-001 -1.456943e+000 1.650158e+000 1.736250e-001 3.052286e-001 1.116906e+000 -5.332240e-002 4.233538e+000
<VARIANCE> 25
 1.928447e+001 2.931150e+001 4.240450e+001 3.101736e+001 5.534271e+001 4.273137e+001 8.152881e+001 6.146213e+001 5.228934e+001 2.693747e+001 2.698888e+001 2.394941e+001 2.843310e+000 3.459251e+000 6.110496e+000 4.409250e+000 5.608279e+000 4.154529e+000 6.064515e+000 1.099538e+001 8.601906e+000 4.539721e+000 5.460537e+000 3.670535e+000 5.334746e+000
<GCONST> 1.107406e+002
<TRANSP> 5
 0.000000e+000 1.000000e+000 0.000000e+000 0.000000e+000 0.000000e+000
 0.000000e+000 7.960818e-001 2.039182e-001 0.000000e+000 0.000000e+000
 0.000000e+000 0.000000e+000 4.747214e-001 5.252786e-001 0.000000e+000
 0.000000e+000 0.000000e+000 0.000000e+000 3.497001e-001 6.502998e-001
 0.000000e+000 0.000000e+000 0.000000e+000 0.000000e+000 0.000000e+000
<ENDHMM>
~h "e"
<BEGINHMM>
<NUMSTATES> 5
<STATE> 2
<MEAN> 25
 2.215582e+000 -3.933755e+000 2.881071e+000 -2.098557e-001 -5.080456e+000 -4.841005e+000 -2.439631e+000 2.963048e+000 3.849244e-001 6.529236e-001 1.317602e+000 -7.683007e-001 6.793944e-001 -1.648587e+000 1.019225e+000 -8.643509e-001 -1.848268e+000 -4.949480e-001 -6.108779e-001 2.007077e+000 -2.264174e-001 -1.558976e-001 2.436371e-001 -2.972928e-001 2.507137e+000
<VARIANCE> 25
 4.003745e+001 4.933693e+001 5.245855e+001 4.321884e+001 5.302159e+001 4.786689e+001 6.245945e+001 6.922556e+001 5.417415e+001 3.813253e+001 3.975626e+001 3.070654e+001 4.634541e+000 4.221972e+000 4.130652e+000 4.846470e+000 5.871080e+000 4.938264e+000 6.145625e+000 8.124112e+000 6.580544e+000 4.667890e+000 4.665980e+000 3.216123e+000 8.818532e+000
<GCONST> 1.137716e+002
<STATE> 3
<MEAN> 25
 3.910843e+000 -7.127412e+000 6.073421e+000 -1.919652e+000 -9.981272e+000 -5.625925e+000 -3.216112e+000 7.375968e+000 -6.057221e-001 6.183159e-003 3.163933e+000 -1.225321e+000 -1.341350e-001 -8.886662e-002 4.640988e-001 -2.001546e-001 -6.829511e-001 -6.818901e-002 3.903427e-001 4.098108e-001 -3.241748e-001 4.777968e-002 2.908880e-001 -2.442738e-002 2.047444e-001
<VARIANCE> 25
 1.598929e+001 4.030758e+001 4.745383e+001 3.925980e+001 5.128827e+001 4.354632e+001 5.767979e+001 7.689536e+001 6.127930e+001 3.877067e+001 4.769402e+001 3.184615e+001 1.192366e+000 2.159579e+000 2.094713e+000 2.373329e+000 3.564145e+000 2.748580e+000 3.596765e+000 3.717044e+000 3.478716e+000 2.624593e+000 2.542607e+000 2.081628e+000 4.961056e+000
<GCONST> 1.040569e+002
<STATE> 4
<MEAN> 25
 2.298233e+000 -6.206696e+000 7.033698e+000 -2.587742e+000 -1.078633e+001 -6.354900e+000 2.052961e-001 6.974507e+000 -1.923415e+000 5.538366e-001 3.093841e+000 -7.028936e-001 5.356265e-002 3.217737e-001 -2.526884e-001 2.714164e-001 5.102068e-001 8.645528e-002 4.814508e-002 -3.067457e-001 7.430519e-002 3.961796e-002 -3.047551e-001 -4.651456e-002 -5.107052e-001
<VARIANCE> 25
 1.307903e+001 3.683124e+001 4.877873e+001 3.392009e+001 4.598888e+001 4.655811e+001 5.322461e+001 6.389726e+001 5.283618e+001 3.699648e+001 3.859485e+001 2.636972e+001 5.393321e-001 1.045196e+000 1.183794e+000 1.353558e+000 1.893631e+000 1.535632e+000 2.006152e+000 1.965832e+000 1.836386e+000 1.564464e+000 1.522575e+000 1.210353e+000 1.764433e+000
<GCONST> 9.441213e+001
<TRANSP> 5
 0.000000e+000 1.000000e+000 0.000000e+000 0.000000e+000 0.000000e+000
 0.000000e+000 5.729110e-001 4.270889e-001 0.000000e+000 0.000000e+000
 0.000000e+000 0.000000e+000 5.899894e-001 4.100107e-001 0.000000e+000
 0.000000e+000 0.000000e+000 0.000000e+000 8.203607e-001 1.796393e-001
 0.000000e+000 0.000000e+000 0.000000e+000 0.000000e+000 0.000000e+000
<ENDHMM>
~h "f"
<BEGINHMM>
<NUMSTATES> 5
<STATE> 2
<MEAN> 25
 -8.904678e-001 2.046096e+000 -2.784767e-001 3.468686e+000 2.246389e+000 8.875293e-001 2.563234e+000 -6.375458e-001 6.424519e-001 2.712109e-001 5.603295e-001 1.139953e+000 -3.325811e+000 1.599504e-001 -7.205521e-001 1.601723e+000 9.341486e-001 -6.882824e-001 7.642783e-001 3.410272e-001 9.808313e-001 -1.547677e-001 3.229798e-002 4.959622e-001 -1.488594e+000
<VARIANCE> 25
 4.632719e+001 2.451825e+001 3.538860e+001 4.599638e+001 3.375142e+001 5.294201e+001 3.491613e+001 3.880462e+001 3.412049e+001 2.623212e+001 2.412160e+001 2.220137e+001 3.126414e+000 4.222579e+000 3.511191e+000 5.057512e+000 5.055628e+000 5.963209e+000 5.110877e+000 4.723427e+000 4.097419e+000 3.352893e+000 2.872811e+000 2.541179e+000 2.306697e+000
<GCONST> 1.056480e+002
<STATE> 3
<MEAN> 25
 -1.038048e+001 -1.335091e+000 -3.738773e+000 4.186741e+000 2.352126e+000 -8.795904e-001 2.258513e+000 3.213992e-001 2.317986e+000 1.810381e-002 1.113953e+000 2.949638e+000 -4.254489e-001 -3.329082e-001 -2.343226e-001 -3.760139e-002 1.061998e-002 -1.302064e-002 9.011559e-003 4.738521e-002 3.800251e-002 1.811376e-002 5.560863e-002 5.961722e-002 -1.823693e-001
<VARIANCE> 25
 2.746272e+001 2.100310e+001 1.734888e+001 1.732719e+001 2.103805e+001 2.493376e+001 2.615893e+001 2.296121e+001 2.313500e+001 2.109116e+001 1.659555e+001 1.519835e+001 1.472856e+000 1.089824e+000 1.241460e+000 1.191144e+000 1.312930e+000 1.515687e+000 1.546008e+000 1.563138e+000 1.553630e+000 1.506528e+000 1.347692e+000 1.250980e+000 1.034778e+000
<GCONST> 8.623312e+001
<STATE> 4
<MEAN> 25
 -8.325293e+000 -1.955722e+000 -4.647318e+000 2.960406e+000 3.464349e+000 7.331881e-002 2.642797e+000 6.945115e-001 1.616814e+000 1.956953e-001 1.164993e+000 1.983326e+000 2.326757e+000 4.646038e-001 2.860104e-001 -8.427109e-001 -4.044863e-001 4.057907e-001 -3.007665e-001 -2.355763e-001 -4.245691e-001 -1.548540e-001 -7.899465e-002 -5.565299e-001 7.454647e-001
<VARIANCE> 25
 4.224543e+001 2.629681e+001 2.544637e+001 2.870279e+001 3.012803e+001 3.334649e+001 2.669452e+001 3.148996e+001 2.748062e+001 2.273212e+001 1.948242e+001 1.732798e+001 7.304835e+000 3.115539e+000 3.109206e+000 4.878964e+000 3.189774e+000 4.081600e+000 3.212772e+000 2.927121e+000 2.731556e+000 2.495554e+000 2.203617e+000 2.142926e+000 4.992454e+000
<GCONST> 1.011905e+002
<TRANSP> 5
 0.000000e+000 1.000000e+000 0.000000e+000 0.000000e+000 0.000000e+000
 0.000000e+000 6.976143e-001 3.023857e-001 0.000000e+000 0.000000e+000
 0.000000e+000 0.000000e+000 8.843510e-001 1.156490e-001 0.000000e+000
 0.000000e+000 0.000000e+000 0.000000e+000 7.270988e-001 2.729012e-001
 0.000000e+000 0.000000e+000 0.000000e+000 0.000000e+000 0.000000e+000
<ENDHMM>
~h "g"
<BEGINHMM>
<NUMSTATES> 5
<STATE> 2
<MEAN> 25
 7.613848e+000 4.970976e+000 6.382377e+000 4.126847e+000 -1.671573e+000 -3.818709e+000 -1.136346e+000 -1.377031e+000 -3.833352e+000 2.383583e+000 -6.947979e-003 -2.611800e+000 3.301539e-001 1.543802e+000 7.196538e-001 1.272573e+000 4.978785e-001 -4.686549e-001 9.770753e-001 -5.848900e-001 4.922744e-003 -4.081770e-001 -2.064205e-001 1.878783e-001 -2.174300e+000
<VARIANCE> 25
 1.963864e+001 4.690843e+001 3.959549e+001 3.829020e+001 5.075031e+001 5.343674e+001 5.380545e+001 5.646316e+001 4.929963e+001 4.074138e+001 3.518215e+001 2.842851e+001 2.076288e+000 2.518594e+000 3.344625e+000 3.000451e+000 4.125313e+000 3.945565e+000 3.856817e+000 4.236621e+000 5.252254e+000 3.196728e+000 2.781822e+000 2.592771e+000 4.672369e+000
<GCONST> 1.064160e+002
<STATE> 3
<MEAN> 25
 3.254330e+000 5.244753e+000 3.906590e+000 6.961009e+000 2.650959e+000 -4.126467e+000 1.475953e+000 -2.002859e+000 -2.273471e+000 1.346429e+000 -1.240191e+000 6.436939e-001 -2.104088e+000 -2.177566e+000 -1.875622e+000 -7.590798e-001 1.236610e+000 -7.710681e-001 -8.185904e-001 1.020380e+000 1.415339e-001 1.526889e-001 1.224875e-001 1.167021e+000 3.186220e+000
<VARIANCE> 25
 3.933189e+001 5.389750e+001 6.175840e+001 2.928640e+001 6.309333e+001 4.852928e+001 4.242502e+001 3.736465e+001 3.893995e+001 2.973857e+001 2.442631e+001 2.691902e+001 2.469764e+000 3.895328e+000 6.076520e+000 4.027008e+000 7.703379e+000 5.141233e+000 4.464708e+000 5.131891e+000 4.799934e+000 3.464646e+000 3.512166e+000 3.037766e+000 5.446159e+000
<GCONST> 1.091901e+002
<STATE> 4
<MEAN> 25
 4.773553e-001 -2.680545e-001 1.176813e+000 1.520779e+000 -6.631616e-001 -6.646179e+000 -2.556407e+000 1.781968e+000 -2.159710e+000 2.630445e+000 1.428388e+000 1.731966e+000 2.640600e-001 -9.087478e-001 3.465331e-001 -2.005044e+000 -2.206306e+000 1.972270e-001 -1.095105e+000 1.295677e+000 3.183404e-001 3.074447e-001 8.168949e-001 -6.830614e-001 2.449211e+000
<VARIANCE> 25
 2.658921e+001 3.269144e+001 6.655506e+001 3.060738e+001 7.420575e+001 5.788573e+001 5.744144e+001 4.912845e+001 4.336623e+001 3.207179e+001 3.291658e+001 2.291654e+001 2.806036e+000 3.360247e+000 5.681931e+000 3.858161e+000 7.361708e+000 4.089206e+000 4.248004e+000 6.176550e+000 6.149133e+000 3.800197e+000 4.166887e+000 3.233148e+000 3.816269e+000
<GCONST> 1.096022e+002
<TRANSP> 5
 0.000000e+000 1.000000e+000 0.000000e+000 0.000000e+000 0.000000e+000
 0.000000e+000 7.464169e-001 2.535832e-001 0.000000e+000 0.000000e+000
 0.000000e+000 0.000000e+000 5.943136e-001 4.056864e-001 0.000000e+000
 0.000000e+000 0.000000e+000 0.000000e+000 5.144589e-001 4.855411e-001
 0.000000e+000 0.000000e+000 0.000000e+000 0.000000e+000 0.000000e+000
<ENDHMM>
~h "h"
<BEGINHMM>
<NUMSTATES> 5
<STATE> 2
<MEAN> 25
 2.174684e+000 -2.115495e+000 -1.660941e+000 5.523995e-001 5.569014e+000 4.244301e+000 3.426440e+000 2.828387e+000 8.531700e-001 -2.654063e-001 -2.806478e+000 1.584268e-001 -1.096906e+000 3.624435e-001 -2.240356e-002 1.596100e+000 2.003388e+000 4.770643e-001 1.648912e+000 1.595104e-001 5.603288e-001 -3.738703e-001 -4.515550e-002 8.411658e-001 -1.258418e+000
<VARIANCE> 25
 1.733772e+001 3.399038e+001 4.492382e+001 4.185998e+001 5.293047e+001 6.074364e+001 4.982180e+001 5.102794e+001 3.982491e+001 3.972868e+001 4.456580e+001 4.009140e+001 1.572813e+000 3.224285e+000 3.188769e+000 3.579691e+000 3.657547e+000 3.658046e+000 4.657258e+000 4.279261e+000 3.650506e+000 3.145855e+000 3.341017e+000 3.223673e+000 1.993252e+000
<GCONST> 1.057883e+002
<STATE> 3
<MEAN> 25
 -1.628252e+000 -3.645409e+000 -2.709486e+000 2.781387e+000 8.690418e+000 4.116368e+000 6.170806e+000 3.561922e+000 2.499107e+000 -1.035613e+000 -2.466613e+000 1.403965e+000 -5.305122e-001 -1.004013e-001 -2.905341e-001 -7.469827e-002 -1.687791e-001 -3.184093e-001 -3.442057e-002 -1.818562e-001 1.973798e-002 -5.802809e-002 2.092519e-001 1.136038e-001 -1.150204e+000
<VARIANCE> 25
 2.243909e+001 3.235335e+001 3.804529e+001 3.830915e+001 5.474282e+001 4.998996e+001 5.324012e+001 4.617628e+001 3.933868e+001 3.938012e+001 3.465692e+001 3.338934e+001 1.676341e+000 2.539517e+000 2.567371e+000 2.554796e+000 3.016835e+000 3.073678e+000 3.181205e+000 3.318716e+000 2.840900e+000 2.621177e+000 2.568210e+000 2.173045e+000 3.184098e+000
<GCONST> 1.027385e+002
<STATE> 4
<MEAN> 25
 -3.552155e+000 -3.382174e+000 -4.819274e+000 1.483940e+000 5.057154e+000 2.547985e+000 3.381207e+000 1.247969e+000 1.729909e+000 -1.720181e+000 -6.844584e-001 1.465510e+000 1.644803e-001 2.081347e-001 5.271136e-002 -8.713713e-002 -2.728061e-001 -4.194201e-002 -1.160051e-001 -1.403556e-001 -9.361273e-002 5.014956e-002 1.442430e-002 -1.074506e-001 -1.115579e-001
<VARIANCE> 25
 2.096774e+001 4.707366e+001 3.041518e+001 2.556602e+001 3.980243e+001 3.505012e+001 3.573801e+001 2.883921e+001 2.844350e+001 2.599053e+001 2.334661e+001 2.191323e+001 1.304588e+000 1.710795e+000 1.464180e+000 1.439456e+000 1.771865e+000 1.830149e+000 1.993729e+000 1.904063e+000 1.857625e+000 1.811727e+000 1.663965e+000 1.578640e+000 1.769376e+000
<GCONST> 9.332849e+001
<TRANSP> 5
 0.000000e+000 1.000000e+000 0.000000e+000 0.000000e+000 0.000000e+000
 0.000000e+000 5.220284e-001 4.779716e-001 0.000000e+000 0.000000e+000
 0.000000e+000 0.000000e+000 6.057619e-001 3.942381e-001 0.000000e+000
 0.000000e+000 0.000000e+000 0.000000e+000 8.294290e-001 1.705709e-001
 0.000000e+000 0.000000e+000 0.000000e+000 0.000000e+000 0.000000e+000
<ENDHMM>
~h "i"
<BEGINHMM>
<NUMSTATES> 5
<STATE> 2
<MEAN> 25
 -5.564629e-001 1.389385e+000 1.188253e+001 2.602153e+000 -7.314114e+000 -5.678833e+000 -2.512305e+000 -2.250220e+000 -6.211283e+000 -2.023649e+000 2.840839e+000 1.037813e+000 7.578508e-001 -7.875304e-002 3.064831e+000 -4.918475e-001 -2.841593e+000 7.967739e-002 -1.641287e+000 -2.902465e-001 -2.094672e+000 -2.162782e-001 1.163169e+000 -2.880208e-001 1.868000e+000
<VARIANCE> 25
 3.088053e+001 3.566890e+001 5.097951e+001 3.682417e+001 4.710793e+001 4.084700e+001 5.303267e+001 5.516604e+001 4.728247e+001 3.284726e+001 2.913039e+001 2.619076e+001 5.862103e+000 3.108706e+000 4.980324e+000 4.825880e+000 4.513343e+000 4.922118e+000 6.191345e+000 6.309675e+000 6.270849e+000 4.831430e+000 3.202969e+000 3.491972e+000 4.551247e+000
<GCONST> 1.102069e+002
<STATE> 3
<MEAN> 25
 4.327278e-001 1.513743e+000 1.821278e+001 -4.928030e-001 -1.344070e+001 -2.588492e+000 -6.841811e+000 -3.151510e+000 -1.007346e+001 -1.330493e+000 5.081213e+000 -1.792082e-001 6.180105e-002 3.368138e-002 1.340687e-001 -2.208308e-001 -3.274623e-001 1.547356e-001 -1.201319e-001 5.756639e-003 -7.963976e-002 2.100396e-001 1.230867e-001 -4.406414e-002 4.737591e-002
<VARIANCE> 25
 1.088281e+001 2.382657e+001 3.321436e+001 4.121182e+001 2.401196e+001 3.923336e+001 2.806913e+001 5.286710e+001 4.325120e+001 4.676405e+001 2.932281e+001 3.305258e+001 5.670382e-001 1.221295e+000 1.632895e+000 1.387687e+000 1.719195e+000 1.980591e+000 1.781065e+000 2.407904e+000 1.859200e+000 1.592232e+000 1.284089e+000 1.179972e+000 8.393255e-001
<GCONST> 9.182321e+001
<STATE> 4
<MEAN> 25
 7.106409e-001 3.364298e+000 1.333805e+001 1.381859e+000 -8.837009e+000 -4.093212e+000 -2.242455e+000 -2.993079e+000 -6.198485e+000 -6.027484e-001 3.088051e+000 5.543852e-001 2.114678e-001 3.579480e-001 -1.567598e+000 5.960473e-001 1.463693e+000 -1.994322e-001 9.097719e-001 2.135903e-001 1.099384e+000 -1.954799e-002 -6.471912e-001 1.453520e-001 -1.754678e+000
<VARIANCE> 25
 1.715124e+001 3.255339e+001 4.533639e+001 3.620001e+001 4.413624e+001 5.351856e+001 4.237409e+001 5.302108e+001 4.333801e+001 3.852894e+001 3.169226e+001 2.917895e+001 1.683462e+000 2.266204e+000 2.417470e+000 2.506007e+000 3.240800e+000 3.127808e+000 3.559410e+000 3.860134e+000 3.685899e+000 2.874259e+000 2.391889e+000 2.079967e+000 3.736576e+000
<GCONST> 1.027693e+002
<TRANSP> 5
 0.000000e+000 1.000000e+000 0.000000e+000 0.000000e+000 0.000000e+000
 0.000000e+000 6.136690e-001 3.863310e-001 0.000000e+000 0.000000e+000
 0.000000e+000 0.000000e+000 7.799867e-001 2.200133e-001 0.000000e+000
 0.000000e+000 0.000000e+000 0.000000e+000 7.655925e-001 2.344076e-001
 0.000000e+000 0.000000e+000 0.000000e+000 0.000000e+000 0.000000e+000
<ENDHMM>
~h "j"
<BEGINHMM>
<NUMSTATES> 5
<STATE> 2
<MEAN> 25
 2.898585e+000 7.271583e+000 7.639261e+000 5.568123e+000 -1.253142e+000 -3.306658e+000 5.230570e-001 8.698224e-001 -7.996050e-001 -3.071998e+000 2.689767e-001 1.641080e+000 -2.888842e-001 1.241270e+000 2.754602e-001 3.549144e-001 7.565110e-001 7.600407e-002 8.974171e-001 -2.268648e-002 4.372443e-001 -4.742217e-002 -1.403291e-001 3.225489e-003 -1.246374e+000
<VARIANCE> 25
 3.574704e+001 4.334924e+001 4.819332e+001 2.591571e+001 3.721666e+001 4.518235e+001 4.554404e+001 3.904518e+001 4.000179e+001 2.901219e+001 2.480676e+001 2.172360e+001 4.148015e+000 2.995950e+000 2.974383e+000 2.632802e+000 3.228323e+000 2.939661e+000 3.664688e+000 3.595573e+000 3.651169e+000 2.751686e+000 2.297790e+000 2.170185e+000 5.586166e+000
<GCONST> 1.037207e+002
<STATE> 3
<MEAN> 25
 -7.537098e+000 8.731265e+000 6.758721e+000 3.772486e+000 2.551558e+000 -3.309046e+000 2.374504e+000 -1.425279e+000 -6.851621e-001 -2.009183e+000 1.687117e+000 3.629645e+000 -1.202809e+000 -1.436657e+000 4.293894e-001 -6.615477e-001 -1.389430e+000 -9.743273e-001 -1.212719e+000 -3.254138e-001 -5.659004e-001 -1.633609e-001 7.815674e-001 8.804488e-001 3.472502e+000
<VARIANCE> 25
 4.804224e+001 3.857232e+001 4.487750e+001 2.606583e+001 3.814558e+001 4.683656e+001 3.603932e+001 2.742706e+001 2.457067e+001 2.186304e+001 1.862675e+001 1.724990e+001 1.189856e+001 3.416850e+000 4.985393e+000 3.726837e+000 8.027405e+000 4.097632e+000 4.212356e+000 4.306466e+000 3.754606e+000 2.528291e+000 2.121069e+000 2.149873e+000 2.960201e+000
<GCONST> 1.048508e+002
<STATE> 4
<MEAN> 25
 7.105849e-001 -7.912934e-001 1.023782e+001 1.835072e-001 -9.889517e+000 -8.372025e+000 -6.362240e+000 3.109060e+000 -9.769259e-001 -2.545530e+000 4.665410e+000 4.837167e+000 2.285560e+000 -2.815402e+000 -1.192244e+000 -1.376179e+000 -1.448201e+000 4.479083e-001 -1.477422e+000 2.311568e+000 1.163706e+000 7.965213e-001 -3.602276e-001 -1.341617e+000 1.423210e+000
<VARIANCE> 25
 1.208663e+001 2.779802e+001 2.712906e+001 3.584365e+001 2.451490e+001 2.033884e+001 3.366868e+001 5.572063e+001 4.943220e+001 2.324081e+001 2.013658e+001 1.872413e+001 2.562605e+000 2.677781e+000 4.705695e+000 2.257555e+000 5.932364e+000 3.350404e+000 6.189802e+000 6.388255e+000 5.320737e+000 2.930156e+000 3.687077e+000 2.458384e+000 1.153747e+000
<GCONST> 1.014213e+002
<TRANSP> 5
 0.000000e+000 1.000000e+000 0.000000e+000 0.000000e+000 0.000000e+000
 0.000000e+000 8.417121e-001 1.582879e-001 0.000000e+000 0.000000e+000
 0.000000e+000 0.000000e+000 7.699522e-001 2.300478e-001 0.000000e+000
 0.000000e+000 0.000000e+000 0.000000e+000 6.114602e-001 3.885398e-001
 0.000000e+000 0.000000e+000 0.000000e+000 0.000000e+000 0.000000e+000
<ENDHMM>
~h "k"
<BEGINHMM>
<NUMSTATES> 5
<STATE> 2
<MEAN> 25
 -1.485276e+000 2.789104e+000 -1.618656e+000 1.888229e+000 1.527024e+000 -1.775316e+000 2.349431e+000 -4.323851e-001 5.059701e-001 1.601353e-001 -5.002194e-001 1.030547e+000 -7.957950e-001 -8.043025e-002 -4.998757e-001 2.775900e-001 3.291005e-001 -1.393154e-001 2.411247e-001 3.311253e-002 2.793143e-001 -1.361625e-001 -1.211570e-002 3.601075e-001 -1.085933e+000
<VARIANCE> 25
 2.873510e+001 2.881150e+001 3.049682e+001 2.969181e+001 3.630777e+001 4.045289e+001 3.525357e+001 4.020823e+001 3.640314e+001 3.128581e+001 2.646880e+001 2.473578e+001 1.941212e+000 2.905464e+000 2.661513e+000 2.515122e+000 3.335479e+000 3.147327e+000 2.997606e+000 3.046909e+000 3.136280e+000 2.644698e+000 2.220659e+000 1.993695e+000 6.190907e+000
<GCONST> 1.011659e+002
<STATE> 3
<MEAN> 25
 -5.128654e+000 -2.522233e+000 -6.668761e+000 1.160930e+000 4.826489e+000 -4.158150e+000 1.235279e+000 3.643817e-001 7.745758e-001 1.834135e+000 -9.934589e-001 2.897594e+000 -8.157943e-001 -2.181621e+000 -2.212867e+000 -9.615374e-001 1.405035e+000 -9.144257e-001 -1.017728e+000 7.882220e-001 -9.778063e-002 9.152671e-001 -5.374526e-001 2.690170e-001 4.730998e+000
<VARIANCE> 25
 2.589536e+001 5.714097e+001 6.058599e+001 4.561480e+001 5.275417e+001 5.080742e+001 4.571809e+001 4.036308e+001 3.811470e+001 3.226891e+001 2.513399e+001 2.540424e+001 3.569221e+000 4.731779e+000 6.094425e+000 5.396263e+000 5.891937e+000 5.484655e+000 4.913049e+000 4.712576e+000 4.490201e+000 3.636253e+000 3.624939e+000 3.232454e+000 8.657662e+000
<GCONST> 1.105085e+002
<STATE> 4
<MEAN> 25
 -3.408029e+000 -2.827615e+000 -7.655332e+000 -2.309329e+000 4.417222e+000 -4.777628e+000 -5.529047e-001 1.986457e+000 4.630048e-001 2.985918e+000 -2.094241e+000 5.778320e-001 1.943994e+000 5.609666e-001 1.588146e+000 -9.200575e-001 -1.669797e+000 6.481532e-001 -3.730016e-001 4.423541e-001 -3.223490e-001 -3.618269e-001 2.712502e-001 -1.421410e+000 2.662737e+000
<VARIANCE> 25
 3.923402e+001 3.568491e+001 6.281072e+001 5.046664e+001 5.492625e+001 6.139648e+001 4.805008e+001 4.533941e+001 4.242566e+001 3.241681e+001 3.165342e+001 3.483691e+001 4.451147e+000 4.598845e+000 5.056335e+000 5.628038e+000 5.351419e+000 5.346258e+000 4.958202e+000 5.404675e+000 4.726916e+000 3.506338e+000 3.751947e+000 3.862462e+000 7.254545e+000
<GCONST> 1.117669e+002
<TRANSP> 5
 0.000000e+000 1.000000e+000 0.000000e+000 0.000000e+000 0.000000e+000
 0.000000e+000 8.090203e-001 1.909796e-001 0.000000e+000 0.000000e+000
 0.000000e+000 0.000000e+000 5.583193e-001 4.416807e-001 0.000000e+000
 0.000000e+000 0.000000e+000 0.000000e+000 5.474879e-001 4.525121e-001
 0.000000e+000 0.000000e+000 0.000000e+000 0.000000e+000 0.000000e+000
<ENDHMM>
~h "l"
<BEGINHMM>
<NUMSTATES> 5
<STATE> 2
<MEAN> 25
 6.374029e+000 -4.724784e+000 1.101399e+000 -5.717897e+000 -2.327627e+000 1.728211e+000 -8.130240e+000 -3.945719e+000 3.199251e+000 4.326412e+000 1.101825e+000 -2.579149e+000 5.596613e-001 1.961838e-001 6.812288e-001 -5.896051e-001 7.759134e-001 -2.798297e-002 -1.458907e+000 -1.475429e+000 4.107098e-002 1.177114e+000 3.689204e-001 -2.825823e-001 -4.165271e-001
<VARIANCE> 25
 1.471741e+001 2.453800e+001 4.699253e+001 6.054084e+001 4.978314e+001 6.399646e+001 6.604598e+001 9.775168e+001 5.353168e+001 4.480687e+001 4.348526e+001 3.849705e+001 1.021776e+000 1.849691e+000 2.713025e+000 4.515709e+000 5.062611e+000 5.691179e+000 4.638612e+000 5.455557e+000 4.333298e+000 3.771506e+000 4.174959e+000 3.118574e+000 1.265631e+000
<GCONST> 1.071643e+002
<STATE> 3
<MEAN> 25
 7.579884e+000 -4.060097e+000 2.630223e+000 -8.100303e+000 -1.245224e+000 3.395579e+000 -1.108976e+001 -6.525478e+000 2.389638e+000 6.567629e+000 2.758415e+000 -3.295670e+000 -4.327928e-002 1.926294e-001 3.607680e-002 -2.000697e-001 3.502082e-001 -6.521606e-002 -2.763983e-001 4.589136e-002 -6.491543e-002 -3.410743e-002 2.814698e-002 4.249945e-002 -1.219312e-001
<VARIANCE> 25
 1.038088e+001 1.949541e+001 3.955315e+001 6.585240e+001 4.659936e+001 5.123715e+001 6.303372e+001 7.233268e+001 5.118663e+001 4.427592e+001 3.974731e+001 3.532513e+001 4.113934e-001 9.984875e-001 1.955077e+000 2.690076e+000 1.804834e+000 2.618122e+000 2.556137e+000 3.677256e+000 2.548778e+000 2.346718e+000 2.293259e+000 1.745924e+000 7.134494e-001
<GCONST> 9.770031e+001
<STATE> 4
<MEAN> 25
 5.592093e+000 -2.083780e+000 1.559460e-001 -6.761281e+000 1.215162e+000 2.003257e+000 -7.491042e+000 -3.769484e+000 1.988520e+000 4.188918e+000 8.314995e-001 -2.151847e+000 -5.064263e-001 -1.234577e-001 -5.537521e-001 6.917096e-001 -1.647195e-001 -1.079023e-001 1.154493e+000 1.087088e+000 1.788877e-001 -8.708031e-001 -7.333833e-001 1.179273e-001 -1.468262e-001
<VARIANCE> 25
 1.980256e+001 3.009571e+001 5.950428e+001 7.335609e+001 5.562476e+001 5.497720e+001 8.534537e+001 6.954916e+001 5.346177e+001 5.234984e+001 4.578779e+001 3.873240e+001 8.475478e-001 2.498105e+000 2.743257e+000 4.051050e+000 3.562427e+000 4.228490e+000 4.157367e+000 5.503837e+000 4.080959e+000 3.589915e+000 3.935323e+000 2.819456e+000 3.035751e+000
<GCONST> 1.080527e+002
<TRANSP> 5
 0.000000e+000 1.000000e+000 0.000000e+000 0.000000e+000 0.000000e+000
 0.000000e+000 4.768304e-001 5.231696e-001 0.000000e+000 0.000000e+000
 0.000000e+000 0.000000e+000 5.880789e-001 4.119211e-001 0.000000e+000
 0.000000e+000 0.000000e+000 0.000000e+000 5.166502e-001 4.833498e-001
 0.000000e+000 0.000000e+000 0.000000e+000 0.000000e+000 0.000000e+000
<ENDHMM>
~h "m"
<BEGINHMM>
<NUMSTATES> 5
<STATE> 2
<MEAN> 25
 7.613039e+000 -1.144354e+000 1.351252e+000 -5.903665e-001 -9.310569e-001 4.683671e+000 -6.429937e-001 -5.838897e+000 -5.890865e+000 8.274604e-001 8.097138e-001 -2.322637e+000 4.815931e-001 1.298853e+000 1.788065e+000 2.198767e+000 3.008281e-001 -1.208324e-003 1.066171e+000 -3.027148e+000 -2.891144e+000 -5.345515e-002 -5.694910e-001 8.407451e-001 -9.580905e-001
<VARIANCE> 25
 2.201369e+001 3.643295e+001 3.364255e+001 6.167399e+001 3.643637e+001 4.870449e+001 5.546218e+001 6.296115e+001 5.365217e+001 3.687255e+001 4.030701e+001 3.781569e+001 1.928440e+000 2.233670e+000 3.346649e+000 3.690418e+000 3.227979e+000 3.572356e+000 5.327708e+000 4.601537e+000 5.315913e+000 3.893207e+000 5.612987e+000 4.017861e+000 4.043653e+000
<GCONST> 1.079919e+002
<STATE> 3
<MEAN> 25
 7.861694e+000 7.511016e-001 6.548772e+000 3.746310e+000 -4.736342e-001 4.797366e+000 7.687318e-002 -1.174899e+001 -1.230539e+001 7.034932e-001 -1.294309e+000 3.517002e-001 -3.699629e-002 1.770424e-001 3.300560e-001 2.860618e-001 1.261835e-001 1.419302e-001 2.534639e-001 -4.051450e-001 -4.894550e-001 -1.939261e-001 -2.936476e-001 2.775967e-001 -9.758525e-002
<VARIANCE> 25
 8.268484e+000 2.091349e+001 2.068941e+001 3.513434e+001 3.291748e+001 5.213147e+001 6.458840e+001 4.288017e+001 3.558953e+001 4.841729e+001 4.719815e+001 4.026313e+001 5.035025e-001 1.017422e+000 1.016169e+000 1.495646e+000 1.456563e+000 1.555735e+000 1.726339e+000 1.885190e+000 2.174283e+000 1.782388e+000 2.115825e+000 1.436715e+000 1.384042e+000
<GCONST> 9.260370e+001
<STATE> 4
<MEAN> 25
 6.134662e+000 1.423965e+000 4.178535e+000 2.013964e+000 -7.922315e-001 4.703182e+000 1.649996e+000 -8.543732e+000 -8.691601e+000 -1.229030e+000 -1.949346e+000 -1.661738e-001 -5.058177e-002 -2.635203e-001 -1.073328e+000 -1.048545e+000 -2.929046e-001 -3.324408e-002 -2.396821e-001 1.341989e+000 1.355083e+000 1.122868e-001 5.550324e-001 -5.420495e-001 4.818569e-001
<VARIANCE> 25
 2.144584e+001 2.188434e+001 3.507079e+001 4.041292e+001 4.281849e+001 4.563723e+001 5.490723e+001 5.238498e+001 5.678049e+001 3.579669e+001 4.285344e+001 3.383757e+001 5.523347e-001 1.587765e+000 2.571370e+000 3.448643e+000 1.951265e+000 2.307374e+000 2.895289e+000 3.320984e+000 3.956223e+000 2.437038e+000 3.026800e+000 2.513066e+000 2.240576e+000
<GCONST> 1.007140e+002
<TRANSP> 5
 0.000000e+000 1.000000e+000 0.000000e+000 0.000000e+000 0.000000e+000
 0.000000e+000 5.890009e-001 4.109991e-001 0.000000e+000 0.000000e+000
 0.000000e+000 0.000000e+000 7.202604e-001 2.797396e-001 0.000000e+000
 0.000000e+000 0.000000e+000 0.000000e+000 6.686688e-001 3.313312e-001
 0.000000e+000 0.000000e+000 0.000000e+000 0.000000e+000 0.000000e+000
<ENDHMM>
~h "n"
<BEGINHMM>
<NUMSTATES> 5
<STATE> 2
<MEAN> 25
 6.879794e+000 -4.108122e+000 3.399135e+000 9.464669e-001 -2.531765e+000 -1.761678e+000 -4.535318e+000 -2.957061e-002 1.252834e-001 1.703090e+000 -4.909156e+000 -3.442657e+000 6.128181e-001 2.184362e+000 1.930207e+000 2.326306e+000 -5.095420e-001 -8.902276e-001 5.689830e-001 -4.194616e+000 -6.935074e-001 1.023442e+000 -6.438174e-001 9.103423e-001 -2.165124e+000
<VARIANCE> 25
 8.491266e+000 3.222230e+001 3.513629e+001 3.933689e+001 3.899843e+001 4.198435e+001 4.467310e+001 1.069525e+002 4.556699e+001 4.287204e+001 3.457341e+001 3.115423e+001 6.211518e-001 1.695411e+000 3.412003e+000 2.286750e+000 3.103056e+000 4.455175e+000 5.454269e+000 5.660565e+000 5.709307e+000 4.988132e+000 4.933833e+000 2.753185e+000 7.995269e-001
<GCONST> 1.031189e+002
<STATE> 3
<MEAN> 25
 7.958246e+000 7.564647e-001 8.381837e+000 5.059806e+000 -4.483041e+000 -2.215991e+000 -2.761386e+000 -9.772863e+000 -2.575238e+000 3.917349e+000 -5.560250e+000 -4.491403e-001 1.048678e-001 6.950001e-001 2.031285e-001 4.247543e-001 -6.376309e-002 1.510016e-001 4.063215e-001 -7.583150e-001 -4.049989e-001 8.938773e-002 -3.298601e-002 4.100872e-001 -7.019415e-001
<VARIANCE> 25
 7.442148e+000 1.473024e+001 1.951842e+001 2.731632e+001 3.138699e+001 4.339372e+001 5.427826e+001 4.662285e+001 4.060236e+001 4.236756e+001 3.802271e+001 3.155516e+001 3.190204e-001 9.633906e-001 1.225538e+000 1.097947e+000 1.330223e+000 1.556111e+000 1.938630e+000 2.832958e+000 1.959192e+000 1.777445e+000 1.744079e+000 1.409018e+000 6.402804e-001
<GCONST> 8.976474e+001
<STATE> 4
<MEAN> 25
 4.216100e+000 3.606476e+000 5.064043e+000 5.896516e+000 -6.412866e-001 -1.220410e+000 7.512834e-001 -6.700483e+000 -2.532253e+000 1.142123e+000 -4.269366e+000 8.287388e-001 -6.773081e-001 2.181168e-001 -5.820271e-001 -1.551364e-001 7.575407e-001 1.661035e-001 1.736551e-001 9.252093e-001 1.707277e-001 -5.632924e-001 4.217923e-001 -1.206677e-001 -9.368664e-001
<VARIANCE> 25
 3.316320e+001 2.543849e+001 3.377212e+001 2.801420e+001 4.676382e+001 3.116527e+001 5.251622e+001 6.519836e+001 4.872887e+001 4.688048e+001 4.190453e+001 2.973377e+001 1.282163e+000 2.171677e+000 1.931310e+000 2.206495e+000 2.867204e+000 2.539540e+000 3.463890e+000 3.905408e+000 3.165337e+000 2.845604e+000 2.467450e+000 2.107368e+000 3.437119e+000
<GCONST> 1.019665e+002
<TRANSP> 5
 0.000000e+000 1.000000e+000 0.000000e+000 0.000000e+000 0.000000e+000
 0.000000e+000 6.103742e-001 3.896258e-001 0.000000e+000 0.000000e+000
 0.000000e+000 0.000000e+000 7.354156e-001 2.645843e-001 0.000000e+000
 0.000000e+000 0.000000e+000 0.000000e+000 7.233007e-001 2.766993e-001
 0.000000e+000 0.000000e+000 0.000000e+000 0.000000e+000 0.000000e+000
<ENDHMM>
~h "o"
<BEGINHMM>
<NUMSTATES> 5
<STATE> 2
<MEAN> 25
 5.787960e+000 5.512759e-001 -4.984446e+000 -8.662859e+000 -2.867996e+000 5.205042e+000 -3.952129e+000 -2.282330e+000 1.537676e-001 1.528268e+000 3.309610e+000 -1.759580e-001 1.885712e+000 -3.549658e-001 -4.649936e-001 -3.133051e+000 -1.455567e+000 2.537226e+000 -8.210968e-001 1.333525e-001 1.004488e-001 1.403052e-001 1.196591e+000 -4.631407e-001 2.107984e+000
<VARIANCE> 25
 2.746834e+001 3.185691e+001 4.038409e+001 7.712155e+001 4.953420e+001 5.171477e+001 6.968835e+001 5.136059e+001 5.201344e+001 4.982433e+001 3.723283e+001 2.859265e+001 4.338563e+000 2.972289e+000 5.537842e+000 6.154491e+000 6.762355e+000 5.128601e+000 5.461668e+000 6.790592e+000 5.216263e+000 5.128386e+000 4.102715e+000 3.543386e+000 4.680037e+000
<GCONST> 1.123784e+002
<STATE> 3
<MEAN> 25
 8.248795e+000 -9.904376e-001 -5.660222e+000 -1.523590e+001 -5.086874e+000 1.184170e+001 -5.204504e+000 -1.711550e+000 -1.615920e-001 1.388596e+000 6.503961e+000 -4.797916e-001 1.737348e-001 -7.319166e-002 -2.253101e-001 -1.041932e+000 -9.142623e-002 1.031582e+000 2.869519e-001 1.558190e-001 -1.174926e-001 -3.799875e-001 4.107575e-001 2.143190e-001 2.193563e-001
<VARIANCE> 25
 9.845262e+000 2.454778e+001 2.340242e+001 4.602554e+001 4.221544e+001 3.689474e+001 4.989885e+001 4.830129e+001 4.499050e+001 5.423360e+001 3.101836e+001 3.288743e+001 4.175229e-001 1.465881e+000 1.088740e+000 2.313480e+000 1.828655e+000 2.006965e+000 2.497405e+000 2.423735e+000 2.836169e+000 2.834993e+000 1.831748e+000 1.765388e+000 1.090099e+000
<GCONST> 9.516029e+001
<STATE> 4
<MEAN> 25
 7.563953e+000 5.023726e-001 -5.638251e+000 -1.459276e+001 -3.997534e+000 1.007823e+001 -2.480299e+000 -1.575965e+000 6.846005e-001 -5.510535e-002 4.446546e+000 -2.412192e-002 -2.012272e-001 4.337576e-002 2.531509e-001 1.280647e+000 4.460444e-001 -9.490408e-001 1.138235e-001 -6.850353e-002 1.651140e-001 3.124625e-001 -5.822520e-001 -2.099141e-001 -8.702947e-001
<VARIANCE> 25
 1.528445e+001 3.570459e+001 2.424434e+001 6.003210e+001 4.539378e+001 4.135826e+001 6.141824e+001 4.986748e+001 4.575313e+001 5.425191e+001 2.993739e+001 3.559708e+001 6.606256e-001 1.526567e+000 1.305004e+000 3.042323e+000 2.221452e+000 2.543539e+000 2.790745e+000 2.515766e+000 2.498252e+000 2.738594e+000 2.002759e+000 1.849898e+000 2.544031e+000
<GCONST> 9.911942e+001
<TRANSP> 5
 0.000000e+000 1.000000e+000 0.000000e+000 0.000000e+000 0.000000e+000
 0.000000e+000 5.632905e-001 4.367095e-001 0.000000e+000 0.000000e+000
 0.000000e+000 0.000000e+000 6.858410e-001 3.141590e-001 0.000000e+000
 0.000000e+000 0.000000e+000 0.000000e+000 8.161690e-001 1.838310e-001
 0.000000e+000 0.000000e+000 0.000000e+000 0.000000e+000 0.000000e+000
<ENDHMM>
~h "p"
<BEGINHMM>
<NUMSTATES> 5
<STATE> 2
<MEAN> 25
 1.720636e+000 5.189565e+000 -1.123509e+000 1.318202e+000 1.707289e+000 8.088641e-001 2.713077e+000 -3.150318e+000 2.936862e-001 -1.140981e-001 3.688912e-002 -4.803354e-002 -1.226599e+000 2.507966e-001 -2.872356e-001 5.013008e-001 1.776032e-001 -5.308600e-001 4.912810e-001 2.575191e-001 4.276997e-001 -2.535564e-001 -3.583372e-002 3.660738e-001 -1.699066e+000
<VARIANCE> 25
 3.316673e+001 2.080156e+001 2.999471e+001 3.637646e+001 2.427364e+001 3.636821e+001 2.963154e+001 3.381748e+001 3.688663e+001 2.760075e+001 2.458716e+001 2.584874e+001 1.493380e+000 2.288064e+000 1.855055e+000 2.340178e+000 2.219736e+000 2.617287e+000 2.572619e+000 2.412920e+000 2.742059e+000 2.290865e+000 2.037151e+000 1.772209e+000 5.888643e+000
<GCONST> 9.772813e+001
<STATE> 3
<MEAN> 25
 -3.194451e+000 3.322382e+000 -2.115301e+000 2.296854e+000 1.807429e+000 -1.219273e+000 3.280447e+000 -1.793504e+000 1.105107e+000 -6.276355e-001 5.664536e-001 1.530253e+000 2.371328e-001 -2.129706e+000 -1.082633e+000 -1.478445e+000 -4.481324e-001 3.347823e-001 -7.967929e-001 1.047380e-001 2.665407e-001 1.241148e-001 7.845061e-001 -1.400577e-001 5.287426e+000
<VARIANCE> 25
 1.966072e+001 2.084445e+001 1.979671e+001 2.606735e+001 2.208905e+001 2.756822e+001 2.768673e+001 2.691796e+001 2.798614e+001 2.218788e+001 1.932228e+001 1.789914e+001 5.439136e+000 3.145794e+000 3.151292e+000 6.190481e+000 3.206307e+000 5.682387e+000 3.502679e+000 3.726185e+000 3.924964e+000 3.254269e+000 2.863860e+000 3.067561e+000 9.786522e+000
<GCONST> 1.017949e+002
<STATE> 4
<MEAN> 25
 -4.092011e+000 -1.601842e-001 -3.849931e+000 1.215198e+000 1.624161e+000 1.672622e-001 2.406587e+000 -4.957642e-001 1.486434e+000 -7.458837e-001 1.125089e+000 2.040179e+000 1.085184e+000 -8.608316e-001 -2.356239e-001 -1.043535e+000 -4.285760e-001 5.540825e-001 -7.420274e-001 -7.603475e-002 -9.194256e-002 1.876301e-002 2.985900e-001 -4.843989e-001 3.167160e+000
<VARIANCE> 25
 3.070670e+001 2.283909e+001 1.771945e+001 3.640826e+001 2.247739e+001 3.187514e+001 2.801061e+001 2.485267e+001 2.285297e+001 2.069673e+001 1.812834e+001 1.788078e+001 4.123534e+000 3.953408e+000 2.701438e+000 5.590986e+000 2.795223e+000 5.162059e+000 3.586936e+000 3.363086e+000 2.936186e+000 2.721728e+000 2.422242e+000 2.790166e+000 1.429557e+001
<GCONST> 1.013442e+002
<TRANSP> 5
 0.000000e+000 1.000000e+000 0.000000e+000 0.000000e+000 0.000000e+000
 0.000000e+000 8.002207e-001 1.997793e-001 0.000000e+000 0.000000e+000
 0.000000e+000 0.000000e+000 3.560982e-001 6.439018e-001 0.000000e+000
 0.000000e+000 0.000000e+000 0.000000e+000 6.374275e-001 3.625725e-001
 0.000000e+000 0.000000e+000 0.000000e+000 0.000000e+000 0.000000e+000
<ENDHMM>
~h "q"
<BEGINHMM>
<NUMSTATES> 5
<STATE> 2
<MEAN> 25
 -5.510012e+000 5.371265e+000 9.042077e-001 6.284416e+000 -5.147399e-001 -1.729522e+000 3.269981e+000 -4.950960e+000 1.547073e+000 -3.520391e+000 -6.054171e-001 1.791261e+000 -6.051716e-001 -6.403092e-001 -8.658583e-001 -1.103574e-001 7.747254e-001 2.379929e-001 -8.426251e-002 2.446975e-001 5.647825e-001 -1.926648e-001 -3.142641e-001 9.890667e-001 1.377811e-001
<VARIANCE> 25
 1.015812e+001 2.357334e+001 1.884421e+001 7.557001e+000 1.837103e+001 1.848161e+001 1.292205e+001 1.080769e+001 2.892448e+001 1.328430e+001 1.972734e+001 1.718482e+001 1.445380e+000 4.701879e+000 8.189681e+000 1.750684e+000 2.976005e+000 3.567929e+000 2.830488e+000 1.578952e+000 4.258633e+000 3.577517e+000 2.149685e+000 3.350343e+000 4.674833e+000
<GCONST> 9.360722e+001
<STATE> 3
<MEAN> 25
 -1.867527e+000 -1.930968e+000 -2.546551e+000 -1.120910e+000 -8.140979e-001 -6.651480e+000 5.160800e-001 2.130194e-001 -1.473446e+000 -4.456881e-001 5.962996e-001 6.222745e+000 -3.702202e-001 -1.062341e-001 -9.646180e-001 -5.606880e-001 2.943394e-001 5.081056e-001 3.418089e-001 4.222667e-002 -5.884370e-002 -2.940410e-001 -4.837634e-002 1.140506e-001 7.131333e-001
<VARIANCE> 25
 2.584495e+001 4.408627e+001 2.223900e+002 3.803868e+001 6.435912e+001 6.463912e+001 3.952859e+001 5.487426e+001 4.000884e+001 2.982069e+001 3.570332e+001 2.986255e+001 2.797859e+000 5.204018e+000 7.657500e+000 5.390969e+000 5.840207e+000 5.377668e+000 1.481257e+000 4.093002e+000 5.074512e+000 2.844759e+000 2.762108e+000 2.770116e+000 1.128922e+001
<GCONST> 1.108761e+002
<STATE> 4
<MEAN> 25
 -7.948677e+000 2.883065e+000 -5.555531e+000 3.646480e+000 7.774419e-001 1.477660e+000 5.971322e+000 -4.551958e+000 3.837497e+000 -4.013503e+000 -1.693933e+000 1.912534e+000 -8.467992e-002 3.248441e-001 2.683001e-001 9.754457e-003 6.275773e-003 2.568938e-001 8.141476e-002 1.248403e-001 6.984925e-002 -1.433022e-002 -7.988626e-002 -1.776461e-001 -1.113596e-001
<VARIANCE> 25
 6.884454e+000 1.088599e+001 1.615651e+001 1.236024e+001 1.095603e+001 1.884371e+001 1.219181e+001 1.299233e+001 1.971486e+001 1.082106e+001 1.906858e+001 9.578604e+000 1.532418e+000 1.828245e+000 2.182620e+000 8.897994e-001 1.697700e+000 1.487799e+000 1.530621e+000 1.585894e+000 1.896606e+000 1.565519e+000 1.907013e+000 1.387566e+000 2.245068e+000
<GCONST> 8.290359e+001
<TRANSP> 5
 0.000000e+000 1.000000e+000 0.000000e+000 0.000000e+000 0.000000e+000
 0.000000e+000 8.156999e-001 1.843001e-001 0.000000e+000 0.000000e+000
 0.000000e+000 0.000000e+000 8.240181e-001 1.759818e-001 0.000000e+000
 0.000000e+000 0.000000e+000 0.000000e+000 8.910739e-001 1.089261e-001
 0.000000e+000 0.000000e+000 0.000000e+000 0.000000e+000 0.000000e+000
<ENDHMM>
~h "r"
<BEGINHMM>
<NUMSTATES> 5
<STATE> 2
<MEAN> 25
 5.713381e+000 -5.466957e+000 -3.974997e+000 -1.663177e+000 -3.186726e+000 -1.194246e-001 -5.429983e+000 4.986159e-001 5.483164e+000 2.678257e+000 3.687117e-001 -3.480361e+000 3.213712e-001 2.195761e-001 1.576987e-001 1.781815e+000 -1.919482e-001 -3.346083e-001 -3.011869e-001 -8.819337e-001 7.967760e-001 -2.215402e-001 2.131099e-001 2.719420e-001 -1.134806e+000
<VARIANCE> 25
 1.800035e+001 2.829766e+001 4.093183e+001 4.509154e+001 4.228241e+001 5.102298e+001 5.887461e+001 7.680122e+001 4.818227e+001 4.059325e+001 3.955884e+001 3.480616e+001 2.681536e+000 2.923180e+000 2.935147e+000 5.700090e+000 5.019761e+000 5.333542e+000 5.615530e+000 5.639636e+000 5.427729e+000 5.090141e+000 4.471089e+000 3.468585e+000 4.018368e+000
<GCONST> 1.096703e+002
<STATE> 3
<MEAN> 25
 6.385920e+000 -4.401618e+000 -2.748971e+000 2.832780e+000 -3.734380e+000 -9.640580e-001 -6.380973e+000 -1.328836e+000 6.598466e+000 2.134533e+000 1.320818e+000 -2.558649e+000 -2.399510e-001 4.515669e-001 5.819560e-001 8.393273e-001 4.679422e-001 -4.750127e-001 1.617777e-001 -3.014651e-001 -4.606091e-001 -3.213683e-001 9.160598e-002 6.439199e-001 -1.138523e+000
<VARIANCE> 25
 1.745521e+001 2.406973e+001 4.371757e+001 3.742340e+001 4.640604e+001 4.553559e+001 5.660421e+001 6.610641e+001 4.638898e+001 3.942579e+001 3.505667e+001 2.940033e+001 2.436470e+000 2.594550e+000 2.913188e+000 3.695861e+000 4.680165e+000 4.741001e+000 5.105307e+000 5.443901e+000 4.973017e+000 4.325367e+000 3.676383e+000 3.484987e+000 3.165287e+000
<GCONST> 1.071362e+002
<STATE> 4
<MEAN> 25
 8.954897e-001 -1.502535e+000 -2.235860e+000 3.226964e+000 4.504834e-001 -6.174519e-001 -1.069157e+000 -6.815851e-001 3.427707e+000 -1.171934e-001 1.957030e-001 5.860601e-001 -1.417952e-001 1.230517e-001 2.395397e-001 -6.843901e-002 7.309172e-002 3.822836e-003 1.469170e-001 4.134595e-002 -4.755760e-001 -8.324646e-002 5.846975e-002 1.751537e-001 -2.845959e-001
<VARIANCE> 25
 4.866703e+001 3.348661e+001 4.722191e+001 3.381990e+001 4.194324e+001 4.249109e+001 5.645682e+001 4.684689e+001 4.130235e+001 3.732676e+001 3.168638e+001 2.587965e+001 1.990749e+000 1.945664e+000 2.255216e+000 2.091944e+000 2.737668e+000 2.865285e+000 3.066063e+000 2.963075e+000 3.112978e+000 2.500989e+000 2.228942e+000 2.044925e+000 2.544263e+000
<GCONST> 1.018098e+002
<TRANSP> 5
 0.000000e+000 1.000000e+000 0.000000e+000 0.000000e+000 0.000000e+000
 0.000000e+000 3.926288e-001 6.073712e-001 0.000000e+000 0.000000e+000
 0.000000e+000 0.000000e+000 3.667483e-001 6.332517e-001 0.000000e+000
 0.000000e+000 0.000000e+000 0.000000e+000 7.251762e-001 2.748238e-001
 0.000000e+000 0.000000e+000 0.000000e+000 0.000000e+000 0.000000e+000
<ENDHMM>
~h "s"
<BEGINHMM>
<NUMSTATES> 5
<STATE> 2
<MEAN> 25
 -5.650527e+000 5.483490e+000 2.593748e-001 2.488239e+000 4.723755e+000 -4.199829e+000 1.893664e+000 1.388461e+000 1.488626e+000 -5.045565e-001 -1.293136e+000 2.026013e+000 -4.477991e+000 1.880906e+000 -9.326803e-001 8.266996e-001 1.667998e+000 -4.940614e-001 1.704283e+000 6.698070e-001 5.974663e-001 -5.207722e-001 6.820856e-001 7.655335e-001 -6.252926e-001
<VARIANCE> 25
 6.505750e+001 4.303463e+001 4.219469e+001 3.760779e+001 4.406213e+001 4.120179e+001 6.750346e+001 4.925844e+001 4.474608e+001 3.294415e+001 3.496447e+001 2.627300e+001 3.086233e+000 5.611914e+000 3.975913e+000 4.485186e+000 4.809941e+000 4.379658e+000 5.873799e+000 5.269307e+000 4.402577e+000 3.793593e+000 3.562713e+000 2.801845e+000 2.670762e+000
<GCONST> 1.092973e+002
<STATE> 3
<MEAN> 25
 -2.086695e+001 5.285174e+000 -5.388449e+000 1.659589e+000 6.528740e+000 -4.158924e+000 4.908667e+000 2.881795e+000 2.946389e+000 -1.206249e-001 1.932248e+000 4.300355e+000 -7.421798e-001 -5.531467e-001 -5.049136e-001 -2.539260e-001 -1.434587e-001 3.096581e-002 5.106496e-002 8.368850e-002 1.382170e-001 1.345118e-001 1.918720e-001 1.696301e-001 -2.392895e-001
<VARIANCE> 25
 1.741999e+001 2.356437e+001 3.224026e+001 2.954857e+001 2.649758e+001 2.731961e+001 4.706297e+001 3.188903e+001 3.192148e+001 2.275932e+001 2.103542e+001 1.984807e+001 2.810690e+000 1.242580e+000 1.697835e+000 1.374282e+000 1.556559e+000 1.618099e+000 1.705622e+000 1.704746e+000 1.718318e+000 1.568285e+000 1.494653e+000 1.272517e+000 9.535347e-001
<GCONST> 9.102014e+001
<STATE> 4
<MEAN> 25
 -1.325025e+001 2.655998e+000 -4.387670e+000 1.410654e+000 4.258920e+000 -4.010432e+000 2.841437e+000 1.774059e+000 3.166702e+000 -6.737994e-001 6.711221e-001 2.709210e+000 3.706656e+000 -1.777757e-001 1.149590e+000 -2.305952e-001 -9.040557e-001 1.288122e-001 -1.377229e+000 -8.307883e-001 -3.198556e-001 -4.591969e-002 -6.821112e-001 -1.023626e+000 1.481115e-001
<VARIANCE> 25
 6.752032e+001 2.681452e+001 3.617987e+001 2.900778e+001 3.148672e+001 3.726174e+001 5.257307e+001 3.644905e+001 3.337262e+001 2.580088e+001 2.457490e+001 2.335372e+001 8.238270e+000 3.406634e+000 3.870055e+000 3.441664e+000 3.187713e+000 3.576398e+000 4.940394e+000 4.182770e+000 3.916823e+000 2.782451e+000 2.823823e+000 2.595463e+000 5.628097e+000
<GCONST> 1.056347e+002
<TRANSP> 5
 0.000000e+000 1.000000e+000 0.000000e+000 0.000000e+000 0.000000e+000
 0.000000e+000 7.144427e-001 2.855573e-001 0.000000e+000 0.000000e+000
 0.000000e+000 0.000000e+000 8.481708e-001 1.518292e-001 0.000000e+000
 0.000000e+000 0.000000e+000 0.000000e+000 7.329601e-001 2.670399e-001
 0.000000e+000 0.000000e+000 0.000000e+000 0.000000e+000 0.000000e+000
<ENDHMM>
~h "t"
<BEGINHMM>
<NUMSTATES> 5
<STATE> 2
<MEAN> 25
 -6.314067e-001 3.884844e+000 -1.462948e+000 1.946059e+000 1.745336e+000 -2.368296e+000 9.532043e-001 -9.356710e-001 2.446082e+000 8.351630e-002 -1.052005e+000 7.669042e-002 -7.115361e-001 2.602506e-001 -2.318850e-001 2.580711e-001 6.677075e-002 2.316084e-002 6.384417e-001 -6.622627e-002 6.111703e-002 -2.472360e-001 1.392706e-001 3.051152e-001 -1.743805e+000
<VARIANCE> 25
 2.627372e+001 2.464863e+001 2.996784e+001 2.865068e+001 2.776337e+001 3.232594e+001 3.844743e+001 3.529633e+001 3.573837e+001 2.874281e+001 2.636187e+001 2.339953e+001 1.595130e+000 2.374254e+000 1.763612e+000 2.275918e+000 2.474351e+000 2.325133e+000 2.791233e+000 2.593207e+000 2.433773e+000 2.236676e+000 1.975489e+000 1.748502e+000 5.756688e+000
<GCONST> 9.768233e+001
<STATE> 3
<MEAN> 25
 -4.285879e+000 3.783250e+000 -1.321517e+000 2.721457e+000 1.701066e+000 -2.582489e+000 3.026909e+000 -1.635133e+000 1.891374e+000 -7.033196e-001 -1.914373e-001 1.678240e+000 -1.774654e+000 -1.924510e+000 -7.683950e-001 -9.987139e-001 2.818880e-001 -3.914347e-001 2.145960e-002 4.185109e-001 -3.820151e-002 -1.682984e-001 4.367901e-001 4.786476e-001 3.970530e+000
<VARIANCE> 25
 2.812939e+001 2.577769e+001 2.720393e+001 2.315726e+001 2.514386e+001 2.859261e+001 3.126197e+001 3.166032e+001 3.065058e+001 2.380187e+001 2.274242e+001 2.016857e+001 3.003865e+000 3.094115e+000 3.471117e+000 3.247216e+000 3.306724e+000 3.486981e+000 3.708660e+000 3.532374e+000 3.940134e+000 2.632517e+000 2.907425e+000 2.282890e+000 9.391337e+000
<GCONST> 1.013159e+002
<STATE> 4
<MEAN> 25
 -6.758186e+000 -2.039579e+000 -3.706857e+000 -1.470599e+000 1.860940e+000 -4.226036e+000 1.092597e+000 -2.859054e-001 2.616085e+000 -2.573364e-001 9.619400e-002 1.611707e+000 1.590450e+000 -1.020394e+000 1.381366e-001 -1.491373e+000 -5.643528e-001 4.451256e-002 -2.071636e+000 1.124674e-002 9.304171e-002 3.681219e-001 -1.592938e-001 -1.073582e+000 5.774082e+000
<VARIANCE> 25
 3.226503e+001 2.757558e+001 2.712155e+001 3.028139e+001 2.998908e+001 3.874253e+001 4.220235e+001 3.063350e+001 3.130035e+001 2.602922e+001 2.361690e+001 2.395865e+001 5.138693e+000 4.736542e+000 5.224451e+000 5.388738e+000 4.390949e+000 5.572798e+000 5.978415e+000 6.068843e+000 6.134154e+000 3.980840e+000 4.133771e+000 3.728399e+000 1.158696e+001
<GCONST> 1.084111e+002
<TRANSP> 5
 0.000000e+000 1.000000e+000 0.000000e+000 0.000000e+000 0.000000e+000
 0.000000e+000 8.261684e-001 1.738317e-001 0.000000e+000 0.000000e+000
 0.000000e+000 0.000000e+000 4.445776e-001 5.554224e-001 0.000000e+000
 0.000000e+000 0.000000e+000 0.000000e+000 4.964397e-001 5.035603e-001
 0.000000e+000 0.000000e+000 0.000000e+000 0.000000e+000 0.000000e+000
<ENDHMM>
~h "u"
<BEGINHMM>
<NUMSTATES> 5
<STATE> 2
<MEAN> 25
 5.362585e+000 3.940076e+000 -1.089355e+000 -3.054789e+000 -2.777472e+000 1.713511e+000 -6.548712e+000 -4.986077e+000 -3.482298e+000 -8.955572e-002 2.567876e+000 7.604805e-002 2.215225e+000 9.586840e-001 9.163555e-003 -2.287531e+000 -1.744284e+000 1.984088e+000 -1.629577e+000 -9.350111e-001 -1.464942e+000 -1.209080e-003 1.275174e+000 -1.025373e-001 1.323282e+000
<VARIANCE> 25
 2.706353e+001 3.472622e+001 4.277831e+001 6.603760e+001 4.682523e+001 4.554527e+001 7.561073e+001 5.979048e+001 4.599480e+001 4.124129e+001 3.298779e+001 2.825088e+001 4.631441e+000 3.369934e+000 4.745532e+000 5.799653e+000 5.762059e+000 5.055739e+000 6.451433e+000 7.592867e+000 5.714631e+000 5.366877e+000 3.908478e+000 3.482490e+000 4.396459e+000
<GCONST> 1.120467e+002
<STATE> 3
<MEAN> 25
 9.007512e+000 5.929488e+000 -1.923242e+000 -1.008434e+001 -6.726699e+000 8.533882e+000 -8.095393e+000 -5.242584e+000 -6.266703e+000 -1.938955e+000 5.752920e+000 8.082285e-001 2.428624e-001 2.112835e-001 -1.120844e-001 -8.984250e-001 -2.709458e-001 8.318358e-001 1.500657e-002 4.175560e-002 -3.696283e-001 -1.712433e-001 3.758630e-001 2.645082e-001 3.406336e-002
<VARIANCE> 25
 1.061250e+001 3.150893e+001 2.539721e+001 5.767620e+001 4.034888e+001 3.719317e+001 5.417675e+001 7.157263e+001 5.166494e+001 5.282848e+001 3.700146e+001 3.436788e+001 5.236439e-001 2.027715e+000 1.202473e+000 2.867284e+000 2.453968e+000 2.320945e+000 3.188691e+000 3.629276e+000 2.965533e+000 3.184143e+000 2.583371e+000 2.130958e+000 1.362836e+000
<GCONST> 9.943178e+001
<STATE> 4
<MEAN> 25
 8.109813e+000 5.849732e+000 -1.639180e+000 -7.873556e+000 -4.222126e+000 5.960274e+000 -6.281807e+000 -4.873525e+000 -5.062594e+000 -1.403460e-001 4.155731e+000 2.490849e-001 -3.995041e-001 -3.487402e-001 3.896523e-001 1.605254e+000 7.839419e-001 -1.115814e+000 6.177760e-001 -3.522437e-002 9.661775e-001 4.765655e-001 -7.497597e-001 -3.015777e-001 -1.044535e+000
<VARIANCE> 25
 1.353071e+001 3.983272e+001 3.094824e+001 6.490973e+001 4.534830e+001 4.390598e+001 7.789481e+001 6.910540e+001 5.173977e+001 5.253693e+001 4.180132e+001 3.739259e+001 1.039591e+000 2.490064e+000 2.091279e+000 3.769530e+000 3.530137e+000 3.399937e+000 4.563022e+000 4.289957e+000 3.938867e+000 3.959439e+000 3.249722e+000 2.929368e+000 3.778561e+000
<GCONST> 1.060964e+002
<TRANSP> 5
 0.000000e+000 1.000000e+000 0.000000e+000 0.000000e+000 0.000000e+000
 0.000000e+000 5.269548e-001 4.730453e-001 0.000000e+000 0.000000e+000
 0.000000e+000 0.000000e+000 7.132687e-001 2.867313e-001 0.000000e+000
 0.000000e+000 0.000000e+000 0.000000e+000 7.303249e-001 2.696751e-001
 0.000000e+000 0.000000e+000 0.000000e+000 0.000000e+000 0.000000e+000
<ENDHMM>
~h "w"
<BEGINHMM>
<NUMSTATES> 5
<STATE> 2
<MEAN> 25
 7.600164e+000 7.505776e-001 -2.302115e+000 -7.267032e+000 -2.657414e+000 5.443694e+000 -3.259843e+000 -1.902996e+000 -2.281209e+000 1.306444e+000 3.327239e+000 -1.070362e+000 1.382711e+000 1.164580e+000 -5.107487e-002 -1.754072e+000 -1.108583e+000 1.196237e+000 -6.358051e-002 -3.493406e-001 -1.216753e+000 -5.870696e-001 8.189755e-001 7.352948e-001 2.546462e-002
<VARIANCE> 25
 2.588177e+001 6.243429e+001 3.576284e+001 7.809955e+001 4.259498e+001 5.963621e+001 6.222198e+001 5.201005e+001 5.652311e+001 4.741558e+001 4.851475e+001 3.846114e+001 2.424584e+000 2.644336e+000 2.685971e+000 4.204152e+000 4.371120e+000 4.541429e+000 4.131534e+000 4.551002e+000 4.025183e+000 3.675598e+000 3.552497e+000 3.182055e+000 4.192810e+000
<GCONST> 1.093740e+002
<STATE> 3
<MEAN> 25
 1.135526e+001 4.063185e+000 -2.135196e+000 -1.513123e+001 -8.229877e+000 1.008391e+001 -4.450283e+000 -9.689283e-001 -2.955745e+000 -2.780453e+000 4.687756e+000 1.532106e+000 -6.747529e-002 -5.450817e-001 -2.615069e-001 -6.448570e-001 -4.281783e-002 5.954089e-001 -7.515826e-002 -9.276714e-002 2.467414e-001 2.156367e-001 4.190140e-001 7.640711e-002 6.211815e-001
<VARIANCE> 25
 9.080785e+000 3.093268e+001 1.743756e+001 4.464758e+001 4.156646e+001 4.101710e+001 3.440613e+001 4.322889e+001 5.318859e+001 3.401069e+001 2.760415e+001 2.623458e+001 4.591432e-001 2.910857e+000 1.366636e+000 2.702359e+000 2.376905e+000 2.785209e+000 2.114471e+000 2.093455e+000 2.123387e+000 3.047567e+000 2.292495e+000 1.979286e+000 2.030155e+000
<GCONST> 9.613604e+001
<STATE> 4
<MEAN> 25
 8.430262e+000 -4.157843e+000 -5.746840e+000 -1.554501e+001 -2.733729e+000 1.294350e+001 -3.235970e+000 -2.367143e+000 4.548489e-001 2.818791e+000 6.217704e+000 -2.835794e+000 -7.775009e-001 -1.715419e+000 -4.318299e-001 1.106715e+000 1.445517e+000 -4.967810e-001 -2.492251e-001 3.146957e-001 1.351663e+000 8.899811e-001 -1.058028e+000 -1.889898e+000 1.100784e+000
<VARIANCE> 25
 9.781014e+000 3.037756e+001 2.428400e+001 4.324213e+001 3.115266e+001 3.890073e+001 4.507067e+001 4.048329e+001 4.737278e+001 4.349796e+001 3.248595e+001 3.663585e+001 3.073133e-001 1.318898e+000 1.080297e+000 2.054419e+000 1.930942e+000 2.495757e+000 1.688339e+000 1.926070e+000 2.240858e+000 2.014321e+000 2.188843e+000 2.198019e+000 6.144766e-001
<GCONST> 9.315638e+001
<TRANSP> 5
 0.000000e+000 1.000000e+000 0.000000e+000 0.000000e+000 0.000000e+000
 0.000000e+000 6.928844e-001 3.071156e-001 0.000000e+000 0.000000e+000
 0.000000e+000 0.000000e+000 7.743379e-001 2.256621e-001 0.000000e+000
 0.000000e+000 0.000000e+000 0.000000e+000 6.821814e-001 3.178186e-001
 0.000000e+000 0.000000e+000 0.000000e+000 0.000000e+000 0.000000e+000
<ENDHMM>
~h "y"
<BEGINHMM>
<NUMSTATES> 5
<STATE> 2
<MEAN> 25
 5.224228e-002 -4.629336e-001 8.642118e+000 -1.237252e+000 -6.243258e+000 -4.246235e+000 -2.853382e+000 3.288747e+000 -2.615805e+000 -2.047903e+000 2.196313e+000 1.599596e+000 -9.688403e-002 8.415150e-001 2.341211e+000 -2.577043e-002 -1.099304e+000 -3.100002e-001 -1.058834e+000 -5.404757e-001 -1.366638e+000 -3.120084e-001 1.095950e+000 6.337145e-001 4.644679e-001
<VARIANCE> 25
 2.616483e+001 5.373092e+001 7.085403e+001 3.591613e+001 5.988122e+001 5.043952e+001 5.128574e+001 6.327028e+001 5.901019e+001 4.035703e+001 3.254327e+001 2.800995e+001 1.968407e+000 2.528127e+000 3.863820e+000 2.652027e+000 3.591645e+000 3.335708e+000 3.630017e+000 4.116480e+000 3.812104e+000 3.565300e+000 2.698897e+000 2.383810e+000 3.985302e+000
<GCONST> 1.066985e+002
<STATE> 3
<MEAN> 25
 8.696656e-001 3.221270e-001 1.664862e+001 -9.525644e-001 -1.205267e+001 -4.554459e+000 -7.832032e+000 7.334411e-001 -7.139960e+000 -2.907244e+000 6.086837e+000 3.479189e+000 2.512799e-001 -9.911242e-001 -1.001163e+000 -3.663381e-001 -6.235970e-001 -5.582715e-001 1.716417e-001 1.006494e+000 9.558027e-001 5.527539e-001 1.153089e-001 7.746716e-002 9.374644e-001
<VARIANCE> 25
 1.004664e+001 2.481841e+001 3.728013e+001 3.554770e+001 2.546160e+001 3.782162e+001 2.896785e+001 4.666207e+001 5.317809e+001 5.395763e+001 2.507825e+001 2.857860e+001 5.440817e-001 1.947219e+000 3.029250e+000 1.375804e+000 1.941894e+000 1.695582e+000 1.965588e+000 3.471586e+000 3.227749e+000 1.965372e+000 1.405004e+000 1.338488e+000 1.498922e+000
<GCONST> 9.475175e+001
<STATE> 4
<MEAN> 25
 2.622533e+000 -7.197341e+000 6.094563e+000 -4.830041e+000 -1.072928e+001 -6.687998e+000 -2.799530e+000 1.113099e+001 8.764463e-001 -1.120486e+000 1.748082e+000 3.871181e-001 3.623566e-001 -1.310960e+000 -2.330467e+000 -3.090160e-001 1.566139e+000 9.560876e-001 8.208300e-001 1.207199e+000 1.423985e+000 -4.950908e-001 -1.873041e+000 -1.314387e+000 5.452939e-001
<VARIANCE> 25
 8.148283e+000 1.860891e+001 2.847494e+001 2.168431e+001 2.591614e+001 2.663693e+001 4.326521e+001 4.962565e+001 4.681847e+001 2.954832e+001 3.530299e+001 2.388700e+001 2.600684e-001 9.760650e-001 1.810736e+000 9.409624e-001 1.892785e+000 1.555609e+000 2.073300e+000 3.236905e+000 2.058737e+000 2.480739e+000 2.062633e+000 1.855668e+000 3.520926e-001
<GCONST> 8.964714e+001
<TRANSP> 5
 0.000000e+000 1.000000e+000 0.000000e+000 0.000000e+000 0.000000e+000
 0.000000e+000 7.785521e-001 2.214479e-001 0.000000e+000 0.000000e+000
 0.000000e+000 0.000000e+000 7.561541e-001 2.438460e-001 0.000000e+000
 0.000000e+000 0.000000e+000 0.000000e+000 7.196028e-001 2.803972e-001
 0.000000e+000 0.000000e+000 0.000000e+000 0.000000e+000 0.000000e+000
<ENDHMM>
~h "z"
<BEGINHMM>
<NUMSTATES> 5
<STATE> 2
<MEAN> 25
 -8.766909e-001 7.972638e+000 2.049388e+000 5.078307e+000 1.950725e+000 -6.131338e+000 -2.012512e+000 -1.101554e+000 9.657402e-001 -9.785611e-001 -1.960889e+000 1.736514e+000 -2.041064e+000 2.324187e+000 -7.164495e-001 1.085807e+000 1.418413e+000 -3.855669e-001 1.221782e+000 -1.420426e-001 7.035922e-001 -4.093523e-001 1.603334e-001 5.972694e-001 -8.868852e-001
<VARIANCE> 25
 3.387147e+001 4.284813e+001 4.226626e+001 3.178313e+001 4.143641e+001 3.646235e+001 7.247231e+001 4.789651e+001 4.132865e+001 4.182868e+001 3.113265e+001 2.927292e+001 2.860942e+000 3.836712e+000 2.800717e+000 2.707892e+000 2.949623e+000 3.869684e+000 4.210327e+000 5.767348e+000 4.026439e+000 3.594674e+000 2.772905e+000 2.720034e+000 2.699571e+000
<GCONST> 1.059052e+002
<STATE> 3
<MEAN> 25
 -1.144196e+001 1.385120e+001 7.410723e-001 8.104402e+000 6.531050e+000 -6.041821e+000 1.799296e+000 -6.241133e-001 1.139581e+000 -5.065176e-001 -7.571680e-002 3.913645e+000 -1.100365e+000 -2.760060e-001 -2.844012e-002 8.132476e-002 2.910683e-001 1.653825e-001 3.619573e-001 8.638034e-002 -1.332589e-001 2.061036e-002 2.665218e-001 2.472944e-001 8.714326e-002
<VARIANCE> 25
 3.467463e+001 2.661161e+001 2.928009e+001 2.804741e+001 2.387412e+001 2.897002e+001 5.576601e+001 2.784163e+001 3.383577e+001 2.836521e+001 1.875611e+001 2.336825e+001 2.201092e+000 1.723887e+000 1.341564e+000 1.200766e+000 1.895748e+000 1.799805e+000 1.702428e+000 1.774563e+000 1.647723e+000 1.314074e+000 1.317015e+000 1.253460e+000 1.346127e+000
<GCONST> 9.203568e+001
<STATE> 4
<MEAN> 25
 -1.009123e+001 4.294052e+000 -2.602304e-001 2.723714e+000 3.981005e+000 -1.528965e+000 1.804904e+000 1.454779e+000 1.066008e+000 -5.016386e-001 9.488276e-001 3.852187e+000 7.962404e-001 -5.001306e-001 3.424801e-001 -2.683930e-001 -6.498111e-001 -2.713017e-001 -5.715652e-001 -2.236589e-001 3.620910e-002 8.186360e-002 -1.605033e-002 -8.772541e-002 6.862611e-001
<VARIANCE> 25
 6.113998e+001 4.402283e+001 4.858791e+001 2.716548e+001 3.765797e+001 3.989530e+001 4.090491e+001 3.196000e+001 2.832959e+001 1.892925e+001 1.907656e+001 1.792571e+001 4.731771e+000 2.907484e+000 2.404066e+000 2.072299e+000 3.307685e+000 2.306319e+000 2.968333e+000 2.856173e+000 2.199121e+000 1.747341e+000 1.657426e+000 1.584987e+000 2.647986e+000
<GCONST> 9.932258e+001
<TRANSP> 5
 0.000000e+000 1.000000e+000 0.000000e+000 0.000000e+000 0.000000e+000
 0.000000e+000 7.449185e-001 2.550814e-001 0.000000e+000 0.000000e+000
 0.000000e+000 0.000000e+000 7.840727e-001 2.159273e-001 0.000000e+000
 0.000000e+000 0.000000e+000 0.000000e+000 8.620408e-001 1.379591e-001
 0.000000e+000 0.000000e+000 0.000000e+000 0.000000e+000 0.000000e+000
<ENDHMM>
~h "ai"
<BEGINHMM>
<NUMSTATES> 5
<STATE> 2
<MEAN> 25
 4.799036e+000 -1.149355e+001 -2.961619e+000 -5.681575e+000 -1.720956e+000 1.391485e+000 -3.802027e+000 8.102901e+000 3.910979e+000 -8.870512e-001 -3.803281e+000 -5.600968e+000 -2.339468e-001 -7.213543e-001 8.863782e-001 1.135201e-001 -8.533037e-001 -1.057490e+000 6.891816e-001 1.874439e+000 -2.107812e-001 -8.620654e-001 -4.016829e-001 4.526001e-001 5.341253e-001
<VARIANCE> 25
 8.416381e+000 1.863798e+001 3.941465e+001 2.149926e+001 4.334838e+001 6.639816e+001 3.372515e+001 4.777806e+001 4.108644e+001 3.859071e+001 3.964058e+001 2.597365e+001 6.290196e-001 1.636811e+000 1.572406e+000 1.903734e+000 2.709853e+000 3.594677e+000 2.439272e+000 3.303203e+000 2.202536e+000 2.000551e+000 2.651574e+000 2.135842e+000 7.668359e-001
<GCONST> 9.583993e+001
<STATE> 3
<MEAN> 25
 3.276431e+000 -8.679000e+000 6.651239e+000 -4.955273e+000 -1.080058e+001 -7.268705e+000 -9.243919e-001 1.236971e+001 -1.579201e+000 -1.463217e-001 1.803908e+000 -5.901737e-001 -2.741100e-001 8.781580e-001 1.588063e+000 -4.485343e-002 -1.209456e+000 -5.358428e-001 -1.396261e-001 -8.559179e-001 -1.160218e+000 6.514690e-001 1.304155e+000 5.466431e-001 -4.235621e-001
<VARIANCE> 25
 6.523150e+000 1.442841e+001 3.119641e+001 1.686146e+001 2.536060e+001 3.207178e+001 3.166702e+001 3.838302e+001 4.151602e+001 2.930491e+001 3.994777e+001 2.215943e+001 2.077858e-001 8.336863e-001 1.239401e+000 7.766610e-001 1.423623e+000 1.496480e+000 1.766050e+000 2.268883e+000 1.797925e+000 1.549648e+000 1.722164e+000 1.224681e+000 2.139603e-001
<GCONST> 8.503260e+001
<STATE> 4
<MEAN> 25
 1.862953e+000 -9.591167e-001 1.285333e+001 -2.964857e+000 -1.217950e+001 -7.292635e+000 -2.961942e+000 2.635119e+000 -6.196152e+000 1.899024e+000 4.610333e+000 5.762953e-001 1.679957e-002 9.439079e-001 -2.609920e-001 6.880347e-001 8.905318e-001 2.096069e-001 1.544635e-001 -8.820165e-001 1.031199e-001 -2.186666e-001 -3.956251e-001 2.890421e-002 -1.543927e+000
<VARIANCE> 25
 1.098865e+001 3.058986e+001 3.822640e+001 3.365432e+001 3.089402e+001 4.060640e+001 3.683738e+001 5.705647e+001 4.345523e+001 3.981214e+001 3.482780e+001 2.792622e+001 8.868026e-001 1.520606e+000 2.431631e+000 1.938703e+000 2.557692e+000 2.088840e+000 2.700693e+000 2.991976e+000 3.177506e+000 2.150996e+000 1.817260e+000 1.491285e+000 2.266101e+000
<GCONST> 9.739681e+001
<TRANSP> 5
 0.000000e+000 1.000000e+000 0.000000e+000 0.000000e+000 0.000000e+000
 0.000000e+000 7.470151e-001 2.529850e-001 0.000000e+000 0.000000e+000
 0.000000e+000 0.000000e+000 8.057046e-001 1.942954e-001 0.000000e+000
 0.000000e+000 0.000000e+000 0.000000e+000 8.450314e-001 1.549686e-001
 0.000000e+000 0.000000e+000 0.000000e+000 0.000000e+000 0.000000e+000
<ENDHMM>
~h "au"
<BEGINHMM>
<NUMSTATES> 5
<STATE> 2
<MEAN> 25
 6.293537e+000 -5.336118e+000 -7.333206e+000 -9.095775e+000 -1.430028e-001 1.041770e+001 -4.626694e+000 -2.009443e+000 6.917690e+000 1.432099e+000 -1.986144e-001 -7.260590e+000 1.891588e-001 9.864302e-002 -3.549821e-001 -6.771768e-001 -3.884543e-002 1.125556e+000 -1.376720e-001 -4.090714e-001 -2.078607e-002 -1.613251e-001 7.455341e-001 -8.697284e-002 2.306655e-002
<VARIANCE> 25
 8.133878e+000 2.199964e+001 1.837493e+001 2.593702e+001 2.465474e+001 3.216546e+001 2.984634e+001 3.656677e+001 2.390562e+001 2.635587e+001 2.722530e+001 1.916234e+001 5.254911e-001 1.004985e+000 9.504587e-001 1.341160e+000 1.500456e+000 2.136195e+000 1.627629e+000 1.936726e+000 1.757380e+000 1.749412e+000 2.418580e+000 1.482224e+000 5.239521e-001
<GCONST> 8.734527e+001
<STATE> 3
<MEAN> 25
 7.837731e+000 -1.010928e+000 -7.278795e+000 -1.588430e+001 -3.501276e+000 1.493353e+001 -4.381801e+000 -3.101036e+000 3.303259e+000 -4.844010e-001 5.818184e+000 -2.903428e+000 2.899379e-001 9.010414e-001 2.289618e-001 -4.642284e-001 -5.380556e-001 -4.035093e-002 -8.072490e-002 8.981515e-002 -7.522625e-001 -3.096212e-001 4.618600e-001 8.605289e-001 -5.493858e-001
<VARIANCE> 25
 7.601708e+000 1.871622e+001 1.491083e+001 3.152822e+001 2.631483e+001 2.181796e+001 3.653647e+001 2.951991e+001 3.006977e+001 3.009033e+001 2.076240e+001 3.363015e+001 2.080983e-001 8.979926e-001 4.658210e-001 9.630443e-001 1.028761e+000 1.009549e+000 1.079535e+000 1.030353e+000 1.258762e+000 1.565045e+000 1.314405e+000 1.491236e+000 3.047903e-001
<GCONST> 8.157842e+001
<STATE> 4
<MEAN> 25
 7.240341e+000 5.236741e+000 -3.675639e+000 -1.080692e+001 -4.244565e+000 7.266374e+000 -4.175248e+000 -1.410471e+000 -2.437458e+000 -1.159059e+000 4.024539e+000 5.307772e-001 -1.932847e-001 2.499348e-001 3.785847e-001 1.372286e+000 3.067064e-001 -9.138092e-001 7.970295e-002 -8.608265e-002 -2.114064e-001 1.126405e-001 -4.654993e-001 -6.988991e-002 -1.044469e+000
<VARIANCE> 25
 3.247680e+001 2.924066e+001 2.706445e+001 9.772018e+001 4.829827e+001 4.784220e+001 6.254659e+001 4.898218e+001 4.382745e+001 5.211886e+001 3.319932e+001 3.307866e+001 7.251878e-001 1.761132e+000 1.424792e+000 3.188660e+000 2.246602e+000 2.615677e+000 3.120775e+000 2.615593e+000 2.879561e+000 2.906795e+000 2.216639e+000 2.256789e+000 1.362836e+000
<GCONST> 1.008642e+002
<TRANSP> 5
 0.000000e+000 1.000000e+000 0.000000e+000 0.000000e+000 0.000000e+000
 0.000000e+000 8.191035e-001 1.808965e-001 0.000000e+000 0.000000e+000
 0.000000e+000 0.000000e+000 8.546318e-001 1.453682e-001 0.000000e+000
 0.000000e+000 0.000000e+000 0.000000e+000 8.643342e-001 1.356658e-001
 0.000000e+000 0.000000e+000 0.000000e+000 0.000000e+000 0.000000e+000
<ENDHMM>
~h "kh"
<BEGINHMM>
<NUMSTATES> 5
<STATE> 2
<MEAN> 25
 -2.033018e+000 5.607684e-001 -2.966792e+000 3.573700e-001 4.642716e+000 9.509121e-001 3.300637e+000 3.536448e-001 2.637098e-001 6.556036e-001 -6.759386e-001 1.348653e+000 -1.422068e+000 -4.374366e-001 -1.256718e+000 3.137274e-003 1.207358e+000 -4.005667e-001 3.081915e-001 3.269748e-001 2.372262e-001 7.493119e-002 4.058274e-002 4.699359e-001 7.923029e-003
<VARIANCE> 25
 4.784301e+001 4.234480e+001 5.312440e+001 5.510165e+001 6.105108e+001 7.335558e+001 4.686659e+001 4.183161e+001 5.514792e+001 4.545388e+001 4.347710e+001 2.992337e+001 4.287502e+000 5.222040e+000 5.699606e+000 4.749175e+000 6.261999e+000 5.168776e+000 5.335758e+000 4.038400e+000 4.770319e+000 3.743323e+000 3.564788e+000 2.658614e+000 7.993212e+000
<GCONST> 1.126924e+002
<STATE> 3
<MEAN> 25
 -8.088855e+000 -5.295191e+000 -1.089271e+001 -2.717480e+000 1.017535e+001 1.068639e-001 8.039523e-001 2.550934e+000 3.045859e+000 2.383527e+000 1.366779e+000 2.174782e+000 -3.152818e-001 -2.847937e-001 -2.862380e-001 -2.300201e-001 -1.936958e-001 2.241229e-001 2.447182e-001 -2.074347e-002 -5.091342e-002 4.712809e-003 3.015044e-001 2.135427e-002 8.440566e-002
<VARIANCE> 25
 2.123285e+001 3.153739e+001 4.254802e+001 5.012466e+001 5.164880e+001 5.507457e+001 5.322374e+001 3.847377e+001 4.450690e+001 3.518604e+001 2.910261e+001 3.505615e+001 1.506774e+000 1.975704e+000 2.739874e+000 2.636446e+000 3.186656e+000 3.210032e+000 2.954726e+000 2.722930e+000 2.551921e+000 2.635363e+000 2.067077e+000 2.158610e+000 1.630817e+000
<GCONST> 1.013497e+002
<STATE> 4
<MEAN> 25
 -4.929760e+000 1.673796e-001 -4.752808e+000 1.495023e+000 3.490028e+000 1.604651e+000 4.435009e+000 5.889452e-001 8.659714e-001 -1.029359e+000 1.183121e+000 1.775450e+000 3.725299e-001 2.306741e-001 2.698953e-001 -3.584994e-002 -2.202420e-001 7.172289e-002 -1.043275e-002 -1.572601e-001 -9.986505e-002 -8.363114e-002 -6.804638e-002 -1.412017e-001 1.071248e-001
<VARIANCE> 25
 2.720160e+001 3.745120e+001 3.946025e+001 3.336307e+001 3.123358e+001 3.339143e+001 3.043962e+001 2.915475e+001 3.182774e+001 2.764618e+001 1.927085e+001 2.167758e+001 2.063511e+000 1.527530e+000 1.825965e+000 1.747470e+000 1.608734e+000 1.880931e+000 2.024409e+000 2.154687e+000 1.954097e+000 1.784817e+000 1.655196e+000 1.607438e+000 1.668304e+000
<GCONST> 9.423694e+001
<TRANSP> 5
 0.000000e+000 1.000000e+000 0.000000e+000 0.000000e+000 0.000000e+000
 0.000000e+000 7.594643e-001 2.405357e-001 0.000000e+000 0.000000e+000
 0.000000e+000 0.000000e+000 7.898558e-001 2.101442e-001 0.000000e+000
 0.000000e+000 0.000000e+000 0.000000e+000 8.890083e-001 1.109917e-001
 0.000000e+000 0.000000e+000 0.000000e+000 0.000000e+000 0.000000e+000
<ENDHMM>
~h "ng"
<BEGINHMM>
<NUMSTATES> 5
<STATE> 2
<MEAN> 25
 7.251884e+000 -2.103083e+000 4.924935e-001 -2.493901e+000 -2.558755e+000 3.386290e+000 -5.710359e-001 -8.938868e-001 -4.779945e+000 3.768215e+000 -2.526881e+000 -5.710927e+000 4.803666e-001 1.277612e+000 1.517444e+000 1.164944e+000 -1.497045e+000 -1.780064e-001 1.673207e+000 -2.582459e+000 -9.159493e-001 7.453610e-001 -1.168107e+000 1.700519e+000 -1.421546e+000
<VARIANCE> 25
 8.295502e+000 3.002581e+001 3.079822e+001 3.437367e+001 4.757154e+001 4.732189e+001 4.842484e+001 5.598520e+001 4.326631e+001 4.320520e+001 3.904169e+001 4.556518e+001 5.533410e-001 1.581640e+000 2.459449e+000 2.514632e+000 3.214432e+000 3.070157e+000 4.256921e+000 3.963461e+000 5.366020e+000 3.084170e+000 4.185893e+000 3.877996e+000 6.411282e-001
<GCONST> 1.010235e+002
<STATE> 3
<MEAN> 25
 7.981897e+000 2.245785e-001 5.775611e+000 -1.339381e+000 -6.606699e+000 3.909592e+000 7.555934e-001 -6.243933e+000 -5.147076e+000 3.531572e+000 -4.231282e+000 -4.531153e-001 8.763351e-002 4.744599e-001 6.072809e-001 4.146289e-001 -3.125826e-001 -9.759127e-002 2.454740e-001 -6.728066e-001 -1.389832e-001 3.965347e-002 -1.482169e-001 5.474696e-001 -5.607843e-001
<VARIANCE> 25
 6.835464e+000 1.807678e+001 2.308204e+001 3.808209e+001 3.195284e+001 3.850064e+001 4.722917e+001 3.830640e+001 3.644103e+001 3.073065e+001 3.316823e+001 3.088064e+001 2.703378e-001 8.217148e-001 1.218885e+000 1.302561e+000 1.516358e+000 1.430420e+000 1.794340e+000 1.732766e+000 1.740678e+000 1.552655e+000 1.510188e+000 1.435582e+000 4.455001e-001
<GCONST> 8.793668e+001
<STATE> 4
<MEAN> 25
 6.415338e+000 2.752293e+000 4.574812e+000 1.088173e+000 -3.981756e+000 2.271727e+000 3.150586e+000 -6.063741e+000 -5.493302e+000 2.778460e+000 -4.022259e+000 -1.113167e-001 -4.936917e-001 3.425097e-001 -5.581475e-001 3.820617e-001 9.834859e-001 -3.022744e-001 1.206486e-001 5.490122e-001 1.610669e-001 -2.668982e-001 1.894993e-001 -3.619728e-001 -7.098607e-001
<VARIANCE> 25
 1.857656e+001 2.163602e+001 3.043680e+001 4.292027e+001 5.449934e+001 3.345422e+001 4.944215e+001 4.997552e+001 4.366015e+001 3.717467e+001 4.092842e+001 3.175558e+001 8.405324e-001 1.619314e+000 1.775267e+000 2.237383e+000 2.721859e+000 2.377617e+000 2.494968e+000 2.989533e+000 2.687569e+000 2.243641e+000 2.195492e+000 2.178236e+000 2.559870e+000
<GCONST> 9.886681e+001
<TRANSP> 5
 0.000000e+000 1.000000e+000 0.000000e+000 0.000000e+000 0.000000e+000
 0.000000e+000 5.568045e-001 4.431956e-001 0.000000e+000 0.000000e+000
 0.000000e+000 0.000000e+000 7.208782e-001 2.791218e-001 0.000000e+000
 0.000000e+000 0.000000e+000 0.000000e+000 7.029518e-001 2.970483e-001
 0.000000e+000 0.000000e+000 0.000000e+000 0.000000e+000 0.000000e+000
<ENDHMM>
~h "ny"
<BEGINHMM>
<NUMSTATES> 5
<STATE> 2
<MEAN> 25
 5.314576e+000 3.878820e+000 7.788540e+000 1.349879e+000 -5.534599e+000 -3.086997e+000 -1.853905e+000 -1.962202e+000 -6.766999e+000 -2.168320e+000 2.115386e+000 1.457383e+000 -2.283442e-001 -1.573761e-001 5.362999e-001 -6.421679e-001 -5.051423e-001 1.778242e-001 4.672740e-002 4.806794e-001 -2.262887e-001 -2.357629e-001 3.403568e-001 5.750559e-002 5.005708e-001
<VARIANCE> 25
 1.583501e+001 2.554171e+001 3.093886e+001 5.449602e+001 3.388760e+001 3.451482e+001 4.004943e+001 6.555923e+001 4.394405e+001 4.378662e+001 4.293588e+001 4.258808e+001 2.114234e+000 4.810472e+000 3.086086e+000 5.502729e+000 3.552345e+000 3.250839e+000 3.996708e+000 1.030999e+001 4.658658e+000 3.908466e+000 3.667723e+000 2.766145e+000 3.524391e+000
<GCONST> 1.071860e+002
<STATE> 3
<MEAN> 25
 2.765913e+000 -6.612303e+000 7.478732e+000 -4.694836e+000 -8.733949e+000 -1.808070e+000 -1.138703e+000 1.073676e+001 -2.713356e+000 -5.605985e+000 -7.576169e-001 -2.295211e-001 2.256778e-001 -1.842197e+000 -1.642121e+000 3.138344e-001 9.010693e-001 2.846044e-001 -5.702652e-002 1.346391e+000 1.390851e+000 -6.624384e-001 -1.451344e+000 -4.845887e-001 6.783600e-001
<VARIANCE> 25
 7.623696e+000 2.055593e+001 3.113952e+001 2.448161e+001 3.655590e+001 2.507858e+001 2.645763e+001 3.700894e+001 4.686405e+001 3.287886e+001 3.232415e+001 2.101967e+001 2.807796e-001 1.292334e+000 1.111046e+000 1.094239e+000 2.224380e+000 1.314528e+000 1.697120e+000 2.972371e+000 1.668756e+000 2.123954e+000 1.496840e+000 1.709176e+000 5.265167e-001
<GCONST> 8.864276e+001
<STATE> 4
<MEAN> 25
 8.662559e-001 -4.725042e+000 -1.478930e+000 1.071890e+000 1.690606e+000 6.917073e-001 2.607686e-001 6.370791e+000 4.993792e-001 -4.119278e+000 -3.407117e+000 -2.276616e-001 -2.073916e-002 3.466615e-002 -4.734374e-001 1.480270e-001 6.019997e-001 2.087845e-001 -4.676811e-002 -2.982447e-001 1.646934e-001 2.100324e-001 -1.565787e-001 -1.348274e-001 -5.715536e-001
<VARIANCE> 25
 1.829906e+001 4.194800e+001 2.372366e+001 2.702369e+001 4.053550e+001 2.192736e+001 2.836035e+001 5.463699e+001 3.654361e+001 3.548632e+001 2.701078e+001 2.259028e+001 4.099838e-001 9.522002e-001 1.201190e+000 1.033938e+000 1.694381e+000 1.218456e+000 1.497220e+000 1.507870e+000 1.549159e+000 1.438701e+000 1.390006e+000 1.361110e+000 1.007146e+000
<GCONST> 8.903188e+001
<TRANSP> 5
 0.000000e+000 1.000000e+000 0.000000e+000 0.000000e+000 0.000000e+000
 0.000000e+000 8.750806e-001 1.249194e-001 0.000000e+000 0.000000e+000
 0.000000e+000 0.000000e+000 7.471595e-001 2.528405e-001 0.000000e+000
 0.000000e+000 0.000000e+000 0.000000e+000 8.138318e-001 1.861682e-001
 0.000000e+000 0.000000e+000 0.000000e+000 0.000000e+000 0.000000e+000
<ENDHMM>
~h "oi"
<BEGINHMM>
<NUMSTATES> 5
<STATE> 2
<MEAN> 25
 8.666769e+000 -2.523976e+000 -7.308329e+000 -1.420904e+001 -6.691419e+000 1.247661e+001 -3.892782e+000 -3.967039e+000 3.043466e+000 2.435661e-001 4.456385e+000 5.347071e-001 -4.682886e-002 -5.353016e-001 1.215181e-001 -6.842892e-001 -1.283665e-001 6.815870e-002 -7.324409e-001 2.313335e-002 1.882712e-001 8.959170e-001 8.566027e-002 -8.626031e-001 8.818951e-001
<VARIANCE> 25
 1.165624e+001 3.371124e+001 2.825264e+001 5.712893e+001 3.695662e+001 4.549823e+001 5.566678e+001 3.166213e+001 4.257705e+001 3.901892e+001 3.836431e+001 4.476107e+001 1.380458e+000 1.298633e+000 1.224953e+000 6.465027e+000 3.907286e+000 5.560216e+000 3.009298e+000 2.151619e+000 2.901956e+000 3.545903e+000 2.900897e+000 2.731077e+000 1.166077e+000
<GCONST> 1.012268e+002
<STATE> 3
<MEAN> 25
 4.153920e+000 -6.744391e+000 1.826801e+000 -5.545357e+000 -7.704412e+000 -6.173635e+000 -9.007005e+000 4.994930e+000 9.609239e-001 5.702282e+000 1.309039e+000 -3.846730e+000 -7.277961e-001 2.161549e-001 2.608066e+000 1.588106e+000 -1.670497e+000 -2.726461e+000 3.452410e-001 1.005304e+000 -1.640520e+000 -8.063185e-001 2.185433e-001 9.550993e-001 -2.822886e-001
<VARIANCE> 25
 6.897856e+000 2.319037e+001 6.936568e+001 3.293899e+001 4.392246e+001 7.005791e+001 2.424507e+001 6.146132e+001 4.943084e+001 3.460313e+001 4.326578e+001 3.862874e+001 3.631197e-001 9.739909e-001 1.586800e+000 2.055292e+000 2.401767e+000 4.501082e+000 2.197177e+000 4.896533e+000 4.182352e+000 2.496722e+000 4.300143e+000 2.993060e+000 2.559597e-001
<GCONST> 9.739722e+001
<STATE> 4
<MEAN> 25
 -6.305031e-001 1.095741e+000 1.050472e+001 1.007095e+000 -9.031978e+000 -7.236315e+000 -2.575084e+000 -1.318809e+000 -6.741387e+000 2.483599e-001 2.094322e+000 6.883754e-001 -6.306875e-002 4.599876e-001 -2.185296e-001 3.137240e-001 6.315797e-001 3.374556e-001 2.868011e-001 -4.012827e-001 1.226777e-001 -2.067858e-001 -3.384632e-001 1.285273e-002 -1.046476e+000
<VARIANCE> 25
 1.828812e+001 2.955292e+001 6.166120e+001 2.821346e+001 5.684482e+001 6.961803e+001 4.606311e+001 7.500295e+001 5.136680e+001 3.039461e+001 3.363614e+001 3.070573e+001 7.810156e-001 1.301870e+000 2.912854e+000 1.453407e+000 2.149272e+000 2.027414e+000 2.237670e+000 3.152847e+000 3.034894e+000 1.982156e+000 1.830058e+000 1.868492e+000 1.141622e+000
<GCONST> 9.846661e+001
<TRANSP> 5
 0.000000e+000 1.000000e+000 0.000000e+000 0.000000e+000 0.000000e+000
 0.000000e+000 9.015076e-001 9.849248e-002 0.000000e+000 0.000000e+000
 0.000000e+000 0.000000e+000 8.448059e-001 1.551941e-001 0.000000e+000
 0.000000e+000 0.000000e+000 0.000000e+000 9.153394e-001 8.466062e-002
 0.000000e+000 0.000000e+000 0.000000e+000 0.000000e+000 0.000000e+000
<ENDHMM>
~h "sp"
<BEGINHMM>
<NUMSTATES> 3
<STATE> 2
~s "silst"
<TRANSP> 3
 0.000000e+000 7.000000e-001 3.000000e-001
 0.000000e+000 9.000000e-001 9.999999e-002
 0.000000e+000 0.000000e+000 0.000000e+000
<ENDHMM>
~h "sy"
<BEGINHMM>
<NUMSTATES> 5
<STATE> 2
<MEAN> 25
 -6.944423e+000 3.933465e+000 3.273510e+000 2.190355e+000 2.596981e+000 -2.300268e+000 2.747366e+000 1.138741e+000 9.819986e-001 -2.028368e+000 -9.813502e-001 2.819470e+000 -3.702005e+000 6.386904e-001 -9.341533e-002 6.743304e-002 7.388486e-001 3.215027e-001 9.992535e-001 3.099568e-001 6.096266e-001 -3.094555e-001 8.159484e-001 4.134393e-001 -2.915218e-003
<VARIANCE> 25
 7.044820e+001 3.650443e+001 4.977885e+001 3.008428e+001 4.076849e+001 4.828073e+001 4.501772e+001 4.257240e+001 3.658152e+001 2.843286e+001 2.904720e+001 2.375275e+001 5.031569e+000 5.036313e+000 3.925258e+000 3.857121e+000 4.559919e+000 4.381915e+000 5.503779e+000 4.288344e+000 3.718457e+000 3.336803e+000 3.625514e+000 2.649903e+000 2.859604e+000
<GCONST> 1.076751e+002
<STATE> 3
<MEAN> 25
 -2.188128e+001 1.355279e+000 1.315453e+000 -2.041827e+000 2.696120e+000 -1.212528e+000 5.031692e+000 2.111743e+000 2.835231e+000 -7.935491e-002 3.792761e+000 4.578005e+000 -4.111293e-001 -5.928553e-001 -1.345248e-001 -3.336891e-001 -4.239165e-001 -5.412102e-004 5.946081e-002 -4.747621e-002 2.129624e-001 2.698690e-001 2.228691e-001 1.527076e-001 1.828947e-001
<VARIANCE> 25
 1.685569e+001 2.422062e+001 3.088328e+001 2.014137e+001 4.033553e+001 3.284651e+001 3.587685e+001 3.013382e+001 3.066737e+001 2.068500e+001 1.629873e+001 1.629627e+001 1.761955e+000 9.040483e-001 1.134728e+000 1.172456e+000 1.360315e+000 1.445031e+000 1.487235e+000 1.495833e+000 1.338112e+000 1.426136e+000 1.334382e+000 1.187052e+000 6.186360e-001
<GCONST> 8.745368e+001
<STATE> 4
<MEAN> 25
 -1.150775e+001 -3.125482e-001 5.181367e+000 -8.004595e-001 -3.901017e+000 -3.906993e+000 1.983298e+000 5.777375e-001 2.395957e+000 -2.004532e+000 2.416909e+000 3.794678e+000 4.609016e+000 -2.764597e-001 1.014576e+000 1.529365e-001 -1.171103e+000 -1.187973e+000 -1.675365e+000 4.083970e-001 -5.129710e-001 -5.184221e-001 -7.701291e-001 -5.868523e-001 1.061061e+000
<VARIANCE> 25
 9.779194e+001 2.545161e+001 4.950600e+001 2.699004e+001 5.491825e+001 4.072178e+001 4.653876e+001 3.468801e+001 3.374347e+001 2.351306e+001 2.434994e+001 1.471399e+001 6.049423e+000 3.714227e+000 4.232260e+000 2.934501e+000 5.183029e+000 3.080196e+000 4.244064e+000 4.635839e+000 4.145443e+000 2.822161e+000 3.215018e+000 2.119085e+000 2.255000e+000
<GCONST> 1.051937e+002
<TRANSP> 5
 0.000000e+000 1.000000e+000 0.000000e+000 0.000000e+000 0.000000e+000
 0.000000e+000 7.838175e-001 2.161825e-001 0.000000e+000 0.000000e+000
 0.000000e+000 0.000000e+000 8.784088e-001 1.215912e-001 0.000000e+000
 0.000000e+000 0.000000e+000 0.000000e+000 7.654797e-001 2.345203e-001
 0.000000e+000 0.000000e+000 0.000000e+000 0.000000e+000 0.000000e+000
<ENDHMM>
~h "sil"
<BEGINHMM>
<NUMSTATES> 5
<STATE> 2
<MEAN> 25
 -5.100863e+000 -6.327394e-002 -1.497883e+000 4.419163e+000 3.147090e+000 2.192001e-001 5.011722e+000 1.858309e+000 5.493640e-001 -2.720041e-001 3.148234e-001 2.503961e+000 1.747134e-001 -2.632751e-001 -2.607108e-001 -2.035879e-003 -2.172444e-001 -1.066338e+000 -5.272913e-001 -3.638386e-001 -2.688164e-001 -5.839597e-001 -9.752726e-002 6.108911e-001 -1.447991e+000
<VARIANCE> 25
 3.880186e+001 3.086536e+001 3.409369e+001 5.750344e+001 4.454939e+001 6.382112e+001 5.043608e+001 6.823487e+001 3.812204e+001 3.810594e+001 3.242967e+001 3.742462e+001 2.826407e+000 3.126287e+000 2.588026e+000 3.838273e+000 3.060092e+000 5.573590e+000 3.881307e+000 6.106464e+000 2.958492e+000 3.501456e+000 2.843604e+000 2.964062e+000 2.079345e+001
<GCONST> 1.090758e+002
<STATE> 3
~s "silst"
<STATE> 4
<MEAN> 25
 -4.939791e+000 3.104002e+000 -2.571531e+000 3.504203e+000 3.922851e+000 -6.009281e-001 4.525610e+000 8.457997e-001 6.450559e-001 -2.583452e-001 6.612459e-001 2.133848e+000 -1.131618e-002 1.906420e-002 3.185616e-003 1.548186e-003 4.357805e-003 4.722056e-003 3.637777e-003 -2.661567e-003 7.089441e-003 2.272087e-002 3.674756e-003 -9.333944e-003 -1.858912e-002
<VARIANCE> 25
 8.184514e+000 1.140142e+001 1.083364e+001 1.330933e+001 1.540794e+001 1.587944e+001 2.077346e+001 2.304260e+001 1.974961e+001 1.747697e+001 1.524290e+001 1.310367e+001 1.418445e-001 3.059139e-001 4.513192e-001 6.241403e-001 8.173699e-001 1.005540e+000 1.133564e+000 1.242325e+000 1.277432e+000 1.253619e+000 1.178474e+000 1.066102e+000 8.593009e-002
<GCONST> 7.225266e+001
<TRANSP> 5
 0.000000e+000 1.000000e+000 0.000000e+000 0.000000e+000 0.000000e+000
 0.000000e+000 7.171104e-001 2.099606e-001 7.292900e-002 0.000000e+000
 0.000000e+000 0.000000e+000 8.513016e-001 1.486985e-001 0.000000e+000
 0.000000e+000 2.219968e-002 0.000000e+000 9.618610e-001 1.593944e-002
 0.000000e+000 0.000000e+000 0.000000e+000 0.000000e+000 0.000000e+000
<ENDHMM>
