~o
<STREAMINFO> 1 25
<VECSIZE> 25<NULLD><MFCC_D_N_Z_0><DIAGC>
~h "@"
<BEGINHMM>
<NUMSTATES> 5
<STATE> 2
<MEAN> 25
 2.432384e-001 -1.810863e-001 -6.621692e-002 1.114884e-001 -2.480513e-001 -2.634390e-001 -2.617770e-001 -1.423811e-001 -5.950490e-003 1.613563e-001 2.958484e-003 -9.079807e-002 1.255512e-002 -1.769245e-003 5.490947e-003 -3.170310e-003 9.105273e-005 3.546782e-003 -3.900860e-003 -7.497752e-004 -3.585568e-003 4.602084e-003 -4.262018e-003 -4.808147e-003 2.355651e-002
<VARIANCE> 25
 6.086125e+001 4.973946e+001 6.044490e+001 5.637211e+001 5.629020e+001 5.297427e+001 6.098792e+001 6.265149e+001 5.296617e+001 3.679231e+001 3.793396e+001 3.465657e+001 2.696533e+000 2.717620e+000 2.686466e+000 3.160419e+000 3.165010e+000 3.017109e+000 3.508246e+000 4.139550e+000 3.355669e+000 2.697955e+000 2.645604e+000 2.313168e+000 5.149498e+000
<GCONST> 1.078173e+002
<STATE> 3
<MEAN> 25
 2.853711e-001 -1.872222e-001 -4.792362e-002 9.990253e-002 -2.495903e-001 -2.511321e-001 -2.767622e-001 -1.437699e-001 -1.768854e-002 1.750892e-001 -1.015671e-002 -1.071954e-001 1.240151e-002 -1.408199e-003 5.244213e-003 -3.188404e-003 6.350242e-004 3.819333e-003 -3.373125e-003 -4.395042e-004 -4.077441e-003 3.822101e-003 -4.352039e-003 -4.373186e-003 2.184563e-002
<VARIANCE> 25
 6.087813e+001 4.979231e+001 6.059404e+001 5.642484e+001 5.634328e+001 5.308851e+001 6.105451e+001 6.282824e+001 5.312346e+001 3.685500e+001 3.807325e+001 3.472396e+001 2.699497e+000 2.723798e+000 2.693489e+000 3.170312e+000 3.166855e+000 3.024642e+000 3.516445e+000 4.150266e+000 3.364480e+000 2.703556e+000 2.652487e+000 2.321253e+000 5.162692e+000
<GCONST> 1.078697e+002
<STATE> 4
<MEAN> 25
 3.396109e-001 -1.882929e-001 -1.872322e-002 7.663865e-002 -2.564988e-001 -2.294689e-001 -3.111258e-001 -1.354583e-001 -3.248207e-002 1.803117e-001 -1.254685e-002 -1.341359e-001 1.197881e-002 -1.085121e-003 4.894745e-003 -3.757725e-003 5.587160e-004 4.302321e-003 -3.686581e-003 4.504062e-005 -3.698212e-003 2.661738e-003 -4.177913e-003 -4.478228e-003 1.987150e-002
<VARIANCE> 25
 6.083670e+001 4.939423e+001 6.073005e+001 5.672710e+001 5.675050e+001 5.323274e+001 6.133637e+001 6.220432e+001 5.277974e+001 3.619798e+001 3.771210e+001 3.468941e+001 2.599061e+000 2.637766e+000 2.630687e+000 3.065069e+000 3.101771e+000 2.969915e+000 3.416056e+000 4.049523e+000 3.295580e+000 2.643309e+000 2.595172e+000 2.278352e+000 4.972823e+000
<GCONST> 1.074970e+002
<TRANSP> 5
 0.000000e+000 1.000000e+000 0.000000e+000 0.000000e+000 0.000000e+000
 0.000000e+000 7.013619e-001 2.986382e-001 0.000000e+000 0.000000e+000
 0.000000e+000 0.000000e+000 7.013599e-001 2.986401e-001 0.000000e+000
 0.000000e+000 0.000000e+000 0.000000e+000 8.276845e-001 1.723156e-001
 0.000000e+000 0.000000e+000 0.000000e+000 0.000000e+000 0.000000e+000
<ENDHMM>
~h "a"
<BEGINHMM>
<NUMSTATES> 5
<STATE> 2
<MEAN> 25
 3.127996e-001 -4.667371e-001 -1.874336e-001 -2.820530e-001 2.428466e-001 1.104582e-001 -1.296785e-001 3.506002e-001 1.992885e-001 1.489321e-002 -3.211247e-001 -2.969941e-001 1.306586e-003 7.535485e-004 6.236616e-004 -9.433383e-004 1.497311e-003 2.938798e-003 2.110945e-004 -2.856096e-004 -8.151634e-005 1.950469e-004 -3.040223e-003 -7.607257e-004 1.466274e-005
<VARIANCE> 25
 5.754535e+001 5.285140e+001 6.007040e+001 5.508142e+001 5.641558e+001 5.254413e+001 5.666994e+001 6.308266e+001 5.147093e+001 3.581170e+001 3.852623e+001 3.541000e+001 2.511671e+000 2.757799e+000 2.636031e+000 3.020238e+000 3.095468e+000 2.952708e+000 3.342910e+000 4.057188e+000 3.254377e+000 2.634924e+000 2.635019e+000 2.325064e+000 5.065296e+000
<GCONST> 1.073989e+002
<STATE> 3
<MEAN> 25
 3.164260e-001 -4.643973e-001 -1.859481e-001 -2.851356e-001 2.483617e-001 1.190548e-001 -1.285521e-001 3.478049e-001 1.986370e-001 1.610174e-002 -3.320555e-001 -2.990838e-001 4.576538e-004 1.668116e-003 9.071524e-004 -8.516756e-004 3.685313e-004 2.336621e-003 -5.958788e-005 -1.362485e-003 -3.076489e-004 5.829306e-004 -2.317544e-003 -2.841288e-004 -1.235679e-003
<VARIANCE> 25
 5.743132e+001 5.284182e+001 6.018428e+001 5.509228e+001 5.641314e+001 5.250463e+001 5.660446e+001 6.305978e+001 5.142167e+001 3.582600e+001 3.850576e+001 3.538966e+001 2.510586e+000 2.756159e+000 2.637924e+000 3.019536e+000 3.094938e+000 2.951843e+000 3.339817e+000 4.056829e+000 3.252580e+000 2.634666e+000 2.633352e+000 2.324095e+000 5.071807e+000
<GCONST> 1.073924e+002
<STATE> 4
<MEAN> 25
 3.414055e-001 -4.684014e-001 -1.539216e-001 -3.111577e-001 2.037669e-001 1.303579e-001 -1.650284e-001 3.093015e-001 1.956690e-001 2.175855e-002 -3.387115e-001 -3.168595e-001 -5.175583e-004 2.185700e-003 9.292844e-004 -1.022145e-003 -3.125462e-004 1.612822e-003 7.117167e-005 -2.541574e-003 -2.496303e-004 8.881828e-004 -1.758144e-003 -1.053074e-004 -9.345450e-004
<VARIANCE> 25
 5.750124e+001 5.250920e+001 6.024588e+001 5.494151e+001 5.654591e+001 5.239233e+001 5.651116e+001 6.199705e+001 5.106318e+001 3.501682e+001 3.792547e+001 3.523830e+001 2.417053e+000 2.663983e+000 2.573903e+000 2.899117e+000 3.024768e+000 2.883800e+000 3.241074e+000 3.935603e+000 3.187746e+000 2.563580e+000 2.569772e+000 2.266015e+000 4.897536e+000
<GCONST> 1.069418e+002
<TRANSP> 5
 0.000000e+000 1.000000e+000 0.000000e+000 0.000000e+000 0.000000e+000
 0.000000e+000 7.043527e-001 2.956473e-001 0.000000e+000 0.000000e+000
 0.000000e+000 0.000000e+000 7.043555e-001 2.956446e-001 0.000000e+000
 0.000000e+000 0.000000e+000 0.000000e+000 8.317929e-001 1.682071e-001
 0.000000e+000 0.000000e+000 0.000000e+000 0.000000e+000 0.000000e+000
<ENDHMM>
~h "b"
<BEGINHMM>
<NUMSTATES> 5
<STATE> 2
<MEAN> 25
 7.778416e-001 2.849429e-001 4.330692e-001 -2.048964e-001 -2.978102e-001 3.923640e-001 -6.122264e-001 -1.875700e-001 -2.377173e-001 1.189961e-001 2.223770e-001 -2.432295e-001 5.535517e-003 3.908424e-003 7.073102e-003 -2.332920e-003 7.069916e-004 3.056271e-003 -1.764408e-003 4.784297e-005 -1.193714e-003 3.175791e-004 1.927762e-003 -1.170679e-003 1.456985e-002
<VARIANCE> 25
 6.055525e+001 5.197236e+001 6.184419e+001 5.694352e+001 5.728298e+001 5.524583e+001 5.718892e+001 6.293250e+001 5.359515e+001 3.567728e+001 3.870916e+001 3.418567e+001 2.484969e+000 2.810704e+000 2.715119e+000 3.227012e+000 3.235180e+000 3.026998e+000 3.560581e+000 3.963768e+000 3.446257e+000 2.701564e+000 2.691515e+000 2.335239e+000 5.154524e+000
<GCONST> 1.079120e+002
<STATE> 3
<MEAN> 25
 7.993595e-001 2.970673e-001 4.564563e-001 -2.140348e-001 -2.971351e-001 4.059155e-001 -6.186026e-001 -1.875657e-001 -2.411160e-001 1.193552e-001 2.271538e-001 -2.486624e-001 3.932884e-003 3.618048e-003 6.308903e-003 -1.601692e-003 1.200709e-003 2.516666e-003 1.584915e-004 9.244690e-004 -1.698779e-005 -9.170454e-005 5.296688e-004 -5.172137e-004 1.083638e-002
<VARIANCE> 25
 6.066754e+001 5.203299e+001 6.200917e+001 5.682839e+001 5.744271e+001 5.521102e+001 5.734724e+001 6.283250e+001 5.378664e+001 3.573700e+001 3.876303e+001 3.417420e+001 2.485481e+000 2.814230e+000 2.718867e+000 3.225749e+000 3.238259e+000 3.023862e+000 3.569778e+000 3.957765e+000 3.454297e+000 2.707468e+000 2.694622e+000 2.335621e+000 5.139887e+000
<GCONST> 1.079317e+002
<STATE> 4
<MEAN> 25
 8.849751e-001 2.788633e-001 5.044964e-001 -2.900019e-001 -3.534095e-001 4.439511e-001 -6.833131e-001 -1.961714e-001 -2.570476e-001 1.095699e-001 2.138373e-001 -2.845317e-001 3.579539e-003 2.913496e-003 5.162765e-003 -5.142163e-004 1.815935e-003 2.660811e-003 1.045890e-003 1.475559e-003 6.382512e-004 -5.253302e-004 -3.506062e-004 -3.098873e-004 7.827338e-003
<VARIANCE> 25
 6.075231e+001 5.185869e+001 6.234882e+001 5.673941e+001 5.801701e+001 5.549277e+001 5.767373e+001 6.190864e+001 5.366509e+001 3.518786e+001 3.845042e+001 3.396811e+001 2.398440e+000 2.736902e+000 2.662246e+000 3.106636e+000 3.176677e+000 2.956149e+000 3.472238e+000 3.848590e+000 3.390429e+000 2.649463e+000 2.645344e+000 2.284464e+000 4.952162e+000
<GCONST> 1.075698e+002
<TRANSP> 5
 0.000000e+000 1.000000e+000 0.000000e+000 0.000000e+000 0.000000e+000
 0.000000e+000 7.028120e-001 2.971879e-001 0.000000e+000 0.000000e+000
 0.000000e+000 0.000000e+000 7.028142e-001 2.971857e-001 0.000000e+000
 0.000000e+000 0.000000e+000 0.000000e+000 8.291820e-001 1.708180e-001
 0.000000e+000 0.000000e+000 0.000000e+000 0.000000e+000 0.000000e+000
<ENDHMM>
~h "c"
<BEGINHMM>
<NUMSTATES> 5
<STATE> 2
<MEAN> 25
 2.922010e-002 -2.763822e-001 2.447929e-001 -1.239914e-001 -2.937392e-001 -5.819897e-001 -1.730300e-001 2.154165e-001 -1.884837e-001 -5.466139e-002 -1.272459e-001 -8.541206e-003 -1.210972e-003 -9.546954e-003 -7.230440e-003 -8.009491e-003 8.641014e-003 -9.895880e-004 1.096222e-003 1.051311e-002 7.673493e-003 -3.456069e-003 -5.695016e-003 -1.397937e-003 8.463699e-003
<VARIANCE> 25
 6.189131e+001 5.254287e+001 5.664523e+001 5.192345e+001 5.559565e+001 5.196175e+001 5.855731e+001 6.603805e+001 5.163950e+001 3.685399e+001 3.819762e+001 3.412927e+001 3.302195e+000 2.920818e+000 2.798417e+000 3.100387e+000 3.287393e+000 3.042682e+000 3.543809e+000 4.229949e+000 3.401283e+000 2.776647e+000 2.656252e+000 2.366926e+000 5.588268e+000
<GCONST> 1.082154e+002
<STATE> 3
<MEAN> 25
 2.445976e-002 -3.044998e-001 2.195804e-001 -1.519619e-001 -2.678669e-001 -5.865510e-001 -1.677230e-001 2.561368e-001 -1.608365e-001 -6.780943e-002 -1.416081e-001 -1.064517e-002 -4.696492e-004 -8.662436e-003 -8.791264e-003 -7.929739e-003 8.852830e-003 2.229083e-004 1.090616e-004 1.151935e-002 9.206420e-003 -4.713665e-003 -3.154608e-003 -9.746626e-004 5.374871e-003
<VARIANCE> 25
 6.174520e+001 5.253475e+001 5.654276e+001 5.172407e+001 5.562645e+001 5.189303e+001 5.880494e+001 6.586629e+001 5.154159e+001 3.690257e+001 3.826367e+001 3.412221e+001 3.325150e+000 2.926911e+000 2.803985e+000 3.098254e+000 3.285293e+000 3.050668e+000 3.551515e+000 4.215218e+000 3.406333e+000 2.783762e+000 2.668210e+000 2.372166e+000 5.635616e+000
<GCONST> 1.082391e+002
<STATE> 4
<MEAN> 25
 6.830721e-002 -3.651280e-001 2.121823e-001 -2.014551e-001 -2.934103e-001 -5.652778e-001 -2.052756e-001 2.798189e-001 -6.406805e-002 -6.060551e-002 -1.346332e-001 -4.216600e-002 -1.399368e-004 -6.028246e-003 -9.452889e-003 -7.031090e-003 7.477141e-003 7.161368e-004 -9.331079e-004 1.128558e-002 9.187997e-003 -5.791323e-003 -1.988084e-003 -7.542865e-004 1.524478e-003
<VARIANCE> 25
 6.165332e+001 5.206523e+001 5.653684e+001 5.151626e+001 5.579905e+001 5.164395e+001 5.940972e+001 6.477036e+001 5.111952e+001 3.631837e+001 3.809698e+001 3.381198e+001 3.224571e+000 2.839511e+000 2.757989e+000 2.986200e+000 3.217076e+000 3.000113e+000 3.462473e+000 4.086703e+000 3.351095e+000 2.732102e+000 2.630604e+000 2.318437e+000 5.469072e+000
<GCONST> 1.078680e+002
<TRANSP> 5
 0.000000e+000 1.000000e+000 0.000000e+000 0.000000e+000 0.000000e+000
 0.000000e+000 7.044728e-001 2.955272e-001 0.000000e+000 0.000000e+000
 0.000000e+000 0.000000e+000 7.044730e-001 2.955270e-001 0.000000e+000
 0.000000e+000 0.000000e+000 0.000000e+000 8.309938e-001 1.690061e-001
 0.000000e+000 0.000000e+000 0.000000e+000 0.000000e+000 0.000000e+000
<ENDHMM>
~h "d"
<BEGINHMM>
<NUMSTATES> 5
<STATE> 2
<MEAN> 25
 4.466392e-001 -2.000132e-001 7.963220e-001 3.127294e-002 -6.625741e-001 -3.181404e-001 -6.454592e-001 6.687465e-002 1.259151e-001 -1.197322e-001 -1.087994e-001 -1.180948e-001 9.265231e-003 -4.089089e-003 1.027609e-002 4.468951e-004 -6.692070e-003 -9.481851e-004 -5.237679e-003 3.519765e-003 -1.614408e-003 -2.816818e-004 -2.097610e-003 -1.315653e-003 1.532722e-002
<VARIANCE> 25
 5.759221e+001 5.203069e+001 6.789510e+001 5.494603e+001 6.037146e+001 5.172628e+001 5.995061e+001 6.659786e+001 5.443483e+001 3.550078e+001 4.030435e+001 3.409631e+001 2.500115e+000 2.830552e+000 2.774135e+000 3.117494e+000 3.422467e+000 2.971990e+000 3.585662e+000 4.239335e+000 3.422003e+000 2.673651e+000 2.726731e+000 2.300174e+000 5.305894e+000
<GCONST> 1.081810e+002
<STATE> 3
<MEAN> 25
 4.774851e-001 -2.132991e-001 8.289977e-001 3.483449e-002 -6.852175e-001 -3.205909e-001 -6.620790e-001 7.859579e-002 1.192482e-001 -1.227781e-001 -1.157083e-001 -1.225788e-001 8.444044e-003 -4.010072e-003 8.356832e-003 7.785358e-004 -5.746354e-003 -5.664621e-004 -3.836126e-003 3.603322e-003 -2.187391e-003 -7.059169e-004 -2.018981e-003 -6.630262e-004 1.319993e-002
<VARIANCE> 25
 5.731599e+001 5.215087e+001 6.806586e+001 5.493156e+001 6.062579e+001 5.188389e+001 5.990097e+001 6.685699e+001 5.458306e+001 3.558258e+001 4.045228e+001 3.402038e+001 2.490515e+000 2.834227e+000 2.779272e+000 3.118901e+000 3.433340e+000 2.975202e+000 3.585192e+000 4.247178e+000 3.430049e+000 2.676955e+000 2.732962e+000 2.298590e+000 5.315591e+000
<GCONST> 1.082103e+002
<STATE> 4
<MEAN> 25
 5.628614e-001 -2.607897e-001 8.531254e-001 -2.131294e-002 -7.335583e-001 -3.047898e-001 -7.357458e-001 5.910400e-002 1.110339e-001 -1.188220e-001 -1.427191e-001 -1.564185e-001 6.690896e-003 -3.029895e-003 6.654290e-003 1.500243e-003 -3.965290e-003 4.222617e-006 -2.348197e-003 3.617498e-003 -2.473802e-003 -1.247170e-003 -1.872192e-003 -1.213215e-004 1.028194e-002
<VARIANCE> 25
 5.738650e+001 5.216376e+001 6.830897e+001 5.478712e+001 6.119444e+001 5.223157e+001 5.969001e+001 6.621482e+001 5.452368e+001 3.506931e+001 4.009524e+001 3.376822e+001 2.414156e+000 2.761871e+000 2.724738e+000 3.018884e+000 3.367060e+000 2.926862e+000 3.483965e+000 4.142402e+000 3.372223e+000 2.618880e+000 2.680952e+000 2.252005e+000 5.153862e+000
<GCONST> 1.078752e+002
<TRANSP> 5
 0.000000e+000 1.000000e+000 0.000000e+000 0.000000e+000 0.000000e+000
 0.000000e+000 7.026609e-001 2.973390e-001 0.000000e+000 0.000000e+000
 0.000000e+000 0.000000e+000 7.026624e-001 2.973376e-001 0.000000e+000
 0.000000e+000 0.000000e+000 0.000000e+000 8.290080e-001 1.709920e-001
 0.000000e+000 0.000000e+000 0.000000e+000 0.000000e+000 0.000000e+000
<ENDHMM>
~h "e"
<BEGINHMM>
<NUMSTATES> 5
<STATE> 2
<MEAN> 25
 1.078338e-001 -2.781146e-001 6.709889e-001 1.039187e-001 -8.875027e-001 -5.703987e-001 5.143934e-002 4.295716e-001 -8.449949e-002 -4.325216e-002 3.151339e-001 -2.097753e-002 3.048042e-004 2.924978e-003 -8.231488e-004 6.410087e-003 8.324941e-003 2.630701e-003 7.515951e-003 2.299381e-003 1.676525e-003 -1.558478e-003 1.085293e-004 1.265194e-003 -8.136656e-003
<VARIANCE> 25
 5.934989e+001 5.266317e+001 6.700633e+001 5.504632e+001 6.253818e+001 5.586956e+001 5.825199e+001 6.665467e+001 5.258944e+001 3.620169e+001 3.860232e+001 3.295932e+001 2.490110e+000 2.687826e+000 2.615854e+000 2.953604e+000 3.198800e+000 2.952740e+000 3.382995e+000 4.053905e+000 3.219920e+000 2.616371e+000 2.551207e+000 2.142675e+000 5.134263e+000
<GCONST> 1.076059e+002
<STATE> 3
<MEAN> 25
 1.088594e-001 -2.689566e-001 6.691691e-001 1.262042e-001 -8.612879e-001 -5.621308e-001 7.595595e-002 4.382048e-001 -7.882702e-002 -4.725305e-002 3.165029e-001 -1.718196e-002 7.670093e-005 3.295388e-003 -2.935833e-003 6.839751e-003 9.846886e-003 3.298594e-003 7.744274e-003 1.415910e-003 2.229011e-003 -1.779479e-003 1.643887e-004 1.656080e-003 -1.060389e-002
<VARIANCE> 25
 5.924606e+001 5.270749e+001 6.702042e+001 5.499854e+001 6.262149e+001 5.579816e+001 5.829897e+001 6.663255e+001 5.256330e+001 3.621011e+001 3.852308e+001 3.295135e+001 2.489877e+000 2.686357e+000 2.615604e+000 2.954294e+000 3.196257e+000 2.950560e+000 3.380306e+000 4.048513e+000 3.221305e+000 2.617663e+000 2.546237e+000 2.141824e+000 5.126934e+000
<GCONST> 1.075953e+002
<STATE> 4
<MEAN> 25
 1.535644e-001 -2.463673e-001 6.571089e-001 1.354620e-001 -8.084746e-001 -5.422906e-001 7.105639e-002 4.501868e-001 -7.116131e-002 -3.862933e-002 3.114405e-001 -2.481790e-002 -7.518819e-004 3.954767e-003 -4.423735e-003 6.661373e-003 1.010558e-002 3.959453e-003 7.138520e-003 1.177162e-003 2.051421e-003 -1.525258e-003 2.163656e-004 1.416334e-003 -1.248739e-002
<VARIANCE> 25
 5.904917e+001 5.236098e+001 6.707217e+001 5.488435e+001 6.278531e+001 5.588284e+001 5.800896e+001 6.518342e+001 5.178460e+001 3.540859e+001 3.778574e+001 3.273706e+001 2.401564e+000 2.594095e+000 2.538772e+000 2.843508e+000 3.102583e+000 2.880757e+000 3.259508e+000 3.917135e+000 3.139393e+000 2.552635e+000 2.476925e+000 2.092686e+000 4.911316e+000
<GCONST> 1.070912e+002
<TRANSP> 5
 0.000000e+000 1.000000e+000 0.000000e+000 0.000000e+000 0.000000e+000
 0.000000e+000 7.049384e-001 2.950617e-001 0.000000e+000 0.000000e+000
 0.000000e+000 0.000000e+000 7.049363e-001 2.950636e-001 0.000000e+000
 0.000000e+000 0.000000e+000 0.000000e+000 8.326260e-001 1.673740e-001
 0.000000e+000 0.000000e+000 0.000000e+000 0.000000e+000 0.000000e+000
<ENDHMM>
~h "f"
<BEGINHMM>
<NUMSTATES> 5
<STATE> 2
<MEAN> 25
 -7.271377e-001 -2.781183e-001 -2.533921e-001 -8.884335e-003 -3.442481e-001 6.329393e-002 1.688206e-001 -1.745265e-001 2.063024e-001 -1.030002e-001 4.550754e-001 1.612125e-001 4.788330e-003 6.408157e-003 9.311983e-003 -9.614434e-004 -4.102780e-003 4.933218e-003 -4.279325e-004 -5.268437e-003 -7.125630e-003 4.750493e-003 -1.914047e-004 -4.858610e-003 4.526205e-003
<VARIANCE> 25
 6.873326e+001 4.793229e+001 6.862649e+001 5.913958e+001 5.940108e+001 5.686795e+001 5.492596e+001 5.696011e+001 4.970538e+001 3.383717e+001 3.633651e+001 3.319271e+001 3.210891e+000 2.525316e+000 2.852271e+000 3.184505e+000 3.297411e+000 3.150556e+000 3.236520e+000 3.641873e+000 3.195389e+000 2.546284e+000 2.549302e+000 2.182734e+000 4.431072e+000
<GCONST> 1.074602e+002
<STATE> 3
<MEAN> 25
 -7.114153e-001 -2.589566e-001 -2.233761e-001 -6.700795e-003 -3.555754e-001 7.592662e-002 1.702275e-001 -1.861119e-001 1.816106e-001 -8.729828e-002 4.538807e-001 1.457324e-001 4.123269e-003 6.874591e-003 8.609485e-003 -2.891733e-004 -2.702093e-003 3.762960e-003 1.475544e-003 -4.155296e-003 -8.317790e-003 3.875003e-003 -9.399417e-004 -3.896732e-003 1.692407e-003
<VARIANCE> 25
 6.861175e+001 4.793329e+001 6.916602e+001 5.906528e+001 5.937761e+001 5.683775e+001 5.489822e+001 5.677590e+001 4.994733e+001 3.382835e+001 3.628034e+001 3.322321e+001 3.215691e+000 2.525605e+000 2.854290e+000 3.182237e+000 3.292786e+000 3.147045e+000 3.245993e+000 3.627927e+000 3.205278e+000 2.551321e+000 2.547888e+000 2.191173e+000 4.416568e+000
<GCONST> 1.074675e+002
<STATE> 4
<MEAN> 25
 -5.837203e-001 -2.290617e-001 -1.279615e-001 -3.089238e-002 -3.949201e-001 1.020963e-001 1.406877e-001 -2.037268e-001 1.478574e-001 -4.265142e-002 4.352649e-001 8.660646e-002 3.100025e-003 5.450761e-003 5.917177e-003 1.144156e-003 -6.642703e-004 2.774522e-003 2.793984e-003 -2.366733e-003 -8.153397e-003 2.578166e-003 -1.023961e-003 -2.865672e-003 6.051734e-004
<VARIANCE> 25
 6.800915e+001 4.783084e+001 6.955524e+001 5.855100e+001 5.957943e+001 5.645165e+001 5.492992e+001 5.619692e+001 4.998015e+001 3.331866e+001 3.568785e+001 3.336288e+001 3.088637e+000 2.452442e+000 2.769169e+000 3.045869e+000 3.208028e+000 3.065535e+000 3.159596e+000 3.533169e+000 3.144074e+000 2.506748e+000 2.490758e+000 2.156906e+000 4.268938e+000
<GCONST> 1.070547e+002
<TRANSP> 5
 0.000000e+000 1.000000e+000 0.000000e+000 0.000000e+000 0.000000e+000
 0.000000e+000 7.089869e-001 2.910131e-001 0.000000e+000 0.000000e+000
 0.000000e+000 0.000000e+000 7.089857e-001 2.910143e-001 0.000000e+000
 0.000000e+000 0.000000e+000 0.000000e+000 8.380779e-001 1.619221e-001
 0.000000e+000 0.000000e+000 0.000000e+000 0.000000e+000 0.000000e+000
<ENDHMM>
~h "g"
<BEGINHMM>
<NUMSTATES> 5
<STATE> 2
<MEAN> 25
 5.144629e-001 2.405144e-001 5.042507e-001 -7.156283e-002 -4.675688e-001 -1.041907e-002 -4.798521e-001 -7.726082e-002 -2.354061e-001 2.598560e-001 1.316144e-001 -2.123993e-001 5.411425e-003 1.330563e-003 4.092418e-004 -5.009743e-003 -3.679492e-004 4.787637e-003 9.884201e-004 1.180746e-003 -9.853824e-004 3.526583e-003 2.509598e-004 -4.856659e-003 1.611977e-002
<VARIANCE> 25
 5.813832e+001 5.139944e+001 6.648865e+001 5.717085e+001 5.736134e+001 5.416178e+001 5.812712e+001 6.202292e+001 5.479986e+001 3.732973e+001 3.769592e+001 3.418771e+001 2.423309e+000 2.729689e+000 2.818341e+000 3.197609e+000 3.354588e+000 3.091134e+000 3.483931e+000 3.977987e+000 3.430982e+000 2.666178e+000 2.617079e+000 2.287011e+000 4.937151e+000
<GCONST> 1.078641e+002
<STATE> 3
<MEAN> 25
 5.351183e-001 2.412380e-001 5.051028e-001 -9.145465e-002 -4.707394e-001 5.926079e-003 -4.775314e-001 -7.476579e-002 -2.375667e-001 2.711481e-001 1.347838e-001 -2.288809e-001 5.179025e-003 6.374232e-004 -9.464568e-004 -4.870398e-003 -1.480090e-004 6.191837e-003 1.973378e-003 8.303691e-004 3.720764e-004 3.096694e-003 5.204976e-004 -4.337168e-003 1.376060e-002
<VARIANCE> 25
 5.802890e+001 5.160427e+001 6.652244e+001 5.709382e+001 5.751014e+001 5.427467e+001 5.812715e+001 6.211012e+001 5.489442e+001 3.734687e+001 3.776226e+001 3.420139e+001 2.424152e+000 2.723839e+000 2.821975e+000 3.197731e+000 3.364299e+000 3.089961e+000 3.480012e+000 3.968594e+000 3.432414e+000 2.664354e+000 2.621247e+000 2.288826e+000 4.940791e+000
<GCONST> 1.078772e+002
<STATE> 4
<MEAN> 25
 6.035593e-001 2.195450e-001 4.897020e-001 -1.530744e-001 -4.956213e-001 5.289058e-002 -5.207103e-001 -1.019581e-001 -2.270880e-001 2.727021e-001 1.357615e-001 -2.707026e-001 4.802864e-003 -1.021661e-004 -1.481551e-003 -4.468524e-003 -3.090313e-004 5.684391e-003 1.925403e-003 2.776338e-004 1.030258e-003 1.348358e-003 6.140219e-004 -4.081851e-003 1.164035e-002
<VARIANCE> 25
 5.804741e+001 5.136946e+001 6.647652e+001 5.725206e+001 5.769786e+001 5.448222e+001 5.825869e+001 6.136961e+001 5.458582e+001 3.658303e+001 3.733924e+001 3.403985e+001 2.342700e+000 2.639397e+000 2.749003e+000 3.089478e+000 3.293118e+000 3.019553e+000 3.376789e+000 3.850485e+000 3.358219e+000 2.598725e+000 2.569438e+000 2.240680e+000 4.782702e+000
<GCONST> 1.074784e+002
<TRANSP> 5
 0.000000e+000 1.000000e+000 0.000000e+000 0.000000e+000 0.000000e+000
 0.000000e+000 7.021849e-001 2.978150e-001 0.000000e+000 0.000000e+000
 0.000000e+000 0.000000e+000 7.021849e-001 2.978151e-001 0.000000e+000
 0.000000e+000 0.000000e+000 0.000000e+000 8.282430e-001 1.717570e-001
 0.000000e+000 0.000000e+000 0.000000e+000 0.000000e+000 0.000000e+000
<ENDHMM>
~h "h"
<BEGINHMM>
<NUMSTATES> 5
<STATE> 2
<MEAN> 25
 7.951082e-002 -2.490075e-001 -2.498341e-001 -2.007259e-001 3.237877e-001 4.806262e-001 1.767115e-002 -4.239084e-003 9.569860e-002 -8.685985e-002 -5.754435e-002 4.663575e-002 2.142641e-003 1.952555e-003 -1.339539e-003 3.294772e-004 2.670235e-003 -1.951829e-004 8.130893e-004 -1.822297e-003 -1.012752e-003 3.861217e-004 -5.989291e-004 5.209604e-004 3.974341e-003
<VARIANCE> 25
 5.731270e+001 5.076902e+001 6.155176e+001 5.480917e+001 5.902839e+001 5.319619e+001 6.038869e+001 6.090167e+001 5.076179e+001 3.528053e+001 3.744323e+001 3.401426e+001 2.475472e+000 2.568449e+000 2.546706e+000 3.034386e+000 3.237895e+000 2.937703e+000 3.490507e+000 3.861523e+000 3.257744e+000 2.606005e+000 2.574477e+000 2.254356e+000 4.586501e+000
<GCONST> 1.071173e+002
<STATE> 3
<MEAN> 25
 8.753327e-002 -2.438112e-001 -2.556935e-001 -1.990629e-001 3.329812e-001 4.785791e-001 2.031379e-002 -9.698643e-003 9.354923e-002 -8.551475e-002 -6.001935e-002 4.909612e-002 2.163553e-003 1.724542e-003 -9.914981e-004 -2.965196e-004 1.206727e-003 -2.106213e-003 4.730355e-004 -1.405166e-003 -8.583609e-004 6.280029e-004 -1.544760e-003 -3.262674e-004 3.905833e-003
<VARIANCE> 25
 5.722347e+001 5.075362e+001 6.171606e+001 5.475336e+001 5.913573e+001 5.323450e+001 6.028374e+001 6.079311e+001 5.069173e+001 3.530150e+001 3.746426e+001 3.403544e+001 2.470282e+000 2.564651e+000 2.547520e+000 3.028723e+000 3.237998e+000 2.936690e+000 3.488940e+000 3.849179e+000 3.251692e+000 2.606535e+000 2.573717e+000 2.253403e+000 4.601046e+000
<GCONST> 1.071082e+002
<STATE> 4
<MEAN> 25
 1.345514e-001 -2.554030e-001 -2.412101e-001 -2.357062e-001 2.981974e-001 4.816543e-001 -3.038015e-002 -3.128890e-002 9.087251e-002 -8.275483e-002 -5.372970e-002 7.550599e-003 2.349005e-003 1.090846e-003 -1.110255e-003 -3.567506e-004 7.079166e-004 -2.686547e-003 5.879179e-004 -1.688510e-003 -6.883040e-004 8.723717e-004 -2.123758e-003 -1.975554e-003 5.361944e-003
<VARIANCE> 25
 5.713570e+001 5.042390e+001 6.178397e+001 5.426384e+001 5.924809e+001 5.293214e+001 5.974388e+001 5.955619e+001 5.017382e+001 3.446959e+001 3.702260e+001 3.386226e+001 2.373570e+000 2.476686e+000 2.486720e+000 2.892273e+000 3.153726e+000 2.849055e+000 3.377321e+000 3.720185e+000 3.166100e+000 2.538452e+000 2.517804e+000 2.200126e+000 4.451024e+000
<GCONST> 1.066073e+002
<TRANSP> 5
 0.000000e+000 1.000000e+000 0.000000e+000 0.000000e+000 0.000000e+000
 0.000000e+000 7.054150e-001 2.945851e-001 0.000000e+000 0.000000e+000
 0.000000e+000 0.000000e+000 7.054121e-001 2.945879e-001 0.000000e+000
 0.000000e+000 0.000000e+000 0.000000e+000 8.339505e-001 1.660496e-001
 0.000000e+000 0.000000e+000 0.000000e+000 0.000000e+000 0.000000e+000
<ENDHMM>
~h "i"
<BEGINHMM>
<NUMSTATES> 5
<STATE> 2
<MEAN> 25
 -2.259976e-001 2.945974e-001 1.120509e+000 2.510657e-001 -6.871849e-001 -4.481809e-001 -1.117444e-001 -2.369943e-001 -4.931208e-001 -9.005439e-002 2.177566e-001 1.146781e-001 -6.935624e-004 3.154445e-003 -2.906804e-003 2.652963e-003 1.258171e-003 -2.318352e-003 3.996576e-003 -5.085953e-005 -2.250050e-003 -1.872631e-003 -1.317181e-003 1.011990e-003 -9.210911e-003
<VARIANCE> 25
 5.818388e+001 4.847128e+001 7.565272e+001 5.288662e+001 6.171419e+001 5.113427e+001 5.919004e+001 6.079645e+001 5.515757e+001 3.510875e+001 3.744438e+001 3.282472e+001 2.557989e+000 2.573797e+000 2.982749e+000 2.987169e+000 3.337903e+000 2.956015e+000 3.458629e+000 3.884033e+000 3.423805e+000 2.611987e+000 2.565862e+000 2.200137e+000 4.739594e+000
<GCONST> 1.075501e+002
<STATE> 3
<MEAN> 25
 -2.269730e-001 3.054433e-001 1.111825e+000 2.615865e-001 -6.830888e-001 -4.558603e-001 -9.791454e-002 -2.372854e-001 -5.016484e-001 -9.624769e-002 2.125723e-001 1.178179e-001 -5.996889e-004 3.134539e-003 -3.983448e-003 2.664100e-003 1.548853e-003 -2.392534e-003 4.106986e-003 -8.009281e-005 -1.617211e-003 -1.798800e-003 -1.432029e-003 9.798235e-004 -9.552013e-003
<VARIANCE> 25
 5.803224e+001 4.843259e+001 7.518325e+001 5.282191e+001 6.181353e+001 5.107419e+001 5.914851e+001 6.074291e+001 5.508459e+001 3.505499e+001 3.746546e+001 3.273940e+001 2.552705e+000 2.570026e+000 2.973728e+000 2.980717e+000 3.336019e+000 2.951985e+000 3.454101e+000 3.881487e+000 3.419381e+000 2.607758e+000 2.566947e+000 2.197113e+000 4.738870e+000
<GCONST> 1.075166e+002
<STATE> 4
<MEAN> 25
 -1.777008e-001 2.855439e-001 1.089138e+000 2.463235e-001 -6.741717e-001 -4.488004e-001 -1.106706e-001 -2.341132e-001 -4.973308e-001 -9.423880e-002 1.928236e-001 1.006760e-001 -4.433095e-005 2.578100e-003 -3.951089e-003 2.408963e-003 1.513212e-003 -2.309950e-003 3.527448e-003 -1.350855e-004 -1.101262e-003 -1.400877e-003 -1.366728e-003 4.976639e-004 -7.194020e-003
<VARIANCE> 25
 5.782346e+001 4.799794e+001 7.485422e+001 5.247395e+001 6.193160e+001 5.082113e+001 5.898408e+001 5.965214e+001 5.458698e+001 3.426952e+001 3.698046e+001 3.244079e+001 2.456246e+000 2.488554e+000 2.884185e+000 2.860315e+000 3.246564e+000 2.880482e+000 3.337739e+000 3.767804e+000 3.329015e+000 2.538720e+000 2.511200e+000 2.139514e+000 4.585376e+000
<GCONST> 1.070218e+002
<TRANSP> 5
 0.000000e+000 1.000000e+000 0.000000e+000 0.000000e+000 0.000000e+000
 0.000000e+000 7.043595e-001 2.956405e-001 0.000000e+000 0.000000e+000
 0.000000e+000 0.000000e+000 7.043563e-001 2.956438e-001 0.000000e+000
 0.000000e+000 0.000000e+000 0.000000e+000 8.316877e-001 1.683123e-001
 0.000000e+000 0.000000e+000 0.000000e+000 0.000000e+000 0.000000e+000
<ENDHMM>
~h "j"
<BEGINHMM>
<NUMSTATES> 5
<STATE> 2
<MEAN> 25
 2.214874e-001 2.320459e-001 9.398327e-001 8.225475e-002 -5.312856e-001 -4.870971e-001 -5.653359e-001 3.123102e-001 -2.263580e-001 -2.398543e-001 5.100910e-002 1.832462e-001 1.564443e-003 -4.965916e-003 5.121223e-003 2.408080e-003 -2.685619e-003 3.302090e-003 -1.502777e-003 2.878015e-003 3.770002e-003 -3.085836e-003 1.888281e-003 -2.361444e-003 5.915642e-003
<VARIANCE> 25
 5.676975e+001 5.466991e+001 6.454314e+001 5.395646e+001 5.613108e+001 5.268805e+001 5.901400e+001 6.477604e+001 5.268512e+001 3.618801e+001 3.885488e+001 3.390376e+001 2.947983e+000 3.009643e+000 2.791855e+000 3.048377e+000 3.405354e+000 3.091580e+000 3.658568e+000 4.140296e+000 3.406379e+000 2.659410e+000 2.657726e+000 2.369455e+000 5.226924e+000
<GCONST> 1.082138e+002
<STATE> 3
<MEAN> 25
 2.260821e-001 2.204276e-001 9.551028e-001 8.753662e-002 -5.404913e-001 -4.726094e-001 -5.705335e-001 3.202960e-001 -2.151266e-001 -2.499524e-001 6.006519e-002 1.772027e-001 -3.728569e-004 -3.217547e-003 3.004265e-003 3.009753e-003 -1.356014e-003 4.619431e-003 1.259493e-004 1.732341e-003 4.380070e-003 -3.148679e-003 3.032518e-003 -1.498811e-003 2.186529e-003
<VARIANCE> 25
 5.659819e+001 5.476213e+001 6.476999e+001 5.390348e+001 5.626309e+001 5.264897e+001 5.907185e+001 6.456808e+001 5.272036e+001 3.621899e+001 3.884923e+001 3.388071e+001 2.941859e+000 3.007265e+000 2.788346e+000 3.033571e+000 3.408340e+000 3.088208e+000 3.654819e+000 4.131071e+000 3.401926e+000 2.655831e+000 2.650898e+000 2.365591e+000 5.216681e+000
<GCONST> 1.081938e+002
<STATE> 4
<MEAN> 25
 2.724710e-001 1.548435e-001 9.504354e-001 6.517925e-002 -5.849239e-001 -3.976273e-001 -6.157941e-001 2.967206e-001 -1.872007e-001 -2.465135e-001 7.086011e-002 1.231637e-001 -1.283099e-003 -1.061220e-003 7.898859e-004 2.569424e-003 2.791422e-004 5.225984e-003 1.658781e-003 1.128560e-003 4.488869e-003 -1.870173e-003 3.644071e-003 -5.925652e-004 -1.959540e-004
<VARIANCE> 25
 5.690565e+001 5.449387e+001 6.477237e+001 5.382174e+001 5.674945e+001 5.267109e+001 5.904023e+001 6.347403e+001 5.254461e+001 3.554799e+001 3.845713e+001 3.364748e+001 2.832093e+000 2.908886e+000 2.715000e+000 2.909446e+000 3.335124e+000 3.004445e+000 3.531529e+000 3.995663e+000 3.324757e+000 2.582560e+000 2.591213e+000 2.299343e+000 5.022557e+000
<GCONST> 1.077485e+002
<TRANSP> 5
 0.000000e+000 1.000000e+000 0.000000e+000 0.000000e+000 0.000000e+000
 0.000000e+000 7.021686e-001 2.978314e-001 0.000000e+000 0.000000e+000
 0.000000e+000 0.000000e+000 7.021721e-001 2.978279e-001 0.000000e+000
 0.000000e+000 0.000000e+000 0.000000e+000 8.284279e-001 1.715721e-001
 0.000000e+000 0.000000e+000 0.000000e+000 0.000000e+000 0.000000e+000
<ENDHMM>
~h "k"
<BEGINHMM>
<NUMSTATES> 5
<STATE> 2
<MEAN> 25
 1.005487e-001 -1.215248e-001 -1.931908e-001 -3.281079e-001 -2.996365e-002 -2.264473e-001 -8.707292e-002 -8.013836e-002 -4.823046e-002 8.676079e-002 -1.201490e-001 -6.949953e-002 4.870598e-003 -1.778487e-003 -1.781449e-003 -4.645824e-003 2.465597e-003 -1.835703e-003 -1.694742e-003 2.658358e-004 -3.515516e-003 2.442574e-003 -3.476434e-003 -2.096948e-003 1.185670e-002
<VARIANCE> 25
 5.707457e+001 5.082409e+001 6.207966e+001 5.494380e+001 5.640868e+001 5.293054e+001 5.688456e+001 6.097305e+001 5.078632e+001 3.541280e+001 3.751718e+001 3.444305e+001 2.572192e+000 2.780816e+000 2.856964e+000 3.123402e+000 3.264306e+000 3.091889e+000 3.413266e+000 3.978259e+000 3.323258e+000 2.687014e+000 2.621033e+000 2.319542e+000 5.708975e+000
<GCONST> 1.076791e+002
<STATE> 3
<MEAN> 25
 1.178848e-001 -1.273235e-001 -1.994560e-001 -3.424726e-001 -2.193193e-002 -2.354837e-001 -9.288982e-002 -8.023115e-002 -6.018693e-002 9.603649e-002 -1.336105e-001 -7.652168e-002 5.185772e-003 -1.339856e-003 -1.506719e-003 -3.523871e-003 1.854494e-003 -2.172528e-003 -1.971164e-003 -3.129235e-004 -3.307137e-003 2.725937e-003 -4.042200e-003 -2.135790e-003 1.135909e-002
<VARIANCE> 25
 5.692303e+001 5.095172e+001 6.230392e+001 5.502883e+001 5.651622e+001 5.300445e+001 5.680711e+001 6.107409e+001 5.081341e+001 3.550032e+001 3.755873e+001 3.442083e+001 2.579381e+000 2.788685e+000 2.869130e+000 3.134090e+000 3.273197e+000 3.098272e+000 3.419023e+000 3.987891e+000 3.325732e+000 2.692901e+000 2.623830e+000 2.324810e+000 5.741876e+000
<GCONST> 1.077254e+002
<STATE> 4
<MEAN> 25
 1.895653e-001 -1.535139e-001 -1.641848e-001 -4.225780e-001 -6.957220e-002 -2.495401e-001 -1.781320e-001 -1.038257e-001 -6.685446e-002 1.035828e-001 -1.646220e-001 -1.255644e-001 4.985254e-003 -8.005281e-004 -1.872326e-003 -2.876368e-003 1.349614e-003 -2.016773e-003 -1.588592e-003 -1.309973e-003 -2.883006e-003 3.156799e-003 -3.869317e-003 -1.651434e-003 1.033951e-002
<VARIANCE> 25
 5.689731e+001 5.070469e+001 6.282797e+001 5.489567e+001 5.688967e+001 5.317474e+001 5.676880e+001 6.030624e+001 5.060334e+001 3.492231e+001 3.716134e+001 3.437020e+001 2.493293e+000 2.709019e+000 2.814011e+000 3.021845e+000 3.208369e+000 3.033850e+000 3.326424e+000 3.888847e+000 3.260887e+000 2.633233e+000 2.567628e+000 2.277043e+000 5.564917e+000
<GCONST> 1.073616e+002
<TRANSP> 5
 0.000000e+000 1.000000e+000 0.000000e+000 0.000000e+000 0.000000e+000
 0.000000e+000 7.038177e-001 2.961823e-001 0.000000e+000 0.000000e+000
 0.000000e+000 0.000000e+000 7.038147e-001 2.961852e-001 0.000000e+000
 0.000000e+000 0.000000e+000 0.000000e+000 8.311709e-001 1.688290e-001
 0.000000e+000 0.000000e+000 0.000000e+000 0.000000e+000 0.000000e+000
<ENDHMM>
~h "l"
<BEGINHMM>
<NUMSTATES> 5
<STATE> 2
<MEAN> 25
 3.248862e-001 -1.728313e-001 -5.748769e-002 -5.519440e-001 -1.082401e-001 3.090188e-001 -5.141897e-001 -2.764668e-001 1.246136e-001 4.550873e-002 1.582264e-001 -1.154439e-001 -1.757155e-003 5.597870e-003 2.390047e-003 5.010376e-004 3.678388e-003 1.783032e-003 -1.012667e-003 -7.773545e-004 -2.009944e-003 -1.249828e-003 8.812041e-004 -1.009558e-003 -2.260033e-003
<VARIANCE> 25
 6.075271e+001 4.967995e+001 6.337603e+001 6.230357e+001 5.752133e+001 5.619011e+001 6.315161e+001 6.270478e+001 5.213335e+001 3.815006e+001 3.834332e+001 3.467340e+001 2.467120e+000 2.546653e+000 2.627247e+000 3.191699e+000 3.179908e+000 3.051620e+000 3.492772e+000 3.924365e+000 3.267601e+000 2.713588e+000 2.634319e+000 2.246243e+000 4.410316e+000
<GCONST> 1.076921e+002
<STATE> 3
<MEAN> 25
 3.202966e-001 -1.542175e-001 -4.914927e-002 -5.514532e-001 -9.779498e-002 3.147661e-001 -5.187407e-001 -2.789665e-001 1.172680e-001 4.252079e-002 1.615990e-001 -1.193676e-001 -1.987693e-003 6.036435e-003 2.341766e-003 1.388074e-003 3.724109e-003 1.480184e-003 -7.230705e-004 -3.776113e-004 -2.120297e-003 -1.181986e-003 6.264099e-004 -1.061086e-003 -2.871811e-003
<VARIANCE> 25
 6.074417e+001 4.966780e+001 6.347896e+001 6.238145e+001 5.746421e+001 5.614548e+001 6.319510e+001 6.276263e+001 5.210239e+001 3.815159e+001 3.831845e+001 3.463155e+001 2.469409e+000 2.545764e+000 2.629161e+000 3.192907e+000 3.176203e+000 3.050985e+000 3.496126e+000 3.921312e+000 3.268386e+000 2.713490e+000 2.639023e+000 2.244637e+000 4.412089e+000
<GCONST> 1.076942e+002
<STATE> 4
<MEAN> 25
 3.530805e-001 -1.446332e-001 -2.074287e-002 -5.764662e-001 -1.336472e-001 3.277949e-001 -5.459773e-001 -3.056426e-001 1.082261e-001 4.389141e-002 1.679913e-001 -1.494969e-001 -1.291470e-003 5.927148e-003 2.259792e-003 1.296289e-003 3.021694e-003 1.248486e-003 -5.725715e-004 -6.140862e-004 -1.886114e-003 -4.282035e-005 3.447523e-004 -1.534523e-003 -3.470220e-004
<VARIANCE> 25
 6.095882e+001 4.930206e+001 6.338726e+001 6.236831e+001 5.779127e+001 5.608200e+001 6.301820e+001 6.191974e+001 5.172342e+001 3.725167e+001 3.773387e+001 3.444521e+001 2.392446e+000 2.464938e+000 2.562477e+000 3.073346e+000 3.104324e+000 2.980122e+000 3.394545e+000 3.807922e+000 3.194006e+000 2.642944e+000 2.586601e+000 2.190252e+000 4.275466e+000
<GCONST> 1.072665e+002
<TRANSP> 5
 0.000000e+000 1.000000e+000 0.000000e+000 0.000000e+000 0.000000e+000
 0.000000e+000 7.021994e-001 2.978005e-001 0.000000e+000 0.000000e+000
 0.000000e+000 0.000000e+000 7.021949e-001 2.978051e-001 0.000000e+000
 0.000000e+000 0.000000e+000 0.000000e+000 8.291564e-001 1.708436e-001
 0.000000e+000 0.000000e+000 0.000000e+000 0.000000e+000 0.000000e+000
<ENDHMM>
~h "m"
<BEGINHMM>
<NUMSTATES> 5
<STATE> 2
<MEAN> 25
 4.406849e-001 -1.992999e-001 -2.633106e-002 -5.810380e-002 -5.984919e-002 3.616509e-001 -1.191814e-001 -4.604564e-001 -3.543466e-001 -8.662348e-002 -6.669994e-002 -2.186405e-001 1.163029e-002 4.208703e-004 5.373288e-003 -2.138765e-003 -2.051145e-004 6.547682e-003 -2.944456e-003 -4.705301e-003 -5.821973e-003 1.244141e-003 -5.474828e-003 -4.409347e-003 1.775056e-002
<VARIANCE> 25
 5.911083e+001 4.927767e+001 6.100324e+001 5.751165e+001 5.517499e+001 5.443649e+001 5.835830e+001 6.497340e+001 5.548318e+001 3.693058e+001 3.841821e+001 3.481400e+001 2.363574e+000 2.552830e+000 2.698041e+000 3.236660e+000 3.020382e+000 2.937973e+000 3.322171e+000 4.162928e+000 3.458840e+000 2.605525e+000 2.700940e+000 2.286703e+000 4.505866e+000
<GCONST> 1.074576e+002
<STATE> 3
<MEAN> 25
 4.796772e-001 -1.978715e-001 -4.974960e-003 -6.537619e-002 -6.219024e-002 3.843795e-001 -1.303943e-001 -4.776723e-001 -3.728509e-001 -8.182683e-002 -8.465923e-002 -2.338830e-001 1.067619e-002 7.491857e-004 6.144399e-003 -2.327376e-003 -4.304005e-004 6.296718e-003 -2.892273e-003 -4.698026e-003 -5.170623e-003 1.563447e-003 -5.268035e-003 -4.123081e-003 1.721834e-002
<VARIANCE> 25
 5.903579e+001 4.932756e+001 6.105033e+001 5.758640e+001 5.521814e+001 5.446716e+001 5.830414e+001 6.514481e+001 5.559520e+001 3.698116e+001 3.846211e+001 3.482563e+001 2.364434e+000 2.556263e+000 2.707861e+000 3.245796e+000 3.024337e+000 2.943561e+000 3.323231e+000 4.175658e+000 3.468215e+000 2.612351e+000 2.700942e+000 2.287948e+000 4.512014e+000
<GCONST> 1.074893e+002
<STATE> 4
<MEAN> 25
 5.606376e-001 -2.224729e-001 6.472666e-002 -1.105003e-001 -1.129541e-001 3.980950e-001 -1.941695e-001 -5.067380e-001 -3.774001e-001 -7.750174e-002 -9.492072e-002 -2.799534e-001 1.002755e-002 8.216002e-004 7.546274e-003 -2.631141e-003 -1.308919e-003 6.016275e-003 -3.078710e-003 -4.515828e-003 -5.008757e-003 2.253761e-003 -5.232771e-003 -4.171836e-003 1.762008e-002
<VARIANCE> 25
 5.921457e+001 4.915718e+001 6.138703e+001 5.729922e+001 5.555930e+001 5.445024e+001 5.816821e+001 6.439794e+001 5.554599e+001 3.619171e+001 3.811128e+001 3.470032e+001 2.292803e+000 2.484060e+000 2.661503e+000 3.123261e+000 2.968773e+000 2.882038e+000 3.239352e+000 4.067810e+000 3.423871e+000 2.560094e+000 2.646437e+000 2.241074e+000 4.373538e+000
<GCONST> 1.071342e+002
<TRANSP> 5
 0.000000e+000 1.000000e+000 0.000000e+000 0.000000e+000 0.000000e+000
 0.000000e+000 7.019562e-001 2.980438e-001 0.000000e+000 0.000000e+000
 0.000000e+000 0.000000e+000 7.019536e-001 2.980464e-001 0.000000e+000
 0.000000e+000 0.000000e+000 0.000000e+000 8.292480e-001 1.707520e-001
 0.000000e+000 0.000000e+000 0.000000e+000 0.000000e+000 0.000000e+000
<ENDHMM>
~h "n"
<BEGINHMM>
<NUMSTATES> 5
<STATE> 2
<MEAN> 25
 6.522063e-001 -2.022272e-001 4.717100e-001 9.111536e-002 -2.879572e-001 2.474339e-002 -3.332014e-001 -3.037188e-001 -1.413591e-001 1.270722e-001 -4.531221e-001 -2.253554e-001 -1.581250e-003 1.194621e-003 1.150296e-003 4.834463e-004 -8.191852e-004 2.030995e-003 -6.258395e-004 -3.267938e-003 -2.017082e-003 -4.591173e-004 -1.753170e-003 5.482659e-004 1.423221e-003
<VARIANCE> 25
 5.745957e+001 5.132409e+001 6.362136e+001 5.597543e+001 5.735336e+001 5.166246e+001 5.750166e+001 6.708737e+001 5.132160e+001 3.712363e+001 3.982192e+001 3.454442e+001 2.468433e+000 2.752028e+000 2.837563e+000 3.211740e+000 3.173066e+000 3.017494e+000 3.447047e+000 4.501768e+000 3.359278e+000 2.769050e+000 2.684844e+000 2.287729e+000 4.901803e+000
<GCONST> 1.079066e+002
<STATE> 3
<MEAN> 25
 6.468798e-001 -1.973464e-001 4.746613e-001 9.300645e-002 -2.897687e-001 3.256281e-002 -3.359172e-001 -3.150267e-001 -1.478363e-001 1.259987e-001 -4.587337e-001 -2.236404e-001 -2.353960e-003 1.190427e-003 9.102328e-005 -7.863371e-004 -7.285569e-004 2.047777e-003 -7.895390e-004 -3.037966e-003 -1.881388e-003 -8.412208e-004 -1.130276e-005 9.708386e-005 1.319513e-003
<VARIANCE> 25
 5.749257e+001 5.137372e+001 6.356683e+001 5.587468e+001 5.735554e+001 5.158794e+001 5.754128e+001 6.711426e+001 5.130234e+001 3.714805e+001 3.973747e+001 3.453719e+001 2.473478e+000 2.752694e+000 2.835287e+000 3.205112e+000 3.170800e+000 3.015344e+000 3.444502e+000 4.498768e+000 3.357904e+000 2.769185e+000 2.683314e+000 2.283498e+000 4.901593e+000
<GCONST> 1.078969e+002
<STATE> 4
<MEAN> 25
 6.783635e-001 -2.075000e-001 4.840313e-001 4.780781e-002 -3.259432e-001 5.858126e-002 -3.753142e-001 -3.343067e-001 -1.570432e-001 1.153591e-001 -4.502887e-001 -2.485052e-001 -2.824150e-003 1.540145e-003 -1.737004e-003 -1.963886e-003 -3.044542e-004 1.777405e-003 -1.115425e-003 -2.457904e-003 -1.811683e-003 -1.265934e-003 7.910186e-004 -5.708961e-004 1.280487e-003
<VARIANCE> 25
 5.774539e+001 5.096696e+001 6.353903e+001 5.563101e+001 5.764162e+001 5.150539e+001 5.764396e+001 6.610316e+001 5.105310e+001 3.642507e+001 3.909855e+001 3.433302e+001 2.396600e+000 2.666937e+000 2.768394e+000 3.076857e+000 3.100264e+000 2.950405e+000 3.349093e+000 4.369134e+000 3.290714e+000 2.698936e+000 2.623946e+000 2.224501e+000 4.754931e+000
<GCONST> 1.074775e+002
<TRANSP> 5
 0.000000e+000 1.000000e+000 0.000000e+000 0.000000e+000 0.000000e+000
 0.000000e+000 7.002823e-001 2.997177e-001 0.000000e+000 0.000000e+000
 0.000000e+000 0.000000e+000 7.002792e-001 2.997207e-001 0.000000e+000
 0.000000e+000 0.000000e+000 0.000000e+000 8.266261e-001 1.733739e-001
 0.000000e+000 0.000000e+000 0.000000e+000 0.000000e+000 0.000000e+000
<ENDHMM>
~h "o"
<BEGINHMM>
<NUMSTATES> 5
<STATE> 2
<MEAN> 25
 5.597109e-001 1.921765e-001 -4.221429e-001 -9.875584e-001 -2.450636e-001 9.359457e-001 -3.114885e-001 -4.078645e-001 -3.835499e-002 1.745171e-001 4.663200e-001 1.032550e-001 -6.681680e-003 4.134683e-003 -5.035290e-003 3.138354e-003 4.177865e-003 2.761155e-003 6.130534e-003 -1.448831e-003 -2.164829e-003 -2.849912e-003 1.594239e-003 4.357696e-004 -1.494838e-002
<VARIANCE> 25
 6.338296e+001 4.714618e+001 6.459818e+001 7.206675e+001 5.791646e+001 5.975742e+001 6.070989e+001 5.888373e+001 4.995102e+001 3.795760e+001 3.919626e+001 3.319964e+001 2.612941e+000 2.485351e+000 2.805882e+000 3.597281e+000 3.238940e+000 3.260907e+000 3.404592e+000 3.861282e+000 3.247877e+000 2.748405e+000 2.611249e+000 2.188778e+000 4.709254e+000
<GCONST> 1.080426e+002
<STATE> 3
<MEAN> 25
 5.371314e-001 2.068878e-001 -4.382793e-001 -9.791586e-001 -2.304646e-001 9.472237e-001 -2.932485e-001 -4.115933e-001 -4.632191e-002 1.663451e-001 4.737384e-001 1.064254e-001 -8.619311e-003 4.394783e-003 -3.755225e-003 4.254395e-003 3.921017e-003 7.712822e-004 5.834195e-003 -4.363013e-004 -2.209293e-003 -3.076377e-003 1.701056e-003 1.124429e-003 -1.717784e-002
<VARIANCE> 25
 6.341318e+001 4.699119e+001 6.472178e+001 7.194719e+001 5.789833e+001 5.964926e+001 6.074018e+001 5.871967e+001 4.983767e+001 3.792500e+001 3.917806e+001 3.312060e+001 2.606005e+000 2.476771e+000 2.805327e+000 3.585917e+000 3.232809e+000 3.246189e+000 3.397574e+000 3.841251e+000 3.243297e+000 2.742650e+000 2.611479e+000 2.181493e+000 4.695732e+000
<GCONST> 1.079969e+002
<STATE> 4
<MEAN> 25
 5.680125e-001 2.010699e-001 -4.006205e-001 -9.722344e-001 -2.561873e-001 9.567430e-001 -3.233355e-001 -4.218308e-001 -4.400430e-002 1.490158e-001 4.488420e-001 8.351223e-002 -9.606137e-003 4.766246e-003 -2.455229e-003 4.191934e-003 3.553540e-003 -1.133334e-003 4.993831e-003 7.188367e-004 -2.248458e-003 -3.128818e-003 1.319435e-003 1.931906e-003 -1.718211e-002
<VARIANCE> 25
 6.343475e+001 4.655521e+001 6.455259e+001 7.197175e+001 5.804305e+001 5.949839e+001 6.047173e+001 5.796368e+001 4.925501e+001 3.710933e+001 3.844329e+001 3.288826e+001 2.499868e+000 2.394576e+000 2.726263e+000 3.438733e+000 3.150578e+000 3.150622e+000 3.282256e+000 3.727576e+000 3.163347e+000 2.665239e+000 2.549490e+000 2.127967e+000 4.517121e+000
<GCONST> 1.075014e+002
<TRANSP> 5
 0.000000e+000 1.000000e+000 0.000000e+000 0.000000e+000 0.000000e+000
 0.000000e+000 7.046348e-001 2.953652e-001 0.000000e+000 0.000000e+000
 0.000000e+000 0.000000e+000 7.046372e-001 2.953627e-001 0.000000e+000
 0.000000e+000 0.000000e+000 0.000000e+000 8.320129e-001 1.679870e-001
 0.000000e+000 0.000000e+000 0.000000e+000 0.000000e+000 0.000000e+000
<ENDHMM>
~h "p"
<BEGINHMM>
<NUMSTATES> 5
<STATE> 2
<MEAN> 25
 6.992325e-002 5.333085e-002 -2.920932e-001 -5.450357e-002 7.700133e-002 3.332813e-002 1.221796e-001 2.001883e-002 3.507846e-002 8.568568e-002 2.609975e-001 -5.795001e-002 4.099322e-003 -1.790429e-003 -1.361672e-003 -3.358849e-003 -2.180837e-005 5.917855e-003 -7.747449e-004 -1.101390e-003 1.310278e-003 -1.383175e-003 8.229422e-004 -1.853154e-003 1.174561e-002
<VARIANCE> 25
 5.796174e+001 4.989218e+001 5.919260e+001 5.872871e+001 5.566122e+001 5.377044e+001 5.636562e+001 6.063700e+001 4.915892e+001 3.431187e+001 3.636966e+001 3.488444e+001 2.518773e+000 2.699235e+000 2.597636e+000 3.244053e+000 3.112799e+000 3.138128e+000 3.331616e+000 3.912944e+000 3.195762e+000 2.642265e+000 2.577727e+000 2.302480e+000 5.868760e+000
<GCONST> 1.073665e+002
<STATE> 3
<MEAN> 25
 8.256026e-002 4.744356e-002 -2.963188e-001 -6.389280e-002 7.833397e-002 5.237835e-002 1.233457e-001 1.748450e-002 4.206244e-002 8.219093e-002 2.618323e-001 -6.288305e-002 3.339616e-003 -1.306271e-003 -1.454245e-003 -2.410652e-003 4.978282e-004 5.446352e-003 4.825247e-004 -8.699810e-004 1.852368e-003 -1.528157e-003 -2.913338e-004 -1.461502e-003 9.907432e-003
<VARIANCE> 25
 5.805064e+001 4.989794e+001 5.928014e+001 5.876830e+001 5.569386e+001 5.383071e+001 5.636752e+001 6.064022e+001 4.920429e+001 3.438947e+001 3.646099e+001 3.494261e+001 2.521054e+000 2.699368e+000 2.600354e+000 3.249435e+000 3.115380e+000 3.150964e+000 3.335607e+000 3.911330e+000 3.196824e+000 2.645992e+000 2.583455e+000 2.303445e+000 5.887250e+000
<GCONST> 1.073963e+002
<STATE> 4
<MEAN> 25
 5.911230e-002 4.128997e-002 -2.894474e-001 -2.140011e-002 1.232884e-001 6.661689e-002 1.679119e-001 5.490359e-002 5.902190e-002 7.388393e-002 2.438475e-001 -3.938223e-002 1.999198e-003 -6.099674e-004 -4.826162e-004 -1.092754e-003 7.295355e-004 3.991442e-003 1.623346e-003 -1.084764e-003 1.677105e-003 -1.715930e-003 -1.660253e-003 -9.698495e-004 7.192589e-003
<VARIANCE> 25
 5.830614e+001 4.916444e+001 5.859958e+001 5.919476e+001 5.596152e+001 5.384511e+001 5.621129e+001 5.969837e+001 4.837355e+001 3.377374e+001 3.583366e+001 3.496120e+001 2.402579e+000 2.587930e+000 2.510786e+000 3.125045e+000 3.027151e+000 3.084682e+000 3.204023e+000 3.804129e+000 3.104021e+000 2.580846e+000 2.512460e+000 2.247334e+000 5.603703e+000
<GCONST> 1.068776e+002
<TRANSP> 5
 0.000000e+000 1.000000e+000 0.000000e+000 0.000000e+000 0.000000e+000
 0.000000e+000 7.050051e-001 2.949949e-001 0.000000e+000 0.000000e+000
 0.000000e+000 0.000000e+000 7.050018e-001 2.949983e-001 0.000000e+000
 0.000000e+000 0.000000e+000 0.000000e+000 8.333892e-001 1.666109e-001
 0.000000e+000 0.000000e+000 0.000000e+000 0.000000e+000 0.000000e+000
<ENDHMM>
~h "q"
<BEGINHMM>
<NUMSTATES> 5
<STATE> 2
<MEAN> 25
 -2.222236e+000 1.697228e+000 1.722473e+000 3.993657e+000 -7.675086e-001 -3.100513e+000 2.878469e+000 1.102771e+000 -1.316055e+000 -1.006745e+000 1.130224e+000 2.386425e+000 -1.322260e-002 1.395987e-004 -1.201203e-002 5.183275e-003 3.698407e-003 3.143441e-002 1.169265e-002 -7.061188e-002 -1.927505e-002 -5.365252e-004 9.243161e-003 -8.843726e-003 -3.554160e-002
<VARIANCE> 25
 6.561101e+001 4.488476e+001 7.840038e+001 6.005871e+001 4.990390e+001 4.553535e+001 5.565089e+001 5.040203e+001 6.036879e+001 3.284366e+001 2.578912e+001 2.791711e+001 3.672563e+000 3.616521e+000 4.412948e+000 3.302854e+000 3.337267e+000 3.177956e+000 3.763853e+000 3.440525e+000 4.093968e+000 2.422700e+000 2.326759e+000 2.109912e+000 4.902473e+000
<GCONST> 1.078945e+002
<STATE> 3
<MEAN> 25
 -2.310441e+000 1.675693e+000 1.672501e+000 3.970848e+000 -7.455820e-001 -2.998357e+000 2.934938e+000 8.875950e-001 -1.321706e+000 -9.951072e-001 1.158831e+000 2.369239e+000 -2.069246e-002 -1.004123e-002 -2.161463e-002 -1.105248e-002 1.025991e-002 3.803944e-002 9.094696e-003 -6.991254e-002 -6.821262e-003 6.389568e-003 8.552781e-003 -9.127332e-003 -3.248519e-002
<VARIANCE> 25
 6.566167e+001 4.480324e+001 7.983643e+001 5.778042e+001 4.962251e+001 4.543274e+001 5.741846e+001 4.988429e+001 6.077480e+001 3.315424e+001 2.604397e+001 2.760737e+001 3.524689e+000 3.633242e+000 4.372529e+000 3.201735e+000 3.356086e+000 3.131438e+000 3.794326e+000 3.407265e+000 4.066336e+000 2.449345e+000 2.299819e+000 2.063147e+000 4.939449e+000
<GCONST> 1.077908e+002
<STATE> 4
<MEAN> 25
 -3.108523e+000 1.631923e+000 1.553102e+000 4.422228e+000 -5.724372e-002 -2.595127e+000 3.621413e+000 1.098379e+000 -9.187390e-001 -8.173671e-001 1.189924e+000 2.657485e+000 -3.786455e-002 -1.821382e-002 -3.130829e-002 -3.098827e-002 1.818176e-002 4.352903e-002 1.124018e-002 -6.684706e-002 1.982976e-002 1.533681e-002 4.159335e-003 -8.353870e-003 -2.056701e-002
<VARIANCE> 25
 6.318732e+001 4.092502e+001 7.267486e+001 5.246772e+001 4.918699e+001 4.581429e+001 5.789315e+001 4.976429e+001 5.882236e+001 3.324350e+001 2.547187e+001 2.666149e+001 2.994708e+000 3.423238e+000 3.822266e+000 2.870254e+000 3.071203e+000 3.105285e+000 3.601718e+000 3.322158e+000 3.777870e+000 2.452473e+000 2.204376e+000 1.942252e+000 4.437195e+000
<GCONST> 1.064667e+002
<TRANSP> 5
 0.000000e+000 1.000000e+000 0.000000e+000 0.000000e+000 0.000000e+000
 0.000000e+000 6.855887e-001 3.144114e-001 0.000000e+000 0.000000e+000
 0.000000e+000 0.000000e+000 6.855885e-001 3.144114e-001 0.000000e+000
 0.000000e+000 0.000000e+000 0.000000e+000 8.137972e-001 1.862027e-001
 0.000000e+000 0.000000e+000 0.000000e+000 0.000000e+000 0.000000e+000
<ENDHMM>
~h "r"
<BEGINHMM>
<NUMSTATES> 5
<STATE> 2
<MEAN> 25
 3.923920e-001 -4.415435e-001 -1.638195e-001 -1.151301e-001 -1.843914e-001 2.632094e-002 -2.532273e-001 9.032759e-002 2.622644e-001 7.960775e-002 3.498558e-002 -1.080531e-001 -5.204668e-004 3.987934e-003 -1.856075e-003 1.113389e-003 4.763322e-003 2.447659e-003 2.966721e-003 -1.599126e-003 -2.928139e-004 -9.543644e-004 -1.053787e-003 -1.154036e-003 -2.524681e-003
<VARIANCE> 25
 6.061249e+001 5.229002e+001 6.398060e+001 5.672395e+001 5.870622e+001 5.380780e+001 5.984929e+001 6.250702e+001 5.305579e+001 3.607856e+001 3.852489e+001 3.483119e+001 2.619130e+000 2.696977e+000 2.706673e+000 3.171569e+000 3.216140e+000 3.071669e+000 3.450971e+000 3.987186e+000 3.378600e+000 2.721367e+000 2.641702e+000 2.308238e+000 5.023233e+000
<GCONST> 1.079066e+002
<STATE> 3
<MEAN> 25
 3.895025e-001 -4.271166e-001 -1.708105e-001 -1.116367e-001 -1.678295e-001 3.461898e-002 -2.431992e-001 8.511745e-002 2.627850e-001 7.765021e-002 3.096542e-002 -1.130600e-001 -1.903648e-003 5.398283e-003 -2.242613e-003 1.734957e-003 4.971280e-003 1.521468e-003 3.284091e-003 -1.794126e-003 -3.089211e-004 -3.467104e-004 -8.305563e-004 -1.187905e-003 -5.176764e-003
<VARIANCE> 25
 6.071933e+001 5.229779e+001 6.399123e+001 5.650704e+001 5.879474e+001 5.377655e+001 5.985882e+001 6.241415e+001 5.303830e+001 3.603033e+001 3.854692e+001 3.480056e+001 2.620093e+000 2.694914e+000 2.704348e+000 3.168040e+000 3.218030e+000 3.068500e+000 3.452505e+000 3.980358e+000 3.377455e+000 2.716108e+000 2.640221e+000 2.306121e+000 5.021056e+000
<GCONST> 1.078942e+002
<STATE> 4
<MEAN> 25
 3.958349e-001 -4.060981e-001 -1.659390e-001 -1.250612e-001 -1.561709e-001 6.247025e-002 -2.611122e-001 7.649142e-002 2.648872e-001 7.189338e-002 1.523306e-002 -1.235924e-001 -3.679412e-003 6.171917e-003 -2.288194e-003 2.216347e-003 4.927840e-003 7.519126e-005 3.879946e-003 -8.785119e-004 -1.853751e-004 -6.297417e-005 -3.900828e-004 -9.624129e-004 -7.065214e-003
<VARIANCE> 25
 6.117228e+001 5.185933e+001 6.390131e+001 5.645346e+001 5.904727e+001 5.369579e+001 5.988514e+001 6.152595e+001 5.244041e+001 3.529780e+001 3.798633e+001 3.459062e+001 2.523758e+000 2.604988e+000 2.634217e+000 3.051145e+000 3.147280e+000 3.000482e+000 3.347119e+000 3.867248e+000 3.297558e+000 2.643307e+000 2.577648e+000 2.250392e+000 4.838748e+000
<GCONST> 1.074509e+002
<TRANSP> 5
 0.000000e+000 1.000000e+000 0.000000e+000 0.000000e+000 0.000000e+000
 0.000000e+000 7.030242e-001 2.969758e-001 0.000000e+000 0.000000e+000
 0.000000e+000 0.000000e+000 7.030162e-001 2.969837e-001 0.000000e+000
 0.000000e+000 0.000000e+000 0.000000e+000 8.298531e-001 1.701469e-001
 0.000000e+000 0.000000e+000 0.000000e+000 0.000000e+000 0.000000e+000
<ENDHMM>
~h "s"
<BEGINHMM>
<NUMSTATES> 5
<STATE> 2
<MEAN> 25
 -1.108069e+000 2.443963e-001 -2.783203e-001 2.100342e-001 3.538769e-001 -4.536901e-001 2.883601e-001 2.758793e-001 1.896719e-001 -8.237635e-002 2.011725e-001 3.199040e-001 -2.652425e-004 3.037303e-003 -2.208627e-003 -2.002114e-003 6.003397e-003 4.571265e-003 1.230977e-003 -4.085083e-003 3.057970e-003 9.541065e-004 -1.031014e-003 -3.221006e-003 -3.492013e-004
<VARIANCE> 25
 7.819201e+001 5.016768e+001 6.372046e+001 5.529482e+001 5.817832e+001 5.141763e+001 6.185428e+001 5.916398e+001 5.112000e+001 3.477723e+001 3.647575e+001 3.462980e+001 3.606456e+000 2.737602e+000 2.738815e+000 3.007649e+000 3.163974e+000 2.950158e+000 3.552721e+000 3.881634e+000 3.275187e+000 2.616971e+000 2.550275e+000 2.276910e+000 4.452840e+000
<GCONST> 1.078789e+002
<STATE> 3
<MEAN> 25
 -1.107061e+000 2.549700e-001 -2.874328e-001 1.995471e-001 3.738697e-001 -4.350533e-001 2.899522e-001 2.596673e-001 2.028718e-001 -7.649405e-002 1.959233e-001 3.063676e-001 1.455752e-003 3.112464e-003 -3.072870e-003 -2.153550e-003 5.289635e-003 5.570283e-003 6.726542e-004 -4.468321e-003 3.041422e-003 1.310748e-003 -1.724387e-003 -3.305542e-003 -2.327599e-003
<VARIANCE> 25
 7.806308e+001 5.016969e+001 6.369632e+001 5.506400e+001 5.816550e+001 5.130875e+001 6.184609e+001 5.889135e+001 5.115127e+001 3.464999e+001 3.645034e+001 3.446981e+001 3.618264e+000 2.738379e+000 2.735672e+000 2.999602e+000 3.160444e+000 2.940959e+000 3.561255e+000 3.865864e+000 3.274017e+000 2.611527e+000 2.551254e+000 2.271068e+000 4.460725e+000
<GCONST> 1.078481e+002
<STATE> 4
<MEAN> 25
 -1.043669e+000 2.627131e-001 -2.829385e-001 2.204237e-001 3.666989e-001 -3.964224e-001 2.809030e-001 2.379653e-001 2.078665e-001 -6.748520e-002 2.015596e-001 2.927471e-001 3.409517e-003 1.912962e-003 -3.614991e-003 -1.798260e-003 3.296599e-003 4.773758e-003 -1.065964e-004 -2.847562e-003 2.350718e-003 7.276610e-004 -2.152749e-003 -2.496960e-003 -2.241131e-003
<VARIANCE> 25
 7.657435e+001 4.949978e+001 6.327595e+001 5.519025e+001 5.779878e+001 5.076105e+001 6.160222e+001 5.752103e+001 5.049907e+001 3.374465e+001 3.583222e+001 3.415320e+001 3.440982e+000 2.639033e+000 2.643001e+000 2.879447e+000 3.060296e+000 2.864100e+000 3.422873e+000 3.744478e+000 3.182529e+000 2.537101e+000 2.483507e+000 2.212748e+000 4.279287e+000
<GCONST> 1.072565e+002
<TRANSP> 5
 0.000000e+000 1.000000e+000 0.000000e+000 0.000000e+000 0.000000e+000
 0.000000e+000 7.056971e-001 2.943029e-001 0.000000e+000 0.000000e+000
 0.000000e+000 0.000000e+000 7.056987e-001 2.943012e-001 0.000000e+000
 0.000000e+000 0.000000e+000 0.000000e+000 8.337147e-001 1.662853e-001
 0.000000e+000 0.000000e+000 0.000000e+000 0.000000e+000 0.000000e+000
<ENDHMM>
~h "t"
<BEGINHMM>
<NUMSTATES> 5
<STATE> 2
<MEAN> 25
 1.513087e-001 -2.504019e-002 -2.524973e-001 -3.067734e-001 -4.327902e-002 -1.356138e-001 -9.632181e-002 -9.861523e-002 1.354034e-001 9.170656e-002 -7.240845e-002 -1.212739e-001 1.280038e-003 3.396403e-003 1.374526e-003 -3.784411e-004 5.433178e-004 2.574185e-003 4.458670e-004 -3.869363e-003 7.337146e-004 -3.016191e-004 -5.626883e-004 -2.121186e-003 -1.541272e-003
<VARIANCE> 25
 5.741185e+001 5.110172e+001 6.154951e+001 5.652871e+001 5.544901e+001 5.255897e+001 5.802754e+001 5.934883e+001 5.186141e+001 3.488895e+001 3.759361e+001 3.372604e+001 2.706527e+000 2.776581e+000 2.721110e+000 3.153046e+000 3.152996e+000 3.079138e+000 3.510119e+000 3.923534e+000 3.337301e+000 2.665228e+000 2.614862e+000 2.288133e+000 6.145831e+000
<GCONST> 1.077053e+002
<STATE> 3
<MEAN> 25
 1.554875e-001 -1.364379e-002 -2.473667e-001 -3.089029e-001 -4.071758e-002 -1.268203e-001 -9.571460e-002 -1.104868e-001 1.366200e-001 9.059408e-002 -7.374431e-002 -1.285090e-001 4.813839e-004 3.580174e-003 2.033762e-003 6.311918e-004 1.104024e-003 2.306545e-003 3.809743e-004 -3.606126e-003 -7.466227e-005 -4.832065e-004 -5.165348e-004 -1.559016e-003 -3.203440e-003
<VARIANCE> 25
 5.728956e+001 5.112049e+001 6.159072e+001 5.642425e+001 5.546589e+001 5.251915e+001 5.803891e+001 5.932237e+001 5.186812e+001 3.486149e+001 3.767942e+001 3.364206e+001 2.707393e+000 2.777775e+000 2.720086e+000 3.151286e+000 3.150725e+000 3.078374e+000 3.513092e+000 3.920468e+000 3.334864e+000 2.664107e+000 2.616360e+000 2.288290e+000 6.173029e+000
<GCONST> 1.077036e+002
<STATE> 4
<MEAN> 25
 1.881547e-001 -1.600705e-002 -2.046295e-001 -3.246906e-001 -6.708445e-002 -1.117405e-001 -1.022559e-001 -1.205565e-001 1.205470e-001 7.886128e-002 -7.400838e-002 -1.561237e-001 1.765871e-004 3.192239e-003 2.268705e-003 7.389290e-004 1.103360e-003 1.846515e-003 -5.436800e-004 -2.968855e-003 -1.196427e-003 -1.015696e-003 -3.461970e-004 -9.210482e-004 -2.855323e-003
<VARIANCE> 25
 5.713207e+001 5.077375e+001 6.158332e+001 5.650643e+001 5.581111e+001 5.235455e+001 5.803430e+001 5.843743e+001 5.147712e+001 3.412781e+001 3.729916e+001 3.338770e+001 2.599736e+000 2.689244e+000 2.651734e+000 3.030327e+000 3.081541e+000 3.007823e+000 3.396337e+000 3.807873e+000 3.252670e+000 2.592591e+000 2.556457e+000 2.234629e+000 5.978656e+000
<GCONST> 1.072598e+002
<TRANSP> 5
 0.000000e+000 1.000000e+000 0.000000e+000 0.000000e+000 0.000000e+000
 0.000000e+000 7.043767e-001 2.956233e-001 0.000000e+000 0.000000e+000
 0.000000e+000 0.000000e+000 7.043803e-001 2.956197e-001 0.000000e+000
 0.000000e+000 0.000000e+000 0.000000e+000 8.314798e-001 1.685202e-001
 0.000000e+000 0.000000e+000 0.000000e+000 0.000000e+000 0.000000e+000
<ENDHMM>
~h "u"
<BEGINHMM>
<NUMSTATES> 5
<STATE> 2
<MEAN> 25
 5.310448e-001 6.195720e-001 6.925368e-002 -4.601658e-001 -2.657474e-001 4.524137e-001 -6.909668e-001 -5.910088e-001 -3.531743e-001 1.993692e-002 2.479444e-001 7.197712e-002 3.513434e-003 3.873410e-003 2.730684e-005 -1.415472e-003 2.836582e-003 5.591156e-003 -1.739648e-003 -4.952788e-003 -3.743874e-003 2.093222e-003 1.120372e-003 -8.559832e-004 4.928615e-003
<VARIANCE> 25
 6.291396e+001 5.102341e+001 5.963613e+001 6.019290e+001 5.728065e+001 5.322446e+001 6.315305e+001 6.306482e+001 5.409042e+001 3.684720e+001 3.883096e+001 3.370680e+001 2.739964e+000 2.672381e+000 2.688877e+000 3.380831e+000 3.248605e+000 3.120532e+000 3.648725e+000 3.975795e+000 3.481631e+000 2.761836e+000 2.702326e+000 2.296135e+000 4.934099e+000
<GCONST> 1.081672e+002
<STATE> 3
<MEAN> 25
 5.431252e-001 6.327433e-001 6.837469e-002 -4.660125e-001 -2.579713e-001 4.720518e-001 -6.958259e-001 -6.069351e-001 -3.647728e-001 2.487940e-002 2.515735e-001 6.918419e-002 3.049489e-003 3.245865e-003 -2.347368e-004 -9.804936e-004 2.707562e-003 4.983934e-003 -1.317839e-003 -4.413825e-003 -3.254269e-003 1.286669e-003 5.007416e-004 -1.291812e-003 3.338087e-003
<VARIANCE> 25
 6.295810e+001 5.105336e+001 5.965905e+001 6.025254e+001 5.740716e+001 5.323755e+001 6.323403e+001 6.304749e+001 5.408614e+001 3.685501e+001 3.889601e+001 3.372700e+001 2.743043e+000 2.673816e+000 2.689027e+000 3.386137e+000 3.254252e+000 3.122447e+000 3.654136e+000 3.975955e+000 3.486300e+000 2.764314e+000 2.705479e+000 2.295990e+000 4.938281e+000
<GCONST> 1.081871e+002
<STATE> 4
<MEAN> 25
 6.043125e-001 5.998746e-001 8.021706e-002 -5.096120e-001 -2.922614e-001 4.988949e-001 -7.158480e-001 -6.223055e-001 -3.682272e-001 2.352188e-002 2.480898e-001 2.554750e-002 3.057687e-003 3.230016e-003 -6.746729e-004 -1.374778e-003 1.407416e-003 4.944924e-003 -9.913016e-004 -4.161815e-003 -2.305062e-003 4.587118e-004 5.021223e-004 -1.522121e-003 1.857396e-003
<VARIANCE> 25
 6.316200e+001 5.065483e+001 5.960217e+001 6.011285e+001 5.781452e+001 5.313908e+001 6.320459e+001 6.240194e+001 5.376983e+001 3.618831e+001 3.865232e+001 3.364282e+001 2.654609e+000 2.596191e+000 2.631526e+000 3.259480e+000 3.191804e+000 3.050952e+000 3.538713e+000 3.877684e+000 3.408378e+000 2.702495e+000 2.657051e+000 2.246569e+000 4.784919e+000
<GCONST> 1.078026e+002
<TRANSP> 5
 0.000000e+000 1.000000e+000 0.000000e+000 0.000000e+000 0.000000e+000
 0.000000e+000 7.032164e-001 2.967836e-001 0.000000e+000 0.000000e+000
 0.000000e+000 0.000000e+000 7.032093e-001 2.967907e-001 0.000000e+000
 0.000000e+000 0.000000e+000 0.000000e+000 8.302079e-001 1.697921e-001
 0.000000e+000 0.000000e+000 0.000000e+000 0.000000e+000 0.000000e+000
<ENDHMM>
~h "w"
<BEGINHMM>
<NUMSTATES> 5
<STATE> 2
<MEAN> 25
 8.465488e-001 -1.004907e-001 3.252279e-002 -1.072406e+000 -1.555113e-001 5.451027e-001 -7.519919e-001 3.493026e-001 -1.918776e-001 4.153105e-001 3.508180e-001 -3.136192e-001 3.479948e-003 2.763332e-003 -1.101541e-002 -1.180832e-002 9.900461e-003 1.069175e-002 1.045390e-003 4.950664e-003 -5.784938e-004 4.655165e-003 2.536487e-004 -6.224355e-004 -5.440041e-003
<VARIANCE> 25
 6.298580e+001 5.246558e+001 6.319235e+001 7.130041e+001 5.787646e+001 6.171797e+001 5.894393e+001 5.924250e+001 5.478698e+001 3.806428e+001 3.988378e+001 3.515483e+001 2.515040e+000 2.731561e+000 2.563648e+000 3.302287e+000 3.206601e+000 3.124398e+000 3.376600e+000 3.855592e+000 3.296528e+000 2.686281e+000 2.687752e+000 2.376987e+000 4.615543e+000
<GCONST> 1.081897e+002
<STATE> 3
<MEAN> 25
 8.577282e-001 -8.805870e-002 -2.945610e-003 -1.106639e+000 -1.242764e-001 5.789860e-001 -7.413246e-001 3.639554e-001 -1.934748e-001 4.250626e-001 3.484757e-001 -3.097449e-001 3.011803e-003 1.635980e-003 -1.270689e-002 -1.263965e-002 9.159576e-003 1.060570e-002 2.964508e-003 3.582883e-003 -6.793933e-004 1.811194e-003 -9.186279e-004 1.309204e-003 -7.737722e-003
<VARIANCE> 25
 6.279788e+001 5.228736e+001 6.297840e+001 7.166485e+001 5.784519e+001 6.158875e+001 5.918456e+001 5.915955e+001 5.454055e+001 3.797807e+001 3.983585e+001 3.503936e+001 2.508113e+000 2.726546e+000 2.554646e+000 3.300747e+000 3.200198e+000 3.119831e+000 3.373407e+000 3.846894e+000 3.297044e+000 2.683769e+000 2.683829e+000 2.380585e+000 4.589859e+000
<GCONST> 1.081522e+002
<STATE> 4
<MEAN> 25
 8.800793e-001 -7.150687e-002 2.287837e-002 -1.096363e+000 -1.601692e-001 5.892566e-001 -7.191607e-001 3.276268e-001 -2.215353e-001 4.146778e-001 3.227862e-001 -3.332961e-001 1.299494e-003 1.209677e-003 -1.200225e-002 -9.664965e-003 8.103427e-003 8.936627e-003 5.866391e-003 1.062836e-003 -2.200333e-004 -9.799637e-004 -1.975368e-003 3.930754e-003 -1.266198e-002
<VARIANCE> 25
 6.263227e+001 5.154427e+001 6.324168e+001 7.112476e+001 5.822668e+001 6.121740e+001 5.939997e+001 5.831525e+001 5.404999e+001 3.720169e+001 3.904064e+001 3.459160e+001 2.399133e+000 2.625269e+000 2.498456e+000 3.155973e+000 3.112053e+000 3.027543e+000 3.264618e+000 3.726918e+000 3.221244e+000 2.609936e+000 2.609390e+000 2.307861e+000 4.394081e+000
<GCONST> 1.076333e+002
<TRANSP> 5
 0.000000e+000 1.000000e+000 0.000000e+000 0.000000e+000 0.000000e+000
 0.000000e+000 7.029088e-001 2.970912e-001 0.000000e+000 0.000000e+000
 0.000000e+000 0.000000e+000 7.029109e-001 2.970891e-001 0.000000e+000
 0.000000e+000 0.000000e+000 0.000000e+000 8.309742e-001 1.690258e-001
 0.000000e+000 0.000000e+000 0.000000e+000 0.000000e+000 0.000000e+000
<ENDHMM>
~h "y"
<BEGINHMM>
<NUMSTATES> 5
<STATE> 2
<MEAN> 25
 1.121601e-002 -4.155807e-001 4.467558e-001 -2.354692e-001 -3.713002e-001 -1.523169e-001 -8.068163e-002 7.357118e-001 -1.604952e-001 -1.650609e-001 2.673520e-001 7.550966e-002 -2.852261e-003 2.161735e-004 7.953007e-003 -3.384982e-003 -7.423574e-003 5.023478e-003 -1.809843e-003 2.992696e-003 1.184846e-003 -3.236745e-003 -2.552581e-004 -5.090353e-003 4.853871e-003
<VARIANCE> 25
 5.578514e+001 5.104016e+001 6.746149e+001 5.444151e+001 6.193312e+001 5.189940e+001 5.831124e+001 6.607256e+001 5.280714e+001 3.617826e+001 3.865025e+001 3.656340e+001 2.293904e+000 2.586804e+000 2.811904e+000 2.750244e+000 3.100478e+000 2.842599e+000 3.226130e+000 4.018982e+000 3.250896e+000 2.600718e+000 2.590632e+000 2.262600e+000 4.224539e+000
<GCONST> 1.071592e+002
<STATE> 3
<MEAN> 25
 2.342797e-003 -4.173991e-001 4.726176e-001 -2.477178e-001 -3.961087e-001 -1.382435e-001 -8.837631e-002 7.412682e-001 -1.567920e-001 -1.688266e-001 2.631392e-001 5.850004e-002 -3.672745e-003 2.075250e-003 8.565743e-003 -2.315684e-003 -8.087505e-003 4.532993e-003 -2.655752e-003 -1.380155e-004 7.229117e-004 -2.181697e-003 -5.100896e-004 -5.226548e-003 4.479140e-004
<VARIANCE> 25
 5.574314e+001 5.106286e+001 6.734509e+001 5.405427e+001 6.211841e+001 5.180462e+001 5.822953e+001 6.601658e+001 5.267299e+001 3.622462e+001 3.871489e+001 3.645295e+001 2.291446e+000 2.586147e+000 2.821389e+000 2.733770e+000 3.101452e+000 2.833005e+000 3.218108e+000 4.015932e+000 3.247851e+000 2.594054e+000 2.594082e+000 2.257709e+000 4.193902e+000
<GCONST> 1.071244e+002
<STATE> 4
<MEAN> 25
 -7.475135e-002 -3.725965e-001 4.583584e-001 -1.752818e-001 -3.443405e-001 -1.137083e-001 -1.664386e-002 6.706825e-001 -1.080930e-001 -1.158046e-001 2.478635e-001 1.088915e-001 -2.543529e-003 2.563316e-003 8.176262e-003 -2.813747e-003 -8.743688e-003 2.469689e-003 -4.482939e-003 -2.760204e-003 4.431787e-004 1.484084e-003 -1.709133e-003 -3.500890e-003 -1.660787e-003
<VARIANCE> 25
 5.605431e+001 5.049338e+001 6.634406e+001 5.387922e+001 6.185587e+001 5.139516e+001 5.839651e+001 6.439455e+001 5.140630e+001 3.535779e+001 3.810655e+001 3.632692e+001 2.178655e+000 2.485510e+000 2.735405e+000 2.610753e+000 3.009094e+000 2.761082e+000 3.102656e+000 3.864866e+000 3.151398e+000 2.517423e+000 2.528284e+000 2.193331e+000 3.970846e+000
<GCONST> 1.065311e+002
<TRANSP> 5
 0.000000e+000 1.000000e+000 0.000000e+000 0.000000e+000 0.000000e+000
 0.000000e+000 7.108465e-001 2.891535e-001 0.000000e+000 0.000000e+000
 0.000000e+000 0.000000e+000 7.108461e-001 2.891539e-001 0.000000e+000
 0.000000e+000 0.000000e+000 0.000000e+000 8.402737e-001 1.597262e-001
 0.000000e+000 0.000000e+000 0.000000e+000 0.000000e+000 0.000000e+000
<ENDHMM>
~h "z"
<BEGINHMM>
<NUMSTATES> 5
<STATE> 2
<MEAN> 25
 -9.236389e-001 6.247246e-001 2.724372e-001 6.888735e-001 5.517502e-001 -8.268762e-002 3.406847e-001 5.236661e-001 1.678493e-001 -1.687144e-001 1.694270e-001 5.033634e-001 -1.594232e-003 -5.208131e-003 -1.435079e-002 -8.238308e-003 1.582990e-002 1.648977e-002 3.070139e-003 -1.216129e-002 -2.667587e-003 -3.294573e-003 -1.217338e-002 -3.017303e-003 -2.777773e-002
<VARIANCE> 25
 5.818150e+001 5.734396e+001 6.118594e+001 5.686586e+001 5.779390e+001 4.808569e+001 5.848534e+001 6.022231e+001 4.938409e+001 3.245031e+001 3.633589e+001 3.078631e+001 2.288882e+000 2.515325e+000 2.283060e+000 2.745684e+000 2.818043e+000 2.684305e+000 3.024651e+000 3.610981e+000 2.804545e+000 2.355798e+000 2.305583e+000 1.973687e+000 3.270684e+000
<GCONST> 1.052987e+002
<STATE> 3
<MEAN> 25
 -9.310433e-001 6.100212e-001 2.232207e-001 6.640707e-001 6.053110e-001 -3.871402e-002 3.498974e-001 4.792352e-001 1.632624e-001 -1.787945e-001 1.409981e-001 4.955528e-001 -2.062409e-003 -4.601755e-003 -1.852055e-002 -6.090296e-003 1.404674e-002 1.215790e-002 3.812390e-003 -1.691988e-002 -1.624930e-003 -4.376606e-003 -1.063525e-002 -1.479543e-003 -3.521666e-002
<VARIANCE> 25
 5.814990e+001 5.686683e+001 6.083717e+001 5.675539e+001 5.747747e+001 4.800548e+001 5.870367e+001 6.012159e+001 4.923582e+001 3.249537e+001 3.645310e+001 3.041043e+001 2.267853e+000 2.488802e+000 2.275174e+000 2.749479e+000 2.810575e+000 2.687958e+000 3.012048e+000 3.602993e+000 2.797280e+000 2.353839e+000 2.288169e+000 1.958447e+000 3.249979e+000
<GCONST> 1.052116e+002
<STATE> 4
<MEAN> 25
 -9.011974e-001 5.742329e-001 1.979822e-001 6.347934e-001 6.434416e-001 -2.358173e-002 3.523355e-001 4.061225e-001 1.231292e-001 -1.318913e-001 1.442734e-001 5.161567e-001 -1.731676e-003 -3.134183e-003 -1.678490e-002 -1.037360e-003 1.082147e-002 5.793780e-003 4.816887e-003 -1.654516e-002 2.501905e-005 -5.496107e-003 -5.715495e-003 -5.852496e-004 -3.717608e-002
<VARIANCE> 25
 5.844162e+001 5.539981e+001 6.003422e+001 5.668338e+001 5.807494e+001 4.762697e+001 5.900434e+001 5.914500e+001 4.880075e+001 3.165742e+001 3.576475e+001 3.027133e+001 2.163108e+000 2.382942e+000 2.232873e+000 2.642837e+000 2.760604e+000 2.658408e+000 2.910610e+000 3.532798e+000 2.736275e+000 2.288765e+000 2.226202e+000 1.913735e+000 3.110793e+000
<GCONST> 1.047321e+002
<TRANSP> 5
 0.000000e+000 1.000000e+000 0.000000e+000 0.000000e+000 0.000000e+000
 0.000000e+000 7.179443e-001 2.820557e-001 0.000000e+000 0.000000e+000
 0.000000e+000 0.000000e+000 7.179431e-001 2.820569e-001 0.000000e+000
 0.000000e+000 0.000000e+000 0.000000e+000 8.470408e-001 1.529592e-001
 0.000000e+000 0.000000e+000 0.000000e+000 0.000000e+000 0.000000e+000
<ENDHMM>
~h "ai"
<BEGINHMM>
<NUMSTATES> 5
<STATE> 2
<MEAN> 25
 4.341092e-001 -2.521762e-001 7.919292e-001 -5.863539e-001 -5.852522e-001 -6.251318e-001 -5.528243e-001 4.200877e-001 -2.360697e-001 4.106544e-001 2.884799e-001 -3.078392e-001 1.049295e-002 1.225663e-003 3.391341e-004 -1.493932e-003 -3.463341e-003 2.023804e-002 -8.169765e-003 -5.299232e-003 8.871199e-003 2.508630e-003 3.507596e-003 -1.214392e-002 2.178232e-002
<VARIANCE> 25
 6.628169e+001 5.460433e+001 6.858529e+001 5.733471e+001 5.957846e+001 5.703281e+001 5.574961e+001 6.404496e+001 5.418103e+001 3.712484e+001 3.786366e+001 3.521926e+001 2.972494e+000 2.948330e+000 2.790110e+000 3.287057e+000 3.323506e+000 3.169802e+000 3.386514e+000 4.096601e+000 3.501450e+000 2.743531e+000 2.681910e+000 2.353406e+000 4.911729e+000
<GCONST> 1.085993e+002
<STATE> 3
<MEAN> 25
 4.713532e-001 -2.504338e-001 7.927015e-001 -5.952540e-001 -6.005458e-001 -5.612096e-001 -5.793325e-001 4.058124e-001 -2.097482e-001 4.200152e-001 2.981298e-001 -3.485568e-001 1.147190e-002 4.551839e-005 -1.584882e-003 -1.710115e-003 -3.908523e-003 2.153208e-002 -9.255264e-003 -5.374291e-003 8.929322e-003 9.137746e-004 3.370055e-003 -1.261229e-002 2.206979e-002
<VARIANCE> 25
 6.639664e+001 5.465105e+001 6.824035e+001 5.741633e+001 5.978337e+001 5.758661e+001 5.593386e+001 6.423705e+001 5.423518e+001 3.706867e+001 3.799390e+001 3.515036e+001 2.978589e+000 2.947689e+000 2.795038e+000 3.290229e+000 3.332716e+000 3.183289e+000 3.385950e+000 4.101893e+000 3.516945e+000 2.742646e+000 2.689910e+000 2.358899e+000 4.912932e+000
<GCONST> 1.086410e+002
<STATE> 4
<MEAN> 25
 5.311843e-001 -2.622859e-001 7.875271e-001 -6.273693e-001 -6.446247e-001 -4.970027e-001 -5.742562e-001 3.500600e-001 -1.500786e-001 4.071910e-001 2.518013e-001 -4.378436e-001 1.162413e-002 -1.037944e-003 -2.684530e-003 -3.353889e-003 -5.846240e-003 1.825633e-002 -8.931177e-003 -4.455960e-003 6.095853e-003 -1.004249e-003 3.470881e-003 -1.103678e-002 1.948263e-002
<VARIANCE> 25
 6.574592e+001 5.368970e+001 6.818372e+001 5.759507e+001 5.963603e+001 5.821327e+001 5.650347e+001 6.362450e+001 5.333719e+001 3.622718e+001 3.772623e+001 3.443399e+001 2.795486e+000 2.813940e+000 2.702654e+000 3.130548e+000 3.207654e+000 3.100621e+000 3.248063e+000 3.958785e+000 3.384878e+000 2.654047e+000 2.617772e+000 2.279985e+000 4.672741e+000
<GCONST> 1.080399e+002
<TRANSP> 5
 0.000000e+000 1.000000e+000 0.000000e+000 0.000000e+000 0.000000e+000
 0.000000e+000 7.098652e-001 2.901348e-001 0.000000e+000 0.000000e+000
 0.000000e+000 0.000000e+000 7.098638e-001 2.901362e-001 0.000000e+000
 0.000000e+000 0.000000e+000 0.000000e+000 8.394176e-001 1.605825e-001
 0.000000e+000 0.000000e+000 0.000000e+000 0.000000e+000 0.000000e+000
<ENDHMM>
~h "au"
<BEGINHMM>
<NUMSTATES> 5
<STATE> 2
<MEAN> 25
 -1.335566e+000 2.771953e-001 -1.428015e+000 -1.068824e+000 7.363205e-001 -1.669595e-001 7.664672e-001 -1.360886e+000 7.985958e-001 -1.187865e-001 1.927103e-001 7.548230e-001 -5.055345e-003 3.753426e-003 -7.927476e-003 -7.658599e-003 1.054457e-002 1.771347e-002 -4.270929e-003 7.919121e-003 9.669697e-003 7.497194e-003 1.545612e-003 -3.783750e-003 1.442135e-002
<VARIANCE> 25
 6.289191e+001 4.262925e+001 5.389400e+001 6.113909e+001 4.820382e+001 5.765624e+001 5.527474e+001 5.175484e+001 4.395868e+001 3.256500e+001 3.229626e+001 3.405985e+001 1.927886e+000 2.181343e+000 2.146377e+000 2.695303e+000 2.582072e+000 2.742633e+000 2.768936e+000 3.215196e+000 2.756603e+000 2.397743e+000 2.228274e+000 2.061548e+000 3.787994e+000
<GCONST> 1.041799e+002
<STATE> 3
<MEAN> 25
 -1.338795e+000 2.791024e-001 -1.458972e+000 -1.109442e+000 7.685359e-001 -9.288451e-002 7.459635e-001 -1.326153e+000 8.343250e-001 -8.377001e-002 1.956091e-001 7.323584e-001 -1.206147e-003 1.393716e-003 -7.360253e-003 -8.533506e-003 9.348363e-003 1.980639e-002 -7.452271e-003 1.085305e-002 9.007250e-003 8.471675e-003 3.655043e-004 -6.385521e-003 2.570683e-002
<VARIANCE> 25
 6.321324e+001 4.251163e+001 5.357486e+001 6.156340e+001 4.856550e+001 5.779453e+001 5.569331e+001 5.144621e+001 4.427393e+001 3.255855e+001 3.234791e+001 3.425404e+001 1.951610e+000 2.199496e+000 2.159851e+000 2.694263e+000 2.608281e+000 2.754622e+000 2.788827e+000 3.203897e+000 2.759266e+000 2.404652e+000 2.245282e+000 2.065849e+000 3.875621e+000
<GCONST> 1.042898e+002
<STATE> 4
<MEAN> 25
 -1.233860e+000 2.351691e-001 -1.461203e+000 -1.176377e+000 7.707492e-001 5.428452e-002 6.634672e-001 -1.244756e+000 8.770711e-001 4.336955e-003 1.500518e-001 6.591541e-001 8.815194e-003 -5.031429e-003 -8.327478e-003 -1.427730e-002 5.184864e-003 2.490664e-002 -1.169061e-002 1.349416e-002 7.425563e-003 8.703237e-003 -2.912860e-003 -1.352339e-002 5.033647e-002
<VARIANCE> 25
 6.434708e+001 4.194048e+001 5.313582e+001 6.213091e+001 4.995170e+001 5.893884e+001 5.657374e+001 5.111855e+001 4.408096e+001 3.173765e+001 3.187728e+001 3.503704e+001 1.918704e+000 2.160033e+000 2.117130e+000 2.586097e+000 2.603440e+000 2.728790e+000 2.751985e+000 3.153046e+000 2.698715e+000 2.368173e+000 2.209986e+000 2.046462e+000 3.875723e+000
<GCONST> 1.041307e+002
<TRANSP> 5
 0.000000e+000 1.000000e+000 0.000000e+000 0.000000e+000 0.000000e+000
 0.000000e+000 7.199236e-001 2.800764e-001 0.000000e+000 0.000000e+000
 0.000000e+000 0.000000e+000 7.199227e-001 2.800773e-001 0.000000e+000
 0.000000e+000 0.000000e+000 0.000000e+000 8.489291e-001 1.510709e-001
 0.000000e+000 0.000000e+000 0.000000e+000 0.000000e+000 0.000000e+000
<ENDHMM>
~h "kh"
<BEGINHMM>
<NUMSTATES> 5
<STATE> 2
<MEAN> 25
 -9.686355e-001 -3.563134e-001 -9.663864e-001 -1.623829e-001 3.601621e-001 3.274921e-001 4.864032e-001 -1.161133e-002 2.824257e-001 -2.527303e-001 3.394714e-001 3.503066e-001 -9.645372e-003 1.180782e-003 -8.109788e-003 -1.362841e-003 1.113681e-002 1.419398e-002 -3.822648e-003 2.338707e-003 4.158409e-003 -1.344718e-003 2.433669e-003 -3.268817e-003 2.580543e-002
<VARIANCE> 25
 6.604927e+001 5.496723e+001 6.908839e+001 5.693197e+001 6.185695e+001 5.697440e+001 6.111338e+001 5.509999e+001 4.903924e+001 3.550417e+001 3.514158e+001 3.258809e+001 2.961384e+000 2.693929e+000 2.712317e+000 2.953727e+000 3.275228e+000 3.041692e+000 3.440634e+000 3.535108e+000 3.103270e+000 2.692332e+000 2.403597e+000 2.137048e+000 4.545047e+000
<GCONST> 1.074442e+002
<STATE> 3
<MEAN> 25
 -9.989410e-001 -3.432473e-001 -9.785896e-001 -1.593568e-001 3.851335e-001 3.545919e-001 4.810314e-001 -7.233615e-003 2.849807e-001 -2.593134e-001 3.482616e-001 3.427221e-001 -9.875481e-003 2.096022e-003 -5.830960e-003 -4.102718e-004 1.031367e-002 1.049415e-002 -3.555473e-003 -3.388273e-004 1.265206e-003 7.267203e-005 1.294195e-003 -4.309531e-003 2.405618e-002
<VARIANCE> 25
 6.686620e+001 5.488158e+001 6.924167e+001 5.704455e+001 6.226659e+001 5.688585e+001 6.123925e+001 5.508075e+001 4.907655e+001 3.562984e+001 3.501055e+001 3.266864e+001 2.997018e+000 2.685577e+000 2.715449e+000 2.972452e+000 3.289245e+000 3.034804e+000 3.448258e+000 3.519629e+000 3.117121e+000 2.703132e+000 2.410214e+000 2.152465e+000 4.485494e+000
<GCONST> 1.074903e+002
<STATE> 4
<MEAN> 25
 -9.625206e-001 -3.678518e-001 -8.254653e-001 -9.040114e-002 3.416018e-001 2.922561e-001 4.905938e-001 -4.155980e-002 2.297087e-001 -2.207557e-001 3.069856e-001 3.396243e-001 -5.568999e-003 7.475620e-003 1.502525e-003 3.573719e-003 5.889456e-003 2.022754e-003 -2.308236e-003 -2.702160e-003 -2.657038e-003 1.321724e-003 2.222200e-003 -4.278073e-003 1.892921e-002
<VARIANCE> 25
 6.811948e+001 5.418802e+001 7.117594e+001 5.765575e+001 6.311860e+001 5.673277e+001 6.169343e+001 5.452874e+001 4.906594e+001 3.480796e+001 3.442869e+001 3.225982e+001 2.924161e+000 2.580330e+000 2.688605e+000 2.884746e+000 3.196340e+000 2.947951e+000 3.354305e+000 3.441457e+000 3.081807e+000 2.627731e+000 2.366648e+000 2.102965e+000 4.291094e+000
<GCONST> 1.071519e+002
<TRANSP> 5
 0.000000e+000 1.000000e+000 0.000000e+000 0.000000e+000 0.000000e+000
 0.000000e+000 7.122424e-001 2.877576e-001 0.000000e+000 0.000000e+000
 0.000000e+000 0.000000e+000 7.122422e-001 2.877578e-001 0.000000e+000
 0.000000e+000 0.000000e+000 0.000000e+000 8.415655e-001 1.584344e-001
 0.000000e+000 0.000000e+000 0.000000e+000 0.000000e+000 0.000000e+000
<ENDHMM>
~h "ng"
<BEGINHMM>
<NUMSTATES> 5
<STATE> 2
<MEAN> 25
 8.963011e-001 -1.236745e-001 3.529440e-001 -3.731762e-001 -3.283224e-001 3.579632e-001 -3.760574e-001 -1.811367e-001 -4.829639e-001 2.433674e-001 -3.796517e-001 -4.524429e-001 6.846706e-003 1.264441e-003 7.606755e-003 -3.220695e-003 -6.506941e-003 2.956878e-003 -2.336723e-003 -1.991306e-003 -6.944282e-003 3.301536e-003 -4.020365e-003 -2.545038e-003 1.374261e-002
<VARIANCE> 25
 5.691468e+001 5.007049e+001 6.113362e+001 5.774936e+001 5.948515e+001 5.218031e+001 5.869323e+001 6.449913e+001 5.376604e+001 3.761661e+001 3.977818e+001 3.574558e+001 2.369334e+000 2.620260e+000 2.775088e+000 3.118014e+000 3.230276e+000 2.928134e+000 3.412642e+000 4.238473e+000 3.382725e+000 2.706647e+000 2.713142e+000 2.346148e+000 4.605386e+000
<GCONST> 1.077172e+002
<STATE> 3
<MEAN> 25
 9.200171e-001 -1.220616e-001 3.744873e-001 -3.869011e-001 -3.502706e-001 3.698903e-001 -3.852068e-001 -1.892802e-001 -5.037767e-001 2.536386e-001 -3.929088e-001 -4.645181e-001 5.864237e-003 8.405778e-004 5.274206e-003 -4.699408e-003 -6.621199e-003 2.805846e-003 -1.938991e-003 -1.902169e-003 -5.501779e-003 3.090356e-003 -3.269380e-003 -3.134619e-003 1.436467e-002
<VARIANCE> 25
 5.677139e+001 5.005524e+001 6.126316e+001 5.771378e+001 5.960261e+001 5.207917e+001 5.856504e+001 6.461507e+001 5.381735e+001 3.766686e+001 3.975318e+001 3.572920e+001 2.366266e+000 2.621827e+000 2.779684e+000 3.118826e+000 3.236660e+000 2.927827e+000 3.411198e+000 4.251652e+000 3.380851e+000 2.705873e+000 2.714135e+000 2.347713e+000 4.607142e+000
<GCONST> 1.077231e+002
<STATE> 4
<MEAN> 25
 9.636289e-001 -1.525899e-001 3.880006e-001 -4.509106e-001 -3.748215e-001 3.984849e-001 -4.234634e-001 -1.982975e-001 -4.892755e-001 2.501060e-001 -3.886344e-001 -5.003284e-001 5.244511e-003 -2.164315e-004 2.009117e-003 -6.235398e-003 -6.674303e-003 2.426827e-003 -1.987495e-003 -2.507452e-003 -3.551984e-003 2.164569e-003 -3.056112e-003 -4.174116e-003 1.694578e-002
<VARIANCE> 25
 5.705585e+001 4.985310e+001 6.123002e+001 5.791688e+001 5.993913e+001 5.219883e+001 5.871950e+001 6.342799e+001 5.332102e+001 3.673952e+001 3.915581e+001 3.544765e+001 2.299859e+000 2.547876e+000 2.716945e+000 3.003748e+000 3.170920e+000 2.866917e+000 3.322069e+000 4.121855e+000 3.306035e+000 2.629423e+000 2.648133e+000 2.294479e+000 4.496874e+000
<GCONST> 1.073224e+002
<TRANSP> 5
 0.000000e+000 1.000000e+000 0.000000e+000 0.000000e+000 0.000000e+000
 0.000000e+000 7.041313e-001 2.958688e-001 0.000000e+000 0.000000e+000
 0.000000e+000 0.000000e+000 7.041356e-001 2.958644e-001 0.000000e+000
 0.000000e+000 0.000000e+000 0.000000e+000 8.310174e-001 1.689826e-001
 0.000000e+000 0.000000e+000 0.000000e+000 0.000000e+000 0.000000e+000
<ENDHMM>
~h "ny"
<BEGINHMM>
<NUMSTATES> 5
<STATE> 2
<MEAN> 25
 1.785074e-001 -7.408472e-002 2.999783e-001 4.185402e-001 2.739922e-001 -2.488639e-001 3.599234e-001 8.276512e-001 -5.164324e-001 -4.563512e-001 -3.517331e-001 7.259423e-002 -2.598694e-003 1.333588e-003 -9.082998e-003 7.181428e-003 7.046572e-003 1.361817e-003 8.427662e-003 -1.041540e-002 -5.268588e-003 -3.931712e-003 -2.837869e-003 5.673477e-004 -1.901924e-002
<VARIANCE> 25
 5.202171e+001 5.030896e+001 5.633644e+001 5.089005e+001 5.761583e+001 4.421362e+001 5.472121e+001 6.813979e+001 5.030403e+001 3.727022e+001 3.679804e+001 3.265707e+001 2.141084e+000 2.599164e+000 2.536860e+000 2.899108e+000 2.923625e+000 2.705962e+000 3.097714e+000 4.219305e+000 3.151208e+000 2.656842e+000 2.566508e+000 2.141560e+000 4.264923e+000
<GCONST> 1.061021e+002
<STATE> 3
<MEAN> 25
 1.689061e-001 -7.308130e-002 2.667145e-001 4.416558e-001 3.029490e-001 -2.414833e-001 3.878868e-001 7.909802e-001 -5.368211e-001 -4.670504e-001 -3.613354e-001 7.366361e-002 -4.213450e-003 3.231083e-003 -9.102881e-003 4.736642e-003 4.685905e-003 8.164793e-004 7.091328e-003 -1.394639e-002 -3.463181e-003 -9.874050e-004 -8.261029e-004 -5.060388e-004 -2.171141e-002
<VARIANCE> 25
 5.177810e+001 5.029458e+001 5.616549e+001 5.091765e+001 5.778252e+001 4.403425e+001 5.457082e+001 6.780771e+001 5.013713e+001 3.731238e+001 3.676829e+001 3.284613e+001 2.121124e+000 2.591470e+000 2.525568e+000 2.891793e+000 2.915174e+000 2.700783e+000 3.092288e+000 4.198510e+000 3.142230e+000 2.650016e+000 2.565950e+000 2.139181e+000 4.246752e+000
<GCONST> 1.060467e+002
<STATE> 4
<MEAN> 25
 1.582373e-001 -7.647491e-002 2.091826e-001 4.200633e-001 3.268444e-001 -2.287697e-001 3.967236e-001 7.161394e-001 -5.500278e-001 -4.113646e-001 -3.800731e-001 4.582484e-002 -6.285225e-003 2.786831e-003 -9.200564e-003 7.441337e-004 2.412896e-003 8.054450e-004 5.472721e-003 -1.625073e-002 -1.646821e-003 1.079895e-003 5.690921e-004 -1.326306e-003 -2.126808e-002
<VARIANCE> 25
 5.220650e+001 4.989291e+001 5.615935e+001 5.108584e+001 5.782042e+001 4.368438e+001 5.430931e+001 6.627558e+001 4.977801e+001 3.650904e+001 3.613412e+001 3.299996e+001 2.026956e+000 2.492658e+000 2.444550e+000 2.760143e+000 2.821733e+000 2.639034e+000 2.977532e+000 4.043951e+000 3.071643e+000 2.578351e+000 2.501925e+000 2.091372e+000 4.081141e+000
<GCONST> 1.055412e+002
<TRANSP> 5
 0.000000e+000 1.000000e+000 0.000000e+000 0.000000e+000 0.000000e+000
 0.000000e+000 7.085299e-001 2.914701e-001 0.000000e+000 0.000000e+000
 0.000000e+000 0.000000e+000 7.085319e-001 2.914681e-001 0.000000e+000
 0.000000e+000 0.000000e+000 0.000000e+000 8.364093e-001 1.635907e-001
 0.000000e+000 0.000000e+000 0.000000e+000 0.000000e+000 0.000000e+000
<ENDHMM>
~h "oi"
<BEGINHMM>
<NUMSTATES> 5
<STATE> 2
<MEAN> 25
 -1.259451e+000 -2.523054e-001 -1.009582e+000 4.290942e-001 -1.409026e-001 2.946932e-001 7.865093e-001 6.150379e-002 6.032924e-002 -1.582969e-001 8.424013e-001 9.733461e-001 -9.922265e-003 -1.103965e-002 3.897167e-003 5.530717e-003 -8.776817e-003 -1.673136e-002 -1.203281e-002 -1.910456e-002 6.610570e-003 -5.899042e-003 -2.553791e-002 -5.188584e-004 3.108118e-002
<VARIANCE> 25
 5.957050e+001 3.926999e+001 6.370437e+001 7.536573e+001 6.088030e+001 5.944995e+001 6.995756e+001 5.754077e+001 5.013675e+001 3.750328e+001 3.685393e+001 3.296003e+001 1.942207e+000 2.222574e+000 2.629805e+000 3.379882e+000 2.939444e+000 3.402141e+000 2.986557e+000 3.543510e+000 3.352737e+000 2.756151e+000 2.514075e+000 2.282103e+000 3.614336e+000
<GCONST> 1.068817e+002
<STATE> 3
<MEAN> 25
 -1.292444e+000 -2.775114e-001 -9.996194e-001 4.503323e-001 -1.659574e-001 2.390310e-001 7.689190e-001 2.723727e-003 9.622752e-002 -1.814391e-001 7.601019e-001 9.696461e-001 -3.040553e-003 -8.385967e-003 4.622040e-003 -8.495350e-004 -6.683404e-003 -1.593788e-002 -1.321937e-002 -1.339623e-002 6.856414e-003 -5.334527e-003 -2.796769e-002 -3.896216e-003 2.895927e-002
<VARIANCE> 25
 6.037767e+001 3.901453e+001 6.424242e+001 7.499410e+001 6.123275e+001 5.957524e+001 7.050788e+001 5.786222e+001 5.044205e+001 3.728942e+001 3.676890e+001 3.285355e+001 1.994538e+000 2.249121e+000 2.611032e+000 3.375479e+000 2.919762e+000 3.437622e+000 3.036339e+000 3.554913e+000 3.387017e+000 2.750077e+000 2.524170e+000 2.292215e+000 3.597749e+000
<GCONST> 1.069733e+002
<STATE> 4
<MEAN> 25
 -1.664325e+000 -2.014862e-001 -1.079121e+000 6.229045e-001 2.701385e-001 1.924149e-001 1.210889e+000 2.038901e-001 1.962528e-001 -1.099859e-001 6.681349e-001 1.174585e+000 -8.122046e-004 -2.222289e-003 8.038722e-003 -5.374558e-003 -7.394968e-003 -1.620780e-002 -8.224705e-003 -1.005937e-002 9.378566e-003 -5.481308e-004 -2.295993e-002 -4.349023e-003 1.615700e-002
<VARIANCE> 25
 6.305385e+001 3.800169e+001 6.155037e+001 7.527363e+001 6.116563e+001 5.927590e+001 7.037307e+001 5.709554e+001 4.865487e+001 3.643390e+001 3.459516e+001 3.260678e+001 1.862906e+000 2.183872e+000 2.436072e+000 3.188692e+000 2.753798e+000 3.366524e+000 2.889241e+000 3.468558e+000 3.275485e+000 2.685449e+000 2.399160e+000 2.231880e+000 3.284604e+000
<GCONST> 1.061987e+002
<TRANSP> 5
 0.000000e+000 1.000000e+000 0.000000e+000 0.000000e+000 0.000000e+000
 0.000000e+000 7.157727e-001 2.842273e-001 0.000000e+000 0.000000e+000
 0.000000e+000 0.000000e+000 7.157729e-001 2.842271e-001 0.000000e+000
 0.000000e+000 0.000000e+000 0.000000e+000 8.437508e-001 1.562493e-001
 0.000000e+000 0.000000e+000 0.000000e+000 0.000000e+000 0.000000e+000
<ENDHMM>
~h "sy"
<BEGINHMM>
<NUMSTATES> 5
<STATE> 2
<MEAN> 25
 -1.551869e+000 -7.002627e-003 7.243626e-001 5.062981e-002 -3.844667e-001 -3.545411e-001 5.699164e-001 5.359097e-001 -1.590972e-001 -4.645536e-001 6.454620e-001 5.660890e-001 -5.563534e-003 -1.259094e-003 -1.923561e-003 -4.930467e-003 7.080076e-003 1.121802e-002 5.266824e-003 -4.664577e-003 1.207054e-002 7.348527e-003 8.284387e-004 -4.617590e-005 2.679039e-003
<VARIANCE> 25
 8.248889e+001 4.940586e+001 6.824506e+001 5.380014e+001 5.744843e+001 4.680767e+001 5.778431e+001 5.457391e+001 5.534926e+001 3.325237e+001 3.392639e+001 3.224912e+001 3.577214e+000 2.565446e+000 2.697767e+000 2.741117e+000 3.006185e+000 2.899162e+000 3.211339e+000 3.436400e+000 3.209075e+000 2.384482e+000 2.370948e+000 2.064940e+000 3.522568e+000
<GCONST> 1.066030e+002
<STATE> 3
<MEAN> 25
 -1.569872e+000 -5.997928e-003 7.148367e-001 3.992657e-002 -3.591360e-001 -3.156480e-001 5.845338e-001 5.224820e-001 -1.163242e-001 -4.329301e-001 6.538415e-001 5.669767e-001 -4.140344e-003 -9.108158e-004 -5.424342e-003 -3.929584e-003 8.960808e-003 1.032951e-002 1.442999e-003 -5.862433e-003 1.354329e-002 8.970603e-003 1.799907e-003 5.910490e-004 -1.834657e-003
<VARIANCE> 25
 8.262377e+001 4.916961e+001 6.808678e+001 5.345518e+001 5.743435e+001 4.660421e+001 5.753933e+001 5.451910e+001 5.563555e+001 3.324343e+001 3.409005e+001 3.198668e+001 3.596310e+000 2.544497e+000 2.686477e+000 2.740268e+000 3.001513e+000 2.900646e+000 3.215331e+000 3.430938e+000 3.229836e+000 2.385023e+000 2.370057e+000 2.054319e+000 3.489071e+000
<GCONST> 1.065656e+002
<STATE> 4
<MEAN> 25
 -1.481334e+000 9.151763e-002 7.087379e-001 1.002400e-001 -3.022256e-001 -2.647792e-001 5.941120e-001 5.313491e-001 -1.365730e-001 -3.151020e-001 6.895962e-001 5.864918e-001 -1.726368e-003 1.177771e-003 -7.164312e-003 -7.314391e-004 1.000933e-002 8.298321e-003 -9.767525e-004 -3.788010e-003 1.130010e-002 9.478586e-003 2.004937e-003 1.140699e-003 -8.490238e-003
<VARIANCE> 25
 8.044848e+001 4.851688e+001 6.808977e+001 5.346146e+001 5.670445e+001 4.613819e+001 5.736602e+001 5.387734e+001 5.461003e+001 3.247376e+001 3.355061e+001 3.149970e+001 3.385507e+000 2.417066e+000 2.592774e+000 2.642424e+000 2.880507e+000 2.840813e+000 3.085478e+000 3.332559e+000 3.128831e+000 2.329925e+000 2.309478e+000 1.993985e+000 3.311131e+000
<GCONST> 1.059355e+002
<TRANSP> 5
 0.000000e+000 1.000000e+000 0.000000e+000 0.000000e+000 0.000000e+000
 0.000000e+000 7.187653e-001 2.812347e-001 0.000000e+000 0.000000e+000
 0.000000e+000 0.000000e+000 7.187666e-001 2.812333e-001 0.000000e+000
 0.000000e+000 0.000000e+000 0.000000e+000 8.476425e-001 1.523575e-001
 0.000000e+000 0.000000e+000 0.000000e+000 0.000000e+000 0.000000e+000
<ENDHMM>
~h "sil"
<BEGINHMM>
<NUMSTATES> 5
<STATE> 2
<MEAN> 25
 -6.292641e+000 1.897178e+000 -2.246226e+000 4.091871e+000 3.483112e+000 1.289327e+000 5.985503e+000 1.607272e+000 1.292453e+000 2.423533e-002 7.560157e-001 1.711544e+000 6.215160e-001 2.999609e-001 -2.643775e-001 -2.192811e-001 -8.054977e-002 -1.297117e+000 -7.958481e-001 -7.871130e-001 -2.387477e-001 -5.578344e-001 -1.327710e-001 6.491973e-001 -3.194569e+000
<VARIANCE> 25
 2.073720e+001 1.640944e+001 1.593201e+001 1.963991e+001 1.818504e+001 4.660669e+001 3.376423e+001 4.023314e+001 2.351380e+001 2.549588e+001 2.049738e+001 2.197419e+001 1.675097e+000 1.017410e+000 9.212279e-001 1.205668e+000 1.175789e+000 5.230424e+000 2.844165e+000 3.603973e+000 1.683501e+000 2.274956e+000 1.865386e+000 2.224504e+000 2.390656e+001
<GCONST> 9.470716e+001
<STATE> 3
<MEAN> 25
 -5.331523e+000 2.371062e+000 -2.724532e+000 3.695926e+000 3.310600e+000 -9.123043e-001 4.666777e+000 3.037132e-001 9.207093e-001 -9.027343e-001 5.687075e-001 2.759487e+000 1.564863e-001 7.727883e-002 -8.574367e-002 -8.042054e-002 -3.964040e-002 -3.892650e-001 -2.313110e-001 -2.224891e-001 -6.099450e-002 -1.586111e-001 -2.418670e-002 1.733974e-001 -8.458621e-001
<VARIANCE> 25
 1.270994e+001 1.609559e+001 1.524320e+001 1.988947e+001 1.850108e+001 2.308844e+001 2.514969e+001 2.954186e+001 2.323166e+001 2.168215e+001 1.810052e+001 1.751107e+001 8.241289e-001 7.301791e-001 7.570860e-001 1.073800e+000 1.090002e+000 2.626158e+000 1.863819e+000 2.307023e+000 1.557429e+000 1.768608e+000 1.492548e+000 1.613604e+000 9.020876e+000
<GCONST> 8.751781e+001
<STATE> 4
<MEAN> 25
 -5.278366e+000 2.332569e+000 -2.753848e+000 3.519489e+000 3.271422e+000 -1.040070e+000 4.521949e+000 3.560436e-001 7.629277e-001 -8.103634e-001 5.517716e-001 2.653071e+000 -7.664303e-003 -1.565658e-003 -1.957650e-002 -2.775733e-002 -2.335312e-002 -4.383945e-002 -2.791011e-002 -2.464719e-002 -1.686178e-003 -1.643966e-002 5.988136e-003 -4.742308e-003 4.463900e-002
<VARIANCE> 25
 1.345842e+001 1.587641e+001 1.527312e+001 2.047029e+001 1.845705e+001 2.329124e+001 2.515268e+001 2.913298e+001 2.278231e+001 2.134426e+001 1.792226e+001 1.807733e+001 5.286360e-001 6.418353e-001 7.059140e-001 1.050617e+000 1.096550e+000 1.525076e+000 1.457878e+000 1.794507e+000 1.546139e+000 1.609167e+000 1.432199e+000 1.389881e+000 2.575104e+000
<GCONST> 8.432623e+001
<TRANSP> 5
 0.000000e+000 1.000000e+000 0.000000e+000 0.000000e+000 0.000000e+000
 0.000000e+000 7.133256e-001 2.866744e-001 0.000000e+000 0.000000e+000
 0.000000e+000 0.000000e+000 7.133242e-001 2.866757e-001 0.000000e+000
 0.000000e+000 0.000000e+000 0.000000e+000 8.448203e-001 1.551798e-001
 0.000000e+000 0.000000e+000 0.000000e+000 0.000000e+000 0.000000e+000
<ENDHMM>
