~o
<STREAMINFO> 1 25
<VECSIZE> 25<NULLD><MFCC_D_N_Z_0><DIAGC>
~h "@"
<BEGINHMM>
<NUMSTATES> 5
<STATE> 2
<MEAN> 25
 2.737449e+000 -9.899951e-001 2.626534e-001 -4.822807e-001 -1.583784e+000 -1.654520e+000 -3.504374e+000 -7.089734e-001 5.825286e-001 1.980527e+000 2.945398e-001 -9.437980e-001 6.764538e-001 -2.898259e-001 1.526991e-001 -2.826548e-001 -3.671240e-001 1.419791e-001 -5.226673e-001 1.345613e-001 7.511935e-002 3.546357e-001 1.364324e-001 -2.870653e-001 7.815866e-001
<VARIANCE> 25
 4.147047e+001 3.921972e+001 4.393248e+001 4.913007e+001 4.969221e+001 5.681864e+001 7.469547e+001 6.242510e+001 5.850611e+001 3.841605e+001 3.658727e+001 3.348555e+001 4.221455e+000 3.630330e+000 3.552949e+000 4.749167e+000 4.105377e+000 4.099145e+000 6.175471e+000 5.971544e+000 5.098744e+000 3.552228e+000 3.570871e+000 3.110373e+000 8.971596e+000
<GCONST> 1.117238e+002
<STATE> 3
<MEAN> 25
 3.818709e+000 -1.338914e+000 6.525292e-001 -8.627288e-001 -2.186485e+000 -1.291686e+000 -4.198067e+000 -5.502241e-001 4.579873e-001 2.538774e+000 5.157352e-001 -1.415245e+000 4.704274e-001 -7.432587e-002 2.293757e-001 -9.052452e-002 -2.561395e-001 2.017874e-001 -1.862821e-001 -1.525209e-002 -9.400460e-002 1.840761e-001 4.392406e-002 -1.713101e-001 3.109452e-001
<VARIANCE> 25
 3.510135e+001 3.933608e+001 4.294580e+001 5.168350e+001 4.900503e+001 5.745300e+001 7.593407e+001 6.585674e+001 5.926707e+001 4.037254e+001 3.860178e+001 3.413805e+001 3.143316e+000 3.450180e+000 3.217031e+000 4.757297e+000 3.892349e+000 3.950104e+000 5.900781e+000 5.988697e+000 5.087973e+000 3.609755e+000 3.611219e+000 3.090734e+000 8.281262e+000
<GCONST> 1.111531e+002
<STATE> 4
<MEAN> 25
 4.269295e+000 -1.189253e+000 1.248012e+000 -6.216370e-001 -2.724194e+000 -1.047594e+000 -4.371343e+000 -5.173371e-001 2.087994e-001 2.664066e+000 5.664107e-001 -1.637018e+000 1.358438e-001 1.400770e-001 1.989279e-001 1.526400e-001 -1.569187e-002 1.575402e-001 1.899588e-001 -1.997736e-001 -1.699615e-001 -4.626364e-002 -7.120828e-002 3.423325e-002 -2.085223e-001
<VARIANCE> 25
 3.242132e+001 3.966014e+001 4.220917e+001 5.111277e+001 4.993575e+001 5.599050e+001 8.218842e+001 6.825194e+001 5.920834e+001 4.207600e+001 3.928314e+001 3.494262e+001 2.107917e+000 2.666964e+000 2.545186e+000 3.568508e+000 3.198114e+000 3.159564e+000 4.287221e+000 4.756717e+000 4.003039e+000 3.015301e+000 2.980806e+000 2.537450e+000 5.333388e+000
<GCONST> 1.078452e+002
<TRANSP> 5
 0.000000e+000 1.000000e+000 0.000000e+000 0.000000e+000 0.000000e+000
 0.000000e+000 5.031816e-001 4.968184e-001 0.000000e+000 0.000000e+000
 0.000000e+000 0.000000e+000 5.079343e-001 4.920657e-001 0.000000e+000
 0.000000e+000 0.000000e+000 0.000000e+000 6.120984e-001 3.879016e-001
 0.000000e+000 0.000000e+000 0.000000e+000 0.000000e+000 0.000000e+000
<ENDHMM>
~h "a"
<BEGINHMM>
<NUMSTATES> 5
<STATE> 2
<MEAN> 25
 3.563016e+000 -7.811485e+000 -3.765158e+000 -5.082191e+000 7.402773e-001 2.317319e+000 -2.380779e+000 4.555291e+000 3.944454e+000 3.292575e-003 -3.363588e+000 -4.336182e+000 2.107194e-001 -6.133915e-001 -3.144455e-001 -1.803833e-001 3.290085e-001 3.788316e-001 1.141299e-001 3.949226e-001 2.500820e-001 -1.872230e-001 -5.075970e-001 -4.260847e-001 4.129189e-001
<VARIANCE> 25
 2.182553e+001 4.294409e+001 3.504466e+001 3.993801e+001 4.713080e+001 5.841927e+001 4.224463e+001 6.101508e+001 4.093184e+001 3.879678e+001 4.067101e+001 3.685597e+001 1.861354e+000 3.400440e+000 2.361488e+000 3.019803e+000 3.011441e+000 3.626791e+000 3.131790e+000 4.496883e+000 3.040711e+000 2.789395e+000 3.059132e+000 2.884338e+000 5.408965e+000
<GCONST> 1.053407e+002
<STATE> 3
<MEAN> 25
 3.784088e+000 -8.279543e+000 -4.026881e+000 -4.904994e+000 1.409919e+000 2.751925e+000 -1.986617e+000 4.696352e+000 4.041919e+000 -3.235872e-001 -4.057027e+000 -4.702489e+000 7.621418e-002 6.098650e-002 3.799228e-002 1.716713e-001 1.722504e-001 3.095856e-002 1.555313e-001 -4.930362e-002 -4.073206e-002 -6.210380e-002 -1.717227e-001 -3.793926e-002 -3.175337e-001
<VARIANCE> 25
 1.914854e+001 4.165159e+001 3.195335e+001 3.779437e+001 4.335322e+001 5.302571e+001 3.960248e+001 5.804927e+001 3.892321e+001 3.849103e+001 3.847364e+001 3.578930e+001 1.310550e+000 3.046947e+000 2.021710e+000 2.560487e+000 2.585468e+000 3.268155e+000 2.707837e+000 3.957291e+000 2.653611e+000 2.569461e+000 2.677042e+000 2.506789e+000 5.121421e+000
<GCONST> 1.027362e+002
<STATE> 4
<MEAN> 25
 3.188348e+000 -6.911192e+000 -3.754155e+000 -3.649520e+000 1.948611e+000 2.578897e+000 -1.317484e+000 3.954758e+000 3.513512e+000 -5.620584e-001 -4.033261e+000 -4.090983e+000 -3.562906e-002 6.097002e-001 3.219936e-001 3.781545e-001 -4.439762e-002 -2.675104e-001 1.116228e-001 -3.021173e-001 -2.406926e-001 1.191065e-001 1.558503e-001 2.569698e-001 -8.499395e-001
<VARIANCE> 25
 2.275246e+001 4.670664e+001 3.233257e+001 4.115395e+001 4.183527e+001 4.933655e+001 3.978076e+001 5.389711e+001 3.762954e+001 3.462902e+001 3.544356e+001 3.644157e+001 1.125450e+000 2.321651e+000 1.766428e+000 2.105394e+000 2.196529e+000 2.562128e+000 2.451478e+000 3.376943e+000 2.423690e+000 2.263402e+000 2.231808e+000 2.016679e+000 3.413469e+000
<GCONST> 1.002973e+002
<TRANSP> 5
 0.000000e+000 1.000000e+000 0.000000e+000 0.000000e+000 0.000000e+000
 0.000000e+000 5.823885e-001 4.176115e-001 0.000000e+000 0.000000e+000
 0.000000e+000 0.000000e+000 5.833763e-001 4.166236e-001 0.000000e+000
 0.000000e+000 0.000000e+000 0.000000e+000 7.494893e-001 2.505106e-001
 0.000000e+000 0.000000e+000 0.000000e+000 0.000000e+000 0.000000e+000
<ENDHMM>
~h "b"
<BEGINHMM>
<NUMSTATES> 5
<STATE> 2
<MEAN> 25
 7.491193e+000 4.179852e+000 2.826584e+000 8.785738e-001 5.611145e-002 3.924889e+000 -7.010810e-001 -4.866624e+000 -2.988293e+000 3.067595e-001 1.158484e+000 -1.209265e+000 3.801280e-001 5.054582e-001 -4.283024e-002 9.598657e-002 2.687865e-001 2.381947e-001 1.286028e-001 -2.433465e-001 8.042069e-002 2.878815e-002 2.484444e-001 -2.703022e-002 -2.230991e-001
<VARIANCE> 25
 3.299615e+001 5.398888e+001 3.916714e+001 5.621640e+001 4.168333e+001 4.669439e+001 5.451595e+001 5.171302e+001 5.323748e+001 3.466886e+001 3.866488e+001 2.931990e+001 2.277282e+000 5.211709e+000 3.437702e+000 5.291668e+000 3.891062e+000 3.492167e+000 5.484241e+000 4.520423e+000 5.032710e+000 3.427591e+000 3.570567e+000 2.684092e+000 1.007779e+001
<GCONST> 1.098136e+002
<STATE> 3
<MEAN> 25
 7.877964e+000 4.387939e+000 2.327208e+000 3.030773e-001 7.664695e-002 4.214884e+000 -1.003304e+000 -4.936508e+000 -2.252959e+000 5.766104e-001 1.798864e+000 -1.412010e+000 -7.022242e-002 -3.348906e-001 -3.199802e-001 -4.082362e-001 -1.709972e-001 1.061300e-002 -3.544616e-001 2.619537e-001 5.392747e-001 1.629554e-001 1.498470e-001 -1.819048e-001 8.292983e-001
<VARIANCE> 25
 2.840901e+001 5.694534e+001 3.853815e+001 6.067170e+001 4.224466e+001 4.712652e+001 5.280854e+001 4.614442e+001 5.337036e+001 3.581227e+001 4.054847e+001 2.940974e+001 2.173090e+000 6.452209e+000 3.651721e+000 6.210309e+000 4.285394e+000 3.849058e+000 6.117166e+000 4.934865e+000 5.834124e+000 3.895081e+000 4.083210e+000 3.312326e+000 1.118216e+001
<GCONST> 1.112417e+002
<STATE> 4
<MEAN> 25
 7.248685e+000 3.204212e+000 1.691672e+000 -7.631789e-001 -9.405090e-001 4.118810e+000 -2.080815e+000 -3.775186e+000 -9.961420e-001 6.369044e-001 1.744740e+000 -2.001104e+000 -3.827114e-001 -6.116812e-001 -2.502098e-001 -2.704413e-001 -2.910710e-001 -2.670146e-001 -3.273473e-001 4.811672e-001 4.827016e-001 1.223998e-003 -5.662901e-002 -6.818751e-002 9.643244e-001
<VARIANCE> 25
 2.770244e+001 6.890320e+001 4.541848e+001 6.682377e+001 5.028632e+001 5.491465e+001 5.670039e+001 5.032797e+001 6.056688e+001 3.815660e+001 4.420325e+001 3.298023e+001 1.657794e+000 4.615782e+000 3.201449e+000 4.774642e+000 3.977681e+000 3.595058e+000 4.657920e+000 4.181684e+000 5.034029e+000 3.398104e+000 3.786584e+000 3.197171e+000 7.792431e+000
<GCONST> 1.102069e+002
<TRANSP> 5
 0.000000e+000 1.000000e+000 0.000000e+000 0.000000e+000 0.000000e+000
 0.000000e+000 6.016237e-001 3.983763e-001 0.000000e+000 0.000000e+000
 0.000000e+000 0.000000e+000 6.056805e-001 3.943195e-001 0.000000e+000
 0.000000e+000 0.000000e+000 0.000000e+000 6.971918e-001 3.028082e-001
 0.000000e+000 0.000000e+000 0.000000e+000 0.000000e+000 0.000000e+000
<ENDHMM>
~h "c"
<BEGINHMM>
<NUMSTATES> 5
<STATE> 2
<MEAN> 25
 -3.909752e+000 3.556435e+000 9.314425e-001 1.896145e+000 8.985729e-001 -4.052058e+000 1.394903e+000 -7.353295e-002 2.715035e-001 -1.088919e+000 6.495933e-002 2.502251e+000 -1.648069e+000 -1.155808e-001 -4.949149e-001 -4.303117e-001 3.908756e-001 -2.611761e-001 3.706194e-001 6.805123e-002 2.874704e-001 -3.518237e-002 2.131589e-001 2.377501e-001 4.477915e-001
<VARIANCE> 25
 8.053519e+001 4.279943e+001 3.776569e+001 3.574704e+001 4.111744e+001 3.972038e+001 4.727633e+001 5.331699e+001 3.829415e+001 3.125824e+001 2.812704e+001 2.461240e+001 7.638585e+000 5.034167e+000 3.902807e+000 4.065686e+000 4.667945e+000 3.763558e+000 4.291096e+000 4.361748e+000 3.512351e+000 3.078711e+000 2.811161e+000 2.690874e+000 1.454057e+001
<GCONST> 1.094486e+002
<STATE> 3
<MEAN> 25
 -8.426365e+000 2.156723e+000 -4.485168e-001 -1.989401e-001 1.002845e+000 -4.538213e+000 1.801389e+000 5.301713e-001 1.413666e+000 -1.164978e+000 6.636995e-001 3.032612e+000 -2.398230e-001 -7.049959e-001 -7.133327e-002 -6.104825e-001 -3.430774e-001 -1.033810e-001 -3.647954e-001 4.168739e-001 3.184703e-001 -4.945681e-002 -6.040855e-003 -4.169988e-002 1.828745e+000
<VARIANCE> 25
 9.218723e+001 3.770156e+001 3.745525e+001 3.624257e+001 3.859140e+001 3.848249e+001 5.036848e+001 4.470424e+001 3.419796e+001 2.933302e+001 2.544846e+001 2.115458e+001 1.562448e+001 4.371896e+000 4.497558e+000 4.082565e+000 4.656516e+000 3.885782e+000 5.264189e+000 5.026431e+000 3.756622e+000 3.198646e+000 3.209307e+000 2.725905e+000 1.127340e+001
<GCONST> 1.099190e+002
<STATE> 4
<MEAN> 25
 -6.035138e+000 -4.009906e-001 2.923934e-001 -1.526424e+000 -7.114717e-001 -4.398283e+000 9.821299e-002 2.074490e+000 2.021588e+000 -1.080269e+000 2.916536e-001 2.148764e+000 1.570754e+000 -8.381401e-001 2.818300e-001 -3.849469e-001 -5.525145e-001 2.682991e-001 -7.880535e-001 3.426014e-001 8.845227e-002 3.530011e-002 -1.748092e-001 -5.380471e-001 1.486352e+000
<VARIANCE> 25
 1.031799e+002 4.600925e+001 4.241180e+001 3.368260e+001 4.088157e+001 3.784165e+001 6.208395e+001 5.684309e+001 3.878492e+001 2.840068e+001 2.833464e+001 2.455074e+001 1.319933e+001 4.415524e+000 4.602635e+000 3.745148e+000 4.154675e+000 4.131744e+000 5.625165e+000 5.489969e+000 4.192824e+000 3.142433e+000 3.112722e+000 2.812513e+000 7.009816e+000
<GCONST> 1.106195e+002
<TRANSP> 5
 0.000000e+000 1.000000e+000 0.000000e+000 0.000000e+000 0.000000e+000
 0.000000e+000 7.116982e-001 2.883017e-001 0.000000e+000 0.000000e+000
 0.000000e+000 0.000000e+000 7.230597e-001 2.769403e-001 0.000000e+000
 0.000000e+000 0.000000e+000 0.000000e+000 7.768707e-001 2.231292e-001
 0.000000e+000 0.000000e+000 0.000000e+000 0.000000e+000 0.000000e+000
<ENDHMM>
~h "d"
<BEGINHMM>
<NUMSTATES> 5
<STATE> 2
<MEAN> 25
 4.982026e+000 1.180144e+000 5.546171e+000 3.988287e+000 -2.178691e+000 -2.180362e+000 -3.051452e+000 -2.827581e-001 1.134766e+000 -1.102259e+000 -2.171459e+000 -5.931094e-001 1.690042e-001 1.377916e-001 4.869527e-001 2.965807e-001 3.745883e-002 -3.902180e-001 -2.695290e-001 3.079937e-001 1.849900e-001 -1.735848e-001 2.078045e-002 1.175158e-001 4.742280e-002
<VARIANCE> 25
 3.531135e+001 5.987536e+001 5.165055e+001 4.964737e+001 5.609647e+001 4.307951e+001 6.081856e+001 8.451652e+001 5.329318e+001 3.750915e+001 4.657922e+001 3.056109e+001 2.888688e+000 5.672879e+000 3.692053e+000 4.978848e+000 5.637433e+000 3.368403e+000 5.258773e+000 6.860590e+000 4.595479e+000 3.390781e+000 4.132968e+000 2.879535e+000 1.085564e+001
<GCONST> 1.124940e+002
<STATE> 3
<MEAN> 25
 4.998445e+000 7.477096e-001 6.351471e+000 3.774223e+000 -2.687415e+000 -2.992549e+000 -3.856988e+000 8.039347e-001 1.455366e+000 -1.377370e+000 -1.714974e+000 -2.378527e-001 -1.696041e-001 -4.280109e-001 2.741012e-002 -4.018486e-001 -4.218169e-001 -1.454701e-001 -3.249163e-001 5.693100e-001 1.026827e-001 -3.870544e-002 3.049967e-001 6.557260e-002 9.708487e-001
<VARIANCE> 25
 3.158564e+001 5.776441e+001 4.824534e+001 4.900988e+001 5.922683e+001 4.250610e+001 6.217206e+001 8.181460e+001 5.425681e+001 3.548494e+001 4.721534e+001 3.118173e+001 2.799386e+000 6.056486e+000 4.136232e+000 5.354402e+000 6.679059e+000 3.602357e+000 5.820160e+000 7.787590e+000 5.171270e+000 3.584803e+000 4.726556e+000 3.204875e+000 1.170387e+001
<GCONST> 1.134674e+002
<STATE> 4
<MEAN> 25
 4.284591e+000 -8.256904e-001 5.881338e+000 1.976733e+000 -4.586539e+000 -2.837070e+000 -4.335191e+000 2.167019e+000 1.417194e+000 -1.181567e+000 -7.529269e-001 -3.968498e-001 -2.526149e-001 -4.210948e-001 -2.993961e-001 -4.956303e-001 -2.923876e-001 1.711916e-001 1.013070e-002 2.901975e-001 -3.416439e-002 6.143596e-002 2.143045e-001 -8.561710e-002 8.272220e-001
<VARIANCE> 25
 2.843517e+001 5.843109e+001 5.871705e+001 5.044478e+001 6.330894e+001 4.354295e+001 5.935291e+001 8.752386e+001 6.208752e+001 3.416087e+001 5.126683e+001 3.232471e+001 2.089533e+000 4.080777e+000 3.543177e+000 3.845843e+000 5.772543e+000 3.308506e+000 4.894048e+000 6.200919e+000 4.609671e+000 3.081149e+000 4.134548e+000 2.930710e+000 8.007150e+000
<GCONST> 1.112517e+002
<TRANSP> 5
 0.000000e+000 1.000000e+000 0.000000e+000 0.000000e+000 0.000000e+000
 0.000000e+000 6.218271e-001 3.781729e-001 0.000000e+000 0.000000e+000
 0.000000e+000 0.000000e+000 6.308069e-001 3.691931e-001 0.000000e+000
 0.000000e+000 0.000000e+000 0.000000e+000 7.190407e-001 2.809593e-001
 0.000000e+000 0.000000e+000 0.000000e+000 0.000000e+000 0.000000e+000
<ENDHMM>
~h "e"
<BEGINHMM>
<NUMSTATES> 5
<STATE> 2
<MEAN> 25
 2.631355e+000 -4.426562e+000 5.052185e+000 -5.993136e-001 -7.515532e+000 -5.059540e+000 -1.251456e+000 4.684216e+000 -5.702689e-001 1.595650e-001 2.227553e+000 -4.743104e-001 7.482211e-002 -4.230745e-001 4.376070e-001 -1.874907e-001 -6.999861e-001 -2.489080e-001 1.680749e-001 6.313646e-001 -1.814628e-001 -3.302713e-002 2.304689e-001 -3.563618e-002 6.564378e-001
<VARIANCE> 25
 2.788963e+001 5.808338e+001 5.169994e+001 4.255283e+001 6.661121e+001 4.997400e+001 5.620851e+001 8.449921e+001 5.637644e+001 3.796626e+001 4.327969e+001 2.945911e+001 2.225700e+000 3.478655e+000 2.725118e+000 2.863441e+000 4.300081e+000 3.005221e+000 3.882923e+000 5.450943e+000 3.880786e+000 2.793950e+000 2.854540e+000 2.104230e+000 6.994920e+000
<GCONST> 1.082630e+002
<STATE> 3
<MEAN> 25
 2.723610e+000 -4.753153e+000 5.735384e+000 -7.921591e-001 -8.342552e+000 -5.283768e+000 -6.684073e-001 5.378411e+000 -1.031155e+000 1.879388e-001 2.478137e+000 -6.244713e-001 2.066027e-002 -1.106036e-002 1.369165e-001 3.731881e-003 -1.195509e-001 -6.620411e-002 1.540553e-001 9.635106e-002 -1.060670e-001 1.516168e-002 1.252943e-002 -2.787992e-002 1.018181e-001
<VARIANCE> 25
 2.397915e+001 5.431102e+001 5.025317e+001 4.239359e+001 6.364324e+001 4.877410e+001 5.502487e+001 8.393579e+001 5.683472e+001 3.819498e+001 4.244529e+001 2.849592e+001 1.675208e+000 2.903736e+000 2.287199e+000 2.568023e+000 3.716039e+000 2.591556e+000 3.306841e+000 4.523329e+000 3.318918e+000 2.469555e+000 2.474848e+000 1.874831e+000 6.518101e+000
<GCONST> 1.058776e+002
<STATE> 4
<MEAN> 25
 2.276667e+000 -4.214840e+000 5.717412e+000 -6.842386e-001 -7.979097e+000 -5.587766e+000 4.579228e-001 4.906539e+000 -1.204753e+000 2.574511e-001 2.283869e+000 -4.474991e-001 -2.318519e-002 2.947783e-001 -1.883200e-001 2.042285e-001 4.538895e-001 1.066149e-001 3.556725e-002 -3.237100e-001 3.802731e-002 4.195913e-002 -1.933123e-001 3.159404e-002 -4.519237e-001
<VARIANCE> 25
 2.455543e+001 5.073630e+001 5.157444e+001 4.212886e+001 6.397855e+001 5.169216e+001 5.279630e+001 7.393265e+001 5.093235e+001 3.511089e+001 3.907517e+001 2.672460e+001 1.303916e+000 2.050867e+000 1.767651e+000 2.013848e+000 2.816792e+000 2.206403e+000 2.664373e+000 3.262065e+000 2.568944e+000 2.049309e+000 1.981519e+000 1.575367e+000 4.100068e+000
<GCONST> 1.020248e+002
<TRANSP> 5
 0.000000e+000 1.000000e+000 0.000000e+000 0.000000e+000 0.000000e+000
 0.000000e+000 6.268548e-001 3.731452e-001 0.000000e+000 0.000000e+000
 0.000000e+000 0.000000e+000 6.229556e-001 3.770444e-001 0.000000e+000
 0.000000e+000 0.000000e+000 0.000000e+000 8.051984e-001 1.948016e-001
 0.000000e+000 0.000000e+000 0.000000e+000 0.000000e+000 0.000000e+000
<ENDHMM>
~h "f"
<BEGINHMM>
<NUMSTATES> 5
<STATE> 2
<MEAN> 25
 -5.258295e+000 -2.076055e-001 -2.057232e+000 3.290166e+000 1.910625e+000 6.690055e-003 2.035800e+000 -3.895255e-001 1.493668e+000 2.778926e-001 1.147915e+000 1.686673e+000 -1.807044e+000 -1.693688e-001 -5.431616e-001 5.968108e-001 3.845763e-001 -2.961751e-001 3.174782e-001 1.491155e-001 4.216313e-001 -6.604088e-002 9.435748e-002 2.452793e-001 -6.048201e-001
<VARIANCE> 25
 7.222591e+001 2.723659e+001 3.682862e+001 4.331076e+001 3.565493e+001 4.964835e+001 3.343225e+001 3.373890e+001 3.112912e+001 2.451136e+001 2.239934e+001 2.196809e+001 6.326972e+000 2.982091e+000 2.769850e+000 4.508531e+000 3.906191e+000 4.430452e+000 3.565454e+000 3.070509e+000 3.085552e+000 2.465085e+000 2.274699e+000 2.130029e+000 3.059787e+000
<GCONST> 1.036806e+002
<STATE> 3
<MEAN> 25
 -8.565168e+000 -1.381065e+000 -3.278260e+000 3.513126e+000 1.926824e+000 -5.741693e-001 2.074817e+000 -1.711960e-001 2.031343e+000 1.990193e-001 1.427813e+000 1.956039e+000 -3.062314e-001 -3.294756e-001 -2.739858e-001 -1.944386e-001 -1.084755e-001 -4.916235e-002 -8.184408e-002 3.663442e-002 6.264985e-002 -2.540980e-002 8.940642e-002 -4.925757e-002 2.490188e-002
<VARIANCE> 25
 6.268506e+001 2.480475e+001 3.168298e+001 3.920807e+001 3.175774e+001 4.225505e+001 2.983511e+001 2.968052e+001 2.819439e+001 2.337213e+001 2.068684e+001 2.069830e+001 8.563563e+000 2.472559e+000 2.631299e+000 4.197199e+000 3.200239e+000 3.967269e+000 2.837788e+000 2.500848e+000 2.654508e+000 2.237170e+000 2.057396e+000 2.074848e+000 3.283603e+000
<GCONST> 1.013363e+002
<STATE> 4
<MEAN> 25
 -7.420644e+000 -1.870704e+000 -3.614922e+000 2.525300e+000 1.661206e+000 -2.971663e-001 1.954156e+000 5.205953e-002 1.859090e+000 9.311001e-002 1.301579e+000 1.777942e+000 1.012167e+000 -1.438175e-002 1.574313e-001 -4.196800e-001 -3.112447e-001 1.587761e-001 -2.333762e-001 -1.811696e-002 -1.896915e-001 -5.649175e-002 4.296793e-002 -2.457341e-001 3.371287e-001
<VARIANCE> 25
 7.173973e+001 2.864055e+001 3.471691e+001 4.375972e+001 3.530627e+001 4.529597e+001 3.152042e+001 2.933698e+001 2.993463e+001 2.348952e+001 2.078103e+001 2.287961e+001 6.509406e+000 2.315857e+000 2.595230e+000 3.482976e+000 3.085008e+000 3.306236e+000 2.691832e+000 2.537151e+000 2.765204e+000 2.233629e+000 2.067524e+000 1.976630e+000 3.085806e+000
<GCONST> 1.013409e+002
<TRANSP> 5
 0.000000e+000 1.000000e+000 0.000000e+000 0.000000e+000 0.000000e+000
 0.000000e+000 6.936458e-001 3.063542e-001 0.000000e+000 0.000000e+000
 0.000000e+000 0.000000e+000 6.894512e-001 3.105487e-001 0.000000e+000
 0.000000e+000 0.000000e+000 0.000000e+000 8.259683e-001 1.740316e-001
 0.000000e+000 0.000000e+000 0.000000e+000 0.000000e+000 0.000000e+000
<ENDHMM>
~h "g"
<BEGINHMM>
<NUMSTATES> 5
<STATE> 2
<MEAN> 25
 4.806960e+000 2.614266e+000 3.686285e+000 2.593365e+000 -1.566707e+000 -2.310656e+000 -1.346130e+000 -1.167102e+000 -2.750429e+000 2.383196e+000 -7.122083e-002 -1.277873e+000 -1.108080e-001 2.377509e-001 1.034709e-001 3.906511e-001 2.379685e-001 -6.198192e-001 -4.037726e-002 1.128916e-001 -1.008166e-001 3.823407e-002 6.271851e-002 1.913148e-001 -9.353082e-002
<VARIANCE> 25
 3.378227e+001 5.358615e+001 5.806398e+001 5.064455e+001 6.270903e+001 5.866266e+001 5.642258e+001 6.137516e+001 5.851441e+001 4.054020e+001 3.635360e+001 3.172403e+001 2.782968e+000 5.100285e+000 5.349991e+000 4.506255e+000 6.553421e+000 4.544305e+000 4.872666e+000 5.140215e+000 5.399850e+000 3.519978e+000 3.387730e+000 3.081697e+000 8.852454e+000
<GCONST> 1.125378e+002
<STATE> 3
<MEAN> 25
 4.396251e+000 2.556277e+000 3.551484e+000 2.698053e+000 -1.330005e+000 -3.395818e+000 -1.628878e+000 -5.651882e-001 -2.579456e+000 2.332552e+000 1.203338e-001 -9.185125e-001 -1.758316e-001 -1.824370e-001 -1.115741e-001 -2.846161e-001 -1.567202e-001 -2.116397e-001 -1.552797e-001 3.699637e-001 1.961691e-001 -5.915504e-002 1.275787e-001 4.606460e-002 6.065767e-001
<VARIANCE> 25
 3.363513e+001 5.492156e+001 6.059908e+001 4.796548e+001 6.664558e+001 5.872472e+001 5.433179e+001 6.036707e+001 5.442044e+001 3.963974e+001 3.602905e+001 3.091973e+001 2.896369e+000 5.090655e+000 5.737445e+000 4.900881e+000 7.633578e+000 4.740199e+000 4.878333e+000 5.501091e+000 5.419176e+000 3.522459e+000 3.681328e+000 3.352146e+000 8.901607e+000
<GCONST> 1.130572e+002
<STATE> 4
<MEAN> 25
 4.072738e+000 2.058185e+000 3.291503e+000 1.294289e+000 -2.296335e+000 -2.992965e+000 -1.869758e+000 3.622829e-001 -1.812940e+000 2.037465e+000 3.489980e-001 -1.221847e+000 -1.874943e-001 -3.718555e-001 -2.209727e-001 -6.057836e-001 -1.972294e-001 2.577220e-001 -7.687647e-002 3.613507e-001 2.601045e-001 -1.149995e-001 3.591352e-002 -7.658455e-002 7.381972e-001
<VARIANCE> 25
 3.329930e+001 6.354501e+001 6.416677e+001 5.237236e+001 6.093955e+001 5.735532e+001 5.188339e+001 6.534828e+001 5.797492e+001 3.788985e+001 3.745063e+001 3.136595e+001 2.290359e+000 3.602255e+000 4.459234e+000 3.831288e+000 6.132412e+000 3.930973e+000 3.777257e+000 4.549558e+000 4.423183e+000 2.959610e+000 3.372712e+000 3.061034e+000 5.848991e+000
<GCONST> 1.104230e+002
<TRANSP> 5
 0.000000e+000 1.000000e+000 0.000000e+000 0.000000e+000 0.000000e+000
 0.000000e+000 5.864826e-001 4.135174e-001 0.000000e+000 0.000000e+000
 0.000000e+000 0.000000e+000 5.881152e-001 4.118849e-001 0.000000e+000
 0.000000e+000 0.000000e+000 0.000000e+000 6.545871e-001 3.454128e-001
 0.000000e+000 0.000000e+000 0.000000e+000 0.000000e+000 0.000000e+000
<ENDHMM>
~h "h"
<BEGINHMM>
<NUMSTATES> 5
<STATE> 2
<MEAN> 25
 4.139895e-001 -3.506247e+000 -2.855669e+000 2.806140e-002 4.944535e+000 3.724428e+000 2.730646e+000 2.068768e+000 1.535322e+000 -1.035460e+000 -1.766614e+000 3.433441e-001 -3.417750e-001 7.380249e-002 -1.783031e-001 4.206663e-001 6.268288e-001 9.013782e-002 5.025429e-001 1.190468e-002 9.313490e-002 -1.257094e-001 1.454333e-002 2.495655e-001 -6.804245e-001
<VARIANCE> 25
 3.024372e+001 4.588848e+001 4.621488e+001 4.397092e+001 6.212834e+001 5.403531e+001 5.562577e+001 5.093835e+001 4.101695e+001 3.688364e+001 3.779818e+001 3.557638e+001 1.651446e+000 2.693004e+000 2.387260e+000 3.097597e+000 4.006599e+000 2.945383e+000 3.801657e+000 3.303306e+000 3.003006e+000 2.589932e+000 2.549666e+000 2.463658e+000 2.830055e+000
<GCONST> 1.048138e+002
<STATE> 3
<MEAN> 25
 -1.929741e-001 -3.370821e+000 -3.160095e+000 5.276996e-001 5.648726e+000 3.725160e+000 3.331663e+000 1.869708e+000 1.630510e+000 -1.213386e+000 -1.629167e+000 6.700003e-001 -1.550456e-001 1.191219e-001 -5.246001e-002 1.116156e-001 7.783155e-002 -5.353939e-002 1.375524e-001 -1.207588e-001 -1.870006e-002 -4.738323e-002 5.414570e-002 7.181981e-002 -5.718694e-001
<VARIANCE> 25
 3.110049e+001 4.587916e+001 4.456076e+001 4.139902e+001 5.994846e+001 5.129657e+001 5.314733e+001 4.766221e+001 3.906573e+001 3.583950e+001 3.551674e+001 3.318910e+001 1.673458e+000 2.504561e+000 2.238935e+000 2.794974e+000 3.666645e+000 2.754437e+000 3.479242e+000 3.038473e+000 2.764992e+000 2.456535e+000 2.395315e+000 2.357332e+000 2.992926e+000
<GCONST> 1.035957e+002
<STATE> 4
<MEAN> 25
 -1.274411e+000 -2.802217e+000 -3.738465e+000 6.230260e-001 4.840904e+000 3.129652e+000 3.039316e+000 1.323349e+000 1.595572e+000 -1.362348e+000 -1.207148e+000 6.482434e-001 5.704568e-002 1.665536e-001 9.322141e-002 -7.950126e-002 -2.997560e-001 -1.074402e-001 -1.266508e-001 -1.065902e-001 -7.511429e-002 2.528947e-002 4.082543e-002 -7.937340e-002 -2.221966e-001
<VARIANCE> 25
 3.172717e+001 4.868306e+001 3.946130e+001 3.613103e+001 5.056042e+001 4.501218e+001 4.394509e+001 3.956013e+001 3.411600e+001 2.984967e+001 2.972776e+001 2.962804e+001 1.438611e+000 2.023458e+000 1.796482e+000 2.047527e+000 2.608164e+000 2.199921e+000 2.621605e+000 2.416143e+000 2.236563e+000 2.055492e+000 1.951357e+000 1.907420e+000 2.477285e+000
<GCONST> 9.916037e+001
<TRANSP> 5
 0.000000e+000 1.000000e+000 0.000000e+000 0.000000e+000 0.000000e+000
 0.000000e+000 5.581760e-001 4.418240e-001 0.000000e+000 0.000000e+000
 0.000000e+000 0.000000e+000 5.593727e-001 4.406273e-001 0.000000e+000
 0.000000e+000 0.000000e+000 0.000000e+000 7.611247e-001 2.388753e-001
 0.000000e+000 0.000000e+000 0.000000e+000 0.000000e+000 0.000000e+000
<ENDHMM>
~h "i"
<BEGINHMM>
<NUMSTATES> 5
<STATE> 2
<MEAN> 25
 1.026445e-001 1.632180e+000 1.265950e+001 1.706181e+000 -8.145664e+000 -4.030259e+000 -3.119566e+000 -2.371129e+000 -6.335109e+000 -1.353729e+000 3.068681e+000 6.548998e-001 1.764088e-001 1.087465e-001 1.470291e+000 -1.755119e-001 -1.143204e+000 4.234240e-002 -5.720019e-001 -2.491566e-001 -9.358233e-001 -4.253476e-002 4.784169e-001 -4.241604e-002 6.667344e-001
<VARIANCE> 25
 3.257371e+001 3.413620e+001 6.992677e+001 4.075641e+001 5.881545e+001 4.384304e+001 5.283716e+001 5.447029e+001 5.838498e+001 4.008501e+001 3.284187e+001 2.910607e+001 3.481869e+000 2.593840e+000 6.002243e+000 3.297307e+000 5.649612e+000 3.647726e+000 5.044753e+000 4.436751e+000 5.580781e+000 3.347573e+000 2.833391e+000 2.459770e+000 5.315302e+000
<GCONST> 1.092161e+002
<STATE> 3
<MEAN> 25
 4.882231e-001 2.074737e+000 1.460006e+001 1.349963e+000 -9.752529e+000 -3.629911e+000 -3.792271e+000 -2.761714e+000 -7.507229e+000 -1.164928e+000 3.669270e+000 5.339714e-001 1.401921e-001 1.256467e-001 1.262785e-001 -4.235866e-002 -1.596102e-001 6.047503e-002 -2.335966e-002 -1.537046e-002 -5.045367e-002 7.180924e-002 3.844056e-002 -7.446854e-003 -1.580379e-001
<VARIANCE> 25
 2.221795e+001 3.112741e+001 5.815720e+001 3.948544e+001 5.213952e+001 4.397014e+001 4.699202e+001 5.216048e+001 5.442534e+001 4.198442e+001 3.224679e+001 3.005434e+001 2.055853e+000 2.277927e+000 5.104211e+000 2.773709e+000 5.173798e+000 3.122378e+000 4.211441e+000 3.917336e+000 4.781397e+000 2.798692e+000 2.570858e+000 2.056921e+000 4.947939e+000
<GCONST> 1.060152e+002
<STATE> 4
<MEAN> 25
 4.296397e-001 2.689409e+000 1.240554e+001 1.365897e+000 -7.905072e+000 -3.002540e+000 -2.600519e+000 -2.651125e+000 -6.173624e+000 -8.355182e-001 2.724397e+000 6.235374e-001 2.947490e-002 1.248631e-002 -8.570923e-001 1.396250e-001 6.218861e-001 -1.303620e-002 3.540913e-001 1.474438e-001 4.787396e-001 4.565089e-002 -2.704942e-001 4.185785e-002 -6.304323e-001
<VARIANCE> 25
 2.413525e+001 3.169991e+001 7.431326e+001 3.909690e+001 6.220272e+001 4.522216e+001 5.153338e+001 5.329941e+001 5.474880e+001 3.620755e+001 3.307392e+001 2.706171e+001 1.522545e+000 1.968416e+000 3.125401e+000 2.169637e+000 3.542034e+000 2.623441e+000 3.025659e+000 3.306820e+000 3.282876e+000 2.297926e+000 2.180517e+000 1.725850e+000 3.389831e+000
<GCONST> 1.029211e+002
<TRANSP> 5
 0.000000e+000 1.000000e+000 0.000000e+000 0.000000e+000 0.000000e+000
 0.000000e+000 6.973875e-001 3.026125e-001 0.000000e+000 0.000000e+000
 0.000000e+000 0.000000e+000 6.908740e-001 3.091260e-001 0.000000e+000
 0.000000e+000 0.000000e+000 0.000000e+000 8.440850e-001 1.559149e-001
 0.000000e+000 0.000000e+000 0.000000e+000 0.000000e+000 0.000000e+000
<ENDHMM>
~h "j"
<BEGINHMM>
<NUMSTATES> 5
<STATE> 2
<MEAN> 25
 1.421336e+000 6.322406e+000 7.653661e+000 4.242528e+000 -1.314332e+000 -3.847300e+000 -4.005248e-001 6.854972e-001 -1.426257e+000 -2.636359e+000 8.039928e-001 2.027274e+000 -5.556578e-001 5.905443e-001 4.500129e-001 9.733970e-002 2.458394e-001 -2.966395e-001 3.530456e-001 4.030877e-002 1.409356e-001 -1.321038e-001 1.410543e-001 2.884420e-001 1.179333e-002
<VARIANCE> 25
 5.318991e+001 5.692468e+001 4.437731e+001 3.400161e+001 4.875114e+001 4.495896e+001 5.195409e+001 5.177500e+001 4.141532e+001 3.085325e+001 2.864504e+001 2.496555e+001 6.756743e+000 5.397468e+000 4.016429e+000 3.601359e+000 5.705583e+000 3.720491e+000 5.233413e+000 4.796064e+000 4.283257e+000 2.979663e+000 2.839593e+000 2.800574e+000 9.671597e+000
<GCONST> 1.100323e+002
<STATE> 3
<MEAN> 25
 -7.683280e-001 6.322490e+000 8.299504e+000 3.398766e+000 -1.605951e+000 -4.657172e+000 -3.184279e-001 7.878786e-001 -7.873991e-001 -2.628415e+000 1.584406e+000 2.941115e+000 -2.761878e-001 -7.351696e-001 2.488213e-002 -4.956129e-001 -6.044598e-001 -2.286963e-001 -4.444419e-001 3.401115e-001 2.289915e-001 9.009538e-002 2.473450e-001 1.394081e-001 1.327055e+000
<VARIANCE> 25
 6.047057e+001 5.913486e+001 4.136265e+001 3.433059e+001 5.679650e+001 4.506497e+001 5.034560e+001 4.584097e+001 3.684749e+001 2.702574e+001 2.633490e+001 2.397612e+001 9.088964e+000 6.226323e+000 4.242006e+000 3.514350e+000 7.808956e+000 4.026829e+000 5.714550e+000 5.963274e+000 4.619581e+000 2.828356e+000 2.911499e+000 3.094535e+000 8.320235e+000
<GCONST> 1.109322e+002
<STATE> 4
<MEAN> 25
 -3.562160e-001 2.532989e+000 7.634839e+000 1.509296e+000 -4.307543e+000 -4.762873e+000 -2.421574e+000 2.363307e+000 -8.785330e-002 -2.105492e+000 2.144213e+000 2.613147e+000 3.862630e-001 -1.186520e+000 -5.861863e-001 -6.071018e-001 -4.722359e-001 1.750197e-001 -5.424286e-001 5.218378e-001 3.007642e-001 2.587625e-001 -7.586066e-002 -4.131079e-001 1.173430e+000
<VARIANCE> 25
 4.796663e+001 7.188190e+001 4.421204e+001 4.098363e+001 5.889128e+001 4.220448e+001 5.428975e+001 6.252481e+001 4.730714e+001 2.791899e+001 2.965906e+001 2.595575e+001 6.800140e+000 4.574084e+000 4.243520e+000 2.887414e+000 6.725930e+000 4.127833e+000 4.989482e+000 5.916524e+000 4.458327e+000 2.659354e+000 3.252932e+000 3.225639e+000 5.158676e+000
<GCONST> 1.104910e+002
<TRANSP> 5
 0.000000e+000 1.000000e+000 0.000000e+000 0.000000e+000 0.000000e+000
 0.000000e+000 7.317554e-001 2.682446e-001 0.000000e+000 0.000000e+000
 0.000000e+000 0.000000e+000 7.296938e-001 2.703061e-001 0.000000e+000
 0.000000e+000 0.000000e+000 0.000000e+000 7.570696e-001 2.429305e-001
 0.000000e+000 0.000000e+000 0.000000e+000 0.000000e+000 0.000000e+000
<ENDHMM>
~h "k"
<BEGINHMM>
<NUMSTATES> 5
<STATE> 2
<MEAN> 25
 -6.760617e-001 8.048391e-001 -2.331022e+000 3.192897e-001 1.374883e+000 -2.330365e+000 1.146991e+000 -6.362551e-001 2.791338e-001 1.103912e+000 -8.426663e-001 2.733778e-001 -5.808956e-001 -4.518370e-001 -7.804424e-001 7.375210e-002 6.136443e-001 -4.539876e-001 -1.615021e-002 2.065968e-001 1.872780e-001 1.336294e-001 -1.527434e-001 2.469465e-001 4.066005e-002
<VARIANCE> 25
 3.905138e+001 5.103193e+001 5.294982e+001 4.475859e+001 5.186983e+001 5.130594e+001 4.569999e+001 5.135687e+001 4.448290e+001 3.637701e+001 3.189944e+001 3.513074e+001 2.988737e+000 5.384587e+000 4.871793e+000 4.013463e+000 5.052041e+000 4.393255e+000 4.378643e+000 4.176162e+000 3.905345e+000 3.535583e+000 2.952898e+000 2.844986e+000 1.563213e+001
<GCONST> 1.106334e+002
<STATE> 3
<MEAN> 25
 -1.743421e+000 -9.307346e-001 -4.275341e+000 -2.129316e-001 2.455957e+000 -3.231651e+000 6.863555e-001 1.793203e-001 6.897956e-001 1.509727e+000 -1.256667e+000 5.172063e-001 -1.446714e-001 -6.412305e-001 -5.626665e-001 -4.217787e-001 1.597224e-001 -1.726860e-001 -2.675736e-001 3.696370e-001 9.048413e-002 1.188739e-001 -1.465167e-001 -1.029899e-001 1.443942e+000
<VARIANCE> 25
 3.761759e+001 5.326492e+001 5.844411e+001 4.529391e+001 5.404886e+001 5.350181e+001 4.682176e+001 4.851294e+001 4.199325e+001 3.554027e+001 3.087224e+001 3.497775e+001 4.049800e+000 5.421323e+000 6.160500e+000 4.642579e+000 6.095730e+000 5.044096e+000 4.622286e+000 4.512113e+000 4.126116e+000 3.667986e+000 3.243356e+000 3.530225e+000 1.571902e+001
<GCONST> 1.122372e+002
<STATE> 4
<MEAN> 25
 -1.460243e+000 -1.928829e+000 -4.561252e+000 -1.346072e+000 1.948008e+000 -2.927213e+000 3.212264e-001 9.249103e-001 8.408460e-001 1.352607e+000 -1.424931e+000 -1.019127e-001 3.283196e-001 -2.913317e-001 7.483088e-002 -4.579303e-001 -2.646500e-001 2.656340e-001 -2.276205e-001 2.785201e-001 -4.946109e-002 -6.462854e-002 7.637734e-003 -3.170193e-001 1.454549e+000
<VARIANCE> 25
 3.955800e+001 5.266899e+001 5.877789e+001 4.576501e+001 5.197269e+001 5.599470e+001 4.710831e+001 4.859134e+001 4.087825e+001 3.376970e+001 3.127041e+001 3.693853e+001 3.747988e+000 4.354695e+000 5.465044e+000 4.065508e+000 5.260846e+000 4.608023e+000 3.923301e+000 4.113154e+000 3.741494e+000 3.220938e+000 2.991575e+000 3.273415e+000 1.072572e+001
<GCONST> 1.104860e+002
<TRANSP> 5
 0.000000e+000 1.000000e+000 0.000000e+000 0.000000e+000 0.000000e+000
 0.000000e+000 5.919845e-001 4.080155e-001 0.000000e+000 0.000000e+000
 0.000000e+000 0.000000e+000 5.999618e-001 4.000382e-001 0.000000e+000
 0.000000e+000 0.000000e+000 0.000000e+000 6.750387e-001 3.249613e-001
 0.000000e+000 0.000000e+000 0.000000e+000 0.000000e+000 0.000000e+000
<ENDHMM>
~h "l"
<BEGINHMM>
<NUMSTATES> 5
<STATE> 2
<MEAN> 25
 5.596273e+000 -3.964815e+000 -1.313952e-002 -6.370030e+000 -1.114536e+000 3.079840e+000 -7.112568e+000 -3.148708e+000 2.533787e+000 3.458142e+000 9.537190e-001 -2.634130e+000 2.026109e-001 -7.316029e-003 1.281718e-001 -3.438010e-001 2.832221e-001 5.907436e-002 -5.304511e-001 -3.048705e-001 1.521723e-001 4.004018e-001 6.144345e-002 -1.370166e-001 -4.468821e-002
<VARIANCE> 25
 2.296901e+001 3.429438e+001 5.110014e+001 6.750691e+001 5.467112e+001 6.650845e+001 7.518445e+001 8.238808e+001 5.261891e+001 5.193934e+001 4.602353e+001 4.056153e+001 1.326497e+000 2.005098e+000 2.648910e+000 4.045887e+000 3.770898e+000 4.259871e+000 4.642766e+000 5.330537e+000 3.585364e+000 3.889314e+000 3.518322e+000 2.529851e+000 1.989925e+000
<GCONST> 1.079820e+002
<STATE> 3
<MEAN> 25
 5.729273e+000 -3.862189e+000 7.557598e-002 -6.819435e+000 -5.920088e-001 3.133903e+000 -7.668336e+000 -3.307755e+000 2.659430e+000 3.829924e+000 9.018872e-001 -2.769571e+000 -4.917810e-002 -1.426627e-002 -2.298661e-002 -5.256408e-002 1.350644e-001 -4.417950e-003 3.110906e-003 1.599034e-001 2.105048e-002 -7.331273e-002 -1.369661e-001 -3.795480e-002 -5.471196e-002
<VARIANCE> 25
 2.124218e+001 3.358743e+001 5.169159e+001 6.862134e+001 5.361917e+001 6.397123e+001 7.924408e+001 7.995474e+001 5.250398e+001 5.386191e+001 4.672756e+001 4.024569e+001 1.116678e+000 2.056154e+000 2.706195e+000 3.869526e+000 3.522642e+000 4.070231e+000 4.832499e+000 5.393816e+000 3.484918e+000 3.982209e+000 3.645754e+000 2.498067e+000 1.984803e+000
<GCONST> 1.077002e+002
<STATE> 4
<MEAN> 25
 5.104250e+000 -3.496685e+000 -7.963966e-001 -6.593135e+000 -1.818841e-001 3.611751e+000 -6.330445e+000 -2.244409e+000 2.590570e+000 2.657477e+000 3.574739e-001 -2.775352e+000 -2.377694e-001 1.152890e-002 -1.037031e-001 2.976198e-001 -1.514131e-002 -7.355205e-002 4.749424e-001 3.964182e-001 -1.049515e-001 -3.948090e-001 -2.501186e-001 8.044318e-002 -1.506477e-001
<VARIANCE> 25
 2.572348e+001 3.913603e+001 5.370253e+001 7.049691e+001 5.493444e+001 6.360728e+001 7.982513e+001 7.243008e+001 5.234336e+001 5.174320e+001 4.677396e+001 3.966174e+001 9.160713e-001 1.918802e+000 2.319266e+000 3.114788e+000 3.081528e+000 3.327215e+000 3.817468e+000 4.166857e+000 3.121692e+000 3.237588e+000 3.234605e+000 2.163844e+000 1.924194e+000
<GCONST> 1.059008e+002
<TRANSP> 5
 0.000000e+000 1.000000e+000 0.000000e+000 0.000000e+000 0.000000e+000
 0.000000e+000 5.634480e-001 4.365520e-001 0.000000e+000 0.000000e+000
 0.000000e+000 0.000000e+000 5.628626e-001 4.371374e-001 0.000000e+000
 0.000000e+000 0.000000e+000 0.000000e+000 7.027583e-001 2.972417e-001
 0.000000e+000 0.000000e+000 0.000000e+000 0.000000e+000 0.000000e+000
<ENDHMM>
~h "m"
<BEGINHMM>
<NUMSTATES> 5
<STATE> 2
<MEAN> 25
 6.376195e+000 -1.039032e+000 1.866223e+000 -3.729220e-002 -6.206063e-001 4.575797e+000 -2.682650e-001 -6.320089e+000 -6.074107e+000 2.637202e-002 -3.865210e-001 -1.564609e+000 2.509820e-001 4.598022e-001 5.443089e-001 7.204222e-001 1.332117e-001 2.202384e-001 3.552577e-001 -1.132889e+000 -1.150780e+000 -2.331579e-002 -8.895956e-002 2.777646e-001 -3.772600e-001
<VARIANCE> 25
 2.464535e+001 3.905811e+001 4.391273e+001 5.849122e+001 3.943422e+001 5.142307e+001 5.960471e+001 7.621307e+001 7.374825e+001 4.254921e+001 4.388099e+001 4.153748e+001 1.313408e+000 2.218063e+000 3.347543e+000 4.450783e+000 2.451345e+000 2.669904e+000 3.610526e+000 6.159908e+000 6.172276e+000 2.817472e+000 3.962086e+000 3.025400e+000 2.934563e+000
<GCONST> 1.074305e+002
<STATE> 3
<MEAN> 25
 6.697044e+000 -3.012362e-001 2.845479e+000 1.063419e+000 -4.454650e-001 4.984292e+000 1.656259e-001 -8.122503e+000 -8.044875e+000 -8.440307e-002 -6.066715e-001 -1.033410e+000 4.173870e-002 1.431962e-001 1.416908e-001 1.776077e-001 4.377522e-002 1.026394e-001 5.599796e-002 -2.246093e-001 -2.884526e-001 -2.871400e-002 -5.576992e-002 4.845554e-002 -3.000217e-002
<VARIANCE> 25
 2.088852e+001 3.329293e+001 4.011753e+001 5.447536e+001 3.728075e+001 4.967173e+001 6.018388e+001 7.212838e+001 6.908289e+001 4.370253e+001 4.512297e+001 4.108698e+001 1.093015e+000 2.214317e+000 3.363038e+000 4.733746e+000 2.164971e+000 2.530367e+000 3.377001e+000 6.419669e+000 6.718908e+000 2.664733e+000 3.627927e+000 3.113664e+000 2.996887e+000
<GCONST> 1.064542e+002
<STATE> 4
<MEAN> 25
 5.967705e+000 -1.170826e-001 2.303490e+000 8.820009e-001 -3.612404e-001 5.134299e+000 -3.095568e-001 -6.784495e+000 -6.827542e+000 -4.213563e-001 -7.443283e-001 -1.308980e+000 -1.405655e-001 -6.875420e-002 -2.908694e-001 -2.399840e-001 -1.947111e-002 -7.933470e-002 -9.226200e-002 6.124880e-001 5.746037e-001 -1.255603e-002 1.273177e-002 -1.794335e-001 4.588168e-002
<VARIANCE> 25
 2.509193e+001 3.689213e+001 4.431388e+001 5.543715e+001 4.105302e+001 5.125279e+001 5.763532e+001 7.400159e+001 7.188106e+001 4.068295e+001 4.188324e+001 3.961547e+001 8.490341e-001 1.841120e+000 2.691968e+000 3.399804e+000 2.094481e+000 2.257727e+000 2.824777e+000 4.611609e+000 4.863859e+000 2.331764e+000 2.979468e+000 2.523182e+000 2.390137e+000
<GCONST> 1.040873e+002
<TRANSP> 5
 0.000000e+000 1.000000e+000 0.000000e+000 0.000000e+000 0.000000e+000
 0.000000e+000 6.064962e-001 3.935038e-001 0.000000e+000 0.000000e+000
 0.000000e+000 0.000000e+000 6.169754e-001 3.830246e-001 0.000000e+000
 0.000000e+000 0.000000e+000 0.000000e+000 7.678278e-001 2.321722e-001
 0.000000e+000 0.000000e+000 0.000000e+000 0.000000e+000 0.000000e+000
<ENDHMM>
~h "n"
<BEGINHMM>
<NUMSTATES> 5
<STATE> 2
<MEAN> 25
 6.036967e+000 -2.263985e+000 3.967840e+000 1.763826e+000 -2.643405e+000 -1.183750e+000 -2.910661e+000 -2.529152e+000 -9.344330e-001 1.821561e+000 -4.589404e+000 -2.029338e+000 2.944447e-001 9.241187e-001 8.426645e-001 1.018654e+000 -1.625947e-001 -3.421535e-001 1.924660e-001 -1.670767e+000 -3.458234e-001 5.080976e-001 -3.794968e-001 4.076385e-001 -9.612769e-001
<VARIANCE> 25
 1.731514e+001 4.295360e+001 4.593148e+001 4.543164e+001 4.429475e+001 4.264309e+001 5.268087e+001 1.148155e+002 4.811273e+001 4.777488e+001 4.419553e+001 3.524532e+001 1.127705e+000 3.090460e+000 3.811791e+000 3.845525e+000 2.918614e+000 3.430139e+000 4.288826e+000 1.064419e+001 4.374121e+000 4.120672e+000 3.660962e+000 2.607809e+000 3.202330e+000
<GCONST> 1.079144e+002
<STATE> 3
<MEAN> 25
 6.310591e+000 -2.291808e-001 5.473039e+000 3.589281e+000 -2.901515e+000 -1.463179e+000 -2.260837e+000 -5.870744e+000 -1.670739e+000 2.598683e+000 -5.034857e+000 -9.650077e-001 -4.016678e-002 5.988308e-001 2.702563e-001 4.084340e-001 4.967289e-002 3.274126e-002 2.357703e-001 -6.600547e-001 -2.125274e-001 3.106645e-002 -9.738836e-003 2.845658e-001 -7.128444e-001
<VARIANCE> 25
 1.736245e+001 3.512693e+001 3.788279e+001 4.151327e+001 4.235411e+001 3.969406e+001 5.752017e+001 9.753729e+001 4.653146e+001 5.014945e+001 4.223795e+001 3.439886e+001 1.209843e+000 3.139128e+000 3.560945e+000 3.903359e+000 2.944077e+000 3.108524e+000 4.025807e+000 1.084316e+001 4.054735e+000 3.915541e+000 3.267315e+000 2.537928e+000 3.303192e+000
<GCONST> 1.068484e+002
<STATE> 4
<MEAN> 25
 5.525525e+000 9.493583e-001 5.250946e+000 3.962913e+000 -2.114209e+000 -7.218972e-001 -1.575458e+000 -5.782853e+000 -1.980705e+000 1.759745e+000 -4.439406e+000 -3.933726e-001 -3.979528e-001 2.276622e-001 -3.439044e-001 -1.188158e-001 3.370469e-001 2.034914e-001 2.181188e-001 4.567001e-001 -3.847390e-002 -3.928286e-001 3.048018e-001 6.404709e-002 -5.681823e-001
<VARIANCE> 25
 2.382983e+001 3.905681e+001 3.990554e+001 4.341918e+001 4.710788e+001 3.936775e+001 5.532030e+001 8.748907e+001 4.528568e+001 4.933415e+001 4.076507e+001 3.404036e+001 1.373775e+000 2.652033e+000 2.687535e+000 2.905388e+000 2.789665e+000 2.667617e+000 3.261857e+000 6.700934e+000 3.224757e+000 3.094400e+000 2.628421e+000 2.105910e+000 3.153307e+000
<GCONST> 1.047971e+002
<TRANSP> 5
 0.000000e+000 1.000000e+000 0.000000e+000 0.000000e+000 0.000000e+000
 0.000000e+000 6.271560e-001 3.728440e-001 0.000000e+000 0.000000e+000
 0.000000e+000 0.000000e+000 6.261057e-001 3.738943e-001 0.000000e+000
 0.000000e+000 0.000000e+000 0.000000e+000 7.434984e-001 2.565016e-001
 0.000000e+000 0.000000e+000 0.000000e+000 0.000000e+000 0.000000e+000
<ENDHMM>
~h "o"
<BEGINHMM>
<NUMSTATES> 5
<STATE> 2
<MEAN> 25
 5.703408e+000 1.949958e-001 -4.984396e+000 -1.017561e+001 -2.796482e+000 7.168997e+000 -3.501832e+000 -2.091991e+000 -1.573531e-001 1.317484e+000 4.043770e+000 7.634056e-002 7.727882e-001 -7.670958e-002 -4.007997e-001 -1.721863e+000 -4.688868e-001 1.295601e+000 -2.076832e-001 1.206680e-001 -2.037676e-002 -3.765848e-002 5.850023e-001 -5.043893e-002 9.315957e-001
<VARIANCE> 25
 3.328119e+001 3.263570e+001 4.672837e+001 8.958268e+001 5.700051e+001 6.137399e+001 6.546825e+001 4.926719e+001 4.892854e+001 5.286731e+001 3.782907e+001 3.255408e+001 3.166750e+000 2.382671e+000 3.849905e+000 7.377032e+000 4.872015e+000 5.348568e+000 4.365248e+000 4.118948e+000 4.045081e+000 4.003963e+000 3.327725e+000 2.696230e+000 5.377366e+000
<GCONST> 1.106679e+002
<STATE> 3
<MEAN> 25
 6.913668e+000 7.260713e-002 -5.332417e+000 -1.284077e+001 -3.403984e+000 9.348653e+000 -3.284878e+000 -1.862525e+000 -1.434052e-001 9.156922e-001 4.855063e+000 5.179262e-002 2.472224e-001 -6.465356e-002 5.435670e-002 -2.863545e-001 -6.289055e-002 2.862704e-001 6.023337e-002 9.488631e-003 6.411008e-002 -3.876178e-002 3.857865e-002 -5.235346e-002 6.637603e-002
<VARIANCE> 25
 2.356152e+001 3.248109e+001 3.749014e+001 7.905038e+001 5.171612e+001 5.306342e+001 6.174172e+001 4.829525e+001 4.740561e+001 5.574400e+001 3.658981e+001 3.335306e+001 1.929047e+000 2.106721e+000 2.713034e+000 6.856536e+000 3.744400e+000 4.855894e+000 3.671046e+000 3.385623e+000 3.425125e+000 3.587655e+000 3.037755e+000 2.379841e+000 4.478070e+000
<GCONST> 1.072172e+002
<STATE> 4
<MEAN> 25
 6.828844e+000 3.976071e-001 -4.643536e+000 -1.195954e+001 -2.977657e+000 9.051056e+000 -2.350786e+000 -1.775757e+000 5.492951e-001 2.068287e-001 3.611800e+000 -5.136697e-002 -1.838569e-001 2.627246e-002 2.683920e-001 9.259740e-001 2.729820e-001 -5.868414e-001 1.279250e-001 -9.433228e-002 7.979478e-002 7.760417e-002 -3.759115e-001 -6.232449e-002 -5.961688e-001
<VARIANCE> 25
 2.499735e+001 3.671865e+001 3.481845e+001 9.017876e+001 5.135058e+001 5.525364e+001 6.193220e+001 4.745753e+001 4.555994e+001 5.153397e+001 3.442810e+001 3.277357e+001 1.173331e+000 1.711720e+000 1.905083e+000 4.428782e+000 2.630325e+000 3.391357e+000 2.955760e+000 2.869232e+000 2.791349e+000 2.891390e+000 2.362131e+000 1.941704e+000 2.845676e+000
<GCONST> 1.033605e+002
<TRANSP> 5
 0.000000e+000 1.000000e+000 0.000000e+000 0.000000e+000 0.000000e+000
 0.000000e+000 6.944430e-001 3.055570e-001 0.000000e+000 0.000000e+000
 0.000000e+000 0.000000e+000 6.887243e-001 3.112757e-001 0.000000e+000
 0.000000e+000 0.000000e+000 0.000000e+000 8.448200e-001 1.551801e-001
 0.000000e+000 0.000000e+000 0.000000e+000 0.000000e+000 0.000000e+000
<ENDHMM>
~h "p"
<BEGINHMM>
<NUMSTATES> 5
<STATE> 2
<MEAN> 25
 1.624296e+000 2.406630e+000 -1.557219e+000 3.717102e-002 1.156640e+000 1.054379e+000 1.579900e+000 -2.630324e+000 5.265339e-001 1.990834e-001 2.788355e-001 -4.677598e-001 -3.347529e-001 -4.634709e-002 -3.774350e-001 -7.600409e-002 1.005755e-001 -8.414600e-002 1.497995e-001 9.654357e-002 2.886427e-001 -1.242796e-001 1.708771e-001 7.612653e-002 -2.508985e-001
<VARIANCE> 25
 4.167094e+001 4.173635e+001 3.550545e+001 5.177026e+001 3.156908e+001 4.688783e+001 3.744052e+001 4.048476e+001 3.912115e+001 2.899304e+001 2.802603e+001 3.174047e+001 3.580514e+000 4.233650e+000 2.458715e+000 4.613100e+000 3.112988e+000 4.198658e+000 3.623815e+000 3.363011e+000 3.211944e+000 2.779310e+000 2.648854e+000 2.499693e+000 1.816691e+001
<GCONST> 1.065695e+002
<STATE> 3
<MEAN> 25
 1.120541e+000 1.179296e+000 -2.783461e+000 -1.093090e+000 8.979143e-001 1.302437e+000 1.387041e+000 -2.159895e+000 1.252765e+000 2.413969e-002 7.650263e-001 -6.473920e-001 4.414475e-002 -8.120640e-001 -4.572608e-001 -6.402459e-001 -1.786476e-001 2.894821e-001 -3.077044e-001 2.536953e-001 2.655594e-001 2.743012e-002 1.717052e-001 -2.124994e-001 1.435625e+000
<VARIANCE> 25
 3.945628e+001 4.450980e+001 3.389954e+001 5.726802e+001 3.082771e+001 5.316242e+001 3.659079e+001 3.528516e+001 3.372633e+001 2.694653e+001 2.690352e+001 3.161279e+001 4.741267e+000 4.819606e+000 2.793542e+000 6.101028e+000 3.423651e+000 5.914259e+000 4.149107e+000 3.603774e+000 3.275390e+000 2.996311e+000 2.939214e+000 3.222347e+000 2.018078e+001
<GCONST> 1.083265e+002
<STATE> 4
<MEAN> 25
 -5.957271e-001 1.072664e-001 -3.461543e+000 -7.096413e-001 1.350077e+000 1.365600e+000 1.632841e+000 -1.066529e+000 1.689796e+000 -3.175776e-002 7.174512e-001 -2.426410e-001 1.217521e-001 -6.102567e-001 -1.014509e-001 -3.068888e-001 -1.967680e-001 8.377916e-002 -3.318663e-001 2.088560e-001 5.408472e-002 -3.183370e-003 3.693515e-002 -1.369383e-001 1.450649e+000
<VARIANCE> 25
 4.066143e+001 4.563171e+001 2.923235e+001 5.694864e+001 3.173902e+001 5.331229e+001 3.820928e+001 3.343992e+001 2.933991e+001 2.573927e+001 2.412417e+001 3.287442e+001 3.291387e+000 3.269035e+000 2.398622e+000 4.319139e+000 2.978055e+000 4.432726e+000 3.180182e+000 3.113908e+000 2.788592e+000 2.509246e+000 2.517958e+000 2.585670e+000 1.233680e+001
<GCONST> 1.046980e+002
<TRANSP> 5
 0.000000e+000 1.000000e+000 0.000000e+000 0.000000e+000 0.000000e+000
 0.000000e+000 6.022385e-001 3.977614e-001 0.000000e+000 0.000000e+000
 0.000000e+000 0.000000e+000 6.051995e-001 3.948005e-001 0.000000e+000
 0.000000e+000 0.000000e+000 0.000000e+000 7.353544e-001 2.646455e-001
 0.000000e+000 0.000000e+000 0.000000e+000 0.000000e+000 0.000000e+000
<ENDHMM>
~h "q"
<BEGINHMM>
<NUMSTATES> 5
<STATE> 2
<MEAN> 25
 -3.685625e+000 4.428811e+000 3.511919e+000 6.003640e+000 -2.818072e+000 -5.345575e+000 3.762322e+000 3.265305e-001 -1.350485e+000 -2.970570e+000 2.144506e+000 2.680383e+000 -1.247657e-001 1.744477e-001 3.415668e-002 1.805230e-002 6.673227e-002 -1.048293e-001 6.092345e-002 -1.927426e-001 -8.974865e-002 -5.699776e-002 6.579573e-002 1.160703e-001 -1.911033e-001
<VARIANCE> 25
 1.060494e+002 3.609619e+001 9.518718e+001 2.890597e+001 4.206580e+001 3.138536e+001 4.169725e+001 2.957072e+001 7.818908e+001 2.292204e+001 2.366291e+001 3.232909e+001 7.945417e+000 3.613194e+000 7.631165e+000 3.004632e+000 4.282932e+000 3.758455e+000 4.745971e+000 3.016549e+000 6.658114e+000 2.373080e+000 2.658575e+000 2.598546e+000 5.936609e+000
<GCONST> 1.089544e+002
<STATE> 3
<MEAN> 25
 -6.284440e-001 2.826443e+000 5.231780e+000 4.272846e+000 -4.383217e+000 -6.658533e+000 1.614895e+000 -1.968313e-001 -4.722103e+000 -1.662357e+000 2.693351e+000 1.623009e+000 -2.798523e-001 -7.943124e-002 -5.920253e-001 -1.415376e-001 2.011170e-001 1.117161e-001 1.959904e-001 -9.002568e-002 3.474223e-001 -7.696442e-002 -1.176637e-001 7.639016e-002 -2.851852e-001
<VARIANCE> 25
 5.054519e+001 4.449313e+001 1.313113e+002 3.444294e+001 5.440953e+001 3.929409e+001 5.171083e+001 3.224953e+001 7.359953e+001 2.571800e+001 2.702678e+001 3.477108e+001 3.701676e+000 4.450864e+000 7.627921e+000 3.045417e+000 5.065310e+000 3.773957e+000 5.317153e+000 3.012572e+000 6.660457e+000 2.359993e+000 2.700940e+000 2.458829e+000 9.390862e+000
<GCONST> 1.101197e+002
<STATE> 4
<MEAN> 25
 -9.966597e+000 3.666741e+000 -2.547574e+000 2.948739e+000 -9.921227e-001 -2.230281e+000 7.838010e+000 -3.330963e+000 3.135535e+000 -2.874971e+000 1.053374e+000 2.999697e+000 -2.892062e-001 2.629086e-002 -3.540857e-001 -3.450974e-001 1.729613e-001 6.612070e-001 7.098740e-002 -1.570474e-001 1.731857e-001 4.027481e-003 -4.971025e-002 4.051383e-002 9.061087e-002
<VARIANCE> 25
 7.841457e+001 1.987006e+001 4.794338e+001 2.294385e+001 2.406968e+001 3.994926e+001 5.297269e+001 2.174841e+001 3.223131e+001 2.014155e+001 3.436916e+001 1.473649e+001 2.259947e+000 2.974779e+000 4.841744e+000 1.817821e+000 3.034678e+000 2.098082e+000 2.479781e+000 2.318143e+000 3.087341e+000 2.174854e+000 2.152062e+000 1.633650e+000 3.951804e+000
<GCONST> 9.913850e+001
<TRANSP> 5
 0.000000e+000 1.000000e+000 0.000000e+000 0.000000e+000 0.000000e+000
 0.000000e+000 9.114965e-001 8.850344e-002 0.000000e+000 0.000000e+000
 0.000000e+000 0.000000e+000 9.053963e-001 9.460367e-002 0.000000e+000
 0.000000e+000 0.000000e+000 0.000000e+000 8.841996e-001 1.158004e-001
 0.000000e+000 0.000000e+000 0.000000e+000 0.000000e+000 0.000000e+000
<ENDHMM>
~h "r"
<BEGINHMM>
<NUMSTATES> 5
<STATE> 2
<MEAN> 25
 4.280715e+000 -4.353785e+000 -2.543318e+000 -1.428351e-001 -1.882665e+000 -1.401357e-001 -3.924152e+000 7.616034e-001 4.214654e+000 1.490358e+000 1.529975e-001 -2.174638e+000 1.986046e-001 -8.547230e-002 1.024719e-001 3.887118e-001 -5.084515e-002 -1.209765e-001 -2.562297e-001 -5.196144e-002 1.344203e-001 -7.715215e-003 6.049478e-002 2.922069e-002 -2.119004e-001
<VARIANCE> 25
 3.219435e+001 4.300712e+001 4.736652e+001 4.868881e+001 4.961287e+001 5.207538e+001 6.287574e+001 6.873000e+001 5.092320e+001 3.985216e+001 4.041362e+001 3.580766e+001 2.621659e+000 3.026482e+000 2.961581e+000 4.337274e+000 4.176229e+000 4.177116e+000 4.651986e+000 4.817528e+000 4.578608e+000 3.805794e+000 3.455919e+000 3.073282e+000 5.393664e+000
<GCONST> 1.095433e+002
<STATE> 3
<MEAN> 25
 4.584805e+000 -4.440480e+000 -2.215899e+000 4.370166e-001 -1.945041e+000 -2.357103e-001 -4.231488e+000 6.935672e-001 4.134773e+000 1.389412e+000 2.558567e-001 -2.052424e+000 6.590741e-002 1.519368e-002 2.406643e-001 1.696545e-001 -4.549338e-002 -5.631746e-002 -2.729952e-002 8.328767e-003 -2.430193e-001 -9.604537e-002 3.279429e-002 1.024973e-001 -2.849847e-001
<VARIANCE> 25
 3.270322e+001 4.388279e+001 4.945299e+001 4.780659e+001 5.056606e+001 5.383888e+001 6.490353e+001 6.820108e+001 5.192884e+001 4.143935e+001 4.024316e+001 3.671135e+001 2.553603e+000 3.058343e+000 2.967543e+000 4.019106e+000 4.281841e+000 4.221683e+000 4.719844e+000 4.816579e+000 4.614293e+000 3.773360e+000 3.423470e+000 3.095008e+000 5.002140e+000
<GCONST> 1.096409e+002
<STATE> 4
<MEAN> 25
 4.136885e+000 -4.223517e+000 -1.999135e+000 5.800769e-001 -1.555382e+000 1.947320e-002 -3.555344e+000 8.140972e-001 3.367028e+000 8.052651e-001 1.036279e-002 -1.686535e+000 -1.229323e-001 1.595719e-001 2.981487e-001 -4.679419e-002 5.755030e-003 -1.293040e-002 2.107523e-001 2.093188e-002 -5.119253e-001 -1.500181e-001 1.794962e-002 1.487200e-001 -2.997310e-001
<VARIANCE> 25
 3.661803e+001 4.868399e+001 5.330862e+001 4.843647e+001 5.464750e+001 5.715449e+001 6.760843e+001 6.577362e+001 5.186355e+001 4.060772e+001 4.032772e+001 3.772443e+001 2.054741e+000 2.582423e+000 2.627453e+000 3.058033e+000 3.754656e+000 3.539370e+000 3.909116e+000 4.008142e+000 3.980056e+000 3.147531e+000 2.942182e+000 2.549538e+000 3.878193e+000
<GCONST> 1.077053e+002
<TRANSP> 5
 0.000000e+000 1.000000e+000 0.000000e+000 0.000000e+000 0.000000e+000
 0.000000e+000 5.365761e-001 4.634239e-001 0.000000e+000 0.000000e+000
 0.000000e+000 0.000000e+000 5.348287e-001 4.651713e-001 0.000000e+000
 0.000000e+000 0.000000e+000 0.000000e+000 6.429051e-001 3.570950e-001
 0.000000e+000 0.000000e+000 0.000000e+000 0.000000e+000 0.000000e+000
<ENDHMM>
~h "s"
<BEGINHMM>
<NUMSTATES> 5
<STATE> 2
<MEAN> 25
 -1.033516e+001 5.021802e+000 -1.859189e+000 2.189446e+000 4.961600e+000 -4.114131e+000 2.876514e+000 1.769220e+000 1.986383e+000 -4.734915e-001 1.975535e-002 2.767710e+000 -3.036398e+000 8.524570e-001 -7.896422e-001 3.341945e-001 9.141418e-001 -2.863300e-001 9.387133e-001 3.981887e-001 3.888632e-001 -2.290235e-001 4.496044e-001 5.073587e-001 -4.137962e-001
<VARIANCE> 25
 1.056511e+002 4.034794e+001 4.783144e+001 3.544932e+001 4.082082e+001 3.804870e+001 6.316009e+001 4.538827e+001 4.213689e+001 3.038808e+001 3.211705e+001 2.656927e+001 7.313694e+000 5.436741e+000 3.487142e+000 3.602487e+000 4.454910e+000 3.430456e+000 5.216654e+000 4.100821e+000 3.476805e+000 3.083030e+000 2.926602e+000 2.425382e+000 2.645062e+000
<GCONST> 1.082614e+002
<STATE> 3
<MEAN> 25
 -1.663512e+001 5.003229e+000 -4.011748e+000 1.800078e+000 5.641654e+000 -4.265576e+000 3.894028e+000 2.443399e+000 2.643431e+000 -5.215397e-001 1.142141e+000 3.477956e+000 -4.777102e-001 -2.464041e-001 -2.592326e-001 -2.030456e-001 -1.437408e-001 -1.206837e-003 -1.204134e-001 -1.827211e-002 9.435804e-002 2.920017e-002 1.248577e-001 -2.350019e-002 -1.497909e-001
<VARIANCE> 25
 7.138133e+001 3.241142e+001 4.142963e+001 3.269920e+001 3.392253e+001 3.343974e+001 5.834799e+001 3.852540e+001 3.682889e+001 2.655867e+001 2.575012e+001 2.392262e+001 1.291766e+001 3.251664e+000 3.468354e+000 2.579224e+000 3.174938e+000 2.711713e+000 4.481949e+000 3.310422e+000 2.889350e+000 2.407938e+000 2.559655e+000 2.316555e+000 2.647471e+000
<GCONST> 1.044376e+002
<STATE> 4
<MEAN> 25
 -1.397086e+001 3.290996e+000 -3.926599e+000 1.195745e+000 4.540369e+000 -3.644933e+000 2.715047e+000 1.712112e+000 2.772968e+000 -3.125720e-001 8.939312e-001 2.797275e+000 1.717576e+000 -3.715377e-001 4.896014e-001 -2.621256e-001 -5.850958e-001 1.689941e-001 -7.047603e-001 -3.477142e-001 -1.450965e-001 4.228687e-002 -1.437946e-001 -4.091298e-001 1.834290e-001
<VARIANCE> 25
 9.784818e+001 3.176779e+001 4.282692e+001 3.162390e+001 3.619517e+001 3.337104e+001 5.689543e+001 3.689750e+001 3.476949e+001 2.403171e+001 2.409402e+001 2.449673e+001 9.249316e+000 2.572731e+000 3.267043e+000 2.514661e+000 2.823918e+000 2.795075e+000 4.186934e+000 3.419340e+000 3.164947e+000 2.270189e+000 2.325197e+000 2.266634e+000 3.272346e+000
<GCONST> 1.038770e+002
<TRANSP> 5
 0.000000e+000 1.000000e+000 0.000000e+000 0.000000e+000 0.000000e+000
 0.000000e+000 7.483928e-001 2.516072e-001 0.000000e+000 0.000000e+000
 0.000000e+000 0.000000e+000 7.505698e-001 2.494303e-001 0.000000e+000
 0.000000e+000 0.000000e+000 0.000000e+000 8.527434e-001 1.472566e-001
 0.000000e+000 0.000000e+000 0.000000e+000 0.000000e+000 0.000000e+000
<ENDHMM>
~h "t"
<BEGINHMM>
<NUMSTATES> 5
<STATE> 2
<MEAN> 25
 3.055695e-001 2.222028e+000 -9.260738e-001 7.007895e-001 1.069236e+000 -2.502368e+000 -3.002109e-001 -1.129153e+000 2.247084e+000 6.358528e-001 -1.361674e+000 -5.314471e-001 -5.692371e-001 -2.204867e-002 -3.540045e-001 -6.484368e-002 2.482034e-001 -2.036107e-001 2.899348e-001 -1.630572e-002 2.766715e-001 -1.832592e-001 7.343882e-002 1.118381e-001 -5.577874e-001
<VARIANCE> 25
 3.848084e+001 4.484657e+001 4.017020e+001 4.181488e+001 3.610642e+001 4.005230e+001 4.876685e+001 4.581549e+001 4.230740e+001 3.151589e+001 3.357749e+001 2.913112e+001 3.227117e+000 4.850754e+000 2.857000e+000 3.961398e+000 3.521770e+000 3.530030e+000 4.487976e+000 3.907859e+000 3.492422e+000 2.958325e+000 2.748218e+000 2.534609e+000 1.839758e+001
<GCONST> 1.076464e+002
<STATE> 3
<MEAN> 25
 -1.041492e+000 1.186539e+000 -1.945258e+000 -1.938428e-001 1.123495e+000 -2.657480e+000 9.704120e-002 -8.877951e-001 2.870444e+000 2.420463e-001 -1.137522e+000 -3.544131e-001 -2.618903e-001 -6.377593e-001 -3.406646e-001 -5.464876e-001 -9.267371e-002 5.465232e-002 -1.447381e-001 1.679743e-001 1.960030e-001 -1.043452e-001 7.954646e-002 -6.466103e-002 1.218644e+000
<VARIANCE> 25
 3.964070e+001 4.470282e+001 3.719149e+001 3.983035e+001 3.350896e+001 3.988306e+001 4.598542e+001 4.016730e+001 4.036662e+001 2.952315e+001 3.095211e+001 2.917391e+001 4.605097e+000 4.501947e+000 3.243341e+000 4.265685e+000 3.668694e+000 4.063728e+000 5.357688e+000 4.192498e+000 3.973529e+000 3.055943e+000 3.062238e+000 3.071437e+000 2.124830e+001
<GCONST> 1.086025e+002
<STATE> 4
<MEAN> 25
 -1.600883e+000 -2.113784e-001 -2.573565e+000 -1.166684e+000 9.468281e-001 -2.114275e+000 7.580809e-002 -2.979644e-001 2.983876e+000 3.003161e-002 -9.423028e-001 -3.167064e-001 1.784495e-001 -5.641651e-001 2.966191e-002 -4.741962e-001 -2.528510e-001 2.228142e-001 -4.267811e-001 8.198594e-002 -1.219279e-001 -3.315490e-002 1.383538e-001 -1.489793e-001 1.920223e+000
<VARIANCE> 25
 4.022016e+001 4.417784e+001 3.510407e+001 4.063082e+001 3.403641e+001 4.116061e+001 4.824320e+001 3.907391e+001 4.013083e+001 2.820424e+001 2.999489e+001 3.034134e+001 4.453047e+000 3.575967e+000 3.390570e+000 3.842460e+000 3.597106e+000 4.069501e+000 5.064311e+000 4.125791e+000 3.941478e+000 2.930952e+000 2.952439e+000 2.955114e+000 1.624275e+001
<GCONST> 1.077829e+002
<TRANSP> 5
 0.000000e+000 1.000000e+000 0.000000e+000 0.000000e+000 0.000000e+000
 0.000000e+000 6.111954e-001 3.888045e-001 0.000000e+000 0.000000e+000
 0.000000e+000 0.000000e+000 6.146171e-001 3.853829e-001 0.000000e+000
 0.000000e+000 0.000000e+000 0.000000e+000 6.996586e-001 3.003413e-001
 0.000000e+000 0.000000e+000 0.000000e+000 0.000000e+000 0.000000e+000
<ENDHMM>
~h "u"
<BEGINHMM>
<NUMSTATES> 5
<STATE> 2
<MEAN> 25
 5.679800e+000 4.375426e+000 -9.756831e-001 -4.400898e+000 -3.146677e+000 3.839700e+000 -5.706150e+000 -4.700788e+000 -3.777758e+000 -3.885689e-001 3.051045e+000 3.706762e-001 9.064140e-001 4.599110e-001 -8.070911e-002 -9.829587e-001 -5.817127e-001 7.982316e-001 -6.710735e-001 -3.401811e-001 -6.811409e-001 -5.994087e-002 5.202201e-001 7.162775e-002 5.676941e-001
<VARIANCE> 25
 3.757645e+001 3.875447e+001 4.253120e+001 8.088159e+001 5.147236e+001 5.435958e+001 7.790735e+001 6.562904e+001 5.597440e+001 4.702687e+001 4.084795e+001 3.178543e+001 3.931238e+000 3.212561e+000 3.325678e+000 6.447851e+000 4.904161e+000 5.066918e+000 6.333586e+000 5.501819e+000 5.253623e+000 4.336745e+000 3.800837e+000 2.980006e+000 5.440264e+000
<GCONST> 1.125067e+002
<STATE> 3
<MEAN> 25
 7.110266e+000 5.158182e+000 -1.000968e+000 -6.098362e+000 -4.019748e+000 5.332909e+000 -6.455635e+000 -5.110922e+000 -4.748076e+000 -5.198858e-001 3.810505e+000 5.530090e-001 2.668942e-001 1.119709e-001 8.692247e-002 -1.803557e-001 -7.766803e-002 2.229536e-001 -6.654842e-002 -9.901357e-002 -4.501916e-002 5.249815e-002 7.131033e-002 1.280815e-002 -8.310763e-002
<VARIANCE> 25
 2.555280e+001 3.827673e+001 3.768288e+001 8.131541e+001 4.945596e+001 5.095422e+001 7.640943e+001 6.678006e+001 5.775967e+001 5.168727e+001 4.288285e+001 3.317525e+001 2.588697e+000 2.988821e+000 2.731486e+000 6.558300e+000 4.534738e+000 4.956904e+000 5.808300e+000 4.896963e+000 5.110088e+000 4.275614e+000 3.953664e+000 2.884713e+000 4.854056e+000
<GCONST> 1.109814e+002
<STATE> 4
<MEAN> 25
 7.136791e+000 5.089860e+000 -5.929455e-001 -5.788438e+000 -3.758090e+000 5.051205e+000 -5.804365e+000 -4.818254e+000 -4.012868e+000 -3.785558e-001 3.217202e+000 2.633739e-001 -3.638676e-001 -2.241014e-001 1.656526e-001 6.250822e-001 3.744790e-001 -4.121928e-001 3.780550e-001 7.313481e-002 4.634547e-001 1.278550e-001 -3.308631e-001 -4.764026e-002 -4.735460e-001
<VARIANCE> 25
 2.596558e+001 4.149970e+001 3.833256e+001 8.236560e+001 5.088531e+001 5.217160e+001 7.658858e+001 6.277771e+001 5.855298e+001 4.933046e+001 4.447828e+001 3.393664e+001 1.810666e+000 2.554542e+000 2.320594e+000 4.578746e+000 3.662989e+000 3.849448e+000 4.371660e+000 3.974884e+000 4.004403e+000 3.564041e+000 3.406172e+000 2.626816e+000 3.598702e+000
<GCONST> 1.081634e+002
<TRANSP> 5
 0.000000e+000 1.000000e+000 0.000000e+000 0.000000e+000 0.000000e+000
 0.000000e+000 6.484357e-001 3.515643e-001 0.000000e+000 0.000000e+000
 0.000000e+000 0.000000e+000 6.556137e-001 3.443864e-001 0.000000e+000
 0.000000e+000 0.000000e+000 0.000000e+000 7.766434e-001 2.233566e-001
 0.000000e+000 0.000000e+000 0.000000e+000 0.000000e+000 0.000000e+000
<ENDHMM>
~h "w"
<BEGINHMM>
<NUMSTATES> 5
<STATE> 2
<MEAN> 25
 7.882225e+000 2.752504e-002 -2.292588e+000 -9.847915e+000 -3.316382e+000 6.995939e+000 -4.158005e+000 -5.453393e-001 -1.849773e+000 1.000842e+000 3.333764e+000 -1.288592e+000 6.728488e-001 2.298639e-001 -1.915291e-001 -1.300942e+000 -4.371584e-001 9.356705e-001 -2.140878e-001 -8.696108e-002 -3.528959e-001 -8.693451e-003 5.477952e-001 1.196940e-001 3.802943e-001
<VARIANCE> 25
 2.797899e+001 6.224557e+001 3.373421e+001 7.817028e+001 5.155366e+001 7.007124e+001 5.183391e+001 5.129604e+001 5.750274e+001 4.996926e+001 4.430305e+001 4.043285e+001 2.150446e+000 3.725405e+000 2.186451e+000 4.344296e+000 4.021400e+000 4.223713e+000 3.293229e+000 3.612957e+000 3.968868e+000 3.731247e+000 3.446839e+000 3.284124e+000 3.576398e+000
<GCONST> 1.088555e+002
<STATE> 3
<MEAN> 25
 8.855441e+000 -3.104361e-001 -2.980452e+000 -1.287995e+001 -4.042128e+000 9.137944e+000 -4.498062e+000 -3.714836e-001 -1.816580e+000 9.695037e-001 4.324849e+000 -1.213316e+000 5.007307e-002 -3.487683e-001 -1.746066e-001 -4.187336e-001 1.629488e-002 3.267748e-001 -5.296689e-002 7.818807e-002 1.862985e-001 8.050743e-002 1.068413e-001 -1.836547e-001 4.499801e-001
<VARIANCE> 25
 2.091619e+001 5.540274e+001 3.000451e+001 6.909799e+001 4.973719e+001 6.471171e+001 4.544011e+001 4.636076e+001 5.464251e+001 5.066378e+001 4.099036e+001 4.084613e+001 1.463149e+000 3.776619e+000 1.792162e+000 4.324645e+000 3.826355e+000 3.963661e+000 2.726014e+000 2.876786e+000 3.458396e+000 3.507011e+000 3.329379e+000 3.589380e+000 3.010375e+000
<GCONST> 1.063318e+002
<STATE> 4
<MEAN> 25
 8.098507e+000 -2.303844e+000 -3.613195e+000 -1.295265e+001 -2.979714e+000 9.958208e+000 -4.340036e+000 -1.855724e-001 -2.634704e-003 1.161041e+000 2.942547e+000 -2.944578e+000 -2.906581e-001 -4.586849e-001 -3.498011e-002 5.562177e-001 3.760606e-001 -3.875190e-001 5.260015e-002 1.387364e-001 3.526944e-001 1.489197e-001 -3.739152e-001 -3.310469e-001 1.748400e-001
<VARIANCE> 25
 1.825420e+001 5.946581e+001 3.415044e+001 6.523425e+001 5.235592e+001 6.384512e+001 4.350904e+001 4.406454e+001 5.446474e+001 4.651024e+001 4.374917e+001 4.077933e+001 8.196886e-001 2.585033e+000 1.542809e+000 3.027325e+000 2.813534e+000 3.193006e+000 2.118767e+000 2.416522e+000 2.583113e+000 2.513948e+000 2.730690e+000 2.838549e+000 2.271322e+000
<GCONST> 1.025023e+002
<TRANSP> 5
 0.000000e+000 1.000000e+000 0.000000e+000 0.000000e+000 0.000000e+000
 0.000000e+000 7.010025e-001 2.989975e-001 0.000000e+000 0.000000e+000
 0.000000e+000 0.000000e+000 7.103358e-001 2.896642e-001 0.000000e+000
 0.000000e+000 0.000000e+000 0.000000e+000 8.613049e-001 1.386951e-001
 0.000000e+000 0.000000e+000 0.000000e+000 0.000000e+000 0.000000e+000
<ENDHMM>
~h "y"
<BEGINHMM>
<NUMSTATES> 5
<STATE> 2
<MEAN> 25
 1.261850e+000 -2.506285e+000 8.294418e+000 -1.926106e+000 -7.589713e+000 -3.944741e+000 -3.546493e+000 4.436231e+000 -2.607509e+000 -2.125961e+000 2.295772e+000 1.023796e+000 -1.107649e-001 2.205253e-001 1.002955e+000 7.164313e-004 -7.412109e-001 -3.883255e-001 -3.705273e-001 1.800841e-001 -5.230428e-001 -1.318528e-001 5.980601e-001 3.930971e-001 2.111411e-001
<VARIANCE> 25
 2.068504e+001 4.873751e+001 8.570463e+001 3.578329e+001 5.770567e+001 4.650157e+001 5.124702e+001 7.070917e+001 6.687833e+001 4.370785e+001 4.053448e+001 3.268406e+001 1.049112e+000 2.691630e+000 5.301685e+000 1.887363e+000 3.093392e+000 2.793583e+000 3.134567e+000 4.347545e+000 4.124747e+000 2.909238e+000 2.885795e+000 2.228303e+000 2.063032e+000
<GCONST> 1.053308e+002
<STATE> 3
<MEAN> 25
 1.215833e+000 -2.437042e+000 9.905868e+000 -2.090745e+000 -9.052752e+000 -4.519981e+000 -4.389122e+000 4.820683e+000 -3.221709e+000 -2.326000e+000 3.346679e+000 1.609809e+000 4.899335e-002 -2.389041e-001 -1.149238e-001 -8.113025e-002 -1.572128e-001 -6.929965e-002 -5.503724e-002 2.971607e-001 1.528415e-001 -2.063147e-002 2.467349e-002 1.114434e-002 3.457533e-001
<VARIANCE> 25
 1.642948e+001 4.201869e+001 8.029488e+001 3.453165e+001 5.197552e+001 4.290784e+001 4.766727e+001 7.036251e+001 6.245349e+001 4.392196e+001 3.854791e+001 3.184455e+001 7.826059e-001 2.623777e+000 5.413419e+000 1.452429e+000 3.102909e+000 2.290964e+000 2.738380e+000 4.195189e+000 3.972522e+000 2.571804e+000 2.932951e+000 2.121032e+000 1.844795e+000
<GCONST> 1.032176e+002
<STATE> 4
<MEAN> 25
 9.294904e-001 -3.508476e+000 5.617604e+000 -1.639602e+000 -6.788436e+000 -3.746056e+000 -2.522372e+000 5.475835e+000 -1.113137e+000 -2.144056e+000 1.887447e+000 7.690681e-001 1.451227e-001 -4.244131e-001 -8.202399e-001 -1.193635e-001 4.465703e-001 2.550014e-001 1.966847e-001 2.916758e-001 5.142067e-001 4.689742e-002 -4.735896e-001 -3.734964e-001 2.009953e-001
<VARIANCE> 25
 1.870015e+001 4.261809e+001 7.928324e+001 3.416697e+001 6.601013e+001 3.979367e+001 4.832470e+001 7.011411e+001 5.333375e+001 3.564693e+001 3.984338e+001 3.306966e+001 4.847770e-001 1.642888e+000 3.210896e+000 1.134377e+000 2.426869e+000 1.897118e+000 2.010945e+000 3.252517e+000 2.682848e+000 2.057227e+000 2.321776e+000 1.794073e+000 1.170174e+000
<GCONST> 9.902962e+001
<TRANSP> 5
 0.000000e+000 1.000000e+000 0.000000e+000 0.000000e+000 0.000000e+000
 0.000000e+000 6.710755e-001 3.289246e-001 0.000000e+000 0.000000e+000
 0.000000e+000 0.000000e+000 6.793278e-001 3.206722e-001 0.000000e+000
 0.000000e+000 0.000000e+000 0.000000e+000 8.284200e-001 1.715800e-001
 0.000000e+000 0.000000e+000 0.000000e+000 0.000000e+000 0.000000e+000
<ENDHMM>
~h "z"
<BEGINHMM>
<NUMSTATES> 5
<STATE> 2
<MEAN> 25
 -5.259787e+000 8.171869e+000 1.097405e+000 5.431205e+000 2.931803e+000 -4.542573e+000 7.704231e-001 2.490426e-001 1.043266e+000 -1.179723e+000 -7.157470e-001 2.610844e+000 -1.271755e+000 7.216220e-001 -3.963513e-001 3.773264e-001 6.391498e-001 3.631027e-002 5.369712e-001 2.018377e-001 2.469212e-001 -2.454218e-002 1.729904e-001 3.384656e-001 -5.630129e-001
<VARIANCE> 25
 5.964408e+001 6.288619e+001 4.322029e+001 3.495729e+001 4.511092e+001 4.102194e+001 5.350446e+001 4.297547e+001 3.708536e+001 3.049081e+001 3.081965e+001 2.681009e+001 2.711492e+000 3.419896e+000 1.910903e+000 1.964745e+000 2.668198e+000 2.270031e+000 2.751229e+000 3.030285e+000 2.505420e+000 2.010189e+000 1.926298e+000 1.739028e+000 1.776975e+000
<GCONST> 1.013808e+002
<STATE> 3
<MEAN> 25
 -7.817954e+000 8.599404e+000 2.729876e-001 5.717904e+000 4.095020e+000 -3.988555e+000 1.625083e+000 5.346653e-001 1.323704e+000 -1.043113e+000 -3.742693e-001 3.084597e+000 -7.875214e-001 3.647539e-002 -1.650862e-001 8.718333e-002 2.973220e-001 1.182406e-001 2.902924e-001 5.803046e-002 1.379601e-002 4.721054e-002 1.369763e-001 1.755691e-001 -1.826064e-001
<VARIANCE> 25
 6.570129e+001 6.737203e+001 4.166408e+001 3.607633e+001 4.164604e+001 3.953889e+001 5.094014e+001 3.725780e+001 3.497210e+001 2.876370e+001 2.654714e+001 2.502283e+001 2.507542e+000 2.622353e+000 1.646149e+000 1.733544e+000 2.414897e+000 2.018536e+000 2.344506e+000 2.467281e+000 2.039617e+000 1.700414e+000 1.677377e+000 1.524522e+000 1.596257e+000
<GCONST> 9.894633e+001
<STATE> 4
<MEAN> 25
 -7.366179e+000 4.422913e+000 -1.248251e+000 3.753352e+000 3.941013e+000 -1.218365e+000 1.796278e+000 1.158011e+000 9.582004e-001 -8.199528e-001 9.915481e-002 2.614589e+000 -1.200398e-003 -1.259058e-001 1.052179e-001 -5.701781e-002 -5.136574e-002 -3.726166e-002 -4.202186e-002 -5.114166e-002 -2.830498e-002 2.766402e-002 4.163056e-002 1.771912e-002 1.335115e-001
<VARIANCE> 25
 5.834829e+001 5.680579e+001 3.792965e+001 3.102430e+001 3.920017e+001 3.429855e+001 3.824521e+001 3.218741e+001 2.810105e+001 2.322219e+001 2.240627e+001 2.173690e+001 1.825768e+000 1.633214e+000 1.383106e+000 1.412078e+000 1.978003e+000 1.786914e+000 1.964831e+000 2.014054e+000 1.779010e+000 1.529966e+000 1.496432e+000 1.324595e+000 1.500185e+000
<GCONST> 9.460331e+001
<TRANSP> 5
 0.000000e+000 1.000000e+000 0.000000e+000 0.000000e+000 0.000000e+000
 0.000000e+000 6.760293e-001 3.239708e-001 0.000000e+000 0.000000e+000
 0.000000e+000 0.000000e+000 6.727965e-001 3.272035e-001 0.000000e+000
 0.000000e+000 0.000000e+000 0.000000e+000 9.085982e-001 9.140186e-002
 0.000000e+000 0.000000e+000 0.000000e+000 0.000000e+000 0.000000e+000
<ENDHMM>
~h "ai"
<BEGINHMM>
<NUMSTATES> 5
<STATE> 2
<MEAN> 25
 3.252415e+000 -6.410219e+000 3.834623e+000 -3.775152e+000 -5.994037e+000 -4.452574e+000 -2.404176e+000 7.327417e+000 -8.171185e-001 9.910955e-001 3.069393e-001 -1.840641e+000 -1.565320e-004 -1.685213e-001 1.053840e+000 -1.866099e-001 -1.090391e+000 -7.021682e-001 -4.429525e-002 6.384162e-001 -4.683793e-001 7.818289e-002 5.140550e-001 2.028881e-001 4.582397e-001
<VARIANCE> 25
 2.164280e+001 4.674640e+001 6.597102e+001 3.815363e+001 6.318446e+001 6.118240e+001 3.970128e+001 6.747047e+001 5.503185e+001 4.140129e+001 4.878590e+001 3.602552e+001 2.441052e+000 3.751167e+000 3.221713e+000 3.142515e+000 4.074685e+000 4.107351e+000 3.341591e+000 5.934578e+000 3.993959e+000 3.016064e+000 3.644702e+000 3.358147e+000 4.964909e+000
<GCONST> 1.089831e+002
<STATE> 3
<MEAN> 25
 2.952709e+000 -5.674314e+000 6.789978e+000 -3.858634e+000 -8.565241e+000 -5.917572e+000 -2.555811e+000 7.636053e+000 -2.452152e+000 1.313710e+000 2.008644e+000 -1.140861e+000 -9.987256e-002 3.862430e-001 7.941030e-001 6.222271e-002 -5.813880e-001 -3.410319e-001 6.126805e-003 -1.371342e-001 -4.638743e-001 7.301847e-002 4.139706e-001 2.467037e-001 -2.798781e-001
<VARIANCE> 25
 1.787704e+001 4.628688e+001 6.199868e+001 3.411800e+001 5.494616e+001 5.545725e+001 3.649742e+001 6.948502e+001 5.531091e+001 3.910804e+001 4.740508e+001 3.416624e+001 1.475293e+000 2.992747e+000 3.350791e+000 2.689039e+000 4.200854e+000 3.486208e+000 2.995750e+000 5.351139e+000 3.887844e+000 2.736468e+000 3.242506e+000 2.516379e+000 3.826205e+000
<GCONST> 1.061994e+002
<STATE> 4
<MEAN> 25
 2.758560e+000 -3.324968e+000 9.593911e+000 -3.577136e+000 -9.667803e+000 -6.775855e+000 -2.321600e+000 5.599802e+000 -4.474066e+000 1.602361e+000 2.680144e+000 -6.148329e-001 -8.079814e-002 5.981693e-001 1.907074e-002 3.769633e-001 3.109069e-001 7.895709e-002 1.448709e-001 -5.893214e-001 -1.096381e-001 -7.086407e-002 -1.781791e-002 1.879050e-001 -8.463794e-001
<VARIANCE> 25
 1.733701e+001 4.855579e+001 5.509053e+001 3.691176e+001 4.520501e+001 4.867577e+001 3.805722e+001 7.771658e+001 4.931282e+001 3.277448e+001 3.821896e+001 2.877764e+001 1.184616e+000 2.180143e+000 3.024431e+000 2.277805e+000 3.354922e+000 2.573693e+000 2.612240e+000 3.851031e+000 3.237325e+000 2.303129e+000 2.474784e+000 1.667982e+000 2.646968e+000
<GCONST> 1.021225e+002
<TRANSP> 5
 0.000000e+000 1.000000e+000 0.000000e+000 0.000000e+000 0.000000e+000
 0.000000e+000 6.798973e-001 3.201027e-001 0.000000e+000 0.000000e+000
 0.000000e+000 0.000000e+000 6.821302e-001 3.178698e-001 0.000000e+000
 0.000000e+000 0.000000e+000 0.000000e+000 8.466917e-001 1.533082e-001
 0.000000e+000 0.000000e+000 0.000000e+000 0.000000e+000 0.000000e+000
<ENDHMM>
~h "au"
<BEGINHMM>
<NUMSTATES> 5
<STATE> 2
<MEAN> 25
 3.129817e+000 -2.870180e+000 -5.664128e+000 -8.316939e+000 2.696812e-001 6.665150e+000 -2.027721e+000 -1.837212e+000 3.563623e+000 7.228763e-001 7.439398e-001 -2.271703e+000 8.534750e-002 2.639830e-001 -1.366673e-001 -4.434944e-001 -1.083963e-001 5.126607e-001 7.365245e-002 -2.680679e-001 -1.087866e-001 -1.825310e-001 4.192716e-001 2.627020e-001 -2.293906e-001
<VARIANCE> 25
 4.464169e+001 3.377563e+001 2.024700e+001 8.360183e+001 3.355065e+001 7.376694e+001 4.934940e+001 3.806536e+001 3.509206e+001 3.188119e+001 3.244312e+001 4.309700e+001 7.473158e-001 1.573767e+000 1.043153e+000 1.852889e+000 1.533949e+000 2.523770e+000 1.854246e+000 2.034631e+000 2.114073e+000 1.854352e+000 2.044091e+000 1.940449e+000 1.117708e+000
<GCONST> 9.667244e+001
<STATE> 3
<MEAN> 25
 3.759163e+000 -1.636718e+000 -5.775714e+000 -9.665104e+000 -3.898788e-001 7.994189e+000 -2.255557e+000 -2.234316e+000 3.123742e+000 3.770142e-001 2.000809e+000 -1.579820e+000 1.044481e-001 4.499975e-001 3.576711e-002 -2.130833e-001 -2.203431e-001 2.477904e-001 -3.929292e-002 -1.079642e-001 -2.592330e-001 -1.751187e-001 3.623824e-001 3.266621e-001 -3.418277e-001
<VARIANCE> 25
 4.674265e+001 3.522770e+001 1.969542e+001 9.143279e+001 3.480688e+001 7.122481e+001 4.867792e+001 3.589101e+001 3.555625e+001 3.124403e+001 3.142182e+001 4.381421e+001 6.496585e-001 1.451986e+000 1.002124e+000 1.964600e+000 1.484707e+000 2.074396e+000 1.806481e+000 1.833170e+000 1.955773e+000 1.867439e+000 1.988021e+000 1.877805e+000 9.961982e-001
<GCONST> 9.592130e+001
<STATE> 4
<MEAN> 25
 3.372316e+000 6.373839e-001 -5.409862e+000 -7.784382e+000 -6.453959e-001 8.214423e+000 -1.502412e+000 -1.929244e+000 2.360091e+000 -6.917047e-001 2.099107e+000 -8.708565e-001 5.738759e-003 2.375840e-001 1.022470e-001 1.528039e-001 -6.160967e-002 -1.150006e-001 -3.466965e-002 4.591160e-003 -2.032037e-001 9.292710e-003 4.327950e-002 1.551022e-001 -2.759690e-001
<VARIANCE> 25
 5.106908e+001 3.163316e+001 2.304000e+001 8.956897e+001 3.703208e+001 7.423907e+001 4.417580e+001 3.019524e+001 3.573430e+001 2.728561e+001 2.649189e+001 4.038811e+001 7.006301e-001 1.192021e+000 1.187207e+000 1.839452e+000 1.589487e+000 1.865730e+000 1.765546e+000 1.541538e+000 1.758432e+000 1.719679e+000 1.613921e+000 1.569719e+000 1.561366e+000
<GCONST> 9.511026e+001
<TRANSP> 5
 0.000000e+000 1.000000e+000 0.000000e+000 0.000000e+000 0.000000e+000
 0.000000e+000 6.789870e-001 3.210130e-001 0.000000e+000 0.000000e+000
 0.000000e+000 0.000000e+000 6.769406e-001 3.230594e-001 0.000000e+000
 0.000000e+000 0.000000e+000 0.000000e+000 9.373023e-001 6.269768e-002
 0.000000e+000 0.000000e+000 0.000000e+000 0.000000e+000 0.000000e+000
<ENDHMM>
~h "kh"
<BEGINHMM>
<NUMSTATES> 5
<STATE> 2
<MEAN> 25
 -3.867203e+000 -2.137123e+000 -5.870151e+000 -3.535295e-001 5.905225e+000 8.827399e-001 2.644577e+000 7.627199e-001 1.873807e+000 5.048239e-001 1.150550e-001 1.548027e+000 -9.104662e-001 -3.528636e-001 -7.170093e-001 -8.563455e-002 6.477383e-001 -1.116992e-001 2.066371e-001 2.627737e-001 1.069158e-001 4.587828e-003 2.255671e-001 2.662080e-001 -5.123811e-003
<VARIANCE> 25
 4.184511e+001 5.437641e+001 5.577364e+001 4.964969e+001 5.728739e+001 6.550814e+001 4.668223e+001 3.852596e+001 4.544052e+001 3.738145e+001 3.173000e+001 3.036163e+001 3.307093e+000 3.437071e+000 3.887207e+000 3.354085e+000 4.684371e+000 4.318389e+000 4.084840e+000 2.927413e+000 3.129107e+000 2.966355e+000 2.350894e+000 2.238385e+000 4.379068e+000
<GCONST> 1.074886e+002
<STATE> 3
<MEAN> 25
 -5.826778e+000 -3.337446e+000 -7.286295e+000 -1.086893e+000 6.841645e+000 9.077666e-001 2.816354e+000 1.383694e+000 2.031426e+000 4.676510e-001 7.831933e-001 1.896924e+000 -3.349499e-001 -2.009898e-001 -2.444603e-001 -1.906156e-001 9.645882e-003 6.453624e-002 1.176766e-001 7.911979e-002 -1.735481e-002 -7.597955e-002 1.590517e-001 5.181415e-002 1.618229e-001
<VARIANCE> 25
 4.110360e+001 4.800206e+001 5.794502e+001 4.984937e+001 5.963792e+001 5.999121e+001 4.866116e+001 3.620774e+001 4.414955e+001 3.859331e+001 2.985566e+001 3.290081e+001 3.313838e+000 3.019727e+000 3.492440e+000 3.027213e+000 3.882154e+000 3.844854e+000 3.509199e+000 2.862589e+000 2.865877e+000 2.779808e+000 2.311009e+000 2.159978e+000 3.525123e+000
<GCONST> 1.061047e+002
<STATE> 4
<MEAN> 25
 -6.104570e+000 -2.570639e+000 -6.914205e+000 -6.882839e-001 5.860457e+000 1.587565e+000 3.354368e+000 8.191113e-001 2.339835e+000 -8.549944e-003 9.239582e-001 1.538887e+000 4.598899e-001 2.121315e-001 3.177029e-001 -8.850941e-002 -4.077141e-001 1.530825e-001 -2.230025e-002 -1.788739e-001 -1.727652e-001 -6.442533e-002 2.054958e-002 -1.592362e-001 2.442887e-001
<VARIANCE> 25
 4.269042e+001 4.902090e+001 5.993005e+001 4.758648e+001 5.641643e+001 4.860266e+001 4.453761e+001 3.313212e+001 3.765906e+001 3.189658e+001 2.537035e+001 2.961857e+001 3.337186e+000 2.298612e+000 2.799886e+000 2.641622e+000 2.870875e+000 2.693341e+000 2.901105e+000 2.678143e+000 2.663626e+000 2.330953e+000 2.088449e+000 1.858300e+000 2.539252e+000
<GCONST> 1.027231e+002
<TRANSP> 5
 0.000000e+000 1.000000e+000 0.000000e+000 0.000000e+000 0.000000e+000
 0.000000e+000 6.913022e-001 3.086978e-001 0.000000e+000 0.000000e+000
 0.000000e+000 0.000000e+000 6.960208e-001 3.039792e-001 0.000000e+000
 0.000000e+000 0.000000e+000 0.000000e+000 8.610218e-001 1.389782e-001
 0.000000e+000 0.000000e+000 0.000000e+000 0.000000e+000 0.000000e+000
<ENDHMM>
~h "ng"
<BEGINHMM>
<NUMSTATES> 5
<STATE> 2
<MEAN> 25
 6.373120e+000 -1.207991e+000 2.344679e+000 -2.266015e+000 -3.550488e+000 3.261973e+000 -4.548286e-001 -2.342193e+000 -4.244152e+000 2.542970e+000 -2.624677e+000 -3.261658e+000 1.935844e-001 4.940753e-001 4.900700e-001 4.301097e-001 -3.319005e-001 -8.518096e-002 4.733076e-001 -7.251759e-001 -4.233918e-001 3.667734e-001 -4.190534e-001 3.842964e-001 -5.130228e-001
<VARIANCE> 25
 1.560415e+001 3.895644e+001 4.491684e+001 4.318031e+001 5.503909e+001 4.519048e+001 5.601945e+001 6.890183e+001 5.089904e+001 4.350861e+001 4.466400e+001 4.719225e+001 9.155028e-001 2.095840e+000 3.155778e+000 2.860958e+000 3.490387e+000 2.596870e+000 3.957273e+000 5.528999e+000 4.164002e+000 2.880071e+000 3.393356e+000 3.748876e+000 2.362862e+000
<GCONST> 1.053900e+002
<STATE> 3
<MEAN> 25
 6.566198e+000 -2.844452e-001 3.298639e+000 -1.345298e+000 -4.134384e+000 2.998166e+000 4.779395e-001 -3.601911e+000 -4.802346e+000 2.999343e+000 -3.544519e+000 -2.196050e+000 -4.169751e-002 3.333494e-001 2.166933e-001 3.378580e-001 -3.160161e-002 -1.089766e-001 2.874355e-001 -2.770224e-001 -8.422567e-002 3.121230e-002 -2.389646e-001 3.155083e-001 -4.599710e-001
<VARIANCE> 25
 1.505862e+001 3.339508e+001 3.860186e+001 4.291958e+001 5.201359e+001 4.250473e+001 5.664235e+001 6.535339e+001 4.772239e+001 4.273428e+001 4.393789e+001 4.352133e+001 9.156017e-001 2.108027e+000 2.954254e+000 2.754982e+000 3.724437e+000 2.497094e+000 3.692897e+000 5.544870e+000 3.746661e+000 2.786451e+000 3.150651e+000 3.565038e+000 2.267592e+000
<GCONST> 1.042607e+002
<STATE> 4
<MEAN> 25
 6.290262e+000 2.612653e-001 3.348324e+000 -8.959869e-001 -3.651227e+000 3.315757e+000 2.114002e-001 -3.486305e+000 -4.606815e+000 2.446440e+000 -3.531142e+000 -2.128414e+000 -2.705331e-001 1.753830e-001 -1.766546e-001 2.389543e-001 3.764694e-001 -1.620409e-001 9.559504e-002 1.886021e-001 1.538532e-001 -2.178801e-001 7.588103e-002 5.321236e-002 -4.405773e-001
<VARIANCE> 25
 1.828844e+001 3.642535e+001 3.822348e+001 4.825720e+001 5.683709e+001 4.169552e+001 5.886203e+001 6.500816e+001 4.753937e+001 4.087121e+001 4.239596e+001 3.959077e+001 9.947486e-001 1.941937e+000 2.318477e+000 2.398907e+000 3.354551e+000 2.378052e+000 2.968720e+000 4.318074e+000 3.017692e+000 2.456227e+000 2.513665e+000 2.478953e+000 2.228235e+000
<GCONST> 1.026222e+002
<TRANSP> 5
 0.000000e+000 1.000000e+000 0.000000e+000 0.000000e+000 0.000000e+000
 0.000000e+000 6.095145e-001 3.904855e-001 0.000000e+000 0.000000e+000
 0.000000e+000 0.000000e+000 6.168405e-001 3.831595e-001 0.000000e+000
 0.000000e+000 0.000000e+000 0.000000e+000 7.669689e-001 2.330311e-001
 0.000000e+000 0.000000e+000 0.000000e+000 0.000000e+000 0.000000e+000
<ENDHMM>
~h "ny"
<BEGINHMM>
<NUMSTATES> 5
<STATE> 2
<MEAN> 25
 3.849841e+000 -2.081224e+000 5.378678e+000 -8.406811e-001 -4.691420e+000 -1.973463e+000 -6.439909e-001 4.412062e+000 -3.948948e+000 -3.209520e+000 -7.789894e-001 3.775705e-001 -4.474051e-002 -3.559738e-001 -1.870773e-001 4.120409e-002 1.246341e-001 3.266162e-002 1.326730e-001 5.248150e-001 1.529403e-002 -4.153578e-001 -1.967052e-001 9.323199e-002 1.321640e-001
<VARIANCE> 25
 1.751429e+001 5.009425e+001 3.899210e+001 4.339972e+001 4.755263e+001 2.966734e+001 3.534694e+001 9.664094e+001 5.167545e+001 4.556216e+001 4.002953e+001 3.270235e+001 1.121676e+000 3.925297e+000 2.648573e+000 3.054114e+000 2.866135e+000 2.094722e+000 2.371421e+000 7.655217e+000 3.542707e+000 3.261974e+000 3.118269e+000 2.116390e+000 2.421046e+000
<GCONST> 1.039693e+002
<STATE> 3
<MEAN> 25
 3.636251e+000 -3.233781e+000 4.237148e+000 -6.932022e-001 -3.610293e+000 -1.467391e+000 -5.080763e-001 5.522854e+000 -3.260073e+000 -4.112295e+000 -1.652539e+000 2.830177e-001 -3.584273e-002 -4.301141e-001 -4.467686e-001 2.152515e-002 3.974724e-001 1.731271e-001 -2.254515e-002 3.696111e-001 3.150786e-001 -2.249419e-001 -3.164458e-001 -1.147792e-001 -1.315473e-003
<VARIANCE> 25
 1.731411e+001 5.197017e+001 3.941657e+001 4.006621e+001 5.132401e+001 2.844135e+001 3.482123e+001 9.475784e+001 5.195656e+001 4.629457e+001 3.937235e+001 3.198759e+001 9.104285e-001 3.163894e+000 2.140962e+000 2.513524e+000 2.632461e+000 1.799188e+000 2.117880e+000 6.646393e+000 2.857620e+000 2.894557e+000 2.721477e+000 1.863403e+000 2.143958e+000
<GCONST> 1.018649e+002
<STATE> 4
<MEAN> 25
 1.428935e+000 -2.973222e+000 3.841302e-001 9.522456e-001 6.982181e-001 -2.328605e-001 5.027835e-001 4.968009e+000 -1.250250e+000 -3.483269e+000 -2.572989e+000 -1.621199e-001 -9.134474e-002 -3.196106e-002 -2.897575e-001 6.344792e-002 3.268467e-001 1.127875e-001 2.246296e-003 -2.529626e-002 2.045698e-001 5.326511e-002 -1.101506e-001 -9.122869e-002 -3.673654e-001
<VARIANCE> 25
 2.453552e+001 4.930843e+001 3.707075e+001 3.524913e+001 5.365943e+001 2.571153e+001 3.409030e+001 6.923411e+001 4.357990e+001 3.833754e+001 3.278772e+001 2.866389e+001 5.747852e-001 1.674962e+000 1.321910e+000 1.559195e+000 1.777217e+000 1.463851e+000 1.665874e+000 3.139540e+000 1.981212e+000 1.990688e+000 1.813621e+000 1.431497e+000 1.517300e+000
<GCONST> 9.552222e+001
<TRANSP> 5
 0.000000e+000 1.000000e+000 0.000000e+000 0.000000e+000 0.000000e+000
 0.000000e+000 6.904823e-001 3.095177e-001 0.000000e+000 0.000000e+000
 0.000000e+000 0.000000e+000 6.871141e-001 3.128859e-001 0.000000e+000
 0.000000e+000 0.000000e+000 0.000000e+000 8.868437e-001 1.131563e-001
 0.000000e+000 0.000000e+000 0.000000e+000 0.000000e+000 0.000000e+000
<ENDHMM>
~h "oi"
<BEGINHMM>
<NUMSTATES> 5
<STATE> 2
<MEAN> 25
 4.536542e+000 -1.938689e+000 -5.909057e+000 -8.609926e+000 -5.638420e+000 8.544011e+000 -3.514168e+000 -1.875991e+000 1.852654e+000 -7.536521e-001 3.499668e+000 2.205318e+000 -2.639199e-001 -2.311735e-001 2.324050e-001 -4.982508e-001 -2.420597e-001 5.925687e-002 -2.681129e-001 1.616220e-001 -8.185744e-002 2.861795e-001 1.849304e-001 -2.004521e-001 4.102741e-001
<VARIANCE> 25
 3.964286e+001 2.599886e+001 7.174282e+001 1.054807e+002 6.976673e+001 1.030992e+002 6.261202e+001 5.287357e+001 4.794275e+001 5.340770e+001 3.429321e+001 3.891719e+001 1.000314e+000 1.249113e+000 2.809183e+000 5.736669e+000 3.102612e+000 5.222664e+000 2.929444e+000 2.718416e+000 3.556876e+000 3.565439e+000 2.980244e+000 3.216438e+000 1.772255e+000
<GCONST> 1.070819e+002
<STATE> 3
<MEAN> 25
 3.195118e+000 -2.887750e+000 -2.638371e+000 -7.016839e+000 -6.301405e+000 5.360577e+000 -4.565765e+000 -1.231543e+000 1.095114e+000 2.909452e-001 3.326830e+000 1.025189e+000 -3.366530e-001 -1.491184e-001 6.775850e-001 2.749105e-001 -1.865105e-002 -7.277907e-001 -1.084023e-001 2.078638e-001 -1.620885e-001 1.770492e-001 -1.980128e-001 -2.335393e-001 9.760974e-002
<VARIANCE> 25
 3.458932e+001 2.120232e+001 1.009334e+002 1.105326e+002 6.507493e+001 1.274259e+002 6.301753e+001 5.272953e+001 5.629967e+001 5.230136e+001 3.344177e+001 3.704831e+001 8.732355e-001 1.179684e+000 3.634735e+000 4.545790e+000 3.256387e+000 5.545153e+000 2.833665e+000 2.987273e+000 4.279759e+000 3.978305e+000 2.683267e+000 2.901278e+000 1.279437e+000
<GCONST> 1.071030e+002
<STATE> 4
<MEAN> 25
 -6.948519e-001 -2.016459e+000 -3.106288e+000 -3.254044e+000 -2.016440e+000 3.149295e+000 -4.495403e-001 5.268717e-001 6.058057e-001 -1.501277e-001 1.285490e+000 1.186816e+000 -6.328075e-002 -3.279433e-003 1.554611e-001 2.056610e-001 -6.080670e-004 -5.181181e-001 -4.049314e-002 6.697339e-002 -3.016905e-002 2.047375e-001 -1.767222e-001 -1.383096e-001 1.397622e-002
<VARIANCE> 25
 4.927099e+001 2.490108e+001 6.465056e+001 9.755775e+001 6.178340e+001 9.355575e+001 5.799241e+001 3.853243e+001 4.721749e+001 3.916711e+001 2.309689e+001 3.151872e+001 8.979295e-001 9.593602e-001 2.258739e+000 2.517584e+000 2.192605e+000 3.924806e+000 2.179970e+000 2.290872e+000 2.697204e+000 2.666305e+000 1.642061e+000 1.907378e+000 9.836988e-001
<GCONST> 1.007433e+002
<TRANSP> 5
 0.000000e+000 1.000000e+000 0.000000e+000 0.000000e+000 0.000000e+000
 0.000000e+000 7.774466e-001 2.225534e-001 0.000000e+000 0.000000e+000
 0.000000e+000 0.000000e+000 7.662911e-001 2.337089e-001 0.000000e+000
 0.000000e+000 0.000000e+000 0.000000e+000 8.795701e-001 1.204299e-001
 0.000000e+000 0.000000e+000 0.000000e+000 0.000000e+000 0.000000e+000
<ENDHMM>
~h "sy"
<BEGINHMM>
<NUMSTATES> 5
<STATE> 2
<MEAN> 25
 -1.143675e+001 3.436022e+000 3.000079e+000 8.532941e-001 1.824700e+000 -1.997861e+000 3.182834e+000 9.423727e-001 1.299601e+000 -1.724874e+000 1.045810e+000 3.186759e+000 -2.646251e+000 1.414400e-001 -1.662050e-001 -1.422188e-001 2.382766e-001 2.396192e-001 5.569988e-001 2.214667e-001 4.273669e-001 -1.158880e-001 6.276197e-001 2.675116e-001 -1.687356e-003
<VARIANCE> 25
 1.076372e+002 3.472529e+001 5.415125e+001 3.208569e+001 4.822392e+001 4.194597e+001 4.675597e+001 3.789096e+001 4.375710e+001 2.712913e+001 2.719537e+001 2.312477e+001 7.636737e+000 3.936092e+000 3.187805e+000 2.746305e+000 4.118458e+000 3.213007e+000 4.150535e+000 3.372306e+000 3.010216e+000 2.642896e+000 2.890717e+000 2.099449e+000 1.946060e+000
<GCONST> 1.055856e+002
<STATE> 3
<MEAN> 25
 -1.660913e+001 1.781887e+000 2.504288e+000 -5.506305e-001 8.848457e-001 -1.464684e+000 3.667590e+000 1.228582e+000 2.332282e+000 -1.372448e+000 2.560696e+000 3.674869e+000 -2.425896e-001 -4.215234e-001 1.339272e-003 -2.620320e-001 -3.778293e-001 -1.040154e-001 -1.585168e-001 9.859297e-002 7.249872e-002 3.593355e-002 2.113901e-001 6.554199e-002 2.244738e-001
<VARIANCE> 25
 8.369376e+001 3.211142e+001 4.868230e+001 2.847642e+001 5.437109e+001 3.938623e+001 4.297435e+001 3.294884e+001 3.914457e+001 2.458834e+001 2.390068e+001 2.037421e+001 1.094367e+001 2.277457e+000 2.829083e+000 1.994292e+000 3.247717e+000 2.649366e+000 3.378804e+000 2.417991e+000 2.597963e+000 2.227565e+000 2.377901e+000 1.706518e+000 1.460015e+000
<GCONST> 1.017938e+002
<STATE> 4
<MEAN> 25
 -1.307277e+001 3.826112e-002 1.922812e+000 -6.773209e-001 1.727907e-001 -2.082051e+000 2.458569e+000 1.822282e+000 2.036595e+000 -8.924229e-001 2.475283e+000 3.794332e+000 1.227075e+000 -2.987737e-001 1.968075e-001 -1.004580e-001 -3.973867e-001 -3.119838e-001 -4.127676e-001 1.197043e-001 -4.216830e-002 -5.014363e-002 -1.852691e-001 -1.537474e-001 4.659034e-001
<VARIANCE> 25
 1.057511e+002 3.006246e+001 4.843907e+001 2.772594e+001 5.801577e+001 3.489938e+001 4.105399e+001 3.297346e+001 3.242337e+001 2.422042e+001 2.153934e+001 1.734888e+001 7.925288e+000 1.954994e+000 2.454305e+000 1.795731e+000 2.835907e+000 2.389482e+000 2.934270e+000 2.608106e+000 2.509267e+000 2.012684e+000 2.166343e+000 1.613178e+000 1.598980e+000
<GCONST> 1.001395e+002
<TRANSP> 5
 0.000000e+000 1.000000e+000 0.000000e+000 0.000000e+000 0.000000e+000
 0.000000e+000 7.688097e-001 2.311903e-001 0.000000e+000 0.000000e+000
 0.000000e+000 0.000000e+000 7.799044e-001 2.200956e-001 0.000000e+000
 0.000000e+000 0.000000e+000 0.000000e+000 9.100914e-001 8.990861e-002
 0.000000e+000 0.000000e+000 0.000000e+000 0.000000e+000 0.000000e+000
<ENDHMM>
~h "sil"
<BEGINHMM>
<NUMSTATES> 5
<STATE> 2
<MEAN> 25
 -4.221069e+000 3.822987e-001 -1.419072e+000 2.947912e+000 2.422009e+000 5.409871e-001 3.984218e+000 1.270606e+000 8.015100e-001 -1.226689e-001 5.733514e-001 1.231157e+000 4.325331e-001 2.332222e-001 -2.507215e-001 -1.873428e-001 -1.110745e-001 -1.054356e+000 -6.527104e-001 -6.397655e-001 -2.222132e-001 -4.913476e-001 -9.253304e-002 5.240198e-001 -2.423113e+000
<VARIANCE> 25
 5.485516e+001 3.042790e+001 4.087507e+001 5.039121e+001 4.023469e+001 6.095721e+001 5.598599e+001 5.487379e+001 3.599988e+001 3.219440e+001 3.026584e+001 3.686374e+001 2.603310e+000 2.048730e+000 2.159228e+000 2.505687e+000 2.172811e+000 5.634182e+000 3.404643e+000 4.653031e+000 2.533672e+000 2.884085e+000 2.367079e+000 2.704893e+000 2.050070e+001
<GCONST> 1.064008e+002
<STATE> 3
<MEAN> 25
 -5.776577e+000 2.168892e+000 -2.891189e+000 3.873162e+000 4.197862e+000 -1.016522e+000 5.052034e+000 -4.629405e-001 6.464041e-001 -7.026103e-001 3.122492e-001 2.786960e+000 -4.453462e-002 5.629638e-002 -8.542486e-002 -6.578946e-002 -8.209778e-002 -2.045456e-001 -1.516897e-001 -1.313736e-001 -5.850597e-002 -4.624616e-002 3.391773e-002 1.501794e-002 -4.060626e-003
<VARIANCE> 25
 1.688076e+001 1.945121e+001 1.749901e+001 2.277514e+001 2.296796e+001 2.735616e+001 2.693251e+001 2.926807e+001 2.455083e+001 2.369975e+001 2.111759e+001 1.873833e+001 1.151795e+000 1.081142e+000 1.089635e+000 1.392966e+000 1.471054e+000 2.207466e+000 1.915515e+000 2.165594e+000 1.807710e+000 1.911466e+000 1.760335e+000 1.552847e+000 7.092290e+000
<GCONST> 9.063026e+001
<STATE> 4
<MEAN> 25
 -5.026696e+000 2.500829e+000 -2.571420e+000 3.522666e+000 3.693650e+000 -8.223392e-001 4.446814e+000 8.151894e-001 6.429901e-001 -3.938034e-001 6.476122e-001 2.330984e+000 -1.345664e-002 1.814634e-002 7.802812e-003 3.844997e-003 1.391688e-003 5.068414e-003 5.946513e-003 3.926121e-004 7.577240e-003 1.817268e-002 4.257642e-003 -7.399682e-003 -1.734651e-002
<VARIANCE> 25
 1.130586e+001 1.600911e+001 1.438099e+001 1.944714e+001 1.888914e+001 2.026704e+001 2.413603e+001 2.823721e+001 2.215240e+001 2.048545e+001 1.716918e+001 1.597999e+001 3.127075e-001 6.269541e-001 6.836114e-001 9.817646e-001 1.076092e+000 1.309433e+000 1.345533e+000 1.641657e+000 1.468325e+000 1.487538e+000 1.334345e+000 1.228054e+000 3.860403e-001
<GCONST> 8.041365e+001
<TRANSP> 5
 0.000000e+000 1.000000e+000 0.000000e+000 0.000000e+000 0.000000e+000
 0.000000e+000 8.351396e-001 1.648603e-001 0.000000e+000 0.000000e+000
 0.000000e+000 0.000000e+000 7.492040e-001 2.507960e-001 0.000000e+000
 0.000000e+000 0.000000e+000 0.000000e+000 9.865397e-001 1.346035e-002
 0.000000e+000 0.000000e+000 0.000000e+000 0.000000e+000 0.000000e+000
<ENDHMM>
